{
  "net.0.weight": [
    [
      -0.20733362436294556
    ],
    [
      0.6624619364738464
    ],
    [
      -0.23540444672107697
    ],
    [
      -0.7774187326431274
    ],
    [
      0.41500452160835266
    ],
    [
      -0.6541338562965393
    ],
    [
      0.6431853771209717
    ],
    [
      0.5130158066749573
    ],
    [
      -0.0006347564049065113
    ],
    [
      -0.9105567932128906
    ],
    [
      0.7573094367980957
    ],
    [
      0.8961308598518372
    ],
    [
      0.28854724764823914
    ],
    [
      -0.646433413028717
    ],
    [
      -0.31635668873786926
    ],
    [
      0.14784197509288788
    ],
    [
      0.11845708638429642
    ],
    [
      -0.12158941477537155
    ],
    [
      0.49326059222221375
    ],
    [
      -0.3198210299015045
    ],
    [
      0.7754912972450256
    ],
    [
      -0.49545079469680786
    ],
    [
      0.5422013401985168
    ],
    [
      0.7474656701087952
    ],
    [
      -0.8922150731086731
    ],
    [
      -0.33921125531196594
    ],
    [
      -0.5009266138076782
    ],
    [
      0.24804574251174927
    ],
    [
      0.1026960238814354
    ],
    [
      0.3218277394771576
    ],
    [
      -0.9090759754180908
    ],
    [
      0.09524141997098923
    ],
    [
      0.028664452955126762
    ],
    [
      0.27574193477630615
    ],
    [
      0.4352436065673828
    ],
    [
      0.5736386775970459
    ],
    [
      -0.6213499903678894
    ],
    [
      -0.998989462852478
    ],
    [
      -0.2025076299905777
    ],
    [
      -0.6176123023033142
    ],
    [
      -0.0008874046034179628
    ],
    [
      0.600118100643158
    ],
    [
      0.47140663862228394
    ],
    [
      0.6354712843894958
    ],
    [
      0.15944603085517883
    ],
    [
      0.35022756457328796
    ],
    [
      -0.0014255663845688105
    ],
    [
      -0.0003676200285553932
    ],
    [
      -0.4610665440559387
    ],
    [
      -0.5721616744995117
    ],
    [
      0.4867374002933502
    ],
    [
      0.18441982567310333
    ],
    [
      0.050190865993499756
    ],
    [
      0.2313564568758011
    ],
    [
      -0.9146313071250916
    ],
    [
      -0.9027140140533447
    ],
    [
      0.2860211431980133
    ],
    [
      -0.9782564043998718
    ],
    [
      -0.2829105257987976
    ],
    [
      -0.6546143889427185
    ],
    [
      0.0008916022488847375
    ],
    [
      -0.46980899572372437
    ],
    [
      -0.5538418889045715
    ],
    [
      0.0003076401771977544
    ]
  ],
  "net.0.bias": [
    -0.4515542685985565,
    -0.1359579861164093,
    -0.39372527599334717,
    0.06193297356367111,
    -0.1291150152683258,
    0.5030856728553772,
    -0.8455444574356079,
    -0.1033572182059288,
    -0.0006789598264731467,
    -0.6877722144126892,
    0.07651691883802414,
    -0.8238629698753357,
    0.9992623925209045,
    -0.7829446196556091,
    0.07044394314289093,
    0.6925166845321655,
    0.15260271728038788,
    -0.16982817649841309,
    -0.20380185544490814,
    -0.05294592306017876,
    -0.24966591596603394,
    -0.44642016291618347,
    0.6730707883834839,
    0.6707292795181274,
    0.5826660394668579,
    -0.550132155418396,
    -0.7757049798965454,
    0.26243358850479126,
    -0.44564712047576904,
    -0.3051145672798157,
    -0.22970330715179443,
    0.26720476150512695,
    0.0413132980465889,
    0.49492770433425903,
    0.2619243860244751,
    0.12658853828907013,
    0.7214375734329224,
    -0.7636658549308777,
    0.4968341588973999,
    0.6681352853775024,
    -0.000928221910726279,
    -0.3116898834705353,
    0.22772523760795593,
    -0.9440922141075134,
    0.3997724652290344,
    0.8425061702728271,
    0.0014966253656893969,
    -0.0013908868422731757,
    -0.3525995910167694,
    0.05464492365717888,
    -0.6045123934745789,
    0.6087453961372375,
    0.057070042937994,
    0.5568817257881165,
    -0.6082548499107361,
    -0.6197471022605896,
    0.10997907817363739,
    -0.4873899817466736,
    -0.4777628183364868,
    0.5731597542762756,
    -0.0002546897449065,
    -0.403278112411499,
    -0.7236751914024353,
    -0.003293924266472459
  ],
  "net.2.weight": [
    [
      0.04712196812033653,
      -0.045655298978090286,
      -0.08842923492193222,
      -0.16324269771575928,
      0.024686502292752266,
      -0.21661579608917236,
      0.07778941839933395,
      0.05584726855158806,
      0.029975537210702896,
      -0.0750046819448471,
      0.03679613396525383,
      0.07608607411384583,
      -0.09154240787029266,
      0.0928560420870781,
      -0.143649622797966,
      -0.1346578150987625,
      0.03159870579838753,
      -0.02782265655696392,
      0.036195069551467896,
      0.06769494712352753,
      0.008719207718968391,
      0.04920519143342972,
      0.10618235915899277,
      -0.01429451908916235,
      -0.1408509612083435,
      -0.010940066538751125,
      -0.04889300465583801,
      -0.06008745729923248,
      0.09546247124671936,
      0.06607649475336075,
      0.004709766712039709,
      -0.050406403839588165,
      0.0716826319694519,
      0.013132412917912006,
      -0.09812349081039429,
      0.02322438545525074,
      -0.08143310248851776,
      0.11297638714313507,
      -0.18995270133018494,
      -0.1780531257390976,
      -0.1183403804898262,
      0.043836094439029694,
      0.09889709204435349,
      0.12015953660011292,
      -0.09629016369581223,
      0.08533225208520889,
      0.06289001554250717,
      -0.013341746293008327,
      -0.018269645050168037,
      0.04525366052985191,
      0.09028288722038269,
      0.09052351117134094,
      -0.12627317011356354,
      0.04346498101949692,
      -0.12396090477705002,
      -0.06886331737041473,
      0.09897792339324951,
      -0.11627952009439468,
      0.04569290205836296,
      -0.017238324508070946,
      0.021663721650838852,
      0.07581187784671783,
      -0.08453893661499023,
      0.0747385025024414
    ],
    [
      -0.011223704554140568,
      -0.015979887917637825,
      -0.09790973365306854,
      0.022563446313142776,
      -0.04047093912959099,
      -0.049517810344696045,
      -0.02648947574198246,
      -0.005633542314171791,
      -0.1596968173980713,
      0.06669142842292786,
      0.003320528892800212,
      -0.13173829019069672,
      0.026808785274624825,
      0.07451895624399185,
      -0.08969437330961227,
      -0.00676676444709301,
      0.11818663775920868,
      -0.011182510294020176,
      0.009217370301485062,
      -0.0031557183247059584,
      -0.12950265407562256,
      -0.009600442834198475,
      -0.12315385043621063,
      -0.01708456687629223,
      -0.06242594122886658,
      -0.026858247816562653,
      0.05352363362908363,
      0.05965190380811691,
      -0.11552971601486206,
      0.011275975033640862,
      0.004937987774610519,
      0.12943994998931885,
      0.08947581052780151,
      0.06274700909852982,
      0.020585745573043823,
      0.025808807462453842,
      0.01851464807987213,
      -0.019210707396268845,
      -0.03617612645030022,
      0.04954686015844345,
      -0.025570113211870193,
      0.05193542689085007,
      0.09057130664587021,
      0.09959292411804199,
      -0.011225126683712006,
      -0.017316050827503204,
      -0.0053672767244279385,
      0.06498830765485764,
      0.022341584786772728,
      -0.03330855816602707,
      0.01867608353495598,
      0.01716914214193821,
      0.11044655740261078,
      0.03295419365167618,
      0.004250342957675457,
      0.07878196984529495,
      -0.04228909686207771,
      0.07713400572538376,
      -0.08723209798336029,
      -0.09022782742977142,
      -0.05351319536566734,
      0.07040216773748398,
      0.045937955379486084,
      0.06303742527961731
    ],
    [
      0.007846632041037083,
      0.05757990851998329,
      0.05608554556965828,
      -0.011844035238027573,
      0.012651000171899796,
      0.05775986239314079,
      0.08205666393041611,
      0.12870220839977264,
      -0.06145201995968819,
      0.020793108269572258,
      -0.0069057815708220005,
      -0.04439112916588783,
      0.0033895736560225487,
      0.05102815479040146,
      0.09292995184659958,
      -0.11727778613567352,
      -0.06656147539615631,
      -0.13533549010753632,
      -0.08822429180145264,
      -0.11968472599983215,
      -0.00970312301069498,
      0.011203681118786335,
      0.005983892362564802,
      -0.03401656821370125,
      -0.04413004219532013,
      -0.10774630308151245,
      -0.08122415840625763,
      -0.053437862545251846,
      -0.07118814438581467,
      -0.05152510851621628,
      0.03353683650493622,
      0.06638021022081375,
      0.03732758387923241,
      0.07132667303085327,
      -0.0444926843047142,
      0.05244157835841179,
      0.004121463280171156,
      -0.09458312392234802,
      -0.09661944210529327,
      0.07356931269168854,
      -0.008823391981422901,
      0.020912207663059235,
      -0.01888793706893921,
      0.081601083278656,
      0.08002539724111557,
      0.0835278183221817,
      -0.051840003579854965,
      0.04989698529243469,
      -0.0135286720469594,
      -0.027328504249453545,
      -0.09530308842658997,
      -0.04556110501289368,
      0.010947666130959988,
      -0.047929201275110245,
      0.11618144810199738,
      0.059648968279361725,
      -0.04242656007409096,
      -0.1016049012541771,
      -0.04058784246444702,
      0.09329084306955338,
      -0.054331764578819275,
      -0.06672061234712601,
      -0.06893038749694824,
      -0.03648744150996208
    ],
    [
      -0.014207921922206879,
      -0.11641203612089157,
      -0.035892028361558914,
      -0.01444818265736103,
      0.03498949855566025,
      0.07044366002082825,
      0.06986157596111298,
      -0.005391780752688646,
      0.0643358826637268,
      0.01891595497727394,
      -0.12046800553798676,
      -0.027145322412252426,
      -0.02740628458559513,
      0.10196105390787125,
      0.06698111444711685,
      -0.004314433317631483,
      0.0688469335436821,
      -0.08493945002555847,
      -0.03116362728178501,
      0.03453592583537102,
      -0.06319335103034973,
      0.11550308763980865,
      -0.02345208078622818,
      -0.06958978623151779,
      -0.07261407375335693,
      0.11310522258281708,
      0.06973129510879517,
      -0.0049037029966712,
      -0.08084413409233093,
      -0.048013001680374146,
      0.036249253898859024,
      0.0701998919248581,
      0.10341458022594452,
      -0.2170177549123764,
      0.03849439695477486,
      -0.05831674858927727,
      0.0645090639591217,
      0.19701111316680908,
      -0.0019065593369305134,
      0.08040899783372879,
      0.08120846748352051,
      0.05498338118195534,
      -0.06852170079946518,
      0.14065024256706238,
      -0.0108977435156703,
      -0.044345974922180176,
      -0.11434812098741531,
      0.1179623156785965,
      0.03782305121421814,
      0.1456557810306549,
      0.08933563530445099,
      -0.1648450344800949,
      0.09927273541688919,
      -0.14368407428264618,
      0.11797706037759781,
      0.09085197001695633,
      -0.13863058388233185,
      0.02830672450363636,
      -0.010609717108309269,
      -0.0780414566397667,
      -0.03592609986662865,
      0.10463041812181473,
      0.12509377300739288,
      -0.043558768928050995
    ],
    [
      -0.023926755413413048,
      -0.010941150598227978,
      0.10040128976106644,
      -0.033093344420194626,
      -0.03179670497775078,
      -0.04204936698079109,
      -0.00120162486564368,
      0.046286143362522125,
      0.07252590358257294,
      0.017598025500774384,
      0.040087565779685974,
      0.0026201235596090555,
      -0.0899374857544899,
      -0.10210512578487396,
      -0.05294778570532799,
      0.10896702855825424,
      -0.06613758951425552,
      0.006516254972666502,
      0.03794153407216072,
      0.05618720501661301,
      -0.050891414284706116,
      0.005873612593859434,
      0.04987652227282524,
      -0.03434808552265167,
      -0.05495287850499153,
      -0.05742345377802849,
      0.06110334023833275,
      -0.08126406371593475,
      -0.040696289390325546,
      0.04034633934497833,
      0.07812424749135971,
      0.007112499792128801,
      0.08588782697916031,
      0.07053860276937485,
      0.03289400041103363,
      0.046416692435741425,
      0.0726112574338913,
      -0.0880042091012001,
      0.11045811325311661,
      -0.032328709959983826,
      -0.04097333177924156,
      -0.10679429769515991,
      0.003203255357220769,
      -0.05997753143310547,
      0.10309305042028427,
      -0.03993350267410278,
      -0.02869439497590065,
      -0.1130126416683197,
      0.10401216149330139,
      -0.0867200568318367,
      0.10375937074422836,
      -0.06917711347341537,
      0.09779713302850723,
      0.07755381613969803,
      -0.09321644902229309,
      0.0702052190899849,
      0.12898147106170654,
      0.07250045239925385,
      -0.08328691124916077,
      0.04582051560282707,
      -0.034414853900671005,
      0.005651883780956268,
      0.11052601784467697,
      0.025255857035517693
    ],
    [
      0.0060943253338336945,
      -0.13438726961612701,
      -0.05407220125198364,
      0.1344016194343567,
      -0.18515722453594208,
      0.12168782949447632,
      -0.057232338935136795,
      0.013173066079616547,
      0.018004532903432846,
      0.13780313730239868,
      -0.0592215433716774,
      -0.1563553661108017,
      -0.12547966837882996,
      0.13116708397865295,
      -0.020215490832924843,
      0.1100464016199112,
      -0.11155804991722107,
      -0.04978170990943909,
      -0.11401666700839996,
      -0.015610910952091217,
      -0.08541032671928406,
      -0.009494518861174583,
      -0.15437185764312744,
      -0.15575124323368073,
      0.0897025316953659,
      -0.0355716310441494,
      0.10443906486034393,
      0.0007575885392725468,
      -0.09988594055175781,
      -0.1400763988494873,
      -0.05845736712217331,
      0.09874498099088669,
      0.04401812702417374,
      -0.1622040867805481,
      -0.13141238689422607,
      -0.1831715852022171,
      0.17277546226978302,
      0.05386122316122055,
      0.09652519971132278,
      0.17789198458194733,
      0.052496537566185,
      0.016631560400128365,
      -0.08657649904489517,
      0.07258263975381851,
      -0.009339485317468643,
      -0.10996957123279572,
      -0.02942471392452717,
      -0.08381485193967819,
      0.15639272332191467,
      -0.04942851886153221,
      -0.06407846510410309,
      0.08543767780065536,
      0.0003768891328945756,
      -0.08998522907495499,
      0.09699107706546783,
      0.17567674815654755,
      -0.11173807829618454,
      0.0078043825924396515,
      0.07322965562343597,
      0.06435766071081161,
      -0.01628890261054039,
      -0.010562912560999393,
      0.007853500545024872,
      0.03154255822300911
    ],
    [
      0.08068021386861801,
      0.033258579671382904,
      0.04864730313420296,
      -0.026161519810557365,
      -0.0654778704047203,
      0.036726344376802444,
      0.10972994565963745,
      -0.05410090088844299,
      0.03990316390991211,
      -0.012179732322692871,
      0.08303241431713104,
      -0.09444890916347504,
      0.08379699289798737,
      -0.02514049969613552,
      0.10393396019935608,
      -0.003177522448822856,
      -0.05070000886917114,
      -0.06290365755558014,
      -0.06520920246839523,
      0.029381779953837395,
      -0.08649762719869614,
      0.013894370757043362,
      0.09110990911722183,
      -0.09975206106901169,
      0.08132150024175644,
      -0.07052883505821228,
      0.14125321805477142,
      -0.034686941653490067,
      0.13808736205101013,
      -0.03308119997382164,
      0.036467310041189194,
      0.025755107402801514,
      0.04249737039208412,
      -0.013445636257529259,
      -0.046730801463127136,
      0.10207877308130264,
      -0.12016606330871582,
      0.0013849365059286356,
      -0.022321896627545357,
      -0.046302832663059235,
      -0.06914745271205902,
      0.05477447062730789,
      0.0413433313369751,
      -0.08290433138608932,
      -0.008179579861462116,
      -0.05059369280934334,
      -0.014106526039540768,
      -0.07562389224767685,
      0.08016698062419891,
      0.028179803863167763,
      0.04129926860332489,
      0.10289857536554337,
      -0.056566737592220306,
      0.044832903891801834,
      0.10578279197216034,
      -0.10021097213029861,
      0.0960332378745079,
      -0.06384177505970001,
      0.039467666298151016,
      0.043293826282024384,
      -0.0059339739382267,
      -0.09791475534439087,
      -0.026806175708770752,
      -0.0033923578448593616
    ],
    [
      0.11722034960985184,
      -0.07967544347047806,
      -0.1362379789352417,
      0.10648472607135773,
      -0.1090267151594162,
      0.02794989012181759,
      0.0998941957950592,
      0.08377882093191147,
      0.012705733999609947,
      0.03029761090874672,
      -0.08000459522008896,
      -0.05157475546002388,
      -0.007883875630795956,
      0.04382892698049545,
      -0.09273286163806915,
      -0.018811967223882675,
      -0.03184136375784874,
      -0.03909619152545929,
      0.06109461188316345,
      -0.06378435343503952,
      -0.11207740008831024,
      0.0673767700791359,
      -0.08391833305358887,
      0.02215244621038437,
      -0.016542211174964905,
      -0.13792665302753448,
      -0.016291270032525063,
      0.07427550107240677,
      -0.10492165386676788,
      -0.08411013334989548,
      0.0034113603178411722,
      0.10985395312309265,
      -0.11771006882190704,
      0.10188792645931244,
      0.09237509220838547,
      -0.056980863213539124,
      -0.005088843405246735,
      0.043221365660429,
      -0.05126909911632538,
      -0.06582697480916977,
      0.047800153493881226,
      0.06176922470331192,
      0.004686844069510698,
      -0.05273701623082161,
      0.08324054628610611,
      0.08851563185453415,
      0.01115647703409195,
      -0.10413314402103424,
      -0.09557750821113586,
      -0.09971870481967926,
      -0.0691331997513771,
      0.016802478581666946,
      0.12501931190490723,
      0.08616810292005539,
      -0.0405535027384758,
      0.103671133518219,
      -0.10159970819950104,
      0.05314834043383598,
      -0.061094995588064194,
      0.0012452563969418406,
      -0.009443806484341621,
      -0.05897613614797592,
      -0.016321053728461266,
      0.04962713271379471
    ],
    [
      -0.004428565502166748,
      0.10647273808717728,
      0.09202554821968079,
      -0.06874343007802963,
      0.08948389440774918,
      0.13013342022895813,
      0.011285682208836079,
      0.06783878803253174,
      -0.1200670599937439,
      0.07261104136705399,
      0.10450371354818344,
      -0.09507517516613007,
      -0.12379815429449081,
      0.11016498506069183,
      0.11061416566371918,
      0.11118531227111816,
      0.0764114111661911,
      0.08210647106170654,
      0.1160290464758873,
      0.11050345748662949,
      -0.06889742612838745,
      3.186739922966808e-05,
      -0.05947208032011986,
      0.0013129740254953504,
      -0.07268168777227402,
      0.059033263474702835,
      0.028608568012714386,
      -0.04743003472685814,
      0.11577826738357544,
      -0.11477605998516083,
      -0.0626479908823967,
      -0.08003834635019302,
      -0.08408905565738678,
      -0.035515524446964264,
      0.031176045536994934,
      0.021788673475384712,
      0.14069639146327972,
      0.0631750226020813,
      -0.001692588091827929,
      -0.07878444343805313,
      -0.0683922991156578,
      -0.0727476254105568,
      0.02536076493561268,
      -0.03387416526675224,
      -0.03864077478647232,
      0.05901947617530823,
      -0.07524214684963226,
      0.0014391365693882108,
      0.042911965399980545,
      0.024772804230451584,
      -0.1171678826212883,
      -0.08479699492454529,
      0.12467377632856369,
      -0.025115152820944786,
      -0.09581762552261353,
      -0.0863407701253891,
      0.04081811383366585,
      -0.017130641266703606,
      -0.03465884178876877,
      -0.08945639431476593,
      0.04184667021036148,
      -0.05913740396499634,
      0.07438357174396515,
      -0.03017066791653633
    ],
    [
      -0.0793120339512825,
      0.04337899014353752,
      -0.03116089291870594,
      -0.056668996810913086,
      0.036089446395635605,
      -0.08621200174093246,
      0.06890323758125305,
      0.05754908546805382,
      -0.03073391690850258,
      -0.21557417511940002,
      0.11346954107284546,
      0.16287009418010712,
      0.09989998489618301,
      -0.08157190680503845,
      -0.18949994444847107,
      0.10631412267684937,
      0.1370202898979187,
      0.028037501499056816,
      -0.04472579434514046,
      -0.23210814595222473,
      0.05853867158293724,
      -0.14464585483074188,
      0.1653326153755188,
      0.16843406856060028,
      -0.14825540781021118,
      -0.06726610660552979,
      -0.05533621087670326,
      0.051940251141786575,
      0.08075843751430511,
      0.17717185616493225,
      -0.22016951441764832,
      0.014196144416928291,
      0.006838448345661163,
      -0.05093170702457428,
      0.08701103925704956,
      0.14751684665679932,
      -0.18400807678699493,
      -0.06818720698356628,
      -0.0889757052063942,
      -0.07798676192760468,
      0.09391159564256668,
      0.15091799199581146,
      0.15822948515415192,
      -0.04880823194980621,
      0.0868903398513794,
      0.08715987950563431,
      -0.003884020959958434,
      0.03460779786109924,
      0.007123264949768782,
      -0.26643773913383484,
      -0.05806996300816536,
      0.07453332841396332,
      0.11018208414316177,
      -0.02296166680753231,
      -0.16847170889377594,
      -0.02146104723215103,
      0.14633212983608246,
      -0.1313125342130661,
      -0.06425682455301285,
      -0.28095394372940063,
      -0.06592857837677002,
      -0.20059320330619812,
      -0.029722895473241806,
      0.014803088270127773
    ],
    [
      0.12670885026454926,
      -0.09709029644727707,
      0.11466387659311295,
      0.003907867707312107,
      -0.11263436824083328,
      0.01014829520136118,
      0.08315344899892807,
      -0.07967138290405273,
      0.0017661645542830229,
      -0.09367123991250992,
      0.0325251929461956,
      -0.03026219829916954,
      0.05070522427558899,
      0.0731949508190155,
      0.10077596455812454,
      0.06893400847911835,
      -0.13248102366924286,
      0.01635858230292797,
      -0.004163541365414858,
      -0.09572532027959824,
      0.026400355622172356,
      0.10186446458101273,
      -0.023992925882339478,
      0.08566592633724213,
      0.0393662229180336,
      0.099030040204525,
      -0.054242685437202454,
      -0.015954826027154922,
      0.15179084241390228,
      0.1218709871172905,
      0.017193743959069252,
      -0.01710169017314911,
      0.012097177095711231,
      0.02400902658700943,
      0.07130061835050583,
      -0.023179516196250916,
      0.012597771361470222,
      -0.08472561091184616,
      0.03087751194834709,
      -0.05338514223694801,
      0.10029277950525284,
      -0.036676015704870224,
      0.06060332432389259,
      0.04467003047466278,
      0.019300583750009537,
      0.0881839171051979,
      0.09467534720897675,
      -0.023839985951781273,
      -0.10035903751850128,
      0.07506746053695679,
      0.0020760041661560535,
      -0.11127552390098572,
      -0.06280230730772018,
      -0.08975570648908615,
      0.09805896133184433,
      -0.0006435379618778825,
      -0.0462847575545311,
      -0.07452477514743805,
      0.07597440481185913,
      0.034044619649648666,
      -0.06969545036554337,
      -0.06784234941005707,
      0.044167786836624146,
      -0.01428532786667347
    ],
    [
      0.6810203790664673,
      0.4726034700870514,
      0.8922500610351562,
      0.05620022118091583,
      0.19784878194332123,
      0.08209700882434845,
      0.45936086773872375,
      0.2285241186618805,
      0.00578183913603425,
      0.5414748787879944,
      0.41756922006607056,
      0.4825439453125,
      -0.6974031925201416,
      1.0118001699447632,
      0.029076598584651947,
      -0.4923492670059204,
      -0.25001662969589233,
      0.2060002237558365,
      0.22637896239757538,
      0.15068025887012482,
      0.5378075838088989,
      0.5916657447814941,
      -0.5032214522361755,
      -0.045752666890621185,
      0.09343869984149933,
      0.30410104990005493,
      1.3298648595809937,
      -0.20434997975826263,
      0.40039563179016113,
      0.38050422072410583,
      0.24129807949066162,
      -0.37586817145347595,
      -0.10222291946411133,
      -1.03058660030365,
      0.025780227035284042,
      0.21158674359321594,
      -0.19295553863048553,
      0.41076576709747314,
      -0.1542077511548996,
      0.03862981125712395,
      0.0064807431772351265,
      0.4803687632083893,
      0.05626412108540535,
      0.3541907072067261,
      -0.4016135036945343,
      -0.7553915977478027,
      -0.005645170342177153,
      0.0017181362491101027,
      0.45130789279937744,
      -0.018829086795449257,
      0.4922609329223633,
      -0.5462040901184082,
      0.1155158281326294,
      -0.777629017829895,
      0.48104846477508545,
      0.5225730538368225,
      0.11022841930389404,
      0.22878119349479675,
      0.9241679906845093,
      -0.09206324815750122,
      -0.005218018777668476,
      0.5428034067153931,
      1.1746209859848022,
      0.0037941818591207266
    ],
    [
      0.12439538538455963,
      0.020626094192266464,
      0.09627573937177658,
      0.04564625024795532,
      0.01788225769996643,
      0.04321357607841492,
      0.038280654698610306,
      0.023706739768385887,
      -0.11359162628650665,
      0.295057475566864,
      0.14915455877780914,
      0.20101173222064972,
      -0.20094425976276398,
      0.31159332394599915,
      0.13957937061786652,
      -0.062099017202854156,
      -0.02563689649105072,
      0.06828927993774414,
      0.09561809152364731,
      0.05238527059555054,
      0.19324961304664612,
      0.1857033520936966,
      -0.1480301022529602,
      0.06935790181159973,
      -0.08162406831979752,
      0.1644359827041626,
      0.371011883020401,
      -0.07281938195228577,
      -0.01650790125131607,
      -0.046663008630275726,
      0.10295699536800385,
      -0.11706382781267166,
      0.04486749693751335,
      -0.14437972009181976,
      -0.057085923850536346,
      -0.06524912267923355,
      0.09948348999023438,
      0.2146502435207367,
      -0.07089412957429886,
      -0.038610320538282394,
      -0.012341499328613281,
      0.11739169806241989,
      0.10437024384737015,
      0.1980513036251068,
      -0.06483598053455353,
      -0.11023461818695068,
      -0.1229945570230484,
      0.07819411158561707,
      0.05875508487224579,
      -0.06567002087831497,
      -0.03222484514117241,
      -0.08388139307498932,
      0.020800918340682983,
      -0.1003979817032814,
      0.17112207412719727,
      0.2899206578731537,
      0.0007241010898724198,
      0.22862620651721954,
      0.13848444819450378,
      0.021327612921595573,
      0.06988509744405746,
      0.2453116625547409,
      0.32047075033187866,
      0.1299225240945816
    ],
    [
      0.01488279365003109,
      0.030660687014460564,
      0.17626619338989258,
      0.07834896445274353,
      -0.012310982681810856,
      0.0007465310045517981,
      0.16295525431632996,
      0.13499850034713745,
      -0.0520944818854332,
      0.17729830741882324,
      0.17957864701747894,
      0.22097796201705933,
      -0.2334558665752411,
      0.6877599358558655,
      0.03695676848292351,
      0.043418385088443756,
      0.050478607416152954,
      0.10012982040643692,
      0.05190390348434448,
      0.16528527438640594,
      0.00010361741442466155,
      0.31086161732673645,
      0.06052036210894585,
      0.16959764063358307,
      0.053924065083265305,
      0.12217599898576736,
      0.44856375455856323,
      0.016023363918066025,
      0.0837593525648117,
      0.14784537255764008,
      0.2226492464542389,
      -0.08218748867511749,
      0.026689348742365837,
      -0.011604266241192818,
      -0.07454750686883926,
      -0.030541356652975082,
      0.10234598815441132,
      0.30620822310447693,
      -0.09503325074911118,
      -0.08517441898584366,
      -0.024677922949194908,
      0.13324370980262756,
      0.044598981738090515,
      0.0005447083385661244,
      -0.1478956788778305,
      -0.21290138363838196,
      0.049383703619241714,
      -0.01796909235417843,
      0.23189999163150787,
      0.20069080591201782,
      0.1654209941625595,
      -0.17513450980186462,
      -0.09046107530593872,
      -0.22530169785022736,
      0.17194272577762604,
      0.25121936202049255,
      0.09962012618780136,
      0.31511083245277405,
      0.2166869044303894,
      0.06729267537593842,
      -0.05184361711144447,
      0.0937989354133606,
      0.5475496053695679,
      -0.07691100239753723
    ],
    [
      0.09643463790416718,
      -0.012018835172057152,
      -0.005373265128582716,
      0.05412876605987549,
      0.014770404435694218,
      0.025028131902217865,
      -0.058769118040800095,
      -0.1006447896361351,
      0.05955106392502785,
      0.21730691194534302,
      -0.0254188422113657,
      0.055515214800834656,
      -0.1378859281539917,
      0.29884639382362366,
      0.029489126056432724,
      -0.033266328275203705,
      -0.008834959007799625,
      -0.10352154821157455,
      -0.056333865970373154,
      -0.03530346229672432,
      0.002064507920295,
      0.01606304571032524,
      -0.11356593668460846,
      -0.07356849312782288,
      0.026974806562066078,
      -0.09549369663000107,
      0.007002450525760651,
      0.08908382803201675,
      0.12794309854507446,
      0.1229565367102623,
      -0.038233011960983276,
      -0.09028144180774689,
      0.0922546312212944,
      -0.13341963291168213,
      0.05256618559360504,
      0.010133245959877968,
      0.06669221073389053,
      0.2328595519065857,
      -0.04648831486701965,
      0.04529482126235962,
      -0.03690892085433006,
      -0.008537749759852886,
      -0.056861016899347305,
      0.14273089170455933,
      -0.021165858954191208,
      -0.09425699710845947,
      -0.10061677545309067,
      -0.11340183764696121,
      -0.02513289265334606,
      0.10407757014036179,
      0.0353412851691246,
      0.028376398608088493,
      0.14697164297103882,
      -0.07786893844604492,
      0.24024663865566254,
      0.17476719617843628,
      -0.01009404007345438,
      0.20508450269699097,
      -0.032996777445077896,
      0.07850580662488937,
      0.05536111816763878,
      0.0620432011783123,
      0.21230773627758026,
      0.033831045031547546
    ],
    [
      0.050068922340869904,
      -0.06749753654003143,
      0.06730611622333527,
      0.0932392105460167,
      0.012622778303921223,
      -0.07687699794769287,
      0.06606811285018921,
      -0.013022116385400295,
      -0.10101187229156494,
      0.041883036494255066,
      0.0028323258738964796,
      0.04490695148706436,
      -0.014515253715217113,
      -0.083157017827034,
      -0.09932646155357361,
      -0.04267016798257828,
      -0.02890661545097828,
      -0.04590258747339249,
      -0.09743966162204742,
      0.03672118857502937,
      -0.047977399080991745,
      -0.09829900413751602,
      -0.12631994485855103,
      0.09984149783849716,
      0.0501398928463459,
      0.004508639220148325,
      -0.04961904510855675,
      -0.10041932761669159,
      0.049421731382608414,
      0.0586828775703907,
      -0.08214461803436279,
      0.058799151331186295,
      0.061781298369169235,
      0.0881318524479866,
      0.10385734587907791,
      0.015650475397706032,
      0.020447988063097,
      0.005787055008113384,
      0.032617710530757904,
      -0.060142695903778076,
      0.05464556813240051,
      -0.038164377212524414,
      -0.006799214985221624,
      -0.014485768973827362,
      -0.11307349801063538,
      0.014564038254320621,
      0.037126585841178894,
      0.011667308397591114,
      0.046550601720809937,
      0.013207045383751392,
      0.034536756575107574,
      0.02650642767548561,
      -0.06752100586891174,
      -0.08670710027217865,
      0.05097154900431633,
      -0.10354989022016525,
      -0.04915739223361015,
      0.025937538594007492,
      -0.1005922183394432,
      0.06562311202287674,
      -0.10486013442277908,
      0.015072078444063663,
      0.03322445973753929,
      0.0034883369226008654
    ],
    [
      0.1114591434597969,
      -0.07761819660663605,
      0.10983575135469437,
      0.002005409449338913,
      -0.08874122053384781,
      -0.06488450616598129,
      0.12187016755342484,
      -0.04295232892036438,
      0.04540909081697464,
      -0.09798511862754822,
      0.08789198845624924,
      -0.04517732560634613,
      0.013037911616265774,
      -0.11111366748809814,
      0.11307841539382935,
      0.09826412796974182,
      0.031171930953860283,
      -0.08157868683338165,
      -0.1096682921051979,
      0.008671090006828308,
      -0.10287876427173615,
      0.07152485102415085,
      0.06783589720726013,
      0.001228919019922614,
      0.09392943978309631,
      -0.05058855935931206,
      0.11290346831083298,
      0.036525215953588486,
      0.0267791748046875,
      0.07334049791097641,
      0.07294099777936935,
      0.047196801751852036,
      -0.05215946212410927,
      -0.004818173125386238,
      0.11248131096363068,
      -0.10057931393384933,
      -0.08222845196723938,
      -0.03457564488053322,
      0.09557223320007324,
      -0.09319893270730972,
      0.008679493330419064,
      0.10587777942419052,
      -0.03979596123099327,
      -0.08873084932565689,
      -0.05195126309990883,
      -0.05362681671977043,
      0.054307788610458374,
      0.1134355366230011,
      0.0015255747130140662,
      0.05059591680765152,
      0.10778700560331345,
      0.034616053104400635,
      0.04133060202002525,
      0.04157007485628128,
      0.060506533831357956,
      0.056112032383680344,
      0.12654128670692444,
      -0.049886804074048996,
      0.003271168563514948,
      -0.017800379544496536,
      0.06344062089920044,
      0.08696500211954117,
      -0.02458951808512211,
      -0.04393743351101875
    ],
    [
      -0.02508540078997612,
      0.09834662079811096,
      0.039410483092069626,
      0.1253633350133896,
      -0.06099078059196472,
      -0.0004448972758837044,
      0.03472255915403366,
      0.09081815183162689,
      -0.08659423142671585,
      -0.04225333407521248,
      -0.13875193893909454,
      0.062185969203710556,
      -0.17933589220046997,
      0.16886642575263977,
      0.01325084175914526,
      -0.003603405086323619,
      -0.11969107389450073,
      0.028402036055922508,
      0.11336561292409897,
      0.07188566774129868,
      -0.13909301161766052,
      -0.05285964533686638,
      -0.020700067281723022,
      -0.13086482882499695,
      0.07279511541128159,
      0.043002866208553314,
      0.040672942996025085,
      0.026954300701618195,
      0.08013065159320831,
      0.03642065450549126,
      -0.04585731774568558,
      -0.02976946532726288,
      0.018893148750066757,
      -0.07586923986673355,
      0.09176088124513626,
      -0.0769619569182396,
      0.08117424696683884,
      -0.028645109385252,
      -0.062058400362730026,
      -0.023229530081152916,
      -0.03921528160572052,
      -0.11978022009134293,
      0.07264944911003113,
      -0.023561038076877594,
      0.06409728527069092,
      0.033669136464595795,
      -0.07516705989837646,
      0.04253470525145531,
      0.07664994895458221,
      0.02539783902466297,
      0.007277891971170902,
      0.02801453322172165,
      0.1096142902970314,
      0.06030549481511116,
      -0.010102937929332256,
      0.0021531982347369194,
      0.0806245431303978,
      0.04843612015247345,
      0.030930986627936363,
      0.028308987617492676,
      -0.1153285950422287,
      0.11436687409877777,
      0.1535961776971817,
      0.07502995431423187
    ],
    [
      -0.03218120336532593,
      -0.0017874425975605845,
      0.08022962510585785,
      0.1442423015832901,
      0.011385487392544746,
      0.15433552861213684,
      0.031285520642995834,
      -0.032044850289821625,
      -0.036461520940065384,
      0.13416258990764618,
      -0.10208332538604736,
      -0.04701714962720871,
      0.03288953751325607,
      0.03655943274497986,
      0.04498475790023804,
      0.014731528237462044,
      -0.04336988925933838,
      0.07208379358053207,
      0.062432825565338135,
      -0.06371062994003296,
      -0.13460667431354523,
      -0.005633242428302765,
      -0.09802284091711044,
      -0.2090446799993515,
      0.16282550990581512,
      -0.07857386022806168,
      0.11463291198015213,
      -0.02258121594786644,
      -0.028590044006705284,
      0.049385592341423035,
      0.07489537447690964,
      -0.01873178966343403,
      -0.11138063669204712,
      0.004292601253837347,
      -0.17251674830913544,
      -0.12910179793834686,
      0.16534863412380219,
      0.2023392766714096,
      -0.03035765327513218,
      0.17001985013484955,
      -0.043168287724256516,
      -0.021698273718357086,
      -0.06325259804725647,
      -0.0575186163187027,
      0.026485979557037354,
      0.037674207240343094,
      -0.10673470795154572,
      -0.024328650906682014,
      0.0254867784678936,
      0.04463304206728935,
      -0.04776972159743309,
      0.04613075032830238,
      -0.03591529652476311,
      -0.06985841691493988,
      0.19665254652500153,
      0.13770432770252228,
      0.015440934337675571,
      0.13099545240402222,
      0.149594247341156,
      0.07931514084339142,
      -0.06002398580312729,
      0.011474032886326313,
      0.16136585175991058,
      0.037832099944353104
    ],
    [
      -0.14017006754875183,
      0.10984230041503906,
      -0.10126905143260956,
      -0.12017186731100082,
      0.00021746332640759647,
      -0.059359144419431686,
      0.1526043862104416,
      0.06781484931707382,
      -0.07513412833213806,
      -0.16078776121139526,
      0.10790742933750153,
      0.14703701436519623,
      0.0007983547984622419,
      -0.05638900771737099,
      -0.12169770896434784,
      -0.05108257383108139,
      0.0035308762453496456,
      -0.0074152955785393715,
      0.13018034398555756,
      -0.023877635598182678,
      0.0762290209531784,
      -0.17276042699813843,
      0.0034022717736661434,
      0.04683878645300865,
      -0.20889315009117126,
      -0.006983316503465176,
      0.06024778634309769,
      0.027374787256121635,
      0.06565255671739578,
      0.09687482565641403,
      0.00327815068885684,
      -0.10268662869930267,
      0.0008016956853680313,
      0.06461546570062637,
      0.11070466041564941,
      0.15749476850032806,
      -0.18606393039226532,
      0.042365219444036484,
      0.06358405947685242,
      -0.15836356580257416,
      -0.08469969779253006,
      -5.691824480891228e-05,
      0.1264355182647705,
      -0.026204753667116165,
      0.11857154965400696,
      0.08140359073877335,
      -0.0678294450044632,
      -0.061943329870700836,
      -0.14674325287342072,
      -0.11398878693580627,
      0.038769230246543884,
      0.03294310346245766,
      -0.06824098527431488,
      0.1202351450920105,
      -0.11130910366773605,
      -0.10227140784263611,
      0.15563392639160156,
      -0.12012727558612823,
      0.05834329500794411,
      -0.05337091162800789,
      0.0913017988204956,
      0.03023526258766651,
      0.042006831616163254,
      0.0282791368663311
    ],
    [
      0.1295337975025177,
      -0.11178777366876602,
      0.027866829186677933,
      0.10441812127828598,
      -0.04079541191458702,
      -0.05862784385681152,
      -0.06985580176115036,
      0.06753336638212204,
      0.0751233696937561,
      -0.021623678505420685,
      -0.07057037949562073,
      -0.09018902480602264,
      0.024812180548906326,
      0.05324854701757431,
      -0.11982479691505432,
      -0.05784264951944351,
      -0.08629745244979858,
      0.10865101218223572,
      -0.09435101598501205,
      0.024345537647604942,
      0.11536648869514465,
      -0.011697852052748203,
      0.10217701643705368,
      0.07442499697208405,
      0.03426829352974892,
      -0.06115197762846947,
      0.0522635355591774,
      -0.1059776246547699,
      0.11510661244392395,
      0.08765248954296112,
      0.09844992309808731,
      -0.027068249881267548,
      0.05138179659843445,
      0.01965535804629326,
      0.0286716278642416,
      0.0009480177541263402,
      -0.1135842353105545,
      0.0366804264485836,
      0.06563998013734818,
      0.08551177382469177,
      -0.047987181693315506,
      0.042692285031080246,
      -0.04630564525723457,
      -0.0020836680196225643,
      0.045870739966630936,
      -0.07224500179290771,
      0.033669836819171906,
      -0.07639094442129135,
      0.030095184221863747,
      0.11391434818506241,
      0.1355198174715042,
      -0.08020893484354019,
      0.07071290910243988,
      -0.048588722944259644,
      -0.07811969518661499,
      -0.022989334538578987,
      0.023084476590156555,
      -0.042189568281173706,
      -0.05063315108418465,
      -0.08053377270698547,
      -0.05431424081325531,
      -0.06593866646289825,
      -0.055752288550138474,
      -0.13577871024608612
    ],
    [
      0.04212804138660431,
      -0.03994404524564743,
      0.11916772276163101,
      -0.07753795385360718,
      -0.10539090633392334,
      0.012875702232122421,
      -0.0017589866183698177,
      -0.05951421335339546,
      -0.11194382607936859,
      -0.07482201606035233,
      -0.055730320513248444,
      -0.0009082883480004966,
      -0.012906939722597599,
      -0.0194859616458416,
      -0.007530837319791317,
      0.024955054745078087,
      0.058050092309713364,
      0.0024393093772232533,
      0.07947620749473572,
      0.033902764320373535,
      -0.04606005549430847,
      0.09714926034212112,
      0.0645165890455246,
      -0.011417497880756855,
      0.06673355400562286,
      -0.04956495761871338,
      -0.034248776733875275,
      0.11575982719659805,
      0.11309293657541275,
      -0.06342795491218567,
      0.041211362928152084,
      0.0758620873093605,
      -0.07026856392621994,
      -0.17050576210021973,
      -0.06718268990516663,
      -0.04098186269402504,
      -0.10516408830881119,
      0.004458574578166008,
      0.06852900236845016,
      0.004027514718472958,
      -0.11954696476459503,
      0.06743103265762329,
      -0.1001233458518982,
      -0.06769963353872299,
      0.05924539268016815,
      -0.09410017728805542,
      -0.05349678173661232,
      -0.021668098866939545,
      -0.020383642986416817,
      0.10505539923906326,
      -0.07252375781536102,
      -0.006385456304997206,
      -0.05177164450287819,
      -0.06264384835958481,
      -0.07689496129751205,
      -0.011642624624073505,
      0.03300383687019348,
      -0.061469368636608124,
      0.028535673394799232,
      0.09190218895673752,
      -0.040237732231616974,
      0.04130881652235985,
      -0.006476257927715778,
      0.07286780327558517
    ],
    [
      -0.11597943305969238,
      -0.09425374865531921,
      -0.12695077061653137,
      7.548296707682312e-05,
      -0.02836007997393608,
      -0.02426152117550373,
      -0.03332940861582756,
      -0.04613490402698517,
      -0.12174304574728012,
      0.02876134216785431,
      0.07106632739305496,
      -0.14968939125537872,
      -0.0008247619844041765,
      0.0233529694378376,
      0.08135897666215897,
      0.0807943195104599,
      0.01789228431880474,
      -0.08714799582958221,
      -0.11775564402341843,
      0.08091307431459427,
      0.03540479391813278,
      0.0624067485332489,
      0.06280296295881271,
      0.0551736019551754,
      -0.001120300847105682,
      0.03147435933351517,
      0.11163147538900375,
      0.12846632301807404,
      0.1274663656949997,
      0.012620886787772179,
      -0.10164786875247955,
      -0.059155870229005814,
      -0.033677611500024796,
      -0.029942017048597336,
      0.03663955628871918,
      0.028508633375167847,
      0.05230502784252167,
      0.08577068895101547,
      0.12071691453456879,
      0.03060068190097809,
      -0.07613866031169891,
      0.07494363933801651,
      -0.021473975852131844,
      0.06170591339468956,
      0.007967550307512283,
      -0.10685236752033234,
      -0.08303794264793396,
      0.08639906346797943,
      -0.008571828715503216,
      0.09699619561433792,
      0.028357913717627525,
      0.09860579669475555,
      0.1491561233997345,
      -0.1133846789598465,
      0.006846452597528696,
      -0.12117238342761993,
      0.04660126566886902,
      -0.028581280261278152,
      0.09253989905118942,
      -0.08314981311559677,
      0.14801675081253052,
      0.06451103091239929,
      -0.06398466974496841,
      -0.032371241599321365
    ],
    [
      0.0892188623547554,
      -0.0722147673368454,
      0.1008269265294075,
      -0.11484208703041077,
      -0.09035837650299072,
      0.03282458707690239,
      0.14184308052062988,
      -0.07732678204774857,
      0.004841079469770193,
      0.053195711225271225,
      0.11060527712106705,
      0.007805476896464825,
      0.02981465496122837,
      -0.015271669253706932,
      -0.08074416220188141,
      -0.08325428515672684,
      0.025130148977041245,
      -0.07645215094089508,
      0.01932142861187458,
      -0.01989540457725525,
      0.04457922279834747,
      0.06381742656230927,
      -0.13556355237960815,
      -0.02343318983912468,
      -0.1162445917725563,
      -0.02888350747525692,
      0.014655252918601036,
      0.07056883722543716,
      -0.05507637932896614,
      -0.08023799955844879,
      -0.07983274757862091,
      -0.0049330391921103,
      0.0779041200876236,
      0.049781378358602524,
      0.05716975778341293,
      -0.07663094252347946,
      0.0933200791478157,
      0.010471661575138569,
      -0.12804315984249115,
      0.07216674834489822,
      0.00759953772649169,
      0.06077977642416954,
      -0.0007326131453737617,
      0.03670409694314003,
      0.0026647206395864487,
      0.012377304024994373,
      -0.06814097613096237,
      0.001946241594851017,
      -0.09916403889656067,
      0.04750620946288109,
      -0.07593261450529099,
      0.054657015949487686,
      0.09284372627735138,
      0.04488499090075493,
      0.010025995783507824,
      0.01615423709154129,
      -0.004404748324304819,
      0.013817672617733479,
      0.10176092386245728,
      0.08800102025270462,
      0.04461817443370819,
      0.009376139380037785,
      -0.011749012395739555,
      0.10315965861082077
    ],
    [
      0.011473122052848339,
      0.11828907579183578,
      0.05969442054629326,
      0.03813515976071358,
      -0.035336773842573166,
      -0.01335859578102827,
      0.19123969972133636,
      0.04125698655843735,
      0.0189854446798563,
      -0.09577301144599915,
      -0.012228632345795631,
      0.19526541233062744,
      -0.05757726728916168,
      0.1446278691291809,
      -0.1279788315296173,
      -0.042422354221343994,
      0.09189349412918091,
      0.14296023547649384,
      0.03896714746952057,
      0.01611119508743286,
      0.04199209064245224,
      -0.0736398920416832,
      0.058968402445316315,
      0.04335103929042816,
      -0.17149889469146729,
      -0.024922100827097893,
      0.14604730904102325,
      -0.005310500506311655,
      0.09268347173929214,
      0.136288583278656,
      -0.14254117012023926,
      -0.0179339200258255,
      -0.0004031597054563463,
      -0.06655624508857727,
      0.08837170898914337,
      0.07622581720352173,
      -0.044107165187597275,
      -0.10098285228013992,
      -0.04636590555310249,
      -0.1930597722530365,
      0.04737360402941704,
      0.07352554053068161,
      -0.06945467740297318,
      0.007473253645002842,
      -0.06319751590490341,
      -0.07421033084392548,
      0.054456111043691635,
      -0.08976393938064575,
      -0.0410921573638916,
      -0.062213920056819916,
      0.06048395112156868,
      0.05528739467263222,
      0.013427544385194778,
      -0.002220712834969163,
      -0.08347691595554352,
      -0.026529666036367416,
      -0.026135312393307686,
      -0.0972493514418602,
      -0.01486225426197052,
      0.0165045615285635,
      -0.12135396152734756,
      0.003841184778138995,
      0.006472254171967506,
      0.0387858971953392
    ],
    [
      0.034155264496803284,
      0.11424831300973892,
      0.013771956786513329,
      0.1744348555803299,
      0.032702282071113586,
      -0.002247423632070422,
      0.06389280408620834,
      0.006996136624366045,
      -0.018316857516765594,
      0.2548942267894745,
      -0.08022747933864594,
      0.0024690984282642603,
      -0.1969323754310608,
      0.2864462733268738,
      0.07483877241611481,
      -0.1083722934126854,
      0.15013481676578522,
      0.02293875440955162,
      0.03911286219954491,
      -0.06416922807693481,
      0.054364755749702454,
      0.19272561371326447,
      -0.151558056473732,
      0.0030324740801006556,
      -0.03601086139678955,
      0.1622496396303177,
      0.2559244930744171,
      0.0968567356467247,
      -0.08947981894016266,
      0.12989765405654907,
      0.14823803305625916,
      -0.04249347001314163,
      -0.04257412254810333,
      0.035085808485746384,
      0.06321879476308823,
      0.11772993206977844,
      -0.017706695944070816,
      0.1409359872341156,
      0.10372114181518555,
      -0.0014543244615197182,
      -0.080430768430233,
      0.15752103924751282,
      0.019015301018953323,
      0.13269124925136566,
      -0.05469896271824837,
      -0.07885979115962982,
      -0.03502480685710907,
      0.04632525146007538,
      0.07686572521924973,
      0.15165801346302032,
      0.0700894370675087,
      -0.039406098425388336,
      -0.04124430939555168,
      -0.18352577090263367,
      0.11707794666290283,
      0.25769224762916565,
      -0.04042243957519531,
      0.1756046861410141,
      0.12943442165851593,
      0.06128567457199097,
      0.11929390579462051,
      0.08373252302408218,
      0.4047871530056,
      0.003048944054171443
    ],
    [
      0.0940491333603859,
      -0.11906904727220535,
      -0.030302628874778748,
      -0.00036255872691981494,
      -0.058012593537569046,
      -0.08301807194948196,
      0.12670224905014038,
      0.008714748546481133,
      -0.004379850812256336,
      0.12085327506065369,
      0.022607726976275444,
      -0.07399317622184753,
      0.04557548835873604,
      -0.06999988853931427,
      -0.08176407963037491,
      -0.08360856771469116,
      0.08944272249937057,
      -0.020983006805181503,
      -0.08013008534908295,
      -0.06840480118989944,
      0.09053190797567368,
      -0.10726821422576904,
      0.08177126944065094,
      0.04362676292657852,
      0.07386057823896408,
      0.04344070330262184,
      -0.07508739084005356,
      0.07123284786939621,
      0.1181144043803215,
      -0.056023970246315,
      0.05707639455795288,
      -0.1105259358882904,
      -0.06504885852336884,
      0.11199622601270676,
      0.08071105182170868,
      0.122623510658741,
      0.059411726891994476,
      0.08050201088190079,
      0.04256364330649376,
      0.060300715267658234,
      -0.013859082944691181,
      -0.06052377447485924,
      -0.10619168728590012,
      0.016881825402379036,
      0.054588280618190765,
      -0.11535494029521942,
      0.015393409878015518,
      -0.041959475725889206,
      -0.07117936760187149,
      -0.0740881860256195,
      -0.10297679156064987,
      -0.12171153724193573,
      -0.08285820484161377,
      -0.08109074831008911,
      -0.12075415253639221,
      0.04184865579009056,
      -0.006046634633094072,
      -0.09873203188180923,
      0.032994214445352554,
      -0.012814408168196678,
      0.08385331183671951,
      0.11679443717002869,
      -0.08762940764427185,
      0.056109026074409485
    ],
    [
      0.07715492695569992,
      -0.06423419713973999,
      -0.1161605641245842,
      0.044773396104574203,
      0.012884970754384995,
      -0.1406249850988388,
      -0.012786775827407837,
      0.12646527588367462,
      -0.09913270175457001,
      -0.0031968816183507442,
      0.010004778392612934,
      -0.08158902823925018,
      0.018944423645734787,
      0.04099471494555473,
      0.05434215068817139,
      -0.06735464930534363,
      0.10558438301086426,
      -0.10275838524103165,
      0.16490159928798676,
      0.07051444798707962,
      0.003569063963368535,
      -0.0619359090924263,
      -0.015626471489667892,
      0.13030943274497986,
      0.0908014103770256,
      0.019300971180200577,
      0.10890119522809982,
      -0.0029585848096758127,
      0.08775994181632996,
      0.12942059338092804,
      -0.01857575960457325,
      -0.03904411569237709,
      -0.0422089658677578,
      -0.05035416781902313,
      0.022979890927672386,
      -0.040171194821596146,
      0.007166488096117973,
      -0.04334469884634018,
      0.015471065416932106,
      0.07902874052524567,
      0.1425388604402542,
      0.023704225197434425,
      0.11381427198648453,
      -0.00952543132007122,
      0.05392992123961449,
      -0.09149699658155441,
      0.015402808785438538,
      0.005176144186407328,
      0.07372906059026718,
      0.07351696491241455,
      0.14524202048778534,
      0.03800739720463753,
      0.21044635772705078,
      -0.13441991806030273,
      0.12100308388471603,
      0.011484707705676556,
      -0.0007425144431181252,
      0.051104556769132614,
      0.01249760389328003,
      -0.07290303707122803,
      0.06441579014062881,
      0.03255990520119667,
      0.09073808789253235,
      -0.11766982078552246
    ],
    [
      0.03032228909432888,
      -0.011018054559826851,
      -0.0407627634704113,
      0.08941453695297241,
      0.04643292725086212,
      -0.052672795951366425,
      0.13356654345989227,
      -0.018047282472252846,
      0.02366969734430313,
      0.12318398058414459,
      0.03318744897842407,
      0.08794110268354416,
      -0.1714271456003189,
      0.33973681926727295,
      0.1166156530380249,
      -0.08919162303209305,
      -0.022540051490068436,
      0.04476746916770935,
      0.10921991616487503,
      0.0019243891583755612,
      -0.06161990389227867,
      0.04283105581998825,
      0.02915898524224758,
      -0.0837872102856636,
      0.06609930098056793,
      0.08998434990644455,
      0.24501244723796844,
      -0.09505227208137512,
      0.07080329209566116,
      0.1164531260728836,
      -0.012455688789486885,
      -0.027787648141384125,
      -0.10838010162115097,
      0.02385851740837097,
      0.11513853073120117,
      -0.10787010192871094,
      -0.030745066702365875,
      0.14913097023963928,
      0.05807099491357803,
      -0.04160117357969284,
      -0.016402244567871094,
      0.08906751126050949,
      -0.12444357573986053,
      0.13904428482055664,
      -0.08959897607564926,
      -0.09770068526268005,
      -0.016343936324119568,
      0.0263790562748909,
      -0.004084642510861158,
      -0.0419745072722435,
      -0.050290364772081375,
      -0.04579363018274307,
      0.050570372492074966,
      -0.15106059610843658,
      0.23287533223628998,
      0.05983709543943405,
      -0.08691295981407166,
      0.17852340638637543,
      0.04947473853826523,
      0.08506283164024353,
      -0.014737536199390888,
      0.1765744835138321,
      0.17135822772979736,
      0.07668229192495346
    ],
    [
      -0.05877821892499924,
      -0.07248929888010025,
      -0.055430859327316284,
      -0.04778841882944107,
      -0.00867766048759222,
      -0.012002031318843365,
      -0.0546514168381691,
      -0.05133143439888954,
      -0.10188853740692139,
      0.08510717004537582,
      0.0893898606300354,
      -0.019586309790611267,
      -0.009992682375013828,
      0.0303999874740839,
      -0.07412762194871902,
      0.10060354322195053,
      0.003788337577134371,
      0.05343333259224892,
      -0.010412916541099548,
      0.019268697127699852,
      0.06569547951221466,
      -0.09357600659132004,
      0.004315126687288284,
      0.026044365018606186,
      0.029975710436701775,
      0.05497940629720688,
      -0.07286018878221512,
      -0.006929544731974602,
      -0.07460595667362213,
      -0.022345151752233505,
      -0.0863359346985817,
      -0.08537859469652176,
      0.12809842824935913,
      0.10547646880149841,
      -0.012072286568582058,
      -0.10399243980646133,
      -0.07000020146369934,
      0.03755219653248787,
      0.06359247118234634,
      0.0171341635286808,
      0.13305282592773438,
      -0.03867407143115997,
      -0.033563751727342606,
      0.014688023366034031,
      0.053169991821050644,
      -0.11091258376836777,
      0.0491376630961895,
      0.12257954478263855,
      -0.10392247140407562,
      0.13380779325962067,
      -0.14632593095302582,
      0.12449420988559723,
      -0.027195759117603302,
      0.08712133765220642,
      0.09942389279603958,
      -0.11217407137155533,
      -0.08500385284423828,
      0.04749682545661926,
      0.0010550189763307571,
      -0.06801900267601013,
      0.07149246335029602,
      0.055955104529857635,
      0.09339480102062225,
      0.028331173583865166
    ],
    [
      0.12130828201770782,
      -0.03768244385719299,
      -0.022919537499547005,
      -0.010786009952425957,
      0.07854925096035004,
      -0.05649680271744728,
      0.04236895218491554,
      -0.05944324657320976,
      0.018536880612373352,
      -0.1369437873363495,
      0.14225570857524872,
      0.18017548322677612,
      0.0841732919216156,
      0.05219680070877075,
      0.023385848850011826,
      -0.06001025065779686,
      -0.001948024146258831,
      -0.08903121948242188,
      -0.0022924672812223434,
      -0.022471599280834198,
      0.13672563433647156,
      0.033760689198970795,
      0.12824931740760803,
      -0.013994105160236359,
      -0.07288233935832977,
      -0.064154252409935,
      0.11712945997714996,
      0.0645642802119255,
      -0.0311849657446146,
      0.04147566109895706,
      -0.12696966528892517,
      0.060374319553375244,
      -0.1534697413444519,
      -0.08636360615491867,
      0.04172016307711601,
      0.09693510085344315,
      -0.02962326817214489,
      -0.12926682829856873,
      -0.12454292178153992,
      -0.20777784287929535,
      0.11419835686683655,
      0.12688089907169342,
      -0.059792518615722656,
      0.14512984454631805,
      -0.07548588514328003,
      0.04034595191478729,
      0.0183258093893528,
      0.05278563126921654,
      -0.10162291675806046,
      -0.18145246803760529,
      0.2322167009115219,
      0.0918411985039711,
      0.10737479478120804,
      -0.09369956701993942,
      0.0844307392835617,
      0.08772096037864685,
      0.03335164859890938,
      -0.14222684502601624,
      0.07913675904273987,
      -0.20203812420368195,
      -0.020227983593940735,
      -0.1171034649014473,
      0.036654822528362274,
      -0.05939989164471626
    ],
    [
      -0.12746617197990417,
      0.09183892607688904,
      -0.07356014102697372,
      -0.020170146599411964,
      0.03499624878168106,
      -0.06730189919471741,
      5.0201146223116666e-05,
      -0.07805492728948593,
      -0.012224070727825165,
      -0.03182245045900345,
      -0.09155473113059998,
      -0.031080901622772217,
      -0.07041745632886887,
      0.030934447422623634,
      -0.023688767105340958,
      0.015310279093682766,
      0.1158316507935524,
      -0.09590180218219757,
      -0.10935871303081512,
      -0.012451691552996635,
      -0.05140117555856705,
      -0.09405484050512314,
      -0.0626436099410057,
      0.12101511657238007,
      0.1247473731637001,
      0.06612695008516312,
      -0.038629911839962006,
      0.05235008895397186,
      0.09725555032491684,
      0.009266636334359646,
      -0.06648185849189758,
      0.025507740676403046,
      -0.09907443821430206,
      0.03203710541129112,
      0.05775202810764313,
      0.09924989193677902,
      -0.09265115112066269,
      -0.009623200632631779,
      0.028696533292531967,
      0.04263561591506004,
      -0.01298855897039175,
      -0.07891412079334259,
      0.009237011894583702,
      0.12134059518575668,
      -0.09026169776916504,
      0.06956548988819122,
      -0.09497078508138657,
      -0.143229141831398,
      0.011545454151928425,
      -0.07401389628648758,
      -0.06861437857151031,
      -0.023373378440737724,
      -0.07384663075208664,
      -0.017590953037142754,
      -0.09266538918018341,
      0.09749817103147507,
      0.003557483898475766,
      0.07209129631519318,
      0.05953182280063629,
      0.12300729751586914,
      -0.052981119602918625,
      0.03515910729765892,
      -0.014099789783358574,
      -0.06995204091072083
    ],
    [
      0.2091442197561264,
      -0.05145454779267311,
      0.05012142285704613,
      0.08635640144348145,
      0.029824666678905487,
      -0.04434990882873535,
      0.1617085039615631,
      0.11345886439085007,
      0.1147017851471901,
      0.2818854749202728,
      0.11353006213903427,
      0.03130272403359413,
      -0.04063495993614197,
      0.27772873640060425,
      -0.07623465359210968,
      -0.0016702130669727921,
      -0.07605313509702682,
      -0.06934293359518051,
      0.013862090185284615,
      0.025572847574949265,
      0.06340233981609344,
      0.011918404139578342,
      -0.05094046890735626,
      -0.0819249302148819,
      0.05603456124663353,
      -0.007616962306201458,
      0.12106494605541229,
      -0.04520763084292412,
      0.1108202412724495,
      0.015956491231918335,
      0.10849302262067795,
      -0.12030095607042313,
      -0.12988926470279694,
      -0.13912655413150787,
      0.007355957757681608,
      -0.06646904349327087,
      -0.06453436613082886,
      0.1938716471195221,
      -0.01054426096379757,
      0.04129765182733536,
      -0.04601240158081055,
      -0.08621884882450104,
      -0.12870295345783234,
      0.1730698049068451,
      -0.08106543123722076,
      -0.010205453261733055,
      0.10186328738927841,
      -0.06700961291790009,
      0.1425761878490448,
      0.11404275894165039,
      -0.014767084270715714,
      -0.1166175976395607,
      0.07580121606588364,
      0.01804518885910511,
      0.25908607244491577,
      0.10501570999622345,
      -0.0001249633205588907,
      0.2176031768321991,
      0.04128019139170647,
      -0.06473761796951294,
      -0.08992138504981995,
      0.20647010207176208,
      0.38385629653930664,
      -0.07125925272703171
    ],
    [
      -0.07552456855773926,
      -0.1537153422832489,
      0.010873978957533836,
      0.08701412379741669,
      0.08552198857069016,
      0.11290243268013,
      -0.05976507067680359,
      -0.006082325242459774,
      0.004161912947893143,
      0.08513002097606659,
      -0.1309007853269577,
      -0.0709206610918045,
      0.061302606016397476,
      0.07183584570884705,
      0.01275785081088543,
      0.08784852176904678,
      0.045344334095716476,
      0.052452731877565384,
      -0.03756460174918175,
      0.10509912669658661,
      0.048535168170928955,
      0.21169999241828918,
      -0.1874951273202896,
      -0.21082095801830292,
      -0.05506606772542,
      -0.053598809987306595,
      0.12440335750579834,
      0.05704525485634804,
      0.08234575390815735,
      0.01158261951059103,
      0.016478730365633965,
      0.0923214852809906,
      0.12242640554904938,
      -0.11408950388431549,
      -0.09998120367527008,
      -0.06977224349975586,
      -0.08779995143413544,
      0.14133651554584503,
      0.04954204335808754,
      -0.04340245574712753,
      0.015122396871447563,
      0.009917940013110638,
      -0.07819055020809174,
      0.0919688418507576,
      0.0715794637799263,
      -0.10251032561063766,
      0.03247804939746857,
      -0.05489339679479599,
      0.0900447890162468,
      0.11535617709159851,
      -0.07334218919277191,
      -0.09327787160873413,
      0.04160035029053688,
      -0.15370161831378937,
      -0.041033919900655746,
      -0.002349213929846883,
      -0.10655345767736435,
      0.1866188794374466,
      0.10382144153118134,
      0.08772070705890656,
      -0.0062628923915326595,
      0.1049421951174736,
      0.15116778016090393,
      0.055778346955776215
    ],
    [
      -0.07998893409967422,
      -0.01375802792608738,
      0.001393568585626781,
      -0.06988052278757095,
      -0.1736544668674469,
      0.1077926903963089,
      0.03873559832572937,
      -0.02680930495262146,
      -0.11751555651426315,
      0.09358935058116913,
      -0.06681272387504578,
      -0.16027194261550903,
      -0.11611947417259216,
      0.13795877993106842,
      0.00203634612262249,
      -0.13402126729488373,
      0.05766266956925392,
      -0.034508246928453445,
      -0.15317624807357788,
      0.090398408472538,
      -0.06119627133011818,
      0.12940432131290436,
      -0.12106180936098099,
      0.001502031460404396,
      -0.04986771568655968,
      -0.011259346269071102,
      0.14849445223808289,
      0.0490170419216156,
      -0.08467526733875275,
      -0.15571284294128418,
      -0.06093757227063179,
      -0.08268911391496658,
      -0.10137354582548141,
      -0.039780549705028534,
      -0.12423832714557648,
      -0.022197768092155457,
      0.05579693987965584,
      0.07948079705238342,
      -0.01097036711871624,
      0.043391793966293335,
      -0.0555901825428009,
      -0.02684219926595688,
      -0.18495914340019226,
      -0.07610700279474258,
      -0.14102348685264587,
      -0.02098388597369194,
      -0.053174663335084915,
      -0.048390213400125504,
      0.12370159476995468,
      0.029266931116580963,
      0.055813081562519073,
      -0.09636573493480682,
      0.053093768656253815,
      -0.09315232187509537,
      0.08393680304288864,
      0.008573389612138271,
      -0.034225236624479294,
      -0.036993782967329025,
      0.07737894356250763,
      0.15520162880420685,
      0.08539638668298721,
      0.06357857584953308,
      0.1401868760585785,
      0.0690806657075882
    ],
    [
      -0.04714548960328102,
      -0.0006439086282625794,
      -0.011432850733399391,
      0.053522832691669464,
      0.05554180219769478,
      -0.042360514402389526,
      0.1432412564754486,
      -0.049314651638269424,
      0.02218743786215782,
      -0.07354573905467987,
      -0.08574776351451874,
      -0.030495399609208107,
      -0.009077625349164009,
      -0.07580213248729706,
      -0.08926394581794739,
      0.05256512388586998,
      -0.11048626899719238,
      0.021113740280270576,
      0.01880173571407795,
      -0.06119715794920921,
      0.10405217111110687,
      0.0991959199309349,
      0.06391651183366776,
      0.007120061200112104,
      -0.02078350819647312,
      -0.019068950787186623,
      -0.021690715104341507,
      -0.10230235755443573,
      0.07932537794113159,
      0.01612740196287632,
      -0.06903621554374695,
      0.022231103852391243,
      0.05742362141609192,
      0.0163916926831007,
      -0.0785159021615982,
      -0.05941168591380119,
      0.018616793677210808,
      0.08253317326307297,
      0.014134513214230537,
      0.019760698080062866,
      -0.035430192947387695,
      0.09153730422258377,
      -0.09932482242584229,
      -0.025330159813165665,
      0.02364981174468994,
      -0.08589356392621994,
      0.015414600260555744,
      0.03923419862985611,
      -0.003684203140437603,
      0.09879670292139053,
      -0.0026861170772463083,
      0.008624814450740814,
      -0.09090785682201385,
      0.07770559936761856,
      0.01673860475420952,
      0.04414832219481468,
      0.08875729888677597,
      -0.0717875137925148,
      -0.0919596329331398,
      0.028772348538041115,
      -0.07272806018590927,
      0.06597469747066498,
      0.017250392585992813,
      -0.14684607088565826
    ],
    [
      -0.08464375883340836,
      -0.10295715928077698,
      0.13867661356925964,
      -0.10430526733398438,
      0.07091980427503586,
      0.0428217351436615,
      -0.09070135653018951,
      0.11478579044342041,
      0.017076637595891953,
      0.02615481987595558,
      0.007741390727460384,
      -0.07292979210615158,
      -0.1312338411808014,
      -0.10541686415672302,
      0.032168954610824585,
      -0.03262433037161827,
      -0.047591619193553925,
      0.1382771134376526,
      -0.02515597827732563,
      -0.04723591357469559,
      0.10233069211244583,
      -0.08503109216690063,
      0.034539200365543365,
      0.07595609128475189,
      0.025852635502815247,
      0.03939339891076088,
      0.06803403794765472,
      -0.0580788180232048,
      0.03163117542862892,
      0.06248991936445236,
      0.0737314373254776,
      -0.04015261307358742,
      0.07699588686227798,
      0.046837374567985535,
      -0.08121015876531601,
      0.10306627303361893,
      0.03016619198024273,
      0.01834285445511341,
      -0.01845594309270382,
      0.04184156283736229,
      0.11296197026968002,
      -0.07555709779262543,
      -0.1187044009566307,
      -0.08560402691364288,
      0.025219006463885307,
      -0.0019660694524645805,
      0.0872069001197815,
      0.02033276855945587,
      0.1003141850233078,
      -0.11340969800949097,
      0.0633196011185646,
      -0.013258717022836208,
      -0.07790925353765488,
      -0.023230934515595436,
      0.048563070595264435,
      0.02367733232676983,
      0.11814060807228088,
      -0.07957090437412262,
      0.017943929880857468,
      -0.022203847765922546,
      0.05029454827308655,
      -0.11369485408067703,
      -0.027628714218735695,
      0.0480901338160038
    ],
    [
      -0.09708162397146225,
      -0.0644197091460228,
      -0.05218911170959473,
      0.05987200513482094,
      -0.07215765863656998,
      0.0076379007659852505,
      -0.036656178534030914,
      -0.08854957669973373,
      -0.017099013552069664,
      0.03203758969902992,
      0.07771451771259308,
      -0.008091054856777191,
      0.018832925707101822,
      -0.06193667650222778,
      -0.010958323255181313,
      0.11323820054531097,
      0.05555962026119232,
      0.0482221320271492,
      -0.0407775416970253,
      0.08827459067106247,
      0.008403926156461239,
      -0.01903868094086647,
      -0.07060573250055313,
      -0.009580126032233238,
      -0.08529853075742722,
      0.017128072679042816,
      -0.021795907989144325,
      -0.09724639356136322,
      -0.07584014534950256,
      0.0034397856798022985,
      0.04418906569480896,
      0.08480225503444672,
      -0.04264802113175392,
      -0.06115914136171341,
      0.09156631678342819,
      6.390661292243749e-05,
      0.03108738549053669,
      -0.04417020455002785,
      0.007677080575376749,
      -0.01822572760283947,
      0.055728182196617126,
      0.12734389305114746,
      -0.0468749925494194,
      0.08236408978700638,
      -0.01452419999986887,
      0.038344867527484894,
      0.058991264551877975,
      0.057016901671886444,
      -0.1054462417960167,
      0.07070354372262955,
      -0.04730815067887306,
      -0.04252162203192711,
      0.045445479452610016,
      0.10449980199337006,
      -0.03334373980760574,
      0.04390671104192734,
      -0.07985693961381912,
      0.04666592553257942,
      0.10217204689979553,
      -0.0782245397567749,
      -0.09166333824396133,
      0.06378914415836334,
      -0.05947933346033096,
      -0.03602595254778862
    ],
    [
      0.04001829773187637,
      0.04115971550345421,
      -0.07815758883953094,
      -0.08520422875881195,
      -0.038698676973581314,
      -0.12792402505874634,
      -0.10497475415468216,
      -0.015264725312590599,
      -0.08773887157440186,
      -0.032163459807634354,
      0.038117241114377975,
      -0.02725045196712017,
      -0.12241826951503754,
      0.09832797944545746,
      0.0006311102188192308,
      0.08979570865631104,
      -0.021167699247598648,
      -0.023384427651762962,
      0.04800210893154144,
      -0.11058306694030762,
      0.012276255525648594,
      -0.00501418299973011,
      -0.07082611322402954,
      0.04419000446796417,
      -0.052354928106069565,
      -0.04420654848217964,
      0.09540718793869019,
      -0.04114113375544548,
      -0.07074848562479019,
      0.05250652879476547,
      -0.03934427350759506,
      -0.10511816293001175,
      0.054434455931186676,
      0.03311419486999512,
      0.05480722337961197,
      0.038071367889642715,
      -0.004000736400485039,
      0.08792270720005035,
      0.07617933303117752,
      -0.11270301043987274,
      -0.10721521079540253,
      0.022396523505449295,
      0.005224860273301601,
      -0.0196173507720232,
      0.022754143923521042,
      -0.05046879127621651,
      -0.11282865703105927,
      -0.106751948595047,
      0.004437798168510199,
      -0.008971027098596096,
      -0.011331992223858833,
      -0.1211865022778511,
      0.08044011890888214,
      -0.09651660174131393,
      -0.11865384876728058,
      0.023710470646619797,
      -0.021918747574090958,
      -0.11560346931219101,
      -0.09212283045053482,
      0.05166057124733925,
      -0.05564294755458832,
      0.07965508848428726,
      -0.09045454114675522,
      0.039707884192466736
    ],
    [
      -0.02044893056154251,
      -0.03067154623568058,
      0.08219300955533981,
      -0.029674453660845757,
      0.0060492041520774364,
      0.050228867679834366,
      0.0867694690823555,
      -0.16188932955265045,
      -0.0012792728375643492,
      0.08804351836442947,
      -0.0014036574866622686,
      -0.05762422829866409,
      -0.09628849476575851,
      0.2737948000431061,
      0.04596502333879471,
      -0.08174266666173935,
      0.06461638957262039,
      0.0350799523293972,
      -0.104399174451828,
      -0.023310136049985886,
      0.05701019614934921,
      0.09577676653862,
      -0.14395229518413544,
      -0.16078351438045502,
      0.14089243113994598,
      0.02105378545820713,
      0.16575047373771667,
      0.03848950192332268,
      0.014710325747728348,
      -0.13203608989715576,
      0.07730627804994583,
      0.003625237848609686,
      0.020205264911055565,
      0.07890533655881882,
      -0.016468625515699387,
      0.005881807301193476,
      0.11343403905630112,
      0.1054820865392685,
      0.01986200362443924,
      -0.010273005813360214,
      0.08325537294149399,
      -0.12533089518547058,
      -0.14841298758983612,
      0.08072248101234436,
      0.056498341262340546,
      0.06847494840621948,
      0.12686428427696228,
      0.05419803410768509,
      0.13970285654067993,
      0.11822086572647095,
      -0.06536144018173218,
      0.024973556399345398,
      -0.00041985968709923327,
      -0.11574850231409073,
      0.10406789928674698,
      0.17804260551929474,
      0.009093490429222584,
      0.01864742673933506,
      -0.05486120283603668,
      0.11963105201721191,
      0.0021030507050454617,
      0.18651026487350464,
      0.2577437460422516,
      0.0579654760658741
    ],
    [
      0.10728475451469421,
      0.04379720613360405,
      0.2022746056318283,
      0.14683102071285248,
      0.1846402883529663,
      0.04001189395785332,
      -0.0022572355810552835,
      0.10636540502309799,
      0.1086229458451271,
      0.16895407438278198,
      0.16464589536190033,
      0.1862381547689438,
      -0.21850325167179108,
      0.6034625172615051,
      0.12815017998218536,
      -0.08967474102973938,
      -0.0026938223745673895,
      -0.08290833979845047,
      0.18926753103733063,
      0.16506023705005646,
      0.16321173310279846,
      0.17211540043354034,
      -0.0013573920587077737,
      -0.03787347301840782,
      0.09241750091314316,
      0.10124844312667847,
      0.4347214698791504,
      -0.02517998404800892,
      0.0459265373647213,
      -0.04390678182244301,
      0.1741659790277481,
      -0.10567957162857056,
      -0.0669991746544838,
      -0.16483911871910095,
      -0.03357185423374176,
      0.13099119067192078,
      -0.09086289256811142,
      0.255563348531723,
      -0.04716705158352852,
      -0.058255940675735474,
      0.05580009147524834,
      0.021244002506136894,
      -0.019765323027968407,
      -0.03952309489250183,
      -0.005743540823459625,
      -0.16894730925559998,
      -0.00911856908351183,
      0.004006490111351013,
      0.25970935821533203,
      0.18209712207317352,
      0.05898619443178177,
      0.0376945361495018,
      0.051459893584251404,
      0.022871071472764015,
      0.09343265742063522,
      0.07303427904844284,
      0.1105632334947586,
      0.2031378597021103,
      0.28309303522109985,
      0.07707099616527557,
      -0.017978858202695847,
      0.10248606652021408,
      0.6169803142547607,
      0.011318046599626541
    ],
    [
      -0.05911235511302948,
      -0.037226006388664246,
      0.0024310334119945765,
      0.09729550033807755,
      0.09213120490312576,
      0.06871618330478668,
      0.05272476375102997,
      0.0441763736307621,
      0.005401084665209055,
      0.0037222362589091063,
      -0.05287647992372513,
      0.0058385636657476425,
      0.0626051276922226,
      0.048001695424318314,
      0.10314878076314926,
      0.029634881764650345,
      -0.08055776357650757,
      0.019178252667188644,
      -0.004687897395342588,
      -0.006535799242556095,
      0.03319001942873001,
      0.07090046256780624,
      0.07939428091049194,
      -0.09673771262168884,
      -0.0005155751132406294,
      -0.0344463512301445,
      0.09084802120923996,
      -0.09407059103250504,
      0.15083765983581543,
      -0.03295070677995682,
      0.015711983665823936,
      -0.030083684250712395,
      -0.09219970554113388,
      0.059014108031988144,
      -0.004429532680660486,
      -0.035953909158706665,
      0.035247042775154114,
      -0.021980969235301018,
      -0.12875905632972717,
      -0.07536595314741135,
      -0.0681387260556221,
      -0.09928735345602036,
      -0.09448637068271637,
      0.06557009369134903,
      0.05154809728264809,
      0.10178536176681519,
      -0.0834672600030899,
      0.038551412522792816,
      -0.06576605886220932,
      -0.10547629743814468,
      -0.011661865748465061,
      0.05273937061429024,
      0.07134305685758591,
      -0.11004778742790222,
      -0.011628501117229462,
      -0.09694802761077881,
      0.09637552499771118,
      0.09081578254699707,
      0.09318441152572632,
      -0.13867034018039703,
      -0.026669936254620552,
      -0.011486407369375229,
      0.07930547744035721,
      -0.04311368986964226
    ],
    [
      -0.104883573949337,
      -0.0471419133245945,
      -0.030153153464198112,
      0.02312963642179966,
      0.08661580085754395,
      -0.022373581305146217,
      0.018486618995666504,
      0.04185296595096588,
      0.049140799790620804,
      0.07050910592079163,
      0.029674846678972244,
      0.038042452186346054,
      -0.07152547687292099,
      -0.08202573657035828,
      0.08961176127195358,
      -0.07989346981048584,
      0.10522890090942383,
      -0.08988350629806519,
      0.04787134751677513,
      0.0910855233669281,
      0.08746163547039032,
      -0.0318833664059639,
      -0.05656050890684128,
      -0.04450519010424614,
      0.037511978298425674,
      -0.036832284182310104,
      -0.08369220048189163,
      -0.017931725829839706,
      -0.14767321944236755,
      0.041308194398880005,
      0.1079583391547203,
      0.06412187218666077,
      -0.10766679793596268,
      0.06184862554073334,
      -0.07289199531078339,
      -0.1202760562300682,
      -0.07626107335090637,
      0.08817108720541,
      0.13134503364562988,
      -0.03219704329967499,
      -0.03861382603645325,
      -0.0935828685760498,
      0.00999184139072895,
      -0.026167007163167,
      0.1230790913105011,
      0.10757845640182495,
      -0.045264799147844315,
      0.051812220364809036,
      0.06368071585893631,
      -0.09641735255718231,
      -0.05105312541127205,
      -0.06873918324708939,
      -0.0029734810814261436,
      -0.07640863209962845,
      -0.05146043002605438,
      -0.07510728389024734,
      0.10494455695152283,
      -0.031153574585914612,
      0.009837851859629154,
      -0.08326983451843262,
      0.03829880803823471,
      0.03546036407351494,
      0.0067030382342636585,
      0.006902197375893593
    ],
    [
      0.07401376962661743,
      0.0014334811130538583,
      0.06392348557710648,
      -0.006239055190235376,
      0.06031835079193115,
      0.07805194705724716,
      -0.07898194342851639,
      -0.06567910313606262,
      0.0008190615917555988,
      -0.03779738396406174,
      -0.11559975892305374,
      0.06415024399757385,
      0.1030845120549202,
      -0.027463726699352264,
      0.034969426691532135,
      0.0377504900097847,
      0.04813947156071663,
      0.10088808089494705,
      0.10104057192802429,
      -0.06725411117076874,
      0.04527928680181503,
      0.06294430047273636,
      0.06163647025823593,
      -0.10859498381614685,
      -0.04467910900712013,
      -0.10223094373941422,
      -0.09862866997718811,
      0.04248671233654022,
      0.1158669963479042,
      0.03554581478238106,
      0.0500207245349884,
      -0.10545842349529266,
      0.10505285114049911,
      -0.05680688098073006,
      0.058597687631845474,
      -0.04403383657336235,
      0.03996129706501961,
      0.039819370955228806,
      0.12982605397701263,
      0.07492756843566895,
      0.03706245496869087,
      0.06235896795988083,
      0.06773057579994202,
      0.06452203541994095,
      -0.04498659074306488,
      0.03835037723183632,
      -0.02543650008738041,
      0.007365827448666096,
      -0.03328825905919075,
      -0.09493725746870041,
      -0.1324838250875473,
      -0.0006007050978951156,
      0.019037898629903793,
      -0.0802629366517067,
      0.0397052988409996,
      0.009698474779725075,
      0.1115674152970314,
      -0.048162177205085754,
      0.027649976313114166,
      -0.11915047466754913,
      0.09701993316411972,
      0.051973577588796616,
      0.08404672890901566,
      0.08086103945970535
    ],
    [
      0.11846190690994263,
      -0.03252357244491577,
      0.10069521516561508,
      -0.055076416581869125,
      -0.036381665617227554,
      0.14872455596923828,
      0.00863695703446865,
      -0.16882099211215973,
      -0.03747780621051788,
      0.0498163215816021,
      -0.17971773445606232,
      -0.03367849439382553,
      -0.05893949419260025,
      0.2390039563179016,
      0.020094234496355057,
      -0.14229515194892883,
      0.04884006455540657,
      0.023818887770175934,
      0.016767889261245728,
      0.14727376401424408,
      0.0021834245417267084,
      0.11465214192867279,
      -0.04355945065617561,
      -0.029100429266691208,
      0.16283831000328064,
      0.031535714864730835,
      0.14049428701400757,
      -0.19263796508312225,
      0.09390196949243546,
      -0.09416769444942474,
      -0.04100362956523895,
      0.029709162190556526,
      0.11057642847299576,
      -0.02202688530087471,
      -0.18806982040405273,
      -0.051033008843660355,
      -0.000392546528019011,
      0.039757031947374344,
      -0.04608713835477829,
      0.07489825785160065,
      0.08313510566949844,
      -0.016691964119672775,
      0.013177862390875816,
      -0.05785174295306206,
      -0.03841116651892662,
      0.037653759121894836,
      0.003776347264647484,
      0.0017661344027146697,
      0.17524965107440948,
      0.1758505254983902,
      -0.10830960422754288,
      -0.08311299234628677,
      0.03611380234360695,
      0.025979850441217422,
      0.06432492285966873,
      -0.011381402611732483,
      -0.14012227952480316,
      0.14857043325901031,
      0.17717693746089935,
      0.039173588156700134,
      -0.048665184527635574,
      0.10558134317398071,
      0.1097274050116539,
      0.019733449444174767
    ],
    [
      0.025328796356916428,
      -0.11786536872386932,
      -0.03768394514918327,
      0.04889881983399391,
      -0.11242136359214783,
      -0.015643537044525146,
      -0.06788883358240128,
      0.12091477960348129,
      -0.09088671952486038,
      -0.06773456931114197,
      0.12124744802713394,
      0.02256573736667633,
      -0.09476901590824127,
      -0.10189270228147507,
      -0.11799930781126022,
      -0.09313036501407623,
      0.06029128283262253,
      0.027361955493688583,
      0.03983800485730171,
      -0.03968357294797897,
      -0.0635913535952568,
      -0.03915457800030708,
      0.10236432403326035,
      0.0064684743992984295,
      0.06324571371078491,
      0.08616626262664795,
      -0.01048927940428257,
      0.04360051453113556,
      -0.07236433029174805,
      -0.07838203012943268,
      -0.022391166538000107,
      0.044760823249816895,
      0.10417263209819794,
      -0.08373317867517471,
      0.03372462838888168,
      0.11043453216552734,
      0.01903228648006916,
      0.045395635068416595,
      0.07155561447143555,
      -0.12921744585037231,
      0.03485837206244469,
      -0.11850252002477646,
      -0.11258561164140701,
      0.0340799018740654,
      -0.034470394253730774,
      0.08527742326259613,
      -0.06849322468042374,
      -0.029406962916254997,
      0.002483812626451254,
      0.11406378448009491,
      -0.10272153466939926,
      -0.008638366125524044,
      0.10205859690904617,
      -0.047998540103435516,
      0.0473005548119545,
      0.05474831908941269,
      0.026388706639409065,
      -0.0033171456307172775,
      0.04125559329986572,
      -0.046360082924366,
      0.010569838806986809,
      -0.12098253518342972,
      -0.004974972922354937,
      -0.0948779284954071
    ],
    [
      -0.04757051542401314,
      0.005254762712866068,
      -0.010172493755817413,
      0.09254073351621628,
      0.06735784560441971,
      -0.11090557277202606,
      -0.0836196169257164,
      0.06017206981778145,
      0.09974994510412216,
      -0.07078896462917328,
      0.1033167913556099,
      -0.07183225452899933,
      0.014137945137917995,
      0.05211449787020683,
      0.08527559787034988,
      0.021719247102737427,
      0.09335614740848541,
      0.02837080880999565,
      0.07195154577493668,
      -0.0669264942407608,
      -0.022478226572275162,
      -0.0800151526927948,
      -0.11296465247869492,
      0.10526476800441742,
      0.10433556139469147,
      0.023157650604844093,
      -0.040369533002376556,
      0.09852395951747894,
      0.11751747131347656,
      0.10870213806629181,
      -0.08147844672203064,
      -0.0070958868600428104,
      -0.07657304406166077,
      0.05166449397802353,
      0.09377624094486237,
      0.05544223636388779,
      0.029050519689917564,
      0.0416359081864357,
      -0.07740116119384766,
      0.08002281934022903,
      -0.050747089087963104,
      -0.1406945139169693,
      -0.07547668367624283,
      -0.05423063784837723,
      -0.08397840708494186,
      -0.013197565451264381,
      -0.11604220420122147,
      -0.0005115704261697829,
      0.06493109464645386,
      0.08291463553905487,
      -0.08161578327417374,
      -0.08988989144563675,
      -0.1192939355969429,
      -0.025780852884054184,
      -0.11901649087667465,
      0.09329089522361755,
      -0.015088087879121304,
      -0.05976197123527527,
      0.023589201271533966,
      -0.011448409408330917,
      -0.0656755119562149,
      0.051584795117378235,
      -0.03987070918083191,
      0.030720939859747887
    ],
    [
      0.1425425261259079,
      -0.06646855920553207,
      0.1139507070183754,
      0.04708012193441391,
      0.06148930639028549,
      0.13071005046367645,
      0.040134575217962265,
      0.024225059896707535,
      0.0037749980110675097,
      0.20354680716991425,
      0.024885550141334534,
      -0.1438121646642685,
      0.045943718403577805,
      0.10857974737882614,
      -0.026953518390655518,
      -0.011280105449259281,
      0.07434133440256119,
      0.010763134807348251,
      -0.05203276872634888,
      -0.005185204092413187,
      -0.08604039251804352,
      0.0724235326051712,
      -0.19205038249492645,
      -0.20145957171916962,
      0.02142123319208622,
      -0.09136120975017548,
      0.17890208959579468,
      -0.16080975532531738,
      -0.12012957036495209,
      -0.017704609781503677,
      -0.0049574426375329494,
      0.07878050208091736,
      0.10932033509016037,
      -0.12132774293422699,
      -0.1455857902765274,
      0.06948699057102203,
      0.0376218818128109,
      0.19855926930904388,
      -0.015990842133760452,
      0.005133107304573059,
      0.017954569309949875,
      -0.11308042705059052,
      -0.013965561054646969,
      0.022986125200986862,
      0.09514346718788147,
      0.033002886921167374,
      -0.03421279788017273,
      0.006358952261507511,
      0.13832220435142517,
      0.055071838200092316,
      0.028098320588469505,
      0.03295447677373886,
      -0.06545037776231766,
      0.06397382915019989,
      0.15417253971099854,
      0.17588630318641663,
      0.04010119289159775,
      0.06181680038571358,
      0.01987968385219574,
      0.10894809663295746,
      0.02784353494644165,
      0.1825626790523529,
      0.27216264605522156,
      -0.07640974968671799
    ],
    [
      0.030335096642374992,
      0.11670488119125366,
      0.03459148108959198,
      -0.11113027483224869,
      -0.053066276013851166,
      -0.19748014211654663,
      -0.0019360549049451947,
      0.010754724033176899,
      0.14062587916851044,
      -0.008162733167409897,
      0.09512137621641159,
      0.15861216187477112,
      0.07774745672941208,
      -0.10787990689277649,
      0.0018672950100153685,
      0.09965977072715759,
      0.02843644469976425,
      0.028686057776212692,
      0.1034601628780365,
      -0.045688409358263016,
      -0.017840540036559105,
      0.021391790360212326,
      0.03780415281653404,
      -0.06239064410328865,
      -0.2120054066181183,
      -0.1023215502500534,
      0.050352245569229126,
      0.013834533281624317,
      -0.058089252561330795,
      -0.033961161971092224,
      -0.01563500054180622,
      0.07444919645786285,
      0.009298916906118393,
      -0.007550714071840048,
      0.04108532890677452,
      0.10704143345355988,
      -0.17425432801246643,
      -0.03896201774477959,
      0.026217404752969742,
      -0.041195787489414215,
      0.09592634439468384,
      0.13859423995018005,
      -0.07350648194551468,
      0.11179608851671219,
      0.09378867596387863,
      -0.11384556442499161,
      0.11994222551584244,
      0.013205061666667461,
      0.042655397206544876,
      -0.020787125453352928,
      0.1698484718799591,
      0.06028445437550545,
      -0.005836150608956814,
      0.11151968687772751,
      -0.02818511798977852,
      -0.011588571593165398,
      0.011097756214439869,
      -0.015867261216044426,
      0.05083392560482025,
      -0.19871483743190765,
      0.032173171639442444,
      -0.03339847922325134,
      0.0823441669344902,
      -0.03435808792710304
    ],
    [
      0.0905974954366684,
      0.08452577888965607,
      -0.026160230860114098,
      0.08621356636285782,
      -0.10444933921098709,
      -0.01114580873399973,
      0.004631086252629757,
      0.06633482128381729,
      0.036228835582733154,
      -0.04376658797264099,
      0.030697165057063103,
      0.052449218928813934,
      -0.11191362887620926,
      -0.07241344451904297,
      0.11624541878700256,
      0.06389492750167847,
      -0.046025361865758896,
      0.013007432222366333,
      -0.09050621092319489,
      -0.03190332651138306,
      0.07483460754156113,
      0.0019800292793661356,
      0.09618678689002991,
      0.06419336050748825,
      -0.07755710929632187,
      -0.03532152995467186,
      0.0676233172416687,
      0.01404484361410141,
      -0.060685671865940094,
      -0.059550318866968155,
      -0.08953240513801575,
      -0.010231235064566135,
      -0.03060915321111679,
      0.02519298903644085,
      0.005247163120657206,
      -0.10661289095878601,
      0.03789950907230377,
      0.006625398527830839,
      0.1250811219215393,
      0.05783722177147865,
      -0.008382759988307953,
      -0.08310180902481079,
      -0.1327502429485321,
      0.1018369123339653,
      -0.008156927302479744,
      0.06347448378801346,
      0.03837578743696213,
      0.04597000032663345,
      -0.0691043958067894,
      0.13565771281719208,
      0.03650505095720291,
      -0.08730010688304901,
      -0.13757333159446716,
      0.1231079250574112,
      -0.04802371934056282,
      -0.04675650969147682,
      -0.06754626333713531,
      -0.030099431052803993,
      0.09306492656469345,
      -0.007475182879716158,
      0.07654976844787598,
      0.10151750594377518,
      0.014833152294158936,
      -0.10825708508491516
    ],
    [
      0.07053934782743454,
      -0.013757068663835526,
      -0.0729091539978981,
      -0.25076594948768616,
      0.15127742290496826,
      -0.02955831214785576,
      0.012456821277737617,
      0.03585674241185188,
      0.03593437746167183,
      -0.12422153353691101,
      0.16987855732440948,
      0.04225306212902069,
      0.1296398937702179,
      -0.09130735695362091,
      -0.11747661978006363,
      0.08055289089679718,
      0.09020248055458069,
      -0.15835058689117432,
      0.13656315207481384,
      -0.2200147807598114,
      0.15364959836006165,
      -0.20044291019439697,
      -0.04528658464550972,
      0.18340319395065308,
      -0.2834775447845459,
      -0.052814267575740814,
      -0.02413393184542656,
      0.021496737375855446,
      -0.11923035234212875,
      0.09727947413921356,
      -0.13073673844337463,
      0.15550373494625092,
      0.03895789384841919,
      -0.0014382813824340701,
      -0.026453541591763496,
      0.05906849354505539,
      -0.19013787806034088,
      -0.07081440836191177,
      -0.08102113753557205,
      -0.2317958027124405,
      -0.07601597160100937,
      0.1576274335384369,
      0.08015942573547363,
      -0.05350740626454353,
      0.0862174928188324,
      0.12583348155021667,
      -0.00975298322737217,
      0.019312335178256035,
      -0.18112137913703918,
      -0.046180494129657745,
      -0.04024862125515938,
      0.15647588670253754,
      0.09956064820289612,
      0.14116151630878448,
      -0.11175993829965591,
      -0.1910599023103714,
      0.13728873431682587,
      -0.14675337076187134,
      -0.08376401662826538,
      -0.03286761790513992,
      0.010549493134021759,
      -0.040118567645549774,
      -0.012793307192623615,
      -0.015349216759204865
    ],
    [
      0.052416279911994934,
      0.025825632736086845,
      -0.10317643731832504,
      -0.028155062347650528,
      0.030489163473248482,
      0.05726618692278862,
      -0.08357216417789459,
      0.039664436131715775,
      0.023970510810613632,
      -0.10416305065155029,
      -0.10109584778547287,
      0.012696177698671818,
      -0.030201733112335205,
      0.010776730254292488,
      -0.00041734761907719076,
      -0.11796817928552628,
      0.09317755699157715,
      0.07268010824918747,
      -0.06892302632331848,
      -0.03179965913295746,
      0.07134944200515747,
      -0.11567932367324829,
      0.0013146427227184176,
      0.10300945490598679,
      -0.03289884701371193,
      0.053033869713544846,
      0.016948331147432327,
      -0.03503017872571945,
      0.04359918460249901,
      -0.0391317754983902,
      0.06695494055747986,
      -0.0430833175778389,
      0.028887256979942322,
      -0.03217697888612747,
      -0.042129166424274445,
      0.07428567856550217,
      -0.02170434221625328,
      0.011133839376270771,
      0.09586543589830399,
      0.008317613042891026,
      0.012939930893480778,
      -0.025115661323070526,
      -0.0948939248919487,
      0.1526418924331665,
      -0.12475314736366272,
      0.04980017617344856,
      -0.06792309135198593,
      -0.12640610337257385,
      -0.06289397180080414,
      -0.07337687909603119,
      -0.050047941505908966,
      -0.03265637531876564,
      -0.06141979619860649,
      -0.047767605632543564,
      0.11887478083372116,
      -0.0267734806984663,
      0.12048614025115967,
      -0.04114871844649315,
      0.05078236758708954,
      0.09720296412706375,
      0.07908659428358078,
      -0.055332787334918976,
      -0.013839035294950008,
      -0.07756102085113525
    ],
    [
      0.021843938156962395,
      -0.07996489107608795,
      -0.0016173884505406022,
      -0.07709816843271255,
      -0.09962622076272964,
      -0.18892177939414978,
      0.002715161070227623,
      0.09451182186603546,
      -0.0012369658797979355,
      -0.0663474053144455,
      0.056842513382434845,
      0.028581814840435982,
      -0.05494069680571556,
      -0.019941868260502815,
      -0.015330721624195576,
      -0.11143603175878525,
      -0.014472845010459423,
      0.025669237598776817,
      0.006274301093071699,
      0.059840716421604156,
      0.09613295644521713,
      0.018179140985012054,
      0.03136712685227394,
      -0.0866362601518631,
      -0.1842963844537735,
      -0.05266164615750313,
      0.04289504513144493,
      -0.009094808250665665,
      0.06053483113646507,
      0.010392144322395325,
      -0.008241093717515469,
      -0.08753085881471634,
      -0.08156429976224899,
      -0.1023174300789833,
      -0.1035204753279686,
      0.10363274812698364,
      -0.15431907773017883,
      0.07868009060621262,
      -0.06529556214809418,
      -0.06629787385463715,
      -0.09947575628757477,
      0.03364429995417595,
      -0.006976309698075056,
      0.09658819437026978,
      -0.024584082886576653,
      0.026284508407115936,
      -0.07195035368204117,
      -0.09105368703603745,
      -0.07943589240312576,
      -0.09381956607103348,
      0.01567889004945755,
      -0.1148635670542717,
      -0.08583704382181168,
      0.050542861223220825,
      -0.0036809886805713177,
      -0.003795146942138672,
      -0.06566737592220306,
      -0.10680483281612396,
      -0.016381027176976204,
      -0.1439775973558426,
      -0.07282635569572449,
      0.014340180903673172,
      0.03166024759411812,
      -0.039844147861003876
    ],
    [
      0.12669029831886292,
      -0.20531980693340302,
      0.07805274426937103,
      0.10629710555076599,
      -0.12084794789552689,
      0.10544366389513016,
      0.0057040308602154255,
      -0.1739848256111145,
      -0.024883609265089035,
      0.009686066769063473,
      0.006307582836598158,
      0.022930921986699104,
      -0.10788276791572571,
      0.26501983404159546,
      0.13151809573173523,
      0.1052522361278534,
      0.061483144760131836,
      -0.15651430189609528,
      0.039390627294778824,
      0.03660501912236214,
      -0.046274229884147644,
      0.09950493276119232,
      -0.03338449075818062,
      -0.12081312388181686,
      0.04702766239643097,
      0.022951986640691757,
      0.0937802717089653,
      -0.12406361848115921,
      0.08501821011304855,
      -0.09869374334812164,
      -0.04068320617079735,
      0.057794686406850815,
      -0.06572750955820084,
      0.018155744299292564,
      -0.14669150114059448,
      -0.16609613597393036,
      0.03427429124712944,
      0.06359849125146866,
      0.12173030525445938,
      0.18670722842216492,
      -0.06766035407781601,
      0.025010716170072556,
      -0.13895545899868011,
      -0.15188150107860565,
      -0.05728292465209961,
      -0.1255965679883957,
      0.12642858922481537,
      0.10533090680837631,
      0.2207261174917221,
      0.04216722771525383,
      -0.10296282917261124,
      0.023094847798347473,
