{
  "fc1.weight": [
    [
      0.27438241243362427
    ],
    [
      0.4318616986274719
    ],
    [
      0.42117658257484436
    ],
    [
      -0.25183749198913574
    ],
    [
      -0.1770053207874298
    ],
    [
      0.8029336929321289
    ],
    [
      -0.20002466440200806
    ],
    [
      -0.08967947959899902
    ],
    [
      -0.4110080897808075
    ],
    [
      -0.15223945677280426
    ],
    [
      0.45183414220809937
    ],
    [
      -0.296328067779541
    ],
    [
      0.42407506704330444
    ],
    [
      -0.24540245532989502
    ],
    [
      0.7865248322486877
    ],
    [
      -0.29421332478523254
    ],
    [
      0.41041406989097595
    ],
    [
      0.5232142210006714
    ],
    [
      -0.5412459373474121
    ],
    [
      0.6204015612602234
    ],
    [
      -0.7149651050567627
    ],
    [
      -0.541770339012146
    ],
    [
      0.21047429740428925
    ],
    [
      -0.67003333568573
    ],
    [
      0.9855235815048218
    ],
    [
      -0.796898365020752
    ],
    [
      0.7336603403091431
    ],
    [
      0.4140850901603699
    ],
    [
      0.13930189609527588
    ],
    [
      0.3498746454715729
    ],
    [
      -0.6471255421638489
    ],
    [
      0.4756193459033966
    ]
  ],
  "fc1.bias": [
    0.29699939489364624,
    0.6731537580490112,
    0.6398480534553528,
    -0.7175838947296143,
    0.06752637028694153,
    0.9655224680900574,
    0.020110316574573517,
    -0.9883244037628174,
    -0.6078928709030151,
    0.08978626877069473,
    -0.10886092483997345,
    -0.7892539501190186,
    0.3961459994316101,
    -0.02155797928571701,
    0.9554452300071716,
    -0.09099829196929932,
    0.4157237112522125,
    -0.07406734675168991,
    -0.8166021108627319,
    0.8889283537864685,
    -0.871091902256012,
    -0.8212761282920837,
    0.3073059320449829,
    -1.0521173477172852,
    0.5578891038894653,
    -0.9475763440132141,
    -0.24614547193050385,
    0.3160911202430725,
    -0.25515317916870117,
    0.5148765444755554,
    -0.9599499702453613,
    0.29224246740341187
  ],
  "fc2.weight": [
    [
      -0.11101102083921432,
      -0.050048600882291794,
      -0.029956359416246414,
      0.11218379437923431,
      -0.04133904352784157,
      -0.02712756022810936,
      0.04659700766205788,
      -0.01749478280544281,
      0.4781888723373413,
      0.028142254799604416,
      -0.3928069472312927,
      0.12091328203678131,
      -0.10559330135583878,
      0.05303648114204407,
      -0.04441753774881363,
      0.05241820961236954,
      -0.09407804906368256,
      -1.1617664098739624,
      0.33629006147384644,
      -0.033174674957990646,
      0.3430008292198181,
      0.3216531276702881,
      -0.06873401999473572,
      0.6208985447883606,
      -0.42994505167007446,
      0.24490314722061157,
      -0.41398870944976807,
      -0.25162172317504883,
      -0.09313766658306122,
      -0.03795507177710533,
      0.36308062076568604,
      -0.3894774615764618
    ],
    [
      0.06759493052959442,
      0.0631442740559578,
      0.03714337944984436,
      0.06071637570858002,
      -0.3330439031124115,
      -0.0016038719331845641,
      -0.592200517654419,
      -0.037729412317276,
      -0.12064714729785919,
      -0.2855406105518341,
      0.12167426198720932,
      0.08856450021266937,
      0.12635812163352966,
      -0.8611454367637634,
      0.0017830011202022433,
      -1.8729605674743652,
      0.07521958649158478,
      0.1272912472486496,
      -0.1389589011669159,
      0.04361971095204353,
      -0.6408143043518066,
      -0.03131605312228203,
      0.11470995843410492,
      -0.2475217580795288,
      0.02327457256615162,
      -0.6755723357200623,
      0.14910554885864258,
      0.11935523897409439,
      0.0171431303024292,
      0.06330320239067078,
      -0.14033637940883636,
      0.09832485765218735
    ],
    [
      -0.44315391778945923,
      -0.06923738121986389,
      -0.03054025210440159,
      0.013356775045394897,
      0.013528326526284218,
      -0.09904409945011139,
      -0.006494821049273014,
      -0.1220100075006485,
      0.34626325964927673,
      0.04321463033556938,
      0.02855123206973076,
      0.018887728452682495,
      -1.1762038469314575,
      -0.0033248758409172297,
      -0.06494545191526413,
      -0.03311809524893761,
      -0.47543883323669434,
      -0.19139918684959412,
      0.43545734882354736,
      -0.056513551622629166,
      0.11391384154558182,
      0.48174139857292175,
      -0.04361608624458313,
      0.3707788288593292,
      -1.218782901763916,
      0.2547818720340729,
      -0.26732948422431946,
      -4.4255852699279785,
      -0.03530129790306091,
      -0.04073749855160713,
      0.3645353615283966,
      -3.27512788772583
    ],
    [
      -0.18226855993270874,
      -0.04701308161020279,
      -0.023624379187822342,
      -0.06678663194179535,
      0.0064961351454257965,
      -0.050275031477212906,
      0.018461385741829872,
      -0.01833079755306244,
      0.43788042664527893,
      0.07406316697597504,
      -0.23808467388153076,
      -0.0983598455786705,
      -0.3475119173526764,
      0.055463843047618866,
      -0.03415543586015701,
      0.06244770064949989,
      -0.1729760318994522,
      -0.8804965019226074,
      0.30965086817741394,
      -0.03213055804371834,
      0.19844405353069305,
      0.4194470942020416,
      -0.055873945355415344,
      0.39314889907836914,
      -3.2601685523986816,
      0.27141478657722473,
      -0.18613648414611816,
      -0.5985061526298523,
      -0.13028816878795624,
      -0.043713945895433426,
      0.3529391586780548,
      -2.6800084114074707
    ],
    [
      -0.17094744741916656,
      -0.03448789566755295,
      -0.02951335534453392,
      -0.09707630425691605,
      0.04745848849415779,
      -0.028277266770601273,
      0.00550959212705493,
      0.15659771859645844,
      0.5724524259567261,
      0.014837432652711868,
      -0.5143201947212219,
      -0.021282583475112915,
      -0.12502427399158478,
      0.023227594792842865,
      -0.04288019239902496,
      0.056622229516506195,
      -0.09379570931196213,
      -1.507112741470337,
      0.4740966856479645,
      -0.015840183943510056,
      0.24404381215572357,
      -0.012238829396665096,
      -0.045798975974321365,
      0.3060291111469269,
      -0.4356593191623688,
      0.3164970576763153,
      -0.5391666889190674,
      -0.2835475504398346,
      -0.15312990546226501,
      -0.021414561197161674,
      0.2113409787416458,
      -0.40687334537506104
    ],
    [
      0.10261670500040054,
      0.04829278960824013,
      0.04464434087276459,
      -0.011659592390060425,
      -0.5344218611717224,
      -0.020506449043750763,
      -0.7732334136962891,
      0.13415013253688812,
      -0.5067614316940308,
      -0.46583259105682373,
      0.21043013036251068,
      0.0663161426782608,
      0.08083519339561462,
      -0.8800830245018005,
      -0.028250815346837044,
      -1.6527618169784546,
      0.07163644582033157,
      0.19884838163852692,
      -0.23401550948619843,
      0.034546393901109695,
      -0.9309415817260742,
      -0.22150088846683502,
      0.07454817742109299,
      -0.3538666069507599,
      0.0377095602452755,
      -1.0167570114135742,
      0.16267479956150055,
      0.1034545972943306,
      -0.1117347925901413,
      0.03716827929019928,
      -0.5024715662002563,
      0.07710786163806915
    ],
    [
      -0.0892205536365509,
      -0.2073317915201187,
      0.08132755011320114,
      -0.03711298108100891,
      -0.1622176617383957,
      -0.0649852603673935,
      0.025596460327506065,
      0.15377216041088104,
      -0.12483162432909012,
      0.04952630028128624,
      -0.17382527887821198,
      0.03531366586685181,
      0.09944513440132141,
      -0.04593246802687645,
      -0.015576908364892006,
      -0.0003378549590706825,
      -0.08962726593017578,
      -0.10016147792339325,
      -0.18681684136390686,
      -0.10520373284816742,
      0.07604328542947769,
      -0.21562236547470093,
      -0.1420707404613495,
      0.0743350088596344,
      -0.03794734925031662,
      0.04126811400055885,
      -0.10574700683355331,
      -0.018659889698028564,
      0.09242357313632965,
      -0.10872498154640198,
      -0.005195832811295986,
      -0.13356725871562958
    ],
    [
      0.09062319993972778,
      0.052261099219322205,
      0.017310449853539467,
      -0.1368040144443512,
      -0.7699783444404602,
      -0.011379431933164597,
      -1.2049598693847656,
      -0.10977549105882645,
      -0.3329572081565857,
      -0.6345855593681335,
      0.1865568906068802,
      0.08642102777957916,
      0.056222110986709595,
      -2.2330784797668457,
      -0.00706408591940999,
      -5.394565105438232,
      0.06121767312288284,
      0.10335233807563782,
      -0.17581051588058472,
      0.025315547361969948,
      -0.5666663646697998,
      -0.12065194547176361,
      0.09285716712474823,
      0.020176807418465614,
      -0.01241405587643385,
      -0.5807372331619263,
      0.13046851754188538,
      0.05645206198096275,
      -0.01707644760608673,
      0.04087859392166138,
      -0.5871168375015259,
      0.07289708405733109
    ],
    [
      -0.005077006295323372,
      -0.004457912873476744,
      0.0061094025149941444,
      -0.005303934216499329,
      -2.6602392196655273,
      -0.018813569098711014,
      -5.4659929275512695,
      0.06918160617351532,
      -0.47653302550315857,
      -2.2827367782592773,
      0.10606113821268082,
      -0.042156755924224854,
      -0.003916471265256405,
      -5.59816837310791,
      -0.019834138453006744,
      -4.212681770324707,
      -0.004545191302895546,
      0.09452120214700699,
      -0.23565462231636047,
      0.0011365266982465982,
      -0.6891316175460815,
      -0.3365420997142792,
      0.021720606833696365,
      -0.2097383737564087,
      -0.0344388410449028,
      -0.9884563684463501,
      0.06109717860817909,
      -0.0023639975115656853,
      -0.17003494501113892,
      0.0010281824506819248,
      -0.8715762495994568,
      -0.0014529932523146272
    ],
    [
      0.14321859180927277,
      0.03675303980708122,
      0.05820274353027344,
      0.09868808090686798,
      -0.47051477432250977,
      -0.01099400781095028,
      -0.6477732062339783,
      0.05184076726436615,
      -0.5725517272949219,
      -0.401981383562088,
      0.13630810379981995,
      0.02852216362953186,
      0.09246394038200378,
      -0.8384107947349548,
      0.01604350283741951,
      -1.5990221500396729,
      0.044016577303409576,
      0.25058460235595703,
      -0.1877831667661667,
      0.02942739427089691,
      -1.0322232246398926,
      -0.32753488421440125,
      0.06192618981003761,
      -0.2346380352973938,
      0.036428943276405334,
      -1.0565029382705688,
      0.07955596596002579,
      0.10902978479862213,
      0.13230328261852264,
      0.026424506679177284,
      -0.650841474533081,
      0.14166736602783203
    ],
    [
      0.1348346322774887,
      0.04523712396621704,
      0.060434240847826004,
      0.1624756008386612,
      -0.6264361143112183,
      0.0010893534636124969,
      -0.9334154725074768,
      -0.1349775493144989,
      -0.15754976868629456,
      -0.4953390955924988,
      0.17822225391864777,
      0.04253074526786804,
      0.053958453238010406,
      -1.5742409229278564,
      -0.01604086346924305,
      -4.2728190422058105,
      0.06254354119300842,
      0.11217312514781952,
      -0.14334304630756378,
      0.028424963355064392,
      -0.6473045349121094,
      -0.2243850827217102,
      0.040082305669784546,
      -0.25542423129081726,
      0.006420762278139591,
      -0.7896013259887695,
      0.1211123839020729,
      0.09250666946172714,
      0.0019633471965789795,
      0.057359665632247925,
      -0.32277053594589233,
      0.11567963659763336
    ],
    [
      0.07676232606172562,
      0.013129480183124542,
      0.014257851056754589,
      -0.013934299349784851,
      -0.9708499312400818,
      0.015430308878421783,
      -1.5480051040649414,
      -0.11752056330442429,
      -0.29627323150634766,
      -0.8152104616165161,
      0.14950022101402283,
      0.025980323553085327,
      0.013982362113893032,
      -2.9480700492858887,
      -0.020306209102272987,
      -5.809674263000488,
      0.024505943059921265,
      0.08194301277399063,
      0.006103519815951586,
      0.013125699013471603,
      -0.49175891280174255,
      -0.1894841492176056,
      0.10980838537216187,
      -0.19450511038303375,
      -0.025444772094488144,
      -0.6640186309814453,
      0.11239338666200638,
      0.054589878767728806,
      0.16375775635242462,
      0.06302228569984436,
      -0.36014965176582336,
      0.07438930869102478
    ],
    [
      0.1598292589187622,
      0.016447406262159348,
      0.04370829835534096,
      0.12917979061603546,
      -0.4190555214881897,
      -0.023405255749821663,
      -0.6870225071907043,
      -0.1072482168674469,
      -0.31326988339424133,
      -0.37453198432922363,
      0.21702010929584503,
      0.16583915054798126,
      0.06967959553003311,
      -0.9649606347084045,
      0.008538988418877125,
      -2.204028606414795,
      0.11180441081523895,
      0.19131465256214142,
      -0.1890454739332199,
      0.009362125769257545,
      -0.545943021774292,
      -0.24691137671470642,
      0.08123982697725296,
      -0.14366205036640167,
      -0.005465573165565729,
      -0.821406900882721,
      0.07932457327842712,
      0.11169818788766861,
      -0.058654822409152985,
      0.0802268534898758,
      -0.4092877209186554,
      0.07748082280158997
    ],
    [
      -0.0822034627199173,
      -0.023300526663661003,
      -0.03985873982310295,
      0.17139528691768646,
      0.3928161561489105,
      -0.01181645318865776,
      0.3153279423713684,
      0.0396508127450943,
      -0.15995004773139954,
      0.35468801856040955,
      -0.12393698841333389,
      -0.07643602788448334,
      -0.051664844155311584,
      -0.39003801345825195,
      0.5293086171150208,
      -1.8552433252334595,
      -0.04486415162682533,
      -0.10692774504423141,
      -0.11601095646619797,
      -0.02382246032357216,
      -0.16366250813007355,
      0.046902455389499664,
      -0.07564002275466919,
      0.025903966277837753,
      -0.026869963854551315,
      -0.14805489778518677,
      -0.1059141680598259,
      -0.05205048248171806,
      -0.07841943949460983,
      -0.03125603497028351,
      -0.37966832518577576,
      -0.06983242183923721
    ],
    [
      -0.08145665377378464,
      -0.031380362808704376,
      -0.0343477763235569,
      -0.1466078907251358,
      0.42283543944358826,
      0.5964235067367554,
      0.28383174538612366,
      -0.04519675672054291,
      -0.47768932580947876,
      0.42725732922554016,
      -0.15447068214416504,
      -0.12729355692863464,
      -0.04813924804329872,
      0.07652164995670319,
      -0.02591474913060665,
      -0.04664790630340576,
      -0.06449370831251144,
      -0.14145433902740479,
      -0.30049973726272583,
      -0.03217276185750961,
      -0.2282603681087494,
      -0.40825513005256653,
      -0.0863194391131401,
      -0.2844652533531189,
      -0.04144233837723732,
      -0.4234977066516876,
      -0.10971876233816147,
      -0.06889525800943375,
      0.1598501354455948,
      -0.03726927936077118,
      -0.5542259812355042,
      -0.07544004172086716
    ],
    [
      0.13288815319538116,
      0.03347882255911827,
      0.0324137918651104,
      -0.030880317091941833,
      -0.5261126160621643,
      -0.00017020002997014672,
      -0.7901095151901245,
      -0.03382524847984314,
      -0.350210040807724,
      -0.5082933902740479,
      0.1926109492778778,
      0.1168651133775711,
      0.07841767370700836,
      -1.0834518671035767,
      0.005884558893740177,
      -2.602046251296997,
      0.07578936964273453,
      0.11189138889312744,
      -0.24451006948947906,
      0.03496713936328888,
      -0.49860456585884094,
      -0.11970274895429611,
      0.054496392607688904,
      -0.2611287534236908,
      0.030192356556653976,
      -0.6789011359214783,
      0.1225021705031395,
      0.08751452714204788,
      -0.14222900569438934,
      0.033836185932159424,
      -0.3484790325164795,
      0.07473421841859818
    ],
    [
      -4.547186374664307,
      -0.19206972420215607,
      -0.1776391863822937,
      -0.013909488916397095,
      -0.010730206035077572,
      -0.981218159198761,
      -0.016365179792046547,
      0.03591373562812805,
      0.14334237575531006,
      -0.05208985507488251,
      -0.049759216606616974,
      -0.16119946539402008,
      -1.7222157716751099,
      -0.014263521879911423,
      -0.46779876947402954,
      -0.05253324657678604,
      -3.7732772827148438,
      -0.024523776024580002,
      0.4394097328186035,
      -0.260144978761673,
      -0.13045430183410645,
      0.2765515148639679,
      -0.2891770601272583,
      0.23850996792316437,
      -0.22250403463840485,
      -0.05420877784490585,
      0.02497350424528122,
      -0.6072327494621277,
      0.043848127126693726,
      -0.23303154110908508,
      0.1885862648487091,
      -0.32115283608436584
    ],
    [
      -0.2292039543390274,
      -0.03571580722928047,
      -0.05423295497894287,
      0.013226032257080078,
      0.026652861386537552,
      -0.06550630182027817,
      0.025877853855490685,
      0.14404316246509552,
      0.4739181697368622,
      0.007969925180077553,
      -0.25250935554504395,
      -0.11433881521224976,
      -0.4671061933040619,
      0.05746299773454666,
      -0.047448866069316864,
      0.06163626164197922,
      -0.25170257687568665,
      -0.8350690603256226,
      0.5505683422088623,
      -0.0614040307700634,
      0.3652435839176178,
      0.5136769413948059,
      -0.1399252861738205,
      0.44301480054855347,
      -2.7452199459075928,
      0.20493927597999573,
      -0.33370843529701233,
      -1.310401201248169,
      -0.17420834302902222,
      -0.06256874650716782,
      0.36835744976997375,
      -4.973796367645264
    ],
    [
      0.13817359507083893,
      0.039560507982969284,
      0.02214043214917183,
      0.13339976966381073,
      -0.4021293818950653,
      -0.02193569578230381,
      -0.653141975402832,
      -0.027139872312545776,
      -0.217688649892807,
      -0.33717870712280273,
      0.14189764857292175,
      0.12960375845432281,
      0.06884768605232239,
      -0.8780565857887268,
      0.004712831228971481,
      -1.9102596044540405,
      0.09072711318731308,
      0.12446639686822891,
      -0.22472883760929108,
      0.05579695850610733,
      -0.6064572930335999,
      -0.14729060232639313,
      0.09401611238718033,
      -0.19761130213737488,
      0.020665515214204788,
      -0.7289826273918152,
      0.1436503678560257,
      0.07159464061260223,
      0.0969981998205185,
      0.040338773280382156,
      -0.2721080780029297,
      0.07419666647911072
    ],
    [
      -0.11563143134117126,
      -0.04770435765385628,
      -0.04533855617046356,
      -0.09837912768125534,
      0.30062878131866455,
      -0.020946066826581955,
      -0.0801461711525917,
      0.07477526366710663,
      -0.9681380391120911,
      0.40092480182647705,
      -0.2629821002483368,
      -0.08070634305477142,
      -0.07950802147388458,
      -0.2334306538105011,
      -0.018857143819332123,
      -0.31620994210243225,
      -0.0775241032242775,
      -0.2353459894657135,
      -0.6830973029136658,
      -0.031096316874027252,
      -0.8611305952072144,
      -0.5413573384284973,
      -0.10515832155942917,
      -0.5897172093391418,
      0.7099279165267944,
      -0.7141432762145996,
      -0.1828392595052719,
      -0.11194358021020889,
      -0.057350754737854004,
      -0.06064912676811218,
      -0.9136021137237549,
      -0.10386544466018677
    ],
    [
      -0.16197940707206726,
      -0.01303268875926733,
      -0.017535047605633736,
      0.061235204339027405,
      0.04226536303758621,
      -0.030362261459231377,
      0.03816501796245575,
      0.04884667694568634,
      0.3383775055408478,
      -0.010404812172055244,
      -0.26894694566726685,
      -0.17262513935565948,
      -0.21985867619514465,
      -0.013629197143018246,
      -0.041958291083574295,
      0.04958602413535118,
      -0.1253027766942978,
      -0.8092973828315735,
      0.3255605399608612,
      -0.029112612828612328,
      0.2621309161186218,
      0.28506791591644287,
      -0.09351641684770584,
      0.2946235239505768,
      -2.3642797470092773,
      0.25443732738494873,
      -0.31046202778816223,
      -0.4105604588985443,
      0.1081387847661972,
      -0.020190659910440445,
      0.29695552587509155,
      -0.8146376013755798
    ],
    [
      0.0029633298981934786,
      0.0009653036249801517,
      0.034024693071842194,
      -0.09290235489606857,
      -1.6081405878067017,
      -0.019303306937217712,
      -2.9474217891693115,
      0.07229581475257874,
      -0.18861860036849976,
      -1.3527874946594238,
      0.10284726321697235,
      -0.1184297502040863,
      0.02008672244846821,
      -5.270514011383057,
      -0.025479819625616074,
      -4.872315406799316,
      -0.014079590328037739,
      0.08617456257343292,
      -0.020133618265390396,
      0.017110316082835197,
      -0.5240644812583923,
      -0.015660874545574188,
      0.04143223911523819,
      -0.025126151740550995,
      -0.013018854893743992,
      -0.6187928318977356,
      0.07571372389793396,
      0.01608985848724842,
      -0.10615819692611694,
      0.014475934207439423,
      -0.39621132612228394,
      0.01663387194275856
    ],
    [
      0.10944727808237076,
      0.02129962295293808,
      0.0424194261431694,
      -0.022379621863365173,
      -0.5868353247642517,
      -0.027962686493992805,
      -0.6970901489257812,
      0.040309369564056396,
      -0.5932247638702393,
      -0.5059440732002258,
      0.22428175806999207,
      0.07043161988258362,
      0.06052757054567337,
      -0.9592757225036621,
      -0.01936347968876362,
      -1.8642297983169556,
      0.05785089731216431,
      0.13418765366077423,
      -0.1616610437631607,
      0.007472028024494648,
      -1.2592706680297852,
      -0.3827427923679352,
      0.054899632930755615,
      -0.11632198095321655,
      0.01433547679334879,
      -1.1614431142807007,
      0.15082450211048126,
      0.10293067991733551,
      -0.06592202931642532,
      0.04553518816828728,
      -1.089066505432129,
      0.10084572434425354
    ],
    [
      -0.18426378071308136,
      -0.04996981471776962,
      -0.03085392341017723,
      -0.07650573551654816,
      0.0836193636059761,
      -0.026873301714658737,
      0.018961511552333832,
      0.07509355247020721,
      0.4316026568412781,
      0.054143667221069336,
      -0.38486379384994507,
      0.13685177266597748,
      -0.20898126065731049,
      0.09712935239076614,
      -0.041317418217659,
      0.025614313781261444,
      -0.12633346021175385,
      -1.2646464109420776,
      0.3648388981819153,
      -0.041998498141765594,
      0.41043445467948914,
      0.29035136103630066,
      -0.11937831342220306,
      0.4117543399333954,
      -0.6822954416275024,
      0.26513057947158813,
      -0.26521509885787964,
      -0.35079458355903625,
      -0.1693764477968216,
      -0.03953266143798828,
      0.45408469438552856,
      -0.5899340510368347
    ],
    [
      0.050464775413274765,
      0.028716551139950752,
      0.05885245278477669,
      0.019322499632835388,
      -0.6011225581169128,
      -0.012918188236653805,
      -0.9094228744506836,
      0.10444582998752594,
      -0.11101524531841278,
      -0.5161374807357788,
      0.16057072579860687,
      -0.1403028964996338,
      0.08824465423822403,
      -1.4836710691452026,
      -0.0025224301498383284,
      -3.9417760372161865,
      0.08207794278860092,
      0.09865950047969818,
      0.020583581179380417,
      0.02705633081495762,
      -0.6151464581489563,
      -0.16129222512245178,
      0.07940393686294556,
      -0.2237882912158966,
      -0.02152262069284916,
      -0.5660387277603149,
      0.1314900815486908,
      0.08954833447933197,
      0.14835967123508453,
      0.06358066946268082,
      -0.4067651331424713,
      0.06162584573030472
    ],
    [
      -0.7269561290740967,
      -0.07362739741802216,
      -0.07267626374959946,
      -0.04511784017086029,
      0.015332800336182117,
      -0.1656687706708908,
      -0.008651851676404476,
      -0.14540007710456848,
      0.40794020891189575,
      -0.04051980748772621,
      -0.10120497643947601,
      0.06251361966133118,
      -2.3828048706054688,
      -0.024069199338555336,
      -0.10563825815916061,
      0.019914796575903893,
      -0.8163643479347229,
      -0.30123814940452576,
      0.38518527150154114,
      -0.06465211510658264,
      0.19789688289165497,
      0.45547008514404297,
      -0.17860500514507294,
      0.23269148170948029,
      -0.8625825047492981,
      0.1229771226644516,
      0.02569180354475975,
      -5.211391925811768,
      -0.13414525985717773,
      -0.0765007957816124,
      0.418110728263855,
      -2.2394442558288574
    ],
    [
      0.062140364199876785,
      0.05062910169363022,
      0.03521706536412239,
      0.09607098996639252,
      -0.8279393911361694,
      -0.028320493176579475,
      -1.230838418006897,
      0.16756539046764374,
      -0.5492730736732483,
      -0.7422590255737305,
      0.18979564309120178,
      -0.0008593946695327759,
      0.07258487492799759,
      -2.056384325027466,
      -0.022013720124959946,
      -4.459749698638916,
      0.06632692366838455,
      0.10696239024400711,
      -0.2899468243122101,
      0.02815825305879116,
      -1.139472246170044,
      -0.27374136447906494,
      0.05641065910458565,
      -0.04757928475737572,
      -0.008113574236631393,
      -1.1223629713058472,
      0.14800892770290375,
      0.0729154497385025,
      -0.1115456372499466,
      0.04079990088939667,
      -0.8159275054931641,
      0.04635332524776459
    ],
    [
      -1.1490758657455444,
      -0.07545855641365051,
      -0.046323854476213455,
      -0.07824838161468506,
      -0.025422725826501846,
      -0.17673863470554352,
      0.019391238689422607,
      -0.04124914109706879,
      0.4099472463130951,
      0.010389619506895542,
      0.10244619846343994,
      -0.11418986320495605,
      -4.726621627807617,
      0.019230227917432785,
      -0.14859837293624878,
      0.051230281591415405,
      -1.5336458683013916,
      -0.23132149875164032,
      0.22199632227420807,
      -0.08684089779853821,
      0.1176362857222557,
      0.338568776845932,
      -0.18361561000347137,
      0.22901086509227753,
      -0.5425153374671936,
      0.11814490705728531,
      0.12448512762784958,
      -3.004855155944824,
      0.08812831342220306,
      -0.08569219708442688,
      0.22060418128967285,
      -1.1178556680679321
    ],
    [
      -3.1595027446746826,
      -0.37266266345977783,
      -0.4181402325630188,
      -0.16979706287384033,
      0.016062892973423004,
      -4.095097064971924,
      -0.007699110079556704,
      0.03348742425441742,
      -0.018338685855269432,
      -0.023672690615057945,
      -0.13511303067207336,
      0.021047338843345642,
      -0.9644338488578796,
      -0.01362296286970377,
      -1.364349603652954,
      -0.050718918442726135,
      -1.5435985326766968,
      0.05468045920133591,
      0.20022226870059967,
      -0.5024174451828003,
      -0.22379060089588165,
      0.23272083699703217,
      -0.7169378399848938,
      0.5017974376678467,
      -0.06624698638916016,
      -0.2130548655986786,
      -0.14011168479919434,
      -0.20912818610668182,
      0.004456609487533569,
      -0.5628380179405212,
      0.043051548302173615,
      -0.0469697043299675
    ],
    [
      0.04341103136539459,
      0.036041900515556335,
      0.03305579721927643,
      -0.16384945809841156,
      -0.4371296465396881,
      -0.02101982571184635,
      -0.5820265412330627,
      0.007971763610839844,
      -0.1935795098543167,
      -0.37237468361854553,
      0.18755100667476654,
      -0.08885611593723297,
      0.09341265261173248,
      -0.8032583594322205,
      0.009601764380931854,
      -1.6901679039001465,
      0.04750525951385498,
      0.14822258055210114,
      -0.20400869846343994,
      0.040243785828351974,
      -0.761093020439148,
      -0.28487032651901245,
      0.05235116928815842,
      -0.10415878891944885,
      0.02272859960794449,
      -1.028911828994751,
      0.10267625749111176,
      0.10637303441762924,
      0.05222359299659729,
      -0.009683514945209026,
      -0.4679512083530426,
      0.099200040102005
    ],
    [
      -0.7826242446899414,
      -1.2250500917434692,
      -1.3411386013031006,
      -0.017410844564437866,
      -0.018966151401400566,
      -1.5350395441055298,
      -0.002113156486302614,
      0.002693682909011841,
      -0.12268900126218796,
      -0.015107898972928524,
      -0.19261404871940613,
      -0.009313508868217468,
      -0.03747786208987236,
      -0.018110716715455055,
      -2.7908380031585693,
      0.006697897799313068,
      -0.5078566074371338,
      -0.05818988382816315,
      0.19630515575408936,
      -2.2099766731262207,
      -0.27104485034942627,
      0.036441199481487274,
      -1.7996478080749512,
      0.09420746564865112,
      0.02037372812628746,
      -0.22035619616508484,
      0.057631753385066986,
      -0.06986872851848602,
      0.09147171676158905,
      -1.4493783712387085,
      -0.1219833493232727,
      -0.05115298181772232
    ],
    [
      -2.34826922416687,
      -0.11984055489301682,
      -0.07143200188875198,
      -0.1029200330376625,
      -0.047364067286252975,
      -0.3880787193775177,
      0.017201919108629227,
      0.10375575721263885,
      0.28731414675712585,
      0.016055457293987274,
      0.08467159420251846,
      -0.11577895283699036,
      -3.4908101558685303,
      -0.0056375907734036446,
      -0.29690641164779663,
      -0.004613745026290417,
      -3.8917462825775146,
      -0.21797439455986023,
      0.42885202169418335,
      -0.13493163883686066,
      0.06690903753042221,
      0.41534754633903503,
      -0.2517377436161041,
      0.29740628600120544,
      -0.09013721346855164,
      0.012648002244532108,
      -0.09607145190238953,
      -1.7724168300628662,
      -0.014174222946166992,
      -0.09429469704627991,
      0.18602828681468964,
      -0.5166418552398682
    ]
  ],
  "fc2.bias": [
    0.34601789712905884,
    0.13620507717132568,
    0.41874727606773376,
    0.32203391194343567,
    0.3218193054199219,
    0.29939207434654236,
    -0.23642051219940186,
    0.2737758457660675,
    0.3919696807861328,
    0.240204319357872,
    0.23991331458091736,
    0.3066628873348236,
    0.1943047195672989,
    -0.3883243501186371,
    -0.44328415393829346,
    0.25540968775749207,
    0.45195472240448,
    0.4175099730491638,
    0.1894145905971527,
    -0.11785273998975754,
    0.3408821225166321,
    0.3764289617538452,
    0.3305470049381256,
    0.35499173402786255,
    0.20719894766807556,
    0.4891989231109619,
    0.30602583289146423,
    0.38385236263275146,
    0.4826837182044983,
    0.25162744522094727,
    0.4010317921638489,
    0.41902968287467957
  ],
  "fc3.weight": [
    [
      -0.21759270131587982,
      0.06058085337281227,
      -0.2160949558019638,
      -0.25959867238998413,
      -0.21813976764678955,
      0.06799667328596115,
      0.04438963532447815,
      0.06823182106018066,
      0.15225282311439514,
      0.05561468005180359,
      0.0684887245297432,
      0.07929987460374832,
      0.05332664027810097,
      0.38485705852508545,
      0.3901541531085968,
      0.059687722474336624,
      -0.3454238474369049,
      -0.21845154464244843,
      0.05563599616289139,
      0.23786281049251556,
      -0.2106727808713913,
      0.1089552491903305,
      0.0649113655090332,
      -0.21447058022022247,
      0.057526227086782455,
      -0.21026751399040222,
      0.07431304454803467,
      -0.24705876410007477,
      -0.41124656796455383,
      0.060667555779218674,
      -0.7555946707725525,
      -0.29813218116760254
    ]
  ],
  "fc3.bias": [
    -0.14891253411769867
  ]
}