{
  "fc1.weight": [
    [
      -0.05765998736023903,
      -0.058652833104133606,
      0.36823421716690063
    ],
    [
      -0.0695892721414566,
      -0.027859803289175034,
      0.5085041522979736
    ],
    [
      0.09963724762201309,
      0.09215222299098969,
      -0.47249284386634827
    ],
    [
      0.19642338156700134,
      0.23732177913188934,
      -0.47504472732543945
    ],
    [
      -0.10211866348981857,
      -0.7532930374145508,
      0.5501731038093567
    ],
    [
      0.05697192624211311,
      0.0607164204120636,
      -0.08556558191776276
    ],
    [
      -0.5589932799339294,
      0.11169314384460449,
      -0.04868932068347931
    ],
    [
      -0.15967407822608948,
      -0.22849130630493164,
      0.2348974645137787
    ],
    [
      -0.44887375831604004,
      0.037434618920087814,
      0.23215234279632568
    ],
    [
      -0.14632901549339294,
      0.19730792939662933,
      0.5009066462516785
    ],
    [
      0.08308862149715424,
      0.10811574012041092,
      -0.3178783655166626
    ],
    [
      -0.7354395985603333,
      0.1236555352807045,
      0.2509566843509674
    ],
    [
      0.1020464226603508,
      -0.39080920815467834,
      0.43076813220977783
    ],
    [
      -0.18780988454818726,
      -0.07145245373249054,
      0.35562294721603394
    ],
    [
      -0.2000466138124466,
      -0.6710718274116516,
      0.04664390906691551
    ],
    [
      0.199648916721344,
      0.06640419363975525,
      0.5789564847946167
    ],
    [
      0.09679441154003143,
      0.09815020859241486,
      -0.6047163605690002
    ],
    [
      -0.11160185188055038,
      -0.017321310937404633,
      0.3379196226596832
    ],
    [
      -0.047364845871925354,
      -0.047505248337984085,
      0.33010995388031006
    ],
    [
      0.17378312349319458,
      0.20636284351348877,
      -0.3028094470500946
    ],
    [
      0.1479424238204956,
      0.1974099576473236,
      -0.4017135798931122
    ],
    [
      0.08329307287931442,
      0.08606410026550293,
      -0.14280129969120026
    ],
    [
      0.1288778930902481,
      -0.8566535115242004,
      0.5280146598815918
    ],
    [
      -0.08814773708581924,
      -0.0680168941617012,
      0.4383366107940674
    ],
    [
      -0.032399509102106094,
      -0.01254451647400856,
      0.50875324010849
    ],
    [
      -0.02033880352973938,
      -0.025942320004105568,
      0.4471628665924072
    ],
    [
      0.11167240142822266,
      0.11347553133964539,
      -0.47007015347480774
    ],
    [
      -0.8987553119659424,
      -0.021134022623300552,
      0.5336230993270874
    ],
    [
      0.06213921681046486,
      -0.18253587186336517,
      0.34469279646873474
    ],
    [
      -0.043656300753355026,
      -0.03884124010801315,
      0.5386964082717896
    ],
    [
      0.3079959750175476,
      0.343050092458725,
      -0.8149543404579163
    ],
    [
      0.061167120933532715,
      -0.592557430267334,
      -0.0343560129404068
    ]
  ],
  "fc1.bias": [
    0.624415397644043,
    0.8991926908493042,
    -0.96247798204422,
    -0.6845497488975525,
    0.16873712837696075,
    0.02688673511147499,
    -0.690514326095581,
    0.5773380398750305,
    0.34479716420173645,
    0.6909214854240417,
    -0.6119595766067505,
    -0.14942537248134613,
    0.5141941905021667,
    0.48907271027565,
    0.19679367542266846,
    0.5030900239944458,
    -0.8288261890411377,
    0.6224383115768433,
    0.5799170732498169,
    -0.32492467761039734,
    -0.6847682595252991,
    -0.02450999803841114,
    -0.04518430307507515,
    0.7827224135398865,
    0.9024243950843811,
    0.8044177293777466,
    -0.9475553631782532,
    -0.07694391161203384,
    0.5858947038650513,
    0.9521597623825073,
    -0.6666165590286255,
    -0.8128060698509216
  ],
  "fc2.weight": [
    [
      -0.015894923359155655,
      -0.018864275887608528,
      0.8729455471038818,
      0.40201354026794434,
      -0.08735426515340805,
      -0.06650052219629288,
      -0.339344322681427,
      -0.03576100617647171,
      -0.051285337656736374,
      0.008609162643551826,
      0.8395677208900452,
      -0.08062796294689178,
      -0.024487823247909546,
      -0.033703915774822235,
      -0.0228563379496336,
      -0.036834899336099625,
      0.3811541497707367,
      -0.0054706549271941185,
      -0.016672005876898766,
      0.23517771065235138,
      0.2850331962108612,
      0.04623463749885559,
      -0.08295854926109314,
      -0.01093735359609127,
      -0.0007646084995940328,
      -0.01006266474723816,
      0.7570221424102783,
      -0.15733931958675385,
      -0.022886451333761215,
      -0.010701815597712994,
      0.06299252063035965,
      -0.5168313384056091
    ],
    [
      0.004647651221603155,
      -0.002422235906124115,
      -0.2963159680366516,
      -2.2618067264556885,
      -0.014959953725337982,
      -1.0796070098876953,
      -0.026600344106554985,
      -0.006226933561265469,
      0.02155080996453762,
      -0.004224266856908798,
      -1.0870378017425537,
      -0.00207516155205667,
      -0.010098476894199848,
      -0.004521193914115429,
      0.020529823377728462,
      0.005211536306887865,
      -2.368373394012451,
      -0.0030687106773257256,
      -0.017634281888604164,
      -2.982743740081787,
      -1.6647014617919922,
      -1.4145227670669556,
      0.014868197031319141,
      -0.0008262182818725705,
      -0.0030258051119744778,
      0.005706023890525103,
      -0.3560844957828522,
      0.010571959428489208,
      0.002146039390936494,
      0.011269212700426579,
      -3.8063836097717285,
      -0.07270796597003937
    ],
    [
      0.02338240295648575,
      0.007339149713516235,
      -0.1636315882205963,
      -2.293030023574829,
      -0.018980663269758224,
      -0.8053162693977356,
      0.12114870548248291,
      0.017812425270676613,
      0.033090438693761826,
      0.005716131068766117,
      -0.48912283778190613,
      -0.015033797360956669,
      -0.007516615558415651,
      0.01377075258642435,
      0.014595425687730312,
      0.0054138703271746635,
      -2.363668918609619,
      0.019976500421762466,
      0.008133421652019024,
      -2.715217113494873,
      -1.4088743925094604,
      -1.0970473289489746,
      0.026426970958709717,
      -0.0041457596234977245,
      0.00718573946505785,
      0.004960030782967806,
      -0.3001643419265747,
      0.037778399884700775,
      0.006445002742111683,
      0.01778007671236992,
      -2.1692328453063965,
      0.11674134433269501
    ],
    [
      -1.3201100826263428,
      -0.475195974111557,
      0.570160984992981,
      0.25847604870796204,
      -0.7304909229278564,
      0.10169723629951477,
      -0.3738846480846405,
      -0.17059920728206635,
      -0.14801134169101715,
      -0.43887796998023987,
      0.3500830829143524,
      -0.17877773940563202,
      -0.18560023605823517,
      -0.801099419593811,
      -0.17102138698101044,
      -0.4334476590156555,
      -0.11822131276130676,
      -0.36332955956459045,
      -0.8665609359741211,
      0.01609995774924755,
      0.18380308151245117,
      0.09412824362516403,
      -0.2580423951148987,
      -1.06560480594635,
      -0.32987353205680847,
      -0.598644495010376,
      0.40227633714675903,
      -0.2347254902124405,
      -0.3867206871509552,
      -0.42293715476989746,
      -0.09108084440231323,
      -0.5683981776237488
    ],
    [
      0.009668062441051006,
      0.0008494892972521484,
      0.4631117284297943,
      -0.49187448620796204,
      -0.17990025877952576,
      0.0509362556040287,
      -0.23845134675502777,
      -0.014485940337181091,
      -0.05208783596754074,
      -0.0007077069021761417,
      0.30932140350341797,
      -0.08096316456794739,
      -0.04242635890841484,
      -0.039297137409448624,
      0.0215107724070549,
      -0.004233178216964006,
      0.5163511037826538,
      -0.013641780242323875,
      -0.0027643442153930664,
      -0.04480608552694321,
      0.669946551322937,
      -0.19829712808132172,
      -0.04213368520140648,
      0.011078587733209133,
      -0.008478865958750248,
      0.010563106276094913,
      0.12646332383155823,
      -0.31900331377983093,
      -0.009820736944675446,
      -0.008921807631850243,
      0.3495050072669983,
      -0.47709038853645325
    ],
    [
      0.04469647258520126,
      -0.007802980020642281,
      0.2620013654232025,
      -0.2486463487148285,
      -0.1698237508535385,
      -0.19501379132270813,
      0.011424991302192211,
      0.20053495466709137,
      0.00054279959294945,
      -0.08994954079389572,
      -0.07462801784276962,
      -0.02680123969912529,
      -0.026167722418904305,
      -0.050640854984521866,
      0.032441023737192154,
      -0.07046626508235931,
      -0.3346429169178009,
      0.03773990273475647,
      -0.018464496359229088,
      -0.2107003778219223,
      -0.4471796154975891,
      -0.11797332763671875,
      -0.07026144117116928,
      0.026364564895629883,
      -0.005921566393226385,
      -0.00948287732899189,
      0.2769451141357422,
      -0.2010878026485443,
      -0.005480554886162281,
      -0.010661019943654537,
      0.7117552161216736,
      -0.20994943380355835
    ],
    [
      -0.021543461829423904,
      -0.010871038772165775,
      -0.3002482056617737,
      -1.9241278171539307,
      0.014429602771997452,
      -0.33666160702705383,
      0.5832589864730835,
      0.0011349031701683998,
      0.06565111875534058,
      0.0031708606984466314,
      -1.0179862976074219,
      0.0034032505936920643,
      0.02322467602789402,
      0.036625225096940994,
      0.011066839098930359,
      -0.005314862355589867,
      -1.3107872009277344,
      -0.01353650912642479,
      -0.014533018693327904,
      -0.8154473304748535,
      -2.269345283508301,
      -0.4880041182041168,
      0.08462602645158768,
      -0.005148524884134531,
      -0.022781118750572205,
      -0.003934885840862989,
      -0.48554569482803345,
      0.0687287226319313,
      0.019795050844550133,
      0.004592305980622768,
      -0.34673044085502625,
      0.8170260190963745
    ],
    [
      0.01107476744800806,
      0.011043118312954903,
      -0.16281338036060333,
      -2.0960683822631836,
      -0.019863560795783997,
      -0.8563874959945679,
      -0.1255178302526474,
      0.023329734802246094,
      0.014480175450444221,
      -0.005185676738619804,
      -0.42393243312835693,
      0.00011491932673379779,
      0.007788492366671562,
      -0.005282769910991192,
      0.02260465733706951,
      -0.002761254785582423,
      -1.9690216779708862,
      -0.00043233134783804417,
      0.0005107081378810108,
      -3.2221925258636475,
      -1.1244533061981201,
      -1.268835186958313,
      0.013665818609297276,
      -0.008946439251303673,
      0.004830405116081238,
      0.01400010660290718,
      -0.2368917018175125,
      0.009379817172884941,
      0.006823807954788208,
      0.012349842116236687,
      -4.601688861846924,
      -0.20963290333747864
    ],
    [
      -0.007870941422879696,
      -0.02588752843439579,
      -0.23284560441970825,
      -0.7434545159339905,
      0.5974200367927551,
      -0.06273307651281357,
      -0.8782063126564026,
      -0.019319409504532814,
      -0.2871052920818329,
      -0.011659326031804085,
      -0.512596607208252,
      0.6576490998268127,
      -0.08624467998743057,
      -0.06582796573638916,
      -0.22300837934017181,
      0.005702452268451452,
      -0.24799419939517975,
      -0.043398573994636536,
      -0.017833324149250984,
      -0.2800234854221344,
      -0.8069592714309692,
      -0.1373578906059265,
      -0.24586732685565948,
      -0.0019398406147956848,
      -0.012321474961936474,
      -0.014585605822503567,
      -0.2792552411556244,
      -0.2729475498199463,
      -0.015066681429743767,
      0.00040036774589680135,
      -0.08593206107616425,
      0.21426421403884888
    ],
    [
      -0.0769771933555603,
      -0.054881300777196884,
      0.892031729221344,
      0.42064231634140015,
      -0.296257346868515,
      0.1177203431725502,
      -0.3987952172756195,
      -0.1529092639684677,
      -0.1041439101099968,
      -0.03592822328209877,
      0.5843575596809387,
      -0.0988747626543045,
      -0.07902587205171585,
      -0.6261374354362488,
      -0.0920947939157486,
      -0.005479484796524048,
      0.47121956944465637,
      -0.09861401468515396,
      -0.11123691499233246,
      0.23699700832366943,
      0.35407310724258423,
      0.29063668847084045,
      -0.10542204976081848,
      -0.0529085248708725,
      -0.030900239944458008,
      -0.03119763918220997,
      0.7373401522636414,
      -1.1724605560302734,
      -0.06080207973718643,
      -0.03280216082930565,
      0.07749725878238678,
      -0.3479810655117035
    ],
    [
      -0.013620106503367424,
      -0.008283906616270542,
      -0.2363928109407425,
      -1.9083058834075928,
      0.0011437236098572612,
      -0.3767445683479309,
      0.6700879335403442,
      0.013949752785265446,
      0.05293278768658638,
      -0.004423867911100388,
      -0.9978266358375549,
      0.025544386357069016,
      0.04308047518134117,
      0.03447497636079788,
      0.04065234586596489,
      0.008861366659402847,
      -1.2897647619247437,
      0.007818962447345257,
      0.003101206151768565,
      -0.8302804827690125,
      -1.9452004432678223,
      -0.5007248520851135,
      0.061010606586933136,
      -0.01289420761168003,
      -0.0011621731100603938,
      0.0023746632505208254,
      -0.42611274123191833,
      0.06098442152142525,
      -0.008633031509816647,
      0.0020838542841374874,
      -0.321219801902771,
      0.7876178622245789
    ],
    [
      -0.00796762015670538,
      -0.0042411331087350845,
      -0.4321763217449188,
      -1.94008469581604,
      0.024007661268115044,
      -0.3832254409790039,
      0.6236865520477295,
      -0.019960584118962288,
      0.030659710988402367,
      0.01992015354335308,
      -1.5234763622283936,
      -0.0037621327210217714,
      0.04578584060072899,
      0.05789695680141449,
      0.06523527204990387,
      -0.01321780402213335,
      -1.1860767602920532,
      0.0045861066319048405,
      0.0033974687103182077,
      -0.8501980304718018,
      -2.2875216007232666,
      -0.5061283111572266,
      0.07678205519914627,
      0.007775356527417898,
      -0.015677375718951225,
      0.002686848398298025,
      -0.7536581158638,
      0.07507866621017456,
      -0.007355667185038328,
      0.0053101470693945885,
      -0.3470301628112793,
      0.6774122714996338
    ],
    [
      -0.03240833058953285,
      -0.03477994725108147,
      0.989501416683197,
      0.34233546257019043,
      -0.12014338374137878,
      0.14058685302734375,
      -0.2783958613872528,
      -0.007872916758060455,
      -0.03355756774544716,
      -0.04919731989502907,
      0.44984692335128784,
      -0.07032372802495956,
      -0.05202961340546608,
      -0.11294396221637726,
      0.020617974922060966,
      -0.015258945524692535,
      0.2207115739583969,
      -0.027201056480407715,
      -0.06187347695231438,
      0.09413903206586838,
      0.289725661277771,
      0.03819626569747925,
      -0.11063281446695328,
      -0.02238122746348381,
      -0.008554402738809586,
      0.0039982423186302185,
      0.6823078989982605,
      -0.16652719676494598,
      -0.07321418821811676,
      -0.01567423902451992,
      0.04933159798383713,
      -0.42440351843833923
    ],
    [
      -0.0073719508945941925,
      0.00014392002776730806,
      -0.5187614560127258,
      -1.6890850067138672,
      -0.021958107128739357,
      -2.857893466949463,
      -0.33584392070770264,
      0.011042520403862,
      -0.012265133671462536,
      -0.002791677601635456,
      -0.7494341731071472,
      -0.011363768950104713,
      -0.003136237384751439,
      -0.00796091090887785,
      0.00924505665898323,
      0.0067541273310780525,
      -1.0224155187606812,
      0.008354190737009048,
      0.003881432581692934,
      -2.4593358039855957,
      -0.9103633165359497,
      -5.009287357330322,
      -0.008719228208065033,
      -0.0027700283098965883,
      0.005387226585298777,
      0.0004213006468489766,
      -0.548868715763092,
      0.0016326274489983916,
      -0.0006843435112386942,
      -0.0020240400917828083,
      -3.6821372509002686,
      -0.3957246243953705
    ],
    [
      -0.0370764434337616,
      -0.04178261011838913,
      1.1168924570083618,
      0.25669074058532715,
      -0.10787405073642731,
      -0.028702232986688614,
      -0.2616986334323883,
      -0.026173170655965805,
      -0.0652480274438858,
      -0.043440550565719604,
      0.9044739603996277,
      -0.07749004662036896,
      -0.04017798230051994,
      -0.07556498050689697,
      0.002008716808632016,
      -0.03007098287343979,
      0.30806970596313477,
      -0.044743310660123825,
      -0.07073504477739334,
      0.1648423820734024,
      0.3317546844482422,
      0.1092449277639389,
      -0.08921321481466293,
      -0.047228142619132996,
      -0.02565436251461506,
      -0.024636825546622276,
      0.922833263874054,
      -0.16806958615779877,
      -0.03894756734371185,
      -0.028905460610985756,
      0.08049048483371735,
      -0.46159493923187256
    ],
    [
      -1.4189503192901611,
      -0.9928419589996338,
      0.6604432463645935,
      -0.11326257139444351,
      -0.2791964113712311,
      0.10639305412769318,
      -0.47804588079452515,
      -0.40899908542633057,
      -0.27446651458740234,
      -0.5104507803916931,
      -0.07353253662586212,
      -0.4971894323825836,
      -0.03444220498204231,
      -0.47719475626945496,
      -0.20369359850883484,
      -0.6961051225662231,
      -0.28426027297973633,
      -0.6125386953353882,
      -1.6177634000778198,
      0.043043095618486404,
      -0.0018887630430981517,
      0.07366177439689636,
      0.09608259797096252,
      -1.8447940349578857,
      -0.9005750417709351,
      -0.9475876688957214,
      0.47264260053634644,
      -0.19469618797302246,
      -0.20320627093315125,
      -0.908707320690155,
      0.08577178418636322,
      -0.15581728518009186
    ],
    [
      -1.1476848125457764,
      -0.2654062807559967,
      0.7859978675842285,
      -0.027573872357606888,
      -0.2183600813150406,
      0.007957974448800087,
      -1.4530935287475586,
      -0.1382121741771698,
      -0.24378472566604614,
      -0.41502997279167175,
      0.23459725081920624,
      -0.5401284694671631,
      -0.08555199205875397,
      -2.0380208492279053,
      -0.15961547195911407,
      -0.07518905401229858,
      0.1823773980140686,
      -0.5364226698875427,
      -0.6482962369918823,
      0.03854266554117203,
      0.2087666243314743,
      0.14198757708072662,
      -0.080492302775383,
      -0.5662380456924438,
      -0.23550502955913544,
      -0.34977954626083374,
      0.5805360674858093,
      -0.9434524774551392,
      -0.2705819308757782,
      -0.2355673611164093,
      0.00898507609963417,
      -0.14008794724941254
    ],
    [
      -0.008501139469444752,
      -0.005709601100534201,
      -0.23688256740570068,
      -2.121987819671631,
      0.021550381556153297,
      -0.38708990812301636,
      0.7461774945259094,
      -0.015402305871248245,
      0.04443149268627167,
      0.006951862946152687,
      -0.9226049780845642,
      0.003888034960255027,
      0.035259246826171875,
      0.03965980187058449,
      0.023192014545202255,
      -0.02019670605659485,
      -1.5614174604415894,
      0.018868116661906242,
      0.01568877138197422,
      -1.033568263053894,
      -2.1446189880371094,
      -0.5291672348976135,
      0.05950028821825981,
      0.0015910210786387324,
      0.005227889399975538,
      -0.01322638988494873,
      -0.35967138409614563,
      0.04311281070113182,
      0.0006366089801304042,
      0.00572957331314683,
      -0.34237056970596313,
      0.7418790459632874
    ],
    [
      -1.6063300371170044,
      -0.6283553838729858,
      0.5061333179473877,
      0.04930226132273674,
      -0.8226534724235535,
      0.024666408076882362,
      -0.3226653039455414,
      -0.3501785397529602,
      -0.2181682288646698,
      -0.632582426071167,
      0.1154092326760292,
      -0.25857317447662354,
      -0.5507950186729431,
      -1.1002202033996582,
      -0.986546516418457,
      -0.408110111951828,
      -0.12583141028881073,
      -0.7548274993896484,
      -1.2068678140640259,
      0.0446292944252491,
      -0.04007716476917267,
      0.03516136109828949,
      -0.9162260293960571,
      -1.1059106588363647,
      -0.5291560888290405,
      -0.4942949414253235,
      0.285117506980896,
      -0.5082571506500244,
      -0.7055445313453674,
      -0.371084600687027,
      0.02506457269191742,
      -0.7128092050552368
    ],
    [
      -0.017857994884252548,
      0.013674363493919373,
      -0.5302145481109619,
      -1.8682365417480469,
      0.015249086543917656,
      -0.42953091859817505,
      0.7752328515052795,
      0.02247697301208973,
      0.08241008967161179,
      0.012010754086077213,
      -1.0719245672225952,
      -0.012460310012102127,
      0.01590845361351967,
      0.04826097562909126,
      0.021463532000780106,
      -0.0015972855035215616,
      -1.6132926940917969,
      -0.004264624323695898,
      0.0037910800892859697,
      -1.1019030809402466,
      -1.8277770280838013,
      -0.5999720096588135,
      0.07409067451953888,
      -0.0012351357145234942,
      -0.013221215456724167,
      0.009948278777301311,
      -0.6416013240814209,
      0.05842031165957451,
      0.029879864305257797,
      0.0056249825283885,
      -0.4307640492916107,
      0.671009361743927
    ],
    [
      -0.5089841485023499,
      -0.23704130947589874,
      0.8281851410865784,
      0.06069523096084595,
      -0.967572808265686,
      0.15352106094360352,
      -0.1914675086736679,
      0.009313463233411312,
      0.04283515363931656,
      -0.2965632677078247,
      0.360768586397171,
      0.004200283903628588,
      -0.27210670709609985,
      -0.41806596517562866,
      0.012508668936789036,
      -0.33052730560302734,
      -0.1351022720336914,
      -0.20115326344966888,
      -0.5368239283561707,
      0.03628562018275261,
      0.15033793449401855,
      -0.03637923300266266,
      -0.47903209924697876,
      -0.3158355951309204,
      -0.1755257248878479,
      -0.23551082611083984,
      0.6208705306053162,
      -0.2993188202381134,
      -0.45856600999832153,
      -0.18998348712921143,
      -0.0035711205564439297,
      -0.9671084880828857
    ],
    [
      -0.03261050581932068,
      -0.018672248348593712,
      0.8665783405303955,
      0.37394237518310547,
      -1.4211435317993164,
      -0.1150260716676712,
      -0.580371618270874,
      -0.0984908938407898,
      -0.10615025460720062,
      -0.00888021383434534,
      0.5992950797080994,
      -0.1746438592672348,
      -0.10184583067893982,
      -0.07970855385065079,
      -0.090378038585186,
      -0.03209129348397255,
      0.4600764811038971,
      -0.024793991819024086,
      -0.021998554468154907,
      0.17604590952396393,
      0.14066261053085327,
      -0.024064181372523308,
      -0.4788235127925873,
      -0.036686819046735764,
      -0.0039023940917104483,
      -0.02050185576081276,
      1.0024863481521606,
      -1.4433214664459229,
      -0.02167138084769249,
      -0.015987541526556015,
      0.034445833414793015,
      -1.3219537734985352
    ],
    [
      -0.328751802444458,
      -0.06554263085126877,
      0.6821687817573547,
      0.1358129382133484,
      -1.4778010845184326,
      0.10407566279172897,
      -0.5304549932479858,
      -0.1862925887107849,
      -0.21429148316383362,
      -0.2017088532447815,
      0.6285304427146912,
      -0.258830189704895,
      -0.20910005271434784,
      -2.23337721824646,
      -0.2001575231552124,
      -0.08390787243843079,
      0.20228442549705505,
      -0.352073609828949,
      -0.22122755646705627,
      0.08993956446647644,
      -0.03381193056702614,
      0.1592887043952942,
      -0.8779177069664001,
      -0.10862400382757187,
      -0.07119350880384445,
      -0.0680689662694931,
      0.7080097198486328,
      -1.061659574508667,
      -0.16125744581222534,
      -0.03397732973098755,
      -0.01654110476374626,
      -1.0337775945663452
    ],
    [
      0.01664852350950241,
      0.004812394734472036,
      -0.21530595421791077,
      -2.5476584434509277,
      -0.0124174440279603,
      -0.6665570735931396,
      0.1966986358165741,
      0.022586418315768242,
      0.05178254470229149,
      -0.011549608781933784,
      -0.53080815076828,
      -0.0051232390105724335,
      0.007171835284680128,
      -0.022162608802318573,
      0.06628807634115219,
      -0.011091948486864567,
      -2.6491799354553223,
      0.009563746862113476,
      0.008210618980228901,
      -2.835812568664551,
      -1.4068101644515991,
      -0.9492789506912231,
      0.02505122870206833,
      0.0032603060826659203,
      -0.0035217024851590395,
      0.012804031372070312,
      -0.28698381781578064,
      0.020207958295941353,
      0.009966909885406494,
      -0.005722672678530216,
      -1.3224186897277832,
      0.2230243980884552
    ],
    [
      -0.24218210577964783,
      -0.12572284042835236,
      0.8057114481925964,
      0.12938207387924194,
      -0.14978773891925812,
      0.22465084493160248,
      -0.3930493891239166,
      -0.05782671272754669,
      -0.028386138379573822,
      -0.17314372956752777,
      0.5270288586616516,
      -0.12880206108093262,
      -0.1185401901602745,
      -0.309678852558136,
      0.0024953156244009733,
      -0.08422214537858963,
      0.10863149911165237,
      -0.16426882147789001,
      -0.21006467938423157,
      0.06301683187484741,
      0.3519876003265381,
      0.11950059980154037,
      -0.13520079851150513,
      -0.1514415293931961,
      -0.12449044734239578,
      -0.10422813892364502,
      0.6536523103713989,
      -0.8186742663383484,
      -0.21773426234722137,
      -0.1064034104347229,
      0.011509540490806103,
      -0.3187425136566162
    ],
    [
      0.0021070335060358047,
      0.010797486640512943,
      -0.2035790979862213,
      -2.551154613494873,
      0.006251223850995302,
      -0.4977221190929413,
      0.5637723207473755,
      0.00519274827092886,
      0.06256100535392761,
      -0.010952764190733433,
      -0.7700079083442688,
      0.04818141460418701,
      0.03581646457314491,
      0.034531302750110626,
      0.04859515652060509,
      -0.015044762752950191,
      -2.4012451171875,
      -0.009669763036072254,
      -0.009976774454116821,
      -1.5519144535064697,
      -1.876198172569275,
      -0.6611648797988892,
      0.03128927946090698,
      0.012033393606543541,
      0.007149668876081705,
      0.0006877713603898883,
      -0.23412832617759705,
      0.029333489015698433,
      0.004285353701561689,
      0.007146247662603855,
      -0.5081541538238525,
      0.6398832201957703
    ],
    [
      -0.11814606934785843,
      -0.07951604574918747,
      0.7482724785804749,
      -0.03983403369784355,
      -0.40540361404418945,
      0.04161311313509941,
      0.017561689019203186,
      -0.19343695044517517,
      -0.12237244844436646,
      -0.0373581163585186,
      0.8793236017227173,
      0.0017119066324084997,
      -0.0925535336136818,
      -0.4440552294254303,
      -0.10254236310720444,
      0.02909928373992443,
      0.1876050978899002,
      -0.15998123586177826,
      -0.13145725429058075,
      0.048857495188713074,
      0.1841077208518982,
      0.013360635377466679,
      -0.02496543899178505,
      -0.11916367709636688,
      -0.04759470373392105,
      -0.056542567908763885,
      0.6920731663703918,
      -0.3801572918891907,
      -0.14279715716838837,
      -0.07282256335020065,
      -2.5709433555603027,
      -0.11393076181411743
    ],
    [
      0.004039479419589043,
      0.00840784516185522,
      -0.2214847058057785,
      -2.34391188621521,
      0.013390284031629562,
      -0.5385297536849976,
      0.6389489769935608,
      0.012254874221980572,
      0.04871153086423874,
      -0.004415011499077082,
      -0.7868175506591797,
      0.003328881459310651,
      0.021900588646531105,
      0.015903452411293983,
      0.057264089584350586,
      -0.007179685402661562,
      -2.48215651512146,
      -0.0011156650725752115,
      -0.01563168689608574,
      -1.7991324663162231,
      -1.6963212490081787,
      -0.6738415956497192,
      0.04914537072181702,
      0.0066080098040401936,
      0.0046743061393499374,
      -0.006626882124692202,
      -0.3818209171295166,
      0.037217527627944946,
      -0.01580553501844406,
      0.005236785858869553,
      -0.5397741794586182,
      0.5028662085533142
    ],
    [
      0.024757731705904007,
      -0.0005417332286015153,
      -0.07007420063018799,
      -2.131251096725464,
      -0.013815301470458508,
      -0.6443178653717041,
      0.3360573649406433,
      0.005266650579869747,
      0.05711893364787102,
      -0.0062676905654370785,
      -0.8604331612586975,
      0.009530284442007542,
      0.02225388213992119,
      0.006167419254779816,
      0.0583808571100235,
      -0.0038536563515663147,
      -2.4411990642547607,
      0.005162104032933712,
      -0.0008576603722758591,
      -2.0331828594207764,
      -1.892482876777649,
      -0.6627722978591919,
      0.05817895755171776,
      -3.386686148587614e-05,
      -0.001641737762838602,
      -0.014340984635055065,
      -0.38416630029678345,
      0.02211557887494564,
      0.006398428697139025,
      0.003901413409039378,
      -0.6733309030532837,
      0.5788018703460693
    ],
    [
      -1.066203236579895,
      -2.4508986473083496,
      0.7496554255485535,
      0.08793698996305466,
      -0.25915294885635376,
      -0.03210752457380295,
      -0.11956045776605606,
      -1.2432461977005005,
      -0.7676370739936829,
      -0.7727629542350769,
      0.14379554986953735,
      -0.591295063495636,
      -1.2626378536224365,
      0.07645604014396667,
      -0.9223238825798035,
      -0.9530624747276306,
      0.01981690339744091,
      -1.3220802545547485,
      -1.9093269109725952,
      0.06474782526493073,
      -0.06304626911878586,
      0.05787065625190735,
      -0.33208808302879333,
      -2.063973903656006,
      -1.9936610460281372,
      -1.6023918390274048,
      0.2987677752971649,
      -0.3842272162437439,
      -1.1547129154205322,
      -2.0397562980651855,
      -0.01689491793513298,
      -0.25094419717788696
    ],
    [
      -0.09569983184337616,
      -0.03867654874920845,
      0.8085595965385437,
      0.4123396873474121,
      -0.15531858801841736,
      0.10900049656629562,
      -0.7388408780097961,
      -0.07906422019004822,
      -0.24107567965984344,
      -0.046346087008714676,
      0.7480127811431885,
      -0.2533279359340668,
      -0.07156100869178772,
      -0.5300435423851013,
      -0.014778601005673409,
      0.0065262410789728165,
      0.5587846040725708,
      -0.09778057783842087,
      -0.04280662164092064,
      0.1777697652578354,
      0.3295433521270752,
      0.030698688700795174,
      -0.09328949451446533,
      -0.04437302052974701,
      -0.034284282475709915,
      -0.025924373418092728,
      0.7962996363639832,
      -1.9204566478729248,
      -0.05552423372864723,
      -0.037453968077898026,
      0.045480553060770035,
      -0.46573078632354736
    ],
    [
      -0.9384435415267944,
      -2.209318161010742,
      0.5067195892333984,
      -0.08672785013914108,
      -0.3379012942314148,
      0.006672457791864872,
      -0.447014182806015,
      -0.44440779089927673,
      -0.3821079134941101,
      -0.31982019543647766,
      0.2052271068096161,
      -0.5891793966293335,
      -0.3253551125526428,
      -0.29700613021850586,
      -0.7783256769180298,
      -0.7457478642463684,
      -0.08117138594388962,
      -0.6698858737945557,
      -1.7277283668518066,
      -0.018122686073184013,
      -0.048452507704496384,
      -0.03936866298317909,
      -0.4959767758846283,
      -2.2448019981384277,
      -1.9101656675338745,
      -1.5016226768493652,
      0.49575260281562805,
      -0.3320522904396057,
      -0.7264321446418762,
      -1.876741886138916,
      0.02376430854201317,
      -0.24801649153232574
    ]
  ],
  "fc2.bias": [
    0.28082549571990967,
    0.28864800930023193,
    0.2915273904800415,
    0.5829926133155823,
    0.008476492948830128,
    -0.3599926233291626,
    0.31395238637924194,
    0.30598485469818115,
    0.20632605254650116,
    0.35952332615852356,
    0.2789813280105591,
    0.30118584632873535,
    0.3264160752296448,
    0.2760078012943268,
    0.2739136517047882,
    0.5001983046531677,
    0.6696600914001465,
    0.28553906083106995,
    0.6666804552078247,
    0.2769679129123688,
    0.5764932632446289,
    0.2893740236759186,
    0.4516519010066986,
    0.30142760276794434,
    0.5071144700050354,
    0.2611164450645447,
    0.501081645488739,
    0.3013872504234314,
    0.2723565101623535,
    0.30321699380874634,
    0.3269726634025574,
    0.49259185791015625
  ],
  "fc3.weight": [
    [
      0.2884649634361267,
      -0.10349529981613159,
      -0.09229379892349243,
      0.5312162637710571,
      0.5575641393661499,
      1.399725079536438,
      -0.05985068902373314,
      -0.1049521416425705,
      -0.11971719563007355,
      0.252420574426651,
      -0.05689731985330582,
      -0.061158668249845505,
      0.2636866569519043,
      -0.22295792400836945,
      0.3377240002155304,
      0.7712851762771606,
      0.43398740887641907,
      -0.06756114214658737,
      0.4575329124927521,
      -0.0741763710975647,
      0.3720667362213135,
      0.3263393044471741,
      0.454240620136261,
      -0.07726990431547165,
      0.29816216230392456,
      -0.06852385401725769,
      0.8471282124519348,
      -0.07309070229530334,
      -0.06931455433368683,
      1.1450003385543823,
      0.28758305311203003,
      1.1971303224563599
    ]
  ],
  "fc3.bias": [
    0.011125564575195312
  ]
}