{
  "fc1.weight": [
    [
      -0.781663179397583,
      0.08389127254486084,
      -0.04391185939311981
    ],
    [
      -0.04135590419173241,
      -0.016890838742256165,
      0.35634905099868774
    ],
    [
      0.1907309889793396,
      0.21308475732803345,
      -0.3791177570819855
    ],
    [
      0.12092036753892899,
      0.31104812026023865,
      0.6467387676239014
    ],
    [
      0.0578094981610775,
      -0.2890225350856781,
      0.5211937427520752
    ],
    [
      -0.260233074426651,
      -0.2696188986301422,
      0.3674875795841217
    ],
    [
      -0.08346707373857498,
      -0.7427999377250671,
      0.005439437925815582
    ],
    [
      0.5677388906478882,
      0.5992672443389893,
      -0.8046098351478577
    ],
    [
      0.08307063579559326,
      -0.6360263824462891,
      -0.029562700539827347
    ],
    [
      0.13847780227661133,
      0.14311838150024414,
      -0.4587584137916565
    ],
    [
      -0.03253582864999771,
      -0.009786073118448257,
      0.43010595440864563
    ],
    [
      -0.024034587666392326,
      -0.037406064569950104,
      0.37938135862350464
    ],
    [
      0.5530917048454285,
      0.2369217574596405,
      0.6033403873443604
    ],
    [
      -0.5294002294540405,
      0.5721415877342224,
      0.5319763422012329
    ],
    [
      0.10810314118862152,
      0.09582429379224777,
      -0.5159627199172974
    ],
    [
      -0.00961325317621231,
      -0.049355532974004745,
      0.39928486943244934
    ],
    [
      -0.13530822098255157,
      0.12941724061965942,
      0.5345600247383118
    ],
    [
      -0.7154653072357178,
      -0.049129270017147064,
      0.4324721693992615
    ],
    [
      -0.04092591628432274,
      -0.0030426427256315947,
      0.5678106546401978
    ],
    [
      -0.48137167096138,
      -0.35290634632110596,
      -0.06514707207679749
    ],
    [
      -0.36450502276420593,
      -0.19119562208652496,
      0.4993049204349518
    ],
    [
      0.11408380419015884,
      0.11957009881734848,
      -0.1771247237920761
    ],
    [
      -0.03708665445446968,
      -0.04182840883731842,
      0.32693344354629517
    ],
    [
      -0.14092767238616943,
      -0.6842828989028931,
      0.4342297911643982
    ],
    [
      -0.039531197398900986,
      -0.7256976962089539,
      0.38509148359298706
    ],
    [
      0.1483975201845169,
      0.15056969225406647,
      -0.4704461693763733
    ],
    [
      -0.018621617928147316,
      -0.019202956929802895,
      0.3875814378261566
    ],
    [
      0.24037407338619232,
      0.23366335034370422,
      -0.31378960609436035
    ],
    [
      -0.3050125539302826,
      -0.07467208802700043,
      0.23962554335594177
    ],
    [
      0.5498338937759399,
      -0.5127798318862915,
      0.42031070590019226
    ],
    [
      0.2066446989774704,
      0.21339918673038483,
      -0.4609777629375458
    ],
    [
      0.1551254540681839,
      0.16481003165245056,
      -0.5270938873291016
    ]
  ],
  "fc1.bias": [
    -0.9315314888954163,
    0.6551682353019714,
    -0.7957184910774231,
    0.36012983322143555,
    0.6178850531578064,
    -0.6930519938468933,
    0.0941813588142395,
    -0.6040582060813904,
    -0.9058193564414978,
    -0.6879950761795044,
    0.7409879565238953,
    0.6329540014266968,
    -0.0008350239950232208,
    -0.06760731339454651,
    -0.6940780282020569,
    0.6742216944694519,
    0.7297052145004272,
    0.0695803239941597,
    0.9825373291969299,
    0.4331403970718384,
    0.6488925218582153,
    -0.02336028218269348,
    0.5665497779846191,
    0.23995345830917358,
    -0.16341404616832733,
    -0.5058875679969788,
    0.6848790049552917,
    -0.5617315173149109,
    0.38583192229270935,
    0.03693992272019386,
    -0.7332728505134583,
    -1.1033707857131958
  ],
  "fc2.weight": [
    [
      -0.08459750562906265,
      -0.868264377117157,
      0.3690623342990875,
      -0.18463186919689178,
      -0.533793032169342,
      -0.17784591019153595,
      -0.43796437978744507,
      -0.05102163180708885,
      -0.48557934165000916,
      -0.10479337722063065,
      -1.0862061977386475,
      -1.315536379814148,
      -0.07120542228221893,
      -0.5056241750717163,
      0.13233159482479095,
      -1.1066445112228394,
      -0.33432498574256897,
      -0.5244892239570618,
      -0.7480491995811462,
      -0.27139076590538025,
      -0.3366967737674713,
      -0.07546521723270416,
      -1.5432312488555908,
      -0.9633991122245789,
      -0.5704028606414795,
      0.17310959100723267,
      -1.0284836292266846,
      0.0932561606168747,
      -0.818901777267456,
      -0.1690455824136734,
      -0.14330609142780304,
      0.3473159670829773
    ],
    [
      0.3610014319419861,
      0.0035706579219549894,
      -1.3428728580474854,
      -0.023884791880846024,
      0.015174562111496925,
      -0.18131023645401,
      0.006783318240195513,
      -0.16405507922172546,
      0.49035218358039856,
      -2.5557401180267334,
      0.00500255124643445,
      0.00786655955016613,
      -0.015129666775465012,
      -0.006330721080303192,
      -1.4075373411178589,
      0.009613584727048874,
      -0.0025408784858882427,
      0.08020766079425812,
      -0.008659981191158295,
      -0.007562432903796434,
      0.028149360790848732,
      -0.1673911064863205,
      -0.02633683755993843,
      0.050755828619003296,
      0.07563156634569168,
      -0.6288730502128601,
      0.010646396316587925,
      -1.3499114513397217,
      0.0447322316467762,
      0.020710641518235207,
      -3.169144630432129,
      -0.1706664115190506
    ],
    [
      -0.19022433459758759,
      -0.2870523929595947,
      -0.44021880626678467,
      -0.19263644516468048,
      -0.4409024119377136,
      0.07202863693237305,
      0.09603209793567657,
      0.6222018003463745,
      -0.06034593656659126,
      -0.3771826922893524,
      -0.2957618534564972,
      -0.4424794614315033,
      -0.09613793343305588,
      0.007872259244322777,
      -0.36498597264289856,
      -0.3840382993221283,
      -0.18648453056812286,
      -0.20552441477775574,
      -0.2293209433555603,
      0.17007231712341309,
      -0.17963305115699768,
      -0.16760122776031494,
      -0.5955946445465088,
      -0.32381394505500793,
      -0.2368859201669693,
      -0.18007764220237732,
      -0.3811550438404083,
      -0.32253298163414,
      -0.0867283046245575,
      -0.017651259899139404,
      -0.3759411573410034,
      -0.03177301585674286
    ],
    [
      -0.16413792967796326,
      0.004427878186106682,
      -0.5014029741287231,
      -0.002390866866335273,
      0.001215192605741322,
      0.032338861376047134,
      0.02925022877752781,
      -4.886933326721191,
      -0.24687345325946808,
      -0.8229781985282898,
      0.017654431983828545,
      0.01631820760667324,
      -0.025462379679083824,
      -0.013993756845593452,
      -1.3772838115692139,
      0.009577556513249874,
      0.0030390426982194185,
      -0.011457414366304874,
      0.011761195957660675,
      0.05757703632116318,
      -0.020607054233551025,
      -3.2824923992156982,
      0.022021649405360222,
      -0.014456135220825672,
      -0.0151078961789608,
      -4.058465957641602,
      0.01053278986364603,
      -3.362821102142334,
      0.011117520742118359,
      0.00259108142927289,
      -1.469252109527588,
      -0.32037895917892456
    ],
    [
      -0.3348574638366699,
      -0.08768919110298157,
      0.4080100655555725,
      -0.020564794540405273,
      -0.39401179552078247,
      -0.20232167840003967,
      -0.06258156150579453,
      0.163798987865448,
      -0.4918794631958008,
      0.3609185814857483,
      -0.10444995015859604,
      -0.15242789685726166,
      0.061236027628183365,
      -0.23511876165866852,
      0.382279634475708,
      -0.14351722598075867,
      -0.1702222377061844,
      -0.20316722989082336,
      -0.0620066374540329,
      -0.006269089877605438,
      -0.08369062095880508,
      0.0922711193561554,
      -0.17691278457641602,
      -0.16196951270103455,
      -0.3159739077091217,
      0.2607285976409912,
      -0.13132962584495544,
      0.09500174969434738,
      -0.015532040037214756,
      -0.05275439843535423,
      -0.03028218075633049,
      0.7328263521194458
    ],
    [
      0.30357787013053894,
      0.01081069279462099,
      -1.6173551082611084,
      -0.004118676297366619,
      0.041634541004896164,
      -0.17116081714630127,
      0.014894584193825722,
      -0.1677190214395523,
      0.33940672874450684,
      -2.028796672821045,
      0.011897886171936989,
      0.0009327518055215478,
      -0.006832856684923172,
      0.004240328446030617,
      -2.2173285484313965,
      0.005420140456408262,
      0.009468448348343372,
      0.08525655418634415,
      0.005888344254344702,
      -0.007486860267817974,
      -0.00218056864105165,
      -0.20070482790470123,
      0.030449477955698967,
      0.05616731941699982,
      0.0443316288292408,
      -0.8781036138534546,
      -0.0010891746496781707,
      -1.684396505355835,
      0.052627336233854294,
      0.019742678850889206,
      -2.912522792816162,
      -0.3427274823188782
    ],
    [
      -0.05051470920443535,
      -0.008074886165559292,
      -0.7714136838912964,
      -0.016780318692326546,
      0.00748960068449378,
      -0.05787430331110954,
      0.04256356135010719,
      -2.269932985305786,
      -0.04209606721997261,
      -1.221422791481018,
      0.024766065180301666,
      0.0006119647296145558,
      -0.03541143238544464,
      0.040858861058950424,
      -2.3322410583496094,
      0.0034305541776120663,
      0.02071133255958557,
      -0.008369513787329197,
      0.0058319163508713245,
      0.08022413402795792,
      -0.04024110734462738,
      -1.8055546283721924,
      0.024816520512104034,
      -0.002490941435098648,
      0.00206536753103137,
      -3.5772628784179688,
      0.011894287541508675,
      -2.408292531967163,
      0.02222888171672821,
      0.015337254852056503,
      -1.3962408304214478,
      -0.18178637325763702
    ],
    [
      -0.1980353593826294,
      -1.783920168876648,
      0.09845742583274841,
      -0.833918571472168,
      -1.081534743309021,
      -0.19979368150234222,
      -0.9237583875656128,
      0.05381517857313156,
      -0.23723042011260986,
      -0.15991701185703278,
      -2.224616050720215,
      -2.060532331466675,
      -0.5314774513244629,
      -0.3707368075847626,
      -0.19211335480213165,
      -2.290339231491089,
      -0.5762655735015869,
      -0.40870100259780884,
      -2.0668935775756836,
      -0.49463969469070435,
      -0.26958784461021423,
      0.0745614618062973,
      -1.0447912216186523,
      -0.48041874170303345,
      -0.5725665092468262,
      -0.10276998579502106,
      -2.106628656387329,
      0.13954536616802216,
      -0.9959108829498291,
      -0.6132962107658386,
      0.1391109824180603,
      0.41015625
    ],
    [
      0.3311671316623688,
      0.028198247775435448,
      -0.822099506855011,
      -0.018018193542957306,
      -0.001714467303827405,
      -0.19816672801971436,
      0.0430501326918602,
      -0.21897482872009277,
      0.17457230389118195,
      -1.4923722743988037,
      0.0006468807114288211,
      0.014084423892199993,
      0.007744122762233019,
      0.00848307739943266,
      -3.272305727005005,
      0.013687096536159515,
      0.011005159467458725,
      0.052113983780145645,
      0.021199271082878113,
      0.010861806571483612,
      -0.01101550180464983,
      -0.3653257489204407,
      0.0037453100085258484,
      0.02189958095550537,
      0.06874807178974152,
      -1.5355644226074219,
      0.0014701152686029673,
      -2.6491270065307617,
      0.01956513524055481,
      0.03279398754239082,
      -2.394788980484009,
      -0.19533386826515198
    ],
    [
      0.41032180190086365,
      0.01739697903394699,
      -1.6819512844085693,
      0.0024542862083762884,
      0.02747805416584015,
      -0.1831725686788559,
      0.0030305401887744665,
      -0.1659691035747528,
      0.42828792333602905,
      -2.4263076782226562,
      0.01708037778735161,
      -0.011496961116790771,
      -0.010338027030229568,
      0.01251276209950447,
      -1.4363276958465576,
      0.017380209639668465,
      0.01215438637882471,
      0.0678492859005928,
      0.011838049627840519,
      0.004376027267426252,
      0.03015291877090931,
      -0.21030984818935394,
      0.0034414464607834816,
      0.06422647833824158,
      0.07601426541805267,
      -0.6530458331108093,
      0.014913641847670078,
      -1.355443000793457,
      0.059940118342638016,
      0.008455999195575714,
      -2.7495181560516357,
      -0.9311721920967102
    ],
    [
      -1.11785089969635,
      -0.32965826988220215,
      0.17059040069580078,
      -0.3775063753128052,
      -0.9963305592536926,
      -0.1737808734178543,
      -0.12195412069559097,
      -0.035032957792282104,
      -1.216512680053711,
      0.1292288899421692,
      -0.3079981803894043,
      -0.5521978139877319,
      -0.027583235874772072,
      -0.2543202340602875,
      0.2592723071575165,
      -0.33974942564964294,
      -0.37349364161491394,
      -0.940463662147522,
      -0.14649364352226257,
      -0.06872181594371796,
      -1.5909312963485718,
      -0.03240637481212616,
      -0.8386202454566956,
      -0.39648908376693726,
      -0.48780539631843567,
      0.13719326257705688,
      -0.289730042219162,
      0.14305227994918823,
      -0.5045744776725769,
      -0.15938588976860046,
      -0.1284750998020172,
      0.789205014705658
    ],
    [
      -0.20770417153835297,
      -0.05365503951907158,
      0.3867340087890625,
      -0.05688665807247162,
      -0.0835936963558197,
      -0.004921277053654194,
      -0.034484293311834335,
      0.026833606883883476,
      -0.2218368500471115,
      0.5605401396751404,
      -0.03090156428515911,
      -0.058479320257902145,
      -0.010594393126666546,
      -0.045236919075250626,
      0.2562240958213806,
      -0.053833819925785065,
      -0.04749869182705879,
      -0.1342741847038269,
      -0.03244835138320923,
      -0.03056095913052559,
      -0.04632406309247017,
      0.00649703573435545,
      -0.05457155779004097,
      -0.0549442283809185,
      -0.1291484832763672,
      0.09994020313024521,
      -0.06257942318916321,
      0.18898466229438782,
      -0.051014244556427,
      -0.03804205730557442,
      0.31485071778297424,
      0.9031952023506165
    ],
    [
      0.361637681722641,
      0.02129540964961052,
      -1.3377859592437744,
      0.002362646162509918,
      0.026500865817070007,
      -0.24769537150859833,
      0.023662934079766273,
      -0.21194961667060852,
      0.43417686223983765,
      -2.196490526199341,
      -0.0007805696222931147,
      -0.004450061358511448,
      -0.007721790112555027,
      0.036652062088251114,
      -1.7738336324691772,
      0.013820791617035866,
      0.008734696544706821,
      0.06478659063577652,
      0.015611090697348118,
      -0.005695815663784742,
      -0.013840840198099613,
      -0.24129775166511536,
      0.001997615210711956,
      0.0645536407828331,
      0.0713731199502945,
      -0.7035791277885437,
      -0.00047713620006106794,
      -1.3954577445983887,
      0.02501220814883709,
      0.00892223697155714,
      -3.219114303588867,
      -0.19313065707683563
    ],
    [
      -0.38022473454475403,
      -0.062234677374362946,
      0.41145679354667664,
      0.020008660852909088,
      -0.1012125015258789,
      -0.0009950308594852686,
      -0.10157574713230133,
      -2.59580397605896,
      -0.3305913507938385,
      0.33443063497543335,
      -0.05354322865605354,
      -0.08287762850522995,
      0.032840482890605927,
      -0.012983911670744419,
      0.2359776496887207,
      -0.05636107176542282,
      -0.027848681434988976,
      -0.40412667393684387,
      -0.01847931370139122,
      -0.13989219069480896,
      -0.47802555561065674,
      -0.012938168831169605,
      -0.11839529126882553,
      -0.3916826844215393,
      -0.23545345664024353,
      0.021537551656365395,
      -0.03783184662461281,
      0.1410631239414215,
      -0.30910441279411316,
      0.009638406336307526,
      0.17107336223125458,
      0.7826537489891052
    ],
    [
      0.4147174656391144,
      -0.008494882844388485,
      -1.4464470148086548,
      -0.010824459604918957,
      0.019008399918675423,
      -0.3168351352214813,
      0.011619809083640575,
      -0.1953800767660141,
      0.5232356190681458,
      -2.208402395248413,
      0.006258206907659769,
      -0.01189730316400528,
      -0.013989138416945934,
      -0.019404426217079163,
      -1.784399151802063,
      0.01966114342212677,
      0.01197078451514244,
      0.08854667097330093,
      0.0008262199116870761,
      -0.002216033171862364,
      0.003367749275639653,
      -0.18347080051898956,
      -0.006405400577932596,
      0.07846157252788544,
      0.09072917699813843,
      -0.7938166260719299,
      0.017756985500454903,
      -1.571290135383606,
      0.06924644112586975,
      -0.024747220799326897,
      -3.100677251815796,
      -0.3173069655895233
    ],
    [
      -0.11390329152345657,
      -0.09467991441488266,
      0.2152395099401474,
      -0.17712154984474182,
      -0.1285889893770218,
      -0.10184208303689957,
      0.004086120519787073,
      0.38080301880836487,
      -0.42832210659980774,
      -0.040261853486299515,
      -0.1048702746629715,
      -0.16199341416358948,
      -0.17677779495716095,
      -0.1415303498506546,
      0.2009878307580948,
      -0.17606498301029205,
      -0.2331520915031433,
      -0.11717495322227478,
      -0.10439857095479965,
      0.061242904514074326,
      -0.04080453887581825,
      -0.1201203465461731,
      -0.18463721871376038,
      -0.12752319872379303,
      -0.2977241277694702,
      -0.49872761964797974,
      -0.13072825968265533,
      0.04782821610569954,
      0.013627939857542515,
      -0.008275552652776241,
      0.06029669940471649,
      0.40075811743736267
    ],
    [
      -0.19284838438034058,
      -0.06864968687295914,
      -1.4124146699905396,
      -0.018602464348077774,
      -0.05827457830309868,
      -0.04869995266199112,
      -0.05179524049162865,
      0.044233065098524094,
      0.6679790019989014,
      -1.6206556558609009,
      -0.07276660948991776,
      -0.06825985014438629,
      0.046904176473617554,
      -0.054697100073099136,
      -0.577692449092865,
      -0.06651913374662399,
      -0.05473849177360535,
      -0.14992696046829224,
      -0.04073141887784004,
      -0.1159738227725029,
      0.7147644758224487,
      0.13274036347866058,
      -0.07759298384189606,
      -0.09559241682291031,
      -0.09826485812664032,
      -0.17269551753997803,
      -0.06642907112836838,
      -0.3323294222354889,
      -0.1891050934791565,
      0.024041537195444107,
      -1.0672169923782349,
      -0.5622808933258057
    ],
    [
      -0.9370211958885193,
      -0.6274909973144531,
      0.023450465872883797,
      -0.6724483966827393,
      -0.9993345737457275,
      -0.12237849086523056,
      -0.22604216635227203,
      -0.0039088125340640545,
      -0.8477515578269958,
      -0.10473369807004929,
      -0.5475313663482666,
      -0.9800719022750854,
      -0.4578566253185272,
      -0.7125512957572937,
      -0.1333617866039276,
      -0.5547050833702087,
      -0.6097184419631958,
      -0.988533079624176,
      -0.3960939943790436,
      0.02091839909553528,
      -0.7595832347869873,
      0.18100863695144653,
      -1.5086778402328491,
      -1.216308355331421,
      -0.8302794098854065,
      -0.09326746314764023,
      -0.4696240723133087,
      0.2175501137971878,
      -0.5957900285720825,
      -0.14726431667804718,
      0.30759263038635254,
      0.3743239641189575
    ],
    [
      0.35054752230644226,
      -0.012191050685942173,
      -1.40060293674469,
      -0.009845363907516003,
      0.041976191103458405,
      -0.19331905245780945,
      -0.011701242066919804,
      -0.19327276945114136,
      0.43658003211021423,
      -2.346583604812622,
      -0.0021825660951435566,
      0.021650029346346855,
      0.00836050882935524,
      0.017081009224057198,
      -1.5865992307662964,
      0.020728472620248795,
      -0.007299668155610561,
      0.07737316191196442,
      -0.011992927640676498,
      -0.014090053737163544,
      0.0009747642325237393,
      -0.2285372018814087,
      -0.0017884268891066313,
      0.08447103947401047,
      0.08710134774446487,
      -0.6043886542320251,
      0.007127974648028612,
      -1.4112980365753174,
      0.0627063661813736,
      0.01647784560918808,
      -3.1438591480255127,
      -0.3545299470424652
    ],
    [
      -0.28320541977882385,
      -0.018963361158967018,
      0.7842165231704712,
      -0.033364519476890564,
      -0.017570091411471367,
      -0.28279557824134827,
      -0.05839773267507553,
      0.01752922683954239,
      -0.5909957885742188,
      0.5121805667877197,
      -0.016148818656802177,
      0.000808792538009584,
      -0.008916986174881458,
      -0.04942870885133743,
      0.4999684691429138,
      -0.03648996353149414,
      -0.014002565294504166,
      -0.12080509960651398,
      -0.0052784522995352745,
      -0.033796004951000214,
      -0.007554941810667515,
      0.06699582934379578,
      -0.020441172644495964,
      -0.11675285547971725,
      -0.24052776396274567,
      0.25814446806907654,
      -0.010765815153717995,
      0.17057116329669952,
      -0.06285076588392258,
      -0.01434419211000204,
      0.2789892554283142,
      1.111005187034607
    ],
    [
      -0.5109935402870178,
      -0.012092926539480686,
      0.5381757020950317,
      -0.05487295240163803,
      -0.09787502884864807,
      0.15815885365009308,
      -0.004174137953668833,
      0.05450054630637169,
      -0.411043643951416,
      0.42413583397865295,
      -0.023134423419833183,
      -0.02540934458374977,
      -0.021698366850614548,
      -0.0614238902926445,
      0.44771867990493774,
      -0.04390009120106697,
      -0.0314861424267292,
      -0.2818172574043274,
      -0.0013881116174161434,
      0.02840018831193447,
      -0.16221953928470612,
      0.01366639044135809,
      -0.037516795098781586,
      -0.15685349702835083,
      -0.2660670280456543,
      0.18600867688655853,
      -0.01205726619809866,
      0.20080119371414185,
      -0.13434824347496033,
      -0.028525518253445625,
      0.2162446677684784,
      0.8572753667831421
    ],
    [
      0.2755584418773651,
      0.03766293078660965,
      -0.6406642198562622,
      -0.009388119913637638,
      0.03294120728969574,
      -0.3046084940433502,
      0.04686401039361954,
      -0.29087260365486145,
      0.24007000029087067,
      -1.1342436075210571,
      0.02302512526512146,
      0.045402541756629944,
      -0.006010405253618956,
      0.026127992197871208,
      -2.947556495666504,
      0.021865321323275566,
      0.0011056461371481419,
      0.03970535844564438,
      0.02529594674706459,
      0.0721435472369194,
      -0.02569812908768654,
      -0.5407716631889343,
      0.02738901972770691,
      0.024919869378209114,
      0.005721720401197672,
      -2.3323605060577393,
      0.0176616869866848,
      -2.8792080879211426,
      0.04983625188469887,
      0.04196797311306,
      -1.9405124187469482,
      -0.12060803920030594
    ],
    [
      -0.38151484727859497,
      -0.055212363600730896,
      0.3113202452659607,
      -0.021403811872005463,
      -0.10550696402788162,
      -0.18803660571575165,
      -0.0034478658344596624,
      0.1546599566936493,
      -0.5957791805267334,
      0.461264044046402,
      -0.05562900751829147,
      -0.08534824103116989,
      0.007058152463287115,
      -0.12509974837303162,
      0.3916325569152832,
      -0.09853297472000122,
      -0.10812386125326157,
      -0.2032804638147354,
      -0.061145979911088943,
      -0.008657390251755714,
      -0.07549987733364105,
      0.019544536247849464,
      -0.10157652199268341,
      -0.05211874470114708,
      -0.17529471218585968,
      0.3205917477607727,
      -0.06771282851696014,
      0.15405423939228058,
      -0.06087304651737213,
      -0.026142826303839684,
      0.29193469882011414,
      0.9331016540527344
    ],
    [
      0.06748653948307037,
      0.0076552992686629295,
      -0.6590796113014221,
      -0.012082863599061966,
      0.009410776197910309,
      -0.08570295572280884,
      0.05549456924200058,
      -1.0293554067611694,
      -0.06228683888912201,
      -0.839643657207489,
      0.0020314885769039392,
      0.02443133480846882,
      -0.015576599165797234,
      0.019957270473241806,
      -2.3241195678710938,
      0.013342340476810932,
      -0.0033205789513885975,
      0.012383631430566311,
      0.0017706059152260423,
      0.04484834522008896,
      -0.03708354011178017,
      -1.2049241065979004,
      0.020427901297807693,
      0.008386543020606041,
      0.008652683347463608,
      -3.623873710632324,
      0.0031963104847818613,
      -3.348860025405884,
      0.023321615532040596,
      0.02455637976527214,
      -1.6693902015686035,
      -0.20132261514663696
    ],
    [
      0.2751021385192871,
      0.014754245989024639,
      -0.7443984746932983,
      -0.0018802749691531062,
      0.010308444499969482,
      -0.21797659993171692,
      0.03325210139155388,
      -0.31593066453933716,
      0.48869335651397705,
      -1.1946874856948853,
      0.04254338890314102,
      0.038364339619874954,
      -0.02492554858326912,
      0.006569662597030401,
      -2.567037343978882,
      0.01192270964384079,
      0.019995518028736115,
      0.03628163784742355,
      0.03232463821768761,
      0.04510611295700073,
      0.003265123115852475,
      -0.5494130849838257,
      0.06399843096733093,
      0.028461001813411713,
      0.01665481925010681,
      -1.791388750076294,
      0.007466164417564869,
      -2.8556227684020996,
      0.06007911637425423,
      0.02258988656103611,
      -2.044408082962036,
      -0.5241285562515259
    ],
    [
      -0.32639947533607483,
      -1.4856677055358887,
      0.1399955004453659,
      -0.5771269798278809,
      -0.22048044204711914,
      -0.0829237774014473,
      -0.006976424250751734,
      -0.04024432227015495,
      -0.10503134876489639,
      0.11731608211994171,
      -2.122339963912964,
      -1.4077577590942383,
      -0.6681768298149109,
      -0.4493095278739929,
      0.014558409340679646,
      -2.141448736190796,
      -0.7502126097679138,
      -0.5855303406715393,
      -1.8636112213134766,
      -0.11726666241884232,
      -0.29222697019577026,
      -0.09388462454080582,
      -1.0424083471298218,
      -0.15596304833889008,
      -0.009276768192648888,
      -0.08990766108036041,
      -1.9104758501052856,
      0.08621803671121597,
      -1.026853084564209,
      0.10644824057817459,
      -0.09528162330389023,
      0.754979133605957
    ],
    [
      -0.2752605378627777,
      -1.493775725364685,
      0.10384128987789154,
      -0.2395593374967575,
      -0.5657213926315308,
      0.012246204540133476,
      -0.6739487648010254,
      -0.033741336315870285,
      -0.18407119810581207,
      0.10499884933233261,
      -1.6807727813720703,
      -1.531144618988037,
      -0.3868904411792755,
      -0.6322694420814514,
      -0.14583158493041992,
      -1.6114799976348877,
      -0.5648074150085449,
      -0.1884884536266327,
      -1.4717427492141724,
      -0.5118725895881653,
      -0.3256590962409973,
      0.257558673620224,
      -1.44001042842865,
      -0.39847448468208313,
      -0.5235301852226257,
      0.19299043715000153,
      -1.7333627939224243,
      -0.15804964303970337,
      -0.9759395122528076,
      -0.32520002126693726,
      0.12718786299228668,
      0.5610239505767822
    ],
    [
      -0.4613170623779297,
      -0.007923966273665428,
      0.5001417994499207,
      -0.020363500341773033,
      -0.02994312159717083,
      -0.21975688636302948,
      -0.019902078434824944,
      0.005559222307056189,
      -0.5971006155014038,
      0.6167994737625122,
      -0.018258020281791687,
      -0.013536477461457253,
      -0.04054690897464752,
      -0.058033205568790436,
      0.4319233298301697,
      -0.026725344359874725,
      -0.02004321478307247,
      -0.158291757106781,
      -0.007446257397532463,
      -0.026100922375917435,
      -0.018647385761141777,
      0.008433117531239986,
      -0.03305191919207573,
      -0.07834763079881668,
      -0.17396143078804016,
      0.3473893702030182,
      -0.03475911542773247,
      0.2307005077600479,
      -0.07039875537157059,
      -0.050608694553375244,
      0.38097819685935974,
      0.9469529986381531
    ],
    [
      -0.5604590177536011,
      -0.04962438344955444,
      0.4577016830444336,
      -0.015979504212737083,
      -0.12285823374986649,
      0.00683023314923048,
      -0.15124939382076263,
      0.004988852422684431,
      -1.7497342824935913,
      0.4280710816383362,
      -0.005194875877350569,
      -0.04328693822026253,
      0.016873300075531006,
      -0.08944272994995117,
      0.23628312349319458,
      -0.04586952552199364,
      -0.010777114890515804,
      -0.5682564973831177,
      -0.014268163591623306,
      -0.07355191558599472,
      -1.7470860481262207,
      0.008025959134101868,
      -0.053193479776382446,
      -1.853637456893921,
      -1.2129460573196411,
      0.3503552973270416,
      -0.022455969825387,
      0.06527264416217804,
      -0.3507041335105896,
      -0.01590300165116787,
      0.2753441035747528,
      0.996562123298645
    ],
    [
      -0.5643869042396545,
      -0.1407925933599472,
      0.297547310590744,
      -0.10715831071138382,
      -0.6936933994293213,
      0.07019118964672089,
      -0.3163326680660248,
      -0.03241768851876259,
      -1.1262037754058838,
      0.222874253988266,
      -0.09564140439033508,
      -0.19302450120449066,
      0.022987913340330124,
      0.013198768720030785,
      0.36348357796669006,
      -0.09763290733098984,
      -0.10572292655706406,
      -0.5752373933792114,
      -0.05557744950056076,
      -0.23193304240703583,
      -2.131089210510254,
      0.012224911712110043,
      -0.35349658131599426,
      -1.4951597452163696,
      -0.9804072380065918,
      0.10664273053407669,
      -0.0869406908750534,
      0.11895094811916351,
      -0.520841121673584,
      -0.12977860867977142,
      0.14698942005634308,
      0.7784473299980164
    ],
    [
      0.14603231847286224,
      0.0065310001373291016,
      -0.8348255753517151,
      0.0012151463888585567,
      0.010514612309634686,
      -0.14087916910648346,
      0.029242096468806267,
      -0.47720474004745483,
      0.22330185770988464,
      -1.128326416015625,
      0.005760706961154938,
      0.010578547604382038,
      -0.00403737323358655,
      0.03981208801269531,
      -2.95950984954834,
      0.04113852232694626,
      0.0022442725021392107,
      0.046681180596351624,
      0.009208746254444122,
      0.055091742426157,
      -0.032120879739522934,
      -0.8007286787033081,
      0.02436261810362339,
      0.02178925648331642,
      0.01914658024907112,
      -2.5691239833831787,
      -0.0005508349277079105,
      -2.9667418003082275,
      0.02002590149641037,
      0.04184066131711006,
      -1.8667056560516357,
      -0.2390601634979248
    ],
    [
      -0.3821152448654175,
      -0.29397648572921753,
      0.26303771138191223,
      -0.20308472216129303,
      -0.4074697494506836,
      -0.04895368218421936,
      -0.04336826130747795,
      -0.030429871752858162,
      -0.21226657927036285,
      0.05006556957960129,
      -0.30891701579093933,
      -0.4661818742752075,
      -0.25427329540252686,
      -0.104432612657547,
      -0.03905075043439865,
      -0.35113605856895447,
      -0.21306708455085754,
      -0.4078286588191986,
      -0.22508661448955536,
      -0.035832926630973816,
      -0.3830251097679138,
      0.15096919238567352,
      -0.8335577845573425,
      -0.17461466789245605,
      -0.21848782896995544,
      -0.0798383504152298,
      -0.32658353447914124,
      -0.040213003754615784,
      -0.08946268260478973,
      -0.036801762878894806,
      0.24432073533535004,
      0.6580527424812317
    ]
  ],
  "fc2.bias": [
    0.5595588684082031,
    0.32091832160949707,
    -0.36031657457351685,
    0.19084890186786652,
    0.5097104907035828,
    0.3046993315219879,
    0.23911245167255402,
    0.3664829134941101,
    0.26600074768066406,
    0.31405553221702576,
    0.5705850720405579,
    0.31132635474205017,
    0.3060999810695648,
    0.4101777970790863,
    0.32977139949798584,
    0.18312853574752808,
    0.14874206483364105,
    0.5819610357284546,
    0.3074057996273041,
    0.25674352049827576,
    0.2619856595993042,
    0.22356568276882172,
    0.3412975072860718,
    0.22983774542808533,
    0.2258336842060089,
    0.4479687213897705,
    0.22892354428768158,
    0.32890936732292175,
    0.30504029989242554,
    0.5350999236106873,
    0.22425810992717743,
    0.5694550275802612
  ],
  "fc3.weight": [
    [
      0.7220205068588257,
      -0.05616804212331772,
      1.4598345756530762,
      -0.13027359545230865,
      0.20867235958576202,
      -0.06392005831003189,
      -0.1090545803308487,
      0.9283151626586914,
      -0.06035090610384941,
      -0.057572707533836365,
      0.48005345463752747,
      0.2811141610145569,
      -0.06349556893110275,
      0.6531539559364319,
      -0.06363876909017563,
      0.37361207604408264,
      -0.18607820570468903,
      0.4459851384162903,
      -0.056200042366981506,
      0.24485783278942108,
      0.23889480531215668,
      -0.06689091771841049,
      0.23939159512519836,
      -0.10002680867910385,
      -0.057324882596731186,
      1.0226163864135742,
      0.8597655892372131,
      0.2052975744009018,
      0.24704524874687195,
      0.3706289231777191,
      -0.06475318223237991,
      0.3718239665031433
    ]
  ],
  "fc3.bias": [
    0.02076622098684311
  ]
}