{
  "fc1.weight": [
    [
      0.41113418340682983,
      -0.5499798059463501,
      0.07634575664997101
    ],
    [
      0.12129723280668259,
      0.10667286813259125,
      -0.30214357376098633
    ],
    [
      0.1341928392648697,
      0.12706749141216278,
      -0.1260136216878891
    ],
    [
      -0.255379319190979,
      -0.7530081868171692,
      0.17982065677642822
    ],
    [
      -0.17882594466209412,
      -0.22424522042274475,
      0.38443079590797424
    ],
    [
      -0.25615713000297546,
      -0.16588585078716278,
      0.35203817486763
    ],
    [
      0.18286511301994324,
      0.17560037970542908,
      -0.3533584773540497
    ],
    [
      -0.18494388461112976,
      -0.1817896068096161,
      0.3252119719982147
    ],
    [
      -0.12630769610404968,
      -0.32173413038253784,
      0.30956217646598816
    ],
    [
      0.17477910220623016,
      0.16758272051811218,
      -0.5536381602287292
    ],
    [
      -0.7569324374198914,
      -0.23917661607265472,
      0.31451454758644104
    ],
    [
      0.10102789849042892,
      0.11874792724847794,
      -0.5662328004837036
    ],
    [
      0.1040177121758461,
      0.09647326171398163,
      -0.42539700865745544
    ],
    [
      0.29126572608947754,
      0.2841911315917969,
      -0.5096548795700073
    ],
    [
      0.15665313601493835,
      0.1611955612897873,
      -0.1354912966489792
    ],
    [
      -0.14444667100906372,
      -0.5095866322517395,
      0.345519483089447
    ],
    [
      -0.47046375274658203,
      0.08925896883010864,
      0.012083820067346096
    ],
    [
      0.22340995073318481,
      0.206918865442276,
      -0.3868713676929474
    ],
    [
      0.35759466886520386,
      0.3518085479736328,
      -0.13823126256465912
    ],
    [
      -0.43802130222320557,
      -0.3293765187263489,
      0.3972457945346832
    ],
    [
      -0.277375191450119,
      -0.22935758531093597,
      0.4158168137073517
    ],
    [
      -0.7079992294311523,
      0.16627803444862366,
      0.07618177682161331
    ],
    [
      -0.39943185448646545,
      -0.2371598780155182,
      0.39110055565834045
    ],
    [
      -0.15882684290409088,
      -0.19173935055732727,
      0.2813790738582611
    ],
    [
      -0.15955500304698944,
      -0.12717068195343018,
      0.276207834482193
    ],
    [
      0.17718878388404846,
      0.17474356293678284,
      -0.3416883945465088
    ],
    [
      0.21818296611309052,
      0.2079947143793106,
      -0.20858579874038696
    ],
    [
      0.0927509292960167,
      0.08270107209682465,
      -0.4797106087207794
    ],
    [
      0.14241604506969452,
      0.13584649562835693,
      -0.5098433494567871
    ],
    [
      -0.25093621015548706,
      -0.5958681702613831,
      0.36390602588653564
    ],
    [
      0.09001746773719788,
      -0.6197513937950134,
      -0.06865454465150833
    ],
    [
      0.10461411625146866,
      0.1130819246172905,
      -0.08743031322956085
    ]
  ],
  "fc1.bias": [
    -0.2300339639186859,
    -0.12596727907657623,
    0.09720462560653687,
    -0.2777673006057739,
    0.7318061590194702,
    0.5880675315856934,
    -0.6791755557060242,
    0.6471142172813416,
    0.48751264810562134,
    -1.0293737649917603,
    0.14856234192848206,
    -0.9792234897613525,
    -0.5171957015991211,
    -1.0155572891235352,
    0.03916631266474724,
    0.05119714140892029,
    -0.14863015711307526,
    -0.7847856283187866,
    -0.5165441036224365,
    0.6725249886512756,
    0.5164169073104858,
    -0.628592848777771,
    0.3611293137073517,
    0.5439934730529785,
    0.5526342988014221,
    -0.7070883512496948,
    -0.07459278404712677,
    -0.6549758315086365,
    -0.4756043553352356,
    0.35501569509506226,
    -0.6085523366928101,
    0.12542033195495605
  ],
  "fc2.weight": [
    [
      -0.0018436175305396318,
      -0.41861778497695923,
      -0.19365444779396057,
      0.1082608550786972,
      0.0086524598300457,
      0.029240434989333153,
      -1.5461444854736328,
      -0.010435499250888824,
      0.08452744781970978,
      -0.21800659596920013,
      0.03783189877867699,
      -0.6045655608177185,
      -2.5509707927703857,
      -0.3816618323326111,
      -0.270704060792923,
      0.13910388946533203,
      0.15165209770202637,
      -0.3844372630119324,
      -3.1746349334716797,
      0.011877056211233139,
      0.02676764689385891,
      0.20475544035434723,
      0.08421842008829117,
      -0.009805825538933277,
      0.012622205540537834,
      -0.3960510492324829,
      -0.3573656678199768,
      -2.4091241359710693,
      -0.9378297328948975,
      0.043566420674324036,
      0.30624261498451233,
      -0.24648873507976532
    ],
    [
      0.0625174343585968,
      -0.2872387766838074,
      -0.5407657623291016,
      0.11141781508922577,
      0.023313313722610474,
      0.041255343705415726,
      -1.0028635263442993,
      0.023808816447854042,
      0.05070670694112778,
      -0.204250767827034,
      0.003145223017781973,
      -0.2422516942024231,
      -0.7123076915740967,
      -0.25883013010025024,
      -0.9879196882247925,
      0.10409042239189148,
      0.23999358713626862,
      -0.06677456945180893,
      -2.0444679260253906,
      -0.006626198533922434,
      0.04299023002386093,
      0.24985167384147644,
      0.05159224197268486,
      0.06872500479221344,
      0.03139176592230797,
      -0.23669065535068512,
      -3.659456968307495,
      -0.8397189378738403,
      0.0034529143013060093,
      -0.028623875230550766,
      0.22707296907901764,
      -0.3665372133255005
    ],
    [
      -0.03282824531197548,
      0.03879168629646301,
      0.04516793042421341,
      -0.2765825390815735,
      -0.02512383833527565,
      -0.05595716834068298,
      0.3048335611820221,
      -0.0221844632178545,
      -0.1045113280415535,
      0.279733806848526,
      -0.5214366316795349,
      0.45560264587402344,
      0.23365607857704163,
      0.2996326982975006,
      0.05760683864355087,
      -1.1582170724868774,
      -0.1758044958114624,
      0.19237390160560608,
      0.10254882276058197,
      -0.22929729521274567,
      -0.19479532539844513,
      -0.46655163168907166,
      -3.1129214763641357,
      -0.06373727321624756,
      -0.014291569590568542,
      0.23326215147972107,
      0.007979760877788067,
      0.3165223002433777,
      0.28011614084243774,
      -0.19929829239845276,
      -0.07760637253522873,
      0.10657046735286713
    ],
    [
      -0.008058479987084866,
      0.022088682278990746,
      0.029479362070560455,
      -0.3141416609287262,
      -0.18432769179344177,
      -1.0435097217559814,
      0.23750810325145721,
      -0.2613029479980469,
      -0.505165696144104,
      0.32104840874671936,
      -1.0488892793655396,
      0.3915232717990875,
      0.07481375336647034,
      0.0820029228925705,
      0.021978827193379402,
      -1.5905349254608154,
      -0.21969959139823914,
      0.18716783821582794,
      -0.10512882471084595,
      -1.9843765497207642,
      -3.1275713443756104,
      -0.30613774061203003,
      -1.0889774560928345,
      -0.7026058435440063,
      -0.345924437046051,
      0.25685593485832214,
      -0.026087958365678787,
      -0.0166433397680521,
      -0.15319852530956268,
      -0.7223568558692932,
      0.055319465696811676,
      0.016326365992426872
    ],
    [
      0.02692386880517006,
      -0.03646295890212059,
      0.04818291962146759,
      -0.16469691693782806,
      -0.15312574803829193,
      -0.25950467586517334,
      0.2772659957408905,
      -0.11539813876152039,
      -0.22995193302631378,
      0.21969079971313477,
      -0.0987451896071434,
      0.2758614718914032,
      0.34029698371887207,
      0.28591546416282654,
      -0.004717710427939892,
      -0.5773252248764038,
      0.039447393268346786,
      0.3872292637825012,
      0.10960348695516586,
      -0.09294386208057404,
      -0.609228253364563,
      -0.11292282491922379,
      -1.232329249382019,
      -0.23424823582172394,
      -0.11796991527080536,
      0.1916528344154358,
      -0.06666960567235947,
      0.35161206126213074,
      0.06506875902414322,
      0.03035573847591877,
      -0.059248752892017365,
      0.034763842821121216
    ],
    [
      -0.11016053706407547,
      0.07118603587150574,
      0.0376054085791111,
      -0.4529055953025818,
      -0.07271965593099594,
      -0.07467802613973618,
      0.3148193657398224,
      -0.07865677028894424,
      -0.212675541639328,
      0.4272054433822632,
      -0.2207358181476593,
      0.4250986576080322,
      0.38134947419166565,
      0.17365077137947083,
      0.01844596117734909,
      -3.014662742614746,
      -0.14227357506752014,
      0.22940118610858917,
      0.21012245118618011,
      -0.1743556559085846,
      -0.16843684017658234,
      -0.16092132031917572,
      -0.7625662684440613,
      -0.1214393749833107,
      -0.06171100586652756,
      0.30208104848861694,
      0.008828649297356606,
      0.33170458674430847,
      0.13588811457157135,
      -0.3847462236881256,
      -0.13013583421707153,
      0.10312118381261826
    ],
    [
      -0.017182955518364906,
      0.07703173905611038,
      0.004995204508304596,
      -0.18662816286087036,
      -0.05267040804028511,
      -0.058287765830755234,
      0.5099707841873169,
      -0.03127067908644676,
      -0.10900905728340149,
      0.5373761057853699,
      -0.14058208465576172,
      0.34086963534355164,
      0.3257850110530853,
      0.2126687467098236,
      -0.049842849373817444,
      -0.4190293252468109,
      -0.058395687490701675,
      0.18289263546466827,
      0.2892138361930847,
      -0.07029739022254944,
      -0.10675983875989914,
      -0.1003652960062027,
      -0.3023334741592407,
      -0.06862221658229828,
      -0.030742011964321136,
      0.3518657386302948,
      0.0518309585750103,
      0.3492705821990967,
      0.16368478536605835,
      -0.08194814622402191,
      -0.10474226623773575,
      0.021631838753819466
    ],
    [
      -0.03983575850725174,
      0.13125298917293549,
      0.033412229269742966,
      -0.19036820530891418,
      -0.030152706429362297,
      -0.059066127985715866,
      0.28299999237060547,
      -0.02063915878534317,
      -0.09229481965303421,
      0.33359020948410034,
      -0.1503121554851532,
      0.6478630304336548,
      0.2560540437698364,
      0.14486688375473022,
      0.07568145543336868,
      -0.5101569890975952,
      -0.06774670630693436,
      0.22000809013843536,
      0.2266421914100647,
      -0.0863538533449173,
      -0.09798617660999298,
      -0.10126318037509918,
      -0.3989284634590149,
      -0.051338084042072296,
      -0.022535409778356552,
      0.3769157826900482,
      0.11436791718006134,
      0.23235167562961578,
      0.19244086742401123,
      -0.10564592480659485,
      -0.06344455480575562,
      0.033283449709415436
    ],
    [
      -0.018153320997953415,
      -1.4242643117904663,
      -0.6337833404541016,
      0.08503368496894836,
      0.010473683476448059,
      0.018044423311948776,
      -0.45882245898246765,
      0.009222649969160557,
      0.037465449422597885,
      -0.02694702334702015,
      0.0055823903530836105,
      -0.283644437789917,
      -2.683835983276367,
      -0.09524329006671906,
      -1.1111233234405518,
      0.09279798716306686,
      0.11672866344451904,
      -0.37448763847351074,
      -1.8732296228408813,
      -0.011838831007480621,
      0.004173310473561287,
      0.14023703336715698,
      0.029013408347964287,
      0.038380444049835205,
      0.01056648138910532,
      -0.07153508812189102,
      -5.307779788970947,
      -1.9766699075698853,
      -2.0036981105804443,
      0.006143645849078894,
      0.24296893179416656,
      -0.4001816213130951
    ],
    [
      0.008244256488978863,
      -1.048621654510498,
      -0.6287195682525635,
      0.1527853161096573,
      0.01510883029550314,
      -0.00041144443093799055,
      -0.5569568872451782,
      0.02725512720644474,
      0.015467694960534573,
      -0.020244821906089783,
      -4.2884079448413104e-05,
      -0.31699883937835693,
      -2.2880783081054688,
      -0.20505380630493164,
      -1.0856000185012817,
      0.08701858669519424,
      0.18105053901672363,
      -0.10475154221057892,
      -1.713148593902588,
      -0.037583716213703156,
      0.04760856553912163,
      0.15205350518226624,
      0.037935771048069,
      0.03289606422185898,
      0.03956541791558266,
      -0.16017137467861176,
      -4.80360221862793,
      -2.1648664474487305,
      -1.4278134107589722,
      0.0045289224945008755,
      0.11171086132526398,
      -0.3763485550880432
    ],
    [
      -0.01406839769333601,
      -0.4545912742614746,
      -0.17778559029102325,
      0.1683635264635086,
      0.031967587769031525,
      -0.011394214816391468,
      -1.3883237838745117,
      0.02142367698252201,
      0.024610504508018494,
      -0.20313459634780884,
      0.03226339817047119,
      -0.6550037860870361,
      -2.3762826919555664,
      -0.29770752787590027,
      -0.30860769748687744,
      0.14438262581825256,
      0.1380334049463272,
      -0.2563837468624115,
      -2.9608802795410156,
      -0.008527005091309547,
      0.017085524275898933,
      0.19719724357128143,
      0.10237720608711243,
      0.04871087148785591,
      -0.012587659992277622,
      -0.057085007429122925,
      -0.45794257521629333,
      -2.2062900066375732,
      -0.8900223970413208,
      0.007144179195165634,
      0.21964362263679504,
      -0.18083511292934418
    ],
    [
      0.03916419297456741,
      -0.5987281799316406,
      -0.41665714979171753,
      0.13711871206760406,
      0.035328857600688934,
      0.03755917772650719,
      -0.7290052175521851,
      0.02022874355316162,
      0.0396016389131546,
      -0.1618420034646988,
      0.05442773550748825,
      -0.41628310084342957,
      -1.9225852489471436,
      -0.21619795262813568,
      -0.6872543692588806,
      0.1084868386387825,
      0.22599811851978302,
      -0.01222255825996399,
      -2.39953351020813,
      -0.023865412920713425,
      0.02430415339767933,
      0.23967857658863068,
      0.032284919172525406,
      0.05187873914837837,
      0.042108990252017975,
      -0.19043241441249847,
      -1.611668586730957,
      -1.9324920177459717,
      -0.7088267803192139,
      0.016551082953810692,
      0.2945125699043274,
      -0.337619811296463
    ],
    [
      -0.08960967510938644,
      -2.981336832046509,
      -1.9146344661712646,
      0.03547120466828346,
      -0.00033938727574422956,
      0.002253958722576499,
      -0.3956930637359619,
      0.0006487990031018853,
      0.003248891094699502,
      -0.2382003366947174,
      -0.022623335942626,
      -0.29670068621635437,
      -1.3690842390060425,
      -0.007088794838637114,
      -5.54963493347168,
      -0.009665664285421371,
      -0.04844502732157707,
      0.09107965230941772,
      -0.9041164517402649,
      -0.007934670895338058,
      0.0036614593118429184,
      0.024943729862570763,
      0.0014742950443178415,
      0.004560728091746569,
      0.006848230957984924,
      -0.2336065024137497,
      -3.14056134223938,
      -1.2844692468643188,
      -2.1028895378112793,
      -0.013217474333941936,
      0.02250799722969532,
      -1.329330563545227
    ],
    [
      0.49604707956314087,
      -0.18309913575649261,
      -0.08017174899578094,
      -0.18014736473560333,
      -0.03365353122353554,
      -0.030323294922709465,
      -0.93855881690979,
      -0.004695103503763676,
      -0.05529642105102539,
      -0.18491524457931519,
      0.6365861296653748,
      -0.36934125423431396,
      -0.8000978827476501,
      -0.683948814868927,
      -0.2298363894224167,
      -0.11499760299921036,
      -0.36652594804763794,
      -0.5232581496238708,
      -1.7246754169464111,
      -0.04285472631454468,
      -0.030451538041234016,
      -0.3603471517562866,
      -0.09224221110343933,
      -0.029925258830189705,
      -0.030711600556969643,
      -0.46119362115859985,
      -0.5351412296295166,
      -0.6297085881233215,
      -0.24028997123241425,
      -0.06191499903798103,
      -0.2974870502948761,
      0.02089833654463291
    ],
    [
      -0.05019987002015114,
      0.042283572256565094,
      -0.0774548351764679,
      -0.8858528137207031,
      -0.1588355451822281,
      -0.431863397359848,
      0.1691059172153473,
      -0.17635242640972137,
      -0.7638192772865295,
      0.1730612963438034,
      -0.1517469882965088,
      0.42237523198127747,
      -0.10523954778909683,
      0.26441118121147156,
      -0.013326732441782951,
      -1.1700825691223145,
      -0.05035577714443207,
      0.17345112562179565,
      -0.022483525797724724,
      -0.28709033131599426,
      -2.3102715015411377,
      -0.04418438673019409,
      -1.995485544204712,
      -0.3912661075592041,
      -0.15885251760482788,
      0.2682291567325592,
      -0.01722600683569908,
      -0.005016795359551907,
      0.08980073779821396,
      -1.4270261526107788,
      -0.3833107650279999,
      0.01678357645869255
    ],
    [
      0.031827427446842194,
      -0.8790568113327026,
      -0.6912660598754883,
      0.11193613708019257,
      0.03824535757303238,
      0.034440044313669205,
      -0.5386574268341064,
      0.0238944198936224,
      0.012165844440460205,
      -0.06150883063673973,
      -0.016446812078356743,
      -0.387458473443985,
      -2.3849546909332275,
      -0.15285839140415192,
      -1.1793798208236694,
      0.06449573487043381,
      0.17732645571231842,
      -0.008501235395669937,
      -1.779705286026001,
      -0.018886210396885872,
      0.0190340057015419,
      0.1352575272321701,
      0.020748091861605644,
      0.010368655435740948,
      0.004176648333668709,
      -0.14445911347866058,
      -5.310904026031494,
      -1.7639247179031372,
      -0.9594571590423584,
      -0.013944493606686592,
      0.1938522458076477,
      -0.4238280951976776
    ],
    [
      -0.15440337359905243,
      -0.06356004625558853,
      -0.0036733257584273815,
      -0.26915737986564636,
      -0.042177971452474594,
      -0.04538582265377045,
      -0.8700888752937317,
      -0.02800879068672657,
      -0.09146112203598022,
      -0.11704804003238678,
      -0.07414371520280838,
      -0.4816141426563263,
      -0.8808000683784485,
      -0.9021880626678467,
      0.017033716663718224,
      -0.20814521610736847,
      -0.19413381814956665,
      -0.3631385564804077,
      -1.2943509817123413,
      -0.01953393593430519,
      -0.05081688612699509,
      0.531924843788147,
      -0.079465851187706,
      -0.0732475221157074,
      -0.05109056085348129,
      -0.4166920781135559,
      -0.01818833500146866,
      -0.928284764289856,
      -0.24498698115348816,
      0.7726988792419434,
      -0.21431148052215576,
      0.046385180205106735
    ],
    [
      -0.18119604885578156,
      0.049320124089717865,
      0.05305226892232895,
      -0.7724021077156067,
      -0.05154849961400032,
      -0.11055620014667511,
      0.3843317925930023,
      -0.00839328020811081,
      -0.47546055912971497,
      0.38293179869651794,
      -0.8347190618515015,
      0.45478901267051697,
      0.12805534899234772,
      0.16354139149188995,
      0.03572861850261688,
      -1.8343753814697266,
      -0.19900661706924438,
      0.13403835892677307,
      0.005636062007397413,
      -0.4399392604827881,
      -0.30745917558670044,
      -0.5450011491775513,
      -3.4960649013519287,
      -0.09451163560152054,
      -0.06094545125961304,
      0.17610028386116028,
      0.04957341030240059,
      0.315184086561203,
      0.078186996281147,
      -1.7907583713531494,
      -0.4136312007904053,
      -0.0038309963420033455
    ],
    [
      0.02402997389435768,
      -0.5788149833679199,
      -0.3263202905654907,
      0.14714749157428741,
      0.018606286495923996,
      0.02997402474284172,
      -1.3845734596252441,
      0.033593788743019104,
      0.007050733081996441,
      -0.17371197044849396,
      0.019645627588033676,
      -0.6312522292137146,
      -2.0930871963500977,
      -0.1404777318239212,
      -0.4764213263988495,
      0.12438540160655975,
      0.2149747610092163,
      -0.15011340379714966,
      -3.2364673614501953,
      -0.015766823664307594,
      0.04357370361685753,
      0.20336896181106567,
      0.06549189984798431,
      0.019799314439296722,
      -0.008720874786376953,
      -0.2974563539028168,
      -0.8532991409301758,
      -1.7363762855529785,
      -0.905799150466919,
      0.0440872460603714,
      0.2593700885772705,
      -0.25402677059173584
    ],
    [
      0.17250193655490875,
      -0.02413882315158844,
      0.21221370995044708,
      -0.1556117683649063,
      -0.038813743740320206,
      -0.05949923023581505,
      -0.9999009966850281,
      -0.044503819197416306,
      -0.06937318295240402,
      -0.3574569523334503,
      -0.09782664477825165,
      -0.618194580078125,
      -0.6859214305877686,
      -0.8506562113761902,
      0.14674921333789825,
      -0.14034707844257355,
      -0.10494189709424973,
      -0.7772970199584961,
      0.017363326624035835,
      0.7528074979782104,
      -0.06298457831144333,
      -0.04787566885352135,
      -0.08737997710704803,
      -0.06390166282653809,
      -0.052130505442619324,
      -0.9639252424240112,
      0.061774205416440964,
      -0.9468472599983215,
      -0.1524117887020111,
      -0.07406751811504364,
      0.1204308420419693,
      0.23042218387126923
    ],
    [
      -0.29077357053756714,
      -0.03452286869287491,
      0.0024348110891878605,
      -0.6198585629463196,
      -1.5532560348510742,
      -2.6499814987182617,
      0.12915262579917908,
      -1.8684576749801636,
      -1.8293890953063965,
      0.09637027978897095,
      -0.737719714641571,
      0.5623161792755127,
      -0.12573222815990448,
      0.005913643632084131,
      -0.02969958633184433,
      -0.42394766211509705,
      -0.3738074004650116,
      0.06589183211326599,
      -0.05248389393091202,
      -0.7109400629997253,
      -1.642234206199646,
      -0.5704483985900879,
      -0.3275054395198822,
      -3.3500242233276367,
      -1.4806523323059082,
      0.2027716487646103,
      -0.031031563878059387,
      -0.03391633182764053,
      -0.16420413553714752,
      -0.6349617838859558,
      -1.4580717086791992,
      -0.0045281099155545235
    ],
    [
      0.03861965239048004,
      -0.5941511988639832,
      -0.37826627492904663,
      0.19642774760723114,
      0.04038606956601143,
      0.03981626778841019,
      -0.8725552558898926,
      0.016026411205530167,
      0.05030527710914612,
      -0.1524667590856552,
      0.03345988318324089,
      -0.3244129419326782,
      -1.9819917678833008,
      -0.19413495063781738,
      -0.5908868312835693,
      0.0905710905790329,
      0.1948620080947876,
      -0.16148965060710907,
      -2.570220947265625,
      -0.033567752689123154,
      0.01932745985686779,
      0.223817840218544,
      0.05231460928916931,
      0.017959214746952057,
      0.01284318882972002,
      -0.04826084151864052,
      -1.5628235340118408,
      -1.7546274662017822,
      -0.7751991748809814,
      0.004903289023786783,
      0.17219656705856323,
      -0.30955517292022705
    ],
    [
      -0.03197639063000679,
      0.1609189510345459,
      -0.018023639917373657,
      -0.19843673706054688,
      -0.015409760177135468,
      -0.05886335298418999,
      0.46864351630210876,
      -0.015964431688189507,
      -0.05249442532658577,
      0.3308323323726654,
      -0.08738434314727783,
      0.27882474660873413,
      0.3977687954902649,
      0.15378299355506897,
      0.014793045818805695,
      -0.3726615607738495,
      -0.09279969334602356,
      0.2678828835487366,
      0.21485191583633423,
      -0.040654730051755905,
      -0.06645260751247406,
      -0.15260948240756989,
      -0.15538889169692993,
      -0.05451963469386101,
      -0.017697414383292198,
      0.1678381711244583,
      0.12353359907865524,
      0.3506752550601959,
      0.10967116057872772,
      -0.0639498308300972,
      -0.13279610872268677,
      -0.06821957230567932
    ],
    [
      -0.0428365096449852,
      0.08065693825483322,
      -0.041480034589767456,
      -0.15517966449260712,
      -0.060260798782110214,
      -0.046433381736278534,
      0.4726483225822449,
      -0.05594704672694206,
      -0.05302324891090393,
      0.3520541191101074,
      -0.060867857187986374,
      0.47590315341949463,
      0.28705117106437683,
      0.3302007019519806,
      -0.012062286026775837,
      -0.3170895278453827,
      -0.0888810008764267,
      0.29247239232063293,
      0.23852376639842987,
      -0.015387095510959625,
      -0.09059083461761475,
      -0.15110406279563904,
      -0.16610993444919586,
      -0.07324878126382828,
      -0.06288698315620422,
      0.12899622321128845,
      0.1124000996351242,
      0.2928473651409149,
      0.11305177211761475,
      0.007504017557948828,
      -0.12462297827005386,
      -0.08449558168649673
    ],
    [
      -0.12617729604244232,
      0.14157716929912567,
      0.0012399536790326238,
      -0.41568058729171753,
      -0.032541610300540924,
      -0.03958123177289963,
      0.3811408579349518,
      -0.036276619881391525,
      -0.10573343187570572,
      0.4168078601360321,
      -0.12251389771699905,
      0.4195463955402374,
      0.34098702669143677,
      0.37016725540161133,
      -0.029210802167654037,
      -1.6218498945236206,
      -0.10063249617815018,
      0.26501038670539856,
      0.26945313811302185,
      -0.07467964291572571,
      -0.06477562338113785,
      -0.14724180102348328,
      -0.22512292861938477,
      -0.03525932878255844,
      -0.03615839406847954,
      0.3934328854084015,
      0.04517323523759842,
      0.36777788400650024,
      0.14745183289051056,
      -0.2709013819694519,
      -0.19755610823631287,
      0.013055231422185898
    ],
    [
      -0.021850062534213066,
      -0.4222177267074585,
      -0.19165906310081482,
      0.16521236300468445,
      0.01640905626118183,
      0.0226794071495533,
      -1.1780953407287598,
      0.000840136141050607,
      0.05817617475986481,
      -0.1054578572511673,
      0.037440501153469086,
      -0.40649646520614624,
      -2.002513885498047,
      -0.33560582995414734,
      -0.2951708436012268,
      0.1358746737241745,
      0.11183828115463257,
      -0.21601776778697968,
      -3.3634729385375977,
      -0.01694093458354473,
      0.018866250291466713,
      0.18793746829032898,
      0.062413375824689865,
      0.010860477574169636,
      0.024425530806183815,
      -0.3342464566230774,
      -0.47778087854385376,
      -1.8325556516647339,
      -0.6689704060554504,
      0.04589647054672241,
      0.3312232792377472,
      -0.17651627957820892
    ],
    [
      0.018154092133045197,
      -0.6418542861938477,
      -0.2596498727798462,
      0.18161462247371674,
      0.02077057957649231,
      0.02916429564356804,
      -1.4835346937179565,
      -0.012471247464418411,
      0.062227606773376465,
      -0.05418609082698822,
      0.03750558942556381,
      -0.8152402639389038,
      -2.433375597000122,
      -0.290944367647171,
      -0.4133681654930115,
      0.14436639845371246,
      0.17575325071811676,
      -0.1476946771144867,
      -3.7270359992980957,
      0.0016509316628798842,
      0.002137905452400446,
      0.19130733609199524,
      0.05700061097741127,
      0.03321874141693115,
      0.03092277981340885,
      -0.49323770403862,
      -0.7044865489006042,
      -2.005239248275757,
      -1.0201058387756348,
      0.040406618267297745,
      0.22499707341194153,
      -0.24427658319473267
    ],
    [
      -0.013428030535578728,
      -0.4034200608730316,
      -0.22509855031967163,
      0.14467446506023407,
      0.012526452541351318,
      0.014572384767234325,
      -1.3999953269958496,
      0.01161235198378563,
      0.017318174242973328,
      -0.19707925617694855,
      0.059472788125276566,
      -0.6078354120254517,
      -2.007615566253662,
      -0.25263428688049316,
      -0.3527619242668152,
      0.1605999916791916,
      0.09169488400220871,
      -0.15247751772403717,
      -3.1987812519073486,
      -0.02153364010155201,
      0.02946825511753559,
      0.2641564607620239,
      0.10427942872047424,
      -0.012850203551352024,
      0.015035971999168396,
      -0.3059438467025757,
      -0.4384362995624542,
      -2.0633962154388428,
      -0.7737594246864319,
      0.022831836715340614,
      0.30472368001937866,
      -0.20790401101112366
    ],
    [
      -0.020271088927984238,
      -0.5090937614440918,
      -0.22515864670276642,
      0.1507067084312439,
      -0.008267577737569809,
      0.006340516731142998,
      -1.2763338088989258,
      0.02639187127351761,
      0.04852411895990372,
      -0.03781247138977051,
      0.08722914755344391,
      -0.48438888788223267,
      -2.5718743801116943,
      -0.24694082140922546,
      -0.33687877655029297,
      0.11765197664499283,
      0.12578299641609192,
      -0.21702101826667786,
      -3.058622121810913,
      -0.011880033649504185,
      0.04358973354101181,
      0.18701539933681488,
      0.10721949487924576,
      0.017162907868623734,
      0.002511422848328948,
      -0.24747267365455627,
      -0.49759408831596375,
      -2.2868783473968506,
      -1.06411874294281,
      0.031944639980793,
      0.2648583948612213,
      -0.22185958921909332
    ],
    [
      -0.17633764445781708,
      -0.07835601270198822,
      0.030516404658555984,
      -0.5083998441696167,
      -0.6764236092567444,
      -2.0178420543670654,
      0.05571145936846733,
      -0.720248281955719,
      -1.1080900430679321,
      0.43217733502388,
      -0.8362590074539185,
      0.37197592854499817,
      -0.08600470423698425,
      -0.052583057433366776,
      0.0575464628636837,
      -0.30405256152153015,
      -0.34183958172798157,
      0.29204559326171875,
      -0.11116461455821991,
      -0.33472251892089844,
      -1.7663367986679077,
      -0.6671010851860046,
      -0.616108775138855,
      -1.5529452562332153,
      -0.5369542241096497,
      0.28477951884269714,
      -0.005336460657417774,
      -0.042579539120197296,
      -0.02087322808802128,
      -0.9072720408439636,
      -0.5955528616905212,
      0.07540622353553772
    ],
    [
      0.009142816998064518,
      -0.008577984757721424,
      0.09020324051380157,
      -0.13790477812290192,
      -0.15554244816303253,
      -0.33124151825904846,
      0.326858252286911,
      -0.18846353888511658,
      -0.18290790915489197,
      0.3602195382118225,
      -0.12763847410678864,
      0.4618607759475708,
      0.12887343764305115,
      0.20705492794513702,
      0.059906262904405594,
      -0.47338932752609253,
      -0.015032559633255005,
      0.2747995853424072,
      -0.03296252712607384,
      -0.12485214322805405,
      -1.717064619064331,
      -0.04559341073036194,
      -2.4272003173828125,
      -0.259431391954422,
      -0.1820298582315445,
      0.24243378639221191,
      -0.03769959509372711,
      0.19482959806919098,
      -0.05826057866215706,
      0.011927055194973946,
      0.04006179794669151,
      0.0018336493521928787
    ],
    [
      -0.05478495731949806,
      -1.7157193422317505,
      -3.9187142848968506,
      0.024464059621095657,
      0.0215712059289217,
      0.010377001017332077,
      -0.2642528712749481,
      -8.441087993560359e-05,
      0.016290253028273582,
      -0.10297492146492004,
      -0.047611601650714874,
      -0.15106074512004852,
      -1.1808892488479614,
      0.027382541447877884,
      -4.414536952972412,
      -0.016669761389493942,
      0.2609597444534302,
      -0.07904478162527084,
      -0.7944762110710144,
      0.0010167770087718964,
      0.005972628947347403,
      -0.5269343256950378,
      0.017991896718740463,
      0.01751050353050232,
      0.009905132465064526,
      -0.006134721450507641,
      -2.663898468017578,
      -0.9721962809562683,
      -1.0841699838638306,
      0.0009736831998452544,
      -0.10116124898195267,
      -2.0645945072174072
    ]
  ],
  "fc2.bias": [
    0.2850310802459717,
    0.23019681870937347,
    0.2963177263736725,
    0.46390867233276367,
    0.49089479446411133,
    0.357955664396286,
    0.3691716492176056,
    0.2960072159767151,
    0.29269564151763916,
    0.28037333488464355,
    0.2815638780593872,
    0.2538144588470459,
    0.36933135986328125,
    0.011265598237514496,
    0.43553727865219116,
    0.2877330780029297,
    0.006772882770746946,
    0.32964345812797546,
    0.2783728837966919,
    -0.2792082130908966,
    0.4741212725639343,
    0.2385147660970688,
    0.32420814037323,
    0.3851822018623352,
    0.30498260259628296,
    0.28201186656951904,
    0.256284236907959,
    0.2598191499710083,
    0.29618948698043823,
    0.38300853967666626,
    0.4005698561668396,
    0.237107053399086
  ],
  "fc3.weight": [
    [
      -0.06866255402565002,
      -0.07165239751338959,
      0.21881277859210968,
      0.34787553548812866,
      0.19955100119113922,
      0.22760464251041412,
      0.1801055520772934,
      0.19548700749874115,
      -0.0929035171866417,
      -0.0803316980600357,
      -0.06575258076190948,
      -0.07032176107168198,
      -0.1823679357767105,
      -0.26528552174568176,
      0.270889014005661,
      -0.08609315007925034,
      -0.19694207608699799,
      0.26153668761253357,
      -0.06544946879148483,
      -0.26447877287864685,
      0.5588456988334656,
      -0.06768287718296051,
      0.18421828746795654,
      0.18552817404270172,
      0.18908019363880157,
      -0.06842599809169769,
      -0.07188864052295685,
      -0.07068652659654617,
      -0.07386656105518341,
      0.4273000955581665,
      0.2925248146057129,
      -0.24000628292560577
    ]
  ],
  "fc3.bias": [
    0.1029609963297844
  ]
}