{
  "net.0.weight": [
    [
      -0.20535899698734283,
      -0.09083032608032227,
      0.23967333137989044
    ],
    [
      0.46479037404060364,
      -0.12552475929260254,
      0.3165692389011383
    ],
    [
      -0.07226023077964783,
      -0.032242532819509506,
      -0.009510129690170288
    ],
    [
      -0.18388809263706207,
      -0.235005185008049,
      -0.010405883193016052
    ],
    [
      0.41795584559440613,
      0.2971900999546051,
      0.26017478108406067
    ],
    [
      -0.2871413230895996,
      -0.42774879932403564,
      -0.2935805022716522
    ],
    [
      -0.02590837888419628,
      0.5644847750663757,
      0.06769280880689621
    ],
    [
      0.2538268566131592,
      -0.11650274693965912,
      -0.5728349685668945
    ],
    [
      -0.32717931270599365,
      -0.25941723585128784,
      0.2336103618144989
    ],
    [
      0.025478802621364594,
      0.3107566833496094,
      -0.4469236135482788
    ],
    [
      0.09790302067995071,
      -0.06499999016523361,
      -0.47781944274902344
    ],
    [
      0.34996744990348816,
      0.3391874432563782,
      -0.5615797638893127
    ],
    [
      -0.3987008333206177,
      -0.28858211636543274,
      -0.3118405044078827
    ],
    [
      0.21840423345565796,
      -0.3083876669406891,
      0.20203720033168793
    ],
    [
      0.2596457004547119,
      -0.43640050292015076,
      0.10603969544172287
    ],
    [
      0.491299569606781,
      -0.17774201929569244,
      -0.7784532904624939
    ],
    [
      -0.6921293139457703,
      0.4685293436050415,
      -0.26640424132347107
    ],
    [
      -0.005219807382673025,
      0.3442845642566681,
      -0.6012255549430847
    ],
    [
      0.12657304108142853,
      -0.11923076957464218,
      0.08192264288663864
    ],
    [
      0.4446704685688019,
      0.5441611409187317,
      -0.06701713800430298
    ],
    [
      0.5571292042732239,
      -0.4316346049308777,
      0.08869004249572754
    ],
    [
      0.3321329951286316,
      -0.019095528870821,
      -0.18438632786273956
    ],
    [
      -0.2989698052406311,
      -0.29465675354003906,
      -0.2927539050579071
    ],
    [
      -0.19256603717803955,
      0.5856568813323975,
      0.4210795760154724
    ],
    [
      -0.6162384152412415,
      -0.38378646969795227,
      0.2903938591480255
    ],
    [
      0.3503015637397766,
      -0.037362005561590195,
      -0.37896546721458435
    ],
    [
      0.2482508271932602,
      0.6759981513023376,
      0.4119888246059418
    ],
    [
      0.1940406709909439,
      0.45789024233818054,
      0.28782421350479126
    ],
    [
      -0.46267735958099365,
      -0.3299175798892975,
      0.43320879340171814
    ],
    [
      0.017743326723575592,
      -0.048997990787029266,
      -0.6541661024093628
    ],
    [
      0.4982588291168213,
      0.4927286207675934,
      -0.03463609144091606
    ],
    [
      -0.23750416934490204,
      -0.44245201349258423,
      -0.1768001765012741
    ],
    [
      -0.08663833886384964,
      -0.6479371190071106,
      -0.20397555828094482
    ],
    [
      0.39940351247787476,
      0.04988844320178032,
      0.26383769512176514
    ],
    [
      -0.33437272906303406,
      0.3079676628112793,
      0.35010144114494324
    ],
    [
      0.055283427238464355,
      -0.02234293520450592,
      -0.13120456039905548
    ],
    [
      -0.47340553998947144,
      -0.003537260228767991,
      -0.14809095859527588
    ],
    [
      -0.026977013796567917,
      -0.2232428938150406,
      0.6982409954071045
    ],
    [
      -0.18673434853553772,
      0.26362890005111694,
      0.11588823795318604
    ],
    [
      -0.3053418695926666,
      0.35621529817581177,
      0.2807290554046631
    ],
    [
      -0.10825981199741364,
      0.32379868626594543,
      -0.8299977779388428
    ],
    [
      0.3623705804347992,
      0.07979559898376465,
      -0.571706235408783
    ],
    [
      -0.0016909301048144698,
      -0.002281614812090993,
      -0.0001767458306858316
    ],
    [
      -0.37009671330451965,
      0.49541863799095154,
      0.12977264821529388
    ],
    [
      -0.0024641880299896,
      -0.24933989346027374,
      -0.3295331299304962
    ],
    [
      0.32362350821495056,
      -0.11987669765949249,
      -0.38937464356422424
    ],
    [
      0.060198258608579636,
      0.3539365828037262,
      -0.3298833966255188
    ],
    [
      0.006712543312460184,
      -0.0014317883178591728,
      0.00037717638770118356
    ],
    [
      0.013967053033411503,
      -0.3337564766407013,
      0.49674272537231445
    ],
    [
      0.29739031195640564,
      -0.6253464221954346,
      0.027635805308818817
    ],
    [
      0.050014033913612366,
      0.33040523529052734,
      -0.35570695996284485
    ],
    [
      -0.20323413610458374,
      -0.5479667782783508,
      -0.21937809884548187
    ],
    [
      0.5511839389801025,
      -0.012289587408304214,
      0.29685497283935547
    ],
    [
      -0.45532649755477905,
      0.0702308639883995,
      -0.07797330617904663
    ],
    [
      0.12196363508701324,
      -0.16280688345432281,
      -0.08035506308078766
    ],
    [
      0.42783427238464355,
      0.38628455996513367,
      -0.5105928182601929
    ],
    [
      0.06108267232775688,
      0.03966433182358742,
      -0.7013431787490845
    ],
    [
      0.2952212393283844,
      0.44854292273521423,
      -0.3898969888687134
    ],
    [
      -0.6195838451385498,
      -0.07268090546131134,
      -0.22029362618923187
    ],
    [
      0.33893609046936035,
      -0.49804574251174927,
      -0.2043498456478119
    ],
    [
      0.2647418677806854,
      0.12341117113828659,
      -0.4550010859966278
    ],
    [
      -0.13747256994247437,
      0.19976909458637238,
      -0.8352357745170593
    ],
    [
      0.323975533246994,
      0.3505288362503052,
      0.20955881476402283
    ],
    [
      -0.5441533327102661,
      0.3906986713409424,
      0.15730580687522888
    ]
  ],
  "net.0.bias": [
    -0.49096474051475525,
    0.23355239629745483,
    0.07797852158546448,
    -0.1499640941619873,
    0.5683336853981018,
    -0.3565847873687744,
    -0.7261313199996948,
    -0.4221930503845215,
    0.021432772278785706,
    0.16843824088573456,
    0.13174502551555634,
    -0.2621646523475647,
    0.6287405490875244,
    0.5276593565940857,
    0.6426008343696594,
    -0.6245771646499634,
    -0.6944023966789246,
    -0.351337730884552,
    0.0035952359903603792,
    -0.45559167861938477,
    -0.33047613501548767,
    0.18996672332286835,
    -0.06424378603696823,
    -0.5671953558921814,
    0.07546956092119217,
    -0.11584194749593735,
    0.015498689375817776,
    0.26071545481681824,
    0.5150870084762573,
    -0.8667440414428711,
    -0.1925971508026123,
    0.48063328862190247,
    -0.47889554500579834,
    0.22264815866947174,
    -0.391776442527771,
    0.045392848551273346,
    0.0837925598025322,
    0.33143848180770874,
    0.391983300447464,
    0.028693022206425667,
    -0.6647372245788574,
    0.08034978806972504,
    0.0002507574390619993,
    0.021239524707198143,
    -0.1821187138557434,
    -0.5620402097702026,
    0.2030460238456726,
    3.960064350394532e-05,
    -0.037570565938949585,
    0.18831154704093933,
    -0.4193003475666046,
    -0.14453741908073425,
    -0.3591429591178894,
    0.056944239884614944,
    -0.12766408920288086,
    -0.501732587814331,
    -0.7888801097869873,
    0.3369629979133606,
    -0.46116670966148376,
    -0.5134493708610535,
    -0.17354071140289307,
    -0.6659029722213745,
    -0.2232894003391266,
    0.269951730966568
  ],
  "net.2.weight": [
    [
      0.12174990773200989,
      -0.12274443358182907,
      0.13284294307231903,
      0.04052107036113739,
      -0.3099428415298462,
      0.11650604754686356,
      0.10960548371076584,
      0.08543198555707932,
      -0.0732770636677742,
      -0.2242821604013443,
      -0.059495709836483,
      -0.17817910015583038,
      0.004216622095555067,
      -0.05111435055732727,
      0.09196096658706665,
      -0.0663709044456482,
      0.36455971002578735,
      -0.04506281390786171,
      -0.0278045404702425,
      0.11170915514230728,
      0.2266065776348114,
      -0.1177474856376648,
      0.027257699519395828,
      -0.022052330896258354,
      -0.0542290173470974,
      0.006649364251643419,
      -0.17062142491340637,
      -0.05603637918829918,
      -0.05217491462826729,
      -0.031352169811725616,
      -0.022391054779291153,
      0.00268434826284647,
      0.20159466564655304,
      -0.01132895890623331,
      0.09052525460720062,
      -0.14801029860973358,
      0.0969884842634201,
      0.001878895447589457,
      0.0028700910042971373,
      0.08626988530158997,
      -0.023711172863841057,
      -0.23243558406829834,
      -0.17140918970108032,
      -0.007867902517318726,
      -0.06824552267789841,
      -0.06505443155765533,
      -0.13658969104290009,
      -0.0898454338312149,
      -0.017416073009371758,
      0.09824130684137344,
      -0.049961186945438385,
      -0.09266538918018341,
      -0.0360674187541008,
      0.05730845406651497,
      0.0490114651620388,
      -0.12926706671714783,
      0.14734108746051788,
      -0.2928171455860138,
      0.22345800697803497,
      0.07953791320323944,
      -0.05023358017206192,
      -0.05907906964421272,
      -0.05485624074935913,
      0.030140094459056854
    ],
    [
      0.07419461756944656,
      0.07561782747507095,
      0.10606596618890762,
      -0.019491417333483696,
      -0.016278337687253952,
      -0.11808614432811737,
      -0.03358752280473709,
      -0.08531559258699417,
      0.04888186976313591,
      -0.02409134991466999,
      -0.06273786723613739,
      -0.05640840530395508,
      -0.07591710984706879,
      -0.04931481555104256,
      0.07402516901493073,
      0.03653119504451752,
      -0.009984640404582024,
      0.08999980241060257,
      -0.12887424230575562,
      -0.06307132542133331,
      0.037525638937950134,
      0.07586247473955154,
      0.0492497980594635,
      -0.08351990580558777,
      0.04250718280673027,
      -0.051746584475040436,
      0.03101770579814911,
      0.17381049692630768,
      -0.07143257558345795,
      0.03751812502741814,
      0.04565894231200218,
      -0.061781685799360275,
      -0.08270122110843658,
      -0.07899921387434006,
      -0.05902056023478508,
      0.10913629084825516,
      0.13444435596466064,
      -0.025673937052488327,
      0.014771634712815285,
      0.0917348563671112,
      -0.036687541753053665,
      0.03547696769237518,
      0.035154055804014206,
      0.04807297885417938,
      0.08060796558856964,
      -0.007205440197139978,
      -0.12334160506725311,
      0.1043078675866127,
      -0.04190168157219887,
      -0.03970492631196976,
      -0.12128430604934692,
      0.14930075407028198,
      -0.0914066806435585,
      -0.05965729057788849,
      -0.05100855976343155,
      0.09914139658212662,
      0.009195376187562943,
      0.0874095931649208,
      0.07080218195915222,
      0.0983797162771225,
      0.011846194043755531,
      0.09377352148294449,
      -0.11202355474233627,
      -0.020731348544359207
    ],
    [
      -0.0005398742505349219,
      -0.05788901820778847,
      0.05166282132267952,
      0.12364045530557632,
      -0.20509685575962067,
      0.0032111594919115305,
      0.08531961590051651,
      0.09546703100204468,
      0.0018510983791202307,
      -0.00496202427893877,
      -0.050052858889102936,
      0.03528652712702751,
      -0.18398970365524292,
      0.033137720078229904,
      -0.16545863449573517,
      0.27058738470077515,
      0.07784697413444519,
      0.21449550986289978,
      0.027142422273755074,
      0.11287274956703186,
      -0.19039517641067505,
      0.10402318090200424,
      -0.007872765883803368,
      -0.09822256118059158,
      -0.009173956699669361,
      0.1545625925064087,
      -0.03921014815568924,
      -0.030716827139258385,
      0.08192665129899979,
      0.1476409137248993,
      0.08604172617197037,
      -0.1704285591840744,
      0.037246085703372955,
      -0.16954509913921356,
      -0.011700444854795933,
      0.09198272973299026,
      -0.17859192192554474,
      0.07112280279397964,
      -0.17754486203193665,
      -0.15062770247459412,
      0.26376914978027344,
      0.14616504311561584,
      -0.05508176609873772,
      -0.0558420792222023,
      -0.10945017635822296,
      0.06006259471178055,
      -0.034269656985998154,
      0.0068995715118944645,
      0.11610543727874756,
      -0.07944903522729874,
      0.23803873360157013,
      -0.10768633335828781,
      -0.027697935700416565,
      0.010713217779994011,
      0.01679796352982521,
      0.14893648028373718,
      0.18939216434955597,
      -0.09333527833223343,
      -0.018777159973978996,
      0.06892988085746765,
      0.1144971027970314,
      0.25240474939346313,
      0.025243565440177917,
      -0.18398375809192657
    ],
    [
      0.3636404573917389,
      -0.11194001138210297,
      -0.0605279840528965,
      0.018988700583577156,
      -0.29891493916511536,
      0.09627821296453476,
      0.26796600222587585,
      0.37002670764923096,
      0.18927916884422302,
      0.060849279165267944,
      0.002132359892129898,
      0.16503921151161194,
      -0.21886397898197174,
      -0.31355541944503784,
      -0.44632992148399353,
      0.37072089314460754,
      0.08516495674848557,
      0.03244044631719589,
      -0.06525817513465881,
      0.09720868617296219,
      0.05631871894001961,
      -0.08395517617464066,
      -0.13177147507667542,
      0.2986871600151062,
      0.05642107501626015,
      -0.006351830437779427,
      -0.16793037950992584,
      -0.1269010454416275,
      0.2959097921848297,
      0.5918781757354736,
      -0.0666520744562149,
      -0.35395100712776184,
      0.08965785801410675,
      -0.1113177165389061,
      0.28098559379577637,
      0.03783218935132027,
      -0.11217770725488663,
      0.37140733003616333,
      -0.22485940158367157,
      0.043862879276275635,
      0.3816913962364197,
      0.13648410141468048,
      0.0774780809879303,
      -0.17063581943511963,
      0.023545118048787117,
      0.2032913863658905,
      0.00610357103869319,
      -0.015867555513978004,
      0.11062953621149063,
      -0.3103732168674469,
      0.12559467554092407,
      -0.02320179156959057,
      0.09194023907184601,
      -0.12158218771219254,
      0.05660194531083107,
      0.25664055347442627,
      0.6285256147384644,
      0.03178500384092331,
      0.011187258176505566,
      0.08129390329122543,
      0.200542151927948,
      0.20802457630634308,
      0.020148426294326782,
      -0.2728460729122162
    ],
    [
      -0.14116543531417847,
      0.07046929746866226,
      -0.04760702699422836,
      -0.08150982111692429,
      0.1936528980731964,
      -0.17488108575344086,
      -0.09210635721683502,
      -0.013992992229759693,
      -0.13011299073696136,
      0.19589334726333618,
      0.06841186434030533,
      0.20525038242340088,
      -0.044420551508665085,
      -0.054287414997816086,
      0.02039736695587635,
      0.12560060620307922,
      -0.10868607461452484,
      0.02623959444463253,
      -0.10315007716417313,
      0.08000675588846207,
      0.036363840103149414,
      -0.013050887733697891,
      0.06690441817045212,
      0.05424483120441437,
      -0.12650556862354279,
      0.018380751833319664,
      0.011483456008136272,
      0.1638868749141693,
      -0.23204684257507324,
      -0.047079186886548996,
      0.06916280090808868,
      0.015308545902371407,
      -0.20266975462436676,
      0.13542504608631134,
      0.044537752866744995,
      0.05286335200071335,
      -0.06825032085180283,
      -0.06819943338632584,
      -0.09134217351675034,
      0.0097038047388196,
      0.15278476476669312,
      0.20448623597621918,
      -0.057837072759866714,
      0.08137433975934982,
      0.0442870557308197,
      -0.03810243308544159,
      0.1972397416830063,
      -0.0017256994033232331,
      -0.05457529425621033,
      -0.11678449809551239,
      0.2251662015914917,
      0.015799505636096,
      -0.06491101533174515,
      -0.15032029151916504,
      -0.013823294080793858,
      0.004080579616129398,
      0.13506914675235748,
      0.05816062167286873,
      -0.18205934762954712,
      -0.09185847640037537,
      0.14860445261001587,
      0.11542056500911713,
      0.04103108495473862,
      -0.11215053498744965
    ],
    [
      0.02734054997563362,
      0.04903034120798111,
      -0.02409185841679573,
      -0.012074071913957596,
      -0.15915776789188385,
      0.09070508182048798,
      0.02428274415433407,
      -0.19293256103992462,
      -0.05225370079278946,
      -0.015288421884179115,
      -0.17440886795520782,
      -0.14359797537326813,
      0.015257423743605614,
      0.03640395402908325,
      -0.07156451791524887,
      -0.11060415953397751,
      0.3578728139400482,
      -0.059914879500865936,
      0.11296296864748001,
      -0.04027465358376503,
      0.09641341865062714,
      -0.2321230173110962,
      -0.08459826558828354,
      -0.031690068542957306,
      0.15352818369865417,
      -0.2188873589038849,
      -0.2577674388885498,
      -0.19077888131141663,
      0.08476514369249344,
      0.0800575315952301,
      -0.10894908010959625,
      -0.0504646860063076,
      -0.07190607488155365,
      0.09467145055532455,
      0.10821564495563507,
      -0.07071670889854431,
      0.15677514672279358,
      0.04748288914561272,
      -0.030874336138367653,
      -0.06972585618495941,
      0.0744699239730835,
      -0.2347366362810135,
      0.0881078764796257,
      0.020008960738778114,
      -0.17021740972995758,
      0.010790960863232613,
      -0.10203586518764496,
      -0.062329646199941635,
      -0.08644095808267593,
      -0.09760365635156631,
      0.007302548736333847,
      0.09781226515769958,
      0.035464655607938766,
      0.12966658174991608,
      -0.05630927532911301,
      -0.1637391746044159,
      -0.009530910290777683,
      -0.08854500949382782,
      0.3426089882850647,
      0.09333454817533493,
      -0.09189607948064804,
      0.1628631055355072,
      -0.08671814203262329,
      0.1515195518732071
    ],
    [
      -0.06293267756700516,
      -0.04000135138630867,
      -0.08018087595701218,
      0.027283595874905586,
      0.1247432753443718,
      0.1059696227312088,
      0.0628986656665802,
      0.03623508661985397,
      0.10139623284339905,
      0.06653503328561783,
      -0.040004413574934006,
      -0.02892213687300682,
      -0.030167607590556145,
      0.01761702261865139,
      -0.08516202121973038,
      -0.021712688729166985,
      -0.06257964670658112,
      -0.042828548699617386,
      0.09336388111114502,
      -0.04388215020298958,
      -0.049520064145326614,
      -0.0967298299074173,
      -0.0316251665353775,
      -0.040681011974811554,
      0.01934809610247612,
      0.08418338000774384,
      0.005531333852559328,
      0.045190565288066864,
      -0.002701987512409687,
      0.05095541104674339,
      0.02582862786948681,
      -0.07717517018318176,
      -0.05550429970026016,
      0.036927979439496994,
      0.007289867848157883,
      0.08696316927671432,
      0.13544665277004242,
      0.05783715471625328,
      -0.0050178468227386475,
      -0.1050037369132042,
      0.012035598047077656,
      -0.06831131875514984,
      -0.01680721901357174,
      0.06746484339237213,
      0.02217003144323826,
      0.08191045373678207,
      0.05118848755955696,
      0.07300381362438202,
      -0.05959112197160721,
      0.12714482843875885,
      -0.03361125662922859,
      -0.024544263258576393,
      -0.03975991532206535,
      0.10796020925045013,
      0.0984714925289154,
      -0.03150317072868347,
      -0.06506001949310303,
      -0.02492818422615528,
      -0.000978568335995078,
      0.017563704401254654,
      0.055799104273319244,
      0.03282791003584862,
      -0.14953850209712982,
      -0.1022147461771965
    ],
    [
      -0.04859902337193489,
      -0.1009792909026146,
      -0.06108349561691284,
      0.06657329201698303,
      -0.06020398065447807,
      0.03346151113510132,
      -0.11573069542646408,
      -0.02654140070080757,
      -0.05745380371809006,
      -0.13021928071975708,
      -0.040573280304670334,
      -0.019724184647202492,
      -0.12031526118516922,
      -0.05514088645577431,
      0.03567139059305191,
      0.11225564777851105,
      0.011095883324742317,
      -0.06267900764942169,
      -0.03994639962911606,
      -0.02573022060096264,
      0.030904648825526237,
      0.0686022937297821,
      -0.11974429339170456,
      -0.022549645975232124,
      0.06512507051229477,
      -0.04228948429226875,
      0.09949742257595062,
      0.08062434196472168,
      0.03608891740441322,
      0.006418323144316673,
      -0.05203608423471451,
      -0.03072304278612137,
      -0.041315704584121704,
      0.08267416805028915,
      -0.20110023021697998,
      0.06465917080640793,
      -0.12136596441268921,
      0.04784565046429634,
      -0.000687018153257668,
      -0.05559016391634941,
      0.04042492434382439,
      0.09969894587993622,
      0.005665638949722052,
      -0.06349264085292816,
      0.04062660411000252,
      0.01548390556126833,
      0.09936089813709259,
      0.08763708174228668,
      -0.04538056626915932,
      0.06688997894525528,
      -0.011254187673330307,
      -0.01231776736676693,
      -0.1291164606809616,
      0.028153566643595695,
      0.007961458526551723,
      -0.09023559093475342,
      -0.09184194356203079,
      0.02289775013923645,
      0.10965318232774734,
      -0.15993450582027435,
      0.041273731738328934,
      0.023744622245430946,
      -0.012122128158807755,
      0.07595237344503403
    ],
    [
      -0.0633997842669487,
      -0.11192430555820465,
      -0.03457578644156456,
      -0.03037097491323948,
      -0.00976533629000187,
      -0.15253525972366333,
      0.05608898401260376,
      0.23069506883621216,
      -0.03541631996631622,
      0.14233943819999695,
      -0.060018498450517654,
      0.1328582614660263,
      -0.12928983569145203,
      -0.06925574690103531,
      -0.17902004718780518,
      0.2698028087615967,
      -0.09953533858060837,
      0.23958534002304077,
      0.030101796612143517,
      0.006318014580756426,
      -0.041647881269454956,
      0.05025655776262283,
      0.03497201204299927,
      -0.070371113717556,
      -0.09465984255075455,
      0.1003911942243576,
      -0.1830838918685913,
      -0.15576708316802979,
      0.0157817080616951,
      0.1207040473818779,
      -0.05353151634335518,
      0.05354011431336403,
      -0.02559894137084484,
      0.033934466540813446,
      -0.04455944895744324,
      0.1041608676314354,
      -0.0088490080088377,
      -0.03135739266872406,
      -0.1798904687166214,
      -0.1351919025182724,
      0.2898854613304138,
      0.06607843935489655,
      0.10192009061574936,
      -0.19350343942642212,
      0.0564582422375679,
      -0.04058171436190605,
      0.10998369753360748,
      -0.13525938987731934,
      0.11885248124599457,
      -0.22077326476573944,
      0.033510517328977585,
      -0.052901629358530045,
      -0.02454967051744461,
      -0.19264738261699677,
      -0.05559995397925377,
      0.06243586912751198,
      0.1916632354259491,
      -0.049552176147699356,
      0.010938907973468304,
      -0.007943869568407536,
      0.21072962880134583,
      0.25096288323402405,
      0.06611061841249466,
      -0.051126256585121155
    ],
    [
      -0.0646253451704979,
      -0.004634460899978876,
      0.11503583937883377,
      -0.10859066247940063,
      0.17016614973545074,
      -0.20227496325969696,
      -0.07289690524339676,
      0.17828898131847382,
      -0.09456530958414078,
      0.21098577976226807,
      0.16100852191448212,
      0.06012989953160286,
      0.05641670152544975,
      0.06156926974654198,
      0.05387340486049652,
      0.19411921501159668,
      -0.03969281539320946,
      0.018388159573078156,
      -0.032474711537361145,
      0.20942670106887817,
      -0.06231147050857544,
      0.044147390872240067,
      -0.05281498655676842,
      -0.10792453587055206,
      -0.19171229004859924,
      -0.013837836682796478,
      0.1119917705655098,
      0.0911177322268486,
      -0.1001436710357666,
      -0.1742476224899292,
      0.17338518798351288,
      -0.1353507786989212,
      -0.03543161600828171,
      -0.07340323179960251,
      -0.1809348165988922,
      -0.004717773757874966,
      -0.07351677119731903,
      -0.09670309722423553,
      0.11832202225923538,
      0.03450053557753563,
      0.0473492294549942,
      0.20040994882583618,
      -0.0042897374369204044,
      0.05930883437395096,
      0.015232661738991737,
      -0.0074343266896903515,
      -0.001642561866901815,
      0.00933917611837387,
      -0.24347852170467377,
      -0.21584737300872803,
      0.2215677946805954,
      -0.05889245495200157,
      0.004359628073871136,
      -0.1496874839067459,
      0.002773461863398552,
      0.15698032081127167,
      -0.04180273786187172,
      0.05665541812777519,
      -0.004312626551836729,
      -0.019001780077815056,
      0.11580349504947662,
      0.1902168244123459,
      0.14669565856456757,
      -0.12277091294527054
    ],
    [
      -0.13256117701530457,
      -0.07322132587432861,
      0.07239561527967453,
      -0.0914958119392395,
      -0.14052000641822815,
      -0.04216894879937172,
      -0.04973908141255379,
      0.09529202431440353,
      -0.06730037182569504,
      0.023405173793435097,
      0.027630340307950974,
      -0.07249221950769424,
      -0.11174372583627701,
      0.08261267095804214,
      0.07170965522527695,
      -0.09008819609880447,
      0.053060729056596756,
      -0.09301701933145523,
      -0.0569172203540802,
      0.030555468052625656,
      -0.03848407417535782,
      0.08264140784740448,
      -0.05998442694544792,
      -0.129041388630867,
      0.023530388250947,
      -0.09425230324268341,
      0.11479837447404861,
      0.04195550084114075,
      0.007919150404632092,
      0.07495664805173874,
      -0.059141796082258224,
      -0.026499658823013306,
      0.12025559693574905,
      0.06686612963676453,
      -0.03353734314441681,
      0.06191456690430641,
      -0.029120026156306267,
      0.07283423840999603,
      -0.055924396961927414,
      0.05776774883270264,
      0.013295168057084084,
      0.07480187714099884,
      -0.06518953293561935,
      -0.0414900928735733,
      -0.049776483327150345,
      0.07093589007854462,
      -0.06119906157255173,
      -0.014869333244860172,
      -0.1121787279844284,
      -0.07743949443101883,
      0.07623306661844254,
      0.1467132568359375,
      -0.029385928064584732,
      0.05814456567168236,
      0.07491224259138107,
      -0.03781844303011894,
      0.04216697812080383,
      0.03929566591978073,
      0.19382639229297638,
      -0.01862984336912632,
      -0.026522627100348473,
      0.12075149267911911,
      -0.008013902232050896,
      0.00232183700427413
    ],
    [
      0.07554331421852112,
      -0.14062388241291046,
      -0.029490092769265175,
      -0.08440195769071579,
      -0.3152458667755127,
      -0.00119977502617985,
      -0.023867910727858543,
      -0.1275896281003952,
      -0.07329194992780685,
      -0.11444023996591568,
      -0.18021824955940247,
      -0.027440400794148445,
      -0.03791860118508339,
      -0.13265474140644073,
      0.046758998185396194,
      -0.16946642100811005,
      0.30247578024864197,
      -0.1653609722852707,
      0.019498946145176888,
      0.031314801424741745,
      0.15730369091033936,
      -0.08638954162597656,
      0.12488546967506409,
      -0.027982937172055244,
      0.10855349898338318,
      -0.0043366835452616215,
      -0.054751746356487274,
      -0.2882464826107025,
      0.08550385385751724,
      -0.17008459568023682,
      0.09810691326856613,
      0.07982254773378372,
      0.14059002697467804,
      -0.2858990430831909,
      -0.04129717871546745,
      -0.0436992272734642,
      0.08943134546279907,
      -0.09004013985395432,
      -0.08532292395830154,
      0.009489992633461952,
      -0.2472262680530548,
      -0.29677435755729675,
      -0.12907692790031433,
      0.06779364496469498,
      -0.08195433020591736,
      -0.09147749096155167,
      -0.241463765501976,
      -0.01899024099111557,
      0.016062850132584572,
      0.033294372260570526,
      -0.10733338445425034,
      0.012302882969379425,
      -0.197923481464386,
      0.07834437489509583,
      -0.10141312330961227,
      -0.10913091152906418,
      0.0253879614174366,
      -0.22141386568546295,
      0.08256111294031143,
      0.010609278455376625,
      -0.1687559336423874,
      -0.2043403536081314,
      0.02876855991780758,
      -0.036203570663928986
    ],
    [
      0.23670555651187897,
      -0.39904966950416565,
      -0.0967555046081543,
      0.0854337140917778,
      -0.26168379187583923,
      -0.09706306457519531,
      -0.027157677337527275,
      -0.039361584931612015,
      0.03836576268076897,
      0.0022641043178737164,
      -0.04095081984996796,
      0.009739859029650688,
      -0.19194528460502625,
      -0.42273667454719543,
      -0.29350894689559937,
      0.013502100482583046,
      -0.01891167275607586,
      0.08412867784500122,
      -0.12447299808263779,
      0.06219826266169548,
      -0.06435445696115494,
      -0.18990975618362427,
      -0.09348662197589874,
      -0.1108025461435318,
      0.06554638594388962,
      0.0019771880470216274,
      -0.2448291927576065,
      -0.161663219332695,
      -0.0312599316239357,
      0.03619769960641861,
      0.04688549414277077,
      -0.2807435989379883,
      -0.035264499485492706,
      -0.22583097219467163,
      -0.001494871568866074,
      -0.1655588001012802,
      0.027370011433959007,
      -0.25251203775405884,
      -0.2509314715862274,
      -0.08719541132450104,
      -0.184127539396286,
      -0.0015569360693916678,
      -0.03138640895485878,
      -0.2185034453868866,
      -0.12703672051429749,
      0.2204134166240692,
      -0.00922674685716629,
      -0.04487193748354912,
      -0.1548875868320465,
      -0.4833039939403534,
      0.11298820376396179,
      -0.03650642931461334,
      0.03734993934631348,
      0.06084437295794487,
      -0.12977850437164307,
      0.09381837397813797,
      0.08124960958957672,
      -0.18178912997245789,
      0.4202286899089813,
      -0.1673833727836609,
      -0.06032230332493782,
      -0.2010306417942047,
      -0.040517162531614304,
      -0.17708225548267365
    ],
    [
      -0.047394558787345886,
      -0.04966602101922035,
      -0.0630837008357048,
      0.00454625254496932,
      -0.049162834882736206,
      -0.05110868811607361,
      0.03229016438126564,
      -0.010440317913889885,
      0.06827279925346375,
      -0.10883648693561554,
      -0.007736912928521633,
      -0.022243492305278778,
      0.07482877373695374,
      -0.0011431453749537468,
      0.029951732605695724,
      -0.017939219251275063,
      0.01715625636279583,
      -0.021455613896250725,
      0.017447132617235184,
      -0.04454226419329643,
      0.0782337337732315,
      0.06317775696516037,
      -0.0903148278594017,
      0.040231212973594666,
      -0.0303760077804327,
      -0.04863054305315018,
      -0.026353346183896065,
      0.042098913341760635,
      -0.021021779626607895,
      -0.11652261018753052,
      0.07649732381105423,
      0.08148959279060364,
      -0.03390243649482727,
      -0.003802517894655466,
      0.02473926916718483,
      -0.00028665998252108693,
      0.06305886805057526,
      -0.0130756301805377,
      -0.11623793840408325,
      0.07970772683620453,
      0.05010433867573738,
      0.11565721035003662,
      0.03176034614443779,
      0.06346481293439865,
      0.1737695336341858,
      0.045883722603321075,
      -0.07756847143173218,
      -0.1378786265850067,
      0.12311993539333344,
      -0.058204229921102524,
      0.07653840631246567,
      -0.13464616239070892,
      -0.08697645366191864,
      -0.13911867141723633,
      -0.1415945589542389,
      0.05211586505174637,
      -0.019366050139069557,
      -0.06295745819807053,
      -0.011471356265246868,
      -0.10249573737382889,
      -0.04061991721391678,
      -0.014127317816019058,
      0.050504688173532486,
      -0.1022232323884964
    ],
    [
      -0.03852052241563797,
      0.016709784045815468,
      -0.0046770041808485985,
      0.09168332815170288,
      -0.3234104812145233,
      0.007170071825385094,
      0.17772823572158813,
      -0.21354812383651733,
      -0.006677212193608284,
      0.0012747698929160833,
      -0.11095298081636429,
      -0.03831852972507477,
      -0.18413890898227692,
      -0.1530751883983612,
      -0.10243041068315506,
      -0.08401566743850708,
      0.39864349365234375,
      -0.030375121161341667,
      0.15616844594478607,
      -0.025408321991562843,
      0.4438196122646332,
      -0.011408261023461819,
      0.018182501196861267,
      -0.08757051080465317,
      0.005830936599522829,
      -0.0036103890743106604,
      -0.21945820748806,
      -0.14837758243083954,
      -0.034565821290016174,
      0.07636810839176178,
      0.0034904880449175835,
      -0.11467424035072327,
      0.03444760665297508,
      0.06252557039260864,
      -0.04412749409675598,
      -0.10972130298614502,
      -0.07964837551116943,
      -0.13978464901447296,
      -0.14705216884613037,
      -0.01654762215912342,
      0.0032301158644258976,
      -0.252078652381897,
      -0.1612875759601593,
      0.02492339350283146,
      -0.009523086249828339,
      0.04690833389759064,
      -0.0898423120379448,
      -0.10513439029455185,
      -0.027744682505726814,
      0.09897339344024658,
      0.10007316619157791,
      -0.12756980955600739,
      0.037075407803058624,
      0.15622010827064514,
      -0.08804123103618622,
      0.10043904185295105,
      0.26936277747154236,
      -0.252137154340744,
      0.3159683048725128,
      0.11278960108757019,
      -0.19715066254138947,
      0.09776491671800613,
      0.08720636367797852,
      0.1295064240694046
    ],
    [
      0.11266274005174637,
      -0.0591004341840744,
      0.01694462075829506,
      0.01531531848013401,
      0.004175969399511814,
      -0.035184022039175034,
      0.028013484552502632,
      0.08049024641513824,
      0.08277779072523117,
      -0.0020472591277211905,
      0.07440049201250076,
      0.07051081210374832,
      -0.04353780299425125,
      0.028718357905745506,
      -0.050043366849422455,
      0.05082470178604126,
      -0.06762870401144028,
      0.0251186341047287,
      -0.05876960977911949,
      -0.03044082410633564,
      -0.0412762351334095,
      0.1039469912648201,
      -0.034847795963287354,
      0.06755321472883224,
      -0.07640941441059113,
      -0.13390366733074188,
      0.00764674274250865,
      -0.031208863481879234,
      -0.026682360097765923,
      -0.12900835275650024,
      0.10731621831655502,
      0.0023754381109029055,
      0.018120279535651207,
      0.07481154799461365,
      0.05336589738726616,
      0.0034415696281939745,
      -0.019062338396906853,
      -0.02525806799530983,
      -0.0962677150964737,
      -0.06949485093355179,
      0.03499714285135269,
      0.014584559015929699,
      -0.029490387067198753,
      -0.050889696925878525,
      0.018279748037457466,
      -0.11144986003637314,
      0.022677067667245865,
      0.0607130341231823,
      -0.045707471668720245,
      0.09124046564102173,
      -0.07851714640855789,
      -0.08207154273986816,
      0.03254234418272972,
      0.10434645414352417,
      -0.11954651772975922,
      0.00864674337208271,
      0.01662529818713665,
      -0.0867394432425499,
      -0.0038296214770525694,
      0.018269894644618034,
      -0.06702195852994919,
      0.0374673493206501,
      -0.0965527892112732,
      0.08652552217245102
    ],
    [
      -0.028457965701818466,
      0.11094611138105392,
      -0.0027525704354047775,
      -0.031144563108682632,
      -0.08584021776914597,
      0.11300680786371231,
      -0.03935303911566734,
      -0.07516446709632874,
      -0.08396060019731522,
      -0.05381662771105766,
      -0.2338867485523224,
      -0.18519312143325806,
      0.07057005167007446,
      -0.10391674935817719,
      -0.04928094148635864,
      -0.2515922486782074,
      0.45097455382347107,
      0.07633623480796814,
      -0.10163141041994095,
      -0.07112500816583633,
      0.06843500584363937,
      -0.24421872198581696,
      0.08774079382419586,
      0.1535118967294693,
      0.0195943433791399,
      -0.3512708246707916,
      0.15874899923801422,
      0.07440830767154694,
      0.08571260422468185,
      0.17201337218284607,
      -0.07030969858169556,
      0.05416322126984596,
      0.0604201965034008,
      0.035483766347169876,
      0.04810232296586037,
      -0.1520564705133438,
      0.14425455033779144,
      0.18388181924819946,
      0.008616721257567406,
      0.15199607610702515,
      0.3208683133125305,
      -0.20959417521953583,
      -0.012764082290232182,
      0.18341530859470367,
      -0.20083263516426086,
      -0.12033241987228394,
      0.012905754148960114,
      0.08675973862409592,
      0.006931265816092491,
      0.05845499783754349,
      0.15401679277420044,
      0.04877994582056999,
      0.34629252552986145,
      0.05297720804810524,
      -0.029378049075603485,
      -0.30185240507125854,
      0.11080803722143173,
      -0.2753939926624298,
      0.2847983241081238,
      -0.013105575926601887,
      -0.1761024445295334,
      0.3077729046344757,
      -0.00302012637257576,
      0.2102244347333908
    ],
    [
      0.0475475937128067,
      0.08492916822433472,
      -0.06480589509010315,
      -0.11255448311567307,
      0.04440692439675331,
      -0.1128096655011177,
      -0.02574683167040348,
      0.20390285551548004,
      -0.03431815281510353,
      0.1255333125591278,
      0.11601525545120239,
      0.0312674380838871,
      0.04127415642142296,
      -0.0302536953240633,
      0.04412622004747391,
      0.18757037818431854,
      -0.023699264973402023,
      0.11364265531301498,
      0.08688266575336456,
      0.016207939013838768,
      -0.19827330112457275,
      0.036012064665555954,
      0.11729567497968674,
      -0.044998593628406525,
      -0.22545784711837769,
      0.11941321194171906,
      0.06429726630449295,
      0.01387476921081543,
      -0.0494328998029232,
      -0.11151529848575592,
      0.09024858474731445,
      -0.09298891574144363,
      -0.11079858988523483,
      0.02316778339445591,
      -0.16251160204410553,
      0.05101644992828369,
      -0.05958617851138115,
      -0.17808710038661957,
      0.11976005136966705,
      -0.17277002334594727,
      0.14563880860805511,
      0.13845054805278778,
      0.10649216175079346,
      -0.07572672516107559,
      -0.06305760145187378,
      0.11706110835075378,
      -0.03772443160414696,
      -0.03763367235660553,
      -0.038612086325883865,
      -0.2158558964729309,
      0.05687078461050987,
      -0.09002494812011719,
      -0.1628144383430481,
      -0.11572151631116867,
      0.014549313113093376,
      0.17460067570209503,
      0.2070334404706955,
      0.10122743248939514,
      0.010771605186164379,
      -0.12084544450044632,
      0.025335203856229782,
      0.1367350071668625,
      -0.07209918648004532,
      -0.19489794969558716
    ],
    [
      -0.02816060185432434,
      -0.10590213537216187,
      -0.09754127264022827,
      -0.02602602355182171,
      0.033679213374853134,
      -0.021215194836258888,
      -0.13756313920021057,
      -0.0005215429118834436,
      -0.014423920772969723,
      0.17267894744873047,
      0.062360312789678574,
      0.10807165503501892,
      -0.05864103510975838,
      -0.015552030876278877,
      -0.13834641873836517,
      0.24835997819900513,
      -0.10197019577026367,
      0.11546683311462402,
      -0.006862129084765911,
      0.17666523158550262,
      -0.21168336272239685,
      0.057763729244470596,
      -0.022705072537064552,
      0.03169979900121689,
      -0.16703611612319946,
      0.1256416141986847,
      0.02954960986971855,
      -0.03956602141261101,
      -0.045532628893852234,
      0.13307420909404755,
      -0.018360214307904243,
      -0.03635665774345398,
      -0.023997047916054726,
      -0.09154488891363144,
      0.06309676170349121,
      0.06871521472930908,
      -0.009369204752147198,
      0.015407790429890156,
      0.05486683174967766,
      -0.11081214249134064,
      0.19913233816623688,
      0.13702207803726196,
      0.09782444685697556,
      0.03308822214603424,
      -0.09719184041023254,
      0.12947387993335724,
      0.0823437049984932,
      -0.09994443506002426,
      -0.14065803587436676,
      -0.08050994575023651,
      0.1920124590396881,
      -0.10620667040348053,
      0.043933410197496414,
      -0.1056865006685257,
      -0.11334801465272903,
      0.17394840717315674,
      0.09157205373048782,
      -0.07750905305147171,
      -0.13031087815761566,
      -0.018170980736613274,
      0.14406795799732208,
      0.04517362639307976,
      0.02992675080895424,
      -0.14293193817138672
    ],
    [
      -0.2995172142982483,
      0.12465401738882065,
      0.08169685304164886,
      -0.045775678008794785,
      0.06565014272928238,
      0.23216702044010162,
      0.01450476422905922,
      -0.28384703397750854,
      -0.6049625873565674,
      0.059162016957998276,
      -0.06530645489692688,
      -0.09035249799489975,
      0.09487762302160263,
      -0.1287238746881485,
      0.05929034575819969,
      -0.45275071263313293,
      0.25180354714393616,
      -0.31128811836242676,
      -0.04054642468690872,
      -0.3806115984916687,
      -0.017979618161916733,
      -0.05016228184103966,
      0.24396461248397827,
      -0.1289479285478592,
      -0.7597567439079285,
      -0.2078336626291275,
      0.026273522526025772,
      -0.16496214270591736,
      -0.6477566361427307,
      0.28124892711639404,
      -0.15416939556598663,
      0.08810844272375107,
      0.0467228963971138,
      -0.007480632979422808,
      -0.3826347291469574,
      -0.04578099399805069,
      0.21980802714824677,
      -0.7884354591369629,
      -0.13213150203227997,
      -0.2209744155406952,
      -0.4296185076236725,
      -0.12855380773544312,
      -0.11253345012664795,
      -0.05346626415848732,
      -0.08277428895235062,
      -0.1438133418560028,
      -0.04337639361619949,
      -0.10791059583425522,
      -0.41989395022392273,
      0.049511343240737915,
      -0.20994871854782104,
      0.07472057640552521,
      0.1451520323753357,
      0.12158669531345367,
      0.1572588086128235,
      -0.3542048931121826,
      0.08782030642032623,
      0.03211133927106857,
      0.17671442031860352,
      0.1760847568511963,
      -0.09451798349618912,
      -0.3443315625190735,
      -0.05640179291367531,
      -0.030432339757680893
    ],
    [
      0.06401863694190979,
      -0.15411552786827087,
      -0.10485225915908813,
      -0.0290482509881258,
      -0.17961913347244263,
      0.05197896808385849,
      0.03178000822663307,
      0.2668956220149994,
      0.07625402510166168,
      0.12417323142290115,
      -0.007547225337475538,
      0.044667311012744904,
      -0.017941003665328026,
      -0.11574143916368484,
      -0.20392441749572754,
      0.20114126801490784,
      -0.21429172158241272,
      0.21999415755271912,
      -0.018949322402477264,
      0.04583211615681648,
      0.04256319999694824,
      0.10545261949300766,
      -0.013729039579629898,
      0.012391926720738411,
      -0.03645836561918259,
      0.05529583618044853,
      -0.02892831526696682,
      -0.08440972864627838,
      0.026700982823967934,
      0.1549195647239685,
      -0.06432640552520752,
      -0.09738153219223022,
      -0.06437212973833084,
      0.049425918608903885,
      -0.035154469311237335,
      -0.07077362388372421,
      0.026527754962444305,
      0.06692738085985184,
      0.017824117094278336,
      0.0017300497274845839,
      0.1515960991382599,
      0.04825642332434654,
      -0.08166839927434921,
      0.01030413806438446,
      -0.055374473333358765,
      0.19363155961036682,
      -0.006030424498021603,
      0.03039376810193062,
      -0.08966220170259476,
      -0.19845646619796753,
      0.22120724618434906,
      -0.08724606782197952,
      -0.09794864803552628,
      -0.22609078884124756,
      0.02579514868557453,
      0.08778629451990128,
      0.2537378966808319,
      0.14756590127944946,
      -0.1537124365568161,
      -0.060317300260066986,
      0.09108109027147293,
      0.08210307359695435,
      0.11696203798055649,
      -0.019751718267798424
    ],
    [
      -0.06801720708608627,
      0.0546584352850914,
      0.0014354843879118562,
      -0.004718925338238478,
      0.11934361606836319,
      0.03178613260388374,
      -0.04506652057170868,
      0.09281792491674423,
      0.1208564043045044,
      -0.03587266430258751,
      0.14972630143165588,
      0.156895712018013,
      -0.16579367220401764,
      0.01577625423669815,
      -0.010741698555648327,
      0.04373862221837044,
      -0.044664811342954636,
      0.04391041770577431,
      0.10776331275701523,
      0.042823418974876404,
      -0.022084269672632217,
      -0.06963015347719193,
      -0.0246873889118433,
      -0.09685713797807693,
      0.0009700359660200775,
      -0.02696005254983902,
      0.0531701035797596,
      0.045970793813467026,
      0.0037588293198496103,
      0.14730116724967957,
      0.09359737485647202,
      -0.13497456908226013,
      -0.15038534998893738,
      0.04860358685255051,
      -0.0005460993852466345,
      0.060599785298109055,
      -0.11960262805223465,
      -0.1623837798833847,
      0.051132682710886,
      0.014190822839736938,
      0.33938315510749817,
      0.06219051778316498,
      -0.053523894399404526,
      0.00437585124745965,
      -0.1271413415670395,
      -0.021137475967407227,
      -0.010640490800142288,
      -0.03528709337115288,
      0.05091189593076706,
      -0.10670574754476547,
      0.12313195317983627,
      -0.07023769617080688,
      0.1377728283405304,
      -0.12444057315587997,
      0.09818455576896667,
      0.055094584822654724,
      0.2603095471858978,
      0.021870169788599014,
      -0.10201788693666458,
      -0.1132555678486824,
      0.1226753443479538,
      0.1470811367034912,
      0.03817446529865265,
      -0.22418127954006195
    ],
    [
      -0.022785812616348267,
      0.05145291984081268,
      0.09524138271808624,
      -0.038580577820539474,
      -0.06292642652988434,
      -0.06699951738119125,
      0.075035959482193,
      0.07586810737848282,
      0.08137382566928864,
      -0.1000264585018158,
      -0.06877546012401581,
      -0.07781714200973511,
      0.018886452540755272,
      -0.09474410861730576,
      -0.13380949199199677,
      -0.05607534572482109,
      -0.1031336560845375,
      0.05113077536225319,
      0.11099278181791306,
      0.10181570798158646,
      0.1061943992972374,
      0.09364278614521027,
      0.1061856597661972,
      -0.1336820274591446,
      -0.07355216890573502,
      -0.08026723563671112,
      0.1257982701063156,
      -0.03355694189667702,
      0.0982220247387886,
      0.013268796727061272,
      -0.08571623265743256,
      0.0718458890914917,
      -0.12936139106750488,
      -0.06645387411117554,
      -0.06740809977054596,
      0.045158009976148605,
      0.05401458591222763,
      -0.11757716536521912,
      0.03288094326853752,
      0.14891421794891357,
      0.0964600071310997,
      0.10347642004489899,
      0.01524313259869814,
      -0.028207095339894295,
      -0.04284851998090744,
      -0.07463718950748444,
      0.09333261847496033,
      -0.07755398005247116,
      0.09540346264839172,
      0.06583210825920105,
      -0.014924268238246441,
      0.005133566912263632,
      0.09703371673822403,
      0.021095583215355873,
      0.05932316556572914,
      -0.04215512424707413,
      0.008778980933129787,
      -0.11063502728939056,
      -0.05560090392827988,
      -0.007737079635262489,
      0.1308855414390564,
      -0.06801111251115799,
      -0.009072553366422653,
      -0.052383266389369965
    ],
    [
      0.04051943123340607,
      0.06080888956785202,
      -0.036775749176740646,
      0.06402821838855743,
      -0.15150566399097443,
      0.07968484610319138,
      0.11732383817434311,
      0.14272360503673553,
      -0.029660286381840706,
      -0.2550952136516571,
      -0.05381239950656891,
      0.007211877498775721,
      -0.04328326880931854,
      0.13338589668273926,
      0.15788494050502777,
      0.047801971435546875,
      0.004949395079165697,
      -0.09952032566070557,
      0.023498421534895897,
      -0.07386547327041626,
      0.08696512132883072,
      0.05378550663590431,
      0.03542279079556465,
      0.19024217128753662,
      0.11651593446731567,
      0.1310904175043106,
      -0.09688688069581985,
      -0.1139942929148674,
      0.127918541431427,
      0.009252536110579967,
      -0.09870753437280655,
      -0.0552181676030159,
      0.2633923292160034,
      -0.13395333290100098,
      -0.04351145401597023,
      -0.033136360347270966,
      -0.10698391497135162,
      0.13546700775623322,
      -0.14738838374614716,
      -0.024191325530409813,
      -0.10233188420534134,
      -0.13767695426940918,
      -0.10871437191963196,
      0.05168547108769417,
      0.08280019462108612,
      0.20446810126304626,
      -0.14179880917072296,
      -0.004049625713378191,
      0.1239030733704567,
      0.2006082534790039,
      -0.16263848543167114,
      0.27413588762283325,
      -0.09010356664657593,
      -0.1117149293422699,
      0.21053414046764374,
      -0.12163607031106949,
      -0.015391889959573746,
      -0.29810017347335815,
      -0.05725893750786781,
      0.2558782696723938,
      -0.10986939072608948,
      -0.17558826506137848,
      -0.03883461654186249,
      0.04931206256151199
    ],
    [
      0.0545550100505352,
      0.11273092031478882,
      -0.03884636238217354,
      0.010595642030239105,
      -0.2173333615064621,
      0.213424414396286,
      0.08176448196172714,
      0.16851285099983215,
      0.06560178101062775,
      -0.2618519961833954,
      -0.09097087383270264,
      -0.1540498435497284,
      -0.04652763158082962,
      0.09478845447301865,
      -0.03522757813334465,
      0.12046866863965988,
      0.48089703917503357,
      0.04832172766327858,
      0.034333717077970505,
      -0.16088120639324188,
      0.30258241295814514,
      -0.03351817652583122,
      0.08027222007513046,
      0.2258843034505844,
      0.045858465135097504,
      0.027136240154504776,
      0.10061993449926376,
      -0.18330183625221252,
      0.08985815942287445,
      0.19045783579349518,
      -0.11235661804676056,
      0.0339130200445652,
      0.3130253255367279,
      0.06178104132413864,
      -0.02808164246380329,
      -0.05878469720482826,
      0.1321420818567276,
      -0.04144180938601494,
      0.04084173962473869,
      0.18882420659065247,
      0.21525384485721588,
      -0.11370320618152618,
      0.03187398239970207,
      0.09670870006084442,
      -0.01861424371600151,
      0.21668052673339844,
      -0.09569641202688217,
      0.05730630084872246,
      0.06345522403717041,
      0.18339160084724426,
      -0.10842201113700867,
      0.18674805760383606,
      0.14009490609169006,
      -0.04392154887318611,
      0.017370324581861496,
      -0.19021502137184143,
      0.25607654452323914,
      -0.32220470905303955,
      0.14995352923870087,
      0.1955067366361618,
      -0.11786629259586334,
      0.22936369478702545,
      -0.048979502171278,
      0.14577066898345947
    ],
    [
      -0.10144340246915817,
      -0.013413318432867527,
      -0.06941407173871994,
      -0.10587622970342636,
      -0.051741935312747955,
      -0.1488993763923645,
      0.15700824558734894,
      0.02700897306203842,
      -0.007452669553458691,
      -0.0868578851222992,
      -0.045470286160707474,
      0.019106967374682426,
      0.053792696446180344,
      -0.09957209974527359,
      -0.08751635253429413,
      -0.051321934908628464,
      -0.003885821904987097,
      -0.03169633448123932,
      0.06468522548675537,
      0.03183718025684357,
      0.15757587552070618,
      0.01149831060320139,
      -0.10125833004713058,
      0.13671451807022095,
      0.06985609978437424,
      0.12832242250442505,
      -0.2259586751461029,
      0.012367114424705505,
      0.05224098265171051,
      -0.10285340994596481,
      0.10137436538934708,
      -0.01853347010910511,
      -0.04871167242527008,
      0.05240399390459061,
      -0.0883835032582283,
      -0.00048736450844444335,
      -0.07769721001386642,
      0.013301458209753036,
      -0.038706135004758835,
      0.05926739424467087,
      -0.01242016814649105,
      -0.023152565583586693,
      -0.033307094126939774,
      -0.01062263734638691,
      0.10674026608467102,
      -0.04929763078689575,
      0.0789993405342102,
      0.06643062084913254,
      -0.0461050383746624,
      0.07014557719230652,
      -0.03836425766348839,
      -0.07948680967092514,
      -0.057154301553964615,
      0.09219169616699219,
      -0.012990136630833149,
      0.03423049673438072,
      -0.08952365815639496,
      0.001247880165465176,
      0.01401367224752903,
      -0.03361203894019127,
      -0.054881684482097626,
      -0.0012571495026350021,
      0.029204243794083595,
      -0.04017096012830734
    ],
    [
      0.13327662646770477,
      0.17386077344417572,
      0.06190204992890358,
      -0.011116539128124714,
      -0.26980406045913696,
      0.06763989478349686,
      0.08784142136573792,
      0.10434386134147644,
      0.004080874379724264,
      -0.18061202764511108,
      -0.13465309143066406,
      0.00194514449685812,
      -0.08560444414615631,
      0.1103215292096138,
      0.11578498780727386,
      0.052256010472774506,
      0.4119042158126831,
      -0.1768125593662262,
      0.005962238181382418,
      -0.1384521871805191,
      0.19199085235595703,
      -0.05975611135363579,
      0.11005519330501556,
      0.05362837016582489,
      0.052356939762830734,
      -0.041356783360242844,
      -0.17054547369480133,
      -0.12034176290035248,
      0.026864472776651382,
      0.05799265205860138,
      -0.10430335998535156,
      -0.09936396777629852,
      0.25977206230163574,
      -0.08771201968193054,
      0.05423508211970329,
      0.014746835455298424,
      -0.017124498263001442,
      -0.00802579801529646,
      -0.08245599269866943,
      0.10163135081529617,
      0.002010853262618184,
      -0.20877520740032196,
      0.08777216821908951,
      0.24887391924858093,
      -0.004978422075510025,
      0.15166163444519043,
      -0.10382263362407684,
      -0.0018952377140522003,
      -0.01707039400935173,
      0.22220401465892792,
      -0.07642272859811783,
      0.0883186087012291,
      0.039161935448646545,
      -0.014548532664775848,
      0.1142769530415535,
      -0.05440802499651909,
      0.10396360605955124,
      -0.1938600242137909,
      0.2469838708639145,
      0.2771579623222351,
      0.016928575932979584,
      0.09921170026063919,
      0.019843805581331253,
      0.13199400901794434
    ],
    [
      -0.10164294391870499,
      -0.12876750528812408,
      0.0704583078622818,
      -0.02163991518318653,
      0.014628442004323006,
      -0.13781939446926117,
      -0.06736389547586441,
      0.14734387397766113,
      0.05514003336429596,
      0.1635294109582901,
      0.12640051543712616,
      0.14321976900100708,
      0.05876588448882103,
      -0.02846878208220005,
      0.018434686586260796,
      0.11022276431322098,
      -0.009574785828590393,
      0.14724808931350708,
      -0.1038622036576271,
      0.11745239049196243,
      -0.11032839864492416,
      0.11699008196592331,
      -0.031660083681344986,
      0.054706741124391556,
      -0.052441492676734924,
      0.11649135500192642,
      0.020672757178544998,
      0.01624571904540062,
      -0.016604067757725716,
      0.09638208150863647,
      0.11226445436477661,
      -0.144363671541214,
      -0.1667155921459198,
      -0.08119726181030273,
      -0.1410510390996933,
      0.028453541919589043,
      -0.20131483674049377,
      0.027735574170947075,
      -0.12320730835199356,
      -0.03348064422607422,
      0.18123438954353333,
      0.05021282657980919,
      -0.13841912150382996,
      -0.12192612141370773,
      -0.06006507948040962,
      0.005876158829778433,
      -0.015247284434735775,
      0.024857977405190468,
      -0.17125920951366425,
      -0.026890436187386513,
      0.1610896736383438,
      -0.18406017124652863,
      -0.011824282817542553,
      0.006796307861804962,
      0.044721078127622604,
      0.009051295928657055,
      0.20415811240673065,
      0.05466357618570328,
      -0.17400410771369934,
      -0.005979237146675587,
      0.12776102125644684,
      0.18241968750953674,
      0.02600010111927986,
      -0.11236661672592163
    ],
    [
      -0.05925103276968002,
      0.08463195711374283,
      -0.12012267112731934,
      -0.09968288242816925,
      -0.07068010419607162,
      -0.028691591694951057,
      -0.11277607828378677,
      -0.0027192900888621807,
      0.10426347702741623,
      -0.05379853397607803,
      -0.0907781794667244,
      -0.0660119280219078,
      -0.021276747807860374,
      0.03301188722252846,
      -0.06766021251678467,
      -0.012938089668750763,
      -0.08815418183803558,
      0.06557481735944748,
      -0.0845227837562561,
      -0.052750762552022934,
      0.06931354105472565,
      0.019437000155448914,
      0.03161310404539108,
      -0.07383330911397934,
      -0.06903882324695587,
      -0.04738384485244751,
      0.019380083307623863,
      0.08294201642274857,
      0.03185446560382843,
      0.002166045131161809,
      -0.06355924904346466,
      0.07711908966302872,
      -0.012811669148504734,
      0.05339830741286278,
      0.102122463285923,
      -0.016179006546735764,
      0.009713771753013134,
      -0.0707140862941742,
      -0.033576931804418564,
      0.12431000918149948,
      -0.04163975641131401,
      0.10039176791906357,
      -0.021051747724413872,
      0.0026839603669941425,
      -0.05565445497632027,
      0.10744799673557281,
      0.005997309926897287,
      0.044441964477300644,
      0.019421517848968506,
      -0.030901048332452774,
      -0.04756776615977287,
      0.010673289187252522,
      -0.03951143100857735,
      -0.1273893266916275,
      0.04320329800248146,
      0.1428229659795761,
      -0.0723767951130867,
      0.06379455327987671,
      -0.007447713986039162,
      -0.08475716412067413,
      -0.0371742881834507,
      0.03178304433822632,
      -0.04195622727274895,
      -0.0038735694251954556
    ],
    [
      0.05489343777298927,
      -0.03862934932112694,
      -0.07318194210529327,
      -0.017053375020623207,
      -0.07869795709848404,
      0.04949625954031944,
      -0.10436706990003586,
      0.0442863330245018,
      -0.1141798198223114,
      -0.11862363666296005,
      0.025364229455590248,
      -0.06357479095458984,
      -0.08488556742668152,
      0.10015444457530975,
      0.030553124845027924,
      0.013868791051208973,
      -0.003439001739025116,
      0.013358347117900848,
      -0.10266628861427307,
      0.12677349150180817,
      0.03906182572245598,
      0.012359237298369408,
      -0.1319739669561386,
      -0.05691627413034439,
      0.053458210080862045,
      -0.07728883624076843,
      0.015722056850790977,
      -0.029614195227622986,
      0.0006152872811071575,
      0.11359161138534546,
      0.1292973756790161,
      -0.0034423305187374353,
      -0.15203583240509033,
      -0.034248728305101395,
      0.008088921196758747,
      0.07794032245874405,
      -0.10549380630254745,
      0.03384794294834137,
      0.07907488942146301,
      -0.06381603330373764,
      -0.005188701208680868,
      0.06654255092144012,
      -0.024886561557650566,
      -0.06325466930866241,
      0.1799490600824356,
      0.05333844572305679,
      0.024697178974747658,
      0.060238659381866455,
      -0.04133939743041992,
      0.040510788559913635,
      0.07877354323863983,
      0.04958409070968628,
      -0.07869123667478561,
      0.04415597394108772,
      0.06789926439523697,
      -0.13770774006843567,
      0.0156229417771101,
      0.01334944274276495,
      0.050070226192474365,
      -0.10884422808885574,
      -0.04616186395287514,
      0.03199949115514755,
      -0.0014943148707970977,
      0.10286344587802887
    ],
    [
      0.08444537222385406,
      -0.08304697275161743,
      0.12248767167329788,
      -0.12703943252563477,
      0.008799110539257526,
      -0.10811983793973923,
      -0.07784439623355865,
      0.05418147146701813,
      -0.017324883490800858,
      0.15364427864551544,
      0.1579928994178772,
      0.01838427037000656,
      -0.01918138936161995,
      -0.09399351477622986,
      -0.11723887175321579,
      0.26075997948646545,
      -0.11972887068986893,
      0.14835770428180695,
      0.1360999196767807,
      -0.01424249354749918,
      -0.09968144446611404,
      -0.02897966094315052,
      0.008208469487726688,
      -0.11522727459669113,
      -0.18455363810062408,
      0.027299068868160248,
      -0.10715597122907639,
      0.10575950145721436,
      -0.162288635969162,
      0.026750944554805756,
      0.0442691370844841,
      -0.12236202508211136,
      -0.18960489332675934,
      0.06272275000810623,
      -0.01203787699341774,
      -0.0867261067032814,
      -0.13566650450229645,
      0.026263684034347534,
      0.07594110071659088,
      -0.16271786391735077,
      0.20202048122882843,
      0.13930174708366394,
      0.020478853955864906,
      -0.045612361282110214,
      0.043881624937057495,
      -0.013338536955416203,
      0.07979458570480347,
      0.06756824254989624,
      0.03832974657416344,
      -0.08089844882488251,
      0.19077427685260773,
      0.020924560725688934,
      -0.043951574712991714,
      -0.169455885887146,
      -0.034749846905469894,
      0.08023577928543091,
      0.24926315248012543,
      0.1516875922679901,
      -0.1376948356628418,
      -0.04578070342540741,
      0.13393212854862213,
      0.05906234309077263,
      -0.06903769075870514,
      -0.006051648873835802
    ],
    [
      0.05322205647826195,
      0.014392099343240261,
      0.014159243553876877,
      -0.03275560215115547,
      -0.04952051118016243,
      -0.11249682307243347,
      0.09906981885433197,
      0.023719506338238716,
      -0.047447990626096725,
      0.0852075070142746,
      -0.020849119871854782,
      0.17768189311027527,
      0.024675654247403145,
      0.022663716226816177,
      0.018613215535879135,
      0.12483881413936615,
      -0.11968505382537842,
      0.09689072519540787,
      0.08143341541290283,
      0.0638299509882927,
      -0.1611892580986023,
      0.0770830512046814,
      -0.10357198864221573,
      -0.10241730511188507,
      -0.07213830202817917,
      0.1397944539785385,
      0.08309990167617798,
      0.11139534413814545,
      -0.05316011607646942,
      0.09848941117525101,
      0.11277004331350327,
      0.00886500533670187,
      -0.1580284833908081,
      -0.013150340877473354,
      0.05646340176463127,
      0.07837878912687302,
      -0.0594877228140831,
      -0.1473720222711563,
      -0.050967443734407425,
      0.08719079196453094,
      0.2920425534248352,
      0.1487157642841339,
      -0.05221110209822655,
      -0.15068474411964417,
      -0.0614488460123539,
      0.041387420147657394,
      0.18283410370349884,
      -0.08235615491867065,
      -0.19901147484779358,
      -0.19285744428634644,
      0.013078934513032436,
      -0.1054128035902977,
      -0.07691587507724762,
      -0.08508037030696869,
      -0.09062391519546509,
      -0.00315094250254333,
      0.0618286095559597,
      -0.04815037548542023,
      -0.04323466494679451,
      0.08708824962377548,
      0.2195480614900589,
      0.09998848289251328,
      0.12211121618747711,
      -0.19565777480602264
    ],
    [
      -0.11010993272066116,
      -0.09411007910966873,
      0.016161510720849037,
      -0.06979634612798691,
      -0.07522837072610855,
      -0.11337446421384811,
      -0.05243227630853653,
      0.0650709792971611,
      -0.07234013080596924,
      0.18530626595020294,
      0.13738948106765747,
      0.09859798103570938,
      -0.11024173349142075,
      -0.13648012280464172,
      -0.011351904831826687,
      0.2712657153606415,
      -0.11028796434402466,
      0.13535530865192413,
      -0.06236358359456062,
      0.11355346441268921,
      -0.17178413271903992,
      0.0017129811458289623,
      0.11447300016880035,
      -0.13735248148441315,
      -0.045723654329776764,
      0.18215776979923248,
      -0.0068960851058363914,
      -0.053987108170986176,
      -0.13021931052207947,
      0.08904555439949036,
      0.002348517067730427,
      -0.08176591247320175,
      -0.04293445497751236,
      0.06537440419197083,
      -0.12542009353637695,
      -0.07033371180295944,
      0.05778847634792328,
      -0.01542215421795845,
      -0.022200806066393852,
      -0.05005977302789688,
      0.18478547036647797,
      -0.022570911794900894,
      -0.04090962931513786,
      -0.19275054335594177,
      -0.008631033822894096,
      0.2008616030216217,
      0.10600944608449936,
      0.05734845995903015,
      0.08563300967216492,
      -0.20778252184391022,
      0.1737211048603058,
      -0.024403201416134834,
      -0.0563373789191246,
      -0.12542757391929626,
      -0.039279598742723465,
      0.16532470285892487,
      0.0874197855591774,
      -0.06342432647943497,
      -0.015115147456526756,
      -0.05226470157504082,
      0.19200672209262848,
      0.11791601032018661,
      -0.07960356026887894,
      -0.046566449105739594
    ],
    [
      0.04679141566157341,
      -0.03133304789662361,
      0.1042039692401886,
      -0.02873196452856064,
      -0.12553845345973969,
      -0.15438657999038696,
      -0.03890305757522583,
      0.1549740433692932,
      -0.0426047220826149,
      -0.036576081067323685,
      0.14551211893558502,
      0.01377794798463583,
      0.08437841385602951,
      -0.17090263962745667,
      -0.043157175183296204,
      0.17564789950847626,
      -0.1211647093296051,
      0.19781745970249176,
      0.10822559893131256,
      0.09515180438756943,
      -0.0001624821888981387,
      0.008608253672719002,
      -0.07164943218231201,
      0.09577205777168274,
      0.0024543057661503553,
      0.06038331240415573,
      0.09312719851732254,
      -0.005446372088044882,
      -0.15699826180934906,
      -0.049665335565805435,
      0.1350126713514328,
      -0.038560301065444946,
      -0.2057715505361557,
      -0.006231321487575769,
      0.050714410841464996,
      0.07724133878946304,
      -0.06919337064027786,
      -0.10261116176843643,
      -0.0482785701751709,
      -0.09438370913267136,
      0.3473978638648987,
      0.09649904817342758,
      -0.05671650916337967,
      -0.14315487444400787,
      0.04426248371601105,
      0.03320274129509926,
      0.06115931645035744,
      0.013850816525518894,
      0.015579836443066597,
      -0.1603824496269226,
      0.10400670766830444,
      -0.013656914234161377,
      -0.001120871864259243,
      -0.08955570310354233,
      -0.017918219789862633,
      0.1153082326054573,
      0.2420661598443985,
      0.078667551279068,
      -0.17231884598731995,
      -0.011682595126330853,
      0.06458768993616104,
      0.0626734048128128,
      -0.10335737466812134,
      -0.14098013937473297
    ],
    [
      0.05697692185640335,
      -0.045785143971443176,
      -0.07090533524751663,
      0.05924685299396515,
      -0.035150010138750076,
      0.008179026655852795,
      0.103471539914608,
      0.13857810199260712,
      -0.09238199144601822,
      0.07605451345443726,
      0.012995275668799877,
      0.015978610143065453,
      -0.042928729206323624,
      -0.19638274610042572,
      -0.03860810399055481,
      0.14507053792476654,
      0.005529840476810932,
      0.14569468796253204,
      0.041603535413742065,
      0.08700863271951675,
      -0.11421575397253036,
      0.09086412936449051,
      0.016833389177918434,
      0.14044329524040222,
      0.010634495876729488,
      -0.014574541710317135,
      0.06926005333662033,
      0.0769728273153305,
      -0.01279378030449152,
      -0.0787317156791687,
      0.010032350197434425,
      -0.07442963123321533,
      -0.06722568720579147,
      0.03301750123500824,
      0.03363262489438057,
      0.055251091718673706,
      -0.1551414132118225,
      -0.10853784531354904,
      -0.08316244930028915,
      0.0009198623010888696,
      0.13657158613204956,
      0.14653649926185608,
      0.04271722957491875,
      -0.11240822821855545,
      0.07435309886932373,
      -0.006476968992501497,
      -0.02345985360443592,
      0.05580198019742966,
      -0.12620489299297333,
      -0.1000300720334053,
      0.05788468196988106,
      0.007375782355666161,
      -0.04826927185058594,
      -0.09533268213272095,
      0.04423544183373451,
      0.18751531839370728,
      0.1866273581981659,
      0.04029744490981102,
      -0.08971352130174637,
      -0.12376811355352402,
      0.03728538751602173,
      0.08964814245700836,
      0.0937892496585846,
      -0.06694483757019043
    ],
    [
      -0.08794718980789185,
      -0.08232800662517548,
      0.08489932864904404,
      -0.15982253849506378,
      0.07488474994897842,
      -0.11144550144672394,
      0.14219722151756287,
      0.010551856830716133,
      -0.0017489636084064841,
      0.0427573136985302,
      0.057131532579660416,
      0.026493415236473083,
      0.05184893310070038,
      0.07171554863452911,
      0.07560347020626068,
      0.00886674877256155,
      -0.061382923275232315,
      0.10489452630281448,
      -0.1652531921863556,
      0.16060347855091095,
      0.011859988793730736,
      -0.041091982275247574,
      -0.0011683660559356213,
      -0.07648526877164841,
      0.05678514018654823,
      -0.051800552755594254,
      -0.030089713633060455,
      0.05174598470330238,
      0.08199037611484528,
      0.035839006304740906,
      -0.03322355076670647,
      -0.08514006435871124,
      0.016175651922822,
      0.06567232310771942,
      -0.13540345430374146,
      0.057785436511039734,
      0.01341934036463499,
      -0.06722575426101685,
      -0.10635391622781754,
      0.0663684532046318,
      0.034082137048244476,
      0.05799001082777977,
      0.09134095162153244,
      -0.04412205517292023,
      -0.018444454297423363,
      0.0985981822013855,
      -0.10749892890453339,
      -0.059558529406785965,
      -0.05109420418739319,
      -0.02226562798023224,
      -0.03324950113892555,
      -0.0902709811925888,
      -0.026321223005652428,
      -0.10819924622774124,
      0.07958903163671494,
      -0.11980900913476944,
      0.15801866352558136,
      -0.11357733607292175,
      -0.11937575787305832,
      -0.024002443999052048,
      -0.06692160665988922,
      -0.08604618906974792,
      0.024509064853191376,
      0.136661097407341
    ],
    [
      0.10418929159641266,
      -0.011229933239519596,
      -0.1145230084657669,
      -0.06573014706373215,
      -0.16588008403778076,
      0.08103219419717789,
      -0.011368872597813606,
      0.0910688191652298,
      -0.03572220355272293,
      0.043955232948064804,
      -0.05458293482661247,
      0.06782494485378265,
      -0.03894735127687454,
      -0.1583494395017624,
      -0.013822857290506363,
      0.06048884242773056,
      0.02308228798210621,
      0.11195264756679535,
      0.009379602037370205,
      0.08185341954231262,
      0.017355915158987045,
      0.12239578366279602,
      0.05840495601296425,
      -0.008835936896502972,
      0.05036763474345207,
      -0.009708206169307232,
      0.10301705449819565,
      0.01955404318869114,
      0.056654978543519974,
      0.009083470329642296,
      -0.06101400405168533,
      -0.2263253927230835,
      0.08321112394332886,
      0.014764819294214249,
      0.05282120406627655,
      0.0506126806139946,
      -0.14882570505142212,
      0.11949165910482407,
      -0.2087431252002716,
      0.05240437388420105,
      0.09605944901704788,
      0.14356282353401184,
      0.03037152625620365,
      -0.03664466738700867,
      -0.08027761429548264,
      0.008939076215028763,
      0.07132114470005035,
      0.012963220477104187,
      0.025057222694158554,
      -0.08568821102380753,
      0.1305646002292633,
      -0.05327906832098961,
      0.011040223762392998,
      0.003397825639694929,
      0.07629922032356262,
      0.137568399310112,
      0.15069711208343506,
      0.07946634292602539,
      0.10603515803813934,
      -0.030963188037276268,
      0.07570737600326538,
      0.0773821547627449,
      -0.08218230307102203,
      -0.22151774168014526
    ],
    [
      0.40090301632881165,
      -0.3645506501197815,
      -0.14290349185466766,
      0.1482577621936798,
      -0.581048846244812,
      0.21273869276046753,
      0.40264004468917847,
      0.311001181602478,
      0.3173234462738037,
      0.011547674424946308,
      -0.07721585035324097,
      0.2331637740135193,
      -0.4220886826515198,
      -0.6420793533325195,
      -0.45621269941329956,
      0.42867401242256165,
      0.32887372374534607,
      0.3070192337036133,
      0.013853042386472225,
      0.24744880199432373,
      0.24097919464111328,
      -0.07153602689504623,
      -0.0832892432808876,
      0.39837825298309326,
      0.19907476007938385,
      0.11677515506744385,
      -0.19300982356071472,
      -0.300932377576828,
      0.1349775344133377,
      0.8750978708267212,
      0.02696148306131363,
      -0.37789738178253174,
      0.07519108802080154,
      -0.3667890727519989,
      0.2960951626300812,
      -0.08851996064186096,
      -0.14826543629169464,
      0.44245645403862,
      -0.6541540622711182,
      0.07494136691093445,
      0.5126532316207886,
      0.14778701961040497,
      0.02429872937500477,
      -0.3375052511692047,
      0.021748093888163567,
      0.27134305238723755,
      -0.12228294461965561,
      -0.013189801946282387,
      0.45966216921806335,
      -0.2526151239871979,
      0.27879032492637634,
      -0.019302116706967354,
      0.08331455290317535,
      -0.21617461740970612,
      -0.018592460080981255,
      0.3408478796482086,
      0.7753518223762512,
      -0.15919575095176697,
      0.20193973183631897,
      0.2398545742034912,
      0.20910358428955078,
      0.5007689595222473,
      -0.12352621555328369,
      -0.4635842740535736
    ],
    [
      0.08324967324733734,
      0.008027981966733932,
      -0.056181054562330246,
      -0.08632555603981018,
      0.022445231676101685,
      0.16649314761161804,
      -0.031838469207286835,
      0.014337701722979546,
      0.06169634684920311,
      0.038607336580753326,
      0.009066961705684662,
      0.024852914735674858,
      0.008044496178627014,
      -0.1316470056772232,
      -0.04800096154212952,
      -0.05726911872625351,
      -0.04981014505028725,
      -0.05051163583993912,
      -0.09867248684167862,
      0.10753162950277328,
      0.04738888889551163,
      -0.07639418542385101,
      0.10345262289047241,
      0.04451265186071396,
      -0.01646464318037033,
      -0.09150215983390808,
      -0.09378863871097565,
      0.037716612219810486,
      -0.052332837134599686,
      -0.05024039372801781,
      -0.08379554748535156,
      0.053627919405698776,
      -0.026696933433413506,
      -0.03205779194831848,
      -0.01903834193944931,
      -0.010375208221375942,
      0.04397197812795639,
      -0.008949731476604939,
      0.08452768623828888,
      0.08892981708049774,
      -0.011070596985518932,
      0.08255024999380112,
      0.08770737797021866,
      -0.0595717653632164,
      -0.0022193416953086853,
      -0.03704352676868439,
      -0.018111897632479668,
      0.16339628398418427,
      0.0889986902475357,
      0.06849817931652069,
      -0.011976744048297405,
      -0.06686139106750488,
      0.09806849807500839,
      0.0275442935526371,
      0.035697467625141144,
      -0.01670614816248417,
      -0.07673074305057526,
      0.05865276977419853,
      -0.06480614840984344,
      0.09807596355676651,
      -0.024849602952599525,
      0.0708954930305481,
      0.08368096500635147,
      0.018197745084762573
    ],
    [
      0.35306793451309204,
      -0.27598798274993896,
      -0.03180168569087982,
      0.23271344602108002,
      -0.29163676500320435,
      0.1897461712360382,
      0.4456492066383362,
      0.2380039542913437,
      0.16770856082439423,
      -0.10518443584442139,
      -0.07350530475378036,
      0.10253945738077164,
      -0.10645768791437149,
      -0.4610643982887268,
      -0.524878978729248,
      0.37275952100753784,
      -0.04511947184801102,
      0.21585677564144135,
      0.1527649164199829,
      0.13528293371200562,
      0.054097048938274384,
      0.058816831558942795,
      -0.120964914560318,
      0.22836673259735107,
      0.31517621874809265,
      0.1392029970884323,
      0.06902004778385162,
      -0.10331881791353226,
      0.19968292117118835,
      0.5333607792854309,
      0.0584418959915638,
      -0.30883410573005676,
      0.2765539586544037,
      -0.14496290683746338,
      0.24136458337306976,
      0.0752958431839943,
      -0.16312791407108307,
      0.38128018379211426,
      -0.25509515404701233,
      0.2186407744884491,
      0.3022078275680542,
      -0.06550975143909454,
      -0.11810163408517838,
      -0.1975528597831726,
      0.01188533566892147,
      0.41537487506866455,
      -0.09786102920770645,
      0.05364362895488739,
      0.18188989162445068,
      -0.27284032106399536,
      0.3569473326206207,
      0.008587713353335857,
      0.16858640313148499,
      -0.03957122564315796,
      0.00797999743372202,
      0.17410403490066528,
      0.7381424307823181,
      0.0011138229165226221,
      0.058491598814725876,
      0.21385256946086884,
      0.16841548681259155,
      0.37295034527778625,
      0.11061955988407135,
      -0.24161379039287567
    ],
    [
      0.006118365563452244,
      -0.04042927548289299,
      -0.07516232132911682,
      -0.10641676187515259,
      -0.05645382031798363,
      -0.08997735381126404,
      -0.020162956789135933,
      0.002356060780584812,
      -0.014275327324867249,
      0.07335924357175827,
      -0.11087096482515335,
      0.05303794890642166,
      0.009008856490254402,
      -0.013163072057068348,
      0.0885586366057396,
      0.03430180996656418,
      -0.010508048348128796,
      -0.06062708795070648,
      -0.036641523241996765,
      0.04656199365854263,
      -0.09737945348024368,
      -0.010066932998597622,
      -0.03276193514466286,
      -0.0329168327152729,
      0.052942175418138504,
      -0.07894929498434067,
      0.05583010986447334,
      -0.053602200001478195,
      0.014538195915520191,
      -0.0860486775636673,
      -0.01919437386095524,
      -0.05372977629303932,
      0.021768197417259216,
      -0.06406877934932709,
      -0.10246437042951584,
      0.0259950403124094,
      -0.10357487946748734,
      -0.01870524138212204,
      -0.048088811337947845,
      0.12802280485630035,
      -0.020943637937307358,
      0.05005417391657829,
      -0.031818997114896774,
      -0.09382607787847519,
      -0.0035437738988548517,
      0.08501405268907547,
      0.08161530643701553,
      0.05234728753566742,
      -0.08793850243091583,
      0.004471675027161837,
      -0.049293823540210724,
      -0.031217483803629875,
      0.16704455018043518,
      0.06683405488729477,
      -0.037866171449422836,
      -0.01437417883425951,
      0.10425158590078354,
      -0.13211242854595184,
      -0.1017116978764534,
      -0.014995003119111061,
      0.06591607630252838,
      0.002842637710273266,
      0.08899808675050735,
      0.06565087288618088
    ],
    [
      0.0823344811797142,
      -0.06950034201145172,
      -0.10436242818832397,
      0.035375963896512985,
      -0.06916148215532303,
      0.09376832097768784,
      -0.1239396184682846,
      -0.057959895581007004,
      -0.026790576055645943,
      0.09887845069169998,
      0.03832733631134033,
      -0.09299729764461517,
      -0.021543843671679497,
      0.1395777016878128,
      -0.04851943254470825,
      -0.010390291921794415,
      -0.008198002353310585,
      -0.04299156367778778,
      0.004269891884177923,
      -0.045229289680719376,
      -0.009688795544207096,
      0.0591571070253849,
      0.015164651907980442,
      -0.18609002232551575,
      0.021783875301480293,
      0.052110861986875534,
      0.030432632192969322,
      0.12996868789196014,
      -0.056003138422966,
      0.0799177959561348,
      -0.036063484847545624,
      0.03060298226773739,
      0.04831570014357567,
      -0.04936615750193596,
      -0.0008182822493836284,
      -0.09512802213430405,
      0.04907817393541336,
      0.05141435191035271,
      -0.07318318635225296,
      -0.03396225720643997,
      -0.09510739147663116,
      0.0668974295258522,
      0.0512402281165123,
      0.0759391337633133,
      0.006409805733710527,
      0.0029383725486695766,
      -0.016994059085845947,
      -0.021699700504541397,
      -0.003260756377130747,
      0.08547870814800262,
      -0.08312094956636429,
      -0.14687857031822205,
      0.04009731113910675,
      -0.0547853484749794,
      -0.08929040282964706,
      0.0809183344244957,
      0.10339578241109848,
      0.032690584659576416,
      -0.1064569354057312,
      -0.09370807558298111,
      -0.002255585975944996,
      0.005384565331041813,
      0.082053042948246,
      0.08018651604652405
    ],
    [
      0.37032124400138855,
      0.08651355654001236,
      -0.22863832116127014,
      0.13025282323360443,
      -0.3989289700984955,
      0.31814026832580566,
      0.4579842686653137,
      0.22440052032470703,
      -0.21672247350215912,
      -0.16199278831481934,
      0.006281005218625069,
      -0.05500007048249245,
      -0.12087652832269669,
      -0.20238295197486877,
      -0.16603580117225647,
      0.21594074368476868,
      0.530390202999115,
      -0.013425920158624649,
      0.21850524842739105,
      -0.028684524819254875,
      0.5041214227676392,
      -0.046041980385780334,
      0.17880778014659882,
      0.4262320399284363,
      -0.1496714949607849,
      0.03585490956902504,
      0.1181541159749031,
      -0.10914135724306107,
      -0.3955381512641907,
      1.1241874694824219,
      -0.03791031986474991,
      -0.06878956407308578,
      0.28080499172210693,
      -0.028446055948734283,
      0.21081429719924927,
      -0.07522280514240265,
      -0.014844192191958427,
      0.08286770433187485,
      -0.3692331910133362,
      0.22090332210063934,
      0.40559300780296326,
      -0.16281506419181824,
      -0.015113839879631996,
      0.27333730459213257,
      0.02625618502497673,
      0.347282350063324,
      -0.218563050031662,
      -0.06172195076942444,
      0.1410909742116928,
      -0.019845280796289444,
      0.17367075383663177,
      0.2094895988702774,
      0.40479856729507446,
      0.10986490547657013,
      0.1298263669013977,
      -0.02195127122104168,
      0.9221425652503967,
      -0.19867445528507233,
      0.4345095753669739,
      0.2955282926559448,
      -0.08259188383817673,
      0.441868394613266,
      0.04463976249098778,
      0.03197965398430824
    ],
    [
      0.061742112040519714,
      -0.008424470201134682,
      -0.12061696499586105,
      -0.06512118875980377,
      0.08733916282653809,
      -0.034078992903232574,
      0.12082130461931229,
      0.02540862187743187,
      0.04838411882519722,
      -0.0798945426940918,
      0.12517531216144562,
      -0.09446348994970322,
      -0.11553458124399185,
      -0.20545925199985504,
      -0.08414574712514877,
      0.06590307503938675,
      -0.1181396096944809,
      0.1380900740623474,
      -0.021138973534107208,
      0.06901974231004715,
      -0.053966496139764786,
      0.039103347808122635,
      -0.12424962222576141,
      0.15266908705234528,
      -0.015899838879704475,
      -0.10451193898916245,
      -0.07861094176769257,
      0.05899248644709587,
      0.10659124702215195,
      0.12961101531982422,
      0.08383551239967346,
      0.015352800488471985,
      0.08687067776918411,
      -0.16868342459201813,
      0.02641375921666622,
      -0.05848662927746773,
      -0.11172114312648773,
      0.07135320454835892,
      -0.1259578913450241,
      0.10384341329336166,
      0.2474857121706009,
      0.1285116970539093,
      0.0716104730963707,
      0.0093282675370574,
      0.10709928721189499,
      -0.06855093687772751,
      0.08980575203895569,
      -0.004453829489648342,
      0.07432353496551514,
      0.009082484059035778,
      -0.06382240355014801,
      0.015329631045460701,
      -0.07619290053844452,
      -0.1399821788072586,
      0.06675145775079727,
      0.015459440648555756,
      0.015496110543608665,
      0.014511274173855782,
      -0.10889454185962677,
      0.014225133694708347,
      -0.06210922822356224,
      0.037521205842494965,
      0.07071877270936966,
      -0.008617833256721497
    ],
    [
      0.11939132958650589,
      0.06939065456390381,
      -0.021226465702056885,
      0.12913402915000916,
      -0.23563526570796967,
      0.13087016344070435,
      -0.09096623957157135,
      0.060729995369911194,
      0.20199771225452423,
      -0.2943934202194214,
      -0.008312971331179142,
      -0.2726670801639557,
      0.008090311661362648,
      0.15266016125679016,
      0.016272269189357758,
      0.13775762915611267,
      0.0853952169418335,
      -0.29864802956581116,
      0.11919619888067245,
      -0.21528808772563934,
      0.12810982763767242,
      -0.03819232061505318,
      0.054232414811849594,
      0.019863737747073174,
      0.14107546210289001,
      0.002682075137272477,
      -0.12392642349004745,
      -0.09906776249408722,
      0.07543265074491501,
      0.05263166129589081,
      -0.11906935274600983,
      0.008758322335779667,
      0.3045470714569092,
      0.037493642419576645,
      0.15910768508911133,
      -0.06627599149942398,
      0.08351531624794006,
      0.11066876351833344,
      -0.041641782969236374,
      0.045119673013687134,
      -0.18912266194820404,
      -0.08463793992996216,
      0.12105748802423477,
      0.05676573887467384,
      -0.06641188263893127,
      0.08417221903800964,
      -0.1509273648262024,
      -0.02998957969248295,
      0.05568063259124756,
      0.16613200306892395,
      -0.10398648679256439,
      0.048240214586257935,
      -0.12713982164859772,
      0.11394762247800827,
      0.11213567107915878,
      -0.220551535487175,
      -0.007179280277341604,
      -0.22026173770427704,
      0.10480386018753052,
      0.23079083859920502,
      -0.1310882270336151,
      -0.1705627292394638,
      -0.03929203748703003,
      0.2276107370853424
    ],
    [
      0.32320675253868103,
      -0.2558421790599823,
      -0.06628072261810303,
      0.14823663234710693,
      -0.34416651725769043,
      0.19279249012470245,
      0.18331710994243622,
      0.07131079584360123,
      0.19891980290412903,
      0.059162724763154984,
      0.042989008128643036,
      0.11159498244524002,
      -0.16279806196689606,
      -0.3395705819129944,
      -0.31168532371520996,
      0.31196823716163635,
      -0.03372333198785782,
      0.1586906611919403,
      0.010981269180774689,
      0.04539428651332855,
      0.061207812279462814,
      -0.14024409651756287,
      0.03966521844267845,
      0.1906963288784027,
      0.1486724615097046,
      0.08412986993789673,
      -0.1437663435935974,
      -0.21545276045799255,
      0.26852524280548096,
      0.43844759464263916,
      0.09517330676317215,
      -0.2016860544681549,
      0.1465045064687729,
      -0.27656906843185425,
      0.16366684436798096,
      -0.18183234333992004,
      -0.19389714300632477,
      0.32868441939353943,
      -0.5414752960205078,
      -0.2475247085094452,
      0.4718233346939087,
      0.005361749324947596,
      -0.054566048085689545,
      -0.36148086190223694,
      0.07551911473274231,
      0.14204740524291992,
      -0.10996173322200775,
      -0.00208029942587018,
      0.40686100721359253,
      -0.18344460427761078,
      0.1791679710149765,
      0.024573693051934242,
      0.2444351464509964,
      -0.05351636931300163,
      0.06376347690820694,
      0.19797077775001526,
      0.6139580011367798,
      -0.013540728017687798,
      0.2361478954553604,
      -0.11551570147275925,
      0.1880449652671814,
      0.4289877414703369,
      0.05506978556513786,
      -0.48130398988723755
    ],
    [
      -0.08001423627138138,
      0.0736033171415329,
      -0.042402900755405426,
      0.030867382884025574,
      -0.04365185275673866,
      0.0491303987801075,
      -0.01039904821664095,
      -0.023008231073617935,
      0.07151736319065094,
      -0.04684605449438095,
      0.10790333151817322,
      0.12884557247161865,
      0.015569022856652737,
      0.06567446887493134,
      -0.17302623391151428,
      0.11023961007595062,
      -0.05380687862634659,
      0.1652218997478485,
      0.021069886162877083,
      -0.02862849086523056,
      0.028136584907770157,
      -0.03125699982047081,
      0.057047370821237564,
      -0.0740116760134697,
      -0.08338572084903717,
      -0.0881011113524437,
      -0.028360487893223763,
      0.042209453880786896,
      0.11597355455160141,
      -0.07059114426374435,
      -0.01770521141588688,
      0.07657826691865921,
      0.0027454178780317307,
      0.1045464426279068,
      0.07901781052350998,
      0.08454989641904831,
      -0.08084473758935928,
      -0.018293971195816994,
      0.09314081817865372,
      0.026749273762106895,
      0.10640653222799301,
      0.09832187741994858,
      0.036955542862415314,
      0.03512357175350189,
      -0.03601979464292526,
      -0.14462921023368835,
      -0.062010906636714935,
      0.034068889915943146,
      -0.0618707537651062,
      0.01598464697599411,
      0.06441657245159149,
      -0.0909891352057457,
      0.012830345891416073,
      -0.026868827641010284,
      -0.0716112032532692,
      -0.08475174009799957,
      -0.0723361223936081,
      -0.09314695745706558,
      -0.056210048496723175,
      -0.0019370447844266891,
      -0.07983909547328949,
      0.07595755159854889,
      -0.022189313545823097,
      -0.0967181921005249
    ],
    [
      -0.10159063339233398,
      -0.006936464924365282,
      -0.1019994467496872,
      -0.17300306260585785,
      0.16197273135185242,
      -0.08136552572250366,
      -0.08657938241958618,
      0.05383077263832092,
      -0.14169220626354218,
      0.14009319245815277,
      -0.0403178334236145,
      0.19066967070102692,
      0.07189709693193436,
      -0.11806314438581467,
      -0.02336864545941353,
      0.008245796896517277,
      -0.10112152993679047,
      0.031317997723817825,
      -0.0933014452457428,
      0.09385409206151962,
      0.0027956562116742134,
      0.01599297486245632,
      -0.03601931780576706,
      -0.06282007694244385,
      -0.07805457711219788,
      0.16265830397605896,
      0.2192542552947998,
      0.09268030524253845,
      -0.1956411749124527,
      -0.09862546622753143,
      0.0403779037296772,
      -0.050800491124391556,
      0.03409488499164581,
      0.07474453747272491,
      -0.025949200615286827,
      0.1597893089056015,
      -0.11236251145601273,
      -0.21752843260765076,
      0.14597336947917938,
      0.08074387907981873,
      0.1982116401195526,
      0.1771129071712494,
      0.11770865321159363,
      -0.0462285652756691,
      -0.04124431312084198,
      -0.044562216848134995,
      0.11023737490177155,
      0.14973832666873932,
      -0.2103809118270874,
      -0.17593373358249664,
      0.0644335150718689,
      -0.10696947574615479,
      0.06497018784284592,
      0.03874236345291138,
      0.060501378029584885,
      0.15376320481300354,
      0.017536167055368423,
      0.13471227884292603,
      -0.20177996158599854,
      0.016847360879182816,
      0.0069925361312925816,
      -0.019962172955274582,
      0.012224671430885792,
      -0.0921025350689888
    ],
    [
      -0.01899605803191662,
      0.03317347541451454,
      0.12558607757091522,
      -0.144807368516922,
      0.015503297559916973,
      -0.0564371682703495,
      0.04171733558177948,
      0.06239616125822067,
      0.08756547421216965,
      -0.03364870697259903,
      0.0014691122341901064,
      -0.015219665132462978,
      -0.09171071648597717,
      0.054185282438993454,
      -0.07754126936197281,
      0.030269421637058258,
      0.027798864990472794,
      0.11587325483560562,
      -0.07224873453378677,
      0.09721473604440689,
      -0.04293898865580559,
      0.0021987403742969036,
      0.023405101150274277,
      -0.135257750749588,
      0.024460699409246445,
      0.08501841872930527,
      -0.044591568410396576,
      0.001967471092939377,
      -0.10707757622003555,
      0.08726921677589417,
      0.03627171367406845,
      -0.05156252905726433,
      -0.05532999709248543,
      0.03498372435569763,
      -0.017752069979906082,
      -0.04792074114084244,
      -0.009439005516469479,
      0.08439943939447403,
      -0.06962723284959793,
      -0.018883109092712402,
      -0.14175021648406982,
      0.06514036655426025,
      -0.01782400533556938,
      -0.012915081344544888,
      0.02029518224298954,
      0.05974799767136574,
      -0.03564147651195526,
      0.01571880653500557,
      -0.04663439840078354,
      0.0644637942314148,
      -0.012896007858216763,
      0.08106613159179688,
      -0.17750753462314606,
      -0.01977081596851349,
      -0.11918891221284866,
      -0.0625685602426529,
      0.07497115433216095,
      -0.061420515179634094,
      -0.012921905145049095,
      -0.06370681524276733,
      -0.08359690010547638,
      -0.0005769507260993123,
      0.032306961715221405,
      0.08402348309755325
    ],
    [
      -0.13557231426239014,
      0.010409541428089142,
      -0.03131408244371414,
      0.004175649490207434,
      0.14912298321723938,
      0.010654941201210022,
      0.050105366855859756,
      0.12345931679010391,
      -0.07334650307893753,
      0.16894115507602692,
      0.10879266262054443,
      -0.011822465807199478,
      -0.06976685672998428,
      -0.0017393027665093541,
      -0.011605104431509972,
      0.19124597311019897,
      -0.024705061689019203,
      0.057454872876405716,
      -0.07130403071641922,
      0.1819940209388733,
      -0.20995011925697327,
      0.13071246445178986,
      -0.1416194885969162,
      -0.1359197199344635,
      -0.15933355689048767,
      -0.0038837497122585773,
      -0.013533854857087135,
      0.06286672502756119,
      -0.15098917484283447,
      -0.019115980714559555,
      0.16727562248706818,
      0.015332565642893314,
      -0.2091764509677887,
      -0.047255005687475204,
      0.04425247386097908,
      0.012317289598286152,
      -0.051505107432603836,
      -0.011023040860891342,
      0.07680640369653702,
      -0.14507246017456055,
      0.22316217422485352,
      0.14906719326972961,
      0.07129744440317154,
      -0.12353077530860901,
      0.07103798538446426,
      0.0612313374876976,
      0.13248613476753235,
      0.03132253512740135,
      -0.06417599320411682,
      -0.1251876950263977,
      0.17423732578754425,
      -0.17486655712127686,
      -0.0829177051782608,
      0.015133914537727833,
      0.009855731390416622,
      0.1967877596616745,
      -0.0022986929398030043,
      0.00929704774171114,
      -0.18899789452552795,
      0.011796060018241405,
      0.12599553167819977,
      0.0516669936478138,
      0.008435359224677086,
      0.0121301906183362
    ],
    [
      0.1140824407339096,
      -0.005865874700248241,
      -0.08819347620010376,
      -0.09658727049827576,
      -0.019885558634996414,
      0.05520673841238022,
      0.0713595524430275,
      0.10276837646961212,
      0.12408458441495895,
      0.04398652911186218,
      0.032429132610559464,
      -0.14965485036373138,
      -0.12830792367458344,
      -0.11094696819782257,
      0.09460648894309998,
      -0.03336532786488533,
      -0.04425719380378723,
      -0.036239705979824066,
      -0.1221577376127243,
      0.06156373769044876,
      0.0863548293709755,
      0.07894597947597504,
      0.033473365008831024,
      -0.05982537195086479,
      -0.08617503941059113,
      -0.11068598181009293,
      -0.04061911255121231,
      0.062110405415296555,
      0.07291271537542343,
      -0.06303159892559052,
      0.05203293636441231,
      0.04473370686173439,
      -0.101434625685215,
      -0.07575755566358566,
      -0.05971696227788925,
      0.030233288183808327,
      0.06350146979093552,
      0.06958150118589401,
      0.05695474147796631,
      -0.018102115020155907,
      0.034641481935977936,
      -0.05625762790441513,
      -0.08428671211004257,
      -0.12057865411043167,
      0.08769438415765762,
      0.009699669666588306,
      -0.02253577671945095,
      0.029766971245408058,
      -0.08585257083177567,
      -0.05682675167918205,
      -0.03367560729384422,
      0.03137081488966942,
      -0.005883901380002499,
      0.040738821029663086,
      -0.04145163670182228,
      -0.07892323285341263,
      0.023002298548817635,
      0.0809897854924202,
      -0.03358512371778488,
      0.0987773984670639,
      0.05681050196290016,
      0.03385346382856369,
      -0.0683894008398056,
      0.010030143894255161
    ],
    [
      0.0379311703145504,
      -0.06891085207462311,
      -0.03730405122041702,
      0.11480383574962616,
      -0.29622188210487366,
      0.1197996437549591,
      0.16392752528190613,
      0.007191597018390894,
      0.09668443351984024,
      -0.2905155122280121,
      -0.0211024172604084,
      0.028294099494814873,
      -0.21730196475982666,
      0.04880855232477188,
      0.002042431151494384,
      0.22565144300460815,
      0.07231611013412476,
      -0.14553576707839966,
      0.03937825933098793,
      -0.021924462169408798,
      0.27118149399757385,
      0.029062390327453613,
      0.04769451171159744,
      0.12592121958732605,
      0.03420402854681015,
      0.07444973289966583,
      0.11910398304462433,
      -0.10195498913526535,
      -0.16055049002170563,
      0.38163048028945923,
      0.0858607292175293,
      -0.03353443369269371,
      0.3053378760814667,
      -0.19081874191761017,
      0.07442507892847061,
      0.03568412736058235,
      -0.15136490762233734,
      -0.04275108128786087,
      -0.15219077467918396,
      0.025081273168325424,
      -0.08564773201942444,
      -0.18105173110961914,
      0.018652617931365967,
      0.04310150071978569,
      -0.018042968586087227,
      0.173280730843544,
      -0.07468828558921814,
      -0.0719071552157402,
      0.06723140925168991,
      -0.02078482322394848,
      0.015109837986528873,
      0.12138557434082031,
      0.1564628630876541,
      -0.17537188529968262,
      0.1825929582118988,
      0.03166019171476364,
      0.25988656282424927,
      -0.12818928062915802,
      -0.010982583276927471,
      0.18222153186798096,
      -0.06695556640625,
      0.10900921374559402,
