{
  "fc1.weight": [
    [
      -0.32358717918395996
    ],
    [
      0.6092697978019714
    ],
    [
      -0.29834282398223877
    ],
    [
      -0.557894229888916
    ],
    [
      0.3008063733577728
    ],
    [
      0.18607591092586517
    ],
    [
      -0.40052810311317444
    ],
    [
      0.2794027030467987
    ],
    [
      0.5459547638893127
    ],
    [
      -0.44589412212371826
    ],
    [
      0.8398455381393433
    ],
    [
      0.20134569704532623
    ],
    [
      0.4318241477012634
    ],
    [
      0.35077348351478577
    ],
    [
      -0.883613109588623
    ],
    [
      -0.36062222719192505
    ],
    [
      0.42461487650871277
    ],
    [
      -0.07714438438415527
    ],
    [
      0.27824193239212036
    ],
    [
      0.40410661697387695
    ],
    [
      0.5761935114860535
    ],
    [
      -0.3776625692844391
    ],
    [
      0.22500526905059814
    ],
    [
      0.4661048352718353
    ],
    [
      -0.5910305380821228
    ],
    [
      0.4407743215560913
    ],
    [
      -0.5457354784011841
    ],
    [
      -0.40051257610321045
    ],
    [
      0.7880136966705322
    ],
    [
      -0.359476238489151
    ],
    [
      0.5324344635009766
    ],
    [
      -0.9299858808517456
    ]
  ],
  "fc1.bias": [
    0.13346591591835022,
    -0.6731958985328674,
    -0.520878255367279,
    -0.462548166513443,
    -0.34604719281196594,
    0.18113145232200623,
    -0.1511690616607666,
    0.20356504619121552,
    -0.7234057784080505,
    0.43726664781570435,
    -0.9717447757720947,
    0.2105565369129181,
    -0.47942376136779785,
    0.09611013531684875,
    0.7406570911407471,
    -0.1391567885875702,
    -0.06869658827781677,
    -0.565528154373169,
    0.10808375477790833,
    -0.007768881507217884,
    -0.6780082583427429,
    0.41519176959991455,
    0.2140248715877533,
    -0.5192376375198364,
    -0.472973108291626,
    0.03241522237658501,
    0.261485755443573,
    -0.8659406900405884,
    -0.9051190614700317,
    0.4094843566417694,
    -0.5882053375244141,
    0.5696075558662415
  ],
  "fc2.weight": [
    [
      -0.027122873812913895,
      -0.05229506641626358,
      -0.0605512373149395,
      0.08796820789575577,
      -0.32748451828956604,
      -0.6994336843490601,
      -0.05347402021288872,
      -0.6655611991882324,
      -0.03675270080566406,
      0.006839368492364883,
      -0.3114919364452362,
      -0.5760382413864136,
      -0.021039612591266632,
      -4.052988052368164,
      -0.02309669367969036,
      -0.02928011305630207,
      -0.7032979726791382,
      -0.023139655590057373,
      -3.4363555908203125,
      -2.17582368850708,
      -0.1986512541770935,
      0.01256781630218029,
      -0.6867874264717102,
      -0.22275103628635406,
      0.07886035740375519,
      -2.7368156909942627,
      -0.02956557460129261,
      -0.1087816059589386,
      -0.23120050132274628,
      0.0017685979837551713,
      -0.1906326860189438,
      -0.027998272329568863
    ],
    [
      0.10574749112129211,
      -0.4361240863800049,
      -0.28679969906806946,
      0.1162068247795105,
      -0.4886068105697632,
      -0.18112784624099731,
      0.15535825490951538,
      -0.17557702958583832,
      -0.12521792948246002,
      0.05384567007422447,
      -0.29584476351737976,
      -0.0933961272239685,
      -0.4489913284778595,
      -0.23677407205104828,
      0.015041280537843704,
      0.12361150979995728,
      -4.058493614196777,
      0.1322656124830246,
      -0.2972911596298218,
      -1.3089709281921387,
      -0.2623941898345947,
      0.056382376700639725,
      -0.13413451611995697,
      -0.4222899377346039,
      0.16796831786632538,
      -0.6205477714538574,
      0.057131148874759674,
      0.09506644308567047,
      -0.6009959578514099,
      0.04036511108279228,
      -0.5755212306976318,
      0.008510285057127476
    ],
    [
      -1.3621997833251953,
      0.18272730708122253,
      -0.01709911786019802,
      -0.8115185499191284,
      0.1849338710308075,
      -0.01592038758099079,
      -1.6087576150894165,
      -0.008540316484868526,
      0.24205708503723145,
      -0.12004391103982925,
      0.20989401638507843,
      -0.03431320935487747,
      0.24508671462535858,
      0.060410890728235245,
      -0.06391901522874832,
      -1.5125036239624023,
      0.16319416463375092,
      0.06109002232551575,
      0.05355538800358772,
      0.16753286123275757,
      0.2901453375816345,
      -0.11851493269205093,
      0.014686801470816135,
      0.19475561380386353,
      -0.8519570231437683,
      0.10474719852209091,
      -0.5126466155052185,
      -0.15220236778259277,
      0.04385208338499069,
      -0.06577575206756592,
      0.09599580615758896,
      -0.21492351591587067
    ],
    [
      0.08919471502304077,
      -0.4492344260215759,
      -0.18457646667957306,
      0.1340322643518448,
      -0.46595266461372375,
      -0.20085306465625763,
      0.19785086810588837,
      -0.2066034972667694,
      -0.3666331470012665,
      0.023736033588647842,
      -0.47626373171806335,
      -0.21714389324188232,
      -0.2824021875858307,
      -0.231214702129364,
      -0.03578195348381996,
      0.18308983743190765,
      -2.459852695465088,
      0.021288380026817322,
      -0.3073512017726898,
      -0.8810824751853943,
      -0.18744777143001556,
      0.043593037873506546,
      -0.22976171970367432,
      -0.36135178804397583,
      0.12734071910381317,
      -0.516033411026001,
      0.060162417590618134,
      0.012489095330238342,
      -0.35421204566955566,
      0.019226763397455215,
      -0.391538143157959,
      -0.043815530836582184
    ],
    [
      -2.3207802772521973,
      0.12220066040754318,
      -0.16070689260959625,
      -0.5929130911827087,
      0.3986358046531677,
      -0.004456547554582357,
      -0.911780834197998,
      0.02516496740281582,
      0.17062674462795258,
      -0.19720585644245148,
      0.20510832965373993,
      0.048214759677648544,
      0.11477656662464142,
      0.07188092917203903,
      -0.1400395631790161,
      -1.3423463106155396,
      0.04813636466860771,
      0.03375518321990967,
      0.0397748202085495,
      0.05020386353135109,
      0.2127522975206375,
      -0.21636199951171875,
      0.014577982947230339,
      0.2337689846754074,
      -0.5813432931900024,
      -0.0023170870263129473,
      -1.7398089170455933,
      -0.17153507471084595,
      0.013445097953081131,
      -0.20269766449928284,
      0.23957058787345886,
      -0.3742503523826599
    ],
    [
      -0.07872594147920609,
      0.024698128923773766,
      0.13145308196544647,
      0.006837636232376099,
      -0.12813542783260345,
      -0.1543036699295044,
      -0.01420825719833374,
      0.010053847916424274,
      -0.13689589500427246,
      -0.1448463648557663,
      0.05293745547533035,
      0.0046257018111646175,
      -0.05730330944061279,
      0.0772889256477356,
      -0.17761141061782837,
      -0.14313916862010956,
      0.07309309393167496,
      0.11001969873905182,
      -0.2174251228570938,
      -0.014986760914325714,
      -0.009954727254807949,
      -0.08971665799617767,
      -0.07539229840040207,
      -0.10646047443151474,
      -0.06144947558641434,
      -0.15117400884628296,
      0.028363322839140892,
      0.11425156891345978,
      -0.053139202296733856,
      -0.017156679183244705,
      -0.10836385190486908,
      -0.05858360230922699
    ],
    [
      -0.057944200932979584,
      -0.07400200515985489,
      -0.055748190730810165,
      -0.0729842558503151,
      -0.06187445670366287,
      -0.10974151641130447,
      0.0025856406427919865,
      -0.12109082192182541,
      -0.0832139179110527,
      -0.0064670126885175705,
      -0.17181168496608734,
      -0.1491091549396515,
      0.04478509724140167,
      0.06860406696796417,
      0.0031233862973749638,
      -0.05505082756280899,
      -0.02450650930404663,
      -0.17195560038089752,
      -0.1417866349220276,
      -0.12618201971054077,
      0.056751325726509094,
      -0.04752529412508011,
      0.020531142130494118,
      0.16763414442539215,
      -0.05841542407870293,
      -0.0895402580499649,
      -0.005893608555197716,
      0.1591331511735916,
      -0.10596619546413422,
      -0.10696374624967575,
      0.11737556755542755,
      -0.09217167645692825
    ],
    [
      -0.7391942739486694,
      0.07403149455785751,
      -0.027662483975291252,
      -0.09233749657869339,
      0.19172362983226776,
      0.012602971866726875,
      -0.33324113488197327,
      0.029330283403396606,
      0.027015630155801773,
      -1.351019263267517,
      -0.025758754462003708,
      0.004247505217790604,
      0.09856004267930984,
      -0.016731921583414078,
      -1.9582699537277222,
      -0.5480866432189941,
      -0.03989965468645096,
      0.14921428263187408,
      0.014906312339007854,
      -0.04678043723106384,
      0.05968945845961571,
      -0.6867586970329285,
      -0.016907723620533943,
      0.12060658633708954,
      -0.31043630838394165,
      -0.009455163031816483,
      -2.034062623977661,
      -0.11799675971269608,
      0.020187104120850563,
      -0.7248082756996155,
      0.0978720560669899,
      -3.170029401779175
    ],
    [
      -2.069714307785034,
      0.18433034420013428,
      -0.0548727847635746,
      -0.20652660727500916,
      0.32610252499580383,
      0.02502441219985485,
      -0.7250476479530334,
      0.0259470846503973,
      0.2620200514793396,
      -0.27925631403923035,
      -0.00697389617562294,
      0.029508739709854126,
      0.12459183484315872,
      0.015754403546452522,
      -0.26123878359794617,
      -0.7702761292457581,
      0.003939652815461159,
      0.11556102335453033,
      -0.007400865200906992,
      -0.017654988914728165,
      0.0896778479218483,
      -0.18125945329666138,
      0.021510187536478043,
      0.1004360094666481,
      -0.4047890305519104,
      0.0018966502975672483,
      -3.981748342514038,
      0.12300349771976471,
      0.15815743803977966,
      -0.2054481953382492,
      0.1397477239370346,
      -0.8891155123710632
    ],
    [
      -0.6365882754325867,
      -0.03710459545254707,
      0.04749614745378494,
      -0.17367878556251526,
      0.12379078567028046,
      -0.033432718366384506,
      -0.30377206206321716,
      -0.019777651876211166,
      0.18427009880542755,
      -4.555314540863037,
      0.013715547509491444,
      -0.037272438406944275,
      -0.012528253719210625,
      -0.015710942447185516,
      -3.4161486625671387,
      -0.31292006373405457,
      -0.04243912920355797,
      0.0064737796783447266,
      -0.053636807948350906,
      -0.0334993377327919,
      0.13368624448776245,
      -2.3165526390075684,
      -0.02035621553659439,
      0.00011760823690565303,
      -0.4280789792537689,
      -0.04768892005085945,
      -1.3195468187332153,
      0.14556299149990082,
      -0.021647442132234573,
      -2.270068645477295,
      0.006921331398189068,
      -1.747904896736145
    ],
    [
      0.00789502914994955,
      -0.7123451232910156,
      -0.06390924751758575,
      0.1467420756816864,
      -0.402694970369339,
      -0.3991259038448334,
      0.08346036821603775,
      -0.3598601222038269,
      0.1075577586889267,
      0.004096573684364557,
      -0.32497212290763855,
      -0.3134983479976654,
      -0.41124093532562256,
      -0.9979813098907471,
      -0.02659006230533123,
      0.1501358449459076,
      -2.273947238922119,
      -0.15415814518928528,
      -0.73736572265625,
      -3.2964155673980713,
      -0.04241984337568283,
      0.02459966391324997,
      -0.3570731580257416,
      -0.22056935727596283,
      0.12173444777727127,
      -3.61558198928833,
      0.0047040944918990135,
      -0.14631052315235138,
      -0.24879607558250427,
      -0.013579601421952248,
      -0.3630490303039551,
      -0.0231127068400383
    ],
    [
      -1.5165048837661743,
      0.11234020441770554,
      -0.1102888211607933,
      -0.26736748218536377,
      0.1418551653623581,
      0.05180244892835617,
      -1.0388259887695312,
      0.024414941668510437,
      0.1726909726858139,
      -0.09133341908454895,
      0.08389099687337875,
      0.08830271661281586,
      0.2804681658744812,
      0.06494146585464478,
      -0.05992446839809418,
      -1.1775213479995728,
      0.07586673647165298,
      0.11138381063938141,
      0.06038503721356392,
      0.05398136004805565,
      0.20557630062103271,
      -0.08107461035251617,
      0.07764603942632675,
      0.15899281203746796,
      -0.28227344155311584,
      0.11907936632633209,
      -1.1443407535552979,
      0.04537777602672577,
      0.1454901546239853,
      -0.0842987447977066,
      0.1412380188703537,
      -0.22380639612674713
    ],
    [
      -1.3935595750808716,
      0.25639280676841736,
      0.10417189449071884,
      -0.2824079394340515,
      0.25970259308815,
      0.073611319065094,
      -0.9329617023468018,
      0.06306547671556473,
      0.11070960760116577,
      -0.12255889922380447,
      0.08583368360996246,
      0.11991295963525772,
      0.3047570288181305,
      0.042203389108181,
      -0.07599892467260361,
      -1.0872471332550049,
      0.12149082124233246,
      0.12886671721935272,
      0.07503757625818253,
      0.13686257600784302,
      0.1323510855436325,
      -0.10213682800531387,
      0.04878999665379524,
      0.13430863618850708,
      -0.3242761492729187,
      0.08917097747325897,
      -0.8900367617607117,
      0.04257415235042572,
      0.17615211009979248,
      -0.05558273568749428,
      0.07804416865110397,
      -0.19521193206310272
    ],
    [
      0.10811791568994522,
      -0.7998989820480347,
      0.010759318247437477,
      0.06258438527584076,
      -0.5697721242904663,
      -0.18449635803699493,
      0.18516649305820465,
      -0.12092119455337524,
      -0.11718574911355972,
      0.026986069977283478,
      -0.2915698289871216,
      -0.12296035885810852,
      -0.5276720523834229,
      -0.23731723427772522,
      -0.011241449974477291,
      0.20866984128952026,
      -2.4518957138061523,
      0.13548479974269867,
      -0.2846813499927521,
      -0.8191591501235962,
      -0.019657664000988007,
      0.040450599044561386,
      -0.12057918310165405,
      -0.41131681203842163,
      0.11010204255580902,
      -0.4236302375793457,
      0.06612474471330643,
      0.016705915331840515,
      -0.580542802810669,
      0.04248609393835068,
      -0.39412614703178406,
      -0.008587854914367199
    ],
    [
      -1.4682596921920776,
      0.10641749948263168,
      -0.08991903066635132,
      -0.4148414731025696,
      0.09103132784366608,
      -0.0052588037215173244,
      -0.7322037816047668,
      0.003702531335875392,
      0.10378140211105347,
      -0.5631902813911438,
      0.061485160142183304,
      -0.008075634017586708,
      0.1833552122116089,
      0.006364540196955204,
      -0.6371033787727356,
      -0.6672506332397461,
      -0.033900532871484756,
      -0.10118649154901505,
      -0.006047689355909824,
      -0.020004060119390488,
      0.044888779520988464,
      -0.35185250639915466,
      0.035759638994932175,
      0.10737165063619614,
      -0.45751523971557617,
      -0.012762648984789848,
      -3.8504343032836914,
      -0.065574511885643,
      0.11781874299049377,
      -0.3371042311191559,
      0.20937366783618927,
      -3.9788100719451904
    ],
    [
      0.02500619925558567,
      -0.1899450123310089,
      -0.07546848058700562,
      0.12446419894695282,
      -0.21511466801166534,
      -0.19667121767997742,
      0.08651235699653625,
      -0.22692829370498657,
      -0.1281081885099411,
      0.008134186267852783,
      -0.3174317479133606,
      -0.16563883423805237,
      -0.25737497210502625,
      -0.8950802683830261,
      -0.009194400161504745,
      0.16118979454040527,
      -1.6394736766815186,
      0.016988515853881836,
      -0.6178607940673828,
      -4.088176250457764,
      -0.09405989199876785,
      0.03094303049147129,
      -0.16500063240528107,
      -0.33046093583106995,
      0.06447113305330276,
      -4.373827934265137,
      0.028278237208724022,
      0.007093295454978943,
      -0.1607634723186493,
      0.002222674433141947,
      -0.11393606662750244,
      -0.017149513587355614
    ],
    [
      -0.07033786922693253,
      -0.35153430700302124,
      -0.1295923888683319,
      -0.17984604835510254,
      -0.39982762932777405,
      0.2085714340209961,
      -0.19791190326213837,
      0.19431497156620026,
      -0.1566682606935501,
      -0.03353944793343544,
      -0.19641122221946716,
      0.23161756992340088,
      -0.35647985339164734,
      0.068579763174057,
      0.46009761095046997,
      -0.16668370366096497,
      -0.19975656270980835,
      0.11064891517162323,
      0.18848413228988647,
      -0.12554895877838135,
      -0.22553721070289612,
      -0.028067389503121376,
      0.225609689950943,
      -0.43465346097946167,
      -0.16161835193634033,
      -0.05010060966014862,
      -0.02901817485690117,
      -0.017090529203414917,
      -0.4566267132759094,
      -0.033023905009031296,
      -0.5936956405639648,
      -0.01799255609512329
    ],
    [
      0.11499345302581787,
      -0.34114882349967957,
      -0.17798840999603271,
      0.06198817491531372,
      -0.28841632604599,
      -0.1384931057691574,
      0.20490266382694244,
      -0.1554792821407318,
      -0.16987980902194977,
      0.046621859073638916,
      -0.28588810563087463,
      -0.09578321874141693,
      -0.5251582264900208,
      -0.21523517370224,
      0.005309647880494595,
      0.09017360955476761,
      -1.265041708946228,
      0.018420487642288208,
      -0.22388431429862976,
      -0.5952428579330444,
      -0.3529527187347412,
      0.0654325783252716,
      -0.10586606711149216,
      -0.29195961356163025,
      0.2040526270866394,
      -0.37936362624168396,
      0.07209724932909012,
      -0.15666820108890533,
      -0.38125115633010864,
      0.07979930192232132,
      -0.3631466329097748,
      0.003600801108404994
    ],
    [
      -0.07321562618017197,
      -0.6945836544036865,
      -0.023435071110725403,
      -0.18351605534553528,
      -0.5325236320495605,
      0.2888232469558716,
      -0.20675866305828094,
      0.26620110869407654,
      -0.16180267930030823,
      -0.023999709635972977,
      -0.4363667666912079,
      0.24067071080207825,
      -0.8625412583351135,
      -0.01740860939025879,
      -0.012915120460093021,
      -0.1814972162246704,
      -0.31516969203948975,
      -0.05179482698440552,
      0.18565554916858673,
      -0.23003648221492767,
      -0.2794354557991028,
      -0.038403451442718506,
      0.2737063765525818,
      -0.5786580443382263,
      -0.17855414748191833,
      -0.13412708044052124,
      -0.052720941603183746,
      0.11810244619846344,
      -0.7809856534004211,
      -0.02964898943901062,
      -0.48620370030403137,
      0.5101073384284973
    ],
    [
      0.025757933035492897,
      -0.181063711643219,
      -0.09630704671144485,
      0.062375258654356,
      -0.1395491063594818,
      -0.43787920475006104,
      0.09271291643381119,
      -0.4611935317516327,
      0.005049878265708685,
      0.024503475055098534,
      0.014879409223794937,
      -0.3662637174129486,
      -0.19404864311218262,
      -3.085596799850464,
      -0.017221642658114433,
      0.06456712633371353,
      -0.8610080480575562,
      -0.04384660720825195,
      -1.9162296056747437,
      -2.6759767532348633,
      -0.1635439693927765,
      0.03142499551177025,
      -0.35255783796310425,
      -0.16565203666687012,
      0.03454727306962013,
      -3.498814344406128,
      0.008229485712945461,
      0.13652293384075165,
      -0.13355210423469543,
      0.023862801492214203,
      -0.029822938144207,
      -0.000516327447257936
    ],
    [
      -1.9341362714767456,
      0.12452181428670883,
      0.09477093815803528,
      -0.30280551314353943,
      0.23954664170742035,
      0.01425880379974842,
      -0.9106617569923401,
      0.0003468669892754406,
      0.15310946106910706,
      -0.20390866696834564,
      0.060596682131290436,
      -0.005824084859341383,
      0.1816508024930954,
      0.033256206661462784,
      -0.11259052157402039,
      -1.0661860704421997,
      0.060896437615156174,
      0.03977175056934357,
      0.04144848510622978,
      0.043170858174562454,
      0.14342164993286133,
      -0.13492251932621002,
      0.009041886776685715,
      0.17592023313045502,
      -0.5990988612174988,
      0.022696807980537415,
      -2.4056854248046875,
      -0.03334769606590271,
      0.07467301934957504,
      -0.1356063336133957,
      0.050455305725336075,
      -0.387961745262146
    ],
    [
      -1.5528560876846313,
      0.22456112504005432,
      0.036368753761053085,
      -0.3814352750778198,
      0.22994346916675568,
      0.03870508074760437,
      -1.0043517351150513,
      0.01360546238720417,
      0.2520850598812103,
      -0.09237007051706314,
      0.17723917961120605,
      0.06361493468284607,
      0.26805803179740906,
      0.07520740479230881,
      -0.07074272632598877,
      -1.203945517539978,
      0.14722703397274017,
      0.0635211318731308,
      0.021705035120248795,
      0.12252003699541092,
      0.12686775624752045,
      -0.12678396701812744,
      -0.005594735033810139,
      0.1873238980770111,
      -0.35985231399536133,
      0.05664149299263954,
      -0.9053435921669006,
      -0.14527571201324463,
      0.2083340734243393,
      -0.11266648024320602,
      0.04657326266169548,
      -0.22436581552028656
    ],
    [
      -2.128584861755371,
      0.12057077884674072,
      -0.002829607343301177,
      -0.3044396638870239,
      0.1676129549741745,
      -0.005165810231119394,
      -0.7887204885482788,
      0.025639330968260765,
      0.2683192789554596,
      -0.28868943452835083,
      0.13491517305374146,
      0.004197058267891407,
      0.11576759815216064,
      0.013263941742479801,
      -0.18853624165058136,
      -1.1387898921966553,
      0.02860855497419834,
      0.1312924176454544,
      0.047620419412851334,
      0.025696104392409325,
      0.07386109232902527,
      -0.21618616580963135,
      0.0408928319811821,
      0.10131949186325073,
      -0.3580596446990967,
      0.03642714396119118,
      -3.4077417850494385,
      -0.07089871168136597,
      0.17609219253063202,
      -0.18793851137161255,
      0.23895083367824554,
      -0.530945897102356
    ],
    [
      0.07920784503221512,
      -0.6338289380073547,
      0.0014506744919344783,
      0.16436077654361725,
      -0.614612877368927,
      -0.16816578805446625,
      0.21234352886676788,
      -0.1566743552684784,
      -0.19829118251800537,
      0.0266297347843647,
      -0.3616475760936737,
      -0.15963512659072876,
      -0.3240463435649872,
      -0.28308477997779846,
      -0.004970434121787548,
      0.14939843118190765,
      -1.430061936378479,
      0.09547148644924164,
      -0.2618364989757538,
      -0.6967072486877441,
      -0.2995932996273041,
      0.03286397457122803,
      -0.10451439023017883,
      -0.3124604821205139,
      0.09521595388650894,
      -0.399308979511261,
      0.055368099361658096,
      -0.015371352434158325,
      -0.5542160272598267,
      0.020419878885149956,
      -0.4878581762313843,
      0.00264753052033484
    ],
    [
      0.11701644957065582,
      -0.7346435785293579,
      0.0010309424251317978,
      0.1316901296377182,
      -0.571394681930542,
      -0.1655091643333435,
      0.19153514504432678,
      -0.08778070658445358,
      -0.12142694741487503,
      0.05185890570282936,
      -0.4990413188934326,
      -0.06325627863407135,
      -0.6160032153129578,
      -0.2017110139131546,
      -0.0023111237678676844,
      0.15938740968704224,
      -1.1339884996414185,
      -0.016813009977340698,
      -0.2584323287010193,
      -0.6184512972831726,
      -0.3058187663555145,
      0.05255792289972305,
      -0.0867953673005104,
      -0.6788650155067444,
      0.14399632811546326,
      -0.35922741889953613,
      0.07773195952177048,
      -0.04613301157951355,
      -0.6332285404205322,
      0.08319602161645889,
      -0.48157134652137756,
      -0.00028334249509498477
    ],
    [
      0.08883563429117203,
      -0.4586808383464813,
      -0.19227483868598938,
      0.10060080140829086,
      -0.37114474177360535,
      -0.3009384274482727,
      0.1609409898519516,
      -0.2486681193113327,
      -0.15212446451187134,
      0.012742538936436176,
      -0.4545486867427826,
      -0.22733409702777863,
      -0.41289371252059937,
      -0.45918652415275574,
      -0.012915723957121372,
      0.16066808998584747,
      -3.2697982788085938,
      -0.15983034670352936,
      -0.44087088108062744,
      -2.0650649070739746,
      -0.302300363779068,
      -0.012828926555812359,
      -0.21419480443000793,
      -0.28033706545829773,
      0.11189600825309753,
      -1.2424026727676392,
      0.029203619807958603,
      -0.1651086062192917,
      -0.22033530473709106,
      0.028791291639208794,
      -0.3429676592350006,
      -0.008944587782025337
    ],
    [
      0.06273691356182098,
      -0.7752896547317505,
      0.09494800120592117,
      0.14310313761234283,
      -0.38984015583992004,
      -0.15794344246387482,
      0.2647937536239624,
      -0.17375034093856812,
      -0.1999378651380539,
      0.055888522416353226,
      -0.3929789066314697,
      -0.1037762239575386,
      -0.26149293780326843,
      -0.23022399842739105,
      -0.004118643701076508,
      0.18646487593650818,
      -1.397733449935913,
      -0.03099370002746582,
      -0.21798191964626312,
      -0.63710618019104,
      -0.17306014895439148,
      0.06806032359600067,
      -0.1275302618741989,
      -0.35158848762512207,
      0.14602474868297577,
      -0.33407965302467346,
      0.06633676588535309,
      -0.004521593451499939,
      -0.3558567464351654,
      0.040098778903484344,
      -0.5879241824150085,
      -0.013646961189806461
    ],
    [
      0.05687800422310829,
      -0.8341977000236511,
      -0.03241720795631409,
      0.15742655098438263,
      -0.42996999621391296,
      -0.2371526062488556,
      0.12963274121284485,
      -0.22589649260044098,
      -0.14069318771362305,
      0.02159891277551651,
      -0.3135719895362854,
      -0.18912377953529358,
      -0.3443436622619629,
      -0.3134251534938812,
      -0.031873732805252075,
      0.16671982407569885,
      -4.203001499176025,
      -0.15420988202095032,
      -0.32751429080963135,
      -1.2228987216949463,
      -0.17399555444717407,
      -0.007021286059170961,
      -0.18157193064689636,
      -0.41561242938041687,
      0.14862218499183655,
      -0.652382493019104,
      0.04656520485877991,
      0.08300574123859406,
      -0.22780656814575195,
      0.01618850789964199,
      -0.5112468004226685,
      -0.02053554356098175
    ],
    [
      -0.6329572200775146,
      0.03701798990368843,
      -0.05175884813070297,
      -0.31464189291000366,
      0.07764449715614319,
      0.00200661295093596,
      -0.5547196269035339,
      -0.030259590595960617,
      0.15061922371387482,
      -1.869705080986023,
      0.07065149396657944,
      -0.020992550998926163,
      0.06730521470308304,
      -0.042590510100126266,
      -3.424335479736328,
      -0.5773268342018127,
      -0.0565875880420208,
      -0.00518384575843811,
      -0.009130447171628475,
      -0.05113639682531357,
      0.052086979150772095,
      -0.9138320684432983,
      0.001357944798655808,
      0.08277493715286255,
      -0.06275644153356552,
      -0.036980949342250824,
      -1.4182077646255493,
      -0.13544440269470215,
      -0.033646535128355026,
      -0.976225733757019,
      0.054225239902734756,
      -2.5373549461364746
    ],
    [
      -0.003175626741722226,
      -0.11792131513357162,
      -0.2333795726299286,
      0.15834099054336548,
      -0.3183576166629791,
      -0.35603824257850647,
      0.09367718547582626,
      -0.310831755399704,
      -0.19055484235286713,
      0.013078848831355572,
      -0.1838448941707611,
      -0.26411762833595276,
      -0.10515226423740387,
      -1.0125864744186401,
      -0.039856910705566406,
      0.1305796056985855,
      -1.94990074634552,
      0.05974717438220978,
      -0.7602081894874573,
      -3.9924988746643066,
      -0.1302335560321808,
      0.02597769908607006,
      -0.25722450017929077,
      -0.273142009973526,
      0.11237139254808426,
      -4.498525619506836,
      0.034990258514881134,
      -0.01713418960571289,
      -0.37494829297065735,
      -0.002622458850964904,
      -0.19034412503242493,
      -0.031924355775117874
    ],
    [
      -1.6034932136535645,
      0.10056359320878983,
      0.039818987250328064,
      -0.14236578345298767,
      0.12928250432014465,
      0.05034907907247543,
      -0.3676321804523468,
      0.017970237880945206,
      0.24054518342018127,
      -0.4828644096851349,
      0.06861362606287003,
      0.0528448112308979,
      0.12610560655593872,
      0.014695277437567711,
      -0.47847622632980347,
      -0.5175157189369202,
      0.02376459538936615,
      -0.047671735286712646,
      -0.0026462660171091557,
      0.006855091080069542,
      0.19041022658348083,
      -0.24069976806640625,
      0.000962158024776727,
      0.20035073161125183,
      -0.36691343784332275,
      0.01921374350786209,
      -4.2779035568237305,
      -0.005508631467819214,
      0.016874393448233604,
      -0.30651554465293884,
      0.18555110692977905,
      -2.7963123321533203
    ],
    [
      -0.0466451421380043,
      -0.2733539938926697,
      -0.01097862794995308,
      0.016166282817721367,
      -0.1931866556406021,
      -1.1905800104141235,
      0.02405518665909767,
      -1.3231803178787231,
      -0.11084136366844177,
      -0.0026314526330679655,
      -0.28633126616477966,
      -1.076282024383545,
      -0.1669514924287796,
      -3.001631021499634,
      -0.01825728453695774,
      -0.016323676332831383,
      -0.6017006635665894,
      0.08179666101932526,
      -4.132767200469971,
      -1.9592324495315552,
      -0.034846290946006775,
      -0.013786286115646362,
      -1.3558703660964966,
      -0.2108638882637024,
      0.008550533093512058,
      -2.2171223163604736,
      -0.02211499772965908,
      0.051766589283943176,
      -0.049408189952373505,
      0.0021179020404815674,
      -0.08526165783405304,
      -0.017367856577038765
    ]
  ],
  "fc2.bias": [
    0.5428772568702698,
    0.3867259919643402,
    0.3855611979961395,
    0.4515072703361511,
    0.4187086820602417,
    -0.14553289115428925,
    -0.1658719927072525,
    0.43520230054855347,
    0.3934606909751892,
    0.4228684902191162,
    0.5303694009780884,
    0.296856164932251,
    0.2744733989238739,
    0.3804546296596527,
    0.4588390290737152,
    0.41133713722229004,
    -0.5424073934555054,
    0.3437654376029968,
    -0.5053456425666809,
    0.4532340168952942,
    0.4007112979888916,
    0.3712981343269348,
    0.43243569135665894,
    0.41905346512794495,
    0.348006010055542,
    0.440701425075531,
    0.38571688532829285,
    0.4389563500881195,
    0.4669605493545532,
    0.5126654505729675,
    0.4160630404949188,
    0.42810097336769104
  ],
  "fc3.weight": [
    [
      -0.1657760888338089,
      -0.09043695032596588,
      0.11890857666730881,
      -0.09012166410684586,
      0.12071865797042847,
      -0.12330803275108337,
      0.07163999229669571,
      0.23490606248378754,
      0.15940925478935242,
      0.41704946756362915,
      -0.11611871421337128,
      0.10893714427947998,
      0.12053845822811127,
      -0.08637264370918274,
      0.1792403906583786,
      -0.13138529658317566,
      -0.5269178748130798,
      -0.0870603621006012,
      -0.4788413643836975,
      -0.14438259601593018,
      0.1424807757139206,
      0.10787783563137054,
      0.12318989634513855,
      -0.09805019944906235,
      -0.09526198357343674,
      -0.11237213015556335,
      -0.09485966712236404,
      -0.09750743955373764,
      0.27666476368904114,
      -0.1371627002954483,
      0.14951767027378082,
      -0.29002729058265686
    ]
  ],
  "fc3.bias": [
    0.12670831382274628
  ]
}