{
  "fc1.weight": [
    [
      0.5134661793708801
    ],
    [
      1.0781434774398804
    ],
    [
      0.5803784132003784
    ],
    [
      0.4732680916786194
    ],
    [
      -0.33537253737449646
    ],
    [
      0.20472507178783417
    ],
    [
      0.2432902753353119
    ],
    [
      -0.3837009370326996
    ],
    [
      0.11983509361743927
    ],
    [
      -0.4422019422054291
    ],
    [
      -0.24368667602539062
    ],
    [
      0.6804553270339966
    ],
    [
      -0.389171838760376
    ],
    [
      -0.8148245215415955
    ],
    [
      0.49635717272758484
    ],
    [
      -0.614177942276001
    ],
    [
      -1.000074028968811
    ],
    [
      -0.5622950196266174
    ],
    [
      -0.3819315731525421
    ],
    [
      -0.40253856778144836
    ],
    [
      -0.2908496856689453
    ],
    [
      -0.5565415024757385
    ],
    [
      -0.6522148847579956
    ],
    [
      0.2593437433242798
    ],
    [
      0.054676055908203125
    ],
    [
      0.20351684093475342
    ],
    [
      0.15975011885166168
    ],
    [
      0.13692791759967804
    ],
    [
      -0.24116602540016174
    ],
    [
      0.21008431911468506
    ],
    [
      0.32192927598953247
    ],
    [
      0.8210591673851013
    ]
  ],
  "fc1.bias": [
    -0.5495694875717163,
    0.4618365466594696,
    -0.572918713092804,
    -0.5659838914871216,
    -0.5848961472511292,
    0.15348835289478302,
    0.028658369556069374,
    0.080774687230587,
    0.12686659395694733,
    0.468721479177475,
    -0.9879204034805298,
    -0.7919040322303772,
    0.12994484603405,
    0.6092420220375061,
    -0.3473503589630127,
    -0.4262615442276001,
    0.48789146542549133,
    -0.20599500834941864,
    0.41996580362319946,
    -0.12269537150859833,
    0.17304223775863647,
    0.513215184211731,
    -0.5578593015670776,
    0.004216257948428392,
    -0.31536078453063965,
    0.05312054231762886,
    0.1271384358406067,
    0.16245779395103455,
    0.29758915305137634,
    -0.42661821842193604,
    -0.3376358151435852,
    -1.019582986831665
  ],
  "fc2.weight": [
    [
      -0.3239901065826416,
      -0.16403734683990479,
      -0.8190736770629883,
      -0.4440610408782959,
      -0.08463612198829651,
      -0.2185065895318985,
      -0.8478836417198181,
      0.09016011655330658,
      -0.29364386200904846,
      0.0242831539362669,
      0.14889945089817047,
      -0.2448476403951645,
      0.08782690018415451,
      -0.021091774106025696,
      -1.8724679946899414,
      0.20710939168930054,
      -0.011120515875518322,
      0.1763128638267517,
      0.0071756416000425816,
      0.21361143887043,
      0.07812546193599701,
      -0.0018971071112900972,
      0.1538199931383133,
      -1.7010658979415894,
      0.1383930891752243,
      -0.5930163264274597,
      -0.23691344261169434,
      -0.20967073738574982,
      -0.0016857041046023369,
      -0.11218397319316864,
      -0.28193503618240356,
      -0.30776548385620117
    ],
    [
      -0.04914243146777153,
      -1.273758053779602,
      -0.12771262228488922,
      -0.142149418592453,
      0.021236073225736618,
      -1.2060084342956543,
      -3.7150309085845947,
      -0.017267685383558273,
      -0.9763193726539612,
      0.015338173136115074,
      -0.12078500539064407,
      -0.06081419438123703,
      0.0057372478768229485,
      -0.027743259444832802,
      -0.34776127338409424,
      0.06537710130214691,
      -0.01911751553416252,
      0.026447109878063202,
      0.007048714905977249,
      0.04014372453093529,
      -0.011146741919219494,
      0.011176035739481449,
      0.107390396296978,
      -2.4594669342041016,
      -0.042201027274131775,
      -4.788796901702881,
      -0.9285809397697449,
      -0.6452299356460571,
      0.006384005770087242,
      0.16612397134304047,
      -0.1408352255821228,
      -0.14213427901268005
    ],
    [
      -0.1667637676000595,
      -0.30003756284713745,
      -0.2488252818584442,
      -0.2198081910610199,
      -0.08353392779827118,
      -0.4997817873954773,
      -4.833860874176025,
      0.06477303802967072,
      -0.45264145731925964,
      0.0240543931722641,
      -0.11750568449497223,
      -0.07709453254938126,
      0.04180750250816345,
      -0.018747102469205856,
      -0.5833773016929626,
      0.12762625515460968,
      -0.02598942443728447,
      0.08427787572145462,
      0.023071786388754845,
      0.11810795217752457,
      0.04663412645459175,
      0.021417440846562386,
      0.13253328204154968,
      -4.515786170959473,
      -0.16595663130283356,
      -2.3271877765655518,
      -0.4814969599246979,
      -0.3178969919681549,
      0.03530306741595268,
      0.08900399506092072,
      -0.12616419792175293,
      -0.007990765385329723
    ],
    [
      0.18631096184253693,
      -2.3498048782348633,
      0.07387331873178482,
      0.11010700464248657,
      0.006895805709064007,
      -0.10203693807125092,
      -0.06366748362779617,
      -0.08993153274059296,
      -0.13414758443832397,
      -0.06654475629329681,
      0.11249066889286041,
      0.09572241455316544,
      -0.10521860420703888,
      -0.03088386170566082,
      0.046713728457689285,
      -1.660279393196106,
      -0.024584686383605003,
      -2.1845881938934326,
      -0.06303185969591141,
      -2.321636438369751,
      -0.11292461305856705,
      -0.0597287118434906,
      -0.7747211456298828,
      -0.0221279114484787,
      -0.16225914657115936,
      -0.029201384633779526,
      -0.13064639270305634,
      -0.12273397296667099,
      -0.09740103781223297,
      0.17262403666973114,
      0.1994663029909134,
      0.18656609952449799
    ],
    [
      -0.323019802570343,
      -0.12771524488925934,
      -0.2875809669494629,
      -0.12212295085191727,
      -0.08640315383672714,
      -0.35234418511390686,
      -1.8012559413909912,
      0.07324663549661636,
      -0.38388878107070923,
      0.034128524363040924,
      -0.007200896739959717,
      0.02372526004910469,
      0.039320677518844604,
      -0.013595222495496273,
      -0.8927611708641052,
      0.11080672591924667,
      -0.008953822776675224,
      0.09921617805957794,
      0.04490681365132332,
      0.20505887269973755,
      0.09026694297790527,
      0.020584313198924065,
      0.1951429396867752,
      -4.378136157989502,
      0.019035175442695618,
      -0.9863663911819458,
      -0.3453139364719391,
      -0.26806750893592834,
      0.05525095760822296,
      0.16582007706165314,
      -0.29878121614456177,
      -0.13741250336170197
    ],
    [
      0.057284191250801086,
      -0.019900772720575333,
      0.1914583295583725,
      0.28201714158058167,
      -0.07479707896709442,
      0.0615689717233181,
      0.03696528822183609,
      -4.045459270477295,
      0.05127086490392685,
      -0.16886582970619202,
      0.02751782536506653,
      0.09707502275705338,
      -4.052870750427246,
      -0.140242800116539,
      0.1816137731075287,
      -0.055460888892412186,
      -0.3867439031600952,
      -0.49864479899406433,
      -0.11967527866363525,
      -0.742378830909729,
      -0.6111512184143066,
      -0.19009524583816528,
      -0.02427581138908863,
      0.03216629847884178,
      0.1392040103673935,
      0.030574698001146317,
      0.09031510353088379,
      0.061804864555597305,
      -0.21962498128414154,
      0.10913671553134918,
      0.29503530263900757,
      0.1259945034980774
    ],
    [
      -0.13901306688785553,
      0.4460400342941284,
      -0.11172597110271454,
      -0.16194447875022888,
      -0.022685717791318893,
      -0.04649440199136734,
      -0.04534466564655304,
      -0.3131662905216217,
      -0.04180938005447388,
      0.2557583749294281,
      -0.10081373900175095,
      -0.13172122836112976,
      -0.27714821696281433,
      -0.00725632905960083,
      -0.10066727548837662,
      -0.7302790284156799,
      -0.0446818470954895,
      -0.6453664302825928,
      0.2450319081544876,
      -0.779098629951477,
      0.01201630849391222,
      0.12106858938932419,
      -0.8976240754127502,
      -0.06587807089090347,
      -0.0443258136510849,
      -0.045423392206430435,
      -0.04644918441772461,
      -0.04149904474616051,
      0.3869186043739319,
      -0.10157908499240875,
      -0.19318503141403198,
      -0.07431232929229736
    ],
    [
      0.1674972027540207,
      -0.013218461535871029,
      0.21648646891117096,
      0.28566819429397583,
      0.11527553200721741,
      0.03931693360209465,
      0.05299019441008568,
      -4.018674373626709,
      0.058475323021411896,
      -0.20570023357868195,
      -0.05009211599826813,
      0.1420949250459671,
      -5.189465045928955,
      -0.11488962918519974,
      0.08782019466161728,
      -0.04771533980965614,
      -0.40778908133506775,
      -0.5521780848503113,
      -0.17911787331104279,
      -0.6916348934173584,
      -0.656328022480011,
      -0.20556142926216125,
      -0.08505941182374954,
      0.05667821317911148,
      0.16404549777507782,
      0.056195423007011414,
      0.04799935594201088,
      0.022443849593400955,
      -0.2344425767660141,
      0.1313719004392624,
      0.24414198100566864,
      0.1205909475684166
    ],
    [
      0.18076971173286438,
      0.009488004259765148,
      0.17373426258563995,
      0.22383996844291687,
      0.09010791778564453,
      0.037064582109451294,
      0.13589534163475037,
      -1.5323668718338013,
      0.01726686954498291,
      -0.08743168413639069,
      -0.06375008076429367,
      0.10122931748628616,
      -0.6681562066078186,
      -0.05032619461417198,
      0.18403436243534088,
      -0.16968876123428345,
      -0.11716369539499283,
      -0.6782259941101074,
      -0.07282084226608276,
      -1.4556204080581665,
      -0.22948330640792847,
      -0.09661810100078583,
      -0.17354266345500946,
      0.13536860048770905,
      0.17014016211032867,
      0.08145209401845932,
      0.026774507015943527,
      0.07926160842180252,
      -0.13322772085666656,
      -0.13722440600395203,
      0.20078706741333008,
      0.20769311487674713
    ],
    [
      -0.27676957845687866,
      -0.13813959062099457,
      -0.5297611951828003,
      -0.3221515715122223,
      0.006678432691842318,
      -0.24566897749900818,
      -1.0531535148620605,
      0.11596108973026276,
      -0.22007261216640472,
      0.039862293750047684,
      0.17296485602855682,
      -0.2943131923675537,
      0.09838434308767319,
      -0.002325534587725997,
      -1.4460277557373047,
      0.10134342312812805,
      0.005710647441446781,
      0.13815176486968994,
      0.022600699216127396,
      0.2408076971769333,
      0.06553361564874649,
      0.021334674209356308,
      0.14773407578468323,
      -2.2360527515411377,
      -0.04707171022891998,
      -0.6569756269454956,
      -0.18343566358089447,
      -0.1466946303844452,
      0.0670681968331337,
      0.044629111886024475,
      -0.24954445660114288,
      -0.24789893627166748
    ],
    [
      -0.7328876852989197,
      -0.2762880325317383,
      -1.3095346689224243,
      -0.5040095448493958,
      -0.016437193378806114,
      -0.20694684982299805,
      -0.5193142890930176,
      0.10224239528179169,
      -0.19579669833183289,
      0.013612307608127594,
      0.05467449128627777,
      -0.2662373483181,
      0.10378042608499527,
      -0.019894257187843323,
      -2.3684914112091064,
      0.19082409143447876,
      -0.013388982973992825,
      0.12472889572381973,
      -0.009598084725439548,
      0.2184721976518631,
      0.10275336354970932,
      -0.005031098611652851,
      0.2121582329273224,
      -0.8403007984161377,
      -0.13962005078792572,
      -0.3050948977470398,
      -0.2169429063796997,
      -0.20037686824798584,
      0.010486343875527382,
      0.0037900060415267944,
      -0.5985856056213379,
      -0.36577847599983215
    ],
    [
      0.15801528096199036,
      -0.03765638545155525,
      0.029785022139549255,
      0.2778331935405731,
      0.12414205819368362,
      -0.0014123271685093641,
      0.012675220146775246,
      -1.0733453035354614,
      0.060868632048368454,
      -0.3170069754123688,
      0.16260455548763275,
      0.1285284161567688,
      -2.581571102142334,
      -0.6356318593025208,
      0.015734544023871422,
      -0.07121314853429794,
      -3.958275318145752,
      -0.14932973682880402,
      -0.23492388427257538,
      -0.09387154132127762,
      -4.305185317993164,
      -0.44408032298088074,
      -0.07961024343967438,
      0.05157450586557388,
      -0.06180485337972641,
      0.03640039265155792,
      0.049881886690855026,
      0.04358692094683647,
      -0.2709830701351166,
      -0.12462417781352997,
      0.2035256177186966,
      0.04025176912546158
    ],
    [
      0.2727009356021881,
      -0.011091100051999092,
      0.23114770650863647,
      0.13528622686862946,
      0.05604184418916702,
      0.05945449694991112,
      0.047431137412786484,
      -4.82634973526001,
      0.04263375699520111,
      -0.1494743376970291,
      -0.058961398899555206,
      0.18574269115924835,
      -1.6879817247390747,
      -0.10785728693008423,
      0.13341929018497467,
      -0.29601722955703735,
      -0.18109016120433807,
      -0.5459073781967163,
      -0.13741981983184814,
      -0.7751674652099609,
      -0.38381102681159973,
      -0.11873051524162292,
      0.015734104439616203,
      0.07784327119588852,
      -0.14262375235557556,
      0.04642065241932869,
      0.018278129398822784,
      0.009036759845912457,
      -0.22640015184879303,
      6.42240047454834e-06,
      0.22418884932994843,
      0.05313780903816223
    ],
    [
      0.20632204413414001,
      0.0013154072221368551,
      0.22940054535865784,
      0.20390203595161438,
      0.09741950780153275,
      0.04255841299891472,
      0.15736131370067596,
      -1.527442216873169,
      0.04014499858021736,
      -0.09581315517425537,
      -0.028259441256523132,
      0.22674095630645752,
      -0.6559767127037048,
      -0.08580988645553589,
      0.1884140521287918,
      -0.207941472530365,
      -0.10761873424053192,
      -0.9073508977890015,
      -0.0935380682349205,
      -1.304823637008667,
      -0.2534058392047882,
      -0.11065255850553513,
      -0.2199689745903015,
      0.12600451707839966,
      -0.10253597050905228,
      0.08487535268068314,
      0.09252244234085083,
      0.022284163162112236,
      -0.13567698001861572,
      0.07340966165065765,
      0.1383780539035797,
      0.1018969938158989
    ],
    [
      0.17205798625946045,
      -0.03670067712664604,
      0.09351874887943268,
      0.1557721048593521,
      0.02687547169625759,
      0.0145206768065691,
      -0.00041899929055944085,
      -1.326908826828003,
      0.02878156676888466,
      -0.24538536369800568,
      0.05351589620113373,
      0.13511212170124054,
      -2.850165605545044,
      -0.3632413148880005,
      0.017791323363780975,
      0.0006631597061641514,
      -3.2368273735046387,
      -0.12620581686496735,
      -0.2273387610912323,
      -0.35827115178108215,
      -2.6100921630859375,
      -0.28128916025161743,
      -0.07405605167150497,
      0.016290105879306793,
      -0.07483246922492981,
      0.016885213553905487,
      0.04864536225795746,
      0.024932341650128365,
      -0.28960782289505005,
      0.001265019178390503,
      0.07109475880861282,
      0.02199183590710163
    ],
    [
      -0.17243099212646484,
      -0.12892208993434906,
      -0.3509899079799652,
      -0.1946362406015396,
      0.0034062073100358248,
      -0.2967444062232971,
      -1.3369390964508057,
      0.0942564457654953,
      -0.3585250675678253,
      0.04366511106491089,
      -0.06927114725112915,
      -0.1625026911497116,
      0.09175673872232437,
      -0.019394563511013985,
      -1.0497630834579468,
      0.10536964982748032,
      -0.009848425164818764,
      0.1456277221441269,
      0.04547889158129692,
      0.1177847757935524,
      0.08741612732410431,
      0.0394587516784668,
      0.12852123379707336,
      -2.994520664215088,
      0.040820300579071045,
      -0.7775014042854309,
      -0.3180702030658722,
      -0.21399255096912384,
      0.049249317497015,
      0.08381162583827972,
      -0.20045268535614014,
      -0.11154736578464508
    ],
    [
      -0.1484183520078659,
      -0.15202364325523376,
      -0.45953306555747986,
      -0.2696947157382965,
      0.05980876833200455,
      -0.31832098960876465,
      -1.2200685739517212,
      0.08738299459218979,
      -0.33967170119285583,
      0.031748320907354355,
      -0.11261439323425293,
      -0.1781688779592514,
      0.03326614573597908,
      -0.009768277406692505,
      -1.2182327508926392,
      0.11794473975896835,
      -0.009841416031122208,
      0.1297374814748764,
      -0.004134691786020994,
      0.19636251032352448,
      0.08480077981948853,
      0.02675740234553814,
      0.10460172593593597,
      -2.6054906845092773,
      0.09298981726169586,
      -0.7403157353401184,
      -0.2782526910305023,
      -0.2919773757457733,
      0.05366680026054382,
      -0.019162341952323914,
      -0.258415162563324,
      -0.162156343460083
    ],
    [
      0.2479391247034073,
      0.011990349739789963,
      0.3142213225364685,
      0.19995565712451935,
      -0.17859570682048798,
      0.07298753410577774,
      0.1601191908121109,
      -1.3261553049087524,
      0.08992618322372437,
      -0.08867958188056946,
      -0.01648525893688202,
      0.07143393158912659,
      -0.5565775036811829,
      -0.03477257862687111,
      0.16100549697875977,
      -0.21305860579013824,
      -0.062083497643470764,
      -0.704183042049408,
      -0.09513179957866669,
      -1.3093754053115845,
      -0.19698281586170197,
      -0.062073830515146255,
      -0.16047455370426178,
      0.1951870620250702,
      0.1020345538854599,
      0.1803763061761856,
      0.06776795536279678,
      0.05751004442572594,
      -0.08768074959516525,
      -0.06447719782590866,
      0.14222857356071472,
      0.07997898757457733
    ],
    [
      0.042153771966695786,
      -0.03884223848581314,
      -0.020524753257632256,
      0.07332128286361694,
      0.09797415882349014,
      0.03122672624886036,
      -0.02500828728079796,
      -0.585640013217926,
      -0.007868538610637188,
      -0.5378713607788086,
      -0.013374373316764832,
      0.14946122467517853,
      -1.0112619400024414,
      -3.0921173095703125,
      -0.07783064991235733,
      -0.09121575206518173,
      -1.684169888496399,
      -0.05529913678765297,
      -0.4364071190357208,
      -0.08894576877355576,
      -2.323166608810425,
      -0.9597494602203369,
      -0.00656490121036768,
      -0.0061841364949941635,
      -0.05080293118953705,
      -0.028024058789014816,
      0.014976708218455315,
      0.0040883831679821014,
      -0.7444320321083069,
      -0.16608251631259918,
      0.07781520485877991,
      0.1215776652097702
    ],
    [
      0.02935958467423916,
      0.004986390471458435,
      0.2302512675523758,
      0.15338394045829773,
      -0.09324004501104355,
      0.052210427820682526,
      0.07261314243078232,
      -2.4497053623199463,
      0.051985155791044235,
      -0.09532556682825089,
      0.0583578497171402,
      0.0835353210568428,
      -0.8745361566543579,
      -0.07022169977426529,
      0.21689371764659882,
      -0.30650094151496887,
      -0.12288202345371246,
      -0.6939293742179871,
      -0.11137374490499496,
      -1.1182883977890015,
      -0.25903695821762085,
      -0.10823376476764679,
      -0.001747648580931127,
      0.09519314765930176,
      -0.14140254259109497,
      0.11948446929454803,
      0.06324753910303116,
      0.05237260088324547,
      -0.12093204259872437,
      -0.009236782789230347,
      0.3181246221065521,
      0.16587504744529724
    ],
    [
      -0.09858660399913788,
      -3.2269084453582764,
      -0.35347750782966614,
      -0.22032810747623444,
      -0.0927441343665123,
      -2.6368885040283203,
      -1.8140331506729126,
      -0.029442209750413895,
      -1.7400397062301636,
      -0.008678436279296875,
      0.12509654462337494,
      -0.08443465083837509,
      -0.03317466750741005,
      -0.015375575982034206,
      -0.4601895213127136,
      0.03798176348209381,
      -0.01960594952106476,
      -0.03080246038734913,
      0.019196247681975365,
      -0.020607756450772285,
      -0.02629053220152855,
      -0.0015439281705766916,
      0.06479226052761078,
      -1.5941540002822876,
      0.020629718899726868,
      -2.9698729515075684,
      -1.5570029020309448,
      -1.256467342376709,
      0.0013269426999613643,
      -0.0026111453771591187,
      -0.13188739120960236,
      -0.1983054280281067
    ],
    [
      0.1305592656135559,
      -0.015034166164696217,
      0.10587140917778015,
      0.09827457368373871,
      -0.011883254162967205,
      0.025329407304525375,
      0.03391241654753685,
      -1.868139624595642,
      0.05752001330256462,
      -0.21670079231262207,
      0.03244255483150482,
      0.17612521350383759,
      -3.9125537872314453,
      -0.2348114550113678,
      0.07885473966598511,
      -0.15100856125354767,
      -1.3794103860855103,
      -0.21316340565681458,
      -0.21644741296768188,
      -0.3020882308483124,
      -1.4387625455856323,
      -0.2828274965286255,
      -0.009921437129378319,
      0.016265807673335075,
      -0.06113611161708832,
      0.021735047921538353,
      -0.040803633630275726,
      0.009948884136974812,
      -0.2770415246486664,
      0.015318691730499268,
      0.24324096739292145,
      0.20792263746261597
    ],
    [
      -0.5136857032775879,
      0.07341387122869492,
      -0.5417026877403259,
      -0.6244135499000549,
      -0.0981617420911789,
      0.3929453492164612,
      -0.05668327957391739,
      -0.07139583677053452,
      0.3754570186138153,
      -0.02517669089138508,
      -0.14082086086273193,
      -0.43667566776275635,
      -0.08322370797395706,
      0.601213276386261,
      -0.30434563755989075,
      -0.16425715386867523,
      -0.016024149954319,
      -0.12767334282398224,
      -0.03268373757600784,
      -0.16527840495109558,
      -0.06089076027274132,
      -0.021884335204958916,
      -0.17738649249076843,
      -0.2464819699525833,
      0.046211257576942444,
      0.11327626556158066,
      0.37218648195266724,
      0.27566438913345337,
      -0.05604128539562225,
      0.12918557226657867,
      -0.7986392974853516,
      -0.2656289041042328
    ],
    [
      -0.03607364371418953,
      -0.1333349198102951,
      -0.4012831449508667,
      -0.055923692882061005,
      -0.1296965777873993,
      -0.37738022208213806,
      -2.005960702896118,
      0.11479111760854721,
      -0.35605210065841675,
      0.031669966876506805,
      0.043485626578330994,
      -0.23328056931495667,
      0.051854152232408524,
      -0.014208700507879257,
      -0.8297509551048279,
      0.15220844745635986,
      -0.01917579397559166,
      0.10164318978786469,
      0.03347764536738396,
      0.1283128410577774,
      0.039772044867277145,
      0.03335480019450188,
      0.0991721823811531,
      -5.079167366027832,
      -0.0425175279378891,
      -1.0860624313354492,
      -0.39228543639183044,
      -0.2698732912540436,
      0.02008659951388836,
      0.1108570247888565,
      -0.1441361904144287,
      0.10437575727701187
    ],
    [
      0.015065622515976429,
      -0.04132532328367233,
      -0.1320914924144745,
      0.12754052877426147,
      -0.01607700064778328,
      -0.01357974298298359,
      -0.030622489750385284,
      -0.40655872225761414,
      0.006989270448684692,
      -1.5941870212554932,
      0.1668441742658615,
      0.07453299313783646,
      -0.6671530604362488,
      -2.2369468212127686,
      -0.11307236552238464,
      -0.17016440629959106,
      -0.9809377193450928,
      -0.4155994653701782,
      -1.133159875869751,
      -0.34907108545303345,
      -1.4789965152740479,
      -2.9838333129882812,
      -0.27379152178764343,
      -0.02637995220720768,
      -0.09282360970973969,
      -0.028197569772601128,
      -0.004637727048248053,
      -0.009074116125702858,
      -1.4687960147857666,
      -0.1609850525856018,
      0.24309945106506348,
      0.06629849970340729
    ],
    [
      0.1764887273311615,
      0.020821092650294304,
      0.21573838591575623,
      0.040018338710069656,
      0.1401427835226059,
      0.045995935797691345,
      0.021810568869113922,
      -3.4413819313049316,
      0.07315617054700851,
      -0.08581560105085373,
      -0.03967204689979553,
      0.22462594509124756,
      -1.0935108661651611,
      -0.09220626205205917,
      0.14693234860897064,
      0.024938294664025307,
      -0.10673676431179047,
      -0.7328832745552063,
      -0.1300312578678131,
      -0.8503636121749878,
      -0.2838434875011444,
      -0.09552708268165588,
      -0.14370110630989075,
      0.10127094388008118,
      -0.1733095496892929,
      0.06492980569601059,
      0.07534606009721756,
      0.08240842819213867,
      -0.13531048595905304,
      0.12815074622631073,
      0.11515700072050095,
      0.09420906752347946
    ],
    [
      -0.23109325766563416,
      -0.5101311802864075,
      -0.5028817057609558,
      -0.2873523235321045,
      0.12087354809045792,
      -0.7653393745422363,
      -5.35630989074707,
      -0.0015638357726857066,
      -0.6948596835136414,
      0.005236238706856966,
      -0.03708431124687195,
      -0.2947261333465576,
      -0.013111352920532227,
      -0.012862996198236942,
      -0.8277454972267151,
      0.11731046438217163,
      -0.03291552886366844,
      0.06051298975944519,
      -0.003018665825948119,
      0.06977606564760208,
      0.01004256121814251,
      0.013690004125237465,
      0.13728441298007965,
      -3.6586599349975586,
      0.15674380958080292,
      -3.895385503768921,
      -0.6558308601379395,
      -0.5000244975090027,
      0.0164499431848526,
      0.11913169920444489,
      -0.31820836663246155,
      0.01520824059844017
    ],
    [
      -0.2788254916667938,
      -0.21356719732284546,
      -0.3943261206150055,
      -0.41805779933929443,
      0.045512519776821136,
      -0.4356324374675751,
      -3.285963296890259,
      0.08818504959344864,
      -0.4644920825958252,
      0.002830737503245473,
      -0.0330519825220108,
      -0.31698521971702576,
      0.06731687486171722,
      -0.010677298530936241,
      -0.9739857912063599,
      0.19661056995391846,
      -0.018033551052212715,
      0.12553593516349792,
      0.018807727843523026,
      0.11148081719875336,
      0.051151376217603683,
      0.01813923381268978,
      0.16080637276172638,
      -4.9247236251831055,
      0.07965262234210968,
      -1.6059685945510864,
      -0.4298664927482605,
      -0.2725214958190918,
      0.01289309374988079,
      -0.14317163825035095,
      -0.16284462809562683,
      0.005665149074047804
    ],
    [
      -0.8594726324081421,
      0.010738926939666271,
      -0.9379208087921143,
      -0.6592784523963928,
      -0.18308484554290771,
      0.39722901582717896,
      -0.30491358041763306,
      -0.07698661834001541,
      0.5393723845481873,
      -0.026294134557247162,
      -0.11922869086265564,
      -0.5261214375495911,
      -0.05874909088015556,
      -0.023332543671131134,
      -0.881748616695404,
      -0.1857243925333023,
      0.5051929354667664,
      -0.10128247737884521,
      -0.031437356024980545,
      -0.1754319816827774,
      -0.07184626907110214,
      -0.01884382590651512,
      -0.2120806723833084,
      -0.3899315595626831,
      -0.10308686643838882,
      -0.10283154249191284,
      0.4509490132331848,
      0.3842342495918274,
      -0.03299664333462715,
      0.07539065182209015,
      -0.8064684271812439,
      -0.31736013293266296
    ],
    [
      -0.08616973459720612,
      0.38439616560935974,
      -0.10058744996786118,
      -0.08815447241067886,
      0.03774721920490265,
      -0.046101391315460205,
      -0.08331575989723206,
      -0.44165128469467163,
      -0.08513671159744263,
      0.12096457928419113,
      0.15252439677715302,
      -0.0545031875371933,
      -0.2157847136259079,
      0.10236208885908127,
      -0.06513695418834686,
      -0.4192716181278229,
      -0.0264691561460495,
      -0.3542858064174652,
      0.11769841611385345,
      -0.26516804099082947,
      0.0021007147151976824,
      0.14471584558486938,
      -0.33748990297317505,
      -0.10255218297243118,
      0.0451030433177948,
      -0.0703042596578598,
      -0.08688272535800934,
      -0.05521072819828987,
      0.15221168100833893,
      0.10156278312206268,
      -0.20161491632461548,
      -0.014240617863833904
    ],
    [
      -0.3120035231113434,
      -0.14772988855838776,
      -0.41532039642333984,
      -0.21815936267375946,
      -0.15051151812076569,
      -0.21443475782871246,
      -0.8860292434692383,
      0.08065598458051682,
      -0.2130163460969925,
      0.040338899940252304,
      0.17226646840572357,
      -0.15223969519138336,
      0.1090395525097847,
      -0.00851589534431696,
      -1.064534306526184,
      0.14934803545475006,
      -0.01361485943198204,
      0.10597293078899384,
      0.025284502655267715,
      0.2171585112810135,
      0.10505935549736023,
      0.005085369572043419,
      0.0973641574382782,
      -1.8002551794052124,
      0.0019841641187667847,
      -0.5466075539588928,
      -0.20019151270389557,
      -0.14764775335788727,
      0.08375198394060135,
      0.01528756320476532,
      -0.26243478059768677,
      -0.24115510284900665
    ],
    [
      0.30346161127090454,
      0.009128487668931484,
      0.22188478708267212,
      0.1620941311120987,
      -0.19837325811386108,
      0.09337956458330154,
      0.24058736860752106,
      -1.412383794784546,
      0.16190007328987122,
      -0.06053127348423004,
      -0.11733071506023407,
      0.11352657526731491,
      -0.5563992857933044,
      -0.037023983895778656,
      0.2371421903371811,
      -0.19944900274276733,
      -0.09488062560558319,
      -0.6709339022636414,
      -0.07443928718566895,
      -1.031223177909851,
      -0.1972208172082901,
      -0.06291366368532181,
      -0.07897214591503143,
      0.19273412227630615,
      -0.07349152117967606,
      0.14879685640335083,
      0.12992843985557556,
      0.08245521038770676,
      -0.06370154768228531,
      -0.139180988073349,
      0.34268513321876526,
      0.07486539334058762
    ]
  ],
  "fc2.bias": [
    0.4448809027671814,
    0.5090833306312561,
    0.40036311745643616,
    0.42024192214012146,
    0.3773088753223419,
    0.3807397186756134,
    -0.7306867837905884,
    0.3773709237575531,
    0.34778261184692383,
    0.33519577980041504,
    0.4871007800102234,
    0.42985159158706665,
    0.4128122329711914,
    0.32695868611335754,
    0.3970201909542084,
    0.3832380771636963,
    0.39145755767822266,
    0.27570831775665283,
    0.4983118772506714,
    0.31946861743927,
    0.43740391731262207,
    0.451171875,
    -0.5882797241210938,
    0.36565449833869934,
    0.4425789415836334,
    0.29794812202453613,
    0.5077484250068665,
    0.433308482170105,
    -0.48512181639671326,
    -0.475591242313385,
    0.33833736181259155,
    0.23952606320381165
  ],
  "fc3.weight": [
    [
      -0.08405424654483795,
      -0.1667594313621521,
      -0.12128385901451111,
      0.30092698335647583,
      -0.10728936642408371,
      0.1466500163078308,
      0.9761204719543457,
      0.13594156503677368,
      0.122538723051548,
      -0.09581119567155838,
      -0.09372621029615402,
      0.17063628137111664,
      0.12344559282064438,
      0.11773422360420227,
      0.1815723031759262,
      -0.09551830589771271,
      -0.09824118763208389,
      0.1069173812866211,
      0.23482447862625122,
      0.12221784889698029,
      -0.2740517854690552,
      0.1487806886434555,
      -0.48562219738960266,
      -0.10141801834106445,
      0.3224712014198303,
      0.1292884200811386,
      -0.1292179375886917,
      -0.10384920239448547,
      -0.4609876275062561,
      0.5501617789268494,
      -0.08786072582006454,
      0.10285794734954834
    ]
  ],
  "fc3.bias": [
    -0.028561878949403763
  ]
}