{
  "fc1.weight": [
    [
      0.17868097126483917,
      0.6654758453369141
    ],
    [
      0.3836911916732788,
      0.045856814831495285
    ],
    [
      -0.48919475078582764,
      0.7599909901618958
    ],
    [
      -0.4822165369987488,
      0.7369670271873474
    ],
    [
      -0.46042191982269287,
      0.7430485486984253
    ],
    [
      0.12151753902435303,
      0.11178392171859741
    ],
    [
      0.1503995805978775,
      -0.0026164636947214603
    ],
    [
      0.3552604913711548,
      -0.0056792451068758965
    ],
    [
      0.43490660190582275,
      0.12945637106895447
    ],
    [
      0.2693818211555481,
      0.03321550041437149
    ],
    [
      0.44400057196617126,
      -0.0819934755563736
    ],
    [
      -0.44884562492370605,
      -0.08119232952594757
    ],
    [
      0.13894253969192505,
      0.7573534250259399
    ],
    [
      0.1428307145833969,
      0.0014016361674293876
    ],
    [
      0.2386963963508606,
      0.0036622285842895508
    ],
    [
      -0.26753178238868713,
      0.3004053235054016
    ],
    [
      0.20632387697696686,
      -0.903768002986908
    ],
    [
      -0.4627006947994232,
      -0.6909765601158142
    ],
    [
      0.48811769485473633,
      0.036433298140764236
    ],
    [
      -0.5159642100334167,
      0.8290210962295532
    ],
    [
      0.09262660145759583,
      -0.6568371057510376
    ],
    [
      0.4998563230037689,
      0.14704707264900208
    ],
    [
      -0.29825127124786377,
      0.8025060892105103
    ],
    [
      -0.5257274508476257,
      -0.8231834769248962
    ],
    [
      -0.8607734441757202,
      -0.06185666099190712
    ],
    [
      0.3170337677001953,
      0.0345628559589386
    ],
    [
      0.5632250308990479,
      -0.011015490628778934
    ],
    [
      -0.41307738423347473,
      -0.7638185620307922
    ],
    [
      -0.48830360174179077,
      -0.026380566880106926
    ],
    [
      -0.3998918831348419,
      -0.582990288734436
    ],
    [
      0.48365920782089233,
      0.1572640836238861
    ],
    [
      0.0015922784805297852,
      0.2635239362716675
    ]
  ],
  "fc1.bias": [
    -0.6815706491470337,
    -0.33954674005508423,
    0.3469465374946594,
    0.18484169244766235,
    0.4407832622528076,
    -0.6137236952781677,
    0.08640632033348083,
    -0.30524107813835144,
    -0.48211604356765747,
    -0.03870728984475136,
    -0.3766988217830658,
    0.41625407338142395,
    -1.1391339302062988,
    0.08107788860797882,
    -0.5448362827301025,
    -0.6294582486152649,
    -1.0932310819625854,
    0.25924962759017944,
    0.08923465758562088,
    -0.04812045767903328,
    -0.8842841982841492,
    -0.5438331961631775,
    -0.6595246195793152,
    -0.20452573895454407,
    -0.007320408243685961,
    -0.17218072712421417,
    -0.6599287986755371,
    0.31046342849731445,
    0.2603059709072113,
    0.04962444305419922,
    -0.44696345925331116,
    -0.7009778022766113
  ],
  "fc2.weight": [
    [
      0.025543488562107086,
      -0.1967073380947113,
      -0.01974518783390522,
      -0.00472814729437232,
      0.0009440185967832804,
      0.07327695190906525,
      -0.10549966245889664,
      -0.1560964733362198,
      -0.1797434389591217,
      -0.13853248953819275,
      -0.04316849634051323,
      0.016649210825562477,
      1.7443746328353882,
      -0.11107918620109558,
      -0.07028155773878098,
      0.01627545803785324,
      -0.5623581409454346,
      -0.03657956421375275,
      -0.09500954300165176,
      0.08266113698482513,
      2.5683512687683105,
      -0.19510439038276672,
      0.07938194274902344,
      0.05428793653845787,
      0.0960397720336914,
      -0.17394255101680756,
      -0.07328164577484131,
      -0.027733666822314262,
      0.11170817166566849,
      0.045411694794893265,
      -0.1544068604707718,
      0.11071576178073883
    ],
    [
      0.2683711349964142,
      0.06139543280005455,
      0.10583025217056274,
      0.12883813679218292,
      0.11430905759334564,
      -0.1376442015171051,
      -0.028145376592874527,
      0.10365660488605499,
      -0.009055158123373985,
      0.06665673851966858,
      0.06084449961781502,
      -0.030413290485739708,
      -0.20119944214820862,
      0.010244633071124554,
      -0.14787383377552032,
      -0.30510926246643066,
      0.02649616450071335,
      0.6065046191215515,
      0.013386022299528122,
      0.05655329301953316,
      -0.3932970464229584,
      0.004240105394273996,
      0.1433052122592926,
      -0.14128029346466064,
      -0.004431923385709524,
      0.025928284972906113,
      0.13914227485656738,
      -0.005557561758905649,
      -0.034196075052022934,
      -0.11363296210765839,
      0.00020760370534844697,
      0.10815046727657318
    ],
    [
      0.8930262923240662,
      -0.04176972806453705,
      -0.0064720893278717995,
      -0.010648674331605434,
      -0.002396303229033947,
      -0.0400846004486084,
      -0.19252359867095947,
      -0.10495702922344208,
      0.031729865819215775,
      -0.04579759016633034,
      -0.10743650794029236,
      0.17435838282108307,
      -0.32281213998794556,
      -0.2290913313627243,
      -0.16957546770572662,
      -0.4025696814060211,
      0.9835740923881531,
      -0.014354015700519085,
      -0.06862883269786835,
      0.006015073508024216,
      -0.7908571362495422,
      -0.008810020051896572,
      0.10348852723836899,
      0.03925522044301033,
      0.1345759928226471,
      -0.1057109385728836,
      -0.11264895647764206,
      -0.03317460045218468,
      0.19223588705062866,
      0.07097382098436356,
      -0.03349224478006363,
      -0.15345704555511475
    ],
    [
      -0.30244627594947815,
      0.08234750479459763,
      -0.04323611781001091,
      -0.06525050103664398,
      -0.006185214966535568,
      -0.05738786607980728,
      -0.028351787477731705,
      0.20955385267734528,
      0.025721663609147072,
      0.11407037079334259,
      0.20228663086891174,
      -0.12153002619743347,
      -0.5512236952781677,
      0.04328785091638565,
      -0.03894193470478058,
      -0.30668938159942627,
      -0.3778207004070282,
      -0.12607717514038086,
      0.1815125048160553,
      -0.09753323346376419,
      -1.2033241987228394,
      -0.05210104584693909,
      -0.49057844281196594,
      -0.6221511363983154,
      -0.8896970152854919,
      0.09032532572746277,
      0.11906497925519943,
      -0.059834565967321396,
      -0.2254888266324997,
      -0.29332321882247925,
      -0.0012908929493278265,
      0.144388809800148
    ],
    [
      0.4314951002597809,
      -0.1476837694644928,
      0.013054289855062962,
      0.01294378936290741,
      0.013663413934409618,
      0.007908239960670471,
      -0.14728209376335144,
      -0.28414207696914673,
      -0.08258438855409622,
      -0.18660476803779602,
      -0.21617910265922546,
      0.10599188506603241,
      0.5466698408126831,
      -0.13469558954238892,
      -0.009975627064704895,
      -0.5951489806175232,
      -0.14795483648777008,
      -0.004671081900596619,
      -0.12783797085285187,
      0.08244051784276962,
      2.095332384109497,
      0.02717415802180767,
      0.2894764244556427,
      0.07808078825473785,
      0.09623928368091583,
      -0.14483724534511566,
      -0.2663009762763977,
      8.583730959799141e-05,
      0.1521192491054535,
      0.14175237715244293,
      -0.0576641745865345,
      -0.051945969462394714
    ],
    [
      -0.4621362090110779,
      0.08402347564697266,
      -0.07674882560968399,
      -0.13761794567108154,
      9.210752614308149e-05,
      0.060350194573402405,
      0.08774696290493011,
      0.17023861408233643,
      0.1281781643629074,
      0.08373410254716873,
      0.06917314976453781,
      -0.05547139421105385,
      -0.876874566078186,
      0.004290862940251827,
      0.0021145641803741455,
      -0.41496795415878296,
      -0.4259651303291321,
      -0.09172765165567398,
      0.1604348123073578,
      -0.11511699110269547,
      -0.8455039262771606,
      0.11434582620859146,
      -0.7804608941078186,
      -0.19994249939918518,
      -0.15157021582126617,
      0.14512787759304047,
      0.13507254421710968,
      0.00013010732072871178,
      -0.13087455928325653,
      -0.16861379146575928,
      0.0867282897233963,
      -0.07002970576286316
    ],
    [
      -0.4673832058906555,
      0.09792173653841019,
      0.6842612028121948,
      -0.2311793863773346,
      -0.06890380382537842,
      -0.14672933518886566,
      -0.007983950898051262,
      0.15810611844062805,
      0.013475780375301838,
      0.01564181223511696,
      0.14806964993476868,
      -0.060361333191394806,
      0.45435672998428345,
      -0.006922286003828049,
      -0.16599500179290771,
      -0.17544984817504883,
      0.04168189316987991,
      0.03243415802717209,
      -0.017441289499402046,
      -0.27154451608657837,
      -0.5482040047645569,
      -0.0006977159646339715,
      -0.11359322816133499,
      0.4586045742034912,
      -0.1914486140012741,
      0.05583487078547478,
      0.15196913480758667,
      0.017337355762720108,
      -0.11365154385566711,
      -0.030204761773347855,
      0.011707857251167297,
      -0.059545569121837616
    ],
    [
      -0.3241932988166809,
      0.1559918075799942,
      -0.06841340661048889,
      -0.09825433045625687,
      -0.013731745071709156,
      0.05989108979701996,
      0.07976655662059784,
      0.19582442939281464,
      -0.04947623610496521,
      0.07310356199741364,
      0.2318015694618225,
      -0.2702518403530121,
      -0.6386556625366211,
      -0.006755264475941658,
      -0.14347104728221893,
      0.21337327361106873,
      -0.4266444146633148,
      -0.1457701027393341,
      0.13525329530239105,
      -0.09790780395269394,
      -1.3841675519943237,
      0.04402071237564087,
      -0.582556962966919,
      -1.0821446180343628,
      -3.3450660705566406,
      0.09151139855384827,
      0.19292248785495758,
      -0.08353924751281738,
      -0.4329446256160736,
      -0.45342016220092773,
      -0.025130605325102806,
      0.15921078622341156
    ],
    [
      -0.46286314725875854,
      0.14073482155799866,
      -0.06250959634780884,
      -0.10599161684513092,
      -0.027858365327119827,
      -0.17098301649093628,
      0.008322050794959068,
      0.11519943922758102,
      0.109055295586586,
      0.11642078310251236,
      0.07310409843921661,
      -0.05377711355686188,
      -0.8513741493225098,
      0.012509618885815144,
      0.08489619195461273,
      -0.5805172324180603,
      -0.3775574564933777,
      -0.06945821642875671,
      0.16510920226573944,
      -0.15540523827075958,
      -0.6280246376991272,
      0.12203159928321838,
      -1.1419599056243896,
      -0.19803431630134583,
      -0.10244502127170563,
      0.14020168781280518,
      0.05504368990659714,
      -0.031403686851263046,
      -0.12814868986606598,
      -0.14478090405464172,
      0.1928897500038147,
      -0.1105140745639801
    ],
    [
      1.0879695415496826,
      -0.07423083484172821,
      0.0077054183930158615,
      -0.0033548467326909304,
      0.005253393203020096,
      -0.11925575137138367,
      -0.22223693132400513,
      -0.16043512523174286,
      -0.08536603301763535,
      -0.20764754712581635,
      -0.17463600635528564,
      0.15408310294151306,
      -0.394396036863327,
      -0.2092413604259491,
      -0.0969838798046112,
      -0.3096006512641907,
      0.8085665702819824,
      -0.04478069767355919,
      -0.13252069056034088,
      0.058356624096632004,
      0.2835690379142761,
      -0.07824794948101044,
      0.1129085049033165,
      0.09006479382514954,
      0.1300511509180069,
      -0.2522462010383606,
      -0.03832927346229553,
      -2.4265740648843348e-05,
      0.17042315006256104,
      0.05596965551376343,
      -0.13914364576339722,
      -0.027994006872177124
    ],
    [
      -0.4076038599014282,
      0.06381557136774063,
      -0.08669070154428482,
      -0.12704801559448242,
      -0.06497093290090561,
      0.006099194288253784,
      0.044845376163721085,
      0.06085258349776268,
      0.2137298285961151,
      0.11893818527460098,
      0.0348854623734951,
      -0.1273488849401474,
      -0.9274311661720276,
      0.07609322667121887,
      0.13841603696346283,
      -0.061412472277879715,
      -0.28228580951690674,
      -0.06658253818750381,
      0.12137704342603683,
      -0.18202346563339233,
      -0.6489766240119934,
      0.19657756388187408,
      -1.7293603420257568,
      -0.29902708530426025,
      -3.0438854694366455,
      0.049272388219833374,
      0.040794894099235535,
      -0.04624462500214577,
      -0.3400425910949707,
      -0.17450837790966034,
      0.09651656448841095,
      0.12303070724010468
    ],
    [
      -0.0580422468483448,
      -1.1373283863067627,
      -0.015583844855427742,
      -0.02408016473054886,
      -0.008485047146677971,
      0.14473919570446014,
      -0.4782732129096985,
      -0.8802170753479004,
      -0.8503619432449341,
      -2.0085461139678955,
      -1.0472599267959595,
      -0.0547071248292923,
      -0.48016029596328735,
      -0.626167893409729,
      -0.12230193614959717,
      0.11252442747354507,
      -0.09716508537530899,
      -0.042971499264240265,
      -0.5051500797271729,
      0.01609073020517826,
      0.6809374690055847,
      -1.1861088275909424,
      -0.015797032043337822,
      0.007498112507164478,
      0.041145890951156616,
      -2.5960421562194824,
      -0.733562171459198,
      -0.0275932177901268,
      0.019347481429576874,
      0.02508516237139702,
      -1.3533146381378174,
      0.05530098080635071
    ],
    [
      0.363006591796875,
      -0.9320210814476013,
      -0.0003619579947553575,
      0.00611919304355979,
      -0.01574847288429737,
      0.10725994408130646,
      -0.2785836160182953,
      -1.2169358730316162,
      -0.39842575788497925,
      -0.6521347761154175,
      -0.8105031847953796,
      -0.01922258548438549,
      1.0435454845428467,
      -0.25397583842277527,
      -0.029329732060432434,
      -0.05820458382368088,
      0.707854688167572,
      -0.0051807560957968235,
      -0.2189117819070816,
      0.02158106304705143,
      -1.6241538524627686,
      -0.1975833624601364,
      0.07602021843194962,
      0.04147791862487793,
      0.0802510678768158,
      -1.1478582620620728,
      -0.9978437423706055,
      -0.02410023845732212,
      0.033252619206905365,
      0.03252008929848671,
      -0.2020610272884369,
      0.021374240517616272
    ],
    [
      -0.14047302305698395,
      0.0912826731801033,
      -0.024615926668047905,
      -0.06952233612537384,
      -0.012613949365913868,
      -0.01637434959411621,
      0.04647745192050934,
      0.10013550519943237,
      0.12283774465322495,
      0.0654485672712326,
      0.032949041575193405,
      -0.11058865487575531,
      -0.3216879665851593,
      0.03658154606819153,
      -0.1597626656293869,
      -0.4532948136329651,
      -0.28435635566711426,
      0.7219995856285095,
      0.01662936992943287,
      0.5972158312797546,
      -0.05116292089223862,
      0.11545474827289581,
      -0.22006350755691528,
      -0.24732433259487152,
      -0.2504552900791168,
      0.06692124903202057,
      0.08643968403339386,
      -0.0817672610282898,
      -0.1616470068693161,
      -0.24088065326213837,
      0.10587269067764282,
      -0.15111564099788666
    ],
    [
      -0.05073324218392372,
      0.057299088686704636,
      -0.05834908038377762,
      -0.05922193452715874,
      -0.06093771383166313,
      0.12836234271526337,
      0.07736946642398834,
      0.062425609678030014,
      0.07096876949071884,
      0.0668286681175232,
      0.07989009469747543,
      -0.18678145110607147,
      -0.30398935079574585,
      0.08448799699544907,
      0.14259503781795502,
      -0.291829377412796,
      0.01067010685801506,
      -0.06483738869428635,
      -3.253218412399292,
      -0.0516640730202198,
      -0.3517836034297943,
      0.04639432951807976,
      -0.3245719075202942,
      -0.05948607996106148,
      -1.8013554811477661,
      0.03107716329395771,
      0.14790095388889313,
      -0.046579115092754364,
      -0.3407072126865387,
      -0.08787572383880615,
      0.055552996695041656,
      0.009440556168556213
    ],
    [
      0.14709453284740448,
      0.04421308636665344,
      0.12886197865009308,
      0.12527935206890106,
      0.010442659258842468,
      -0.08236002177000046,
      -0.2923775911331177,
      0.006681368686258793,
      -0.23791860044002533,
      -0.13370420038700104,
      -0.4238157272338867,
      0.019824087619781494,
      -0.19846634566783905,
      -0.3246825933456421,
      -0.03232155740261078,
      -0.7151552438735962,
      0.41716787219047546,
      -0.011238145641982555,
      -0.4561777114868164,
      0.006416198797523975,
      0.9909630417823792,
      -0.028399504721164703,
      0.0004681809223257005,
      0.21176917850971222,
      0.08240105211734772,
      -0.3092311918735504,
      -0.248761385679245,
      0.04405112937092781,
      0.027232155203819275,
      0.04289117828011513,
      -0.27888256311416626,
      -0.073384128510952
    ],
    [
      -0.4244169592857361,
      0.16103869676589966,
      -0.14497965574264526,
      -0.5285115242004395,
      -0.044359076768159866,
      0.12192650139331818,
      0.011471188627183437,
      0.08021266758441925,
      0.08048056811094284,
      0.007450111676007509,
      0.047554612159729004,
      -1.0106531381607056,
      -1.3957072496414185,
      0.03273055702447891,
      -0.07223670184612274,
      -0.00985598936676979,
      -0.5183807611465454,
      -0.2550753355026245,
      0.030385425314307213,
      -1.9465715885162354,
      -2.6581835746765137,
      0.07787583768367767,
      -1.4061906337738037,
      -2.4236271381378174,
      -0.7293461561203003,
      0.043967124074697495,
      0.10393548011779785,
      -0.0730038434267044,
      -4.24924373626709,
      -1.403777003288269,
      0.049091894179582596,
      0.003936111927032471
    ],
    [
      -0.13906961679458618,
      0.07458162307739258,
      -0.03571554273366928,
      0.5687914490699768,
      -0.030107973143458366,
      -0.06154594570398331,
      0.02578134462237358,
      0.1016603484749794,
      0.05831384286284447,
      0.06914889812469482,
      0.05773938074707985,
      -0.0773090124130249,
      -0.1772526353597641,
      0.020167436450719833,
      0.08252604305744171,
      -0.2420884221792221,
      -0.37720707058906555,
      -0.02722546085715294,
      -0.006621046923100948,
      -0.11824508011341095,
      0.5151684880256653,
      0.06990737468004227,
      -0.10703054070472717,
      -0.16803716123104095,
      -0.15600284934043884,
      0.0582529716193676,
      0.05657888203859329,
      -0.015866093337535858,
      -0.11446422338485718,
      0.7053560614585876,
      0.049492888152599335,
      0.14170809090137482
    ],
    [
      -0.44583773612976074,
      0.16506412625312805,
      -0.13572052121162415,
      -0.2608407139778137,
      -0.09574437141418457,
      -0.1295567750930786,
      0.04828992858529091,
      -0.022721629589796066,
      0.310651034116745,
      0.11458837985992432,
      -0.06095542386174202,
      -0.13838936388492584,
      -1.5204660892486572,
      -0.05277515947818756,
      -0.052525170147418976,
      -0.1911657750606537,
      -0.24076074361801147,
      -0.01878669299185276,
      0.12502853572368622,
      -0.38504377007484436,
      -0.49813881516456604,
      0.09833712130784988,
      -2.535767078399658,
      -0.16542759537696838,
      -2.1284687519073486,
      0.17067000269889832,
      -0.0033417483791708946,
      -0.010402602143585682,
      -0.2909230589866638,
      -0.11266221106052399,
      0.22463026642799377,
      -0.036171793937683105
    ],
    [
      -1.229591965675354,
      0.061532504856586456,
      -0.4991038143634796,
      -2.042384386062622,
      -0.34090349078178406,
      -0.0289287269115448,
      -0.010640270076692104,
      -0.027748793363571167,
      0.21654780209064484,
      0.0024136609863489866,
      -0.16855193674564362,
      -0.4884006977081299,
      -1.1508904695510864,
      -0.01494993269443512,
      0.1542372852563858,
      -0.20735345780849457,
      -0.11603531241416931,
      -0.028698276728391647,
      0.0010243069846183062,
      -2.791311025619507,
      -0.31071844696998596,
      0.2751322090625763,
      -1.221295714378357,
      -0.1931706815958023,
      -1.7505378723144531,
      0.04395497217774391,
      -0.09476359188556671,
      -0.002702506724745035,
      -2.119751453399658,
      -0.150047168135643,
      0.2776222825050354,
      -0.05885624140501022
    ],
    [
      0.49840840697288513,
      -0.278934508562088,
      0.017510641366243362,
      0.0049374946393072605,
      0.024518808349967003,
      -0.13019326329231262,
      -0.12630002200603485,
      -0.39587080478668213,
      -0.1943558305501938,
      -0.2354789674282074,
      -0.1926116943359375,
      0.10723472386598587,
      1.1424790620803833,
      -0.14506596326828003,
      -0.07200612127780914,
      -0.3334193527698517,
      0.11004985123872757,
      0.036422066390514374,
      -0.1638852059841156,
      0.10321798175573349,
      1.8046514987945557,
      -0.08071691542863846,
      0.15465372800827026,
      0.09365938603878021,
      0.131212055683136,
      -0.23399843275547028,
      -0.3228619396686554,
      0.019321583211421967,
      0.16189044713974,
      0.0770203247666359,
      -0.1186169758439064,
      -0.058169811964035034
    ],
    [
      -0.2097642570734024,
      0.06407950073480606,
      -0.03505435213446617,
      -0.11055472493171692,
      -0.022693729028105736,
      0.03603971004486084,
      0.002601425861939788,
      0.11965756118297577,
      0.008770150132477283,
      -0.013041304424405098,
      0.21567775309085846,
      -0.5542832016944885,
      -1.6332064867019653,
      -0.00431301724165678,
      -0.07938092947006226,
      0.011800608597695827,
      -1.0581631660461426,
      -0.5465816259384155,
      0.025415662676095963,
      -0.17890891432762146,
      -2.08831787109375,
      -0.03641523793339729,
      -2.6731185913085938,
      -2.1055350303649902,
      -1.1405231952667236,
      0.05877091363072395,
      0.1602364033460617,
      -0.2794850170612335,
      -1.9911054372787476,
      -3.004506826400757,
      -0.07057294994592667,
      -0.10183274745941162
    ],
    [
      -0.7029407024383545,
      0.03253806754946709,
      -0.07161270827054977,
      0.6003138422966003,
      -0.048738595098257065,
      0.07856227457523346,
      -0.006369518116116524,
      0.04970237612724304,
      0.022000625729560852,
      0.03321782499551773,
      0.05639152601361275,
      -0.06849390268325806,
      1.2390477657318115,
      0.0010443786159157753,
      0.12513242661952972,
      -0.10585008561611176,
      -0.4901415705680847,
      0.0070962426252663136,
      -0.013492410071194172,
      -0.09974769502878189,
      1.0216611623764038,
      0.032950352877378464,
      -0.17779837548732758,
      0.4568692147731781,
      -0.08048947900533676,
      0.04834846034646034,
      0.04838921129703522,
      0.008763751946389675,
      -0.07990563660860062,
      -0.09005530178546906,
      0.014375576749444008,
      -0.04525958001613617
    ],
    [
      0.5138725638389587,
      -0.2143143117427826,
      -0.0014652442187070847,
      0.02285849116742611,
      -0.009930901229381561,
      0.12272895872592926,
      -0.18276068568229675,
      -0.17840416729450226,
      -0.2262124866247177,
      -0.10822324454784393,
      -0.16927902400493622,
      0.23966045677661896,
      1.1904702186584473,
      -0.21366365253925323,
      -0.05525892227888107,
      -0.44985541701316833,
      1.190119743347168,
      0.004440649412572384,
      -0.10255160927772522,
      0.0894712507724762,
      -0.9799707531929016,
      -0.12780873477458954,
      0.1860051453113556,
      0.11070484668016434,
      0.14604030549526215,
      -0.1455259770154953,
      -0.09264324605464935,
      -0.05633578822016716,
      0.17023785412311554,
      0.07053689658641815,
      -0.08198389410972595,
      0.02223809063434601
    ],
    [
      -0.2520800828933716,
      0.1212981715798378,
      0.3814840018749237,
      0.0031140593346208334,
      -0.016151120886206627,
      0.06219880282878876,
      -0.008912055753171444,
      0.07666192948818207,
      0.20479939877986908,
      0.02699805609881878,
      0.03870864585042,
      -0.06240192428231239,
      -0.6900619864463806,
      0.012221046723425388,
      0.14924989640712738,
      -0.41421300172805786,
      -0.5491018295288086,
      -0.04498952254652977,
      0.005630802363157272,
      -0.01359789352864027,
      0.6302589774131775,
      0.1587175726890564,
      -0.01986614614725113,
      -0.08686599135398865,
      -0.061553217470645905,
      0.0745094045996666,
      0.09888661652803421,
      0.5217306613922119,
      -0.08579112589359283,
      -0.10299194604158401,
      0.14799340069293976,
      0.1745089441537857
    ],
    [
      -0.3317781984806061,
      -0.07869265973567963,
      0.03727152571082115,
      0.01597844436764717,
      0.1393512338399887,
      0.15989266335964203,
      -0.13109567761421204,
      -0.08535835146903992,
      -0.1521165370941162,
      -0.09425754100084305,
      -0.09382844716310501,
      0.10301345586776733,
      2.3913002014160156,
      -0.18843188881874084,
      0.01836252212524414,
      -0.19650974869728088,
      0.6695769429206848,
      0.025523871183395386,
      -0.07877670228481293,
      0.12518629431724548,
      0.0988815426826477,
      -0.11764705181121826,
      -0.020829206332564354,
      0.05314705893397331,
      0.1292058527469635,
      -0.13293452560901642,
      -0.09831999987363815,
      0.020908433943986893,
      0.06702310591936111,
      0.21518178284168243,
      -0.052729010581970215,
      0.09605132043361664
    ],
    [
      -0.2986643612384796,
      0.08210930973291397,
      -0.06046053394675255,
      -0.16034384071826935,
      0.0010200910037383437,
      0.031827256083488464,
      0.02187562920153141,
      0.2182634025812149,
      -0.03642663732171059,
      0.02900463156402111,
      0.06994032114744186,
      -0.48860371112823486,
      -0.8245869278907776,
      0.04190409928560257,
      -0.10635694116353989,
      -0.0299381036311388,
      -0.43814635276794434,
      -0.13566438853740692,
      0.07889683544635773,
      -0.21514570713043213,
      -1.7138872146606445,
      0.0627707988023758,
      -1.7109841108322144,
      -2.1295125484466553,
      -2.2466092109680176,
      0.11530973017215729,
      0.06383941322565079,
      -0.0906456783413887,
      -1.2364357709884644,
      -0.5013883113861084,
      0.035775817930698395,
      -0.15013016760349274
    ],
    [
      0.7651364803314209,
      -0.036862391978502274,
      0.015587196685373783,
      0.020248541608452797,
      0.018512845039367676,
      0.10367394983768463,
      -0.16786043345928192,
      -0.2206142097711563,
      -0.06101931631565094,
      -0.07299553602933884,
      -0.24597573280334473,
      0.22015108168125153,
      0.04936258867383003,
      -0.16879716515541077,
      -0.031557321548461914,
      -0.7224041819572449,
      1.0436636209487915,
      0.012425735592842102,
      -0.09023970365524292,
      0.06000419333577156,
      -0.568839967250824,
      0.02992205135524273,
      0.36751532554626465,
      0.11366011947393417,
      0.11947216093540192,
      -0.13032719492912292,
      -0.13109558820724487,
      -0.016076285392045975,
      0.22318001091480255,
      0.08068117499351501,
      -0.03476953133940697,
      0.11750693619251251
    ],
    [
      -0.3471720814704895,
      0.05976862460374832,
      -0.13165165483951569,
      -0.1706661731004715,
      0.566635251045227,
      0.08948640525341034,
      0.03532406687736511,
      0.05855359137058258,
      0.05778536945581436,
      0.0629483088850975,
      0.05690532177686691,
      -0.12615172564983368,
      -0.35509687662124634,
      0.058802831918001175,
      -0.10306823998689651,
      -0.32786044478416443,
      -0.22386367619037628,
      -0.13726556301116943,
      0.02654767967760563,
      -0.18748408555984497,
      -0.6947816014289856,
      0.049953654408454895,
      -0.20817402005195618,
      -0.1846207231283188,
      -0.305623859167099,
      0.06582726538181305,
      0.051754772663116455,
      0.5488560199737549,
      -0.1558285504579544,
      -0.1766359955072403,
      0.055281732231378555,
      -0.018039673566818237
    ],
    [
      -0.36998364329338074,
      -0.9157208204269409,
      -0.024455633014440536,
      -0.01541458535939455,
      -0.023651279509067535,
      -0.015662387013435364,
      -2.484066963195801,
      -1.0246950387954712,
      -0.11049053072929382,
      -2.777068853378296,
      -1.1960023641586304,
      -0.007688518613576889,
      -0.6956660747528076,
      -2.7203612327575684,
      -0.028629407286643982,
      0.5505595803260803,
      -0.53489089012146,
      -0.011790024116635323,
      -3.94869065284729,
      -0.006404153071343899,
      -1.1619278192520142,
      -0.6961504817008972,
      -0.04734126105904579,
      -0.014549543149769306,
      -0.02671048603951931,
      -1.8781806230545044,
      -0.6129052042961121,
      -0.021638920530676842,
      -0.012073332443833351,
      -0.017290694639086723,
      -0.7291851043701172,
      -0.16052184998989105
    ],
    [
      -2.471522092819214,
      0.0982823297381401,
      -2.4989078044891357,
      -2.789170026779175,
      -0.8264685273170471,
      0.027904793620109558,
      -0.012105809524655342,
      0.08045794814825058,
      0.1676674336194992,
      -0.04443642124533653,
      0.033667776733636856,
      -2.7605881690979004,
      -0.7884441614151001,
      0.010033279657363892,
      -0.05625493824481964,
      -0.16834907233715057,
      -2.2575507164001465,
      -2.534005641937256,
      -0.010978974401950836,
      -1.4667962789535522,
      -0.9235888719558716,
      0.11342441290616989,
      -0.787635087966919,
      -1.1914771795272827,
      -0.22635552287101746,
      -0.04139696806669235,
      0.1304236352443695,
      -0.7715469002723694,
      -1.0732308626174927,
      -2.5141654014587402,
      0.0656299814581871,
      0.030619025230407715
    ],
    [
      -0.034249890595674515,
      -0.6505832076072693,
      -0.05251267924904823,
      -0.08109448850154877,
      -0.009995955042541027,
      -0.11317178606987,
      0.0015530536184087396,
      -0.482612669467926,
      -0.6850762963294983,
      -0.16738806664943695,
      -0.2691504955291748,
      -0.1256326138973236,
      1.0613452196121216,
      0.0151568204164505,
      0.1395939141511917,
      -0.015332518145442009,
      0.8024046421051025,
      -0.08646302670240402,
      -0.0773857980966568,
      -0.03848249837756157,
      -0.8010164499282837,
      -0.7083157300949097,
      -0.09889458119869232,
      -0.12035282701253891,
      0.4904799461364746,
      -0.5413362383842468,
      -0.09234011173248291,
      -0.03225066885352135,
      -0.1525454968214035,
      -0.12546607851982117,
      -1.0193653106689453,
      0.11632989346981049
    ]
  ],
  "fc2.bias": [
    0.11615447700023651,
    -0.34020888805389404,
    -0.04143669456243515,
    0.3644565939903259,
    0.060044873505830765,
    0.49094757437705994,
    -0.2342677265405655,
    0.4703579843044281,
    0.3905021548271179,
    0.03176584839820862,
    0.35958969593048096,
    0.4020063877105713,
    0.27320802211761475,
    -0.2805265188217163,
    0.33709436655044556,
    -0.7184271216392517,
    0.3183695673942566,
    -0.20013724267482758,
    0.35945188999176025,
    0.2870895266532898,
    0.04830317571759224,
    0.2515314817428589,
    -0.1153867319226265,
    -0.017686525359749794,
    -0.3449876606464386,
    -0.07470619678497314,
    0.37607666850090027,
    -0.06947417557239532,
    -0.3766780495643616,
    0.3848426043987274,
    0.14418677985668182,
    0.18798665702342987
  ],
  "fc3.weight": [
    [
      -0.1629718542098999,
      -0.15604275465011597,
      -0.14135567843914032,
      0.24349407851696014,
      -0.10770625621080399,
      0.1702573001384735,
      -0.25853395462036133,
      0.2138185054063797,
      0.22200995683670044,
      -0.10375259816646576,
      0.258044958114624,
      -0.17631037533283234,
      -0.1497887521982193,
      -0.3608086407184601,
      0.4526224434375763,
      0.3207744061946869,
      0.446323424577713,
      -0.30621227622032166,
      0.2719470262527466,
      0.43547323346138,
      -0.099917471408844,
      0.5114805698394775,
      -0.20151279866695404,
      -0.09824418276548386,
      -0.24094465374946594,
      -0.09779767692089081,
      0.31381648778915405,
      -0.09415721893310547,
      -0.8102101683616638,
      -0.3675742447376251,
      1.0613994598388672,
      -0.30824434757232666
    ]
  ],
  "fc3.bias": [
    0.17000606656074524
  ]
}