{
  "fc1.weight": [
    [
      -0.558401346206665,
      -0.1058049201965332
    ],
    [
      -0.02585509605705738,
      -0.6285095810890198
    ],
    [
      -0.30919787287712097,
      -0.1184237077832222
    ],
    [
      0.30215638875961304,
      0.3816887438297272
    ],
    [
      0.4001114070415497,
      0.42643317580223083
    ],
    [
      0.06988141685724258,
      -0.4575679302215576
    ],
    [
      -0.11633738875389099,
      -0.5092508792877197
    ],
    [
      0.21535724401474,
      0.25482437014579773
    ],
    [
      -0.08506452292203903,
      -0.6529998183250427
    ],
    [
      0.46076369285583496,
      0.5197718143463135
    ],
    [
      -0.0580134280025959,
      -0.8430837392807007
    ],
    [
      0.225394606590271,
      0.2865503430366516
    ],
    [
      0.19199517369270325,
      0.2146945595741272
    ],
    [
      -0.48628735542297363,
      -0.08015859127044678
    ],
    [
      -0.7459952235221863,
      0.05507432296872139
    ],
    [
      -0.6178252696990967,
      0.3633345663547516
    ],
    [
      -0.5882695317268372,
      0.07969333976507187
    ],
    [
      0.33406227827072144,
      -0.4864571988582611
    ],
    [
      0.05463416501879692,
      -0.41446179151535034
    ],
    [
      0.33923035860061646,
      0.3541736900806427
    ],
    [
      -0.13056649267673492,
      -0.15331365168094635
    ],
    [
      0.35751432180404663,
      0.43653354048728943
    ],
    [
      -0.057965755462646484,
      -0.05074554681777954
    ],
    [
      -0.5126370191574097,
      -0.13174067437648773
    ],
    [
      -0.6080594658851624,
      -0.01547988597303629
    ],
    [
      -0.1567544788122177,
      -0.6694441437721252
    ],
    [
      -0.5105578303337097,
      0.05016576871275902
    ],
    [
      0.01949598826467991,
      -0.5070603489875793
    ],
    [
      -0.45921674370765686,
      -0.6299031972885132
    ],
    [
      0.06844239681959152,
      -0.5372934937477112
    ],
    [
      -0.28488826751708984,
      -0.3310438394546509
    ],
    [
      0.08731254935264587,
      -0.5052834749221802
    ]
  ],
  "fc1.bias": [
    -0.5131350755691528,
    -0.6247596740722656,
    0.044385652989149094,
    0.26147595047950745,
    -0.054379694163799286,
    -0.59396892786026,
    -0.18609826266765594,
    0.36173170804977417,
    -0.42690935730934143,
    0.7210757732391357,
    -0.7462848424911499,
    0.2571542263031006,
    0.3964395523071289,
    -0.30649688839912415,
    -0.902487576007843,
    -0.5291808247566223,
    -0.8242639303207397,
    -0.5228872299194336,
    -0.6756321787834167,
    0.10286563634872437,
    0.18047212064266205,
    -0.8024213314056396,
    -0.3456294536590576,
    -0.1916881948709488,
    -0.62929767370224,
    -0.08538411557674408,
    -0.8121902346611023,
    -0.5962657332420349,
    0.30582866072654724,
    -0.7858638763427734,
    -0.1285206824541092,
    -0.707062840461731
  ],
  "fc2.weight": [
    [
      -2.68965220451355,
      -2.4699409008026123,
      -0.20091746747493744,
      0.019237052649259567,
      0.06453660130500793,
      -1.519972562789917,
      -0.33789435029029846,
      0.002227043267339468,
      -0.8416057825088501,
      0.02959579974412918,
      -3.343494176864624,
      0.03176424652338028,
      0.01414168905466795,
      -3.25756573677063,
      -0.8292340636253357,
      -0.20056873559951782,
      -1.474626898765564,
      -0.2072509527206421,
      -0.432173490524292,
      0.05756412446498871,
      -0.073785699903965,
      -0.05284084752202034,
      0.09185253083705902,
      -0.6639546155929565,
      -1.576788306236267,
      -0.06890006363391876,
      -0.7787097096443176,
      -1.8360235691070557,
      -0.061886016279459,
      -0.4780346751213074,
      -0.2598409056663513,
      -1.1905304193496704
    ],
    [
      0.19427640736103058,
      0.10672366619110107,
      -0.015048511326313019,
      -0.8151142597198486,
      -2.0568013191223145,
      0.41996198892593384,
      0.06554361432790756,
      -0.20265351235866547,
      0.057349901646375656,
      -0.15295326709747314,
      0.0619155615568161,
      -0.5056993961334229,
      -0.1391802728176117,
      0.03615071251988411,
      0.4133509695529938,
      0.010596174746751785,
      0.5203924179077148,
      0.14894753694534302,
      0.7390772700309753,
      -2.6599061489105225,
      0.056179631501436234,
      -0.25136280059814453,
      0.03021988272666931,
      0.05722155049443245,
      -0.32789087295532227,
      -0.05755218118429184,
      -0.23262690007686615,
      0.23146942257881165,
      -0.028132470324635506,
      0.37159496545791626,
      0.01659182272851467,
      0.15902669727802277
    ],
    [
      -1.6294233798980713,
      -3.3389880657196045,
      -0.04578027501702309,
      0.019432391971349716,
      0.09597786515951157,
      -2.026055097579956,
      -0.1790958046913147,
      0.017943507060408592,
      -0.5413845181465149,
      0.027040407061576843,
      -1.9996943473815918,
      0.003986127208918333,
      0.03700222074985504,
      -0.4993652105331421,
      -0.26257389783859253,
      -0.03569186106324196,
      -1.271072506904602,
      -0.17776228487491608,
      -0.3051707148551941,
      0.05599023774266243,
      -0.07219988107681274,
      -0.07348674535751343,
      0.06266458332538605,
      -0.1897154003381729,
      -0.5544251799583435,
      -0.004075835458934307,
      -2.22707200050354,
      -2.3488380908966064,
      -0.07431332767009735,
      -0.23337556421756744,
      -0.10545729100704193,
      -1.3751428127288818
    ],
    [
      0.27353549003601074,
      0.1831417977809906,
      0.06320870667695999,
      -0.08946939557790756,
      -0.7451689839363098,
      0.4026867151260376,
      0.15698589384555817,
      -0.06804010272026062,
      0.13137052953243256,
      -0.048285841941833496,
      0.1764412820339203,
      -0.0814724937081337,
      -0.05552663281559944,
      0.08361335098743439,
      0.334254652261734,
      0.008332973346114159,
      0.5505242943763733,
      0.04893810302019119,
      1.067731261253357,
      -0.24244089424610138,
      0.04499319568276405,
      -0.8271521925926208,
      -0.10677593946456909,
      0.0689127966761589,
      0.12396425753831863,
      0.0010560165392234921,
      1.0685155391693115,
      0.4524630308151245,
      -0.002783125266432762,
      0.8267650008201599,
      0.1667180359363556,
      0.322052001953125
    ],
    [
      -0.7290877103805542,
      -0.8011801242828369,
      -0.6247721910476685,
      -0.0012886400800198317,
      -0.0074562435038387775,
      -1.5774039030075073,
      -2.833038091659546,
      0.02905716560781002,
      -3.272477388381958,
      -0.00312622869387269,
      -1.1221427917480469,
      0.01773870550096035,
      0.02274138666689396,
      -2.699747085571289,
      -2.288583278656006,
      -0.1793706864118576,
      -0.557932436466217,
      -0.1022287905216217,
      -0.2564372718334198,
      0.002116288524121046,
      -0.20478999614715576,
      0.08470861613750458,
      0.10081188380718231,
      -2.963510274887085,
      -1.4036675691604614,
      -0.5757752060890198,
      -0.18792471289634705,
      -0.6875722408294678,
      -0.11532346159219742,
      -0.1619514524936676,
      -2.7682583332061768,
      -0.3499489426612854
    ],
    [
      0.15243643522262573,
      0.14071305096149445,
      0.05769740045070648,
      -0.11166016757488251,
      -0.8172591924667358,
      0.24633930623531342,
      0.13072477281093597,
      -0.06723079830408096,
      0.10535658150911331,
      -0.03201103210449219,
      0.21401511132717133,
      -0.11287935823202133,
      -0.0313277468085289,
      0.15464523434638977,
      0.30782103538513184,
      0.05038466677069664,
      0.6205460429191589,
      0.06508790701627731,
      0.919953465461731,
      -0.3297804296016693,
      0.08283936232328415,
      -0.4781739413738251,
      0.019204169511795044,
      0.08888215571641922,
      0.04244891554117203,
      0.0038705714978277683,
      0.718085765838623,
      0.3538520038127899,
      -0.013002928346395493,
      0.7387957572937012,
      0.14614111185073853,
      0.24871128797531128
    ],
    [
      0.22872839868068695,
      0.17222937941551208,
      0.0524311326444149,
      -0.10079387575387955,
      -0.3815051317214966,
      0.40202224254608154,
      0.1088111400604248,
      -0.06506224721670151,
      0.08320392668247223,
      -0.064676932990551,
      0.17932254076004028,
      -0.09496999531984329,
      -0.020798640325665474,
      0.1354651153087616,
      0.5050886273384094,
      -0.07597663253545761,
      0.603252649307251,
      0.021426169201731682,
      1.179900050163269,
      -0.21792356669902802,
      -0.011193857528269291,
      -0.7261409163475037,
      -0.07999621331691742,
      0.09134271740913391,
      -0.002606829395517707,
      0.02371782809495926,
      1.0645761489868164,
      0.4245804250240326,
      -0.014880540780723095,
      0.5491834282875061,
      0.18874166905879974,
      0.4802604913711548
    ],
    [
      -0.011112978681921959,
      -0.028919700533151627,
      -0.06937060505151749,
      -0.1466078907251358,
      -0.15095123648643494,
      -0.12432445585727692,
      0.023534759879112244,
      -0.08842989802360535,
      0.07873967289924622,
      -0.14911392331123352,
      0.05912304297089577,
      -0.12729355692863464,
      0.09197822213172913,
      -0.13528409600257874,
      -0.18235096335411072,
      -0.08711528033018112,
      -0.13348503410816193,
      -0.05001150816679001,
      -0.18740607798099518,
      -0.07266447693109512,
      -0.07020599395036697,
      -0.031150296330451965,
      0.04235364496707916,
      -0.10438316315412521,
      -0.16006705164909363,
      -0.18751893937587738,
      -0.13778582215309143,
      -0.13641846179962158,
      0.07021506130695343,
      -0.1304914951324463,
      -0.05194289982318878,
      -0.13391231000423431
    ],
    [
      -0.8190162777900696,
      -2.7514400482177734,
      -0.0526236854493618,
      0.05265256017446518,
      0.06930455565452576,
      -1.1925407648086548,
      -0.12499839067459106,
      0.011734607629477978,
      -0.39769604802131653,
      0.02597801201045513,
      -1.1574949026107788,
      0.04167713224887848,
      0.03183208405971527,
      -0.26701658964157104,
      -0.1771717667579651,
      0.016406256705522537,
      -1.1251237392425537,
      -0.16929569840431213,
      -0.8929266929626465,
      0.08737368136644363,
      -0.09989693015813828,
      -0.09814334660768509,
      -0.11184481531381607,
      -0.08126296103000641,
      -0.3668736219406128,
      -0.022373627871274948,
      -2.4525980949401855,
      -2.3101277351379395,
      -0.0910039022564888,
      -0.7994694709777832,
      -0.1454661339521408,
      -1.7368576526641846
    ],
    [
      -2.359795093536377,
      -1.591083288192749,
      -0.2619844675064087,
      -0.01898353174328804,
      0.056229520589113235,
      -1.5749338865280151,
      -0.9081090688705444,
      0.0302942655980587,
      -1.9900579452514648,
      0.012032976374030113,
      -3.042623281478882,
      -0.002826630137860775,
      0.027949681505560875,
      -0.6405844688415527,
      -0.2277064323425293,
      -0.004508823622018099,
      -0.8830128908157349,
      -0.03861340135335922,
      -0.2167906016111374,
      0.03315035626292229,
      -0.2468172162771225,
      0.02044501155614853,
      0.11466284096240997,
      -0.3334061801433563,
      -0.340410441160202,
      -0.25316378474235535,
      -1.2485193014144897,
      -1.1179805994033813,
      -0.12844151258468628,
      -0.17410966753959656,
      -1.4496742486953735,
      -1.120759129524231
    ],
    [
      -0.046268947422504425,
      0.08359871059656143,
      -0.002466547302901745,
      -0.0025859097950160503,
      0.013520073145627975,
      -0.3723883330821991,
      -0.20766706764698029,
      0.013008949346840382,
      -0.156654953956604,
      -0.003433880163356662,
      -0.23073668777942657,
      0.010449238121509552,
      -0.01056491956114769,
      0.0615096241235733,
      -0.9835805892944336,
      0.12196747958660126,
      0.6707215905189514,
      -0.11460719257593155,
      0.12383807450532913,
      0.041292402893304825,
      -0.07215525209903717,
      -0.1425568014383316,
      -0.109156034886837,
      0.04625408351421356,
      0.37561720609664917,
      0.6177698373794556,
      0.31690773367881775,
      -0.07353262603282928,
      -0.028538377955555916,
      0.07087366282939911,
      -0.16290582716464996,
      0.774842381477356
    ],
    [
      0.21803899109363556,
      0.16650690138339996,
      0.07353238016366959,
      -0.1190461739897728,
      -0.6463589072227478,
      0.47554466128349304,
      0.17235270142555237,
      -0.08345099538564682,
      0.14203403890132904,
      -0.0719190239906311,
      0.17697085440158844,
      -0.09987557679414749,
      -0.05092389136552811,
      0.15229646861553192,
      0.36755600571632385,
      -0.02161262556910515,
      0.7094148993492126,
      0.02355862222611904,
      1.0692689418792725,
      -0.2243993878364563,
      -0.0023096890654414892,
      -0.8361883163452148,
      0.08354805409908295,
      0.06952252984046936,
      0.17572657763957977,
      -0.013744297437369823,
      0.8512813448905945,
      0.3717581331729889,
      -0.018510425463318825,
      0.861602246761322,
      0.2095918357372284,
      0.458270400762558
    ],
    [
      0.1146780326962471,
      0.09341485798358917,
      0.06091708317399025,
      -0.21613000333309174,
      -2.1594018936157227,
      0.4144376814365387,
      0.12420518696308136,
      -0.10631623864173889,
      0.106527179479599,
      -0.07596243917942047,
      0.17043162882328033,
      -0.16912506520748138,
      -0.07704973965883255,
      0.10826002806425095,
      0.28090977668762207,
      0.053796928375959396,
      0.3842657208442688,
      -0.02598414197564125,
      1.063768982887268,
      -0.726678729057312,
      0.07364697754383087,
      -0.4174826443195343,
      -0.06886685639619827,
      0.03128534555435181,
      0.2366502434015274,
      -0.031568098813295364,
      0.8408766984939575,
      0.39493638277053833,
      -0.018735850229859352,
      0.7054474353790283,
      0.110887810587883,
      0.23902074992656708
    ],
    [
      0.1614750474691391,
      0.15697455406188965,
      0.031083429232239723,
      -0.11313298344612122,
      -0.9777284264564514,
      0.481444776058197,
      0.1001269668340683,
      -0.06692121177911758,
      0.1143692284822464,
      -0.05330994725227356,
      0.15384447574615479,
      -0.12440666556358337,
      -0.02606203593313694,
      0.11242558807134628,
      0.5796715617179871,
      -0.04843312129378319,
      0.4178330898284912,
      -0.004082872532308102,
      1.1100306510925293,
      -0.328197717666626,
      0.0535675548017025,
      -0.3729446828365326,
      -0.07989002764225006,
      0.059542201459407806,
      0.10397754609584808,
      0.00027217360911890864,
      0.7202590703964233,
      0.352556049823761,
      -0.031115500256419182,
      0.533698320388794,
      0.16241078078746796,
      0.3461470305919647
    ],
    [
      0.21567367017269135,
      0.21362487971782684,
      0.07818841189146042,
      -0.08748849481344223,
      -0.9031465649604797,
      0.3753702938556671,
      0.14669746160507202,
      -0.05854162201285362,
      0.10060015320777893,
      -0.03729630261659622,
      0.1539573222398758,
      -0.06125088408589363,
      -0.026824643835425377,
      0.08895671367645264,
      0.30813318490982056,
      -0.006048450246453285,
      0.6572617292404175,
      -0.02042219042778015,
      1.2905707359313965,
      -0.1779298633337021,
      0.015335310250520706,
      -0.7450270056724548,
      -0.17291292548179626,
      0.051129452884197235,
      0.1842273473739624,
      0.02523094043135643,
      0.9143898487091064,
      0.4405285120010376,
      -0.02426222898066044,
      0.6771149635314941,
      0.1448916345834732,
      0.46215659379959106
    ],
    [
      -0.9873931407928467,
      -0.5049805641174316,
      -1.161954402923584,
      -0.0059607988223433495,
      -0.044325415045022964,
      -0.9413485527038574,
      -2.627535343170166,
      0.012662520632147789,
      -2.8060972690582275,
      0.004345232620835304,
      -1.0083262920379639,
      0.020793814212083817,
      0.022689638659358025,
      -2.5569546222686768,
      -0.8678663372993469,
      -0.15605394542217255,
      -0.7745587825775146,
      -0.16128814220428467,
      -0.17498351633548737,
      -0.03702087700366974,
      -0.5220363736152649,
      0.10961340367794037,
      0.12590719759464264,
      -2.909886121749878,
      -1.207613468170166,
      -1.1817257404327393,
      -0.24069301784038544,
      -0.44186604022979736,
      -0.46281179785728455,
      -0.08810693770647049,
      -2.9561781883239746,
      -0.6680123805999756
    ],
    [
      -2.8892526626586914,
      -2.8851518630981445,
      -0.10748343169689178,
      0.01340503990650177,
      0.06088825687766075,
      -1.283942461013794,
      -0.2517290711402893,
      0.01707325130701065,
      -0.6991755962371826,
      0.0024945519398897886,
      -3.116243362426758,
      0.026222413405776024,
      0.04546486958861351,
      -2.9704995155334473,
      -0.8502392768859863,
      -0.096825510263443,
      -1.3082047700881958,
      -0.17524711787700653,
      -0.27993491291999817,
      0.06990877538919449,
      -0.053627245128154755,
      -0.007196897640824318,
      0.06174458563327789,
      -0.5890257358551025,
      -1.6491994857788086,
      -0.02574482187628746,
      -0.6780394911766052,
      -1.4336014986038208,
      -0.03837359696626663,
      -0.1947307586669922,
      -0.14964060485363007,
      -1.1432594060897827
    ],
    [
      -0.14864467084407806,
      -0.1621229499578476,
      -0.05095234513282776,
      0.029315203428268433,
      -0.48823824524879456,
      -0.14338694512844086,
      -0.04763330891728401,
      0.07169171422719955,
      -0.05869048833847046,
      0.03175271302461624,
      -0.0854024887084961,
      0.04126006364822388,
      0.07531382888555527,
      -0.10395248979330063,
      -0.15409134328365326,
      0.6364914178848267,
      -0.48826977610588074,
      0.6002599000930786,
      0.33123835921287537,
      -0.09428442269563675,
      -0.02397068589925766,
      -0.5232870578765869,
      0.004824206233024597,
      -0.056036945432424545,
      -0.19380512833595276,
      -0.02631327137351036,
      -0.04555002972483635,
      -0.22802062332630157,
      0.5488545298576355,
      -0.2710060477256775,
      -0.06860071420669556,
      -0.2313023954629898
    ],
    [
      -0.06341851502656937,
      0.007125531323254108,
      -0.01134833786636591,
      -2.290954828262329,
      -1.119214415550232,
      0.4518224000930786,
      0.031377002596855164,
      -0.412853479385376,
      0.04631843417882919,
      -0.3404259979724884,
      0.026146573945879936,
      -1.1766349077224731,
      -0.24649187922477722,
      0.023949522525072098,
      -0.06191673129796982,
      -0.023141762241721153,
      -0.35610780119895935,
      0.008770863525569439,
      0.49046340584754944,
      -2.5879693031311035,
      0.013506587594747543,
      -0.16709043085575104,
      -0.14679203927516937,
      -0.0015925843035802245,
      0.2888632118701935,
      -0.03758325055241585,
      0.2401578277349472,
      -0.1149919331073761,
      -0.03140590339899063,
      0.2829849123954773,
      -0.04109335318207741,
      0.1196785643696785
    ],
    [
      -0.39764925837516785,
      -0.32482030987739563,
      -0.1302262842655182,
      -0.05619855970144272,
      0.007044817786663771,
      -0.06545209884643555,
      -0.11781953275203705,
      0.019108310341835022,
      -0.07880877703428268,
      -3.388864755630493,
      -0.14313483238220215,
      -0.02712549827992916,
      0.01624332182109356,
      -0.16513946652412415,
      -0.05469905585050583,
      0.05226241424679756,
      -0.2658099830150604,
      0.07628823816776276,
      -0.48514679074287415,
      -0.03129623830318451,
      -0.0625087320804596,
      0.3209433853626251,
      -0.16186384856700897,
      -0.09506482630968094,
      -0.3055279552936554,
      -0.04210963100194931,
      -0.5367149710655212,
      -0.36107581853866577,
      -0.010457306168973446,
      -0.3371451795101166,
      -0.19088341295719147,
      -0.1947680115699768
    ],
    [
      -0.11700277030467987,
      -0.6797105073928833,
      0.05693424120545387,
      -0.10185389965772629,
      -0.15375928580760956,
      -1.1231143474578857,
      -0.059578318148851395,
      -0.08091595023870468,
      -0.14909568428993225,
      0.4893637001514435,
      -0.27109068632125854,
      -0.09799754619598389,
      -0.05453941971063614,
      -0.02161979489028454,
      -0.06297005712985992,
      0.02907654270529747,
      -0.21582821011543274,
      0.028767840936779976,
      -0.1704084575176239,
      -0.14303144812583923,
      0.2332185059785843,
      -0.3988495171070099,
      -0.09468816220760345,
      0.016128089278936386,
      -0.10886669903993607,
      0.0024362909607589245,
      -0.4693751037120819,
      -0.9938520789146423,
      0.08059065788984299,
      -0.1474863439798355,
      0.052623022347688675,
      -0.6321898102760315
    ],
    [
      -0.4777243435382843,
      -0.5646173357963562,
      -0.05107163265347481,
      0.07262499630451202,
      0.12375349551439285,
      -1.0178487300872803,
      -0.012712795287370682,
      0.017687125131487846,
      -0.008428741246461868,
      0.02608424611389637,
      -0.23826874792575836,
      0.08740414679050446,
      0.026723304763436317,
      -0.18658579885959625,
      -0.2576916813850403,
      0.03660689666867256,
      -1.4565764665603638,
      -0.03706488385796547,
      -1.2419337034225464,
      0.0830831527709961,
      -0.06591571122407913,
      -0.1369991898536682,
      0.08347298204898834,
      -0.015025167725980282,
      -0.544895589351654,
      0.005503288935869932,
      -2.901139259338379,
      -1.5079041719436646,
      -0.035264983773231506,
      -1.9397181272506714,
      -0.0747566893696785,
      -2.061861991882324
    ],
    [
      0.09938820451498032,
      0.12672245502471924,
      0.06940921396017075,
      -0.22388307750225067,
      -1.7864729166030884,
      0.386527419090271,
      0.1298801749944687,
      -0.12326586991548538,
      0.1180218905210495,
      -0.08753731846809387,
      0.15675979852676392,
      -0.20480474829673767,
      -0.10787449777126312,
      0.09260165691375732,
      0.3639872074127197,
      0.028355566784739494,
      0.4812566041946411,
      0.003939246758818626,
      0.962070643901825,
      -0.5750213265419006,
      0.0587545745074749,
      -0.36522406339645386,
      -0.08326872438192368,
      0.07639428973197937,
      0.19131267070770264,
      -0.012813214212656021,
      0.8070499897003174,
      0.23242083191871643,
      -0.03728482127189636,
      0.5830386877059937,
      0.09683404117822647,
      0.4337533712387085
    ],
    [
      0.04735923558473587,
      0.14325544238090515,
      -0.004911056719720364,
      -0.10455536097288132,
      -0.45151033997535706,
      0.2542015612125397,
      0.08193546533584595,
      -0.07188230007886887,
      0.13424576818943024,
      -0.06077956780791283,
      0.19823302328586578,
      -0.12062511593103409,
      -0.06399684399366379,
      0.04845254123210907,
      0.08172651380300522,
      -0.055137716233730316,
      0.23568493127822876,
      0.0655817836523056,
      1.197123408317566,
      -0.22374054789543152,
      0.011109637096524239,
      -0.6794369220733643,
      -0.17480702698230743,
      0.08124835044145584,
      0.7002127766609192,
      0.0060700601898133755,
      0.9892690777778625,
      0.3293924927711487,
      -0.0092628700658679,
      0.6508461833000183,
      0.200214222073555,
      0.44264277815818787
    ],
    [
      -0.5364477038383484,
      -1.5113047361373901,
      -0.019598446786403656,
      0.07317695021629333,
      0.09201672673225403,
      -1.4187575578689575,
      0.007938836701214314,
      0.014468911103904247,
      -0.09506025165319443,
      0.03539413958787918,
      -0.4651612639427185,
      0.05055636912584305,
      0.023976892232894897,
      -0.1599392294883728,
      -0.27542081475257874,
      0.010992688126862049,
      -2.041604518890381,
      -0.19095852971076965,
      -0.7726192474365234,
      0.11640697717666626,
      -0.038683246821165085,
      -0.147050142288208,
      -0.08767060935497284,
      0.006969148758798838,
      -0.6238229274749756,
      0.04444124922156334,
      -2.411903142929077,
      -2.875419855117798,
      -0.06522445380687714,
      -0.9616653919219971,
      0.03179359808564186,
      -2.395390272140503
    ],
    [
      -4.296091556549072,
      -0.9852965474128723,
      -0.0855461061000824,
      0.03984585031867027,
      0.0549548901617527,
      -0.9138326644897461,
      -0.07145881652832031,
      0.01882842741906643,
      -0.11759911477565765,
      0.018550856038928032,
      -0.29151421785354614,
      0.018543830141425133,
      0.008653854951262474,
      -0.6930479407310486,
      -0.5132534503936768,
      -0.05488995462656021,
      -2.587179660797119,
      -0.10522116720676422,
      -1.2913984060287476,
      0.09071771055459976,
      -0.06558852642774582,
      -0.05854484811425209,
      0.08494161069393158,
      -0.18586011230945587,
      -1.20778226852417,
      0.007298837415874004,
      -1.1493126153945923,
      -1.562292218208313,
      -0.07137908041477203,
      -1.888370394706726,
      -0.08574982732534409,
      -1.763660192489624
    ],
    [
      0.21389149129390717,
      0.275214821100235,
      0.04269340634346008,
      -0.1217847391963005,
      -0.4880635142326355,
      0.4518144428730011,
      0.1348130851984024,
      -0.1024220883846283,
      0.10760334879159927,
      -0.06223820149898529,
      0.19175483286380768,
      -0.09514909237623215,
      -0.08319250494241714,
      0.24160407483577728,
      0.4302985370159149,
      0.00834518764168024,
      0.5963926315307617,
      -0.04814065247774124,
      1.3145688772201538,
      -0.23656798899173737,
      0.022086046636104584,
      -0.8171533942222595,
      0.04835474491119385,
      0.09695181995630264,
      0.19246923923492432,
      -0.019117187708616257,
      1.1486821174621582,
      0.2581448256969452,
      0.0010368539951741695,
      0.82616126537323,
      0.14284780621528625,
      0.4239068031311035
    ],
    [
      -2.6776182651519775,
      -0.5042440891265869,
      -0.04342655837535858,
      0.07690539956092834,
      0.11699339747428894,
      -1.1163299083709717,
      0.005901256110519171,
      -0.002397021744400263,
      -0.0126572884619236,
      0.015164433047175407,
      -0.13233034312725067,
      0.06353098154067993,
      0.001716148923151195,
      -0.5071470737457275,
      -0.9217036366462708,
      -0.08126478642225266,
      -2.3752636909484863,
      -5.21790498169139e-05,
      -1.4830344915390015,
      0.09824103116989136,
      -0.024550100788474083,
      -0.1476367712020874,
      0.08513407409191132,
      -0.07022731751203537,
      -2.5500171184539795,
      -0.05790301412343979,
      -0.9221988916397095,
      -1.5189772844314575,
      -0.06678839772939682,
      -1.9920883178710938,
      0.022184446454048157,
      -2.702688694000244
    ],
    [
      -1.7238223552703857,
      -1.0463640689849854,
      -0.37205538153648376,
      0.002875171834602952,
      0.006735939532518387,
      -1.106756329536438,
      -1.2284924983978271,
      -0.0004938291385769844,
      -3.1019768714904785,
      0.009608195163309574,
      -2.2260758876800537,
      -0.010911207646131516,
      0.03688735142350197,
      -3.8174920082092285,
      -0.7102982997894287,
      -0.1341175138950348,
      -1.1645132303237915,
      -0.035037070512771606,
      -0.16459956765174866,
      0.030758550390601158,
      -0.1941247582435608,
      0.0055933501571416855,
      0.1084500104188919,
      -0.8283220529556274,
      -1.6150397062301636,
      -0.40546223521232605,
      -0.46633926033973694,
      -0.7895032167434692,
      -0.10793286561965942,
      -0.023104587569832802,
      -3.193603754043579,
      -0.8106328248977661
    ],
    [
      -0.5790151953697205,
      -0.3954933285713196,
      -3.9084808826446533,
      -0.012232869863510132,
      -0.06504485011100769,
      -1.1391772031784058,
      -2.591693639755249,
      0.006603957619518042,
      -1.9174555540084839,
      -0.015525439754128456,
      -0.224482923746109,
      -0.010009068064391613,
      0.009330904111266136,
      -1.2956280708312988,
      -1.160030722618103,
      -0.23196770250797272,
      -0.3244640827178955,
      -0.441589891910553,
      -0.22573141753673553,
      -0.055882759392261505,
      -1.2582871913909912,
      0.15320070087909698,
      0.018509581685066223,
      -2.8248398303985596,
      -0.8414554595947266,
      -3.2173194885253906,
      -0.14609909057617188,
      -0.6031227111816406,
      -3.76628041267395,
      -0.22406604886054993,
      -2.1575357913970947,
      -0.36230698227882385
    ],
    [
      -0.041442230343818665,
      -0.04035061225295067,
      -0.011323506943881512,
      -2.303900718688965,
      -0.7899001240730286,
      0.07372153550386429,
      -0.014571611769497395,
      -1.4318312406539917,
      -0.02314401976764202,
      -1.6861646175384521,
      0.007561000529676676,
      -3.5092825889587402,
      -1.1222985982894897,
      -0.055764421820640564,
      0.20858508348464966,
      -0.1632842719554901,
      -0.19313454627990723,
      -0.04897259920835495,
      0.03642267733812332,
      -1.1693741083145142,
      0.017235008999705315,
      -0.10444111377000809,
      -0.009559288620948792,
      -0.041153572499752045,
      -0.09550866484642029,
      -0.03759694844484329,
      -0.614118218421936,
      -0.003946916200220585,
      -0.02524394541978836,
      -0.16737580299377441,
      -0.07295779883861542,
      -0.02236088551580906
    ],
    [
      -0.608340859413147,
      -0.8343490958213806,
      -0.009756388142704964,
      0.09235848486423492,
      0.16642069816589355,
      -1.2994976043701172,
      -0.004301553592085838,
      0.030596524477005005,
      -0.06694125384092331,
      0.07660409808158875,
      -0.34023478627204895,
      0.06405506283044815,
      -0.07419455051422119,
      -0.2526450455188751,
      -0.8278606534004211,
      -0.17310276627540588,
      -1.5021260976791382,
      -0.0758204460144043,
      -0.8130024671554565,
      0.16966362297534943,
      0.0589464046061039,
      -0.28921517729759216,
      0.034242644906044006,
      -0.012545038014650345,
      -1.56161630153656,
      0.04545224457979202,
      -1.4379216432571411,
      -2.0760514736175537,
      -0.03312953934073448,
      -2.0988781452178955,
      0.019496286287903786,
      -2.1328682899475098
    ]
  ],
  "fc2.bias": [
    0.32485178112983704,
    0.34049054980278015,
    0.2779165804386139,
    0.15420587360858917,
    0.2478305846452713,
    0.144515722990036,
    0.1693781465291977,
    -0.24036306142807007,
    0.3551475405693054,
    0.3654170632362366,
    -0.1208321750164032,
    0.19794173538684845,
    0.2126782238483429,
    0.14711378514766693,
    0.17027205228805542,
    0.3158378303050995,
    0.325092077255249,
    -0.6299533843994141,
    0.41362684965133667,
    0.3735690116882324,
    -0.3089510202407837,
    0.29627373814582825,
    0.1890740692615509,
    0.1395963579416275,
    0.3049508333206177,
    0.31374412775039673,
    0.17397485673427582,
    0.27592673897743225,
    0.3053549528121948,
    0.288497656583786,
    0.41541025042533875,
    0.28166553378105164
  ],
  "fc3.weight": [
    [
      -0.1507066786289215,
      0.185642808675766,
      -0.14421793818473816,
      0.13582906126976013,
      -0.2682327628135681,
      0.14439186453819275,
      0.13768774271011353,
      -0.021173177286982536,
      -0.12342721223831177,
      -0.15902623534202576,
      0.6059848666191101,
      0.1292279064655304,
      0.1522035449743271,
      0.14803925156593323,
      0.13575370609760284,
      -0.2709324061870575,
      -0.16296404600143433,
      1.3690693378448486,
      0.2808091640472412,
      -0.27392372488975525,
      -0.46315285563468933,
      -0.09773426502943039,
      0.1568557173013687,
      0.14684392511844635,
      -0.13102762401103973,
      -0.1478704810142517,
      0.1243322491645813,
      -0.13642394542694092,
      -0.20445773005485535,
      -0.48742368817329407,
      0.6101056337356567,
      -0.10301569849252701
    ]
  ],
  "fc3.bias": [
    0.08277733623981476
  ]
}