{
  "net.0.weight": [
    [
      -0.4834780693054199,
      -0.1102297306060791
    ],
    [
      0.1426280438899994,
      0.36127305030822754
    ],
    [
      -0.2863304913043976,
      -0.03820604830980301
    ],
    [
      0.4801233410835266,
      0.6624511480331421
    ],
    [
      0.05168912559747696,
      0.07040857523679733
    ],
    [
      0.0016691312193870544,
      -0.9161600470542908
    ],
    [
      -0.014908763580024242,
      0.5550306439399719
    ],
    [
      0.08934971690177917,
      -0.370001882314682
    ],
    [
      -0.5221464037895203,
      0.03731745854020119
    ],
    [
      0.1350555270910263,
      0.07288563996553421
    ],
    [
      -0.6719909906387329,
      -0.20439118146896362
    ],
    [
      -0.2453831434249878,
      -0.7153044939041138
    ],
    [
      -0.3741423785686493,
      0.18870258331298828
    ],
    [
      -0.32891878485679626,
      -0.2956065237522125
    ],
    [
      0.7292999029159546,
      -0.46160948276519775
    ],
    [
      0.503285825252533,
      0.5256900787353516
    ],
    [
      -0.6816046833992004,
      0.15434639155864716
    ],
    [
      0.7110132575035095,
      -0.26151183247566223
    ],
    [
      0.5925447344779968,
      -0.33818888664245605
    ],
    [
      -0.19452795386314392,
      0.17268681526184082
    ],
    [
      0.45372274518013,
      0.4703003764152527
    ],
    [
      -0.2311767339706421,
      -0.7717005014419556
    ],
    [
      0.26207035779953003,
      0.19026346504688263
    ],
    [
      -0.4117089509963989,
      -0.1379365772008896
    ],
    [
      -0.24256746470928192,
      0.04795631021261215
    ],
    [
      -0.09345634281635284,
      0.4984337389469147
    ],
    [
      -0.29332831501960754,
      0.022099992260336876
    ],
    [
      -0.04735058546066284,
      0.12999331951141357
    ],
    [
      -0.2807753384113312,
      -0.1745789647102356
    ],
    [
      0.3729487359523773,
      -0.37123292684555054
    ],
    [
      -0.07543882727622986,
      -0.08304654806852341
    ],
    [
      0.6232948899269104,
      -0.5165117979049683
    ],
    [
      0.22595632076263428,
      0.8473464250564575
    ],
    [
      -0.2867341935634613,
      -1.197865605354309
    ],
    [
      -0.33430519700050354,
      -0.578981339931488
    ],
    [
      -0.23923559486865997,
      -0.06781396269798279
    ],
    [
      0.17805518209934235,
      -0.30756133794784546
    ],
    [
      0.10479354858398438,
      -0.4837506413459778
    ],
    [
      0.030280977487564087,
      -0.26810136437416077
    ],
    [
      0.19653622806072235,
      0.7138221263885498
    ],
    [
      -0.680859386920929,
      0.3658600449562073
    ],
    [
      -0.3328888416290283,
      0.01898324303328991
    ],
    [
      0.39672502875328064,
      0.5405475497245789
    ],
    [
      -0.2170785367488861,
      -0.03549772500991821
    ],
    [
      -0.4179806411266327,
      -1.4008504152297974
    ],
    [
      0.3433850407600403,
      0.6862671375274658
    ],
    [
      -0.3240932822227478,
      0.9335294365882874
    ],
    [
      0.03176917880773544,
      0.5696452260017395
    ],
    [
      0.09341120719909668,
      -0.20021910965442657
    ],
    [
      0.164524644613266,
      -0.23664139211177826
    ],
    [
      0.5459578633308411,
      0.4298628270626068
    ],
    [
      0.403981477022171,
      0.7050542831420898
    ],
    [
      0.7896261811256409,
      -0.47482770681381226
    ],
    [
      -0.6059864163398743,
      0.22920191287994385
    ],
    [
      -0.6218759417533875,
      -0.11387041211128235
    ],
    [
      -0.29079872369766235,
      0.7992321252822876
    ],
    [
      0.29270464181900024,
      0.986651599407196
    ],
    [
      -0.2547570765018463,
      -0.23308490216732025
    ],
    [
      -0.0002727215178310871,
      -0.0018119137967005372
    ],
    [
      -0.3324829339981079,
      -0.03961077332496643
    ],
    [
      0.29778674244880676,
      -0.4232495129108429
    ],
    [
      -0.23004311323165894,
      -0.48415592312812805
    ],
    [
      0.294648140668869,
      0.8944988250732422
    ],
    [
      0.00491098640486598,
      0.6885645389556885
    ]
  ],
  "net.0.bias": [
    0.5747896432876587,
    0.29406604170799255,
    0.29253917932510376,
    -0.5190654993057251,
    -0.31668171286582947,
    -0.422468900680542,
    -0.6258972883224487,
    0.5092548131942749,
    0.722868025302887,
    -0.20771867036819458,
    0.3443264067173004,
    -0.5161312222480774,
    -0.295904278755188,
    0.7197226881980896,
    0.6590766906738281,
    -0.6629840731620789,
    -0.26967212557792664,
    -0.5595075488090515,
    0.46112579107284546,
    -0.31523966789245605,
    -0.7167422771453857,
    -0.4544414281845093,
    -0.2008482664823532,
    -0.07832527905702591,
    0.08878348022699356,
    0.047983404248952866,
    0.2515890300273895,
    -0.829026460647583,
    -0.23609843850135803,
    0.1954057663679123,
    0.256236732006073,
    0.7843084931373596,
    -0.24144412577152252,
    0.0952255129814148,
    0.8128682971000671,
    0.16664963960647583,
    0.7671642303466797,
    1.6862188577651978,
    0.8175653219223022,
    -0.2153654247522354,
    -0.1431128978729248,
    0.07495614141225815,
    0.28803208470344543,
    0.1250537633895874,
    0.6894044876098633,
    -0.309225857257843,
    -0.6856817603111267,
    -0.2779930531978607,
    0.3397177457809448,
    0.32650795578956604,
    -0.4513857960700989,
    -0.48294350504875183,
    0.6751359105110168,
    -0.3139778971672058,
    -0.3106810748577118,
    -0.17303097248077393,
    -0.7470049858093262,
    1.2538840770721436,
    0.00035528489388525486,
    0.7262734770774841,
    1.215004324913025,
    -0.39786502718925476,
    -0.6983091831207275,
    -0.1515660136938095
  ],
  "net.2.weight": [
    [
      -0.13481634855270386,
      0.10692043602466583,
      -0.03456062823534012,
      0.0027866517193615437,
      -0.052138980478048325,
      -0.08746372908353806,
      0.009524689987301826,
      0.05813717097043991,
      -0.1210722029209137,
      -0.069070965051651,
      0.02149946801364422,
      0.07638519257307053,
      0.07716584950685501,
      0.058428213000297546,
      -0.12339446693658829,
      0.09955570846796036,
      0.0861886516213417,
      0.024384163320064545,
      0.030516626313328743,
      -0.08203612267971039,
      0.03547750413417816,
      -0.16486002504825592,
      -0.09189348667860031,
      0.02014688402414322,
      -0.06156549230217934,
      0.02817402593791485,
      0.0794820487499237,
      0.1192902997136116,
      -0.061471715569496155,
      -0.12619434297084808,
      -0.006480083335191011,
      0.08270736783742905,
      -0.016158806160092354,
      -0.0003341959381941706,
      -0.05942845344543457,
      0.08040165156126022,
      0.007138629909604788,
      0.01435244269669056,
      0.004716226365417242,
      -0.07229923456907272,
      0.020231027156114578,
      0.053641680628061295,
      0.040464457124471664,
      -0.03298626095056534,
      0.07681089639663696,
      0.1039028912782669,
      0.07001251727342606,
      -0.12374414503574371,
      -0.025706343352794647,
      0.05675932392477989,
      -0.09616634249687195,
      0.053785212337970734,
      0.05477309972047806,
      0.018146835267543793,
      -0.018109038472175598,
      0.033727630972862244,
      -0.12598572671413422,
      0.034842170774936676,
      0.017107272520661354,
      0.010418816469609737,
      -0.02812553383409977,
      -0.06035858020186424,
      -0.05908124893903732,
      -0.014660310931503773
    ],
    [
      -0.05246657878160477,
      0.12271862477064133,
      -0.07810256630182266,
      -0.002248958917334676,
      0.0461207814514637,
      0.08288446068763733,
      0.31066644191741943,
      -0.031609419733285904,
      -0.06200012192130089,
      0.11638593673706055,
      -0.15354546904563904,
      -0.10870368778705597,
      -0.13668355345726013,
      0.011090639978647232,
      -0.11068965494632721,
      0.044871386140584946,
      0.03226722776889801,
      -0.00040673112380318344,
      -0.10740887373685837,
      0.07812893390655518,
      0.08781081438064575,
      -0.03649154677987099,
      0.04577978327870369,
      -0.013542382046580315,
      0.07333613187074661,
      -0.017707541584968567,
      -0.03945789858698845,
      -0.010341281071305275,
      -0.11393202096223831,
      -0.06010857969522476,
      -0.054587576538324356,
      0.12484265863895416,
      0.23281079530715942,
      0.09708566218614578,
      -0.05864090099930763,
      -0.1441793143749237,
      -0.06864527612924576,
      0.05023745447397232,
      0.10206697136163712,
      0.1353083699941635,
      0.016047775745391846,
      -0.1324639767408371,
      0.11258555948734283,
      -0.0064629423432052135,
      -0.06940235942602158,
      0.2233119159936905,
      0.21891097724437714,
      0.09469661116600037,
      -0.010362126864492893,
      -0.02587113529443741,
      0.20274238288402557,
      0.17559944093227386,
      0.01231858879327774,
      -0.006859350483864546,
      -0.09125971049070358,
      0.055402763187885284,
      0.19569694995880127,
      -0.06107237935066223,
      0.0515827015042305,
      -0.02680082619190216,
      0.07406376302242279,
      -0.10023010522127151,
      0.13656416535377502,
      0.1993774026632309
    ],
    [
      -0.003636845387518406,
      -0.05100047215819359,
      -0.11772751808166504,
      0.1004573181271553,
      -0.030993999913334846,
      -0.06699392944574356,
      0.11896152049303055,
      -0.30547139048576355,
      -0.07760684192180634,
      -0.06321069598197937,
      -0.04865291342139244,
      0.12786921858787537,
      0.025147132575511932,
      -0.0016064660158008337,
      -0.17591044306755066,
      0.1101033017039299,
      0.11395231634378433,
      -0.15062130987644196,
      -0.0029389283154159784,
      -0.05279811844229698,
      0.04995749518275261,
      0.024691903963685036,
      0.03839590772986412,
      0.0994882732629776,
      -0.08155430853366852,
      0.04537445679306984,
      -0.12059681117534637,
      0.005086036864668131,
      0.15155574679374695,
      -0.14966453611850739,
      -0.11516296118497849,
      -0.05582919716835022,
      0.008367812260985374,
      -0.23639383912086487,
      -0.09237352013587952,
      -0.022240540012717247,
      -0.21358215808868408,
      -0.020967435091733932,
      -0.24817882478237152,
      -0.01466155331581831,
      -0.016071129590272903,
      0.01695079915225506,
      0.03750551864504814,
      0.12856638431549072,
      -0.2198457419872284,
      0.05495436117053032,
      -0.05327831581234932,
      0.1813257336616516,
      -0.08686520904302597,
      -0.008485004305839539,
      -0.05325707793235779,
      -0.03659693896770477,
      -0.08085343986749649,
      0.09147614985704422,
      0.08152581751346588,
      -0.03484850376844406,
      0.12492961436510086,
      -0.0594961941242218,
      -0.023682979866862297,
      -0.08567781001329422,
      -0.18221037089824677,
      0.13453589379787445,
      -0.0038049446884542704,
      0.15408188104629517
    ],
    [
      -0.038713619112968445,
      0.13396058976650238,
      -0.022971322759985924,
      -0.016197914257645607,
      -0.13771496713161469,
      -0.15150989592075348,
      -0.19611166417598724,
      -0.02037840150296688,
      0.1000613197684288,
      7.700850255787373e-05,
      -0.16324976086616516,
      -0.2173057198524475,
      -0.26173633337020874,
      -0.17546063661575317,
      0.3598461151123047,
      -0.2212090939283371,
      -0.2079419195652008,
      -0.03624734655022621,
      0.11629553139209747,
      -0.08276485651731491,
      -0.2709783911705017,
      -0.25300419330596924,
      0.06118384376168251,
      -0.17856121063232422,
      -0.16801699995994568,
      0.0459308922290802,
      0.031807877123355865,
      -0.299094021320343,
      -0.016459593549370766,
      0.22333963215351105,
      -0.11485344916582108,
      0.09908353537321091,
      -0.03559734299778938,
      -0.3453456163406372,
      -0.2068479210138321,
      -0.24757596850395203,
      0.3069463074207306,
      0.12023798376321793,
      -0.0532957948744297,
      -0.02785395085811615,
      -0.14980952441692352,
      -0.16082710027694702,
      0.06200689822435379,
      -0.014124971814453602,
      -0.35404205322265625,
      -0.015103958547115326,
      -0.4433470070362091,
      -0.11154273897409439,
      0.2062683254480362,
      0.10177983343601227,
      -0.037399400025606155,
      -0.19975939393043518,
      0.2936527132987976,
      -0.20024849474430084,
      -0.3052549660205841,
      -0.2876361310482025,
      -0.6222435235977173,
      0.08671926707029343,
      -0.018148740753531456,
      0.004823522176593542,
      0.3080585300922394,
      -0.1257135570049286,
      -0.42257967591285706,
      -0.040921904146671295
    ],
    [
      0.043934714049100876,
      0.06036597490310669,
      -0.00857384130358696,
      0.019233690574765205,
      0.1258353590965271,
      -0.042991071939468384,
      0.06615570187568665,
      0.11719311028718948,
      0.050803132355213165,
      -0.031659334897994995,
      0.12297461926937103,
      -0.0577133446931839,
      -0.05702365189790726,
      0.0446014441549778,
      -0.07450792193412781,
      -0.06377395242452621,
      0.04894048348069191,
      0.005729444324970245,
      -0.09349797666072845,
      -0.10287728905677795,
      0.00897183082997799,
      0.08683879673480988,
      0.12571251392364502,
      -0.09496293216943741,
      -0.0430963896214962,
      0.14055520296096802,
      -0.14602388441562653,
      -0.028798570856451988,
      -0.0036113476380705833,
      0.07759610563516617,
      -0.044132720679044724,
      0.01831713691353798,
      -0.07934413850307465,
      0.04538813233375549,
      -0.03369082883000374,
      -0.02324449084699154,
      -0.038389623165130615,
      -0.10942531377077103,
      0.0505334697663784,
      -0.08001845329999924,
      -0.06303142756223679,
      -0.06877602636814117,
      -0.0858442485332489,
      0.06608185917139053,
      0.022819407284259796,
      -0.09393469244241714,
      -0.05156292766332626,
      0.13609115779399872,
      0.011540422216057777,
      0.01619402877986431,
      0.017562510445713997,
      -0.06709742546081543,
      -0.10005375742912292,
      0.08229975402355194,
      0.07415802031755447,
      -0.08156310766935349,
      -0.01578320935368538,
      -0.06694117188453674,
      -0.05986921861767769,
      -0.148812398314476,
      -0.01824982278048992,
      -0.12006276845932007,
      0.09274394810199738,
      0.004312178120017052
    ],
    [
      -0.07219699770212173,
      -0.007704642601311207,
      -0.16232779622077942,
      0.005031476728618145,
      -0.005954848136752844,
      0.16029594838619232,
      0.31540966033935547,
      -0.058618467301130295,
      -0.10681652277708054,
      -0.12595169246196747,
      -0.16384990513324738,
      0.0033149418886750937,
      -0.11647025495767593,
      -0.03147756680846214,
      -0.10678963363170624,
      0.21207295358181,
      -0.015170764178037643,
      0.01486934069544077,
      -0.04079672694206238,
      -0.008257720619440079,
      0.05905706807971001,
      0.07352994382381439,
      -0.03740847110748291,
      -0.054646726697683334,
      0.10021442174911499,
      0.14836303889751434,
      0.08422452956438065,
      0.04235714673995972,
      -0.0422045961022377,
      -0.10428672283887863,
      -0.022934284061193466,
      -0.08978720754384995,
      0.2071368396282196,
      0.11737097799777985,
      -0.0383618026971817,
      -0.007508317474275827,
      -0.06939688324928284,
      -0.021438688039779663,
      0.0009788080351427197,
      0.032446183264255524,
      -0.0938112884759903,
      -0.06679306924343109,
      -0.01832406222820282,
      0.05988471210002899,
      0.14052355289459229,
      0.18858906626701355,
      0.16112631559371948,
      0.22029942274093628,
      -0.11975451558828354,
      0.015381966717541218,
      0.17840507626533508,
      0.04551417753100395,
      0.01341648306697607,
      -0.05023359879851341,
      -0.11507503688335419,
      0.12207548320293427,
      0.3191668689250946,
      -0.027668744325637817,
      -0.006071076262742281,
      -0.05463431403040886,
      -0.20255783200263977,
      -0.01853891834616661,
      0.15128962695598602,
      0.11680705100297928
    ],
    [
      -0.015287796966731548,
      -0.05440099537372589,
      -0.017999107018113136,
      0.09468038380146027,
      0.015461286529898643,
      -0.04026999697089195,
      0.03236572444438934,
      -0.05610048770904541,
      -0.11124801635742188,
      -0.0696198046207428,
      0.03750096261501312,
      0.010705165565013885,
      -0.14004628360271454,
      -0.0036897752434015274,
      0.012948340736329556,
      0.038801878690719604,
      0.012697738595306873,
      -0.16011430323123932,
      0.1262378990650177,
      -0.12148570269346237,
      -0.11331237107515335,
      -0.08993994444608688,
      0.046862781047821045,
      0.07704601436853409,
      -0.047359488904476166,
      -0.10276028513908386,
      -0.09099505096673965,
      0.09710351377725601,
      -0.12498362362384796,
      -0.017706604674458504,
      0.07627154886722565,
      0.06327404826879501,
      0.06937477737665176,
      -0.07838889956474304,
      0.08895164728164673,
      0.051496755331754684,
      -0.10677062720060349,
      -0.07314644008874893,
      0.044569775462150574,
      -0.09129786491394043,
      0.02804357372224331,
      -0.11075244098901749,
      -0.01051277108490467,
      -0.03418624773621559,
      0.022256065160036087,
      0.03653958812355995,
      0.10893536359071732,
      -0.04884714260697365,
      -0.0509595051407814,
      -0.13229788839817047,
      -0.05327000468969345,
      -0.07576508820056915,
      -0.014834283851087093,
      -0.03687683865427971,
      0.14025673270225525,
      0.005296425428241491,
      0.051153622567653656,
      0.09434106945991516,
      -0.14337320625782013,
      0.08845074474811554,
      0.0658298209309578,
      0.038335636258125305,
      -0.012943273410201073,
      0.06027506664395332
    ],
    [
      0.05583863705396652,
      -0.09292303770780563,
      0.0524965301156044,
      0.010043667629361153,
      0.0625123530626297,
      -0.053597740828990936,
      0.071573406457901,
      -0.022816410288214684,
      0.06434010714292526,
      0.10937748849391937,
      -0.03190068528056145,
      0.0003860380675178021,
      0.11091203987598419,
      0.020599568262696266,
      0.018569065257906914,
      -0.0887376144528389,
      -0.06519300490617752,
      0.03939918428659439,
      0.15443114936351776,
      -0.015086465515196323,
      -1.891069405246526e-05,
      -0.0700690820813179,
      0.16133877635002136,
      0.050372619181871414,
      -0.09541253745555878,
      0.02550922892987728,
      0.03330203518271446,
      -0.04670040309429169,
      -0.07079184055328369,
      -0.08145918697118759,
      0.058207061141729355,
      -0.05762697011232376,
      0.024877075105905533,
      -0.052768461406230927,
      0.09732772409915924,
      -0.1039964035153389,
      -0.026425179094076157,
      -0.043746378272771835,
      -0.008946086280047894,
      0.0010986403794959188,
      -0.041443243622779846,
      -0.029353583231568336,
      0.01015989389270544,
      -0.014921479858458042,
      0.06267210096120834,
      -0.08313269913196564,
      -0.0044727870263159275,
      -0.03923100233078003,
      -0.06530676782131195,
      0.0837622582912445,
      -0.025044746696949005,
      -0.01470231357961893,
      0.05517599359154701,
      -0.01824086345732212,
      -0.04761260375380516,
      0.02443019300699234,
      0.041800085455179214,
      0.0019311991054564714,
      0.07899826020002365,
      -0.052932869642972946,
      -0.14740434288978577,
      -0.09530667215585709,
      -0.017181184142827988,
      -0.062348514795303345
    ],
    [
      -0.026852931827306747,
      -0.0010356191778555512,
      0.10123485326766968,
      -0.04080156236886978,
      -0.049747541546821594,
      -0.07313943654298782,
      0.10354553908109665,
      0.06174831837415695,
      0.030065089464187622,
      -0.007988915778696537,
      -0.057287804782390594,
      -0.04715774580836296,
      0.0216416846960783,
      0.0727234035730362,
      0.055336058139801025,
      -0.0885179191827774,
      0.0877523273229599,
      -0.12326718866825104,
      0.019580449908971786,
      0.01362212747335434,
      -0.09346038848161697,
      -0.025721553713083267,
      0.03580231964588165,
      0.04209870845079422,
      -0.005865413695573807,
      -0.03251022845506668,
      0.00011033906048396602,
      -0.052421677857637405,
      -0.0929756686091423,
      -0.10309398919343948,
      -0.05888881906867027,
      -0.005966625176370144,
      -0.018215997144579887,
      0.11262809485197067,
      -0.10105645656585693,
      0.10568192601203918,
      0.06403505802154541,
      -0.02401549369096756,
      -0.13939520716667175,
      0.046914100646972656,
      -0.008041104301810265,
      0.051863111555576324,
      0.009010033681988716,
      0.0725020095705986,
      0.04836500063538551,
      0.06531302630901337,
      0.016343288123607635,
      -0.025764266029000282,
      0.09358525276184082,
      -0.11312644183635712,
      0.08240002393722534,
      0.05338162183761597,
      0.08243303000926971,
      -0.06276412308216095,
      0.05072423443198204,
      -0.06229904294013977,
      -0.004295680206269026,
      -0.0945340245962143,
      -0.07897058874368668,
      -0.057812053710222244,
      -0.06315574049949646,
      -0.14645613729953766,
      -0.14353284239768982,
      -0.0029929070733487606
    ],
    [
      -0.24293220043182373,
      -0.10083408653736115,
      -0.06138479709625244,
      0.05236345902085304,
      0.001780266291461885,
      -0.20070970058441162,
      0.2627539038658142,
      -0.4348548352718353,
      -0.04023619741201401,
      0.033211980015039444,
      -0.18415240943431854,
      -0.03385453671216965,
      0.2039751261472702,
      -0.40440866351127625,
      -0.05185021460056305,
      0.10000267624855042,
      0.167748361825943,
      0.23951095342636108,
      0.22255009412765503,
      0.2998632788658142,
      0.25072363018989563,
      -0.086664117872715,
      0.09920498728752136,
      -0.009731117635965347,
      0.13995608687400818,
      -0.025395317003130913,
      -0.049424149096012115,
      0.09257926791906357,
      -0.07641001045703888,
      -0.08475317060947418,
      -0.14790362119674683,
      -0.009878632612526417,
      -0.055716246366500854,
      -0.3698729872703552,
      -0.4945288896560669,
      -0.2610584497451782,
      -0.4931105971336365,
      -0.9253882765769958,
      -0.6681085228919983,
      0.011992985382676125,
      0.13543052971363068,
      0.032787617295980453,
      0.04881977662444115,
      -0.062328457832336426,
      -0.5954029560089111,
      0.01827232725918293,
      0.2814793288707733,
      -0.043712466955184937,
      -0.07962232828140259,
      -0.03493041172623634,
      0.11960842460393906,
      -0.020393606275320053,
      -0.05570836365222931,
      0.29206109046936035,
      0.3055468797683716,
      -0.005890894681215286,
      -0.13362812995910645,
      -0.44804856181144714,
      0.16577908396720886,
      -0.059127844870090485,
      -0.48135918378829956,
      -0.10022365301847458,
      -0.21012206375598907,
      -0.09341828525066376
    ],
    [
      -0.1981305330991745,
      -0.030244896188378334,
      -0.10103011131286621,
      0.07164444774389267,
      0.15300621092319489,
      0.18197324872016907,
      0.18572171032428741,
      0.008748862892389297,
      -0.09965839982032776,
      -0.04882556572556496,
      -0.2076282799243927,
      0.15229330956935883,
      0.06564193218946457,
      -0.19903531670570374,
      0.035964857786893845,
      0.18077081441879272,
      0.04786811023950577,
      -0.11155867576599121,
      -0.060021452605724335,
      0.0418010950088501,
      0.18385528028011322,
      0.03919949755072594,
      0.07716663181781769,
      -0.004379234742373228,
      0.07202942669391632,
      0.07777533680200577,
      -0.018567197024822235,
      -0.0007680564885959029,
      0.05563696473836899,
      -0.07210679352283478,
      -0.11003811657428741,
      0.08833576738834381,
      0.04401763156056404,
      0.12714272737503052,
      0.12484420835971832,
      -0.04429653659462929,
      -0.02002437226474285,
      -0.0517866425216198,
      -0.007052791304886341,
      0.07949919998645782,
      0.0048638214357197285,
      0.05908213183283806,
      0.1329084038734436,
      -0.09968499094247818,
      0.0340239517390728,
      -0.030562419444322586,
      0.2074749916791916,
      0.21715626120567322,
      0.06190243363380432,
      0.024309754371643066,
      0.12504324316978455,
      0.1385597288608551,
      -0.16308167576789856,
      -0.019276907667517662,
      -0.05786869674921036,
      0.11849499493837357,
      0.13145166635513306,
      -0.004505263175815344,
      -0.02075023017823696,
      -0.03216303512454033,
      -0.1336221694946289,
      0.02122214250266552,
      0.30867189168930054,
      0.16713324189186096
    ],
    [
      -0.21104519069194794,
      0.12314306944608688,
      -0.11510138213634491,
      0.19959509372711182,
      0.09039744734764099,
      0.16181810200214386,
      0.9180878400802612,
      -0.23092417418956757,
      -0.07334402203559875,
      0.04910239204764366,
      0.060195766389369965,
      0.3962145149707794,
      0.027587147429585457,
      -0.14979495108127594,
      -0.25178202986717224,
      0.21907465159893036,
      -0.10349376499652863,
      0.019789665937423706,
      -0.1799984872341156,
      0.12364117056131363,
      0.45349007844924927,
      0.4074229598045349,
      -0.00875959824770689,
      -0.11946363747119904,
      -0.05910392478108406,
      0.16010110080242157,
      -0.01407575886696577,
      0.2737909257411957,
      -0.0561060793697834,
      -0.21828214824199677,
      -0.01714160479605198,
      -0.41665807366371155,
      0.31740471720695496,
      0.48690906167030334,
      -0.0014454240445047617,
      -0.05998656526207924,
      -0.6515711545944214,
      -0.4632342457771301,
      -0.38082802295684814,
      0.22716055810451508,
      0.024352140724658966,
      -0.06554803252220154,
      0.10148082673549652,
      0.05893773213028908,
      0.3894681930541992,
      0.2706167995929718,
      0.5509034395217896,
      0.2531031370162964,
      -0.09139323234558105,
      -0.19712552428245544,
      0.2967239320278168,
      0.38869333267211914,
      -0.1777271330356598,
      -0.05376409366726875,
      -0.023855537176132202,
      0.20818935334682465,
      0.544421911239624,
      -0.3597916066646576,
      -0.060663241893053055,
      -0.2500898241996765,
      -0.4574815630912781,
      0.1983231008052826,
      0.37082409858703613,
      0.36293506622314453
    ],
    [
      0.027342993766069412,
      0.044350605458021164,
      0.034554675221443176,
      -0.00459522008895874,
      0.04911063611507416,
      0.19509051740169525,
      0.414230614900589,
      -0.06411952525377274,
      -0.1428823620080948,
      -0.05182526633143425,
      -0.16891132295131683,
      0.1345018446445465,
      -0.036271657794713974,
      -0.11605839431285858,
      -0.0017966822488233447,
      0.08278589695692062,
      -0.06531380861997604,
      -0.02227591909468174,
      -0.011521033942699432,
      -0.07593317329883575,
      0.1760118156671524,
      0.060002394020557404,
      0.137495219707489,
      -0.02430724911391735,
      -0.08048955351114273,
      -0.03657500818371773,
      0.09319661557674408,
      0.06107434630393982,
      0.0824742466211319,
      -0.14157584309577942,
      -0.08677572011947632,
      -0.02747088484466076,
      0.12055753171443939,
      -0.021734468638896942,
      0.0330684557557106,
      -0.08674442023038864,
      -0.1201079711318016,
      -0.08558604121208191,
      -0.005977211985737085,
      0.07399757206439972,
      0.030128708109259605,
      -0.10642781108617783,
      0.14970165491104126,
      -0.07430217415094376,
      0.14713628590106964,
      0.18576347827911377,
      0.1359494924545288,
      0.2432584911584854,
      0.05698919668793678,
      -0.05375387519598007,
      0.019582318142056465,
      0.11578837782144547,
      -0.14377498626708984,
      -0.08103149384260178,
      -0.057706523686647415,
      0.19885271787643433,
      0.29326143860816956,
      0.01870582439005375,
      0.027732422575354576,
      -0.05095551162958145,
      -0.07072761654853821,
      -0.008701754733920097,
      0.31990495324134827,
      0.1390184611082077
    ],
    [
      -0.0648336336016655,
      -0.05266007408499718,
      -0.043981313705444336,
      0.11273782700300217,
      -0.09066404402256012,
      -0.0515005849301815,
      -0.07635883241891861,
      -0.07575961947441101,
      0.0023420879151672125,
      0.15080969035625458,
      -0.10043666511774063,
      -0.08244045078754425,
      -0.011486480012536049,
      0.10665059089660645,
      -0.08447687327861786,
      0.06245928257703781,
      0.047261495143175125,
      0.049117185175418854,
      0.0742986649274826,
      0.052373338490724564,
      0.00041106503340415657,
      0.03892071917653084,
      0.028954926878213882,
      -0.10290692001581192,
      0.007231299299746752,
      0.016988568007946014,
      -0.08601842820644379,
      -0.10959775745868683,
      -0.04034377634525299,
      0.0838773176074028,
      -0.06948449462652206,
      0.08865951746702194,
      0.07140970975160599,
      -0.02951350435614586,
      -0.10166937857866287,
      -0.02801297977566719,
      -0.029842019081115723,
      -0.011847216635942459,
      -0.08798491954803467,
      -0.13188929855823517,
      0.08565805852413177,
      -0.0247931070625782,
      -0.07922926545143127,
      -0.10992250591516495,
      0.07632831484079361,
      -0.03799079731106758,
      -0.022611208260059357,
      0.033288151025772095,
      0.10053014010190964,
      -0.030255131423473358,
      -0.09531858563423157,
      -0.031887538731098175,
      -0.08881523460149765,
      0.14544709026813507,
      0.09522857517004013,
      -0.07284852117300034,
      0.001020196359604597,
      0.06865596771240234,
      0.04231341555714607,
      -0.03364989906549454,
      -0.012932217679917812,
      -0.04221431165933609,
      -0.06306294351816177,
      0.07071392238140106
    ],
    [
      0.1162395104765892,
      -0.08022470772266388,
      0.046806223690509796,
      0.07933671027421951,
      -0.08873211592435837,
      -0.12137418240308762,
      -0.02277587726712227,
      0.09491235017776489,
      -0.004889503587037325,
      -0.06515127420425415,
      -0.029043395072221756,
      0.05441448092460632,
      -0.06987668573856354,
      0.04965679720044136,
      -0.020515361800789833,
      -0.09538836777210236,
      0.05618847534060478,
      0.06385929882526398,
      0.1445840746164322,
      -0.0060889832675457,
      -0.09126970916986465,
      -0.12867677211761475,
      0.1432705819606781,
      -0.055353499948978424,
      0.009953211061656475,
      -0.021374568343162537,
      0.045843783766031265,
      0.12557877600193024,
      -0.14687363803386688,
      -0.13868102431297302,
      0.0981631875038147,
      -0.1147858127951622,
      -0.06891711056232452,
      -0.011896399781107903,
      0.07937243580818176,
      -0.10431298613548279,
      -0.049568288028240204,
      0.011817016638815403,
      -0.06774009019136429,
      -0.0550832636654377,
      -0.056328579783439636,
      0.07683815062046051,
      -0.01497363205999136,
      -0.011845063418149948,
      0.03163737803697586,
      -0.07245315611362457,
      -0.0021706996485590935,
      0.06046557053923607,
      0.054513078182935715,
      -0.018420513719320297,
      0.13505081832408905,
      -0.02988738752901554,
      0.01801304891705513,
      -0.013295375742018223,
      -0.10892274975776672,
      0.1229163184762001,
      0.08775652199983597,
      -0.09664095193147659,
      -0.017936287447810173,
      -0.04248876869678497,
      0.08764971047639847,
      -0.013870098628103733,
      -0.012112725526094437,
      0.004141728859394789
    ],
    [
      -0.03778279200196266,
      -0.012647434137761593,
      0.024008162319660187,
      0.16228200495243073,
      0.09620292484760284,
      0.1504417508840561,
      0.3059127628803253,
      -0.013574806973338127,
      -0.1070467010140419,
      0.08815687894821167,
      0.052095040678977966,
      0.016585437580943108,
      -0.02902131900191307,
      -0.03017423488199711,
      -0.1583283245563507,
      0.14012163877487183,
      0.006776041816920042,
      -0.07610227912664413,
      0.0206791739910841,
      -0.040656160563230515,
      0.11001592874526978,
      0.19782708585262299,
      0.00039614131674170494,
      0.017844583839178085,
      -0.07171396911144257,
      -0.015896279364824295,
      0.020646998658776283,
      0.07449787110090256,
      0.13144443929195404,
      6.623016088269651e-05,
      -0.06448288261890411,
      -0.1725611686706543,
      0.1387576460838318,
      0.08012706786394119,
      -0.038934700191020966,
      0.022870413959026337,
      -0.1375570297241211,
      -0.16593186557292938,
      -0.08337590098381042,
      0.06258668750524521,
      0.08267981559038162,
      0.08769310265779495,
      -0.10393323749303818,
      -0.10033626854419708,
      0.14526624977588654,
      -0.031854066997766495,
      0.1565491110086441,
      0.1341695487499237,
      -0.12801432609558105,
      0.02229827269911766,
      0.0812133401632309,
      0.153998002409935,
      -0.10645069181919098,
      -0.02415532059967518,
      -0.08844766020774841,
      0.11168114095926285,
      0.32599613070487976,
      -0.1720259189605713,
      0.12582021951675415,
      -0.17722979187965393,
      -0.13909484446048737,
      0.04566672444343567,
      0.2684720456600189,
      0.010726677253842354
    ],
    [
      -0.21920204162597656,
      0.06024967506527901,
      -0.06237506493926048,
      0.012549079954624176,
      0.0799332708120346,
      0.058984287083148956,
      0.1582217812538147,
      0.10466884076595306,
      -0.09490525722503662,
      -0.0472407191991806,
      -0.11729152500629425,
      0.08677259832620621,
      -0.13103099167346954,
      -0.1451549232006073,
      -0.10220509022474289,
      0.1412532478570938,
      -0.13140270113945007,
      0.04515165835618973,
      0.030149681493639946,
      -0.11528020352125168,
      0.1342436671257019,
      0.016064584255218506,
      0.08296182006597519,
      0.02281823195517063,
      0.11796350032091141,
      0.09010273963212967,
      -0.1395104080438614,
      0.016555070877075195,
      -0.07711388915777206,
      -0.05685026943683624,
      -0.11121013015508652,
      0.04307226091623306,
      0.10507651418447495,
      0.13349030911922455,
      0.04924999922513962,
      -0.09371782839298248,
      0.022354355081915855,
      -0.1044282540678978,
      -0.04534360021352768,
      0.2004920244216919,
      0.011536560952663422,
      -0.053336452692747116,
      0.09037455171346664,
      -0.016415901482105255,
      0.10198449343442917,
      -0.035012781620025635,
      0.24304689466953278,
      0.08380549401044846,
      0.05680190771818161,
      -0.11845880001783371,
      0.07742480933666229,
      0.2022620588541031,
      0.13237053155899048,
      0.0030755712650716305,
      -0.18334239721298218,
      0.11780008673667908,
      0.21760815382003784,
      -0.1510927975177765,
      0.07105998694896698,
      0.029639143496751785,
      0.0022034374997019768,
      0.09531759470701218,
      0.1125597134232521,
      0.17570066452026367
    ],
    [
      -0.19196243584156036,
      0.07279186695814133,
      -0.0979360044002533,
      0.13043029606342316,
      0.016895556822419167,
      0.10167348384857178,
      0.2519721984863281,
      -0.05536949634552002,
      -0.010261435061693192,
      0.009361018426716328,
      -0.1207849383354187,
      0.12004492431879044,
      -0.07135320454835892,
      0.009633375331759453,
      -0.14216025173664093,
      0.11336660385131836,
      -0.008436980657279491,
      -0.021891046315431595,
      0.006696485448628664,
      0.01246904768049717,
      0.20886002480983734,
      -0.01721867173910141,
      0.08912751078605652,
      -0.02933553233742714,
      0.07971557229757309,
      0.16772422194480896,
      -0.04432621970772743,
      0.12214440107345581,
      -0.06034288555383682,
      -0.13548412919044495,
      0.11095723509788513,
      0.006302609574049711,
      0.031063174828886986,
      0.187734454870224,
      -0.10450141876935959,
      -0.102189801633358,
      -0.19820547103881836,
      -0.07768094539642334,
      -0.05160633102059364,
      0.14634722471237183,
      -0.09365659952163696,
      0.12336041033267975,
      -0.07809049636125565,
      0.01069592498242855,
      0.21997860074043274,
      0.15885360538959503,
      0.17792226374149323,
      0.24003326892852783,
      -0.05847606807947159,
      0.034018512815237045,
      0.04622342810034752,
      0.13659004867076874,
      -0.16685345768928528,
      0.03189609944820404,
      -0.08736751228570938,
      0.08261702954769135,
      0.24295783042907715,
      -0.19299627840518951,
      -0.05593438446521759,
      -0.03196120262145996,
      -0.03501664474606514,
      0.0739976167678833,
      0.13131217658519745,
      0.027790633961558342
    ],
    [
      -0.07287575304508209,
      -0.0854920968413353,
      0.05119645223021507,
      -0.006885148119181395,
      0.006315404549241066,
      -0.14967302978038788,
      -0.11588700860738754,
      -0.02304130606353283,
      -0.06974941492080688,
      0.017137277871370316,
      0.09800290316343307,
      0.07517038285732269,
      -0.10795606672763824,
      -0.09473389387130737,
      0.058524198830127716,
      -0.009797437116503716,
      -0.11562546342611313,
      0.007335152942687273,
      -0.013426539488136768,
      0.03267783671617508,
      0.09188536554574966,
      0.04907386749982834,
      0.0769759863615036,
      -0.10677077621221542,
      -0.03239963948726654,
      0.04869350045919418,
      0.10559233278036118,
      -0.11237059533596039,
      -0.13286811113357544,
      -0.10606425255537033,
      0.07132582366466522,
      0.09883072972297668,
      0.046295568346977234,
      0.05633743479847908,
      0.09208881109952927,
      0.028219619765877724,
      0.012057684361934662,
      -0.08700645714998245,
      0.14827480912208557,
      -0.014389580115675926,
      -0.09578999876976013,
      -0.018086643889546394,
      0.04697364568710327,
      -0.06857901066541672,
      -0.04601876810193062,
      -0.09933778643608093,
      0.028448954224586487,
      0.06020910292863846,
      -0.04635998234152794,
      -0.051763225346803665,
      -0.03147157281637192,
      -0.14470435678958893,
      0.045559708029031754,
      0.07620146125555038,
      -0.02386036328971386,
      0.024939129129052162,
      -0.04630175977945328,
      -0.10025539994239807,
      0.04758976027369499,
      0.13521616160869598,
      -0.006510634906589985,
      0.06906534731388092,
      0.09887515008449554,
      0.028565160930156708
    ],
    [
      0.13065408170223236,
      -0.11388454586267471,
      -0.0946660116314888,
      -0.060880567878484726,
      0.026106705889105797,
      -0.14901278913021088,
      0.006881430745124817,
      0.023220837116241455,
      -0.03447726368904114,
      0.06805361062288284,
      0.10348121076822281,
      -0.09663267433643341,
      -0.03943968936800957,
      -0.014123872853815556,
      -0.08866888284683228,
      -0.016453467309474945,
      -0.07552512735128403,
      -0.07938840240240097,
      -0.0005685247015208006,
      -0.06897509098052979,
      0.12169279903173447,
      0.03328284993767738,
      0.06068246811628342,
      -0.021000389009714127,
      -0.042513180524110794,
      0.11645573377609253,
      0.0401611328125,
      -0.05243312940001488,
      -0.01820889674127102,
      -0.08036860823631287,
      -0.013212587684392929,
      -0.01929563842713833,
      0.025787977501749992,
      0.07529734075069427,
      0.05740373954176903,
      -0.028798075392842293,
      -0.07373687624931335,
      -0.13038678467273712,
      0.08800779283046722,
      -0.03509541600942612,
      0.028154555708169937,
      -0.10869468748569489,
      0.03484740108251572,
      0.09866268187761307,
      -0.0043660718947649,
      -0.12917307019233704,
      0.057245660573244095,
      0.044609468430280685,
      0.13122180104255676,
      0.13153542578220367,
      -0.03665422275662422,
      -0.07731418311595917,
      0.13653689622879028,
      0.010106520727276802,
      -0.05321585014462471,
      -0.064088836312294,
      0.011022365652024746,
      -0.1371399164199829,
      -0.034274011850357056,
      -0.031258475035429,
      0.03229409083724022,
      0.009407167322933674,
      -0.018953446298837662,
      0.06999965012073517
    ],
    [
      0.094387486577034,
      -0.03938467055559158,
      0.12358063459396362,
      -0.12434577196836472,
      -0.03101542964577675,
      -0.06585352122783661,
      -0.10180722177028656,
      0.028308385983109474,
      -0.12382373213768005,
      -0.0420568585395813,
      0.040734924376010895,
      -0.010723566636443138,
      -0.090237095952034,
      0.11069756746292114,
      -0.026700936257839203,
      0.09021501988172531,
      0.0777030736207962,
      -0.08261971175670624,
      -0.03807900846004486,
      -0.0819065198302269,
      0.014310335740447044,
      0.042256712913513184,
      -0.00022842030739411712,
      -0.10816018283367157,
      0.09067822247743607,
      -0.028439609333872795,
      0.007552990224212408,
      -0.009689029306173325,
      -0.0757625550031662,
      -0.09511369466781616,
      -0.023487892001867294,
      0.0916224792599678,
      0.07435684651136398,
      -0.04143669828772545,
      0.049404580146074295,
      -0.030173655599355698,
      -0.13851363956928253,
      0.12459851056337357,
      0.04369601979851723,
      -0.07482690364122391,
      -0.06369216740131378,
      0.1208736002445221,
      -0.12085738033056259,
      0.05660712346434593,
      -0.03018791787326336,
      0.08999186009168625,
      0.07526789605617523,
      0.01918395794928074,
      0.08842463791370392,
      0.08548089116811752,
      0.03008919209241867,
      0.11082778126001358,
      0.08649705350399017,
      0.04355953261256218,
      -0.12332058697938919,
      0.13194827735424042,
      -0.012505234219133854,
      -0.09913798421621323,
      -0.10800156742334366,
      -0.11272425949573517,
      -0.1447373479604721,
      -0.08905742317438126,
      -0.07485030591487885,
      -0.0879364088177681
    ],
    [
      -0.396005243062973,
      -0.08232609182596207,
      -0.2947143614292145,
      0.26716312766075134,
      0.3192669153213501,
      0.7428959608078003,
      1.8233226537704468,
      -0.42182859778404236,
      -0.4017068147659302,
      0.14061479270458221,
      -0.13522067666053772,
      0.5792518258094788,
      0.14397546648979187,
      -0.3753623366355896,
      -0.57450270652771,
      0.3801068067550659,
      0.19893035292625427,
      0.5706490874290466,
      -0.31791985034942627,
      0.28609591722488403,
      0.723510205745697,
      0.6871774792671204,
      0.09360787272453308,
      0.19242338836193085,
      -0.06884556263685226,
      0.1123078390955925,
      -0.13372252881526947,
      0.40288245677948,
      0.24969430267810822,
      -0.09311548620462418,
      -0.11731145530939102,
      -0.5788074731826782,
      0.4438427984714508,
      0.8032660484313965,
      -0.026972107589244843,
      -0.12511494755744934,
      -1.1944644451141357,
      -1.4486407041549683,
      -0.9403916597366333,
      0.3872292637825012,
      0.2799215018749237,
      -0.13493311405181885,
      0.017758600413799286,
      0.028880471363663673,
      0.5737337470054626,
      0.42268428206443787,
      0.9397361874580383,
      0.4491029679775238,
      -0.44218289852142334,
      -0.2326997071504593,
      0.3556004762649536,
      0.39058032631874084,
      -0.5000653862953186,
      0.35290777683258057,
      0.12920299172401428,
      0.34797653555870056,
      0.7135100960731506,
      -0.908703625202179,
      -0.027119383215904236,
      -0.6468532681465149,
      -0.998637318611145,
      0.28010207414627075,
      0.6492514610290527,
      0.2993820011615753
    ],
    [
      0.03635970875620842,
      0.10343470424413681,
      0.05921988934278488,
      0.08879754692316055,
      0.14077776670455933,
      0.2557738125324249,
      0.5519921779632568,
      -0.10936324298381805,
      -0.09781264513731003,
      0.05522637441754341,
      0.10247431695461273,
      0.10080407559871674,
      0.07379959523677826,
      -0.04127805680036545,
      -0.32527995109558105,
      0.26575136184692383,
      -0.019619394093751907,
      0.17065712809562683,
      -0.16510432958602905,
      0.11146803200244904,
      0.3417995274066925,
      0.1966474950313568,
      0.08413650095462799,
      0.17312313616275787,
      -0.10076846182346344,
      0.12999039888381958,
      0.07602887600660324,
      0.15577180683612823,
      0.09548447281122208,
      -0.22144585847854614,
      0.10564716160297394,
      -0.27785974740982056,
      0.20715530216693878,
      0.3703170120716095,
      -0.06002640351653099,
      0.1402374505996704,
      -0.3528975546360016,
      -0.345882773399353,
      -0.17400561273097992,
      0.05182399973273277,
      0.06781051307916641,
      0.13371795415878296,
      0.06009583920240402,
      -0.0021959729492664337,
      0.1569853127002716,
      0.17985084652900696,
      0.1373102217912674,
      0.22455793619155884,
      -0.07111901789903641,
      -0.15589269995689392,
      0.27476993203163147,
      0.273118257522583,
      -0.10160930454730988,
      0.1868569403886795,
      0.1202855333685875,
      0.26063770055770874,
      0.44536009430885315,
      -0.01905900239944458,
      -0.009718245826661587,
      -0.0991009771823883,
      -0.41725409030914307,
      0.21500223875045776,
      0.38821473717689514,
      0.18852458894252777
    ],
    [
      -0.10143682360649109,
      0.04524495080113411,
      -0.011851334944367409,
      -0.06257085502147675,
      0.17631088197231293,
      -0.07327118515968323,
      0.06509264558553696,
      -0.1447855681180954,
      -0.08239421248435974,
      -0.03233759477734566,
      0.07249235361814499,
      -0.12170654535293579,
      0.07625016570091248,
      -0.005507681518793106,
      -0.030839303508400917,
      0.018467385321855545,
      0.012092780321836472,
      -0.11851654946804047,
      0.10435429960489273,
      0.10552488267421722,
      0.08091050386428833,
      -0.11829301714897156,
      0.10933570563793182,
      0.08113359659910202,
      0.008883638307452202,
      -0.007416857406497002,
      -0.04237412288784981,
      0.01306875329464674,
      0.049855489283800125,
      0.027698827907443047,
      -0.05354316532611847,
      -0.08614058792591095,
      0.07158586382865906,
      0.12114983052015305,
      0.029129330068826675,
      0.01866498589515686,
      0.05448763072490692,
      -0.08645249903202057,
      -0.10431504249572754,
      0.06987597048282623,
      0.09748028963804245,
      0.07080689817667007,
      -0.1170424371957779,
      0.08693239837884903,
      0.07431353628635406,
      -0.05429445952177048,
      0.03632897511124611,
      -0.020585162565112114,
      -0.12474378943443298,
      0.07902605086565018,
      0.04458247497677803,
      -0.011914909817278385,
      -0.11324088275432587,
      -0.03951305150985718,
      0.07677791267633438,
      -0.09628050774335861,
      -0.08344455063343048,
      0.05293497070670128,
      -0.008823884651064873,
      -0.18695774674415588,
      0.04414336755871773,
      -0.07783842831850052,
      -0.11689598113298416,
      -0.020533202216029167
    ],
    [
      -0.33923307061195374,
      -0.02898724377155304,
      -0.4318019151687622,
      0.3775408864021301,
      0.3807191550731659,
      0.6124779582023621,
      1.7692430019378662,
      -0.39155539870262146,
      -0.32569316029548645,
      0.10804753750562668,
      -0.09289661794900894,
      0.7963948845863342,
      0.22589348256587982,
      -0.30179598927497864,
      -0.5491422414779663,
      0.5878928303718567,
      0.2949543297290802,
      0.5697476863861084,
      -0.34111645817756653,
      0.3306006193161011,
      0.7035422325134277,
      0.7629793882369995,
      0.22525551915168762,
      0.2565883696079254,
      -0.06107943132519722,
      0.016081469133496284,
      -0.2700919806957245,
      0.4912269413471222,
      0.2844870984554291,
      -0.13844440877437592,
      -0.18175101280212402,
      -0.6971780061721802,
      0.39900854229927063,
      0.8662342429161072,
      -0.0031270631588995457,
      0.006955920252948999,
      -1.0411396026611328,
      -1.4510982036590576,
      -1.0174849033355713,
      0.31735625863075256,
      0.16289086639881134,
      -0.04424741491675377,
      0.03045700676739216,
      -0.04842228442430496,
      0.4530092179775238,
      0.3298893868923187,
      0.85890132188797,
      0.5179637670516968,
      -0.5111971497535706,
      -0.4105696380138397,
      0.32990798354148865,
      0.4032596945762634,
      -0.506691575050354,
      0.23042039573192596,
      0.2749638855457306,
      0.28375157713890076,
      0.8139328956604004,
      -0.8508845567703247,
      -0.03992687165737152,
      -0.6045359373092651,
      -1.104687213897705,
      0.3758948743343353,
      0.6915228366851807,
      0.3775247633457184
    ],
    [
      -0.10778146237134933,
      0.06709995865821838,
      -0.09242168813943863,
      0.20240093767642975,
      -0.08635640144348145,
      0.10242178291082382,
      0.3475370705127716,
      0.039028409868478775,
      -0.08685670047998428,
      0.025365950539708138,
      -0.1902325451374054,
      -0.010549802333116531,
      0.010034607723355293,
      0.004355980549007654,
      -0.10574599355459213,
      0.18099181354045868,
      -0.1402735710144043,
      -0.13282297551631927,
      -0.09861858189105988,
      -0.12898841500282288,
      0.09270983189344406,
      0.03744053095579147,
      -0.004808089695870876,
      -0.16914479434490204,
      -0.11258126050233841,
      0.16871234774589539,
      0.08528445661067963,
      -0.07127557694911957,
      -0.05363449454307556,
      -0.018498685210943222,
      -0.1014675572514534,
      0.010301520116627216,
      0.2622339427471161,
      0.14553290605545044,
      -0.14710117876529694,
      0.04607526585459709,
      -0.011641113087534904,
      0.08887200802564621,
      -0.10775059461593628,
      0.18035763502120972,
      -0.0020628569182008505,
      -0.16704462468624115,
      0.10184591263532639,
      -0.13711516559123993,
      0.14435593783855438,
      0.11848188936710358,
      0.2934596836566925,
      0.25962385535240173,
      0.038335930556058884,
      0.12998324632644653,
      0.09680242836475372,
      0.14516685903072357,
      0.07838033884763718,
      0.032090432941913605,
      -0.13323812186717987,
      0.08450543880462646,
      0.22770343720912933,
      -0.07522468268871307,
      -0.09005037695169449,
      0.005131923593580723,
      -0.043672818690538406,
      -0.09931709617376328,
      0.2087172418832779,
      0.1904645413160324
    ],
    [
      0.2491537183523178,
      -0.01103601511567831,
      0.24700766801834106,
      -0.26437613368034363,
      0.04258013889193535,
      -0.16794347763061523,
      -0.009273477829992771,
      0.05970603972673416,
      0.2270263433456421,
      -0.21471215784549713,
      0.15880970656871796,
      0.009365297853946686,
      0.07250344753265381,
      -0.00969729945063591,
      -0.04926065355539322,
      -0.023869594559073448,
      0.2886384129524231,
      -0.09362227469682693,
      -0.22570081055164337,
      0.025120897218585014,
      -0.020790571346879005,
      -0.0073675126768648624,
      -0.12506869435310364,
      0.25820642709732056,
      0.11739101260900497,
      -0.02368367277085781,
      0.04228546842932701,
      -0.025853674858808517,
      0.18743471801280975,
      -0.07751869410276413,
      -0.010742496699094772,
      -0.11548852175474167,
      -0.13655711710453033,
      -0.13638773560523987,
      0.14996559917926788,
      0.15375323593616486,
      0.08890427649021149,
      0.054196763783693314,
      0.008098102174699306,
      -0.21978674829006195,
      0.1703767329454422,
      0.1854034662246704,
      -0.219666987657547,
      0.16410000622272491,
      0.16878589987754822,
      -0.22313009202480316,
      0.037567105144262314,
      -0.1532951295375824,
      -0.034168269485235214,
      -0.006334066856652498,
      -0.06509533524513245,
      -0.23101487755775452,
      -0.017700722441077232,
      0.2921873927116394,
      0.2811671793460846,
      0.018389325588941574,
      -0.2288798987865448,
      0.12434863299131393,
      -0.0013425573706626892,
      0.17828452587127686,
      -0.03964107856154442,
      0.02058809995651245,
      -0.1756623387336731,
      -0.16389508545398712
    ],
    [
      -0.11481992155313492,
      -0.46910205483436584,
      0.10633521527051926,
      -0.041904348880052567,
      0.21919064223766327,
      0.0957343801856041,
      0.4256729185581207,
      -0.3607965409755707,
      0.03000711463391781,
      0.01605892740190029,
      0.06789381802082062,
      0.16728796064853668,
      0.3692370057106018,
      -0.035167425870895386,
      -0.3842929005622864,
      0.1641300469636917,
      0.3500153422355652,
      0.14569485187530518,
      -0.18292558193206787,
      0.6434703469276428,
      0.17667748034000397,
      0.019749239087104797,
      -0.029016979038715363,
      0.10832466930150986,
      -0.05439213663339615,
      -0.11356788128614426,
      -0.041255537420511246,
      0.4414069354534149,
      0.4444400370121002,
      -0.1568579524755478,
      -0.21228203177452087,
      -0.47052136063575745,
      -0.35193657875061035,
      -0.18165890872478485,
      -0.13355377316474915,
      -0.01598540134727955,
      -0.5780065059661865,
      -0.45652756094932556,
      -0.41475656628608704,
      -0.15257816016674042,
      0.15137846767902374,
      0.21475768089294434,
      -0.4466520845890045,
      -0.0061477054841816425,
      -0.09087034314870834,
      -0.3353234827518463,
      0.15494263172149658,
      -0.053127266466617584,
      -0.4314521849155426,
      -0.5017386078834534,
      -0.01112116314470768,
      -0.12569639086723328,
      -0.29839545488357544,
      0.2230881154537201,
      0.497130423784256,
      0.06872883439064026,
      -0.06876210123300552,
      -0.23353458940982819,
      -0.007835814729332924,
      -0.09815503656864166,
      -0.6509044170379639,
      0.28280094265937805,
      0.011048151180148125,
      -0.12844450771808624
    ],
    [
      -0.16072094440460205,
      0.03930143639445305,
      -0.042920615524053574,
      -0.03283270448446274,
      0.017079636454582214,
      -0.023788267746567726,
      -0.1671268194913864,
      -0.03778151422739029,
      -0.18352746963500977,
      -0.14203450083732605,
      -0.03262142837047577,
      0.23446513712406158,
      -0.036803796887397766,
      0.00045203379704616964,
      -0.3129923939704895,
      0.0776461511850357,
      -0.07634049654006958,
      -0.23857833445072174,
      -0.004156377166509628,
      0.013172742910683155,
      0.07016143202781677,
      0.07056679576635361,
      0.014350522309541702,
      0.015087336301803589,
      -0.24850305914878845,
      -0.15486745536327362,
      -0.08218738436698914,
      0.06798155605792999,
      0.034243423491716385,
      -0.2633703052997589,
      0.0036859323736280203,
      -0.33488643169403076,
      0.08506695926189423,
      0.11500142514705658,
      0.07323573529720306,
      0.041365914046764374,
      -0.14310085773468018,
      -0.18412242829799652,
      0.020479222759604454,
      0.07294522970914841,
      -0.22278949618339539,
      -0.04776672273874283,
      0.0029870893340557814,
      -0.10326069593429565,
      -0.01561788935214281,
      -0.11292590945959091,
      -0.1570519208908081,
      -0.06722529977560043,
      -0.08869268745183945,
      -0.0674310177564621,
      -0.05666126683354378,
      0.08306971937417984,
      -0.3638193607330322,
      -0.0791826918721199,
      -0.11782615631818771,
      -0.1576920598745346,
      -0.05719882249832153,
      -0.1359909176826477,
      -0.07581034302711487,
      -0.13200190663337708,
      -0.09729425609111786,
      0.17797857522964478,
      -0.08304019272327423,
      -0.15175193548202515
    ],
    [
      -0.020511245355010033,
      -0.011825190857052803,
      -0.024181682616472244,
      -0.04090411961078644,
      0.10080546885728836,
      0.048246145248413086,
      -0.05286256596446037,
      0.11373040080070496,
      -0.134433776140213,
      -0.0019322935258969665,
      0.06283070147037506,
      0.05138586461544037,
      -0.07922246307134628,
      -0.02716195397078991,
      -0.05347740650177002,
      0.10399875044822693,
      -0.032265886664390564,
      0.05148676410317421,
      -0.006533836480230093,
      -0.010982529260218143,
      0.08398567885160446,
      0.00822395458817482,
      -0.049294259399175644,
      -0.09795720130205154,
      -0.05498163029551506,
      -0.08258216083049774,
      -0.008503556251525879,
      0.012614600360393524,
      -0.010186610743403435,
      -0.03572149947285652,
      0.007042244076728821,
      -0.0029834320303052664,
      0.10612824559211731,
      -0.02013387531042099,
      0.032826345413923264,
      0.08507873117923737,
      0.007316678762435913,
      0.11084394156932831,
      -0.10880658030509949,
      0.07086525857448578,
      -0.0027015272062271833,
      -0.04738656431436539,
      -0.07055912911891937,
      -0.07503682374954224,
      -0.040164072066545486,
      -0.02239699475467205,
      0.10804855823516846,
      -0.06867436319589615,
      0.05663282424211502,
      0.10545317083597183,
      0.07993092387914658,
      -0.08598793298006058,
      -0.07104311138391495,
      0.0985771119594574,
      -0.013954429887235165,
      0.05896741896867752,
      -0.11271189898252487,
      -0.03467557579278946,
      0.003661244409158826,
      0.004630911163985729,
      0.03203827142715454,
      -0.06550004333257675,
      0.07436385750770569,
      -0.06937336176633835
    ],
    [
      -0.03572516515851021,
      0.20159287750720978,
      0.044443342834711075,
      0.12180183082818985,
      0.022154027596116066,
      0.0642659068107605,
      0.19437435269355774,
      -0.08231763541698456,
      -0.12821681797504425,
      0.03390922024846077,
      -0.09607130289077759,
      -0.04049410670995712,
      0.0009841251885518432,
      -0.11463681608438492,
      0.20263901352882385,
      0.20254945755004883,
      -0.12397553771734238,
      0.04006261005997658,
      0.009802807122468948,
      0.02684638649225235,
      0.06760039925575256,
      -0.14970356225967407,
      0.19218780100345612,
      -0.025628678500652313,
      0.03751732036471367,
      0.22013118863105774,
      -0.052852217108011246,
      -0.017594726756215096,
      -0.20674344897270203,
      0.12297690659761429,
      0.15108218789100647,
      0.04701298475265503,
      0.20638911426067352,
      -0.1696508228778839,
      -0.009547647088766098,
      -0.05674920976161957,
      0.070551797747612,
      0.12058690935373306,
      0.008949179202318192,
      0.245961531996727,
      -0.1089945137500763,
      -0.17929379642009735,
      0.22333726286888123,
      -0.03491076081991196,
      -0.005050961393862963,
      0.19683925807476044,
      0.12207240611314774,
      0.26623088121414185,
      0.05620530992746353,
      0.018814634531736374,
      0.09735702723264694,
      0.17777396738529205,
      0.22557267546653748,
      -0.16972292959690094,
      -0.14455372095108032,
      0.24792034924030304,
      0.3250654637813568,
      0.09556472301483154,
      -0.020448848605155945,
      -0.06141455098986626,
      0.15022270381450653,
      0.00960522796958685,
      0.24095645546913147,
      0.11702943593263626
    ],
    [
      -0.13716456294059753,
      0.09903285652399063,
      -0.24603895843029022,
      0.011257640086114407,
      0.02457534521818161,
      0.19174429774284363,
      0.22323882579803467,
      0.12338196486234665,
      -0.2558121383190155,
      -0.0054215132258832455,
      -0.27992597222328186,
      0.07275155186653137,
      0.06852558255195618,
      -0.064835324883461,
      -0.09710846096277237,
      0.09576170891523361,
      -0.1721077561378479,
      0.011939428746700287,
      0.0143528888002038,
      -0.06393814831972122,
      0.07304888218641281,
      0.16793659329414368,
      0.1112765222787857,
      -0.08995764702558517,
      0.03510028496384621,
      -0.02683860994875431,
      0.06853336095809937,
      0.13343212008476257,
      0.02212332747876644,
      0.12245166301727295,
      -0.12337931245565414,
      0.15670174360275269,
      0.07474688440561295,
      0.23254331946372986,
      0.07648736238479614,
      -0.0920921266078949,
      -0.046883679926395416,
      0.08930184692144394,
      -0.027572548016905785,
      0.20531775057315826,
      0.06711751222610474,
      -0.1289842426776886,
      0.0290600024163723,
      -0.018202411010861397,
      0.0675879567861557,
      -6.755830690963194e-05,
      0.31868115067481995,
      0.2944173514842987,
      -0.10036878287792206,
      -0.12421294301748276,
      0.12200424820184708,
      0.09601519256830215,
      0.08002304285764694,
      -0.015594321303069592,
      -0.06482657790184021,
      0.17578791081905365,
      0.32627955079078674,
      -0.182699516415596,
      0.024456247687339783,
      -0.222132608294487,
      0.0123987328261137,
      0.021274829283356667,
      0.32121163606643677,
      0.25263819098472595
    ],
    [
      0.0006928218645043671,
      0.026183925569057465,
      0.10252689570188522,
      0.10963036864995956,
      0.0035722791217267513,
      0.058237381279468536,
      -0.02900843694806099,
      0.12996584177017212,
      0.10888929665088654,
      -0.0710405483841896,
      -0.02035161852836609,
      0.08547903597354889,
      -0.08034519106149673,
      0.030082987621426582,
      0.11075174808502197,
      0.00563378119841218,
      0.01015575509518385,
      -0.016223981976509094,
      0.0062034642323851585,
      -0.09617841988801956,
      -0.029288066551089287,
      -0.08611951023340225,
      -0.027123598381876945,
      -0.09509047120809555,
      -0.07802550494670868,
      0.044100090861320496,
      -0.12644746899604797,
      0.08412540704011917,
      0.036586396396160126,
      -0.07815337181091309,
      0.0694199800491333,
      0.06609761714935303,
      -0.002816522493958473,
      -0.042029935866594315,
      -0.13780519366264343,
      -0.07583779096603394,
      0.0006284661940298975,
      -0.11446262896060944,
      0.023732494562864304,
      -0.12866462767124176,
      -0.0029097432270646095,
      -0.046970024704933167,
      0.083466537296772,
      0.015887506306171417,
      0.05698902904987335,
      0.09808460623025894,
      0.07428459078073502,
      -0.06434149295091629,
      -0.006304471753537655,
      -0.07102686166763306,
      0.03885864093899727,
      -0.051622990518808365,
      -0.00300741964019835,
      -0.07792011648416519,
      0.025644846260547638,
      0.0722835510969162,
      -0.07997974753379822,
      0.007557541597634554,
      0.126826211810112,
      0.1067248210310936,
      -0.10151024907827377,
      0.031918179243803024,
      -0.08093953132629395,
      -0.06816888600587845
    ],
    [
      -0.11463931947946548,
      0.055442556738853455,
      -0.07930939644575119,
      0.11839363723993301,
      0.06367660313844681,
      0.1763950139284134,
      0.33424168825149536,
      0.018270017579197884,
      -0.14299757778644562,
      -0.0482560358941555,
      -0.09029224514961243,
      0.14980533719062805,
      0.0011411582818254828,
      -0.08192326873540878,
      -0.18537722527980804,
      0.11837904900312424,
      0.004300190135836601,
      0.0024181443732231855,
      0.002413705689832568,
      0.0904988944530487,
      0.21650759875774384,
      0.16316090524196625,
      -0.025909122079610825,
      -0.08453690260648727,
      0.051245056092739105,
      0.07824365794658661,
      0.0632803812623024,
      0.034832663834095,
      0.1597917675971985,
      0.08787128329277039,
      -0.1468837559223175,
      -0.08495768159627914,
      0.10607248544692993,
      0.09492459148168564,
      0.04235893115401268,
      -0.07264160364866257,
      -0.29042449593544006,
      0.03092566505074501,
      -0.05255609750747681,
      0.11089690029621124,
      0.02415166050195694,
      -0.10412968695163727,
      -0.04461614415049553,
      0.015696119517087936,
      0.28279152512550354,
      0.09249399602413177,
      0.21307434141635895,
      0.16236571967601776,
      -0.0871456190943718,
      -0.10233044624328613,
      0.00316618918441236,
      0.09366458654403687,
      0.01806584931910038,
      -0.044095490127801895,
      -0.12276211380958557,
      0.15902702510356903,
      0.33569198846817017,
      -0.0631292313337326,
      0.13117185235023499,
      -0.2607305645942688,
      -0.33569711446762085,
      -0.026104608550667763,
      0.1885756105184555,
      0.11567430943250656
    ],
    [
      0.01679948903620243,
      -0.031454965472221375,
      -0.0839269831776619,
      -0.00047727031051181257,
      0.06554923206567764,
      -0.07916081696748734,
      0.029475314542651176,
      0.009950941428542137,
      -0.0036257216706871986,
      0.05091499164700508,
      -0.08397259563207626,
      0.024005630984902382,
      0.02477588877081871,
      -0.026982108131051064,
      0.0462668314576149,
      0.0442655012011528,
      0.08729007095098495,
      0.038797084242105484,
      0.09021233767271042,
      -0.018519172444939613,
      -0.014958805404603481,
      -0.08743636310100555,
      -0.03463074192404747,
      -0.04521741345524788,
      -0.13301965594291687,
      -0.07940687239170074,
      -0.01798524148762226,
      0.07014085352420807,
      -0.048559434711933136,
      -0.02388502098619938,
      -0.03683619946241379,
      -0.06718528270721436,
      0.05755921080708504,
      -0.05622849240899086,
      0.08583878725767136,
      0.11909784376621246,
      0.05557199940085411,
      0.026482919231057167,
      -0.12497685849666595,
      -0.05348885431885719,
      0.06332099437713623,
      0.02910405397415161,
      -0.025506068021059036,
      -0.10281486809253693,
      0.0867719054222107,
      -0.06590037792921066,
      -0.038826026022434235,
      -0.10627834498882294,
      -0.10128463059663773,
      -0.0499596893787384,
      0.03143136948347092,
      0.05424118414521217,
      -0.07987009733915329,
      0.06013352796435356,
      -0.13287712633609772,
      0.07955746352672577,
      0.0008672744734212756,
      -0.11455277353525162,
      0.0690971091389656,
      0.07827472686767578,
      0.02778051234781742,
      -0.029586108401417732,
      -0.09307348728179932,
      0.01147316675633192
    ],
    [
      -0.14735957980155945,
      -0.46519944071769714,
      0.015524858608841896,
      0.030697859823703766,
      0.39182570576667786,
      0.3583278954029083,
      0.1379033625125885,
      -0.3044685125350952,
      -0.08173251152038574,
      0.0234419796615839,
      0.1549987941980362,
      0.508419930934906,
      0.1317574381828308,
      -0.09136104583740234,
      -1.00597083568573,
      0.2156725823879242,
      0.08056750893592834,
      0.183451846241951,
      -0.8291788697242737,
      0.503808856010437,
      0.11567764729261398,
      0.580068051815033,
      -0.004296541213989258,
      0.3392292261123657,
      -0.17352478206157684,
      -0.24740856885910034,
      -0.14463938772678375,
      0.49571022391319275,
      0.4629138112068176,
      -0.42856699228286743,
      -0.26956403255462646,
      -0.8462877869606018,
      -0.08290500193834305,
      0.45618799328804016,
      0.0128411203622818,
      0.024486081674695015,
      -0.6527530550956726,
      -0.4964444041252136,
      -0.40847593545913696,
      -0.19954760372638702,
      0.050305094569921494,
      0.11075378954410553,
      -0.3601329028606415,
      0.17640796303749084,
      0.25460875034332275,
      -0.1940843164920807,
      -0.040145158767700195,
      -0.019129667431116104,
      -0.5234593152999878,
      -0.630732536315918,
      0.08449219167232513,
      0.03734695166349411,
      -0.9485806822776794,
      -0.003948125522583723,
      0.30142515897750854,
      -0.16737045347690582,
      0.12904499471187592,
      -0.08879470080137253,
      -0.015485337004065514,
      -0.03239276632666588,
      -0.6893826723098755,
      0.44147270917892456,
      0.08513851463794708,
      -0.286635160446167
    ],
    [
      -0.015040742233395576,
      -0.026684947311878204,
      0.004209819715470076,
      -0.03016209788620472,
      0.012654202058911324,
      0.08019138127565384,
      -0.02543802373111248,
      0.016847586259245872,
      -0.03818181902170181,
      0.006082582287490368,
      0.013050049543380737,
      -0.06777860969305038,
      0.03308281674981117,
      0.07712472230195999,
      0.10292588174343109,
      0.06493668258190155,
      -0.1388450413942337,
      -0.028575647622346878,
      -0.030447138473391533,
      -0.06893813610076904,
      -0.07436949759721756,
      0.1302892416715622,
      -0.056247878819704056,
      -0.09835132211446762,
      0.110162153840065,
      -0.0625520870089531,
      -0.008432548493146896,
      -0.10873841494321823,
      -0.07794191688299179,
      -0.07294074445962906,
      -0.08854474872350693,
      0.09502647072076797,
      -0.08515704423189163,
      0.022079985588788986,
      0.06332027912139893,
      -0.0200535599142313,
      -0.08898717164993286,
      -0.1311633139848709,
      -0.04247450456023216,
      0.12315818667411804,
      -0.011107780039310455,
      0.14398910105228424,
      0.018242033198475838,
      -0.06540475785732269,
      -0.05354796722531319,
      -0.11578065156936646,
      -0.0068841842003166676,
      0.07392939925193787,
      -0.08314782381057739,
      -0.07654666155576706,
      0.08186431974172592,
      0.023625154048204422,
      -0.01925436407327652,
      -0.011428890749812126,
      -0.012900855392217636,
      0.02854999154806137,
      -0.028102321550250053,
      0.0359947644174099,
      0.005331117194145918,
      0.006898188032209873,
      0.03794621676206589,
      0.030129235237836838,
      0.05029463768005371,
      -0.05306205898523331
    ],
    [
      0.0425352044403553,
      -0.13953925669193268,
      -0.11104398220777512,
      0.10958129167556763,
      0.012410749681293964,
      0.05376817286014557,
      0.030834181234240532,
      0.028978561982512474,
      -0.018487701192498207,
      -0.06803423166275024,
      0.055044978857040405,
      0.030748549848794937,
      -0.033281952142715454,
      -0.0046838331036269665,
      -0.011095019988715649,
      0.10514742881059647,
      -0.08765537291765213,
      -0.0019736094400286674,
      0.06085934489965439,
      -0.03998258709907532,
      -0.08082412928342819,
      -0.10561833530664444,
      -0.12071570008993149,
      -0.024555055424571037,
      -0.1558656245470047,
      0.013629510067403316,
      0.013568674214184284,
      0.08102830499410629,
      0.059117238968610764,
      0.005511034280061722,
      -0.059531450271606445,
      0.05835854634642601,
      0.005231047049164772,
      0.06790697574615479,
      -0.057977303862571716,
      0.022903326898813248,
      0.07579565048217773,
      0.07316573709249496,
      0.04790884256362915,
      0.0006551560363732278,
      0.047791361808776855,
      -0.14437739551067352,
      0.005095215514302254,
      0.10232444852590561,
      -0.07940985262393951,
      0.03174161911010742,
      0.027617106214165688,
      0.04848076030611992,
      -0.136982724070549,
      0.036787956953048706,
      0.011205663904547691,
      -0.11764916777610779,
      -0.012972448952496052,
      -0.08522141724824905,
      0.12368463724851608,
      -0.011673067696392536,
      0.06952966749668121,
      -0.01184072345495224,
      -0.026349300518631935,
      -0.06849924474954605,
      -0.0834050104022026,
      -0.07238159328699112,
      -0.09054028987884521,
      0.01339101791381836
    ],
    [
      0.03341299295425415,
      0.007676516193896532,
      -0.12958621978759766,
      0.20604905486106873,
      0.026282358914613724,
      0.041628096252679825,
      0.06811119616031647,
      0.02419811114668846,
      0.09174320101737976,
      -0.039617229253053665,
      -0.04606231302022934,
      -0.13911201059818268,
      0.05548444762825966,
      -0.0809403508901596,
      -0.009881854057312012,
      0.18402408063411713,
      0.02118944376707077,
      -0.06355699896812439,
      0.11062739044427872,
      -0.09995725750923157,
      0.020495133474469185,
      0.014027166180312634,
      0.10341567546129227,
      -0.13533692061901093,
      -0.04115407168865204,
      -0.0252294410020113,
      0.08205869048833847,
      0.03611821308732033,
      -0.02275051921606064,
      0.04193759337067604,
      0.06542479246854782,
      -0.04649382457137108,
      0.027755584567785263,
      -0.13752219080924988,
      -0.11884094774723053,
      -0.15265588462352753,
      0.03616705909371376,
      -0.08783268183469772,
      0.0028227500151842833,
      0.193215012550354,
      -0.12203418463468552,
      0.08375036716461182,
      0.17512433230876923,
      -0.13367769122123718,
      -0.12694908678531647,
      0.16556395590305328,
      0.04609254375100136,
      0.27708700299263,
      0.10122815519571304,
      0.061312779784202576,
      0.08556820452213287,
      0.009742315858602524,
      0.16081205010414124,
      -0.00021426896273624152,
      -0.14399471879005432,
      0.026655923575162888,
      0.27847233414649963,
      0.00938230101019144,
      0.03803631290793419,
      0.061169952154159546,
      0.04978727921843529,
      -0.17291294038295746,
      0.1857745498418808,
      0.2101452350616455
    ],
    [
      0.16252373158931732,
      -0.15954719483852386,
      0.07986016571521759,
      0.06742166727781296,
      0.11048141121864319,
      -0.00016115378821268678,
      0.007222270127385855,
      -0.02159050852060318,
      0.1062127947807312,
      -0.08322785049676895,
      0.23724769055843353,
      0.10959546267986298,
      0.16965240240097046,
      0.08739427477121353,
      -0.292171448469162,
      0.022137051448225975,
      0.36592039465904236,
      0.04909359663724899,
      -0.14404335618019104,
      0.2632790207862854,
      0.10092607140541077,
      0.09903084486722946,
      -0.018322039395570755,
      0.2285355180501938,
      0.05575140193104744,
      -0.1937916874885559,
      0.13429291546344757,
      0.017224017530679703,
      0.2739497423171997,
      -0.1466231495141983,
      0.03265644982457161,
      -0.24937555193901062,
      -0.15633901953697205,
      0.014420920051634312,
      0.1418764740228653,
      0.13997630774974823,
      -0.060956988483667374,
      -0.12566202878952026,
      0.02613377757370472,
      -0.05267905816435814,
      0.15712495148181915,
      0.050200555473566055,
      -0.0423896424472332,
      0.04641508683562279,
      -0.05546736717224121,
      -0.15572723746299744,
      -0.12289711833000183,
      -0.08546289056539536,
      -0.13993893563747406,
      -0.07915861159563065,
      0.07835884392261505,
      -0.08883045613765717,
      -0.29159876704216003,
      0.09754473716020584,
      0.3702561557292938,
      -0.20746243000030518,
      -0.1696888655424118,
      0.006904894486069679,
      -0.010228114202618599,
      -0.06541204452514648,
      -0.13039818406105042,
      0.027297815307974815,
      -0.11297722160816193,
      -0.13644850254058838
    ],
    [
      0.022384662181138992,
      -0.33422359824180603,
      -0.012059396132826805,
      -0.08388833701610565,
      0.05520277097821236,
      0.12859968841075897,
      0.48697221279144287,
      -0.010925418697297573,
      -0.03606647253036499,
      -0.25538963079452515,
      0.2213447391986847,
      0.13011781871318817,
      0.3506928086280823,
      0.03919655457139015,
      0.1853860765695572,
      0.07493782043457031,
      0.5225844979286194,
      0.2646689713001251,
      0.09632564336061478,
      0.5179165005683899,
      0.0026326035149395466,
      0.24135653674602509,
      -0.26853108406066895,
      0.32741212844848633,
      0.1574263721704483,
      -0.032970644533634186,
      0.0392475351691246,
      0.23440824449062347,
      0.2504314184188843,
      0.035169415175914764,
      -0.026976395398378372,
      0.11772749572992325,
      -0.12423952668905258,
      0.22437703609466553,
      -0.11423084139823914,
      0.21312668919563293,
      -0.4403870403766632,
      -0.31026265025138855,
      -0.3224286437034607,
      -0.3138141930103302,
      0.2713913917541504,
      0.32697540521621704,
      -0.44239941239356995,
      0.2714915871620178,
      -0.031457364559173584,
      -0.1983247548341751,
      0.352361261844635,
      -0.016739873215556145,
      -0.4029848873615265,
      -0.21977390348911285,
      -0.020390206947922707,
      -0.2062186449766159,
      0.17560221254825592,
      0.3572062849998474,
      0.5844802856445312,
      0.14762096107006073,
      -0.19582857191562653,
      -0.06882923096418381,
      0.01399062667042017,
      -0.0692920908331871,
      -0.4241326153278351,
      0.18099866807460785,
      -0.25170281529426575,
      -0.10219062119722366
    ],
    [
      -0.008411502465605736,
      -0.07759971171617508,
      0.04563400149345398,
      -0.07691503316164017,
      -0.09750925749540329,
      0.08472778648138046,
      0.21578964591026306,
      -0.08819740265607834,
      -0.12272181361913681,
      0.10355010628700256,
      -0.1257985681295395,
      0.07999029755592346,
      0.09222383797168732,
      -0.03386954963207245,
      -0.11193634569644928,
      0.10757692158222198,
      -0.023149430751800537,
      -0.1385214924812317,
      0.09288568794727325,
      0.02687516063451767,
      0.024381423369050026,
      -0.0011298505123704672,
      -0.056277625262737274,
      0.0022439619060605764,
      -0.09078312665224075,
      0.0837613195180893,
      0.01441536471247673,
      -0.07881633192300797,
      0.011289584450423717,
      0.08613990992307663,
      -0.061795253306627274,
      0.031242066994309425,
      0.14039285480976105,
      -0.0340452678501606,
      -0.008740176446735859,
      0.06034904345870018,
      -0.042971301823854446,
      -0.0038651409558951855,
      -0.10588160157203674,
      -0.048019785434007645,
      -0.04260440543293953,
      0.15645051002502441,
      -0.00984244979918003,
      0.11485090106725693,
      0.10727361589670181,
      -0.055993881076574326,
      -0.0349116288125515,
      0.025592267513275146,
      0.095377616584301,
      -0.12036973983049393,
      -0.057501308619976044,
      0.14356672763824463,
      -0.03470751270651817,
      0.09540709108114243,
      0.042343493551015854,
      0.15941113233566284,
      0.13255615532398224,
      -0.1901039332151413,
      -0.06611771881580353,
      -0.0866616815328598,
      -0.10936375707387924,
      0.03193351998925209,
      0.0797196626663208,
      0.04567084461450577
    ],
    [
      -0.06920292973518372,
      -0.08201593160629272,
      0.023129988461732864,
      0.07069270312786102,
      0.028320729732513428,
      -0.12172983586788177,
      0.20085932314395905,
      -0.8107432126998901,
      0.016025040298700333,
      0.09274112433195114,
      -0.14299724996089935,
      -0.056528281420469284,
      0.07369648665189743,
      -0.25418129563331604,
      -0.30476921796798706,
      0.09574791043996811,
      0.0650518462061882,
      -0.06463799625635147,
      -0.21752752363681793,
      0.15001367032527924,
      0.20154514908790588,
      -0.10830825567245483,
      -0.0006492818938568234,
      -0.06317563354969025,
      0.10448762029409409,
      -0.03974159061908722,
      -0.037757620215415955,
      0.21394117176532745,
      -0.07804813981056213,
      -0.36553269624710083,
      -0.014768360182642937,
      -0.2486582100391388,
      0.028005048632621765,
      -0.38783198595046997,
      -0.33856701850891113,
      0.04828355461359024,
      -0.3692726790904999,
      -0.2752578854560852,
      -0.2060290277004242,
      -0.02232089266180992,
      -0.0847209170460701,
      -0.05069492384791374,
      0.046626362949609756,
      0.10031894594430923,
      -0.31002530455589294,
      0.07838166505098343,
      0.0025015538558363914,
      0.0748368576169014,
      -0.30933675169944763,
      -0.2388288378715515,
      0.2114793360233307,
      0.21073392033576965,
      -0.3404967486858368,
      0.1058560386300087,
      -0.013610053807497025,
      -0.03838691860437393,
      0.11741150170564651,
      -0.07544586062431335,
      -0.03923449665307999,
      -0.13953380286693573,
      -0.1533096879720688,
      -0.05195192992687225,
      0.19219426810741425,
      -0.022825226187705994
    ],
    [
      -0.572137176990509,
      0.1286504715681076,
      -0.3731059432029724,
      0.08636954426765442,
      0.12510626018047333,
      -0.07178786396980286,
      0.391676664352417,
      -0.7307806611061096,
      -0.15562336146831512,
      0.23837779462337494,
      -0.5146307945251465,
      -0.15947605669498444,
      -0.029384996742010117,
      -0.5589939951896667,
      -0.31571903824806213,
      0.18417273461818695,
      -0.151602640748024,
      -0.007794063538312912,
      -0.012402128428220749,
      0.10151592642068863,
      0.09444215893745422,
      -0.12826140224933624,
      0.21787668764591217,
      -0.1304778754711151,
      0.004831606522202492,
      -0.0822891891002655,
      -0.11905306577682495,
      0.1376194953918457,
      -0.06511034816503525,
      -0.17947836220264435,
      -0.1823679357767105,
      -0.5515278577804565,
      -0.03679709509015083,
      -0.18180690705776215,
      -0.5910854339599609,
      -0.2705537676811218,
      -0.6349887847900391,
      -1.2660856246948242,
      -0.7263139486312866,
      0.03791649267077446,
      -0.3100093901157379,
      -0.20145045220851898,
      0.04972819983959198,
      -0.17732109129428864,
      -0.5382009148597717,
      0.0037993325386196375,
      -0.04512964189052582,
      0.13213187456130981,
      -0.3263554871082306,
      -0.18091775476932526,
      0.07489342987537384,
      0.15240012109279633,
      -0.35634586215019226,
      -0.1178819090127945,
      -0.01811872608959675,
      -0.08260311186313629,
      0.04852868616580963,
      -0.614895224571228,
      0.025901056826114655,
      -0.20465071499347687,
      -0.4718683958053589,
      -0.021535545587539673,
      -0.046987347304821014,
      0.09947345405817032
    ],
    [
      -0.13956201076507568,
      -0.1016572043299675,
      0.04030352085828781,
      -0.039807699620723724,
      -0.013945301994681358,
      0.22544269263744354,
      0.3028314709663391,
      -0.06290068477392197,
      -0.0866803303360939,
      -0.07437422126531601,
      -0.055264201015233994,
      0.03750922903418541,
      0.09374122321605682,
      -0.12264223396778107,
      -0.1668299287557602,
      0.07188387215137482,
      -0.17052516341209412,
      -0.07212483882904053,
      -0.0356762632727623,
      -0.08178543299436569,
      0.16577738523483276,
      0.11261673271656036,
      0.062030401080846786,
      0.0417943000793457,
      0.09077038615942001,
      0.06296094506978989,
      -0.006046742666512728,
      0.10694397985935211,
      0.03493258357048035,
      0.09269789606332779,
      -0.10605357587337494,
      0.009402750991284847,
      0.12301038950681686,
      0.21886666119098663,
      -0.03925112634897232,
      -0.019485874101519585,
      -0.1967540830373764,
      -0.028971394523978233,
      -0.03201541304588318,
      0.1222057193517685,
      0.005856964737176895,
      -0.10970813781023026,
      0.09470000863075256,
      -0.07655555009841919,
      0.09648266434669495,
      0.08785685896873474,
      0.1661680042743683,
      0.08981309831142426,
      -0.08425697684288025,
      -0.04851057007908821,
      0.14423100650310516,
      0.19930201768875122,
      -0.15460796654224396,
      -0.11158258467912674,
      -0.013907178305089474,
      0.25156933069229126,
      0.23523473739624023,
      -0.005469669587910175,
      0.025925064459443092,
      -0.2279871106147766,
      -0.0432504303753376,
      0.008974633179605007,
      0.2671803832054138,
      0.0618441179394722
    ],
    [
      -0.1661071479320526,
      0.011186840012669563,
      -0.0812440887093544,
      0.07302261143922806,
      0.20197750627994537,
      0.3078855872154236,
      0.5067700147628784,
      -0.902893602848053,
      -0.021680573001503944,
      -0.047692980617284775,
      -0.08254819363355637,
      0.37531378865242004,
      0.1588253676891327,
      -0.18026238679885864,
      -0.6702106595039368,
      0.21465927362442017,
      0.17973661422729492,
      -0.021614981815218925,
      -0.44198229908943176,
      0.45273351669311523,
      0.3233087956905365,
      0.3369542062282562,
      -0.10921735316514969,
      0.1015094667673111,
      0.12562020123004913,
      -0.053267642855644226,
      0.013108542189002037,
      0.3676219880580902,
      0.1211089938879013,
      -0.5475383996963501,
      -0.1437516063451767,
      -0.8263257741928101,
      0.13606086373329163,
      0.1469905972480774,
      -0.2833400070667267,
      0.022583549842238426,
      -0.7926766276359558,
      -0.3722834289073944,
      -0.4978291988372803,
      -0.01816057600080967,
      0.00714675011113286,
      0.172414168715477,
      -0.08939170837402344,
      -0.035351477563381195,
      -0.1459343284368515,
      0.025143049657344818,
      0.24022498726844788,
      0.2780420780181885,
      -0.7779905200004578,
      -0.578192412853241,
      0.09055768698453903,
      -0.04986806958913803,
      -0.6510412693023682,
      0.1015406996011734,
      0.2126414030790329,
      0.049270883202552795,
      0.32078495621681213,
      -0.3086812198162079,
      -0.17035077512264252,
      -0.2199333906173706,
      -0.6903174519538879,
      0.1658044308423996,
      0.159506693482399,
      0.07810355722904205
    ],
    [
      0.06600513309240341,
      -0.07388188689947128,
      -0.027120592072606087,
      -0.053368113934993744,
      0.11115239560604095,
      -0.010995344258844852,
      -6.604738882742822e-05,
      -0.00876141618937254,
      0.034837283194065094,
      0.06811340153217316,
      -0.02713075466454029,
      -0.03780398890376091,
      -0.08407134562730789,
      0.00031225645216181874,
      -0.0731881856918335,
      0.049428265541791916,
      0.013604292646050453,
      0.08694884181022644,
      0.07405579835176468,
      -0.09058533608913422,
      -0.07645751535892487,
      -0.09511099755764008,
      -0.08312497287988663,
      0.11318371444940567,
      0.019766367971897125,
      -0.024583710357546806,
      -0.08045727759599686,
      -0.032612401992082596,
      0.04275963082909584,
      0.028623145073652267,
      -0.09996295720338821,
      0.027025800198316574,
      0.06960083544254303,
      -9.969456732505932e-05,
      0.07198281586170197,
      -0.07180971652269363,
      -0.1106892004609108,
      -0.034083325415849686,
      -0.021462662145495415,
      0.03655548021197319,
      0.02312883920967579,
      -0.03401654586195946,
      0.029132507741451263,
      0.018076222389936447,
      0.023038264364004135,
      -0.08374463766813278,
      -0.09714047610759735,
      0.06133854016661644,
      0.0063949949108064175,
      0.08948182314634323,
      0.03148956224322319,
      -0.01916342042386532,
      -0.05022003874182701,
      -0.06654587388038635,
      -0.061742328107357025,
      0.03938412293791771,
      0.0341617688536644,
      -0.045857738703489304,
      0.01777503453195095,
      0.06792732328176498,
      -0.10877273231744766,
      0.061762142926454544,
      -0.05799810588359833,
      -0.038223352283239365
    ],
    [
      -0.10968305915594101,
      0.1634737104177475,
      0.07948855310678482,
      0.06263241171836853,
      -0.10020428150892258,
      0.1906924694776535,
      0.28552865982055664,
      0.11508873105049133,
      -0.09893174469470978,
      0.07691989094018936,
      -0.16533209383487701,
      0.13586173951625824,
      -0.0022033953573554754,
      -0.01941179856657982,
      -0.18884041905403137,
      0.0725487694144249,
      -0.14251582324504852,
      -0.1177435964345932,
      -0.07199203222990036,
      0.057109951972961426,
      0.24841611087322235,
      -0.029285965487360954,
      0.02593947947025299,
      -0.09777586162090302,
      -0.0820644423365593,
      0.023552099242806435,
      -0.12407468259334564,
      -0.09054670482873917,
      0.011311521753668785,
      -0.14553549885749817,
      0.04643310606479645,
      -0.01514434814453125,
      0.11347764730453491,
      0.22420372068881989,
      0.007545354776084423,
      0.059545110911130905,
      -0.2385568767786026,
      -0.1691860407590866,
      0.03274037316441536,
      0.23925897479057312,
      0.012721133418381214,
      0.02571668103337288,
      -0.03154946491122246,
      0.03521635755896568,
      0.16229404509067535,
      0.18639300763607025,
      0.2257949411869049,
      0.2217114418745041,
      -0.032027777284383774,
      -0.048526257276535034,
      0.007899397984147072,
      0.10889340192079544,
      0.013943187892436981,
      -0.051938753575086594,
      -0.013271583244204521,
      0.21640083193778992,
      0.3101716637611389,
      -0.17792735993862152,
      -0.04839112609624863,
      -0.189920574426651,
      -0.1426045447587967,
      0.027741743251681328,
      0.39394283294677734,
      0.11073587089776993
    ],
    [
      0.01638498157262802,
      -0.06322683393955231,
      -0.019777532666921616,
      0.011039283126592636,
      0.15289463102817535,
      0.053763631731271744,
      0.002359151840209961,
      -0.06359617412090302,
      0.07970278710126877,
      -0.06850674003362656,
      -0.08105720579624176,
      -0.05575356259942055,
      0.1017400324344635,
      0.06061870977282524,
      -0.09174825996160507,
      0.10178667306900024,
      -0.08233938366174698,
      -0.047298163175582886,
      -0.053538575768470764,
      -0.05162062495946884,
      0.049831245094537735,
      0.08092240244150162,
      0.08546017855405807,
      0.04454570263624191,
      0.013898462057113647,
      0.03152495250105858,
      0.04341438412666321,
      0.08833036571741104,
      -0.011352877132594585,
      -0.1162131205201149,
      -0.12245170027017593,
      -0.03725151717662811,
      -0.07186799496412277,
      0.028819305822253227,
      -0.14196617901325226,
      0.021404093131422997,
      -0.032331682741642,
      -0.03981981426477432,
      0.031170452013611794,
      -0.07359671592712402,
      0.018955562263727188,
      0.09280502051115036,
      0.05611894652247429,
      0.0665469542145729,
      0.057959407567977905,
      -0.04426663741469383,
      0.006016540341079235,
      0.0120933772996068,
      -0.030023520812392235,
      -0.08899904042482376,
      -0.026576370000839233,
      0.12938369810581207,
      0.08591387420892715,
      0.027414988726377487,
      -0.021687382832169533,
      0.05263451859354973,
      -0.01667270064353943,
      -0.03439096361398697,
      -0.014202374033629894,
      0.04259403049945831,
      0.02907983772456646,
      -0.024769673123955727,
      -0.10034294426441193,
      -0.16952693462371826
    ],
    [
      0.06093882396817207,
      -0.0972026064991951,
      0.005592190660536289,
      -0.0006554046412929893,
      -0.031207671388983727,
      0.07315579801797867,
      -0.023442842066287994,
      -0.05492185428738594,
      0.07132469117641449,
      0.024661188945174217,
      -0.07885850965976715,
      0.05948709324002266,
      -0.03731296584010124,
      0.08641556650400162,
      -0.06640750169754028,
      -0.011572328396141529,
      -0.15565399825572968,
      0.07286985963582993,
      0.015354710631072521,
      0.050250716507434845,
      0.01702946610748768,
      -0.035893529653549194,
      -0.0634390264749527,
      -0.12194952368736267,
      -0.12362780421972275,
      0.05057074502110481,
      0.055674318224191666,
      0.12921714782714844,
      0.07806479930877686,
      -0.02622169256210327,
      -0.1524401754140854,
      0.15522021055221558,
      0.03261588141322136,
      0.0011069263564422727,
      0.05426483228802681,
      -0.04091668501496315,
      0.03988146409392357,
      -0.013103701174259186,
      0.021390017122030258,
      -0.05888165906071663,
      0.07806815207004547,
      -0.0567229762673378,
      0.11593694984912872,
      -0.04203791171312332,
      -0.05830848962068558,
      0.10680471360683441,
      0.09880238026380539,
      -0.144926056265831,
      0.0793081670999527,
      -0.05697837844491005,
      0.0945260226726532,
      0.037184104323387146,
      -0.040163081139326096,
      -0.09390617907047272,
      -0.0774020180106163,
      0.00377847021445632,
      -0.09904935210943222,
      0.00835398118942976,
      0.004497852176427841,
      0.09037414938211441,
      0.004676910117268562,
      -0.01730022393167019,
      -0.015587281435728073,
      -0.11115320771932602
    ],
    [
      -0.19316329061985016,
      0.025207193568348885,
      -0.22745797038078308,
      0.05971473827958107,
      0.17340505123138428,
      -0.20621761679649353,
      0.09436619281768799,
      -0.5026359558105469,
      -0.21888931095600128,
      0.019018331542611122,
      -0.27574965357780457,
      -0.10055889189243317,
      0.13642431795597076,
      -0.17516323924064636,
      -0.5175477862358093,
      0.17076663672924042,
      -0.15140855312347412,
      -0.001698685227893293,
      -0.33988118171691895,
      0.26560384035110474,
      0.34423917531967163,
      -0.09889434278011322,
      -0.009168029762804508,
      -0.0007075014873407781,
      0.04796258360147476,
      -0.06670796871185303,
      -0.06286351382732391,
      0.21452584862709045,
      -0.09806452691555023,
      -0.34072041511535645,
      -0.16065898537635803,
      -0.3893211781978607,
      0.04227597638964653,
      -0.536162257194519,
      -0.42014893889427185,
      -0.2215167135000229,
      -0.3839776813983917,
      -0.4884481728076935,
      -0.4042331874370575,
      -0.054485928267240524,
      -0.18246449530124664,
      0.0002714805887080729,
      0.04539570212364197,
      -0.1348956823348999,
      -0.6556840538978577,
      0.1191771999001503,
      -0.13049103319644928,
      0.045838918536901474,
      -0.4683968424797058,
      -0.2396923005580902,
      0.22287218272686005,
      -0.012629847973585129,
      -0.5743252635002136,
      -0.03618142753839493,
      -0.0553387887775898,
      -0.13399630784988403,
      -0.1718977391719818,
      -0.40910908579826355,
      -0.14665696024894714,
      -0.09972770512104034,
      -0.3214097023010254,
      -0.10061948746442795,
      0.05823920667171478,
      -0.02346481941640377
    ],
    [
      -0.14368832111358643,
      -0.07199327647686005,
      -0.13881433010101318,
      0.1746147722005844,
      0.06486626714468002,
      -0.18567711114883423,
      0.056165728718042374,
      -0.5939206480979919,
      -0.03484335169196129,
      0.1337144672870636,
      -0.06638792902231216,
      0.059106651693582535,
      -0.023030836135149002,
      -0.09113268554210663,
      -0.3313235640525818,
      0.25982314348220825,
      0.0011302250204607844,
      -0.15161417424678802,
      -0.31280916929244995,
      -0.029796838760375977,
      0.22138918936252594,
      -0.0016632736660540104,
      -0.07180164009332657,
      -0.0017150950152426958,
      -0.13430538773536682,
      -0.07096339017152786,
      0.07116164267063141,
      0.11711753904819489,
      0.007157147862017155,
      -0.4029432535171509,
      -0.0828486755490303,
      -0.20330944657325745,
      0.009558170102536678,
      -0.30353301763534546,
      -0.27295976877212524,
      0.0016409229720011353,
      -0.20728054642677307,
      -0.24808084964752197,
      -0.19018588960170746,
      0.06361545622348785,
      0.09108223766088486,
      0.12174301594495773,
      0.08539627492427826,
      -0.016689961776137352,
      -0.4519887864589691,
      0.017325440421700478,
      -0.07569096237421036,
      0.0016047698445618153,
      -0.2396038919687271,
      -0.3410012722015381,
      0.08445382118225098,
      0.03525947779417038,
      -0.2656514346599579,
      0.10165604203939438,
      0.0025014285929501057,
      -0.01868431642651558,
      0.09422765672206879,
      -0.12682485580444336,
      0.002964757150039077,
      -0.18290500342845917,
      -0.13482710719108582,
      -0.053724244236946106,
      0.19178058207035065,
      0.06100769713521004
    ],
    [
      -0.2014123797416687,
      -0.053379859775304794,
      0.011797424405813217,
      0.07769301533699036,
      0.0038962275721132755,
      0.05232984200119972,
      0.25245821475982666,
      -0.10388987511396408,
      -0.1908682882785797,
      0.046860385686159134,
      -0.10754590481519699,
      0.1508060097694397,
      0.1495852917432785,
      0.05272207409143448,
      -0.17721562087535858,
      0.22382941842079163,
      0.07630593329668045,
      -0.0887567400932312,
      -0.19360549747943878,
      0.003409898141399026,
      0.0866280049085617,
      0.01837349310517311,
      -0.09542834758758545,
      0.007785986643284559,
      0.10924778878688812,
      0.11374480277299881,
      -0.01760702393949032,
      0.002737159375101328,
      0.03825902193784714,
      0.07675833255052567,
      -0.0783606767654419,
      -0.052997272461652756,
      0.11856423318386078,
      0.2171405404806137,
      0.02038898505270481,
      -0.05931413918733597,
      -0.27410608530044556,
      -0.16023485362529755,
      0.0217917300760746,
      0.049310196191072464,
      -0.049338702112436295,
      0.047471266239881516,
      -0.055904630571603775,
      0.027805177494883537,
      0.21554557979106903,
      0.04486877843737602,
      0.11662798374891281,
      0.27320966124534607,
      0.06433854252099991,
      0.051988646388053894,
      0.15429165959358215,
      0.20595228672027588,
      -0.11721581220626831,
      -0.010238238610327244,
      -0.11425846815109253,
      0.14630497992038727,
      0.15692758560180664,
      -0.12038519978523254,
      0.09710244834423065,
      -0.2288673222064972,
      -0.22022180259227753,
      0.014917525462806225,
      0.31243354082107544,
