{
  "fc1.weight": [
    [
      -0.23823292553424835
    ],
    [
      0.2759690284729004
    ],
    [
      0.6872838139533997
    ],
    [
      0.2288796454668045
    ],
    [
      -0.20950692892074585
    ],
    [
      -0.8123353719711304
    ],
    [
      0.25115442276000977
    ],
    [
      0.2583056688308716
    ],
    [
      -0.1484496295452118
    ],
    [
      -0.3548668920993805
    ],
    [
      0.4102482199668884
    ],
    [
      -0.1974571943283081
    ],
    [
      0.5623364448547363
    ],
    [
      -0.33913084864616394
    ],
    [
      -0.362021803855896
    ],
    [
      0.4154505431652069
    ],
    [
      0.4181411862373352
    ],
    [
      0.3575301766395569
    ],
    [
      0.0832669734954834
    ],
    [
      0.5272902250289917
    ],
    [
      0.31122997403144836
    ],
    [
      -0.5280805826187134
    ],
    [
      0.6129939556121826
    ],
    [
      -0.7096855044364929
    ],
    [
      0.25553688406944275
    ],
    [
      -0.48135802149772644
    ],
    [
      0.7435384392738342
    ],
    [
      -0.28166234493255615
    ],
    [
      -0.37236055731773376
    ],
    [
      0.22169095277786255
    ],
    [
      0.3428784906864166
    ],
    [
      0.5368754863739014
    ]
  ],
  "fc1.bias": [
    0.02421041950583458,
    -0.662284255027771,
    0.9345224499702454,
    0.3418818414211273,
    0.059204310178756714,
    -1.2641093730926514,
    -0.8026777505874634,
    0.3726094365119934,
    0.11050142347812653,
    -0.52933669090271,
    -0.11939443647861481,
    0.10004834085702896,
    0.6580482721328735,
    -0.4929730296134949,
    -0.0583028681576252,
    -0.11133743822574615,
    -0.14800485968589783,
    0.5144009590148926,
    -0.5727765560150146,
    0.8087911605834961,
    0.3328496813774109,
    -0.7948030233383179,
    -1.056200623512268,
    -0.4420371353626251,
    0.011728934943675995,
    -0.22667375206947327,
    0.9383958578109741,
    -0.9331823587417603,
    -0.1383666694164276,
    0.3435201048851013,
    0.2909763753414154,
    -0.2543815076351166
  ],
  "fc2.weight": [
    [
      0.04344182461500168,
      0.15426991879940033,
      -0.05832194909453392,
      -0.17219898104667664,
      0.06790471822023392,
      0.8497875928878784,
      -0.10636060684919357,
      -0.13204528391361237,
      0.08242691308259964,
      0.9837995767593384,
      -0.31195443868637085,
      0.04409017786383629,
      -0.189785435795784,
      0.9886935353279114,
      0.0739755779504776,
      -0.15909093618392944,
      -0.009642280638217926,
      -0.10474026203155518,
      -0.09285161644220352,
      -0.0819932073354721,
      -0.6510839462280273,
      0.8776471018791199,
      0.10467259585857391,
      0.1429087519645691,
      -0.9150881171226501,
      0.08640026301145554,
      -0.09545706957578659,
      -0.04584144055843353,
      0.08333806693553925,
      -0.15233303606510162,
      -1.387516736984253,
      -0.31247392296791077
    ],
    [
      -5.100408554077148,
      0.11251525580883026,
      -0.02965545281767845,
      -0.028090128675103188,
      -3.7201831340789795,
      -0.16921786963939667,
      -0.1064743772149086,
      -0.011593833565711975,
      -1.4958010911941528,
      -0.2700512409210205,
      0.032866280525922775,
      -1.8533555269241333,
      -0.006528577301651239,
      -0.44577130675315857,
      -2.876431703567505,
      -0.008203160017728806,
      0.02669309265911579,
      -0.01703306846320629,
      0.13088978826999664,
      -0.007089068181812763,
      -0.024580858647823334,
      -0.0423545241355896,
      -0.06152617186307907,
      -0.22997015714645386,
      -0.026655126363039017,
      -1.180830955505371,
      -0.015521399676799774,
      0.13619206845760345,
      -2.4397616386413574,
      -0.01118460576981306,
      -0.04640302062034607,
      0.06717949360609055
    ],
    [
      -0.0986405685544014,
      -0.09364677965641022,
      0.05161454528570175,
      -0.026864077895879745,
      -0.019523095339536667,
      -0.060571953654289246,
      -0.17145676910877228,
      -0.0126858064904809,
      -0.18794292211532593,
      -0.04321712255477905,
      -0.056792002171278,
      -0.0544641837477684,
      0.03409517928957939,
      0.1393633335828781,
      -0.007579070050269365,
      -0.014436331577599049,
      -0.022594591602683067,
      -0.16937054693698883,
      -0.1334206759929657,
      -0.1782701015472412,
      -0.12998205423355103,
      0.08762048184871674,
      0.03719934821128845,
      -0.14529365301132202,
      -0.1939566731452942,
      -0.08262907713651657,
      -0.062127068638801575,
      -0.02543829381465912,
      -0.03952841833233833,
      -0.16360342502593994,
      0.03481701761484146,
      -0.1983749121427536
    ],
    [
      -1.0699657201766968,
      0.16071034967899323,
      -0.04072103276848793,
      0.05204122141003609,
      -0.741225004196167,
      -0.29977312684059143,
      -0.12389685213565826,
      0.011178640648722649,
      -0.33206048607826233,
      -0.38742005825042725,
      0.018810564652085304,
      -0.4413118064403534,
      0.017129482701420784,
      -0.32808059453964233,
      -2.096367597579956,
      0.12042766064405441,
      0.09909224510192871,
      0.011436381377279758,
      0.16705761849880219,
      -0.003463419619947672,
      0.0303459782153368,
      -0.094316266477108,
      0.030367976054549217,
      -1.1298922300338745,
      0.13992144167423248,
      -3.3430235385894775,
      -0.03142615035176277,
      0.11607523262500763,
      -6.451352119445801,
      0.03878837078809738,
      -0.001581114949658513,
      0.11508503556251526
    ],
    [
      -0.3651686906814575,
      -0.13602547347545624,
      0.0023519231472164392,
      0.031494393944740295,
      -0.27211862802505493,
      -0.17542345821857452,
      -0.010103866457939148,
      0.07689644396305084,
      -0.16430062055587769,
      -0.3658847510814667,
      0.08481653034687042,
      -0.18291504681110382,
      0.01824384555220604,
      -0.4618464410305023,
      -0.3639720380306244,
      0.10323269665241241,
      0.1039741188287735,
      0.020034540444612503,
      0.021349817514419556,
      0.017566530033946037,
      0.0676930770277977,
      -0.28717154264450073,
      -0.07837354391813278,
      -4.281820297241211,
      0.23225581645965576,
      -2.818540334701538,
      -0.012936159037053585,
      -0.16254663467407227,
      -0.896465003490448,
      0.05867540091276169,
      0.06361595541238785,
      0.10611775517463684
    ],
    [
      -0.41834744811058044,
      0.010596200823783875,
      -0.009056219831109047,
      0.0636289119720459,
      -0.31968793272972107,
      -0.34227707982063293,
      -0.06174582988023758,
      0.05105386674404144,
      -0.17206741869449615,
      -0.38053610920906067,
      0.08225788176059723,
      -0.21354147791862488,
      0.01775682531297207,
      -0.48816320300102234,
      -0.5257410407066345,
      0.1237051859498024,
      0.14112889766693115,
      0.03072134591639042,
      -0.06367480754852295,
      0.007120876107364893,
      0.04436565190553665,
      -0.3355277478694916,
      -0.07689911127090454,
      -2.9230425357818604,
      0.102994404733181,
      -5.777557849884033,
      -0.02358430065214634,
      -0.043667420744895935,
      -1.6805657148361206,
      0.05946731939911842,
      0.047149382531642914,
      0.12792561948299408
    ],
    [
      -0.4859466552734375,
      0.046089619398117065,
      -0.0160939022898674,
      0.005176797043532133,
      -0.3686816692352295,
      -0.31673309206962585,
      -0.0254012793302536,
      -0.015186036005616188,
      -0.27224963903427124,
      -0.6094986200332642,
      0.13609609007835388,
      -0.3157608211040497,
      0.019806064665317535,
      -0.5553101301193237,
      -0.6741349697113037,
      0.06556495279073715,
      0.0963510125875473,
      -0.0034736881498247385,
      0.15091733634471893,
      0.006606459617614746,
      0.034934934228658676,
      -0.297394335269928,
      0.0009543164633214474,
      -3.1700503826141357,
      0.13145318627357483,
      -5.349752902984619,
      -0.011334927752614021,
      -0.028318151831626892,
      -2.1127326488494873,
      -0.033281583338975906,
      0.003867226652801037,
      0.11601663380861282
    ],
    [
      -1.2173311710357666,
      -0.06839659810066223,
      -0.013754311949014664,
      -0.005106477998197079,
      -0.7771658897399902,
      -0.22275103628635406,
      -0.15045414865016937,
      -0.017410321161150932,
      -0.4306963086128235,
      -0.3256896436214447,
      0.08636005967855453,
      -0.5610582232475281,
      0.005494068842381239,
      -0.44954875111579895,
      -2.8274788856506348,
      0.03234849125146866,
      0.08777478337287903,
      0.0034470162354409695,
      -0.09276946634054184,
      0.0029680326115339994,
      -0.0124812675639987,
      -0.6706163883209229,
      -0.16105665266513824,
      -1.7396812438964844,
      0.07377522438764572,
      -3.934082269668579,
      -0.026926372200250626,
      -0.1486836075782776,
      -5.63834810256958,
      -0.053284384310245514,
      -0.0024244480300694704,
      0.07192840427160263
    ],
    [
      -0.24810226261615753,
      -0.12036682665348053,
      0.0165457334369421,
      0.0554262176156044,
      -0.1885083168745041,
      -0.2090654820203781,
      0.06564538180828094,
      0.029280327260494232,
      -0.1476747840642929,
      -0.5297365188598633,
      0.11452540755271912,
      -0.1838068962097168,
      0.027256479486823082,
      -0.6810896396636963,
      -0.26564618945121765,
      0.09608369320631027,
      0.11962027847766876,
      0.04392283037304878,
      -0.08243626356124878,
      0.02590799145400524,
      0.07295044511556625,
      -0.39246898889541626,
      0.16570785641670227,
      -4.006556034088135,
      0.18650542199611664,
      -1.1210963726043701,
      -0.02123345620930195,
      0.06637121737003326,
      -0.5292949080467224,
      0.03913552314043045,
      0.09628628939390182,
      0.08412187546491623
    ],
    [
      -1.9284478425979614,
      0.11906470358371735,
      -0.018992653116583824,
      -0.02007220685482025,
      -1.1853210926055908,
      0.0058127460069954395,
      -0.04596678912639618,
      -0.013566606678068638,
      -0.4884015917778015,
      -0.4241899251937866,
      0.0625527948141098,
      -0.6570079326629639,
      -0.008150661364197731,
      -0.1572655886411667,
      -4.7022013664245605,
      0.03303665295243263,
      0.07842361927032471,
      0.00015011202776804566,
      -0.016204774379730225,
      -0.007368308957666159,
      -0.029458902776241302,
      -0.23507314920425415,
      -0.02880997024476528,
      -0.6088316440582275,
      0.040853384882211685,
      -2.013179063796997,
      -0.01578206941485405,
      0.031700462102890015,
      -4.184062480926514,
      -0.0024213746655732393,
      -0.048899635672569275,
      0.09657583385705948
    ],
    [
      -0.2800251841545105,
      -0.17483876645565033,
      0.01642742194235325,
      0.02678368240594864,
      -0.2625568211078644,
      -0.17975744605064392,
      -0.004768848419189453,
      0.018963024020195007,
      -0.21423125267028809,
      -0.630965530872345,
      0.13136211037635803,
      -0.23150111734867096,
      0.051342375576496124,
      -0.5315619707107544,
      -0.23373788595199585,
      0.09880273044109344,
      0.10041166096925735,
      0.030859138816595078,
      -0.014906689524650574,
      0.004717085976153612,
      0.04695657268166542,
      -0.447573184967041,
      0.09945081174373627,
      -1.2712936401367188,
      0.15200093388557434,
      -0.7148084044456482,
      2.7832942578243092e-05,
      -0.019740641117095947,
      -0.4263036847114563,
      0.05434653162956238,
      0.07064949721097946,
      0.11216999590396881
    ],
    [
      0.2865322232246399,
      -0.06647392362356186,
      0.6128575205802917,
      -0.06463918834924698,
      0.40729060769081116,
      -0.5273144841194153,
      -0.037445634603500366,
      -0.03366376459598541,
      0.3269875645637512,
      -0.9460954666137695,
      -0.15076467394828796,
      0.39052820205688477,
      -0.018614808097481728,
      -0.8097435235977173,
      0.030240699648857117,
      -0.15222837030887604,
      -0.16955377161502838,
      -0.027264107018709183,
      -0.05220670998096466,
      -0.01500006578862667,
      -0.056162502616643906,
      -0.6651748418807983,
      -0.16693618893623352,
      -0.13915333151817322,
      -0.18884654343128204,
      -0.1266704946756363,
      -0.01303509995341301,
      0.038886621594429016,
      -0.02521573379635811,
      -0.036999400705099106,
      -0.06307387351989746,
      -0.15653881430625916
    ],
    [
      -0.2680368423461914,
      -0.13736596703529358,
      -0.013668364845216274,
      0.045982565730810165,
      -0.20002047717571259,
      -0.15094441175460815,
      -0.019136592745780945,
      0.012834484688937664,
      -0.14043273031711578,
      -0.44106990098953247,
      0.11818455159664154,
      -0.13671907782554626,
      0.03528638556599617,
      -0.48780569434165955,
      -0.2780035734176636,
      0.17786526679992676,
      0.1264498382806778,
      0.042183466255664825,
      -0.05387695133686066,
      0.03124059922993183,
      0.10562838613986969,
      -0.30484652519226074,
      0.011440432630479336,
      -3.6246116161346436,
      0.14027225971221924,
      -1.0517706871032715,
      -0.02053552307188511,
      0.034067824482917786,
      -0.5360283255577087,
      0.06146799400448799,
      0.08227289468050003,
      0.0916510820388794
    ],
    [
      -0.2646524906158447,
      0.02440302073955536,
      -0.0013398786541074514,
      0.0767754465341568,
      -0.19970573484897614,
      -0.5765745043754578,
      0.16232572495937347,
      0.05022675171494484,
      -0.15422216057777405,
      -0.7589021325111389,
      0.1239243671298027,
      -0.1800605058670044,
      0.04879003018140793,
      -0.7650454640388489,
      -0.19850730895996094,
      0.28661394119262695,
      0.018754711374640465,
      0.034133266657590866,
      0.05142027139663696,
      0.041163455694913864,
      0.046235572546720505,
      -0.5373315811157227,
      0.025733090937137604,
      -1.2153998613357544,
      0.08972955495119095,
      -0.696266770362854,
      -0.00580428633838892,
      -0.12027578800916672,
      -0.38225841522216797,
      0.04458409175276756,
      0.0687197893857956,
      0.08714799582958221
    ],
    [
      0.2951742112636566,
      0.09348012506961823,
      -0.015920259058475494,
      -0.041279297322034836,
      0.35435765981674194,
      -0.7566436529159546,
      0.0782022625207901,
      -0.05379872024059296,
      0.3693423867225647,
      -1.1226147413253784,
      -0.18336370587348938,
      0.4116608500480652,
      -0.029517361894249916,
      -1.0420602560043335,
      0.02633989229798317,
      -0.15986445546150208,
      -0.14860235154628754,
      -0.04003015533089638,
      -0.09786112606525421,
      -0.016040349379181862,
      -0.05771021172404289,
      -0.8930636644363403,
      -0.008211281150579453,
      -0.14814606308937073,
      -0.20130397379398346,
      -0.15015146136283875,
      0.5714840292930603,
      0.00787632167339325,
      -0.061558205634355545,
      -0.057203229516744614,
      -0.07037091255187988,
      -0.1581452339887619
    ],
    [
      -0.3730340600013733,
      -0.11858727782964706,
      -0.016755374148488045,
      0.0032058085780590773,
      -0.3061886429786682,
      -0.20064476132392883,
      -0.09415894746780396,
      0.007074608933180571,
      -0.2753400206565857,
      -0.42108774185180664,
      0.1290052831172943,
      -0.26881226897239685,
      0.05149601399898529,
      -0.5734104514122009,
      -0.5079669952392578,
      0.06721547991037369,
      0.15243779122829437,
      0.002112443558871746,
      0.16256071627140045,
      0.0016563902609050274,
      0.046864066272974014,
      -0.6221287250518799,
      -0.0029573289211839437,
      -4.144489288330078,
      0.09602652490139008,
      -4.43903923034668,
      -0.02375895529985428,
      0.09450502693653107,
      -1.2871952056884766,
      0.00959220714867115,
      0.03890242055058479,
      0.10786564648151398
    ],
    [
      -0.2285013645887375,
      -0.017206326127052307,
      -0.023179490119218826,
      0.04476302117109299,
      -0.2440212517976761,
      -0.12131808698177338,
      0.11533971130847931,
      0.059067439287900925,
      -0.16633708775043488,
      -0.7092450261116028,
      0.10805314034223557,
      -0.21761102974414825,
      0.007777777500450611,
      -0.6569635272026062,
      -0.28243547677993774,
      0.10296429693698883,
      0.14364653825759888,
      0.030155498534440994,
      0.022742614150047302,
      0.033992450684309006,
      0.0719236359000206,
      -0.5856597423553467,
      -0.14214880764484406,
      -4.989315032958984,
      0.18869468569755554,
      -1.3949114084243774,
      -0.014570722356438637,
      -0.03754705190658569,
      -0.6422646641731262,
      0.051516465842723846,
      0.04901010915637016,
      0.08971291035413742
    ],
    [
      0.007603066507726908,
      -0.15305674076080322,
      -0.590695321559906,
      -0.5737887620925903,
      -0.010621720924973488,
      0.25696903467178345,
      0.015672996640205383,
      -0.5669860243797302,
      0.0248203594237566,
      0.4285927712917328,
      -0.07782505452632904,
      -0.00855783000588417,
      -3.7927746772766113,
      0.2828787863254547,
      -0.009317523799836636,
      -0.28597143292427063,
      0.013200369663536549,
      -0.6885415315628052,
      -0.0102769136428833,
      -0.3283523619174957,
      -1.9997936487197876,
      0.30578121542930603,
      -0.15137983858585358,
      -0.04858538135886192,
      -0.1860223114490509,
      -0.059693027287721634,
      -1.7006686925888062,
      -0.054101720452308655,
      -0.017756842076778412,
      -0.611456573009491,
      -0.995397686958313,
      -0.058947980403900146
    ],
    [
      0.029636986553668976,
      0.009854376316070557,
      -0.09480108320713043,
      -0.15147177875041962,
      -0.0010874972213059664,
      0.6018747091293335,
      -0.04110853374004364,
      -0.1548682153224945,
      0.0026247298810631037,
      0.8214356899261475,
      -0.12675884366035461,
      0.008875178173184395,
      -0.29343196749687195,
      0.8803084492683411,
      0.040386900305747986,
      -0.20474320650100708,
      -0.1794445812702179,
      -0.12910114228725433,
      -0.1559913009405136,
      -0.08210267126560211,
      -1.1457823514938354,
      0.5033813714981079,
      0.0771876648068428,
      0.03374580666422844,
      -1.0668565034866333,
      0.03646816685795784,
      -0.10715366154909134,
      0.13127513229846954,
      0.017369389533996582,
      -0.12126157432794571,
      -4.274256229400635,
      -0.25611576437950134
    ],
    [
      -0.2724308967590332,
      0.09083543717861176,
      -0.0072154700756073,
      0.06161031499505043,
      -0.226937934756279,
      -0.13027748465538025,
      -0.14409753680229187,
      0.05016150325536728,
      -0.19946971535682678,
      -0.5087230801582336,
      0.13207587599754333,
      -0.16463562846183777,
      0.040603745728731155,
      -0.5489455461502075,
      -0.16677242517471313,
      0.10074947029352188,
      0.10712791234254837,
      0.047274526208639145,
      0.17031194269657135,
      0.03953580558300018,
      0.0918784961104393,
      -0.3079207241535187,
      -0.1505950689315796,
      -1.1571179628372192,
      0.14566601812839508,
      -0.617046058177948,
      0.000592108117416501,
      0.13119064271450043,
      -0.3801685571670532,
      0.03597427159547806,
      0.08935967832803726,
      0.14665590226650238
    ],
    [
      0.11263316124677658,
      0.13864658772945404,
      0.0529661551117897,
      -0.163090318441391,
      -0.022204764187335968,
      -0.1446339637041092,
      -0.002709999680519104,
      -0.16695092618465424,
      -0.1562560796737671,
      0.04550725221633911,
      0.01786106452345848,
      -0.12088613212108612,
      -0.1683259755373001,
      0.07424606382846832,
      -0.16897708177566528,
      0.0076828766614198685,
      -0.1498999446630478,
      -0.13608968257904053,
      0.02204693853855133,
      -0.15340925753116608,
      -0.14943483471870422,
      0.032443612813949585,
      -0.019996628165245056,
      -0.08309050649404526,
      -0.18561917543411255,
      -0.0030555129051208496,
      0.0448903925716877,
      0.09413124620914459,
      -0.10681024938821793,
      -0.08214987814426422,
      0.05358623340725899,
      -0.06653440743684769
    ],
    [
      -0.029238803312182426,
      -0.10678325593471527,
      -0.2931174039840698,
      -0.403663694858551,
      -0.026479369029402733,
      0.4588853418827057,
      0.05815941095352173,
      -0.3217337429523468,
      0.010305763222277164,
      0.6190219521522522,
      -0.1923515945672989,
      -0.02241447940468788,
      -2.463239908218384,
      0.5941869020462036,
      -0.00492494273930788,
      -0.2582775950431824,
      -0.1138434112071991,
      -0.3376491963863373,
      -0.033184707164764404,
      -0.19452422857284546,
      -4.6721320152282715,
      0.5744340419769287,
      -0.027430647984147072,
      -0.033506929874420166,
      -0.2007133513689041,
      -0.019288327544927597,
      -0.5962739586830139,
      0.04590509831905365,
      -0.0072400495409965515,
      -0.2846777141094208,
      -2.1661431789398193,
      0.01225508563220501
    ],
    [
      0.08808273077011108,
      -0.03080245852470398,
      -0.06991992890834808,
      -0.16155484318733215,
      0.032636404037475586,
      0.6840774416923523,
      -0.16541828215122223,
      -0.10902266949415207,
      0.013269513845443726,
      0.8249548077583313,
      -0.08327744901180267,
      0.05424177274107933,
      -0.2216344177722931,
      0.8345242738723755,
      0.04655994474887848,
      -0.08814883232116699,
      -0.0427897609770298,
      -0.09841681271791458,
      0.055218398571014404,
      -0.08279833197593689,
      -0.7624251246452332,
      0.6932590007781982,
      -0.07896532118320465,
      0.05136142671108246,
      -0.9242839813232422,
      0.08425261825323105,
      -0.10317794233560562,
      -0.1309141218662262,
      0.07167355716228485,
      -0.16441091895103455,
      -2.07780122756958,
      -0.15072429180145264
    ],
    [
      -0.2663312554359436,
      0.021626725792884827,
      -0.042133789509534836,
      0.12397298961877823,
      -0.20800010859966278,
      -0.23046307265758514,
      -0.010892912745475769,
      0.1018320694565773,
      -0.131853386759758,
      -0.7778463959693909,
      0.1394234448671341,
      -0.16165482997894287,
      0.0008498404640704393,
      -0.8749377727508545,
      -0.22921130061149597,
      0.15008562803268433,
      0.12390498071908951,
      0.1319725513458252,
      0.1546083241701126,
      0.07005515694618225,
      0.12106498330831528,
      -0.801630437374115,
      -0.16634012758731842,
      -1.2732816934585571,
      0.22245600819587708,
      -0.7980667352676392,
      0.12019482254981995,
      -0.0986788347363472,
      -0.4511171877384186,
      0.10579220205545425,
      0.1315976232290268,
      0.10006387531757355
    ],
    [
      0.014927100390195847,
      0.055873215198516846,
      -0.06477583199739456,
      -0.1679234802722931,
      0.05197994038462639,
      0.7876830697059631,
      0.15250007808208466,
      -0.18735383450984955,
      0.012963882647454739,
      0.9571706056594849,
      -0.3899042010307312,
      0.033130645751953125,
      -0.22339573502540588,
      0.99830162525177,
      0.05838502198457718,
      -0.4215410649776459,
      -0.103444904088974,
      -0.13738662004470825,
      -0.1589743196964264,
      -0.08677808195352554,
      -0.6793640851974487,
      0.8539379239082336,
      0.03414015844464302,
      0.12161360681056976,
      -1.5417362451553345,
      0.08048252016305923,
      -0.11856836825609207,
      -0.04484373331069946,
      0.0332372784614563,
      -0.19309566915035248,
      -1.448722243309021,
      -0.1457948237657547
    ],
    [
      -0.024914201349020004,
      0.11909283697605133,
      -0.1587725579738617,
      -0.3133578300476074,
      -6.731812027283013e-05,
      0.7174994349479675,
      -0.11874471604824066,
      -0.2669897973537445,
      -0.044873472303152084,
      0.8481998443603516,
      -0.05449488013982773,
      -0.022172490134835243,
      -0.8032507300376892,
      0.7196459770202637,
      -0.013314537703990936,
      -0.33799582719802856,
      -0.2431056946516037,
      -0.22954125702381134,
      0.08804960548877716,
      -0.1546207070350647,
      -4.327429294586182,
      0.6817564964294434,
      0.01483345776796341,
      -0.008731170557439327,
      -0.7790001630783081,
      0.01112359482795,
      -0.24778364598751068,
      0.15293563902378082,
      0.005929749459028244,
      -0.2592765688896179,
      -4.85553503036499,
      -0.2676973044872284
    ],
    [
      -0.020263532176613808,
      0.10826285183429718,
      -1.9646532535552979,
      -1.2339421510696411,
      -0.0067505077458918095,
      0.15967456996440887,
      -0.06563735008239746,
      -1.4997005462646484,
      -0.02288403920829296,
      -0.0632437989115715,
      0.013420764356851578,
      0.0042236195877194405,
      -1.3884344100952148,
      -0.0982881411910057,
      -0.021318472921848297,
      -0.18814440071582794,
      -0.1425791084766388,
      -1.902939796447754,
      0.101334348320961,
      -0.9751454591751099,
      -0.6827283501625061,
      -0.20954708755016327,
      -0.12454988062381744,
      -0.06630273908376694,
      -0.1735404133796692,
      -0.030303768813610077,
      -2.82907772064209,
      -0.024672433733940125,
      -0.0476735457777977,
      -1.3871761560440063,
      -0.5287142395973206,
      -0.15094971656799316
    ],
    [
      -0.7321896553039551,
      -0.06019994616508484,
      -0.011666812933981419,
      -0.010858537629246712,
      -0.49598366022109985,
      -0.19166645407676697,
      0.10492180287837982,
      0.012653748504817486,
      -0.36722761392593384,
      -0.6706891059875488,
      0.08602046966552734,
      -0.41133639216423035,
      -0.01494376640766859,
      -0.6092622876167297,
      -1.3013863563537598,
      0.11835439503192902,
      0.14700846374034882,
      0.003154017264023423,
      -0.05124653875827789,
      -0.003112024860456586,
      0.01604992151260376,
      -0.42526355385780334,
      -0.0029335676226764917,
      -2.233816385269165,
      0.07400278002023697,
      -4.883723258972168,
      -0.01050474215298891,
      0.01227407157421112,
      -4.768078804016113,
      -0.018413834273815155,
      0.009102454409003258,
      0.12168731540441513
    ],
    [
      -0.21983890235424042,
      -0.1211337074637413,
      -0.0032713613472878933,
      0.06506470590829849,
      -0.214812770485878,
      -0.35529792308807373,
      0.047116026282310486,
      0.03852013871073723,
      -0.15531790256500244,
      -0.189067542552948,
      0.10134398192167282,
      -0.13047589361667633,
      0.05446391552686691,
      -0.3944965898990631,
      -0.22047922015190125,
      0.11300540715456009,
      0.15670637786388397,
      0.06473799049854279,
      0.1500891000032425,
      0.028040461242198944,
      0.11563632637262344,
      -0.39347901940345764,
      -0.05935393646359444,
      -1.1558265686035156,
      0.14196155965328217,
      -0.675705075263977,
      0.0008837790810503066,
      -0.171156644821167,
      -0.3862203359603882,
      0.051137328147888184,
      0.06760802119970322,
      0.08413068950176239
    ],
    [
      -0.40049615502357483,
      -0.11184108257293701,
      -0.045677099376916885,
      0.020211152732372284,
      -0.2887990176677704,
      -0.3471318483352661,
      -0.14959579706192017,
      0.06937170028686523,
      -0.18964457511901855,
      -0.6045796275138855,
      0.14368733763694763,
      -0.2652662396430969,
      0.039035726338624954,
      -0.8406126499176025,
      -0.3198379576206207,
      0.12519420683383942,
      0.16538946330547333,
      0.033083103597164154,
      -0.018253594636917114,
      0.014413437806069851,
      0.04844750463962555,
      -0.5959426760673523,
      -0.024160752072930336,
      -2.716946601867676,
      0.20547868311405182,
      -1.0855895280838013,
      -0.02654549479484558,
      0.033781543374061584,
      -0.6039763689041138,
      0.019966596737504005,
      0.05113808438181877,
      0.10409093648195267
    ],
    [
      -0.2634396553039551,
      -0.05881316214799881,
      -0.011848843656480312,
      0.07811186462640762,
      -0.22183942794799805,
      -0.12877868115901947,
      0.05976429581642151,
      0.10686243325471878,
      -0.20281818509101868,
      -0.5892180800437927,
      0.18125098943710327,
      -0.15954460203647614,
      0.050604041665792465,
      -0.6012038588523865,
      -0.2260027676820755,
      0.05703926831483841,
      0.04863111674785614,
      0.03881366550922394,
      -0.0526101216673851,
      0.015515412203967571,
      0.0852222740650177,
      -0.42384806275367737,
      -0.04676888883113861,
      -1.9904059171676636,
      0.2292608618736267,
      -0.852167546749115,
      -0.005127311684191227,
      0.006067126989364624,
      -0.49375906586647034,
      0.05465945973992348,
      0.07733200490474701,
      0.09426728636026382
    ],
    [
      -0.30419033765792847,
      -0.025770753622055054,
      -0.02026764117181301,
      0.06469126790761948,
      -0.22894926369190216,
      -0.36272743344306946,
      -0.14336098730564117,
      0.05901889503002167,
      -0.19534002244472504,
      -0.5840526223182678,
      0.10472992062568665,
      -0.23541003465652466,
      0.03532000258564949,
      -0.7486757040023804,
      -0.30416688323020935,
      0.08429194241762161,
      0.09999513626098633,
      0.040314674377441406,
      -0.17185206711292267,
      -0.025932978838682175,
      0.05646549537777901,
      -0.5211160778999329,
      0.025932013988494873,
      -4.429828643798828,
      0.19635051488876343,
      -1.2917152643203735,
      -0.02227640710771084,
      -0.14178243279457092,
      -0.5681647658348083,
      0.07382920384407043,
      0.06162542849779129,
      0.08540421724319458
    ]
  ],
  "fc2.bias": [
    0.325178325176239,
    0.4708377420902252,
    -0.14604875445365906,
    0.5358594655990601,
    0.35151660442352295,
    0.37296754121780396,
    0.44661250710487366,
    0.5025787949562073,
    0.3375733196735382,
    0.4906070828437805,
    0.3963994085788727,
    -0.6071876287460327,
    0.38816019892692566,
    0.39328697323799133,
    -0.5499222874641418,
    0.42919713258743286,
    0.3922004997730255,
    0.46526533365249634,
    0.34740331768989563,
    0.371891587972641,
    -0.18143825232982635,
    0.47205105423927307,
    0.29790788888931274,
    0.3373297154903412,
    0.3904268145561218,
    0.5121556520462036,
    0.47779542207717896,
    0.50578373670578,
    0.35814034938812256,
    0.4473388195037842,
    0.38165581226348877,
    0.3980172872543335
  ],
  "fc3.weight": [
    [
      -0.2537398040294647,
      0.22437693178653717,
      -0.12186671793460846,
      0.09992498904466629,
      0.08097916841506958,
      0.09125696122646332,
      0.09085646271705627,
      0.1303364783525467,
      0.07328346371650696,
      0.14560915529727936,
      0.06603294610977173,
      0.5352261066436768,
      0.07739381492137909,
      0.0613812655210495,
      0.5155904293060303,
      0.08705887943506241,
      0.07010573148727417,
      -0.4423920810222626,
      -0.339122474193573,
      0.07708658277988434,
      -0.053637079894542694,
      -0.4013771116733551,
      -0.30857452750205994,
      0.04836662486195564,
      -0.23899511992931366,
      -0.3109719455242157,
      -0.6816322207450867,
      0.10167407244443893,
      0.07623957097530365,
      0.06927160173654556,
      0.07496747374534607,
      0.07444660365581512
    ]
  ],
  "fc3.bias": [
    -0.4671401381492615
  ]
}