{
  "fc1.weight": [
    [
      -0.19398315250873566
    ],
    [
      0.49466267228126526
    ],
    [
      0.6068161129951477
    ],
    [
      0.42959538102149963
    ],
    [
      -0.1424524188041687
    ],
    [
      0.3233731687068939
    ],
    [
      -0.3968406915664673
    ],
    [
      -0.15057329833507538
    ],
    [
      -0.7347795963287354
    ],
    [
      -0.02925741672515869
    ],
    [
      -0.11608348786830902
    ],
    [
      -0.288601815700531
    ],
    [
      0.3938825726509094
    ],
    [
      0.8825944662094116
    ],
    [
      -0.9664459228515625
    ],
    [
      0.4057600200176239
    ],
    [
      -0.7119628190994263
    ],
    [
      -0.19875764846801758
    ],
    [
      0.4212520718574524
    ],
    [
      -0.1136762872338295
    ],
    [
      0.2907685339450836
    ],
    [
      -0.2822820842266083
    ],
    [
      0.8911261558532715
    ],
    [
      -0.5256941318511963
    ],
    [
      0.18716537952423096
    ],
    [
      0.2549193799495697
    ],
    [
      0.3820664584636688
    ],
    [
      0.23101899027824402
    ],
    [
      0.6867457628250122
    ],
    [
      0.23402629792690277
    ],
    [
      0.4669782817363739
    ],
    [
      0.01263880729675293
    ]
  ],
  "fc1.bias": [
    -0.0024333021137863398,
    0.691250741481781,
    -0.303392231464386,
    -0.15797224640846252,
    0.07281515002250671,
    0.4550500214099884,
    -0.9439085721969604,
    0.0824960246682167,
    -1.084059715270996,
    -0.5429227352142334,
    0.08570195734500885,
    -0.08669444918632507,
    0.2514277398586273,
    1.0806251764297485,
    0.12813203036785126,
    0.609480619430542,
    -1.1115070581436157,
    -0.36373770236968994,
    0.3694799840450287,
    0.09541238099336624,
    0.2259928286075592,
    -0.08707195520401001,
    1.0359525680541992,
    -0.7823219895362854,
    -0.6055954694747925,
    0.40790483355522156,
    0.36794930696487427,
    0.3538462221622467,
    -0.38785213232040405,
    -0.40328311920166016,
    0.7327772378921509,
    -0.09681415557861328
  ],
  "fc2.weight": [
    [
      0.08271980285644531,
      -0.04684555530548096,
      -0.11941519379615784,
      -0.34175804257392883,
      0.03905346244573593,
      -0.10614413768053055,
      -0.0784311294555664,
      -0.03361230343580246,
      0.584352970123291,
      -0.03611472249031067,
      -0.001079351408407092,
      0.06509751081466675,
      -3.729015350341797,
      -0.07451961934566498,
      -0.02431868016719818,
      -0.08105247467756271,
      0.8946755528450012,
      -0.13678985834121704,
      -0.2942711412906647,
      0.020163705572485924,
      -2.063938617706299,
      0.03956736624240875,
      -0.06506722420454025,
      0.6818353533744812,
      0.012713402509689331,
      -0.11424612253904343,
      -0.562611997127533,
      -0.17068125307559967,
      -0.19973891973495483,
      -0.0936359241604805,
      -0.05159681662917137,
      0.08871360123157501
    ],
    [
      -0.002693555783480406,
      -0.12922845780849457,
      -0.302242249250412,
      -0.032297469675540924,
      0.012126519344747066,
      -0.15379498898983002,
      0.045954957604408264,
      0.04833878576755524,
      0.41662949323654175,
      0.03819294273853302,
      0.05402921512722969,
      0.01044695358723402,
      -1.9426536560058594,
      -0.12142759561538696,
      -0.01897720992565155,
      -0.11602035164833069,
      0.6687654256820679,
      -0.012981817126274109,
      -0.7183970808982849,
      -0.08193549513816833,
      -4.008699417114258,
      0.0028106621466577053,
      -0.15729354321956635,
      0.7593311667442322,
      0.0051715075969696045,
      -0.1577533781528473,
      -2.0649657249450684,
      -0.18334326148033142,
      -0.2217138707637787,
      0.0770249217748642,
      -0.07891819626092911,
      0.10036440193653107
    ],
    [
      -0.7264558672904968,
      0.046304989606142044,
      0.16094741225242615,
      0.09264497458934784,
      -0.35214853286743164,
      0.14510028064250946,
      -0.055549442768096924,
      -0.26104044914245605,
      -0.2860487401485443,
      0.1618737131357193,
      -0.28258612751960754,
      -1.336243748664856,
      0.16565760970115662,
      0.006053907796740532,
      -0.06630583852529526,
      0.042655956000089645,
      -0.20465445518493652,
      0.15780921280384064,
      0.03900657594203949,
      -0.22322314977645874,
      0.16049712896347046,
      -1.537475824356079,
      -0.030866192653775215,
      -0.1231502890586853,
      -0.1593112349510193,
      0.1052200049161911,
      0.09690607339143753,
      0.055069807916879654,
      0.10585229843854904,
      0.04343540593981743,
      0.03876425325870514,
      -0.02780155837535858
    ],
    [
      0.05519094318151474,
      -0.06695008277893066,
      -0.24115972220897675,
      -0.26546791195869446,
      0.06779470294713974,
      -0.13533730804920197,
      0.16489146649837494,
      0.04665040597319603,
      0.8999452590942383,
      -0.11285364627838135,
      0.08592884242534637,
      0.11265530437231064,
      -0.8442903757095337,
      -0.06030521169304848,
      -0.0005626897909678519,
      -0.06314866989850998,
      0.8294109106063843,
      0.13539035618305206,
      -0.19820258021354675,
      0.003626540768891573,
      -0.5861238241195679,
      0.16619841754436493,
      -0.06408501416444778,
      0.7872434258460999,
      -0.024274766445159912,
      -0.12440569698810577,
      -0.2153455764055252,
      -0.17728213965892792,
      -0.19687165319919586,
      -0.007472075987607241,
      -0.07943357527256012,
      0.02815602719783783
    ],
    [
      -0.014505990780889988,
      -0.029309453442692757,
      -0.15324875712394714,
      -0.25837090611457825,
      0.4060435891151428,
      -0.0465923473238945,
      0.06754513084888458,
      0.4566051959991455,
      -0.7121356725692749,
      -0.16759970784187317,
      0.39760497212409973,
      -0.18838703632354736,
      -0.09944318234920502,
      -0.023400526493787766,
      0.05214190110564232,
      -0.04373771697282791,
      -0.7872251272201538,
      -0.1434507668018341,
      -0.05656729266047478,
      0.37046319246292114,
      -0.11082977801561356,
      -0.21970316767692566,
      0.595999002456665,
      -0.9713243246078491,
      -0.03630611300468445,
      -0.07691138982772827,
      -0.06521420180797577,
      -0.07901792228221893,
      -0.14769572019577026,
      -0.11201364547014236,
      -0.033645205199718475,
      0.1436382383108139
    ],
    [
      -0.07845378667116165,
      0.07474804669618607,
      -0.5744143128395081,
      -0.7223259210586548,
      -0.06640609353780746,
      0.15245863795280457,
      0.09668229520320892,
      -0.10342683643102646,
      -0.1485002487897873,
      -0.07001636922359467,
      -0.09665082395076752,
      -0.10379856079816818,
      -0.3502470552921295,
      0.05335073918104172,
      0.4863811135292053,
      0.1079767644405365,
      -0.18676573038101196,
      -0.14503705501556396,
      -0.030531613156199455,
      -0.06817439198493958,
      -0.29772505164146423,
      -0.10452808439731598,
      0.027061954140663147,
      -0.2497449815273285,
      -0.04929235577583313,
      0.12640327215194702,
      -0.08978661149740219,
      0.12909890711307526,
      -0.670107901096344,
      0.11537743359804153,
      0.08230416476726532,
      -0.13079646229743958
    ],
    [
      -0.9186775088310242,
      0.03767677769064903,
      0.11736730486154556,
      0.223408043384552,
      -0.36791226267814636,
      -0.0028762994334101677,
      0.0847768634557724,
      -0.3926678001880646,
      -0.4861748218536377,
      -0.11407050490379333,
      -0.4690806269645691,
      -1.8035776615142822,
      0.10791679471731186,
      0.0011293967254459858,
      -0.11042279750108719,
      0.049831219017505646,
      -0.19658900797367096,
      -0.004967495799064636,
      0.046599872410297394,
      -0.3712727427482605,
      0.1186181902885437,
      -2.693183422088623,
      -0.01429612748324871,
      -0.19565719366073608,
      -0.04578272998332977,
      0.049063876271247864,
      0.0729479193687439,
      0.06938448548316956,
      0.14373397827148438,
      -0.13040314614772797,
      0.030930858105421066,
      -0.0013397634029388428
    ],
    [
      -1.1352877616882324,
      0.009425260126590729,
      0.16675230860710144,
      0.13483759760856628,
      -0.41240331530570984,
      0.04375692829489708,
      -0.01946134865283966,
      -0.43486204743385315,
      -0.334020733833313,
      0.16975490748882294,
      -0.38685721158981323,
      -2.465111017227173,
      0.0580480694770813,
      0.01577012427151203,
      -0.1338348686695099,
      0.043234921991825104,
      -0.3008710741996765,
      0.10714544355869293,
      0.0453253909945488,
      -0.36070746183395386,
      0.039634037762880325,
      -3.8264143466949463,
      -0.04481840133666992,
      -0.08991256356239319,
      0.16064386069774628,
      0.050630826503038406,
      0.07145185768604279,
      0.04689832404255867,
      0.12719063460826874,
      0.04148750379681587,
      0.058474838733673096,
      0.10020194947719574
    ],
    [
      -4.347993850708008,
      0.00046014669351279736,
      0.055796973407268524,
      0.08520179241895676,
      -1.0321394205093384,
      0.041292157024145126,
      0.12192074954509735,
      -1.1231204271316528,
      -0.24567243456840515,
      -0.0353093296289444,
      -1.122499942779541,
      -2.8792076110839844,
      -0.013806965202093124,
      0.023115092888474464,
      -0.9371193647384644,
      0.014945931732654572,
      -0.07513817399740219,
      -0.09732602536678314,
      0.009630724787712097,
      -0.6757124662399292,
      -0.012051543220877647,
      -1.9206104278564453,
      -0.03609566017985344,
      -0.2775188088417053,
      0.046348705887794495,
      0.004685942083597183,
      0.039124615490436554,
      0.04121512547135353,
      0.08494453132152557,
      -0.03049781173467636,
      0.005033162422478199,
      0.13514648377895355
    ],
    [
      0.14135095477104187,
      -0.04555279016494751,
      -0.25473034381866455,
      -0.2749783396720886,
      0.05973518267273903,
      -0.08538857102394104,
      0.13920091092586517,
      0.09756184369325638,
      0.6311656832695007,
      0.13784827291965485,
      0.06158857047557831,
      0.09580712765455246,
      -2.1679699420928955,
      -0.04961666092276573,
      -0.022475652396678925,
      -0.056339871138334274,
      0.8752117156982422,
      0.15248523652553558,
      -0.19719795882701874,
      0.11259417235851288,
      -1.0030932426452637,
      0.14530418813228607,
      -0.053283121436834335,
      0.849535346031189,
      -0.04860393702983856,
      -0.08808259665966034,
      -0.3543020486831665,
      -0.12458368390798569,
      -0.27168428897857666,
      -0.17055460810661316,
      -0.03610347956418991,
      0.028207406401634216
    ],
    [
      -0.056240618228912354,
      -0.20552189648151398,
      -0.1684379130601883,
      -0.003511577844619751,
      -0.04527704045176506,
      -0.18623313307762146,
      -0.027377113699913025,
      0.009931388311088085,
      0.33018460869789124,
      -0.0687822625041008,
      -0.039706017822027206,
      -0.055497415363788605,
      -0.5328608751296997,
      -0.2976759374141693,
      -0.02085075154900551,
      -0.2474651038646698,
      0.3898129463195801,
      -0.017519354820251465,
      -3.036689043045044,
      -0.014888348989188671,
      -1.0990371704101562,
      -0.05496909096837044,
      -0.8716723918914795,
      0.2733535170555115,
      -0.13234248757362366,
      -0.25659728050231934,
      -2.1733107566833496,
      -0.3532237708568573,
      -0.20891250669956207,
      0.03837196156382561,
      -0.10521259903907776,
      -0.11679688096046448
    ],
    [
      0.08498680591583252,
      -0.039589494466781616,
      -0.19826561212539673,
      -0.23108457028865814,
      0.08162965625524521,
      -0.12644614279270172,
      -0.09925555437803268,
      0.08100710064172745,
      0.840143620967865,
      -0.04555210471153259,
      0.04034155234694481,
      0.15395863354206085,
      -0.8612856864929199,
      -0.03698500618338585,
      -0.003555291099473834,
      -0.08596984297037125,
      0.8068071007728577,
      0.04440927505493164,
      -0.16395896673202515,
      0.038846857845783234,
      -0.4672258794307709,
      0.1471044421195984,
      -0.03934483230113983,
      0.8071810007095337,
      0.06675553321838379,
      -0.12208881974220276,
      -0.16201059520244598,
      -0.12724465131759644,
      -0.3240032494068146,
      -0.011289305984973907,
      -0.06303364038467407,
      -0.17281971871852875
    ],
    [
      -3.441685914993286,
      -0.017681466415524483,
      0.0960443913936615,
      0.02437559701502323,
      -0.7610251307487488,
      0.000568841933272779,
      -0.128849059343338,
      -0.717067301273346,
      -0.2907821238040924,
      -0.16093963384628296,
      -0.8044517636299133,
      -4.074711799621582,
      0.053710512816905975,
      0.04543974995613098,
      -0.46822020411491394,
      0.0120614068582654,
      -0.15843583643436432,
      0.17549525201320648,
      0.03258500248193741,
      -0.49489861726760864,
      0.0333489291369915,
      -3.10489821434021,
      -0.04205261543393135,
      -0.38106128573417664,
      0.16541634500026703,
      0.005818491335958242,
      0.04066089913249016,
      0.03723201900720596,
      0.13000699877738953,
      -0.17612431943416595,
      0.04175521433353424,
      0.042182162404060364
    ],
    [
      -0.7965018153190613,
      0.049802765250205994,
      0.15490011870861053,
      0.16957667469978333,
      -0.3126171827316284,
      0.042501263320446014,
      -0.011421695351600647,
      -0.45696237683296204,
      -0.19185076653957367,
      -0.08251497149467468,
      -0.2775265574455261,
      -1.6047016382217407,
      0.06670812517404556,
      0.024026094004511833,
      -0.05594836547970772,
      0.05568549036979675,
      -0.06236719340085983,
      0.17404805123806,
      0.11424005776643753,
      -0.3420613706111908,
      0.19241906702518463,
      -2.1084752082824707,
      -0.004406067077070475,
      -0.10797564685344696,
      0.0961223691701889,
      0.0641527846455574,
      0.08253850042819977,
      0.08839830011129379,
      0.08558067679405212,
      -0.10662283003330231,
      0.03593052178621292,
      -0.10537055134773254
    ],
    [
      -1.1379802227020264,
      0.019414829090237617,
      0.11519958823919296,
      0.20899732410907745,
      -0.39792600274086,
      0.028919192031025887,
      -0.00678764283657074,
      -0.44932788610458374,
      -0.2946666479110718,
      0.03810678422451019,
      -0.4070044457912445,
      -2.4203643798828125,
      0.06481581181287766,
      -0.005641167517751455,
      -0.14468899369239807,
      0.04244613274931908,
      -0.11232108622789383,
      0.00567212700843811,
      0.03793683275580406,
      -0.33990713953971863,
      0.0877671092748642,
      -3.710951566696167,
      -0.0058192661963403225,
      -0.18726705014705658,
      0.12341122329235077,
      0.07074412703514099,
      0.08725190162658691,
      0.005411304999142885,
      0.11249680072069168,
      0.11912970244884491,
      0.03388306498527527,
      -0.06857427209615707
    ],
    [
      -1.3800767660140991,
      0.03188881278038025,
      0.13029779493808746,
      0.12655608355998993,
      -0.48868533968925476,
      0.03269769996404648,
      -0.11069439351558685,
      -0.5351736545562744,
      -0.3596569001674652,
      -0.11484849452972412,
      -0.44004082679748535,
      -2.7452454566955566,
      0.09304438531398773,
      0.01032005064189434,
      -0.17284266650676727,
      0.0018435450037941337,
      -0.45676568150520325,
      0.04808129370212555,
      0.027801036834716797,
      -0.3397660255432129,
      0.07348842918872833,
      -4.230533599853516,
      -0.035199154168367386,
      -0.3840056359767914,
      -0.06389836966991425,
      0.08116231858730316,
      0.05500229075551033,
      0.01953490450978279,
      0.1468978077173233,
      0.0077853575348854065,
      0.020657239481806755,
      0.07007956504821777
    ],
    [
      -1.0528239011764526,
      -0.004599883686751127,
      0.11692787706851959,
      0.10407751798629761,
      -0.6248315572738647,
      -0.028351685032248497,
      -0.02955891191959381,
      -0.6200668811798096,
      -0.7598496079444885,
      -0.13301825523376465,
      -0.7292190790176392,
      -1.0167332887649536,
      -0.03106273151934147,
      -1.1718052625656128,
      -0.2817729711532593,
      -0.03554842993617058,
      -0.4129151403903961,
      -0.14734899997711182,
      -0.04213736206293106,
      -0.6881338357925415,
      -0.036934759467840195,
      -1.1805726289749146,
      -0.04941634088754654,
      -0.9362311363220215,
      0.11514340341091156,
      -0.038393840193748474,
      -0.028841974213719368,
      -0.01625947281718254,
      0.10047884285449982,
      0.01414605975151062,
      -0.023098040372133255,
      0.12580008804798126
    ],
    [
      0.22713156044483185,
      -0.04121198132634163,
      -0.2833932936191559,
      -0.21676340699195862,
      0.11446194350719452,
      -0.0800047293305397,
      -0.058117277920246124,
      0.18699374794960022,
      0.6314029097557068,
      0.04742002487182617,
      0.14780235290527344,
      0.11718574166297913,
      -0.8052653670310974,
      -0.021807314828038216,
      0.01421357598155737,
      -0.05223318189382553,
      0.6690741181373596,
      -0.03173254430294037,
      -0.15139910578727722,
      0.07710098475217819,
      -0.5285338163375854,
      0.164905846118927,
      -0.05157875269651413,
      0.9231528639793396,
      -0.03433528542518616,
      -0.020750461146235466,
      -0.1646943837404251,
      -0.10064541548490524,
      -0.05957496538758278,
      -0.07970227301120758,
      -0.024174388498067856,
      -0.019742876291275024
    ],
    [
      -0.009965724311769009,
      -0.3769947588443756,
      -0.11189506202936172,
      -0.17063455283641815,
      0.012522063218057156,
      -0.3060939610004425,
      0.14288543164730072,
      -0.009835174307227135,
      0.09720196574926376,
      0.11121822893619537,
      0.00038625503657385707,
      0.029570911079645157,
      -0.2370661497116089,
      -0.6699215769767761,
      -0.020709490403532982,
      -0.3441082239151001,
      0.3107285797595978,
      -0.1583937555551529,
      -2.4290285110473633,
      0.031034346669912338,
      -0.4569619596004486,
      -0.057667091488838196,
      -2.950348377227783,
      0.22372348606586456,
      0.10627804696559906,
      -0.2991901636123657,
      -1.2887595891952515,
      -0.4625190198421478,
      -0.1225019246339798,
      0.050075069069862366,
      -0.1438094973564148,
      0.12284602224826813
    ],
    [
      0.028176452964544296,
      -0.6991451382637024,
      0.027418874204158783,
      0.05338330566883087,
      0.024420425295829773,
      -0.6468526721000671,
      -0.12260816991329193,
      0.04952642694115639,
      0.051278818398714066,
      0.0944746881723404,
      0.03706834092736244,
      -0.027517497539520264,
      -0.4147871732711792,
      -2.854841709136963,
      -0.015616223216056824,
      -0.6273303031921387,
      0.2669309973716736,
      -0.1274990737438202,
      -1.534070372581482,
      0.04465845972299576,
      -0.47958505153656006,
      -0.042782269418239594,
      -2.5404715538024902,
      0.07952934503555298,
      0.15834717452526093,
      -0.49084919691085815,
      -0.40687206387519836,
      -0.6562092304229736,
      0.08038970082998276,
      -0.20009362697601318,
      -0.39458760619163513,
      -0.011558309197425842
    ],
    [
      0.10997922718524933,
      -0.03651464730501175,
      -0.14411738514900208,
      -0.15712380409240723,
      0.29388627409935,
      -0.036076296120882034,
      0.014318272471427917,
      0.2828562259674072,
      -0.6006571054458618,
      0.06280402839183807,
      0.31619030237197876,
      -0.06358324736356735,
      -0.1003066673874855,
      0.519799530506134,
      0.03158009424805641,
      -0.04101801663637161,
      -0.6243936419487,
      -0.014412403106689453,
      -0.060269132256507874,
      0.22210165858268738,
      -0.1126239076256752,
      -0.052679333835840225,
      -0.02861359529197216,
      -0.8071403503417969,
      0.1271160989999771,
      -0.051760002970695496,
      -0.061185333877801895,
      -0.08227034658193588,
      -0.11287952959537506,
      -0.06840831786394119,
      -0.03407362848520279,
      0.15576224029064178
    ],
    [
      -0.024436790496110916,
      -1.9151264429092407,
      -0.013564223423600197,
      -0.05763827636837959,
      -0.014848490245640278,
      -1.4820690155029297,
      -0.0023312419652938843,
      0.002936001867055893,
      -0.18226855993270874,
      0.0006182044744491577,
      0.02397257089614868,
      -0.049711816012859344,
      -0.11719099432229996,
      -2.4431850910186768,
      -0.03343682363629341,
      -1.6126962900161743,
      -0.018918167799711227,
      -0.1462634950876236,
      -0.7105234265327454,
      -0.044126495718955994,
      -0.0721181109547615,
      -0.025787923485040665,
      -1.2442142963409424,
      -0.06994365155696869,
      -0.0375557541847229,
      -1.1950311660766602,
      -0.0809188038110733,
      -1.1852130889892578,
      -0.2134319543838501,
      -0.19388756155967712,
      -1.2503594160079956,
      -0.028511345386505127
    ],
    [
      -0.8725817799568176,
      0.042458489537239075,
      0.1590912640094757,
      0.16072997450828552,
      -0.44218680262565613,
      0.006817732937633991,
      0.13765810430049896,
      -0.4520900845527649,
      -0.23177111148834229,
      -0.0846637636423111,
      -0.3976154327392578,
      -1.4184237718582153,
      0.057864680886268616,
      0.021569253876805305,
      -0.11021875590085983,
      0.0422956719994545,
      -0.05951984226703644,
      -0.10938059538602829,
      0.08539057523012161,
      -0.36315345764160156,
      0.032882362604141235,
      -1.6492210626602173,
      -0.0339423306286335,
      -0.3095206320285797,
      -0.1081206351518631,
      0.08640217781066895,
      0.09141898900270462,
      0.08766600489616394,
      0.05927717313170433,
      0.09993045032024384,
      0.04138588905334473,
      0.0512927770614624
    ],
    [
      -0.7789093255996704,
      -0.008741128258407116,
      0.09441966563463211,
      0.242326021194458,
      -0.34141668677330017,
      0.07157961279153824,
      0.04040113091468811,
      -0.36944249272346497,
      -0.3400872051715851,
      0.09212343394756317,
      -0.32559165358543396,
      -1.4353491067886353,
      0.10508641600608826,
      0.010632697492837906,
      -0.03994351252913475,
      0.03235204890370369,
      -0.46044206619262695,
      0.06280609965324402,
      0.05821521580219269,
      -0.2716350853443146,
      0.11132819950580597,
      -1.855821967124939,
      -0.01940741017460823,
      -0.23230884969234467,
      0.10762296617031097,
      0.048337552696466446,
      0.08007777482271194,
      0.08738536387681961,
      0.12641197443008423,
      0.02308019809424877,
      0.05224218592047691,
      -0.06215210258960724
    ],
    [
      -1.3530998229980469,
      0.047118790447711945,
      0.1098443791270256,
      0.11753290146589279,
      -0.4580775499343872,
      0.007944498211145401,
      -0.06470125168561935,
      -0.44136950373649597,
      -0.28448110818862915,
      0.0074265748262405396,
      -0.4635649025440216,
      -2.987407684326172,
      0.08455527573823929,
      0.015860548242926598,
      -0.14425912499427795,
      0.002986050443723798,
      -0.4188818335533142,
      -0.06647293269634247,
      0.06635712832212448,
      -0.3230680525302887,
      0.07346830517053604,
      -4.233583450317383,
      -0.040922123938798904,
      -0.35727205872535706,
      -0.09505797922611237,
      0.0289068054407835,
      0.014685578644275665,
      0.08744268864393234,
      0.11878664791584015,
      0.03460463508963585,
      0.02224772796034813,
      0.16342173516750336
    ],
    [
      -0.06812026351690292,
      -0.029214268550276756,
      -0.13094037771224976,
      -0.17637942731380463,
      0.38397324085235596,
      -0.03281812742352486,
      0.029403433203697205,
      0.42652663588523865,
      -0.7663308382034302,
      0.175386443734169,
      0.44854047894477844,
      -0.2606186270713806,
      -0.05831371620297432,
      -0.03107006475329399,
      0.008152194321155548,
      -0.026915675029158592,
      -0.7373687028884888,
      -0.11520037800073624,
      -0.04223015904426575,
      0.3637368381023407,
      -0.06906473636627197,
      -0.2596289813518524,
      0.492272287607193,
      -0.8776556849479675,
      0.16769523918628693,
      -0.042001113295555115,
      -0.057913023978471756,
      -0.024502567946910858,
      -0.14157448709011078,
      0.12415313720703125,
      -0.02222709357738495,
      -0.06515097618103027
    ],
    [
      -0.720241129398346,
      0.05171123519539833,
      0.14645658433437347,
      0.16144052147865295,
      -0.3583076596260071,
      0.07636912167072296,
      0.023345351219177246,
      -0.4272322654724121,
      -0.23446567356586456,
      -0.13839425146579742,
      -0.4031900465488434,
      -1.455732822418213,
      0.06581433117389679,
      0.016207201406359673,
      -0.0986466333270073,
      0.047326572239398956,
      -0.22551199793815613,
      -0.0018914639949798584,
      0.057253189384937286,
      -0.3155543804168701,
      0.13111233711242676,
      -1.896058201789856,
      -0.007781583815813065,
      -0.16806066036224365,
      -0.06368310749530792,
      0.03984478861093521,
      0.027836797758936882,
      0.09295836836099625,
      0.11547380685806274,
      -0.09101928025484085,
      0.012301279231905937,
      -0.027086690068244934
    ],
    [
      -0.8350300192832947,
      0.05665590986609459,
      0.09188228845596313,
      0.22477367520332336,
      -0.3334900438785553,
      0.02257656678557396,
      -0.0022390931844711304,
      -0.33180126547813416,
      -0.2791273295879364,
      0.023152470588684082,
      -0.29283633828163147,
      -1.717692255973816,
      0.10709317773580551,
      0.030723385512828827,
      -0.1087038591504097,
      0.03191610053181648,
      -0.05317592993378639,
      -0.04950326681137085,
      0.046240098774433136,
      -0.22412465512752533,
      0.12340812385082245,
      -2.6270339488983154,
      -0.03406359627842903,
      -0.2686890959739685,
      0.05343398451805115,
      0.07311545312404633,
      0.06307755410671234,
      0.05951051041483879,
      0.13357265293598175,
      0.10941873490810394,
      0.016553452238440514,
      -0.040848493576049805
    ],
    [
      0.11496689915657043,
      -0.06783248484134674,
      -0.319577157497406,
      -0.16768687963485718,
      0.08123712986707687,
      -0.10008005797863007,
      -0.13941234350204468,
      0.1245039850473404,
      0.8318117260932922,
      -0.17083705961704254,
      0.11673054099082947,
      0.1445455551147461,
      -0.7639535069465637,
      -0.03680771589279175,
      0.0009217731421813369,
      -0.0635516494512558,
      0.7347820401191711,
      0.09157241880893707,
      -0.1538812667131424,
      0.0963599756360054,
      -0.5371838808059692,
      0.19387808442115784,
      -0.04974605143070221,
      0.9187830686569214,
      -0.011504575610160828,
      -0.09912709146738052,
      -0.20868907868862152,
      -0.11586414277553558,
      -0.14747606217861176,
      -0.1234235167503357,
      -0.06109263747930527,
      0.08982814848423004
    ],
    [
      0.00971505418419838,
      -0.15181642770767212,
      0.0011585761094465852,
      -0.06662144511938095,
      -0.0005587738123722374,
      -0.15186800062656403,
      -0.08015618473291397,
      -0.022610295563936234,
      0.4653581976890564,
      -0.08613146841526031,
      0.037390101701021194,
      -0.0016979859210550785,
      -1.2729610204696655,
      -0.13596491515636444,
      -0.04060087725520134,
      -0.16708962619304657,
      0.5378766655921936,
      -0.05296415090560913,
      -1.3701058626174927,
      -0.04506392031908035,
      -2.8957462310791016,
      -0.003843854647129774,
      -0.2724619507789612,
      0.5717154145240784,
      -0.027217820286750793,
      -0.25204068422317505,
      -3.5667476654052734,
      -0.2665412425994873,
      -0.11143029481172562,
      0.1478477120399475,
      -0.1145884171128273,
      0.1426098495721817
    ],
    [
      -0.7757278680801392,
      0.04507347568869591,
      0.04099895432591438,
      0.18861554563045502,
      -0.3297184109687805,
      0.06548884510993958,
      -0.15987898409366608,
      -0.32136398553848267,
      -0.3647576868534088,
      -0.02146279811859131,
      -0.35549697279930115,
      -1.78147292137146,
      0.12500575184822083,
      0.03386445343494415,
      -0.10471053421497345,
      0.07039611041545868,
      -0.1464686393737793,
      0.016181781888008118,
      0.09659699350595474,
      -0.22573135793209076,
      0.1236182376742363,
      -2.4553041458129883,
      -0.03698955103754997,
      -0.1211320161819458,
      -0.0655633807182312,
      0.09765718132257462,
      0.05886256322264671,
      0.11162912845611572,
      0.1418822854757309,
      -0.15484093129634857,
      0.04116791486740112,
      -0.10213852673768997
    ],
    [
      -3.130777359008789,
      0.0010284368181601167,
      0.04562172293663025,
      0.03550710156559944,
      -1.8899047374725342,
      0.0066902730613946915,
      -0.06399539113044739,
      -1.8451594114303589,
      -0.28999724984169006,
      -0.13918158411979675,
      -1.899328351020813,
      -1.547843337059021,
      -0.031662292778491974,
      -0.0020787580870091915,
      -2.4746413230895996,
      -0.009380551986396313,
      -0.21268972754478455,
      -0.051003485918045044,
      -0.023561999201774597,
      -1.2276983261108398,
      -0.05147318169474602,
      -1.1264867782592773,
      -0.0320531502366066,
      -0.29041215777397156,
      -0.03602403402328491,
      0.0114692822098732,
      -0.02713659778237343,
      -0.006022223737090826,
      0.05699057877063751,
      0.030704544857144356,
      0.00017967082385439426,
      -0.17202693223953247
    ]
  ],
  "fc2.bias": [
    0.45025336742401123,
    0.4486447870731354,
    0.2234535813331604,
    0.4264090955257416,
    -0.5365663766860962,
    -0.6291662454605103,
    0.32950359582901,
    0.3363754153251648,
    0.4174047112464905,
    0.3041616678237915,
    0.48385030031204224,
    0.361484557390213,
    0.41803207993507385,
    0.24805082380771637,
    0.34447410702705383,
    0.3702351748943329,
    0.5598666071891785,
    0.24795249104499817,
    0.4588230550289154,
    0.4538755714893341,
    -0.43609410524368286,
    0.4301838278770447,
    0.31867390871047974,
    0.2812330424785614,
    0.3827887177467346,
    -0.4899508059024811,
    0.31930118799209595,
    0.23554956912994385,
    0.34869617223739624,
    0.48148655891418457,
    0.19741280376911163,
    0.45229119062423706
  ],
  "fc3.weight": [
    [
      -0.2256668359041214,
      -0.23938041925430298,
      0.05741945281624794,
      -0.1767224669456482,
      0.24724583327770233,
      -0.9171355962753296,
      0.06752070784568787,
      0.0725189670920372,
      0.11015161871910095,
      -0.19783374667167664,
      -0.33507460355758667,
      -0.19577133655548096,
      0.0939323827624321,
      0.06251610070466995,
      0.07155213505029678,
      0.07977166026830673,
      0.2316202074289322,
      -0.1881958395242691,
      -0.3752754330635071,
      -0.37665870785713196,
      0.36232656240463257,
      -0.582961916923523,
      0.0677296593785286,
      0.06157953664660454,
      0.084539495408535,
      0.318279892206192,
      0.06589362025260925,
      0.06907696276903152,
      -0.2003416121006012,
      -0.30107763409614563,
      0.0707874670624733,
      0.1789848506450653
    ]
  ],
  "fc3.bias": [
    -0.17830580472946167
  ]
}