{
  "fc1.weight": [
    [
      0.17618024349212646,
      0.17001739144325256,
      -0.43060508370399475
    ],
    [
      -0.44964227080345154,
      -0.44243931770324707,
      0.3476576805114746
    ],
    [
      -0.6739498376846313,
      -0.14160433411598206,
      0.18390920758247375
    ],
    [
      0.2848219871520996,
      0.2772843837738037,
      -0.2841129004955292
    ],
    [
      0.11999618262052536,
      0.09860838949680328,
      -0.4477999806404114
    ],
    [
      0.32074517011642456,
      0.2917049825191498,
      -0.382575124502182
    ],
    [
      -0.47210830450057983,
      0.16177847981452942,
      -0.04640622437000275
    ],
    [
      0.15928752720355988,
      0.1400608867406845,
      -0.321889728307724
    ],
    [
      0.1723659783601761,
      0.17653043568134308,
      -0.5155143141746521
    ],
    [
      0.27067527174949646,
      -0.4221178889274597,
      0.05646912381052971
    ],
    [
      -0.16547098755836487,
      -0.19541284441947937,
      0.1656121164560318
    ],
    [
      -0.34593045711517334,
      -0.20310954749584198,
      0.2183099240064621
    ],
    [
      0.19939319789409637,
      0.18080352246761322,
      -0.5319079756736755
    ],
    [
      -0.21720951795578003,
      -0.13434715569019318,
      0.16775088012218475
    ],
    [
      0.09427236765623093,
      0.07369015365839005,
      -0.5894216299057007
    ],
    [
      -0.4161076545715332,
      0.15786436200141907,
      0.04006114602088928
    ],
    [
      0.26898232102394104,
      0.24855637550354004,
      -0.33752310276031494
    ],
    [
      -0.2243114411830902,
      -0.5397713780403137,
      0.2693665325641632
    ],
    [
      0.19405630230903625,
      0.16618379950523376,
      -0.4266170263290405
    ],
    [
      0.2719380259513855,
      -0.5548052787780762,
      -0.047952502965927124
    ],
    [
      0.14030958712100983,
      0.1459788829088211,
      -0.5060966610908508
    ],
    [
      0.24765931069850922,
      0.22900596261024475,
      -0.3771813213825226
    ],
    [
      -0.1675204336643219,
      -0.36232471466064453,
      0.23221448063850403
    ],
    [
      0.18207131326198578,
      0.1713929921388626,
      -0.4927208721637726
    ],
    [
      0.14846371114253998,
      0.1312822848558426,
      -0.5351779460906982
    ],
    [
      -0.2641909420490265,
      -0.27815625071525574,
      0.2688165307044983
    ],
    [
      -0.3405163288116455,
      -0.28452134132385254,
      0.2672640085220337
    ],
    [
      0.18739716708660126,
      0.15700973570346832,
      -0.5156441926956177
    ],
    [
      0.2662450075149536,
      0.23980747163295746,
      -0.2851208746433258
    ],
    [
      0.10497274249792099,
      0.09278002381324768,
      -0.16078048944473267
    ],
    [
      0.08661039173603058,
      -0.5871934294700623,
      -0.030191870406270027
    ],
    [
      0.31164219975471497,
      0.2902577519416809,
      -0.4026186168193817
    ]
  ],
  "fc1.bias": [
    -0.45134270191192627,
    0.2832292318344116,
    -0.24998000264167786,
    -0.5403077006340027,
    -0.825488269329071,
    -0.6849873065948486,
    -0.5516002774238586,
    -0.08991546183824539,
    -0.7037326097488403,
    -0.08598735183477402,
    0.2741233706474304,
    0.09617631882429123,
    -0.6636502146720886,
    0.1909826248884201,
    -0.8099873065948486,
    -0.12503838539123535,
    -0.6431013941764832,
    -0.0841943621635437,
    -0.2274758666753769,
    -0.5092454552650452,
    -0.9151231050491333,
    -0.6243123412132263,
    0.15652944147586823,
    -0.4130043089389801,
    -0.7056193351745605,
    0.5314546823501587,
    0.5092951655387878,
    -0.5426878929138184,
    -0.5224217772483826,
    0.07139046490192413,
    -0.6072449088096619,
    -0.7552759647369385
  ],
  "fc2.weight": [
    [
      -0.5261120200157166,
      0.02003045752644539,
      0.11265415698289871,
      -0.006014586426317692,
      -0.3116222321987152,
      -0.6774610877037048,
      0.0963824912905693,
      0.08953866362571716,
      -2.536020278930664,
      0.0027758122887462378,
      0.057225145399570465,
      0.13124695420265198,
      -2.7379953861236572,
      0.06849279254674911,
      -0.7506292462348938,
      0.10141271352767944,
      -2.3600895404815674,
      0.08910040557384491,
      -0.001754548866301775,
      0.06409693509340286,
      -0.4803212881088257,
      -1.2851927280426025,
      0.09526552259922028,
      -0.2057524174451828,
      -2.189055919647217,
      0.09988816827535629,
      -0.0011173527454957366,
      -0.9209045171737671,
      -0.3670967221260071,
      -0.04947207123041153,
      0.2372884303331375,
      -2.0476152896881104
    ],
    [
      -1.6458828449249268,
      0.007301974575966597,
      0.05524137243628502,
      -2.700839042663574,
      -0.36151614785194397,
      -0.9396776556968689,
      0.08882759511470795,
      -1.5813344717025757,
      -0.10163198411464691,
      0.04936874657869339,
      0.04432881996035576,
      0.08299514651298523,
      -0.11756683140993118,
      0.07652692496776581,
      -0.3336266577243805,
      0.04677458852529526,
      -0.1869281679391861,
      0.010905723087489605,
      -3.371408462524414,
      -0.08631415665149689,
      -0.12488707154989243,
      -0.11673460900783539,
      0.039842214435338974,
      -2.9124367237091064,
      -0.9866135120391846,
      0.037853896617889404,
      0.012885373085737228,
      -1.8034430742263794,
      -1.9008300304412842,
      -0.7246571779251099,
      0.1899745911359787,
      -0.05177829787135124
    ],
    [
      -1.0390747785568237,
      0.01739761419594288,
      0.021643998101353645,
      -2.653012275695801,
      0.0582827590405941,
      -0.7978628873825073,
      0.03318064659833908,
      -2.846348762512207,
      -0.506260097026825,
      0.046675365418195724,
      0.02410316653549671,
      0.04074535891413689,
      -0.38829511404037476,
      0.05299309641122818,
      -0.3659016489982605,
      0.048174843192100525,
      -0.20105712115764618,
      0.037093330174684525,
      -3.513756513595581,
      -0.005969599355012178,
      0.07250744104385376,
      -0.053199805319309235,
      0.024561231955885887,
      -2.502668619155884,
      -0.3495178520679474,
      0.023425787687301636,
      0.010638734325766563,
      -1.1646331548690796,
      -1.6232048273086548,
      -0.957166314125061,
      0.027890605852007866,
      -0.07572585344314575
    ],
    [
      -1.2810797691345215,
      0.00019191902538295835,
      0.016616974025964737,
      -2.579798936843872,
      -0.017654908820986748,
      -0.7119532227516174,
      -0.010543192736804485,
      -5.169990062713623,
      0.012716024182736874,
      0.020895760506391525,
      0.005986993201076984,
      0.029949378222227097,
      -0.25608882308006287,
      0.03650400787591934,
      -0.2095033824443817,
      0.08238963782787323,
      -0.25123751163482666,
      0.009443098679184914,
      -4.109405040740967,
      -0.035647913813591,
      0.01655179262161255,
      -0.17795859277248383,
      0.01920003816485405,
      -1.9978952407836914,
      -0.4171276390552521,
      0.022428886964917183,
      0.005983531009405851,
      -1.769221544265747,
      -1.2900702953338623,
      -1.383522629737854,
      -0.0037434056866914034,
      -0.3401505947113037
    ],
    [
      -2.4625794887542725,
      0.0006620323983952403,
      0.08503250032663345,
      -1.7271161079406738,
      -0.025539403781294823,
      -1.6117454767227173,
      0.09839700907468796,
      -0.4934248626232147,
      -0.36077576875686646,
      0.01570763997733593,
      0.05414813011884689,
      0.07619594037532806,
      -0.7037235498428345,
      0.09560885280370712,
      -0.6967049241065979,
      0.057419344782829285,
      -0.23022763431072235,
      0.09677144140005112,
      -0.9646820425987244,
      0.025703124701976776,
      0.00852101668715477,
      -0.2202175110578537,
      0.04079462215304375,
      -2.5394716262817383,
      -1.2658026218414307,
      0.06690669804811478,
      -0.008353504352271557,
      -1.969873309135437,
      -2.7969460487365723,
      -0.2654094398021698,
      0.09124242514371872,
      -0.22282737493515015
    ],
    [
      0.09230131655931473,
      -0.0025904658250510693,
      0.11222657561302185,
      -0.10609099268913269,
      -0.1713748723268509,
      0.17393866181373596,
      0.1471225768327713,
      -0.022484295070171356,
      -0.05488293245434761,
      0.12634524703025818,
      0.11582647264003754,
      0.14597804844379425,
      -0.06267765909433365,
      0.13629423081874847,
      -0.14034926891326904,
      0.18805311620235443,
      -0.018591104075312614,
      0.15768316388130188,
      0.1111195906996727,
      0.04529472813010216,
      -0.14428718388080597,
      -0.03558508679270744,
      0.11249334365129471,
      -0.018785342574119568,
      0.0004824100178666413,
      0.05302294343709946,
      -0.007553902454674244,
      -0.05528758466243744,
      0.0026305264327675104,
      -0.09813453257083893,
      0.20002377033233643,
      -0.08173032104969025
    ],
    [
      -3.2237250804901123,
      0.004852973856031895,
      0.08217863738536835,
      -1.4238401651382446,
      -0.19669990241527557,
      -2.102954149246216,
      0.01802092045545578,
      -0.2066260725259781,
      -0.6281806826591492,
      0.010175787843763828,
      0.032032545655965805,
      0.07168330252170563,
      -0.7728267312049866,
      0.08400063961744308,
      -0.8506376147270203,
      0.07442574948072433,
      -0.5691680312156677,
      0.04329882562160492,
      -0.5076608657836914,
      -0.017839841544628143,
      -0.14827388525009155,
      -0.2451425939798355,
      0.08188688009977341,
      -1.8116722106933594,
      -1.6457469463348389,
      0.08060336112976074,
      -0.007155355531722307,
      -2.3386571407318115,
      -3.020242691040039,
      -0.11202867329120636,
      0.1040596067905426,
      -0.381579726934433
    ],
    [
      -3.080397605895996,
      0.0010095046600326896,
      0.10785751044750214,
      -0.3200347423553467,
      -0.05563923344016075,
      -1.4765452146530151,
      0.06462201476097107,
      -0.5389574766159058,
      -0.4686216413974762,
      -0.005184712819755077,
      0.03618689626455307,
      0.06909409165382385,
      -0.7801228165626526,
      0.029493557289242744,
      -0.4998047649860382,
      0.055505819618701935,
      -0.4270872175693512,
      0.06815878301858902,
      -1.240875005722046,
      0.018967926502227783,
      -0.1441287249326706,
      -0.19607041776180267,
      0.07284268736839294,
      -3.9734740257263184,
      -1.4075814485549927,
      0.0799868106842041,
      -0.019385412335395813,
      -2.596174478530884,
      -0.9278581738471985,
      -0.18229824304580688,
      0.11780277639627457,
      -0.3839849829673767
    ],
    [
      -0.0036434479989111423,
      -2.095067024230957,
      -2.418363094329834,
      0.04145054519176483,
      0.6886754035949707,
      0.21891477704048157,
      -0.7359821796417236,
      0.027114583179354668,
      0.24927474558353424,
      -0.04249115660786629,
      -0.8555484414100647,
      -1.5803152322769165,
      0.07851549237966537,
      -4.11224889755249,
      0.269458532333374,
      -0.2906239628791809,
      0.140065997838974,
      -1.62846839427948,
      0.04837706685066223,
      -0.012721250765025616,
      0.5191602110862732,
      0.17631757259368896,
      -0.9833853840827942,
      -0.00251822080463171,
      0.1657523661851883,
      -0.4702428877353668,
      -0.4454236626625061,
      0.13302698731422424,
      0.14471089839935303,
      0.08582744002342224,
      -0.1276526302099228,
      0.116374172270298
    ],
    [
      0.2538371980190277,
      -0.04762104153633118,
      -0.2697426974773407,
      0.03842554986476898,
      0.8799287676811218,
      0.15790261328220367,
      -0.2837328016757965,
      0.10627802461385727,
      0.23227931559085846,
      -0.08224570006132126,
      -0.07445185631513596,
      -0.18232402205467224,
      0.21593283116817474,
      -0.12132928520441055,
      0.3394315838813782,
      -0.13234204053878784,
      0.25739365816116333,
      -0.3087669014930725,
      0.13687074184417725,
      -0.11558561772108078,
      0.5964924097061157,
      0.20820139348506927,
      -0.16969233751296997,
      0.05197242647409439,
      0.13974153995513916,
      -0.06701236963272095,
      -0.010785982944071293,
      0.10944313555955887,
      0.2379179149866104,
      -0.021978165954351425,
      -0.3266184628009796,
      0.2774929702281952
    ],
    [
      -0.8327072858810425,
      0.008409296162426472,
      0.09810763597488403,
      -0.037807315587997437,
      -0.18637458980083466,
      -0.699152410030365,
      0.13504502177238464,
      0.01260757353156805,
      -1.2973712682724,
      0.02553671784698963,
      0.09148334711790085,
      0.12090352177619934,
      -2.8081817626953125,
      0.11154086142778397,
      -0.3232273459434509,
      0.07554453611373901,
      -2.0263969898223877,
      0.06958584487438202,
      -0.13688743114471436,
      0.052126795053482056,
      0.05604279413819313,
      -0.8592472076416016,
      0.09378460794687271,
      -0.2604775130748749,
      -1.6461435556411743,
      0.09010437875986099,
      0.012614596635103226,
      -0.9603316187858582,
      -0.3474434018135071,
      -0.07362467050552368,
      0.29632261395454407,
      -1.9372972249984741
    ],
    [
      -2.1662473678588867,
      -0.008425417356193066,
      0.0698188915848732,
      -1.7236201763153076,
      -0.09867195039987564,
      -1.593510389328003,
      0.07298678159713745,
      -0.5946723818778992,
      -0.30783960223197937,
      0.04535628482699394,
      0.0426986962556839,
      0.04785491153597832,
      -0.34590697288513184,
      0.08122604340314865,
      -0.21298672258853912,
      0.05435563996434212,
      -0.1722809374332428,
      0.07529605180025101,
      -1.2345269918441772,
      0.014554761350154877,
      -0.08338479697704315,
      -0.037002723664045334,
      0.041752081364393234,
      -3.5667810440063477,
      -1.1160162687301636,
      0.05976608023047447,
      0.011326590552926064,
      -2.0687758922576904,
      -2.8478293418884277,
      -0.2605942487716675,
      0.18518361449241638,
      -0.17266924679279327
    ],
    [
      0.057024549692869186,
      -0.8891026973724365,
      -2.032597541809082,
      0.03641487658023834,
      0.5826915502548218,
      0.10474066436290741,
      -0.5148776769638062,
      0.0616450160741806,
      0.1507221758365631,
      -0.20255587995052338,
      -2.8837175369262695,
      -0.8591489195823669,
      0.09540645778179169,
      -3.501155138015747,
      0.25948792695999146,
      -0.22210580110549927,
      0.19954939186573029,
      -1.2079269886016846,
      -0.021894969046115875,
      -0.2687740921974182,
      0.6423327922821045,
      0.10511163622140884,
      -2.6595354080200195,
      0.0521879680454731,
      0.09663677215576172,
      -1.1420193910598755,
      -0.9137996435165405,
      0.017224876210093498,
      0.058191899210214615,
      0.06363973021507263,
      -1.179091453552246,
      0.08238205313682556
    ],
    [
      0.06749067455530167,
      -0.09084046632051468,
      -0.13219504058361053,
      -0.14926381409168243,
      -0.14051564037799835,
      -0.17425008118152618,
      0.13601580262184143,
      -0.009874159470200539,
      0.1325029581785202,
      -0.012967665679752827,
      -0.1136130690574646,
      -0.16155263781547546,
      0.13122989237308502,
      -0.16594792902469635,
      -0.054356399923563004,
      -0.1144956424832344,
      -0.017058640718460083,
      -0.14981494843959808,
      -0.01152045838534832,
      0.37265869975090027,
      -0.14405135810375214,
      -0.23609869182109833,
      -0.12364462018013,
      0.021904882043600082,
      0.05097606033086777,
      -0.07296855747699738,
      0.7717622518539429,
      0.038391776382923126,
      0.019654788076877594,
      -0.03518117219209671,
      -0.3522516191005707,
      -0.07974811643362045
    ],
    [
      0.057613249868154526,
      -0.13974373042583466,
      -0.28362128138542175,
      0.18868353962898254,
      0.8732737898826599,
      0.21441984176635742,
      -0.05627243593335152,
      0.06642146408557892,
      0.07632051408290863,
      -0.035145413130521774,
      -0.08688771724700928,
      -0.4416608512401581,
      0.20262455940246582,
      -0.20791840553283691,
      0.2988910973072052,
      -0.025538312271237373,
      0.13732533156871796,
      -0.5499926209449768,
      0.03650279343128204,
      -0.07026953250169754,
      0.524830162525177,
      0.30689916014671326,
      -0.2180178165435791,
      0.11814628541469574,
      0.21065036952495575,
      -0.07329056411981583,
      -0.05009298771619797,
      0.1138700619339943,
      0.12130650132894516,
      -0.03795536607503891,
      -0.2388233095407486,
      0.14948463439941406
    ],
    [
      -0.37463080883026123,
      -0.024956727400422096,
      0.08654887229204178,
      -0.0613536462187767,
      -0.014853320084512234,
      -0.7983765006065369,
      0.21382750570774078,
      0.05832340195775032,
      -1.884982943534851,
      0.052883729338645935,
      0.08729042857885361,
      0.1254565268754959,
      -2.0179944038391113,
      0.12003253400325775,
      -0.7690011262893677,
      0.06796189397573471,
      -2.2280890941619873,
      0.1332763135433197,
      -0.0001722816377878189,
      0.02092868648469448,
      -0.2734142243862152,
      -1.053009033203125,
      0.07184675335884094,
      -0.1490383744239807,
      -1.48886239528656,
      0.11830266565084457,
      -0.011482235975563526,
      -0.7005738019943237,
      -0.3566237688064575,
      -0.09618187695741653,
      0.23233218491077423,
      -1.981939435005188
    ],
    [
      0.07605195045471191,
      0.03418181091547012,
      -0.13766823709011078,
      -0.04661204293370247,
      0.044657427817583084,
      0.0005499515682458878,
      0.020904866978526115,
      -0.09426523000001907,
      -0.1669156402349472,
      -0.154763326048851,
      -0.10234712064266205,
      -0.01948898285627365,
      -0.15436315536499023,
      -0.13299252092838287,
      -0.0804205909371376,
      -0.10174509882926941,
      -0.025975653901696205,
      -0.07794288545846939,
      -0.12535320222377777,
      0.00944582186639309,
      -0.14343146979808807,
      -0.18165960907936096,
      -0.1805204451084137,
      -0.16736972332000732,
      -0.055016010999679565,
      -0.108605295419693,
      0.04395945742726326,
      -0.10925480723381042,
      -0.15080143511295319,
      0.05682770535349846,
      0.07823456823825836,
      0.11626295000314713
    ],
    [
      0.10728691518306732,
      -0.6033549904823303,
      -0.4723520874977112,
      0.11620824038982391,
      0.6006616950035095,
      0.23268523812294006,
      -0.027914339676499367,
      0.01101202517747879,
      0.218979150056839,
      -0.059857841581106186,
      -0.12571999430656433,
      -1.567122459411621,
      0.22064729034900665,
      -0.3155042827129364,
      0.34893661737442017,
      0.005584730766713619,
      0.17895828187465668,
      -0.9584692120552063,
      0.07382741570472717,
      -0.04138993099331856,
      0.3652969002723694,
      0.2001516968011856,
      -0.3455686569213867,
      0.06593931466341019,
      0.09613007307052612,
      -0.11282172054052353,
      -0.13669991493225098,
      0.14623548090457916,
      0.10636378079652786,
      -0.04748135432600975,
      -0.17323647439479828,
      0.20654572546482086
    ],
    [
      -0.03680149093270302,
      0.6346378922462463,
      -0.17731335759162903,
      -0.6823630332946777,
      -0.030617063865065575,
      -2.1378414630889893,
      0.42229217290878296,
      0.03362905606627464,
      -0.2514660656452179,
      -0.04261193051934242,
      -0.11918233335018158,
      -0.169804647564888,
      -0.20146875083446503,
      -0.20298027992248535,
      -0.10563074797391891,
      -0.09890466183423996,
      -1.1126176118850708,
      -0.14887258410453796,
      0.008265982381999493,
      0.23020753264427185,
      -0.21798624098300934,
      -0.40733835101127625,
      -0.16906537115573883,
      0.03632830083370209,
      -0.10333964973688126,
      -0.07549590617418289,
      -0.0595037117600441,
      -0.0321924090385437,
      -1.6550877094268799,
      0.031238237395882607,
      -0.2639468014240265,
      -0.886900007724762
    ],
    [
      0.07015331834554672,
      -1.5836749076843262,
      -1.4065173864364624,
      0.10332845151424408,
      0.5866307616233826,
      0.10397890955209732,
      -1.9126596450805664,
      -0.043986137956380844,
      0.14034482836723328,
      -0.05586608499288559,
      -2.5930943489074707,
      -0.934650719165802,
      0.08634471148252487,
      -3.5988833904266357,
      -0.054253894835710526,
      -0.9918525218963623,
      0.11616164445877075,
      -1.0965325832366943,
      0.04893516004085541,
      -0.04318029433488846,
      0.5270172953605652,
      0.09471963346004486,
      -1.355620265007019,
      0.004498305264860392,
      0.14360210299491882,
      -2.132368803024292,
      -2.4230639934539795,
      0.006221938878297806,
      0.037460483610630035,
      0.040328480303287506,
      -0.12348916381597519,
      0.12511946260929108
    ],
    [
      -0.1697453260421753,
      -0.036247026175260544,
      0.04922153428196907,
      -0.830337643623352,
      -0.23726584017276764,
      -2.2013237476348877,
      -0.1682850867509842,
      -0.07905629277229309,
      -1.2836612462997437,
      -0.0035990679170936346,
      0.0596475824713707,
      0.03302823379635811,
      -0.8424873948097229,
      0.037586867809295654,
      -1.1497422456741333,
      0.04591922089457512,
      -2.261427164077759,
      0.058671735227108,
      -0.08951832354068756,
      -0.13987764716148376,
      -0.27813562750816345,
      -1.482155680656433,
      0.050459664314985275,
      -0.08487790822982788,
      -0.7025856971740723,
      -2.518817186355591,
      -0.06284990161657333,
      -0.2573966979980469,
      -1.0845072269439697,
      -0.047753576189279556,
      0.09780513495206833,
      -1.4988442659378052
    ],
    [
      -0.7099357843399048,
      0.019996825605630875,
      0.09643231332302094,
      -0.2751169204711914,
      -0.09842687100172043,
      -2.414369583129883,
      0.056902531534433365,
      0.06889486312866211,
      -2.034362316131592,
      -0.003454742254689336,
      0.04774991050362587,
      0.11633643507957458,
      -2.4204399585723877,
      0.05843333154916763,
      -0.58333420753479,
      0.09029506891965866,
      -1.907865285873413,
      0.11386393755674362,
      -0.02346339076757431,
      0.05441342294216156,
      -0.22671642899513245,
      -0.6350335478782654,
      0.10123767703771591,
      -0.17128902673721313,
      -1.5879344940185547,
      0.10129894316196442,
      -0.03532963991165161,
      -0.952440619468689,
      -0.6301537156105042,
      -0.07774713635444641,
      0.24442178010940552,
      -1.3716094493865967
    ],
    [
      0.19526290893554688,
      -0.028385311365127563,
      -0.2922816276550293,
      0.14843589067459106,
      0.6532471776008606,
      0.08689035475254059,
      -0.25011369585990906,
      0.0633360892534256,
      0.17113113403320312,
      -0.08929698169231415,
      -0.06034131348133087,
      -0.1814555823802948,
      0.17298440635204315,
      -0.10397282242774963,
      0.406949520111084,
      -0.10939081758260727,
      0.23144479095935822,
      -0.2836838960647583,
      0.05148562416434288,
      -0.09132561087608337,
      0.6087250113487244,
      0.22000740468502045,
      -0.12359572947025299,
      0.07310114800930023,
      0.16121558845043182,
      -0.07210701704025269,
      -0.017652250826358795,
      0.1491449624300003,
      0.21057701110839844,
      -0.008034114725887775,
      -0.2851880192756653,
      0.07921656221151352
    ],
    [
      -1.917001485824585,
      -0.00794399343430996,
      0.09171809256076813,
      -0.5295929312705994,
      -0.22745144367218018,
      -2.5616073608398438,
      0.07049151510000229,
      -0.09618957340717316,
      -1.19740891456604,
      0.003377419663593173,
      0.04547751322388649,
      0.11474604904651642,
      -1.802773118019104,
      0.12398996204137802,
      -0.6055346131324768,
      0.09797992557287216,
      -1.0130683183670044,
      0.08088601380586624,
      -0.20195795595645905,
      0.01380850002169609,
      -0.17795191705226898,
      -0.5302985906600952,
      0.07418979704380035,
      -0.5939503312110901,
      -1.6506586074829102,
      0.09744077175855637,
      -0.0019721509888768196,
      -1.3819478750228882,
      -1.185076117515564,
      -0.0454770103096962,
      0.22337278723716736,
      -0.752637505531311
    ],
    [
      0.1191127747297287,
      -0.10265291482210159,
      -0.32222291827201843,
      0.15056072175502777,
      0.6415748596191406,
      0.16500402987003326,
      -0.2163585126399994,
      0.1493515819311142,
      0.2517320215702057,
      -0.12158738821744919,
      -0.07523749768733978,
      -0.22966459393501282,
      0.11526569724082947,
      -0.09098624438047409,
      0.21172869205474854,
      -0.1372695118188858,
      0.0801650658249855,
      -1.5598455667495728,
      0.04723614081740379,
      -0.14542105793952942,
      0.3151313066482544,
      0.18151423335075378,
      -0.19189570844173431,
      0.16098830103874207,
      0.19269061088562012,
      -0.10002036392688751,
      -0.04159998893737793,
      0.18450447916984558,
      0.16252382099628448,
      0.0076604122295975685,
      -0.3064022660255432,
      0.22216570377349854
    ],
    [
      0.1258731335401535,
      -1.6362887620925903,
      -0.48611316084861755,
      0.1606021672487259,
      0.5753090977668762,
      0.034734126180410385,
      0.010710426606237888,
      0.06453879177570343,
      0.11788712441921234,
      -0.14532117545604706,
      -0.5478532910346985,
      -2.300499439239502,
      0.11892928928136826,
      -1.376063346862793,
      0.24003422260284424,
      -0.07465656846761703,
      0.042296089231967926,
      -1.8317327499389648,
      0.05563230440020561,
      -0.269289493560791,
      0.47803977131843567,
      0.12671086192131042,
      -2.018378973007202,
      0.07979407161474228,
      0.1534961462020874,
      -0.25154605507850647,
      -0.22658221423625946,
      0.1336388885974884,
      0.12181958556175232,
      0.02008652314543724,
      -1.2071056365966797,
      0.16720250248908997
    ],
    [
      0.18116343021392822,
      -2.495561122894287,
      -1.544569730758667,
      0.18712793290615082,
      0.8094062209129333,
      0.06534304469823837,
      -0.32804879546165466,
      0.058371614664793015,
      0.2525409460067749,
      -0.05100824683904648,
      -0.14392797648906708,
      -2.3800554275512695,
      0.22763597965240479,
      -1.1072908639907837,
      0.2541005611419678,
      -0.213454470038414,
      0.10005620121955872,
      -1.2472319602966309,
      0.013545888476073742,
      -0.07140178978443146,
      0.7471864819526672,
      0.07312504202127457,
      -0.520995020866394,
      0.08850890398025513,
      0.08691571652889252,
      -0.16192084550857544,
      -0.23011937737464905,
      0.2734600901603699,
      -0.03504398092627525,
      -0.016964424401521683,
      -0.1807020902633667,
      0.2766415476799011
    ],
    [
      -2.04669451713562,
      0.02206444926559925,
      0.10580643266439438,
      0.044437285512685776,
      -0.1263798177242279,
      -0.483315646648407,
      0.11557961255311966,
      -0.07164027541875839,
      -0.9968072772026062,
      0.017005430534482002,
      0.039485469460487366,
      0.09800007194280624,
      -1.8820972442626953,
      0.10733854025602341,
      -0.6237293481826782,
      0.08072642982006073,
      -1.6312028169631958,
      0.09685418754816055,
      -0.26822397112846375,
      -0.03934406116604805,
      -0.21513731777668,
      -0.4842572510242462,
      0.10457035154104233,
      -0.7141454815864563,
      -1.6282014846801758,
      0.10122482478618622,
      -0.023870768025517464,
      -1.5524096488952637,
      -0.1734941005706787,
      -0.07002689689397812,
      0.3127550184726715,
      -1.4010008573532104
    ],
    [
      -2.791757583618164,
      -0.0018959064036607742,
      0.08348459750413895,
      -1.2522584199905396,
      -0.10153275728225708,
      -2.329608201980591,
      0.0734730139374733,
      -0.07204556465148926,
      -0.7921279072761536,
      0.024644430726766586,
      0.05932023376226425,
      0.09195614606142044,
      -1.4784427881240845,
      0.0871070846915245,
      -0.49830710887908936,
      0.06485725939273834,
      -0.6296619772911072,
      0.09423710405826569,
      -0.1915368288755417,
      0.03028007037937641,
      0.0480782687664032,
      -0.08446963131427765,
      0.0813593715429306,
      -0.6816616654396057,
      -1.626240849494934,
      0.09596605598926544,
      -0.02297632023692131,
      -1.706071138381958,
      -2.6086580753326416,
      -0.10609104484319687,
      0.1678209751844406,
      -0.5435935258865356
    ],
    [
      -1.4494730234146118,
      -0.005856573581695557,
      0.10380050539970398,
      -0.9902154803276062,
      -0.2705802917480469,
      -2.7519924640655518,
      0.11151966452598572,
      -0.06802944839000702,
      -1.4596189260482788,
      0.0033936735708266497,
      0.08362077921628952,
      0.10987064242362976,
      -2.330939292907715,
      0.11493576318025589,
      -0.4717840850353241,
      0.06904223561286926,
      -1.022719383239746,
      0.10125269740819931,
      -0.10496952384710312,
      0.030208319425582886,
      -0.2538229823112488,
      -0.6780521869659424,
      0.08205373585224152,
      -0.3812975585460663,
      -1.6230844259262085,
      0.09536287933588028,
      -0.00012033508392050862,
      -1.0451630353927612,
      -2.00419545173645,
      -0.11014153063297272,
      0.21202491223812103,
      -0.828467845916748
    ],
    [
      0.08754204213619232,
      -0.7793495655059814,
      -0.6392492055892944,
      0.13979323208332062,
      0.6059651374816895,
      0.07793373614549637,
      -0.12212551385164261,
      0.10473080724477768,
      0.14108000695705414,
      -0.6201806664466858,
      -0.38081300258636475,
      -2.179800033569336,
      0.11367429792881012,
      -0.26101115345954895,
      0.32757943868637085,
      -0.15666517615318298,
      0.1880190223455429,
      -1.2271754741668701,
      0.1221514642238617,
      -1.194777011871338,
      0.6711307168006897,
      0.3260694146156311,
      -1.915810465812683,
      0.06782782077789307,
      0.2037670761346817,
      -0.10061286389827728,
      -0.08381936699151993,
      0.11819980293512344,
      0.10550395399332047,
      0.009624539874494076,
      -1.8029710054397583,
      0.1324843168258667
    ],
    [
      -3.1853058338165283,
      0.021235156804323196,
      0.10049370676279068,
      0.004971507005393505,
      -0.004812671337276697,
      -0.7693988084793091,
      0.12954621016979218,
      -0.15589039027690887,
      -0.3385719060897827,
      -0.0018490286311134696,
      0.08229681104421616,
      0.10634253919124603,
      -1.3426225185394287,
      0.06557353585958481,
      -0.4285907447338104,
      0.07471488416194916,
      -0.9985113143920898,
      0.09159526228904724,
      -0.4468711316585541,
      -0.020129293203353882,
      -0.05891918018460274,
      -0.261564165353775,
      0.0796595886349678,
      -1.2691277265548706,
      -1.8499647378921509,
      0.0630655363202095,
      -0.010919536463916302,
      -1.8427057266235352,
      -0.353857159614563,
      -0.03957244008779526,
      0.268475741147995,
      -0.932400107383728
    ]
  ],
  "fc2.bias": [
    0.19302906095981598,
    0.24687133729457855,
    0.19010145962238312,
    0.17625337839126587,
    0.20081882178783417,
    -0.781928539276123,
    0.2508310377597809,
    0.237147718667984,
    0.3186989724636078,
    0.28669095039367676,
    0.16397367417812347,
    0.20639702677726746,
    0.30354490876197815,
    -0.26571306586265564,
    0.2983282804489136,
    0.14835569262504578,
    -0.19055227935314178,
    0.2991628348827362,
    0.014100948348641396,
    0.3129037320613861,
    0.24994896352291107,
    0.20682917535305023,
    0.27544423937797546,
    0.23757748305797577,
    0.27745071053504944,
    0.2710682451725006,
    0.3158250153064728,
    0.20229695737361908,
    0.2154242992401123,
    0.20454156398773193,
    0.26421934366226196,
    0.2128402143716812
  ],
  "fc3.weight": [
    [
      -0.08091899752616882,
      -0.11564888060092926,
      -0.16789352893829346,
      -0.1840137094259262,
      -0.10331664979457855,
      0.4059642553329468,
      -0.09985251724720001,
      -0.10153699666261673,
      0.20749346911907196,
      0.17456604540348053,
      -0.0916735902428627,
      -0.11629611998796463,
      0.2779373824596405,
      -0.45868343114852905,
      0.1685502827167511,
      -0.08590905368328094,
      0.08663713932037354,
      0.20460861921310425,
      -0.36267706751823425,
      0.33023717999458313,
      -0.2982814311981201,
      -0.08814697712659836,
      0.17330798506736755,
      -0.09806208312511444,
      0.18552067875862122,
      0.23787344992160797,
      0.19271129369735718,
      -0.09219127893447876,
      -0.09481910616159439,
      -0.09047296643257141,
      0.21056324243545532,
      -0.09337342530488968
    ]
  ],
  "fc3.bias": [
    0.20432306826114655
  ]
}