{
  "fc1.weight": [
    [
      0.3389653265476227
    ],
    [
      0.33441871404647827
    ],
    [
      0.4887712299823761
    ],
    [
      0.2652285099029541
    ],
    [
      -0.2971605658531189
    ],
    [
      -0.61913001537323
    ],
    [
      0.6065509915351868
    ],
    [
      -0.6720424890518188
    ],
    [
      -0.29830655455589294
    ],
    [
      -0.3085474967956543
    ],
    [
      0.5703331232070923
    ],
    [
      -1.0469106435775757
    ],
    [
      -0.7367876172065735
    ],
    [
      -0.12529301643371582
    ],
    [
      -0.5589434504508972
    ],
    [
      0.19594550132751465
    ],
    [
      -0.35023367404937744
    ],
    [
      0.5841216444969177
    ],
    [
      -0.6303253769874573
    ],
    [
      0.1890670359134674
    ],
    [
      0.23181091248989105
    ],
    [
      -0.7791711688041687
    ],
    [
      -0.6266584396362305
    ],
    [
      -0.5267624855041504
    ],
    [
      -0.6242138147354126
    ],
    [
      -0.3638598918914795
    ],
    [
      0.295878529548645
    ],
    [
      0.27147185802459717
    ],
    [
      0.24770762026309967
    ],
    [
      0.7047163248062134
    ],
    [
      0.15840713679790497
    ],
    [
      -0.6174218654632568
    ]
  ],
  "fc1.bias": [
    0.04379940778017044,
    -0.3785330057144165,
    -0.5749337673187256,
    0.21454204618930817,
    0.36073076725006104,
    0.2120966613292694,
    -0.7578138709068298,
    -0.5663098096847534,
    0.4092669188976288,
    0.3538157045841217,
    -0.722717821598053,
    0.8335837721824646,
    -0.538316547870636,
    -0.33741939067840576,
    0.10156533867120743,
    -0.6432980298995972,
    -0.9060397148132324,
    -0.7722828984260559,
    0.28427478671073914,
    0.20377026498317719,
    0.1305980086326599,
    -0.6784054636955261,
    0.6394314765930176,
    0.34263673424720764,
    0.582849383354187,
    0.4503116011619568,
    0.0590621642768383,
    0.10415732115507126,
    0.17570973932743073,
    -0.9381928443908691,
    0.19349069893360138,
    -0.5722185969352722
  ],
  "fc2.weight": [
    [
      -2.6000590324401855,
      -0.38402989506721497,
      -0.36897027492523193,
      -0.22916680574417114,
      0.055812638252973557,
      0.06387586146593094,
      -0.08404351770877838,
      0.1906929910182953,
      0.056459031999111176,
      0.028255833312869072,
      -0.33336740732192993,
      -0.014273467473685741,
      0.14083454012870789,
      -0.03108268976211548,
      0.08950352668762207,
      -0.0008332431316375732,
      0.15386708080768585,
      -0.36867544054985046,
      0.046674974262714386,
      -0.2523985207080841,
      -0.3997570276260376,
      0.11675041913986206,
      0.0034020808525383472,
      0.06298695504665375,
      0.018047815188765526,
      0.0630572959780693,
      -1.3160992860794067,
      -0.5736680030822754,
      -0.2718355357646942,
      -0.38157913088798523,
      -0.24599091708660126,
      0.13854090869426727
    ],
    [
      -0.055381279438734055,
      0.09408899396657944,
      0.19904029369354248,
      -0.030001848936080933,
      -0.13983461260795593,
      -2.7410480976104736,
      0.15199069678783417,
      -0.09718665480613708,
      -0.04641195014119148,
      -0.17620638012886047,
      0.06160972639918327,
      -0.31782352924346924,
      -0.11640965938568115,
      0.1372816413640976,
      -0.9758515357971191,
      0.13515831530094147,
      0.03856566548347473,
      0.21305513381958008,
      -4.953266143798828,
      -0.0249631404876709,
      -0.021759601309895515,
      -0.1545509397983551,
      -0.16230881214141846,
      -1.8623056411743164,
      -0.20052169263362885,
      -0.04492124170064926,
      -0.032139331102371216,
      -0.011978931725025177,
      -0.01626010239124298,
      0.07804480940103531,
      -0.024924740195274353,
      -0.19354143738746643
    ],
    [
      -4.648611068725586,
      -0.5804760456085205,
      -0.25227591395378113,
      -0.3968329429626465,
      0.03001393936574459,
      0.0045316400937736034,
      -0.09334321320056915,
      0.13409900665283203,
      -0.0018577728187665343,
      -0.004916416015475988,
      -0.5671431422233582,
      -0.021122436970472336,
      0.027008380740880966,
      -0.11113478988409042,
      0.010433553718030453,
      0.16086255013942719,
      0.10873429477214813,
      -0.3104074001312256,
      0.026340771466493607,
      -0.27357617020606995,
      -0.8808324337005615,
      0.09891082346439362,
      0.014225145801901817,
      0.008214408531785011,
      0.008452887646853924,
      0.004841315094381571,
      -6.672674655914307,
      -1.7395637035369873,
      -0.5496760010719299,
      -0.25743022561073303,
      -0.31486815214157104,
      0.1918051391839981
    ],
    [
      -5.070230960845947,
      -0.5846728682518005,
      -0.3118153512477875,
      -0.29079514741897583,
      0.05187596008181572,
      0.024988792836666107,
      -0.08187149465084076,
      0.12491563707590103,
      0.012776088900864124,
      0.05898059904575348,
      -0.3129337430000305,
      -0.016087139025330544,
      0.10050302743911743,
      0.1766766458749771,
      0.04595781862735748,
      -0.17213347554206848,
      -0.12396536767482758,
      -0.22384591400623322,
      0.02051563188433647,
      -0.264226496219635,
      -0.6184943318367004,
      0.16341610252857208,
      0.031168052926659584,
      0.02892216295003891,
      0.019223880022764206,
      0.026044538244605064,
      -2.443242311477661,
      -0.9400871992111206,
      -0.4111744165420532,
      -0.239660382270813,
      -0.31548619270324707,
      0.10540439933538437
    ],
    [
      -1.099806785583496,
      -0.008746595121920109,
      -0.18629857897758484,
      -2.5429463386535645,
      -0.010598707012832165,
      -0.011689992621541023,
      -0.24101072549819946,
      0.02071443200111389,
      -0.0025976072065532207,
      -0.03483331948518753,
      -0.17011456191539764,
      -0.027013985440135002,
      -0.024033084511756897,
      -0.14306196570396423,
      -0.013788617216050625,
      -0.16722939908504486,
      0.152351513504982,
      -0.14381879568099976,
      -0.0032963308040052652,
      -1.5788166522979736,
      -5.3550567626953125,
      0.015381015837192535,
      -0.007664915174245834,
      -0.018553223460912704,
      -0.017869357019662857,
      0.005785784684121609,
      -1.519960880279541,
      -3.3017184734344482,
      -4.323761940002441,
      0.09023750573396683,
      -1.6578423976898193,
      0.044157613068819046
    ],
    [
      0.14382997155189514,
      0.5466883778572083,
      0.19030262529850006,
      0.022479401901364326,
      -0.04447721689939499,
      -0.2455560714006424,
      0.12089700996875763,
      -0.2630668580532074,
      -0.037972819060087204,
      -0.06743916124105453,
      0.2548179626464844,
      -0.023899009451270103,
      -0.7895193099975586,
      -0.03671729564666748,
      -0.7561281323432922,
      0.11123491823673248,
      -0.009694769978523254,
      0.32400190830230713,
      -0.17028909921646118,
      0.09429660439491272,
      0.08189520984888077,
      -0.31946486234664917,
      -0.03587543964385986,
      -0.11012529581785202,
      -0.029825765639543533,
      -0.030175358057022095,
      0.07900474965572357,
      0.06832243502140045,
      0.07832843065261841,
      0.12216255813837051,
      0.05358530953526497,
      -0.4585816264152527
    ],
    [
      -2.3265087604522705,
      -0.24608024954795837,
      -0.25605547428131104,
      -0.9469420909881592,
      -0.026977844536304474,
      -0.025616666302084923,
      -0.16502709686756134,
      0.06927196681499481,
      -0.0034248679876327515,
      -0.0035324504133313894,
      -0.24952960014343262,
      -0.033555757254362106,
      0.03499193117022514,
      -0.057271599769592285,
      -0.04667767509818077,
      -0.16316255927085876,
      0.060505807399749756,
      -0.1198577806353569,
      -0.007534408941864967,
      -0.7104611396789551,
      -3.339744806289673,
      0.12298508733510971,
      -0.007650887127965689,
      -0.015032196417450905,
      -0.008066150359809399,
      -0.003994670230895281,
      -3.694427013397217,
      -6.511053085327148,
      -1.4469588994979858,
      -0.17750929296016693,
      -0.7188454270362854,
      0.027977364137768745
    ],
    [
      0.10652229189872742,
      0.3926905691623688,
      0.2021677941083908,
      0.036298997700214386,
      -0.046685051172971725,
      -0.4131397306919098,
      0.15781252086162567,
      -0.2564120590686798,
      -0.047251954674720764,
      -0.07737230509519577,
      0.25724589824676514,
      -0.0018918915884569287,
      -0.5267005562782288,
      0.12410105764865875,
      -1.3536248207092285,
      -0.11724020540714264,
      0.1072842925786972,
      0.21564772725105286,
      -0.2431022673845291,
      0.04153846949338913,
      0.062287066131830215,
      -0.22427619993686676,
      -0.03064471296966076,
      -0.12668262422084808,
      -0.06556180864572525,
      -0.028861958533525467,
      0.11837907880544662,
      0.05859588086605072,
      0.052413709461688995,
      0.1816091686487198,
      0.05284905061125755,
      -0.14745685458183289
    ],
    [
      0.060645200312137604,
      0.18223321437835693,
      0.30409422516822815,
      0.003087768331170082,
      -0.07093992084264755,
      -0.6451455950737,
      0.20834852755069733,
      -0.33970969915390015,
      -0.06653019785881042,
      -0.08580151945352554,
      0.36319971084594727,
      -0.036262694746255875,
      -0.6502926349639893,
      0.058665961027145386,
      -4.8169403076171875,
      -0.13664273917675018,
      0.15547026693820953,
      0.1351308375597,
      -0.30841192603111267,
      0.015070490539073944,
      0.014433731324970722,
      -0.19281715154647827,
      -0.034544747322797775,
      -0.1688254028558731,
      -0.06878448277711868,
      -0.061394982039928436,
      0.027546511963009834,
      0.018260076642036438,
      0.00038080147351138294,
      0.2077627331018448,
      0.01766352914273739,
      -0.4958055913448334
    ],
    [
      -0.061962734907865524,
      0.14416785538196564,
      0.055692750960588455,
      0.0059969378635287285,
      -0.3330278694629669,
      -0.7228941917419434,
      0.04737650603055954,
      -0.13063113391399384,
      -0.17536664009094238,
      -0.47619959712028503,
      0.00548597564920783,
      -2.4032413959503174,
      0.08244998753070831,
      -0.05494111031293869,
      -0.5562713146209717,
      0.0921478122472763,
      0.1363665610551834,
      0.0891171544790268,
      -1.6883823871612549,
      0.0008301445050165057,
      -0.0010473330039530993,
      0.12015100568532944,
      -0.444846510887146,
      -3.655494451522827,
      -0.8062058687210083,
      -0.17055363953113556,
      -0.07295098155736923,
      -0.020938299596309662,
      -0.05874763801693916,
      0.06488657742738724,
      -0.0025983692612499,
      0.00908704660832882
    ],
    [
      0.10581482201814651,
      0.30550551414489746,
      0.4324001967906952,
      0.06625643372535706,
      -0.061186496168375015,
      -0.37396925687789917,
      0.17400111258029938,
      -0.17708353698253632,
      -0.06931976228952408,
      -0.10798781365156174,
      0.2653772830963135,
      -0.03030223399400711,
      -0.7398192882537842,
      0.017375946044921875,
      -1.1963499784469604,
      -0.12042945623397827,
      -0.01705227792263031,
      0.22609171271324158,
      -0.22596342861652374,
      0.07364021986722946,
      0.051740195602178574,
      -0.3799096345901489,
      -0.05566086620092392,
      -0.13125541806221008,
      -0.03161926940083504,
      -0.04373154416680336,
      0.07141248881816864,
      0.07192032784223557,
      0.028443284332752228,
      0.12153752148151398,
      0.0009396927198395133,
      -0.5379219055175781
    ],
    [
      -0.06686066836118698,
      -0.1814679056406021,
      -0.027757221832871437,
      -0.006233342923223972,
      -0.9452386498451233,
      -0.3682531416416168,
      -0.11177513748407364,
      -0.19891034066677094,
      -0.5824659466743469,
      -1.2588955163955688,
      0.014992809854447842,
      -1.900989294052124,
      0.00464221928268671,
      0.12142755091190338,
      -0.4173552691936493,
      -0.15175166726112366,
      -0.09202690422534943,
      0.00643013883382082,
      -0.37035906314849854,
      0.0008415117627009749,
      -0.06297136843204498,
      -0.1626231074333191,
      -1.3251341581344604,
      -1.195731520652771,
      -3.436563014984131,
      -0.5086860656738281,
      -0.04050716385245323,
      -0.04568985477089882,
      -0.010452015325427055,
      0.11616843193769455,
      -0.02652391791343689,
      -0.04343777522444725
    ],
    [
      0.03448895364999771,
      0.3201334774494171,
      0.2234525978565216,
      0.02051330730319023,
      -0.08449111878871918,
      -1.8387585878372192,
      0.23724627494812012,
      -0.3703540861606598,
      -0.07183286547660828,
      -0.11647200584411621,
      0.20340250432491302,
      -0.06362397968769073,
      -0.5883913040161133,
      -0.011218607425689697,
      -4.777257442474365,
      -0.12290406227111816,
      0.03436276316642761,
      0.14957231283187866,
      -0.5209446549415588,
      0.04942501708865166,
      -0.01878422312438488,
      0.0488908514380455,
      -0.08077706396579742,
      -0.3035883605480194,
      -0.11721191555261612,
      -0.0402347594499588,
      0.010261686518788338,
      0.045075733214616776,
      0.04211225360631943,
      0.2003897875547409,
      0.013307644054293633,
      -0.3783884346485138
    ],
    [
      0.1527320295572281,
      0.5445540547370911,
      0.3664330244064331,
      0.06039443984627724,
      -0.08138997107744217,
      -0.2846238315105438,
      0.28036245703697205,
      -0.25708407163619995,
      -0.06110568717122078,
      -0.08183303475379944,
      0.20090793073177338,
      -0.028732918202877045,
      -0.7885984778404236,
      0.05176028609275818,
      -0.8320044875144958,
      -0.06056622415781021,
      0.029560044407844543,
      0.21206341683864594,
      -0.1917007565498352,
      0.037665389478206635,
      0.02961287461221218,
      -0.2948780059814453,
      -0.046968016773462296,
      -0.12103661894798279,
      -0.054838068783283234,
      -0.06771575659513474,
      0.10235308855772018,
      0.10700970143079758,
      0.13440784811973572,
      0.21211005747318268,
      0.09179430454969406,
      -0.37156006693840027
    ],
    [
      -0.04383764788508415,
      0.22511328756809235,
      0.19312037527561188,
      -0.02434597536921501,
      -0.12399179488420486,
      -4.067407608032227,
      0.20110012590885162,
      -0.1601881980895996,
      -0.06272029876708984,
      -0.1717929244041443,
      0.1309143304824829,
      -0.16703267395496368,
      -0.29596570134162903,
      -0.07909218221902847,
      -2.1321237087249756,
      0.16167671978473663,
      -0.020133912563323975,
      0.1332547813653946,
      -3.5227057933807373,
      -0.037827130407094955,
      -0.021549131721258163,
      -0.334634929895401,
      -0.08741950988769531,
      -1.0436652898788452,
      -0.15028071403503418,
      -0.07871590554714203,
      -0.062463752925395966,
      -0.028788160532712936,
      -0.018172260373830795,
      0.08683625608682632,
      -0.010350748896598816,
      -0.22300298511981964
    ],
    [
      0.07157540321350098,
      0.3826215863227844,
      0.1181398257613182,
      0.04218057915568352,
      -0.054462820291519165,
      -0.6351428627967834,
      0.12181159108877182,
      -0.15734480321407318,
      -0.023941384628415108,
      -0.08215725421905518,
      0.29470086097717285,
      -0.04395531490445137,
      -0.6063033938407898,
      -0.06305071711540222,
      -3.9423751831054688,
      0.04605571925640106,
      -0.1697912961244583,
      0.1383546143770218,
      -0.302823007106781,
      0.028541816398501396,
      0.05305277556180954,
      -0.3173811733722687,
      -0.04041273519396782,
      -0.1756342500448227,
      -0.07848117500543594,
      -0.018039759248495102,
      0.07201049476861954,
      0.04030408337712288,
      0.009122088551521301,
      0.18572163581848145,
      0.015915699303150177,
      -0.3387570381164551
    ],
    [
      -0.07198619842529297,
      -0.13060759007930756,
      -0.021565744653344154,
      -0.026012832298874855,
      -0.48101985454559326,
      -0.3901297152042389,
      -0.056377165019512177,
      -0.06303904205560684,
      -0.22737722098827362,
      -0.6535898447036743,
      0.044954780489206314,
      -3.757683038711548,
      -0.08627046644687653,
      -0.014612063765525818,
      -0.3762866258621216,
      0.09402637183666229,
      0.05713772773742676,
      0.043508123606443405,
      -1.0000876188278198,
      -0.03649001568555832,
      -0.061019085347652435,
      -0.18587730824947357,
      -0.49680331349372864,
      -2.80291748046875,
      -1.2200156450271606,
      -0.23097918927669525,
      -0.08039426058530807,
      -0.0470416322350502,
      -0.032286494970321655,
      0.12282027304172516,
      0.017908236011862755,
      -0.2025722861289978
    ],
    [
      -2.5464770793914795,
      -0.6669527292251587,
      -0.4426528215408325,
      -0.2200871706008911,
      0.03682145103812218,
      0.029052946716547012,
      -0.4037122130393982,
      0.08452984690666199,
      0.0022097122855484486,
      0.04833580181002617,
      -0.3483639657497406,
      -0.02075640670955181,
      0.1885690540075302,
      0.06613662838935852,
      0.08227991312742233,
      -0.008966952562332153,
      0.1514095515012741,
      -0.45253846049308777,
      0.05824625492095947,
      -0.25769513845443726,
      -0.3787796199321747,
      0.1046389564871788,
      0.032208628952503204,
      0.019504351541399956,
      0.017897954210639,
      0.017375456169247627,
      -1.3213632106781006,
      -0.6106204390525818,
      -0.2999168932437897,
      -0.36798733472824097,
      -0.2214859575033188,
      0.12223319709300995
    ],
    [
      -0.030154606327414513,
      -0.27506864070892334,
      -0.2065691500902176,
      -0.016558514907956123,
      -2.4432506561279297,
      -0.3887036144733429,
      -0.12261158227920532,
      0.06730721145868301,
      -1.406034231185913,
      -2.8328464031219482,
      -0.03746551275253296,
      -1.2802356481552124,
      0.06956695020198822,
      -0.14468100666999817,
      -0.18115681409835815,
      0.12136350572109222,
      0.055158212780952454,
      -0.027207637205719948,
      -0.19254012405872345,
      0.01363335270434618,
      -0.01260446012020111,
      0.08616650104522705,
      -3.291961908340454,
      -0.694317638874054,
      -2.422379732131958,
      -1.3799437284469604,
      -0.02791445143520832,
      -0.005267038941383362,
      -0.02189812809228897,
      0.02499733678996563,
      -0.0023334305733442307,
      -0.10391692817211151
    ],
    [
      -3.630779266357422,
      -0.7031988501548767,
      -0.3657926917076111,
      -0.2803734540939331,
      0.01108664833009243,
      0.05038624629378319,
      -0.33650586009025574,
      0.159242644906044,
      0.019178815186023712,
      0.03555203229188919,
      -0.33621087670326233,
      -0.018598046153783798,
      0.16242654621601105,
      0.04955515265464783,
      0.05846068635582924,
      0.006680086255073547,
      -0.018705949187278748,
      -0.387512743473053,
      0.03896880894899368,
      -0.32603538036346436,
      -0.5215768814086914,
      0.18098662793636322,
      0.017127783969044685,
      0.04582696408033371,
      0.022906232625246048,
      0.012697845697402954,
      -1.7715047597885132,
      -0.7227264642715454,
      -0.3966926634311676,
      -0.32499900460243225,
      -0.3213135898113251,
      0.1396816223859787
    ],
    [
      -0.12986640632152557,
      -1.0668208599090576,
      -0.9601361751556396,
      0.2767220437526703,
      -0.03438121825456619,
      -0.04180627688765526,
      -0.9284771084785461,
      -0.14222025871276855,
      -0.035825587809085846,
      -0.03408128395676613,
      -0.8525406122207642,
      0.46880555152893066,
      -0.12097791582345963,
      -0.14247091114521027,
      -0.05772644281387329,
      0.1574500948190689,
      0.11493749916553497,
      -0.7262031435966492,
      -0.03678775578737259,
      0.29371386766433716,
      0.13199500739574432,
      -0.1321927309036255,
      -0.016068704426288605,
      -0.035065412521362305,
      -0.025981802493333817,
      -0.02438233606517315,
      -0.0938129872083664,
      -0.03280564397573471,
      0.25172534584999084,
      -0.6229451894760132,
      0.3078167736530304,
      -0.14309915900230408
    ],
    [
      0.09972085803747177,
      0.408797025680542,
      0.273710697889328,
      0.0683186799287796,
      -0.05005158483982086,
      -0.4398217499256134,
      0.2590646743774414,
      -0.2196357697248459,
      -0.0510093979537487,
      -0.04746107757091522,
      0.1253349781036377,
      -0.04153873026371002,
      -0.614762008190155,
      0.05575677752494812,
      -1.7099640369415283,
      -0.14774109423160553,
      0.11334554851055145,
      0.3909505009651184,
      -0.23013941943645477,
      0.047785475850105286,
      0.11780459433794022,
      -0.26177340745925903,
      -0.034622568637132645,
      -0.1671905368566513,
      -0.05841024965047836,
      -0.027068188413977623,
      0.08612816780805588,
      0.07547733932733536,
      0.08529111742973328,
      0.09885656833648682,
      0.07974320650100708,
      -0.2599100172519684
    ],
    [
      -0.017657864838838577,
      0.15618501603603363,
      0.2565305531024933,
      0.014249535277485847,
      -0.07761330157518387,
      -3.9817397594451904,
      0.2559790015220642,
      -0.23353040218353271,
      -0.04634056240320206,
      -0.10397780686616898,
      0.18857260048389435,
      -0.11694211512804031,
      -0.7113410234451294,
      -0.0943145900964737,
      -3.352358341217041,
      0.00583881139755249,
      0.12302558124065399,
      0.2605929672718048,
      -0.84032142162323,
      -0.028108270838856697,
      0.011006787419319153,
      -0.2278558760881424,
      -0.08038380742073059,
      -0.4046951234340668,
      -0.0998658761382103,
      -0.06044371426105499,
      0.013984942808747292,
      0.017085185274481773,
      -0.025584960356354713,
      0.04212568700313568,
      0.012092421762645245,
      -0.3829387426376343
    ],
    [
      -4.946642875671387,
      -0.5409234762191772,
      -0.28039517998695374,
      -0.2688445746898651,
      0.052976030856370926,
      0.06960339099168777,
      -0.24337172508239746,
      0.18377499282360077,
      0.04580748826265335,
      -0.01621381938457489,
      -0.36011794209480286,
      -0.014525050297379494,
      0.13393160700798035,
      0.0189446359872818,
      0.0425485335290432,
      0.03950491547584534,
      0.11081840097904205,
      -0.22202381491661072,
      0.05151902884244919,
      -0.31774985790252686,
      -0.5703926086425781,
      0.14613519608974457,
      0.019152570515871048,
      0.02677040733397007,
      0.0020109377801418304,
      0.037192899733781815,
      -2.2486491203308105,
      -0.8561134934425354,
      -0.3997979164123535,
      -0.3221231997013092,
      -0.28852954506874084,
      0.1553775817155838
    ],
    [
      -5.301477909088135,
      -0.5024483799934387,
      -0.263224720954895,
      -0.35106730461120605,
      0.025267425924539566,
      0.03716273605823517,
      -0.3167003393173218,
      0.18550093472003937,
      0.010789284482598305,
      0.024807609617710114,
      -0.2934473156929016,
      -0.025639869272708893,
      0.1188700720667839,
      -0.09936241805553436,
      0.041502680629491806,
      0.17165856063365936,
      -0.03850474953651428,
      -0.4188441038131714,
      0.019073529168963432,
      -0.29306888580322266,
      -0.7927181124687195,
      0.07644404470920563,
      0.021991901099681854,
      0.023603592067956924,
      0.00914895348250866,
      0.012562716379761696,
      -4.271359920501709,
      -1.3247625827789307,
      -0.5085379481315613,
      -0.21473871171474457,
      -0.27753812074661255,
      0.1562173217535019
    ],
    [
      -0.06335733085870743,
      0.2282406985759735,
      0.11481548845767975,
      -0.013906815089285374,
      -0.1644447147846222,
      -1.6970241069793701,
      0.06708503514528275,
      -0.01912190020084381,
      -0.09519650042057037,
      -0.21551337838172913,
      0.09643500298261642,
      -0.490118145942688,
      -0.12445445358753204,
      0.014497101306915283,
      -0.855219304561615,
      0.041346773505210876,
      -0.060854800045490265,
      0.07898437976837158,
      -3.5746467113494873,
      -0.023433497175574303,
      -0.03135940432548523,
      0.014875084161758423,
      -0.19167231023311615,
      -3.951831340789795,
      -0.32463622093200684,
      -0.09036027640104294,
      -0.055986933410167694,
      -0.025494622066617012,
      -0.011458740569651127,
      0.1575285792350769,
      -0.06267144531011581,
      -0.12663879990577698
    ],
    [
      -0.057303547859191895,
      0.2602044343948364,
      0.23943358659744263,
      -0.016704419627785683,
      -0.1505178064107895,
      -5.317080497741699,
      0.2588953673839569,
      -0.32430392503738403,
      -0.15513402223587036,
      -0.14497017860412598,
      0.3306257724761963,
      -0.14820216596126556,
      -0.3216402232646942,
      -0.04902467131614685,
      -3.002995729446411,
      0.17455823719501495,
      0.15910838544368744,
      0.2376539260149002,
      -1.7389739751815796,
      0.006266686599701643,
      -0.055581238120794296,
      -0.10715113580226898,
      -0.12822754681110382,
      -0.7019449472427368,
      -0.1580161303281784,
      -0.0904635414481163,
      -0.049229808151721954,
      -0.01771874912083149,
      -0.03222686052322388,
      0.14824867248535156,
      0.0008495718939229846,
      -0.4338490962982178
    ],
    [
      -2.1805951595306396,
      -0.3327520787715912,
      -0.1588423103094101,
      -0.16805781424045563,
      0.07065781205892563,
      0.06845879554748535,
      -0.330580472946167,
      0.07295455783605576,
      0.06600023806095123,
      0.03303149715065956,
      -0.17138615250587463,
      -0.009377396665513515,
      0.16812573373317719,
      0.05848267674446106,
      0.0797133818268776,
      0.0017735809087753296,
      0.1333126574754715,
      -0.40548306703567505,
      0.0697990208864212,
      -0.20914651453495026,
      -0.35010308027267456,
      0.15051813423633575,
      0.05728279426693916,
      0.0834893062710762,
      0.02987329475581646,
      0.061511728912591934,
      -1.1557557582855225,
      -0.5300648212432861,
      -0.23915493488311768,
      -0.06875551491975784,
      -0.19746866822242737,
      0.1944662183523178
    ],
    [
      -2.1731388568878174,
      -0.6457692980766296,
      -0.2935565710067749,
      -0.26244837045669556,
      0.03884303569793701,
      0.06620551645755768,
      -0.2155769169330597,
      0.18825837969779968,
      0.07212167978286743,
      0.07202580571174622,
      -0.3335827589035034,
      -0.019226031377911568,
      0.11204887926578522,
      0.013751447200775146,
      0.09912604093551636,
      -0.02873726189136505,
      -0.041288018226623535,
      -0.42835500836372375,
      0.03606266528367996,
      -0.24070799350738525,
      -0.4118748605251312,
      0.10607635229825974,
      0.02322544902563095,
      0.023288395255804062,
      0.0407206229865551,
      0.07877270877361298,
      -1.1769287586212158,
      -0.5584856867790222,
      -0.3028155565261841,
      -0.10954791307449341,
      -0.22676926851272583,
      0.14453595876693726
    ],
    [
      0.16211161017417908,
      0.3197652995586395,
      0.1502998322248459,
      0.013609065674245358,
      -0.0574859082698822,
      -0.2184790074825287,
      0.5237087607383728,
      -0.7215049266815186,
      -0.04993104934692383,
      -0.07545220851898193,
      0.34213724732398987,
      -0.020068027079105377,
      -0.9557079076766968,
      -0.10807240009307861,
      -0.6888692378997803,
      0.025023385882377625,
      -0.01033744215965271,
      0.08117227256298065,
      -0.15639501810073853,
      -0.0008660163730382919,
      0.10256614536046982,
      -0.4746638238430023,
      -0.05831484869122505,
      -0.1125383973121643,
      -0.031081708148121834,
      -0.03987783566117287,
      0.22139085829257965,
      0.09194296598434448,
      0.041074447333812714,
      0.2716023325920105,
      -0.02926684357225895,
      -0.780174970626831
    ],
    [
      0.10499250143766403,
      0.4214361906051636,
      0.2704075574874878,
      0.04933655634522438,
      -0.03041202202439308,
      -0.25497376918792725,
      0.2594411075115204,
      -0.2610739469528198,
      -0.0635857805609703,
      -0.07852249592542648,
      0.3155056834220886,
      -0.03928397595882416,
      -0.7318406701087952,
      -0.11763113737106323,
      -0.782951831817627,
      -0.15157492458820343,
      0.1077193170785904,
      0.13213473558425903,
      -0.15576797723770142,
      0.07145573198795319,
      0.09725157171487808,
      -0.19718429446220398,
      -0.04605541005730629,
      -0.10921163111925125,
      -0.06185144931077957,
      -0.040542468428611755,
      0.152109295129776,
      0.04165605828166008,
      0.057042092084884644,
      0.2406020611524582,
      0.08804941177368164,
      -0.2972754240036011
    ],
    [
      -3.1888394355773926,
      -0.46874481439590454,
      -0.2754727900028229,
      -0.5706071257591248,
      0.023089222609996796,
      -0.009754985570907593,
      -0.180949866771698,
      0.06022465229034424,
      0.03913723677396774,
      0.006995477247983217,
      -0.3112868666648865,
      -0.02372298203408718,
      0.07525351643562317,
      -0.06146392971277237,
      -0.019115455448627472,
      0.09061674773693085,
      -0.0843144953250885,
      -0.5083842873573303,
      0.006586408242583275,
      -0.377224326133728,
      -1.5555685758590698,
      0.12989462912082672,
      0.014064674265682697,
      0.010028749704360962,
      -0.0026931683532893658,
      0.025032930076122284,
      -5.815799713134766,
      -3.229869842529297,
      -0.8322731256484985,
      -0.15513445436954498,
      -0.42142897844314575,
      0.07509643584489822
    ]
  ],
  "fc2.bias": [
    0.37789350748062134,
    0.4964684545993805,
    0.5115954875946045,
    0.38272327184677124,
    0.5247779488563538,
    0.32458290457725525,
    0.6152299046516418,
    0.3655492663383484,
    0.42335179448127747,
    0.4817659258842468,
    0.37960684299468994,
    0.4826589524745941,
    0.4254845678806305,
    0.3538106381893158,
    0.526864767074585,
    0.35210153460502625,
    0.5304774641990662,
    0.4382881820201874,
    0.3583773374557495,
    0.48773106932640076,
    -0.6486581563949585,
    0.3241298496723175,
    0.4716937243938446,
    0.4474465250968933,
    0.46897488832473755,
    0.4939473569393158,
    0.57906574010849,
    0.31450456380844116,
    0.37322279810905457,
    0.34782809019088745,
    0.3473804295063019,
    0.5462767481803894
  ],
  "fc3.weight": [
    [
      -0.08653637021780014,
      0.16716894507408142,
      -0.11089567840099335,
      -0.08980682492256165,
      -0.2552174925804138,
      0.10288459062576294,
      -0.15685461461544037,
      0.09268974512815475,
      0.12570366263389587,
      0.2320304811000824,
      0.11422932147979736,
      0.2896018326282501,
      0.1403057724237442,
      0.10198535770177841,
      0.16132168471813202,
      0.1308613270521164,
      0.22697891294956207,
      -0.07215624302625656,
      0.49275562167167664,
      -0.07859796285629272,
      -0.6160591244697571,
      0.10969517379999161,
      0.15886543691158295,
      -0.09548445791006088,
      -0.09953601658344269,
      0.2173360288143158,
      0.15675076842308044,
      -0.08002620190382004,
      -0.07898855209350586,
      0.10536311566829681,
      0.10429669916629791,
      -0.1342409998178482
    ]
  ],
  "fc3.bias": [
    -0.12883120775222778
  ]
}