{
  "fc1.weight": [
    [
      -0.45035889744758606,
      -0.055107370018959045
    ],
    [
      0.07858704775571823,
      -0.5714545249938965
    ],
    [
      0.1370580941438675,
      0.1978311985731125
    ],
    [
      0.28121861815452576,
      0.3747553527355194
    ],
    [
      0.36099401116371155,
      0.4412798583507538
    ],
    [
      -0.19343337416648865,
      -0.08751857280731201
    ],
    [
      0.08582531660795212,
      -0.5155584812164307
    ],
    [
      0.15471477806568146,
      0.18710123002529144
    ],
    [
      -0.5845018029212952,
      0.18958330154418945
    ],
    [
      -0.0675884261727333,
      -0.3881029188632965
    ],
    [
      -0.5281221270561218,
      0.06348460167646408
    ],
    [
      0.19125357270240784,
      0.23030713200569153
    ],
    [
      -0.09698467701673508,
      -0.7934800386428833
    ],
    [
      0.5165655016899109,
      0.5500906705856323
    ],
    [
      -0.6118187308311462,
      -0.12722891569137573
    ],
    [
      -0.050461430102586746,
      -0.6779228448867798
    ],
    [
      0.2720560133457184,
      0.3405434191226959
    ],
    [
      0.09016645699739456,
      -0.5595563650131226
    ],
    [
      0.28676220774650574,
      0.32608312368392944
    ],
    [
      -0.7775309681892395,
      -0.11447913944721222
    ],
    [
      -0.1007140651345253,
      -0.28253889083862305
    ],
    [
      -0.08381007611751556,
      -0.1842167228460312
    ],
    [
      0.070126011967659,
      -0.4973377585411072
    ],
    [
      -0.7905433773994446,
      -0.06155123934149742
    ],
    [
      0.03863422945141792,
      -0.8045495748519897
    ],
    [
      0.25785237550735474,
      0.26563766598701477
    ],
    [
      0.19018319249153137,
      0.2534204423427582
    ],
    [
      -0.008552748709917068,
      -0.6319398283958435
    ],
    [
      0.12520302832126617,
      0.1852053552865982
    ],
    [
      -0.3059922158718109,
      -0.12622688710689545
    ],
    [
      -0.5328860282897949,
      0.06065809354186058
    ],
    [
      -0.10641295462846756,
      -0.5812779664993286
    ]
  ],
  "fc1.bias": [
    -0.4135199189186096,
    -0.8447172045707703,
    0.338822603225708,
    -0.571927011013031,
    0.644415557384491,
    0.08203248679637909,
    -0.87286376953125,
    0.22462449967861176,
    -0.49466896057128906,
    -0.10991380363702774,
    -0.8400171995162964,
    0.27695268392562866,
    -0.4303974509239197,
    0.04177350923418999,
    -0.314914345741272,
    -0.528996467590332,
    0.2076854258775711,
    -0.7843115329742432,
    0.6395894289016724,
    -0.6017168164253235,
    0.0051015387289226055,
    0.09006889909505844,
    -0.6380822062492371,
    -0.8812788128852844,
    -0.8317660093307495,
    -0.6210577487945557,
    0.1973194181919098,
    -0.6906042098999023,
    0.2712996006011963,
    -0.009379339404404163,
    -0.7296462059020996,
    -0.4790862500667572
  ],
  "fc2.weight": [
    [
      -0.3892035484313965,
      -1.0810095071792603,
      -0.0019718848634511232,
      0.1888679713010788,
      -0.06301038712263107,
      -0.0980386808514595,
      -0.8670604825019836,
      -0.02572494000196457,
      0.032597169280052185,
      -0.042892374098300934,
      -1.229742169380188,
      -0.002978608012199402,
      -0.05191991105675697,
      0.025574158877134323,
      -0.0798986628651619,
      -0.14104630053043365,
      0.005660473369061947,
      -0.688892126083374,
      -2.8030388355255127,
      -0.09327131509780884,
      -0.05101613700389862,
      -0.07806102186441422,
      -0.4719064235687256,
      -0.49118220806121826,
      -0.0792233943939209,
      -0.0647403746843338,
      -0.023407047614455223,
      -0.33395880460739136,
      -0.02284947969019413,
      -0.09578601270914078,
      -0.6188197135925293,
      -0.18238277733325958
    ],
    [
      -3.31790828704834,
      -0.2533748745918274,
      0.05415637418627739,
      -0.04548212140798569,
      -0.003434388665482402,
      -0.3530677556991577,
      -0.3823091983795166,
      0.03239671513438225,
      -0.05982108786702156,
      -0.5931251049041748,
      -0.8013178706169128,
      0.001207086257636547,
      -0.9694675803184509,
      0.020562797784805298,
      -0.7576414942741394,
      -2.540923833847046,
      0.05524636059999466,
      -0.4146786630153656,
      0.011676718480885029,
      -2.1165261268615723,
      -0.3287239372730255,
      -0.2898980975151062,
      -0.5518039464950562,
      -1.9424476623535156,
      -2.043489933013916,
      0.014798620715737343,
      0.07369083166122437,
      -1.2111022472381592,
      0.02225789800286293,
      -0.5197516679763794,
      -1.8309385776519775,
      -1.5294249057769775
    ],
    [
      -0.9535815715789795,
      -1.8412355184555054,
      0.028623856604099274,
      0.026464689522981644,
      0.0032013864256441593,
      -0.1533706933259964,
      -1.250429630279541,
      0.09950795024633408,
      -0.02228586934506893,
      -0.052235234528779984,
      -2.5574593544006348,
      0.06385000795125961,
      -0.11211878061294556,
      0.0797259658575058,
      -0.16713972389698029,
      -0.20295844972133636,
      0.06598236411809921,
      -2.722567319869995,
      0.047967489808797836,
      -0.17880332469940186,
      -0.08225678652524948,
      -0.15876615047454834,
      -2.2631611824035645,
      -1.9168881177902222,
      -0.31143102049827576,
      -0.3359438180923462,
      0.08870385587215424,
      -1.3090925216674805,
      0.041896749287843704,
      -0.16906876862049103,
      -1.542174220085144,
      -0.4214194715023041
    ],
    [
      0.036195650696754456,
      -0.06829942762851715,
      -0.2312610149383545,
      -0.2032719850540161,
      -0.3554215133190155,
      -0.05947565287351608,
      0.060064028948545456,
      -1.1369829177856445,
      0.2070452719926834,
      0.04300031065940857,
      -0.11201003938913345,
      -0.5815195441246033,
      -0.07828287780284882,
      -1.1095250844955444,
      -0.022715484723448753,
      0.0307477917522192,
      -2.078134775161743,
      0.3651027977466583,
      -0.22027285397052765,
      -0.06723496317863464,
      -0.07693582773208618,
      -0.04877164214849472,
      0.16742677986621857,
      0.005199464038014412,
      0.1872067153453827,
      -0.04594877362251282,
      -1.929426670074463,
      -0.023826520889997482,
      -0.5952713489532471,
      -0.07143372297286987,
      -0.16032788157463074,
      -0.08523532003164291
    ],
    [
      0.24078649282455444,
      0.5965003371238708,
      -0.0551908053457737,
      -0.44375211000442505,
      -0.016580643132328987,
      0.07681749016046524,
      0.9162476062774658,
      -0.08785593509674072,
      0.021757373586297035,
      0.10557078570127487,
      0.7650270462036133,
      -0.09010493755340576,
      -0.009248846210539341,
      -0.2619767189025879,
      0.1409095972776413,
      0.0851924791932106,
      -0.1201377585530281,
      0.5027298331260681,
      -0.022980419918894768,
      0.01769537851214409,
      0.0885787084698677,
      0.055751584470272064,
      0.30937498807907104,
      0.2547667920589447,
      0.2869971990585327,
      -0.17737893760204315,
      -0.11676469445228577,
      0.17773319780826569,
      -0.04541357606649399,
      0.07489295303821564,
      0.7993685007095337,
      0.1812492460012436
    ],
    [
      -3.7248148918151855,
      -0.20345677435398102,
      0.0030552975367754698,
      0.11639390885829926,
      -0.00774023961275816,
      -0.1529129147529602,
      -0.379095196723938,
      0.019769253209233284,
      -0.19711501896381378,
      -0.2679792046546936,
      -0.5934557914733887,
      0.0408116951584816,
      -0.49375855922698975,
      0.020568888634443283,
      -0.7352908849716187,
      -2.944410800933838,
      0.04213005676865578,
      -0.6069509983062744,
      0.0028050371911376715,
      -3.8514809608459473,
      -0.14158426225185394,
      -0.235097736120224,
      -0.825212299823761,
      -1.5415490865707397,
      -1.605071783065796,
      -0.07144030928611755,
      0.04578174278140068,
      -1.822039008140564,
      0.05504254624247551,
      -0.3676484525203705,
      -1.7041131258010864,
      -2.536911964416504
    ],
    [
      -2.465341567993164,
      -0.24155329167842865,
      0.01983151026070118,
      0.024952802807092667,
      -0.009262338280677795,
      -0.3954387903213501,
      -0.36579832434654236,
      0.027969984337687492,
      -0.3561536371707916,
      -1.4474098682403564,
      -0.35971376299858093,
      0.04233706742525101,
      -3.6411473751068115,
      -0.010255087167024612,
      -3.3492839336395264,
      -1.590047836303711,
      0.004690255504101515,
      -0.28082045912742615,
      -0.0039493185468018055,
      -3.122434139251709,
      -0.667753279209137,
      -0.4482668936252594,
      -0.3220255672931671,
      -0.8755494952201843,
      -2.436795473098755,
      0.06845099478960037,
      0.015855908393859863,
      -0.743832528591156,
      0.03205234557390213,
      -0.8593983054161072,
      -0.9021922945976257,
      -0.7035417556762695
    ],
    [
      -0.5570567846298218,
      -0.6710920333862305,
      0.021269625052809715,
      0.018124736845493317,
      -0.02540455386042595,
      -0.13760340213775635,
      -0.679695188999176,
      0.06709741055965424,
      -0.10761504620313644,
      -0.2160000205039978,
      -2.843229055404663,
      0.06909757852554321,
      -0.6887958645820618,
      0.08626227080821991,
      -0.022176647558808327,
      -2.3267054557800293,
      0.1081189438700676,
      -1.4110220670700073,
      0.007408395409584045,
      -0.05570236220955849,
      -0.09079373627901077,
      -0.05582372099161148,
      -1.2730218172073364,
      -1.0390095710754395,
      -1.4539132118225098,
      -0.04837534576654434,
      0.06884299218654633,
      -2.2039763927459717,
      0.012922230176627636,
      -0.05283472687005997,
      -1.351403832435608,
      -3.1796822547912598
    ],
    [
      0.06281526386737823,
      0.5350654125213623,
      -0.01606709323823452,
      -0.4677152931690216,
      -0.022445902228355408,
      0.05979589372873306,
      0.890233039855957,
      -0.054004035890102386,
      -0.010877193883061409,
      0.12176452577114105,
      0.9267659187316895,
      -0.05317504331469536,
      -0.04880065843462944,
      -0.21476854383945465,
      0.1372629553079605,
      0.1346185952425003,
      -0.07728629559278488,
      0.3490248918533325,
      -0.026481637731194496,
      0.03556447476148605,
      0.0390901155769825,
      0.06093539670109749,
      0.2842505872249603,
      0.3219299018383026,
      0.31406474113464355,
      -0.05669930577278137,
      -0.11173515766859055,
      0.24241724610328674,
      -0.055219247937202454,
      0.06260856986045837,
      0.6636427640914917,
      0.18024395406246185
    ],
    [
      0.13012439012527466,
      0.4059846103191376,
      -0.06517469137907028,
      -0.19080466032028198,
      -0.056626830250024796,
      0.06969477236270905,
      0.9675620794296265,
      -0.1059148833155632,
      0.03544049337506294,
      0.11649385839700699,
      0.9053171277046204,
      -0.10549892485141754,
      0.011652008630335331,
      -0.28768935799598694,
      0.16811083257198334,
      0.077769435942173,
      -0.13598847389221191,
      0.399025022983551,
      -0.06822465360164642,
      -0.040621694177389145,
      0.10390027612447739,
      0.09358134865760803,
      0.3206121325492859,
      0.2794934809207916,
      0.24538211524486542,
      -0.23299145698547363,
      -0.13651727139949799,
      0.2759234607219696,
      -0.08450730890035629,
      0.07918768376111984,
      0.584051787853241,
      0.19490478932857513
    ],
    [
      0.19520756602287292,
      0.570776641368866,
      -0.11506715416908264,
      -0.18476007878780365,
      -0.06011433154344559,
      0.04023019224405289,
      0.9474856853485107,
      -0.19628244638442993,
      0.10072585195302963,
      0.12615332007408142,
      0.3251832127571106,
      -0.18653203547000885,
      -0.03371763229370117,
      -0.7278120517730713,
      0.1248355284333229,
      0.1153998002409935,
      -0.28666383028030396,
      0.5838062763214111,
      -0.06969243288040161,
      -0.08241862058639526,
      0.06033742055296898,
      0.1005370020866394,
      0.28062528371810913,
      0.2304060459136963,
      0.2760351896286011,
      -0.04635096713900566,
      -0.30638110637664795,
      0.15100711584091187,
      -0.12578184902668,
      0.02981647476553917,
      0.8124064207077026,
      0.15494202077388763
    ],
    [
      0.18318632245063782,
      0.5817475914955139,
      -0.03216046839952469,
      -0.7198459506034851,
      -0.007042999844998121,
      0.04862844944000244,
      0.7503836750984192,
      -0.07702217996120453,
      -0.03488168865442276,
      0.10839557647705078,
      1.0581310987472534,
      -0.06620059162378311,
      -0.0437421090900898,
      -0.2327563762664795,
      0.17368945479393005,
      0.184148371219635,
      -0.09793365746736526,
      0.47901618480682373,
      -0.05075053125619888,
      0.023071743547916412,
      0.05170463025569916,
      0.07919181883335114,
      0.4237838089466095,
      0.2696164846420288,
      0.30100080370903015,
      -0.29066693782806396,
      -0.06866945326328278,
      0.17461729049682617,
      -0.04969673603773117,
      0.08870713412761688,
      0.791815459728241,
      0.17988599836826324
    ],
    [
      -1.289330244064331,
      -0.06038358062505722,
      0.007461261469870806,
      0.10757706314325333,
      -0.004823693074285984,
      -1.331529140472412,
      -0.17091383039951324,
      -0.004376961849629879,
      -0.9239696264266968,
      -3.542396068572998,
      -0.4215504825115204,
      -0.009999374859035015,
      -1.6486496925354004,
      -0.01939144916832447,
      -2.6984546184539795,
      -0.804317831993103,
      -0.02310355193912983,
      -0.25411373376846313,
      -0.01424524374306202,
      -1.2319109439849854,
      -2.7848618030548096,
      -1.60108482837677,
      -0.2699176073074341,
      -0.4805785119533539,
      -1.2182080745697021,
      0.0760222002863884,
      -0.02196471206843853,
      -0.22241158783435822,
      -0.01177051942795515,
      -3.4846079349517822,
      -0.471733033657074,
      -0.4539544880390167
    ],
    [
      -0.9002483487129211,
      -2.083681344985962,
      0.0422426201403141,
      -0.12867127358913422,
      -0.026598738506436348,
      -0.053991224616765976,
      -1.1808809041976929,
      0.07875446230173111,
      0.0035691666416823864,
      0.011262374930083752,
      -2.090083599090576,
      0.07175934314727783,
      -0.017396438866853714,
      0.08005518466234207,
      -0.13679735362529755,
      -0.0977238267660141,
      0.0927579402923584,
      -2.7071564197540283,
      0.030081458389759064,
      -0.1370278298854828,
      -0.08322998136281967,
      -0.03792900592088699,
      -2.2617459297180176,
      -2.882197141647339,
      -0.17390486598014832,
      -0.12096132338047028,
      0.09731972962617874,
      -0.7806223034858704,
      0.04969828948378563,
      -0.10535681992769241,
      -1.7861608266830444,
      -0.11876296252012253
    ],
    [
      0.14548857510089874,
      0.5683274865150452,
      -0.04785310477018356,
      -0.35672441124916077,
      -0.04623502120375633,
      0.10485725849866867,
      0.8415553569793701,
      -0.13846877217292786,
      0.1394694745540619,
      0.05353320762515068,
      0.7532698512077332,
      -0.13774074614048004,
      -0.04518940672278404,
      -0.30806630849838257,
      0.10451028496026993,
      0.13814343512058258,
      -0.1918978989124298,
      0.20739908516407013,
      -0.026986779645085335,
      0.01228456012904644,
      0.09592991322278976,
      0.07742780447006226,
      0.26409053802490234,
      0.2171538919210434,
      0.25769391655921936,
      -0.2547524571418762,
      -0.22035308182239532,
      0.2899111211299896,
      -0.09138795733451843,
      0.04194018989801407,
      0.5806500911712646,
      0.15612569451332092
    ],
    [
      0.033374086022377014,
      0.026053238660097122,
      -0.03977935016155243,
      0.05358908697962761,
      -0.03892216086387634,
      -0.1526532620191574,
      0.08458618819713593,
      -0.032855432480573654,
      -0.036560773849487305,
      -0.01210128515958786,
      -0.08197072893381119,
      -0.08976376056671143,
      -0.08027580380439758,
      -0.1462831348180771,
      -0.07493333518505096,
      0.08454377204179764,
      0.0153268501162529,
      -0.10765713453292847,
      -0.15263822674751282,
      0.020125439390540123,
      -0.1899356096982956,
      -0.08251145482063293,
      -0.03563540801405907,
      0.030096814036369324,
      -0.0653175637125969,
      -0.20498855412006378,
      -0.11591695994138718,
      -0.07590240240097046,
      -0.08178994059562683,
      -0.1587262749671936,
      -0.047650184482336044,
      -0.16895832121372223
    ],
    [
      -0.07619953155517578,
      -0.7899783253669739,
      -0.077187679708004,
      -0.321306437253952,
      -0.04805095121264458,
      0.16294007003307343,
      -1.2375173568725586,
      -0.10131347924470901,
      -0.034338757395744324,
      0.048723004758358,
      -0.6582093834877014,
      -0.09055477380752563,
      -0.005023180041462183,
      -0.07806621491909027,
      0.010178198106586933,
      -0.02655014768242836,
      -0.09458862245082855,
      -0.38664138317108154,
      0.7236084342002869,
      0.008186515420675278,
      0.10759513825178146,
      0.21822430193424225,
      -0.27764230966567993,
      -0.16858281195163727,
      -0.04419081658124924,
      -0.34819984436035156,
      -0.11532538384199142,
      -0.17401637136936188,
      -0.10035668313503265,
      0.1098129078745842,
      -0.22693488001823425,
      -0.0012344829738140106
    ],
    [
      -3.7617101669311523,
      -0.43009933829307556,
      0.027466489002108574,
      -0.042231496423482895,
      -0.0024140027817338705,
      -0.11312972009181976,
      -0.5280050039291382,
      0.039951011538505554,
      -0.1851387470960617,
      -0.22298453748226166,
      -0.5382041335105896,
      0.03310780227184296,
      -0.5282562971115112,
      0.028934169560670853,
      -0.5869647264480591,
      -3.1852076053619385,
      0.032382577657699585,
      -0.6836798787117004,
      0.0261886827647686,
      -2.968179225921631,
      -0.11250319331884384,
      -0.1327517330646515,
      -0.8406814336776733,
      -1.48067307472229,
      -1.8116579055786133,
      -0.013908693566918373,
      0.06550794094800949,
      -1.7886204719543457,
      0.014806251041591167,
      -0.2620914876461029,
      -1.784743070602417,
      -2.223050117492676
    ],
    [
      -2.4342496395111084,
      -1.9335391521453857,
      0.0326852910220623,
      -0.18879546225070953,
      -0.010157186537981033,
      -0.1096397116780281,
      -1.0418643951416016,
      0.08746346831321716,
      -0.05197809264063835,
      0.008321166969835758,
      -1.5551104545593262,
      0.07348605990409851,
      -0.03501330688595772,
      0.09491191059350967,
      -0.25405263900756836,
      -0.14994478225708008,
      0.0818435326218605,
      -2.2877187728881836,
      0.02199217863380909,
      -0.6470576524734497,
      -0.12263692915439606,
      -0.0959811881184578,
      -1.970923662185669,
      -3.1417157649993896,
      -0.36959308385849,
      -0.14201568067073822,
      0.0720730572938919,
      -1.3537349700927734,
      0.05200023204088211,
      -0.1271660476922989,
      -2.3460097312927246,
      -0.38679569959640503
    ],
    [
      -0.1106511801481247,
      -0.4187030792236328,
      -0.048116181045770645,
      -0.23388317227363586,
      0.5519070029258728,
      0.13738325238227844,
      -0.10874682664871216,
      -0.09582851827144623,
      -0.005701961927115917,
      0.012193960137665272,
      -0.29458940029144287,
      -0.0950629934668541,
      -0.053722083568573,
      -0.057997867465019226,
      -0.011525626294314861,
      -0.16296914219856262,
      -0.08271453529596329,
      -0.6018966436386108,
      -0.029409188777208328,
      -0.014883819036185741,
      0.12659527361392975,
      0.24524366855621338,
      -0.5024757385253906,
      -0.1453375220298767,
      -0.18429486453533173,
      -0.2221725583076477,
      -0.12034467607736588,
      -0.5127443075180054,
      -0.0937412828207016,
      0.06709945946931839,
      -0.18427875638008118,
      -0.4573504328727722
    ],
    [
      -0.10224088281393051,
      0.03544211387634277,
      -1.1692187786102295,
      -0.05521411821246147,
      -2.23555850982666,
      -0.004156166687607765,
      -0.32934215664863586,
      -2.9762203693389893,
      0.01715155504643917,
      -0.08373934775590897,
      -0.36878395080566406,
      -2.3928334712982178,
      -0.0705285295844078,
      -0.4344604015350342,
      -0.03361303731799126,
      -0.045380737632513046,
      -0.8985703587532043,
      -0.0394781157374382,
      -0.7409980893135071,
      -0.08493632078170776,
      -0.009335526265203953,
      -0.018717342987656593,
      -0.02824191190302372,
      -0.08258859813213348,
      0.01504930853843689,
      0.005973341409116983,
      -1.6078574657440186,
      -0.04772908613085747,
      -1.9143472909927368,
      -0.027403200045228004,
      -0.19331756234169006,
      -0.08027489483356476
    ],
    [
      0.22498010098934174,
      0.5939198732376099,
      -0.04576543718576431,
      -0.3433278501033783,
      -0.03067116066813469,
      0.073239766061306,
      0.7003325819969177,
      -0.11032631993293762,
      0.00763684930279851,
      0.10456670075654984,
      0.9174716472625732,
      -0.0713217630982399,
      -0.012122301384806633,
      -0.26218971610069275,
      0.12889553606510162,
      0.11393384635448456,
      -0.11358268558979034,
      0.27575260400772095,
      -0.034686584025621414,
      -0.009450247511267662,
      0.022154169157147408,
      0.06490524858236313,
      0.25388047099113464,
      0.22289223968982697,
      0.2715415954589844,
      -0.33688101172447205,
      -0.15064412355422974,
      0.2640079855918884,
      -0.08517792820930481,
      0.03506108373403549,
      0.629031240940094,
      0.15102866291999817
    ],
    [
      -0.0007645563455298543,
      0.3847770392894745,
      -0.09873365610837936,
      -0.06256429851055145,
      -0.1184176579117775,
      0.031515657901763916,
      0.7877010107040405,
      -0.36878272891044617,
      0.19850361347198486,
      -0.0015243679517880082,
      0.31757569313049316,
      -0.21685147285461426,
      -0.042664945125579834,
      -1.7970304489135742,
      0.06837595254182816,
      0.06418396532535553,
      -0.6973060369491577,
      0.46021464467048645,
      -0.04573894292116165,
      -0.02219557948410511,
      0.06233534216880798,
      0.06316967308521271,
      0.3410443663597107,
      0.0957004651427269,
      0.2656247615814209,
      -0.02963893488049507,
      -0.5813192129135132,
      0.11245161294937134,
      -0.20371805131435394,
      -0.008228743448853493,
      0.22485870122909546,
      0.06994778662919998
    ],
    [
      -0.019307691603899002,
      -0.08187326788902283,
      -0.011216890066862106,
      -0.3370162546634674,
      0.0016027117380872369,
      -0.03871968388557434,
      0.4438042640686035,
      -0.022929182276129723,
      0.6419411897659302,
      -0.10354314744472504,
      0.6408641338348389,
      0.0009117766167037189,
      0.8637808561325073,
      -0.1918913573026657,
      -0.0008805193938314915,
      -0.19835858047008514,
      -0.09159262478351593,
      -0.09970434755086899,
      0.02900276891887188,
      -0.007186001166701317,
      -0.07347568869590759,
      -0.043973639607429504,
      -0.18448272347450256,
      -0.038378868252038956,
      -0.15062011778354645,
      -0.31050556898117065,
      -0.08998081088066101,
      -0.2714991867542267,
      -0.021201828494668007,
      -0.012156094424426556,
      -1.4200358390808105,
      -0.2029741257429123
    ],
    [
      -1.1820093393325806,
      -0.24910478293895721,
      0.0110254418104887,
      0.04690420255064964,
      -0.002244546776637435,
      -0.2476910501718521,
      -0.19737344980239868,
      0.06104191765189171,
      -0.010803312063217163,
      -1.3789021968841553,
      -1.8119195699691772,
      0.03267443925142288,
      -2.8188693523406982,
      0.025190724059939384,
      -0.08784371614456177,
      -2.2673778533935547,
      0.039929747581481934,
      -0.36334261298179626,
      0.01640668325126171,
      -0.3426820635795593,
      -0.5351362228393555,
      -0.27436158061027527,
      -0.46548259258270264,
      -2.4187309741973877,
      -2.7310776710510254,
      -0.03383069857954979,
      0.030030950903892517,
      -1.1605416536331177,
      0.03045290894806385,
      -0.20052392780780792,
      -1.2383478879928589,
      -1.4461947679519653
    ],
    [
      -0.613420844078064,
      -2.136967420578003,
      0.02882307954132557,
      -0.014666889794170856,
      -0.010852658189833164,
      -0.08247007429599762,
      -1.186759352684021,
      0.053929347544908524,
      -0.021044248715043068,
      0.022887632250785828,
      -2.366381883621216,
      0.07345621287822723,
      -0.031100157648324966,
      0.08791317045688629,
      -0.09960293769836426,
      -0.10504408180713654,
      0.10544006526470184,
      -2.5294041633605957,
      0.021157337352633476,
      -0.029723096638917923,
      -0.062432292848825455,
      -0.0486164465546608,
      -2.0067875385284424,
      -1.446617603302002,
      -0.19802844524383545,
      -0.22236749529838562,
      0.08788910508155823,
      -0.6780726313591003,
      0.052338939160108566,
      -0.0915459617972374,
      -1.3132438659667969,
      -0.0788920521736145
    ],
    [
      0.07434067875146866,
      0.3764577805995941,
      -0.007211563643068075,
      -0.6577829718589783,
      -0.005802148953080177,
      -0.029302146285772324,
      0.1287636011838913,
      -0.03915192186832428,
      -0.049290094524621964,
      0.04216846823692322,
      0.24091890454292297,
      -0.042723312973976135,
      0.061326999217271805,
      -0.09594307839870453,
      -0.04700645059347153,
      0.17069947719573975,
      -0.04257309436798096,
      0.36231529712677,
      -0.019445320591330528,
      0.08917729556560516,
      0.001852374873124063,
      -0.0492558628320694,
      0.430093377828598,
      0.24347926676273346,
      -1.2481094598770142,
      -0.25531402230262756,
      -0.04169955849647522,
      0.32505741715431213,
      -0.023504024371504784,
      0.038045402616262436,
      0.3031196892261505,
      0.12383485585451126
    ],
    [
      -0.635771632194519,
      -1.1655950546264648,
      0.028956709429621696,
      -0.03573708236217499,
      -0.009594384580850601,
      -0.10646291822195053,
      -0.6991719603538513,
      0.0801120400428772,
      -0.07649234682321548,
      -0.11249808222055435,
      -2.368008852005005,
      0.0497874915599823,
      -0.34377753734588623,
      0.07505907118320465,
      -0.039302922785282135,
      -0.7638882398605347,
      0.06566701084375381,
      -1.8136354684829712,
      0.011659972369670868,
      -0.08144909888505936,
      -0.05157177150249481,
      -0.08926021307706833,
      -1.8366221189498901,
      -1.4180209636688232,
      -0.8143353462219238,
      -0.034207332879304886,
      0.1192765161395073,
      -2.0380210876464844,
      0.07144520431756973,
      -0.07777824997901917,
      -1.3694195747375488,
      -1.6526117324829102
    ],
    [
      -0.18368901312351227,
      0.11551778018474579,
      -0.014813529327511787,
      -0.5068495273590088,
      -0.02194022201001644,
      -0.0439055860042572,
      0.5355877876281738,
      -0.03797120228409767,
      -0.06929215788841248,
      -0.02321380376815796,
      0.4564376473426819,
      -0.022897901013493538,
      0.0022033932618796825,
      -0.050699807703495026,
      -0.3240352272987366,
      0.053425803780555725,
      -0.030031193047761917,
      0.13074570894241333,
      -0.003945958334952593,
      0.78004390001297,
      0.006109176203608513,
      0.010500923730432987,
      0.07100940495729446,
      -0.8118699193000793,
      0.20471525192260742,
      -0.390776127576828,
      -0.04912463203072548,
      0.058019500225782394,
      -0.02835668809711933,
      -0.028188403695821762,
      0.41641899943351746,
      0.10657992213964462
    ],
    [
      0.21412213146686554,
      0.669571042060852,
      -0.06538932025432587,
      -0.3665218651294708,
      -0.03263121470808983,
      0.03186872601509094,
      0.654399573802948,
      -0.10067205131053925,
      0.02588801272213459,
      0.12003710120916367,
      1.0515782833099365,
      -0.08582384884357452,
      0.01692107506096363,
      -0.2709132134914398,
      0.17370395362377167,
      0.1715351939201355,
      -0.11316585540771484,
      0.2751831114292145,
      -0.06556947529315948,
      -0.0037266388535499573,
      0.021915271878242493,
      -0.013690611347556114,
      0.12724119424819946,
      0.3634597659111023,
      0.28067606687545776,
      -0.33701246976852417,
      -0.13287203013896942,
      0.3956376016139984,
      -0.08763857185840607,
      0.05882575735449791,
      0.4671713411808014,
      0.09247640520334244
    ],
    [
      -3.430856466293335,
      -0.48276618123054504,
      0.03186861798167229,
      -0.004286797251552343,
      -0.023336419835686684,
      -0.06618168950080872,
      -0.5497816205024719,
      0.061735786497592926,
      -0.09368896484375,
      -0.00951992254704237,
      -0.9700327515602112,
      0.04083883762359619,
      -0.25087207555770874,
      0.06674094498157501,
      -0.2743843197822571,
      -1.2539379596710205,
      0.06622226536273956,
      -0.9171472191810608,
      0.04711136594414711,
      -0.7256911396980286,
      -0.07394574582576752,
      -0.11720617115497589,
      -1.4206844568252563,
      -2.7971649169921875,
      -1.0124359130859375,
      -0.26264479756355286,
      0.057417187839746475,
      -2.6148104667663574,
      0.03882821649312973,
      -0.10711663961410522,
      -2.443615198135376,
      -2.4187276363372803
    ],
    [
      -2.2299299240112305,
      -0.060482680797576904,
      0.016369342803955078,
      0.046701621264219284,
      -0.016276080161333084,
      -0.6609489917755127,
      -0.14071430265903473,
      -0.005168653093278408,
      -0.17769750952720642,
      -3.1792008876800537,
      -0.5208914875984192,
      0.0005477552185766399,
      -2.994126796722412,
      -0.010648590512573719,
      -2.964597225189209,
      -1.2427763938903809,
      -0.0029586602468043566,
      -0.11546552926301956,
      0.0022701527923345566,
      -2.7781033515930176,
      -1.1390745639801025,
      -0.8181981444358826,
      -0.2965533137321472,
      -0.6720578670501709,
      -2.5033910274505615,
      0.011256585828959942,
      0.0003069917147513479,
      -0.48685869574546814,
      0.006893571000546217,
      -1.118735432624817,
      -1.206762671470642,
      -0.5216814875602722
    ]
  ],
  "fc2.bias": [
    0.38604825735092163,
    0.3203723430633545,
    0.29210805892944336,
    0.49876466393470764,
    0.17767153680324554,
    0.3145996332168579,
    0.3222084045410156,
    0.3048555254936218,
    0.13664610683918,
    0.14466644823551178,
    0.23334084451198578,
    0.16307200491428375,
    0.26030078530311584,
    0.23421017825603485,
    0.17174838483333588,
    -0.044808611273765564,
    -0.34880462288856506,
    0.2853706479072571,
    0.26858407258987427,
    -0.24497830867767334,
    0.48729902505874634,
    0.1487179845571518,
    0.2512452006340027,
    -0.21642892062664032,
    0.37308743596076965,
    0.2526932954788208,
    0.07096052914857864,
    0.29727354645729065,
    0.01792212389409542,
    0.19391028583049774,
    0.2877366542816162,
    0.31969404220581055
  ],
  "fc3.weight": [
    [
      -0.2613072991371155,
      -0.14773082733154297,
      -0.11751136183738708,
      0.3541182577610016,
      0.15886588394641876,
      -0.16027002036571503,
      -0.2264975607395172,
      -0.12993618845939636,
      0.15948046743869781,
      0.17247220873832703,
      0.1744794100522995,
      0.1543632447719574,
      -0.5251020193099976,
      -0.11996978521347046,
      0.16423828899860382,
      0.06770480424165726,
      -0.4099684953689575,
      -0.15661944448947906,
      -0.1302843540906906,
      -0.40467214584350586,
      0.5793196558952332,
      0.1638142466545105,
      0.20912985503673553,
      0.8605937361717224,
      -0.1297759860754013,
      -0.11479732394218445,
      0.45573049783706665,
      -0.12227483838796616,
      0.4259133040904999,
      0.15767446160316467,
      -0.14340870082378387,
      -0.2529762089252472
    ]
  ],
  "fc3.bias": [
    0.14080451428890228
  ]
}