{
  "fc1.weight": [
    [
      -0.5129230618476868
    ],
    [
      0.4229806363582611
    ],
    [
      0.3053029477596283
    ],
    [
      0.4521868824958801
    ],
    [
      0.4609197974205017
    ],
    [
      0.4817858934402466
    ],
    [
      -0.31133127212524414
    ],
    [
      0.43794000148773193
    ],
    [
      0.819759726524353
    ],
    [
      -0.7129526138305664
    ],
    [
      -0.31062522530555725
    ],
    [
      0.38125330209732056
    ],
    [
      -0.416744202375412
    ],
    [
      0.42747262120246887
    ],
    [
      -0.3893011808395386
    ],
    [
      0.6098996996879578
    ],
    [
      -0.2606023848056793
    ],
    [
      0.10073769092559814
    ],
    [
      -0.634307861328125
    ],
    [
      0.32506152987480164
    ],
    [
      0.4048266112804413
    ],
    [
      0.005704760551452637
    ],
    [
      -0.414641797542572
    ],
    [
      -0.4029853641986847
    ],
    [
      0.4266301989555359
    ],
    [
      0.5937943458557129
    ],
    [
      0.5534937381744385
    ],
    [
      0.27762800455093384
    ],
    [
      0.05337071418762207
    ],
    [
      -0.8344516754150391
    ],
    [
      0.7354426383972168
    ],
    [
      -0.7879086136817932
    ]
  ],
  "fc1.bias": [
    -0.5728952288627625,
    -0.42441442608833313,
    0.3501472473144531,
    0.021928662434220314,
    0.09573739767074585,
    -0.5290959477424622,
    0.12576209008693695,
    -0.4852844178676605,
    0.3121926486492157,
    -0.7428035736083984,
    0.33043769001960754,
    0.3779464066028595,
    -0.5232403874397278,
    0.401819109916687,
    0.34726208448410034,
    0.33085620403289795,
    0.2673276662826538,
    -0.41144394874572754,
    -0.30239200592041016,
    0.3600999414920807,
    -0.41505154967308044,
    -0.5207240581512451,
    0.21334615349769592,
    0.30151841044425964,
    0.30495911836624146,
    -0.5801420211791992,
    -0.6121704578399658,
    -0.27384287118911743,
    -0.32363462448120117,
    0.19966888427734375,
    -0.7803374528884888,
    -0.9829127788543701
  ],
  "fc2.weight": [
    [
      -0.00014983951405156404,
      0.0836225301027298,
      0.00856943428516388,
      -0.07046891748905182,
      -0.02302076481282711,
      0.03900785371661186,
      -2.2881205081939697,
      0.07193846255540848,
      -0.015990082174539566,
      -0.09914693236351013,
      -0.9205698370933533,
      -0.008149081841111183,
      -0.05231436342000961,
      0.00024705904070287943,
      -1.4730929136276245,
      -0.008711852133274078,
      -1.0404871702194214,
      -0.005850493907928467,
      -0.40166008472442627,
      -0.01632842794060707,
      0.07128433883190155,
      -0.05772647261619568,
      -4.316469192504883,
      -3.9935989379882812,
      0.004367984365671873,
      0.019319161772727966,
      0.04657813161611557,
      0.09810729324817657,
      -0.03956659138202667,
      -1.0151945352554321,
      0.0019056082237511873,
      -0.12232418358325958
    ],
    [
      -0.4423961341381073,
      0.1435326486825943,
      0.06321476399898529,
      0.11982233077287674,
      0.05374594032764435,
      0.12752288579940796,
      -0.6930831670761108,
      0.15400171279907227,
      0.09292442351579666,
      -0.2873336672782898,
      -0.09790284186601639,
      0.0282365083694458,
      -0.31098759174346924,
      -0.01106975320726633,
      -0.1524639129638672,
      0.03856078162789345,
      -0.15202468633651733,
      0.11040844023227692,
      -1.5710945129394531,
      0.027682997286319733,
      0.07727327197790146,
      0.047994956374168396,
      -0.3174510598182678,
      -0.1957627832889557,
      0.045149799436330795,
      0.19481900334358215,
      0.1209663599729538,
      0.1592995524406433,
      0.13900895416736603,
      -0.7729997634887695,
      0.15094786882400513,
      -0.3957396149635315
    ],
    [
      -0.3137676417827606,
      0.10687176138162613,
      0.0012643468799069524,
      0.001429234747774899,
      -0.03173160180449486,
      0.11225276440382004,
      -6.17323112487793,
      0.14829835295677185,
      0.02011631801724434,
      -0.2596473693847656,
      -0.3227417767047882,
      0.011626076884567738,
      -0.2878345251083374,
      0.008678054437041283,
      -0.470036119222641,
      -0.015770820900797844,
      -0.32241395115852356,
      0.1418132334947586,
      -0.8032364845275879,
      -0.0007383637712337077,
      0.08048152923583984,
      -0.05885016918182373,
      -2.3977134227752686,
      -0.8420544266700745,
      0.005423680879175663,
      0.07781688868999481,
      0.0978090837597847,
      0.20884840190410614,
      -0.08685407787561417,
      -2.502042770385742,
      0.0513659231364727,
      -0.13662020862102509
    ],
    [
      0.2602923810482025,
      -0.9889858961105347,
      -0.022860262542963028,
      -1.0097442865371704,
      -0.46031561493873596,
      -0.602706253528595,
      0.10532005876302719,
      -0.40094295144081116,
      -0.20152318477630615,
      0.23244939744472504,
      0.022762291133403778,
      -0.05703813582658768,
      0.19848062098026276,
      -0.06889863312244415,
      0.05354627966880798,
      -0.10553842037916183,
      0.06688716262578964,
      0.11644937098026276,
      0.21216288208961487,
      -0.025317523628473282,
      -0.4521116018295288,
      -0.022225990891456604,
      0.058911845088005066,
      0.04459425434470177,
      -0.0746442973613739,
      -1.0340886116027832,
      -0.4434967637062073,
      -0.942564070224762,
      0.1592278927564621,
      0.039883293211460114,
      -0.38850730657577515,
      0.13458351790905
    ],
    [
      -0.015139036811888218,
      -0.19163255393505096,
      -0.4409404993057251,
      -0.8872390985488892,
      -1.4249287843704224,
      -0.10894887149333954,
      -0.02518230490386486,
      -0.12788306176662445,
      -1.8255019187927246,
      0.030725765973329544,
      0.008862601593136787,
      -0.8324024081230164,
      0.14377234876155853,
      -0.7512350678443909,
      -0.0019384692423045635,
      -3.2287914752960205,
      -0.023592732846736908,
      0.16585026681423187,
      -0.09350506961345673,
      -0.4341946542263031,
      0.04016329348087311,
      -0.1726345270872116,
      -0.017291652038693428,
      -0.015850624069571495,
      -3.327453136444092,
      -0.03268935903906822,
      -0.19225949048995972,
      -0.29344314336776733,
      -0.12986060976982117,
      -0.04554499685764313,
      -0.004112808499485254,
      0.11660194396972656
    ],
    [
      0.32889285683631897,
      -0.6667667031288147,
      -0.05792790278792381,
      -1.3036714792251587,
      -0.5010353922843933,
      -0.22718891501426697,
      0.10574578493833542,
      -0.20867396891117096,
      -0.2227170318365097,
      0.1348351091146469,
      0.04185868427157402,
      -0.06520694494247437,
      0.1925734430551529,
      -0.07074170559644699,
      0.049923382699489594,
      -0.12524336576461792,
      0.08088710159063339,
      0.007054433226585388,
      0.1998615264892578,
      -0.05588874593377113,
      -0.23182407021522522,
      0.08549638092517853,
      0.07732685655355453,
      0.07895103842020035,
      -0.10211028903722763,
      -0.9799026846885681,
      -0.2602681517601013,
      -0.3458419144153595,
      -0.041333094239234924,
      0.024938231334090233,
      -0.19663169980049133,
      0.11426826566457748
    ],
    [
      -0.5835042595863342,
      0.09220802783966064,
      0.04801557958126068,
      -0.014446165412664413,
      0.01905098930001259,
      0.07203148305416107,
      -0.2772570252418518,
      0.16532538831233978,
      -3.830782175064087,
      -0.5476354360580444,
      -0.1311774104833603,
      0.02148866094648838,
      -0.4742465317249298,
      0.02264152653515339,
      -0.15040969848632812,
      0.031503695994615555,
      -0.17238788306713104,
      0.16845832765102386,
      -3.2720706462860107,
      0.051851917058229446,
      0.12225588411092758,
      0.12137161195278168,
      -0.19481877982616425,
      -0.17844603955745697,
      0.03926270455121994,
      0.08375829458236694,
      0.13965600728988647,
      0.07079151272773743,
      -0.05565628409385681,
      -0.15902142226696014,
      0.07254717499017715,
      -0.5152519941329956
    ],
    [
      0.25755560398101807,
      -0.1124776154756546,
      -0.16867604851722717,
      -2.2698261737823486,
      -4.2522969245910645,
      -0.11417194455862045,
      0.0008323599467985332,
      -0.19602598249912262,
      -3.6545450687408447,
      0.12154629081487656,
      -0.0016600521048530936,
      -0.21277368068695068,
      0.17358069121837616,
      -0.17143216729164124,
      -0.0010661856504157186,
      -0.6573429107666016,
      0.0035734071861952543,
      -0.020719826221466064,
      0.05770634114742279,
      -0.15506574511528015,
      -0.05736115947365761,
      0.14213509857654572,
      -0.010882346890866756,
      0.0029327264055609703,
      -0.3992459774017334,
      -0.40860557556152344,
      -0.2723574638366699,
      -0.34914639592170715,
      0.08313529193401337,
      -0.043142855167388916,
      -0.09159183502197266,
      0.11738915741443634
    ],
    [
      0.26161956787109375,
      -0.8279585242271423,
      -0.09205316752195358,
      -4.777767181396484,
      -1.105341911315918,
      -0.4553554356098175,
      0.05837119743227959,
      -0.469105064868927,
      -0.33661431074142456,
      0.21894903481006622,
      0.021065033972263336,
      -0.10000047087669373,
      0.2641981244087219,
      -0.09294546395540237,
      0.019710615277290344,
      -0.1741235852241516,
      0.03035116009414196,
      0.12463460862636566,
      0.10654532164335251,
      -0.0788656547665596,
      -0.18631888926029205,
      0.0083494633436203,
      0.011438470333814621,
      0.029718991369009018,
      -0.1281963586807251,
      -0.7380219101905823,
      -0.39165157079696655,
      -1.017544150352478,
      0.12369529902935028,
      -0.006024227477610111,
      -0.3855067491531372,
      0.15837807953357697
    ],
    [
      0.20748752355575562,
      -0.469007283449173,
      -0.11258163303136826,
      -4.152976989746094,
      -4.203789710998535,
      -0.29497960209846497,
      0.027008425444364548,
      -0.30615732073783875,
      -0.5889764428138733,
      0.18021392822265625,
      0.00036499041016213596,
      -0.12731784582138062,
      0.34153831005096436,
      -0.09117580950260162,
      -0.012247062288224697,
      -0.24712902307510376,
      -0.005792598705738783,
      -0.09525895863771439,
      0.08692247420549393,
      -0.13107314705848694,
      -0.07742864638566971,
      -0.12766993045806885,
      0.024270351976156235,
      0.0203607939183712,
      -0.18327440321445465,
      -0.47709980607032776,
      -0.3545891046524048,
      -0.6118806600570679,
      -0.06741700321435928,
      -0.018849054351449013,
      -0.31209251284599304,
      0.11023734509944916
    ],
    [
      -0.2468147575855255,
      0.17677217721939087,
      -0.0102218734100461,
      -0.007138493005186319,
      0.016413062810897827,
      0.1784256398677826,
      -5.832045555114746,
      0.19449587166309357,
      0.019449593499302864,
      -0.39902767539024353,
      -0.3082149624824524,
      0.002445011166855693,
      -0.18875518441200256,
      -0.012361477129161358,
      -0.40457063913345337,
      0.014440388418734074,
      -0.33994847536087036,
      -0.08384822309017181,
      -0.8641493916511536,
      -0.019146250560879707,
      0.18252764642238617,
      -0.01152142882347107,
      -1.3470946550369263,
      -0.5898120999336243,
      0.03157889470458031,
      0.08317649364471436,
      0.14451953768730164,
      0.12983672320842743,
      0.09773124754428864,
      -3.247424840927124,
      0.0588531419634819,
      -0.30313754081726074
    ],
    [
      0.3065073490142822,
      -0.2665151059627533,
      -0.15227137506008148,
      -3.3866286277770996,
      -5.666162490844727,
      -0.18687312304973602,
      0.021938074380159378,
      -0.158025860786438,
      -0.834892213344574,
      0.07762213051319122,
      0.02133028581738472,
      -0.18250519037246704,
      0.19244931638240814,
      -0.12280607968568802,
      0.01118249911814928,
      -0.29671210050582886,
      0.03417988494038582,
      -0.15734697878360748,
      0.0973486676812172,
      -0.15279923379421234,
      -0.09425108879804611,
      -0.05974616855382919,
      0.032297201454639435,
      -0.0022426354698836803,
      -0.2602345645427704,
      -0.453571617603302,
      -0.08609174937009811,
      -0.7590572834014893,
      -0.1361602246761322,
      -0.011388267390429974,
      -0.2165020853281021,
      0.23386675119400024
    ],
    [
      -0.10846099257469177,
      -0.03153557702898979,
      -0.023972241207957268,
      -0.21393296122550964,
      -0.22375674545764923,
      -0.22222214937210083,
      -0.029760245233774185,
      -0.21159063279628754,
      -0.178145632147789,
      0.15258456766605377,
      -0.1952494978904724,
      0.035224590450525284,
      -0.14821235835552216,
      -0.0512663871049881,
      -0.06464537978172302,
      0.0535905584692955,
      -0.037745069712400436,
      0.12647275626659393,
      -0.11363040655851364,
      -0.04411059245467186,
      0.02937983348965645,
      0.03895366191864014,
      -0.07592442631721497,
      0.020641695708036423,
      -0.011482343077659607,
      0.041720107197761536,
      -0.11724477261304855,
      -0.1479274481534958,
      -0.1639973223209381,
      -0.09468460828065872,
      -0.018629873171448708,
      -0.0344771146774292
    ],
    [
      -0.3790711760520935,
      0.1149292141199112,
      0.027718987315893173,
      0.05039292946457863,
      0.05263274163007736,
      0.1186579093337059,
      -1.9300954341888428,
      0.14331446588039398,
      0.09050986170768738,
      -0.2825763523578644,
      -0.1785137802362442,
      -0.0014282948104664683,
      -0.19392259418964386,
      0.017155777662992477,
      -0.24171291291713715,
      0.016284866258502007,
      -0.25353366136550903,
      -0.022163137793540955,
      -1.0245699882507324,
      0.01878609135746956,
      0.17800138890743256,
      0.09640948474407196,
      -0.6247611045837402,
      -0.33560630679130554,
      0.009954740293323994,
      0.17370520532131195,
      0.1843852400779724,
      0.32950934767723083,
      0.01527339220046997,
      -4.658633708953857,
      0.09231705963611603,
      -0.28547072410583496
    ],
    [
      -0.30093279480934143,
      0.09069148451089859,
      0.07333498448133469,
      0.10140135884284973,
      0.07593431323766708,
      0.25830262899398804,
      -0.9339147806167603,
      0.17906077206134796,
      0.14095474779605865,
      -0.28281551599502563,
      -0.10662557929754257,
      0.005134174134582281,
      -0.3647388219833374,
      0.02420417033135891,
      -0.17291617393493652,
      0.0011387249687686563,
      -0.1435582935810089,
      -0.04159070551395416,
      -1.260802149772644,
      0.005687945522367954,
      0.25600695610046387,
      -0.09311928600072861,
      -0.3872106671333313,
      -0.2101665586233139,
      0.007797813508659601,
      0.111014723777771,
      0.09370578080415726,
      0.2586689591407776,
      -0.14458118379116058,
      -1.205112338066101,
      0.21514376997947693,
      -0.1702733337879181
    ],
    [
      -0.48167330026626587,
      0.19507741928100586,
      -0.0009556369623169303,
      0.08689235895872116,
      0.1069173589348793,
      0.2685818374156952,
      -0.6721673607826233,
      0.11108434945344925,
      0.14864861965179443,
      -0.26482516527175903,
      -0.0902341827750206,
      0.03672099485993385,
      -0.28248077630996704,
      0.034723229706287384,
      -0.1451651006937027,
      0.020344147458672523,
      -0.14268799126148224,
      0.028002992272377014,
      -1.3642476797103882,
      0.03954889252781868,
      0.3041617274284363,
      -0.005954444408416748,
      -0.3455738127231598,
      -0.17019158601760864,
      0.04680201783776283,
      0.09166671335697174,
      0.12931546568870544,
      0.2825464606285095,
      0.013644486665725708,
      -0.7865943312644958,
      0.19494052231311798,
      -0.2648800015449524
    ],
    [
      0.11011962592601776,
      -0.41929349303245544,
      -0.2907099425792694,
      -0.9761601090431213,
      -2.189183473587036,
      -0.18921354413032532,
      -0.025504255667328835,
      -0.24089768528938293,
      -2.8522486686706543,
      0.14325854182243347,
      0.006403015926480293,
      -0.4356924593448639,
      0.23911181092262268,
      -0.3685084283351898,
      -0.000269251293502748,
      -3.524759531021118,
      -0.025739440694451332,
      -0.07997699081897736,
      -0.06164396554231644,
      -0.2788998782634735,
      -0.030452607199549675,
      -0.05738099664449692,
      -0.016123881563544273,
      0.0023979407269507647,
      -1.1041884422302246,
      -0.4259829521179199,
      -0.22426189482212067,
      -0.1373845487833023,
      -0.04576903581619263,
      -0.04910232499241829,
      -0.1774265170097351,
      0.08792798966169357
    ],
    [
      -0.025025544688105583,
      -0.09233605116605759,
      -1.392289400100708,
      -0.4256110191345215,
      -0.8631893992424011,
      -0.11262671649456024,
      -0.016606539487838745,
      0.008181434124708176,
      -0.9477579593658447,
      -0.04407689720392227,
      -0.020066922530531883,
      -2.666630744934082,
      0.16310642659664154,
      -2.681892156600952,
      -0.02200891263782978,
      -1.7555996179580688,
      -0.008783300407230854,
      0.06011936068534851,
      -0.08982835710048676,
      -1.3981424570083618,
      -0.22744862735271454,
      0.14401395618915558,
      -0.02418772503733635,
      -0.019816331565380096,
      -3.2046890258789062,
      -0.04129236936569214,
      -0.1773585081100464,
      -0.34449294209480286,
      0.13314957916736603,
      -0.03592737391591072,
      0.056275784969329834,
      -0.02033848874270916
    ],
    [
      -0.5397673845291138,
      0.2180284559726715,
      0.0034109873231500387,
      0.06974545121192932,
      0.029795872047543526,
      0.1341123729944229,
      -1.333783745765686,
      0.16264942288398743,
      0.0980769693851471,
      -0.26466718316078186,
      -0.12440073490142822,
      0.02483663707971573,
      -0.5171413421630859,
      0.024725928902626038,
      -0.16862492263317108,
      0.035577256232500076,
      -0.15840381383895874,
      0.13843874633312225,
      -1.2910163402557373,
      0.002131003886461258,
      0.23331384360790253,
      -0.15393246710300446,
      -0.5356008410453796,
      -0.24129460752010345,
      0.015145882964134216,
      0.07932928949594498,
      0.058727625757455826,
      0.33136582374572754,
      0.13022513687610626,
      -3.5859835147857666,
      0.16902640461921692,
      -0.4436274766921997
    ],
    [
      -0.19023965299129486,
      -1.510389804840088,
      0.2798779308795929,
      -0.5152639746665955,
      -0.42593395709991455,
      -0.9041494727134705,
      -0.06078815460205078,
      -0.7279788255691528,
      -0.16003800928592682,
      -0.2159159630537033,
      -0.03929602727293968,
      0.22329305112361908,
      -0.25625357031822205,
      0.17478042840957642,
      -0.04683569446206093,
      -0.06017042696475983,
      -0.046013206243515015,
      0.06517437100410461,
      -0.12206006050109863,
      0.2321307212114334,
      -0.6263606548309326,
      -0.04559703171253204,
      -0.035289015620946884,
      -0.031761351972818375,
      0.0731256976723671,
      -1.8947563171386719,
      -0.4465416669845581,
      -1.6796196699142456,
      0.10274745523929596,
      0.6233472228050232,
      -0.7900450229644775,
      -0.11796318739652634
    ],
    [
      0.2692452371120453,
      -0.8886924982070923,
      -0.1150020882487297,
      -5.563293933868408,
      -1.123478651046753,
      -0.5403454303741455,
      0.04266992583870888,
      -0.3031703233718872,
      -0.36368539929389954,
      0.284763902425766,
      0.003268491942435503,
      -0.11748377978801727,
      0.21793988347053528,
      -0.09367257356643677,
      0.0005386858247220516,
      -0.14021535217761993,
      0.003878876566886902,
      -0.1546075940132141,
      0.14297959208488464,
      -0.11727824062108994,
      -0.38873448967933655,
      -0.04239852726459503,
      0.0438578836619854,
      0.01844147779047489,
      -0.12735971808433533,
      -0.9389324188232422,
      -0.1947994828224182,
      -0.9481212496757507,
      0.07922609150409698,
      -0.015057682991027832,
      -0.3245874345302582,
      0.1357146054506302
    ],
    [
      0.08205175399780273,
      -0.06293760985136032,
      -0.1547876000404358,
      -1.782865285873413,
      -3.7453272342681885,
      0.011820206418633461,
      -0.00887270737439394,
      -0.0908183753490448,
      -4.491876125335693,
      0.1071787029504776,
      -0.014653021469712257,
      -0.23394571244716644,
      0.17299748957157135,
      -0.15138563513755798,
      0.014425386674702168,
      -0.7023600339889526,
      0.010867159813642502,
      0.07630454003810883,
      0.03475724905729294,
      -0.1173221617937088,
      -0.08087770640850067,
      0.13678745925426483,
      0.014982757158577442,
      -0.012818539515137672,
      -0.3948628306388855,
      -0.14428532123565674,
      -0.04668769612908363,
      -0.23444245755672455,
      0.17557363212108612,
      -0.030873768031597137,
      -0.08018802851438522,
      0.2016691118478775
    ],
    [
      -0.617520809173584,
      0.19929192960262299,
      -0.0071366759948432446,
      0.055960290133953094,
      0.0054432787001132965,
      0.1537957787513733,
      -1.52774977684021,
      0.20150429010391235,
      0.05602071434259415,
      -0.40401023626327515,
      -0.18158909678459167,
      -0.00537994084879756,
      -0.36744117736816406,
      0.013102935627102852,
      -0.22813403606414795,
      -0.0028130370192229748,
      -0.2738158404827118,
      -0.048965469002723694,
      -1.420580267906189,
      0.003268437460064888,
      0.282399982213974,
      0.1280270665884018,
      -0.5698897242546082,
      -0.31153079867362976,
      0.004015884827822447,
      0.16820190846920013,
      0.14796879887580872,
      0.3226548731327057,
      -0.07497317343950272,
      -4.497254371643066,
      0.1265501081943512,
      -0.38888460397720337
    ],
    [
      -0.19984029233455658,
      0.06581006944179535,
      -3.738896339200437e-05,
      -0.04811497777700424,
      -0.030000457540154457,
      0.07957324385643005,
      -4.335353374481201,
      0.06008805334568024,
      0.008533124811947346,
      -0.30196887254714966,
      -0.5206553936004639,
      0.007586820982396603,
      -0.16136114299297333,
      -0.003835665760561824,
      -0.7494397163391113,
      -0.046627022325992584,
      -0.5701796412467957,
      -0.12969925999641418,
      -0.5128499865531921,
      -0.0025781961157917976,
      0.12510406970977783,
      -0.16671080887317657,
      -5.589273929595947,
      -1.488459825515747,
      0.0017739610048010945,
      0.02629084326326847,
      0.1429588794708252,
      0.10307574272155762,
      0.040894538164138794,
      -1.6268675327301025,
      0.12415254861116409,
      -0.08974023908376694
    ],
    [
      0.10770463198423386,
      -0.7387070655822754,
      -0.07765034586191177,
      -1.0469341278076172,
      -0.4501226842403412,
      -0.7803114652633667,
      0.10236069560050964,
      -0.7347395420074463,
      -0.19970624148845673,
      0.2603210210800171,
      0.05678386613726616,
      -0.06685584038496017,
      0.32420942187309265,
      -0.07018527388572693,
      0.05387372151017189,
      -0.08989176899194717,
      0.029452821239829063,
      -0.145862877368927,
      0.18497221171855927,
      -0.053019311279058456,
      -0.6898672580718994,
      -0.12760157883167267,
      0.06630529463291168,
      0.05259987339377403,
      -0.08339834213256836,
      -0.957403302192688,
      -0.37303510308265686,
      -0.7398790717124939,
      -0.11388065665960312,
      0.028662238270044327,
      -0.6274816989898682,
      0.21765904128551483
    ],
    [
      -0.06135093793272972,
      0.012277459725737572,
      -0.0024010222405195236,
      -0.04920272156596184,
      -0.03828511759638786,
      -0.008695905096828938,
      -2.0436997413635254,
      0.07472726702690125,
      -0.00499915424734354,
      0.07365784794092178,
      -2.3074352741241455,
      -0.01973007246851921,
      -0.06130996346473694,
      -0.013941589742898941,
      -4.258430004119873,
      -0.02308414876461029,
      -2.769259214401245,
      -0.11678870022296906,
      -0.5517342686653137,
      -0.020811788737773895,
      0.11788126081228256,
      0.024675190448760986,
      -2.4932641983032227,
      -4.754482746124268,
      -0.03934389352798462,
      -0.08314333856105804,
      0.08737745881080627,
      -0.04163232445716858,
      -0.13640105724334717,
      -0.8676300048828125,
      0.012954921461641788,
      -0.22295792400836945
    ],
    [
      0.34674227237701416,
      -1.3612512350082397,
      -0.11195322126150131,
      -1.3803390264511108,
      -0.548149585723877,
      -0.6988067626953125,
      0.052147276699543,
      -0.4767013490200043,
      -0.25470849871635437,
      0.23849791288375854,
      0.0265632513910532,
      -0.09433166682720184,
      0.31166061758995056,
      -0.08911324292421341,
      0.03325530141592026,
      -0.10091247409582138,
      0.05331907793879509,
      0.03029768168926239,
      0.18768048286437988,
      -0.11129806190729141,
      -0.3516477644443512,
      0.10327626764774323,
      0.040155474096536636,
      0.05190376192331314,
      -0.15043926239013672,
      -1.1428797245025635,
      -0.41716268658638,
      -1.4254008531570435,
      0.09119673073291779,
      -0.003254977986216545,
      -0.4869528114795685,
      0.2193547636270523
    ],
    [
      -0.5801923871040344,
      0.29025205969810486,
      0.05219806730747223,
      0.12952671945095062,
      0.07619820535182953,
      0.12466397881507874,
      -0.710288941860199,
      0.21505647897720337,
      0.1408122181892395,
      -0.4150589406490326,
      -0.11116080731153488,
      0.017238620668649673,
      -0.5738836526870728,
      0.046484507620334625,
      -0.11072652786970139,
      0.04142351821064949,
      -0.13853764533996582,
      -0.16448189318180084,
      -1.5055322647094727,
      0.03242206200957298,
      0.25894036889076233,
      -0.060602955520153046,
      -0.3295018970966339,
      -0.17640872299671173,
      0.027804281562566757,
      0.14438745379447937,
      0.16487239301204681,
      0.37427520751953125,
      -0.15371915698051453,
      -0.7718878388404846,
      0.16329891979694366,
      -0.37794631719589233
    ],
    [
      -0.006971508264541626,
      -0.07277838885784149,
      -0.07134154438972473,
      -0.06692410260438919,
      -0.11773091554641724,
      -0.06437680870294571,
      -0.10071200132369995,
      0.1250939667224884,
      0.04374958574771881,
      0.003992334008216858,
      -0.18112388253211975,
      -0.10806631296873093,
      0.13733835518360138,
      -0.164366215467453,
      0.0501803420484066,
      -0.00533389113843441,
      -0.02213365025818348,
      -0.14027945697307587,
      -0.017700940370559692,
      -0.0163872167468071,
      -0.11182839423418045,
      -0.09132269024848938,
      -0.0492028146982193,
      -0.06925880163908005,
      -0.008906550705432892,
      -0.08008986711502075,
      -0.012967013753950596,
      0.026103824377059937,
      -0.16275310516357422,
      -0.1457701474428177,
      -0.07820552587509155,
      0.046636104583740234
    ],
    [
      0.23699718713760376,
      -0.6260279417037964,
      -0.040256381034851074,
      -3.191061496734619,
      -0.779910683631897,
      -0.3117102384567261,
      0.0661887601017952,
      -0.4426073431968689,
      -0.25487878918647766,
      0.2255733758211136,
      0.028200780972838402,
      -0.060205407440662384,
      0.21969884634017944,
      -0.05332319810986519,
      0.03831633925437927,
      -0.1223471462726593,
      0.0349578782916069,
      -0.1391335129737854,
      0.11997992545366287,
      -0.059915196150541306,
      -0.4509340822696686,
      0.10229824483394623,
      0.04631493613123894,
      0.033385638147592545,
      -0.13381119072437286,
      -0.7386472821235657,
      -0.21287564933300018,
      -0.9155099987983704,
      0.0888591855764389,
      -0.004218766465783119,
      -0.3113207221031189,
      0.11122409254312515
    ],
    [
      0.298987478017807,
      -0.7231058478355408,
      -0.0679287314414978,
      -1.678591251373291,
      -0.567876398563385,
      -0.5595920085906982,
      0.08103829622268677,
      -0.44055891036987305,
      -0.21003082394599915,
      0.09688390791416168,
      0.07207595556974411,
      -0.06734941154718399,
      0.23503674566745758,
      -0.058283351361751556,
      0.014156488701701164,
      -0.09701117873191833,
      0.013824195601046085,
      -0.05057436227798462,
      0.17276977002620697,
      -0.04293432459235191,
      -0.221136674284935,
      -0.06352410465478897,
      0.09045526385307312,
      0.036243390291929245,
      -0.10958029329776764,
      -0.892899215221405,
      -0.2703467607498169,
      -1.223188042640686,
      0.12534336745738983,
      0.021732380613684654,
      -0.28343266248703003,
      0.23860882222652435
    ],
    [
      -0.4737931787967682,
      0.2370484620332718,
      0.00501033291220665,
      0.15047705173492432,
      0.10898688435554504,
      0.11330294609069824,
      -0.6404568552970886,
      0.2415495216846466,
      0.11277744919061661,
      -0.24632351100444794,
      -0.09949570894241333,
      0.061719924211502075,
      -0.4340372681617737,
      0.031275004148483276,
      -0.11454993486404419,
      0.015226787887513638,
      -0.13539251685142517,
      -0.1728861778974533,
      -1.5551220178604126,
      0.028602920472621918,
      0.15342596173286438,
      -0.08879875391721725,
      -0.3117062449455261,
      -0.17587076127529144,
      0.022798264399170876,
      0.23374958336353302,
      0.15298093855381012,
      0.35258057713508606,
      0.05042421817779541,
      -0.7091788053512573,
      0.16025987267494202,
      -0.4148887097835541
    ]
  ],
  "fc2.bias": [
    0.45307832956314087,
    0.2908036708831787,
    0.45922738313674927,
    0.31236571073532104,
    0.5092356204986572,
    0.2944391965866089,
    0.3574746251106262,
    0.4332577586174011,
    0.418960303068161,
    0.3841545879840851,
    0.4837101399898529,
    0.46384525299072266,
    -0.2469884753227234,
    0.38148033618927,
    0.34172526001930237,
    0.30647221207618713,
    0.4742092788219452,
    0.41501787304878235,
    0.3650040626525879,
    -0.5298488736152649,
    0.4490559995174408,
    0.40457895398139954,
    0.427365243434906,
    0.5270403027534485,
    0.30989548563957214,
    0.45448848605155945,
    0.4531603753566742,
    0.34448134899139404,
    -0.20452958345413208,
    0.36137163639068604,
    0.3715928792953491,
    0.3034960925579071
  ],
  "fc3.weight": [
    [
      -0.24519018828868866,
      -0.08441882580518723,
      -0.1526525467634201,
      0.11058653891086578,
      0.2479230910539627,
      0.10203531384468079,
      -0.20926785469055176,
      0.17893613874912262,
      0.12137669324874878,
      0.1304941475391388,
      -0.15618126094341278,
      0.15640664100646973,
      0.03403870388865471,
      -0.11122903972864151,
      -0.10115188360214233,
      -0.09767542034387589,
      0.2193465530872345,
      0.4008306860923767,
      -0.10135877877473831,
      0.6948961615562439,
      0.1027899980545044,
      0.17742879688739777,
      -0.10941809415817261,
      -0.16800527274608612,
      0.10226902365684509,
      -0.33963626623153687,
      0.10779798030853271,
      -0.09461740404367447,
      0.009665640071034431,
      0.1138395443558693,
      0.10460083186626434,
      -0.0933130532503128
    ]
  ],
  "fc3.bias": [
    -0.07123862206935883
  ]
}