{
  "fc1.weight": [
    [
      0.3979457914829254
    ],
    [
      -0.7885174751281738
    ],
    [
      -0.37467020750045776
    ],
    [
      0.6198577284812927
    ],
    [
      0.40606045722961426
    ],
    [
      -0.4752803146839142
    ],
    [
      -0.23788157105445862
    ],
    [
      -0.14349603652954102
    ],
    [
      0.7188067436218262
    ],
    [
      0.1609494686126709
    ],
    [
      0.39663630723953247
    ],
    [
      0.3431597948074341
    ],
    [
      0.35951536893844604
    ],
    [
      0.2535165846347809
    ],
    [
      0.8522814512252808
    ],
    [
      0.5314184427261353
    ],
    [
      0.35811036825180054
    ],
    [
      -0.6685740947723389
    ],
    [
      -0.48724547028541565
    ],
    [
      -0.8774664402008057
    ],
    [
      0.4391239881515503
    ],
    [
      -0.3122062087059021
    ],
    [
      -0.34502047300338745
    ],
    [
      0.36419621109962463
    ],
    [
      0.9990105628967285
    ],
    [
      -0.32928338646888733
    ],
    [
      -1.0486947298049927
    ],
    [
      -0.023352503776550293
    ],
    [
      -0.6107987761497498
    ],
    [
      -0.2998426854610443
    ],
    [
      -0.5300362706184387
    ],
    [
      0.39926931262016296
    ]
  ],
  "fc1.bias": [
    -0.6816134452819824,
    -0.8275346159934998,
    0.26193127036094666,
    -0.6884728074073792,
    0.3250771462917328,
    -0.4441787302494049,
    0.28527966141700745,
    -0.5294522047042847,
    -0.7943968772888184,
    -0.6916600465774536,
    0.06962332129478455,
    -0.5960781574249268,
    0.17590901255607605,
    0.2651943564414978,
    -0.935810923576355,
    -0.22526171803474426,
    -0.36332428455352783,
    0.338349848985672,
    -0.3569818139076233,
    -0.8825001120567322,
    -0.182813823223114,
    0.3766527473926544,
    0.0986609160900116,
    0.1139376237988472,
    0.5418918132781982,
    0.28489378094673157,
    0.12011489272117615,
    -0.8919345140457153,
    -0.5489878058433533,
    0.27105215191841125,
    -0.34623533487319946,
    0.37159886956214905
  ],
  "fc2.weight": [
    [
      0.16435210406780243,
      0.18185199797153473,
      0.017919130623340607,
      -0.06314224004745483,
      -0.19995400309562683,
      0.23372939229011536,
      0.03481448069214821,
      -0.030975252389907837,
      -0.26340433955192566,
      0.006095871329307556,
      -4.224512577056885,
      0.1699371486902237,
      -0.8186572194099426,
      -0.19482019543647766,
      -0.13501174747943878,
      -1.202413558959961,
      -0.3555939197540283,
      0.05090484023094177,
      0.07228107750415802,
      0.14696207642555237,
      -0.9067894220352173,
      -0.003955583553761244,
      0.02131444215774536,
      -2.3079233169555664,
      -0.2340923398733139,
      -0.019753800705075264,
      -0.005949409678578377,
      0.0150471031665802,
      0.06463488936424255,
      0.030123133212327957,
      0.16162103414535522,
      -0.16058745980262756
    ],
    [
      0.14339756965637207,
      0.1126205176115036,
      0.022024955600500107,
      -0.12073177844285965,
      -0.2374240756034851,
      0.23601332306861877,
      0.003702219109982252,
      -0.05885392427444458,
      -0.20233838260173798,
      -0.004120230674743652,
      -4.193034648895264,
      -0.13966825604438782,
      -1.0127867460250854,
      -0.0952080562710762,
      -0.2972303628921509,
      -0.7748203277587891,
      -0.07350581139326096,
      0.08433839678764343,
      0.19249722361564636,
      0.0927387923002243,
      -0.5398572087287903,
      -9.402718569617718e-05,
      0.0410604290664196,
      -3.549793243408203,
      -0.22303780913352966,
      0.04300638660788536,
      -0.008300051093101501,
      0.16904495656490326,
      0.10604705661535263,
      0.0556783489882946,
      0.1657838672399521,
      -0.1256265640258789
    ],
    [
      -0.11929687857627869,
      -0.4982704818248749,
      -0.134541854262352,
      0.17586283385753632,
      -0.004796841647475958,
      -0.4483231008052826,
      -0.12209910154342651,
      -0.09875413030385971,
      0.051797155290842056,
      0.1741441935300827,
      0.05934866890311241,
      -0.03846338391304016,
      0.03167495131492615,
      0.0043225097469985485,
      0.21154513955116272,
      0.20473475754261017,
      0.3336532711982727,
      -0.27674123644828796,
      -1.7066510915756226,
      -0.40751609206199646,
      0.21673594415187836,
      -0.10414544492959976,
      -0.3865329325199127,
      0.04585752263665199,
      -0.02298637107014656,
      -0.1363779604434967,
      -0.3678287863731384,
      -0.11698925495147705,
      -0.8158786296844482,
      -0.12444363534450531,
      -1.5774972438812256,
      0.0023290240205824375
    ],
    [
      -0.047211382538080215,
      -0.14939209818840027,
      -2.8930795192718506,
      0.1240447387099266,
      -0.018864527344703674,
      -0.15096282958984375,
      -0.6008244156837463,
      0.10675300657749176,
      0.09295123815536499,
      0.07231010496616364,
      -0.03526221215724945,
      0.12232659757137299,
      -0.06022651493549347,
      0.007531032897531986,
      0.04836750030517578,
      -0.058644603937864304,
      0.1459846794605255,
      -3.366213321685791,
      -0.026962870731949806,
      -0.16799747943878174,
      -0.07418780773878098,
      -0.345294713973999,
      -2.1851871013641357,
      -0.026069454848766327,
      -0.022614525631070137,
      -0.5333821773529053,
      -0.942245602607727,
      0.11957548558712006,
      0.070184126496315,
      -0.9643599390983582,
      -0.24889931082725525,
      -0.0025412598624825478
    ],
    [
      -0.008507994003593922,
      0.10002586245536804,
      -2.918647527694702,
      0.093647800385952,
      -0.010833860374987125,
      0.10239892452955246,
      -1.8165885210037231,
      0.16261135041713715,
      0.12897007167339325,
      0.03819206357002258,
      -0.03853984549641609,
      0.16119633615016937,
      -0.01876378431916237,
      -0.0017288003582507372,
      -0.014853376895189285,
      -0.0929076224565506,
      0.049062032252550125,
      -1.5953792333602905,
      -0.2416343241930008,
      -0.07315485179424286,
      -0.0996522530913353,
      -1.1996676921844482,
      -0.8483758568763733,
      -0.03483257815241814,
      -0.004001481458544731,
      -1.561584711074829,
      -0.40591195225715637,
      -0.13289949297904968,
      -0.07932287454605103,
      -3.454684257507324,
      -0.1727953404188156,
      -0.00445264857262373
    ],
    [
      -0.07664868980646133,
      -0.19182118773460388,
      -1.1661802530288696,
      0.044221431016922,
      -0.032084450125694275,
      -0.19874991476535797,
      -0.3917493522167206,
      -0.16728636622428894,
      0.3053320348262787,
      -0.04001113772392273,
      -0.02006145939230919,
      -0.0684458464384079,
      -0.016588516533374786,
      -0.017997607588768005,
      0.020916668698191643,
      -0.0083058075979352,
      0.31322965025901794,
      -2.9079744815826416,
      -0.3477419316768646,
      -0.1510787159204483,
      -0.026518963277339935,
      -0.24744972586631775,
      -3.448401927947998,
      -0.040012750774621964,
      -0.020768139511346817,
      -0.38009175658226013,
      -1.4511598348617554,
      0.12591184675693512,
      -0.4040758013725281,
      -0.6181196570396423,
      -0.6472195982933044,
      -0.021522503346204758
    ],
    [
      0.1947585493326187,
      -0.2208099514245987,
      -0.39036133885383606,
      0.10439226776361465,
      0.020646102726459503,
      -0.10507190972566605,
      -0.21094538271427155,
      -0.15022015571594238,
      0.018063019961118698,
      -0.13920600712299347,
      0.02930719405412674,
      -0.008152425289154053,
      0.0024913849774748087,
      0.016367876902222633,
      0.13436567783355713,
      0.06321986019611359,
      0.1502309888601303,
      -0.5701054930686951,
      -0.5428703427314758,
      -0.26790738105773926,
      0.10718604922294617,
      -0.13749808073043823,
      -4.772611618041992,
      0.007820425555109978,
      -0.0064314897172153,
      -0.20733332633972168,
      -2.492515802383423,
      -0.07013168185949326,
      -0.13773061335086823,
      -0.2617141902446747,
      -0.5318270921707153,
      0.014933186583220959
    ],
    [
      -0.04585468769073486,
      0.09186246991157532,
      -0.02272968180477619,
      -0.2427559345960617,
      -1.3218274116516113,
      0.09982429444789886,
      0.01972424052655697,
      -0.09957239031791687,
      -0.022029826417565346,
      -0.11002594977617264,
      -1.2553844451904297,
      -0.1471579670906067,
      -3.516082286834717,
      -0.9065086245536804,
      -0.14447811245918274,
      -0.14585991203784943,
      -0.008753868751227856,
      -0.009161383844912052,
      -0.013013675808906555,
      0.052231188863515854,
      -0.2171168476343155,
      -0.005446563474833965,
      -0.012791922315955162,
      -2.0765838623046875,
      -3.8243680000305176,
      0.017924092710018158,
      -0.03810003399848938,
      0.06113813817501068,
      0.14606043696403503,
      -0.004412445705384016,
      -0.011619442142546177,
      -0.7990399599075317
    ],
    [
      0.031552501022815704,
      0.06528326123952866,
      0.07048390805721283,
      -0.10078077018260956,
      -0.08474255353212357,
      0.2485906481742859,
      0.06259427964687347,
      -0.02284453809261322,
      -0.004153228364884853,
      -0.05498732626438141,
      -1.825408935546875,
      0.11419381201267242,
      -0.35460594296455383,
      -0.04277178645133972,
      -0.2135821431875229,
      -1.0774571895599365,
      -0.1310049593448639,
      0.08072398602962494,
      0.20768499374389648,
      0.07469465583562851,
      -1.036515235900879,
      0.03672783449292183,
      0.0926639512181282,
      -0.8254059553146362,
      -0.1467217653989792,
      0.004481897689402103,
      -0.0012198078911751509,
      0.13821695744991302,
      0.16210223734378815,
      0.04044671729207039,
      0.19488461315631866,
      -0.05206432566046715
    ],
    [
      -0.12243206053972244,
      -0.1785622090101242,
      -0.15858058631420135,
      0.24367249011993408,
      0.013637112453579903,
      -0.2508544623851776,
      -0.10383893549442291,
      0.023180410265922546,
      0.12074080109596252,
      -0.13427408039569855,
      0.07630115747451782,
      0.0615166574716568,
      0.040790244936943054,
      0.04636523500084877,
      0.15606267750263214,
      0.1905362606048584,
      0.2648228704929352,
      -0.21189221739768982,
      -1.0449047088623047,
      -0.2554732859134674,
      0.19561325013637543,
      -0.04487251490354538,
      -0.5904349088668823,
      0.06818699836730957,
      -0.012195689603686333,
      -0.1324462741613388,
      -0.602035403251648,
      -0.1367134153842926,
      -0.3406135141849518,
      -0.13151000440120697,
      -0.9799810647964478,
      0.04240327328443527
    ],
    [
      0.0954490453004837,
      0.0632893443107605,
      0.007333734538406134,
      -0.2480453997850418,
      -3.2766273021698,
      0.1343218833208084,
      -0.005328942555934191,
      0.16402305662631989,
      -0.03236730769276619,
      0.10291518270969391,
      -0.9995594024658203,
      0.1185535341501236,
      -2.3523175716400146,
      -1.72989022731781,
      -0.15322893857955933,
      -0.2952899932861328,
      -0.06491417437791824,
      -0.0204023327678442,
      -0.04631383344531059,
      0.0960836187005043,
      -0.3481048345565796,
      0.006156203802675009,
      -0.019370250403881073,
      -1.2288014888763428,
      -2.8749983310699463,
      -0.023599419742822647,
      -0.057500209659338,
      -0.00186842679977417,
      0.04153471812605858,
      -0.003759917803108692,
      -0.02765321545302868,
      -1.613192081451416
    ],
    [
      -0.05273226276040077,
      -0.14628250896930695,
      -0.0359937809407711,
      -0.7477523684501648,
      0.22656509280204773,
      -0.22965815663337708,
      -0.030768556520342827,
      -0.17083267867565155,
      -0.7178731560707092,
      -0.009014323353767395,
      -0.6667732000350952,
      0.00016802549362182617,
      -0.3787839114665985,
      0.6878411769866943,
      -0.6682475805282593,
      -0.8304322957992554,
      -1.0057376623153687,
      -0.015166160650551319,
      -0.15563882887363434,
      -0.16042615473270416,
      -1.186364769935608,
      -0.018520204350352287,
      -0.04056716710329056,
      -0.6573802828788757,
      -0.0842556431889534,
      -0.017372380942106247,
      0.5971921682357788,
      0.081264927983284,
      -0.17181822657585144,
      -0.026293952018022537,
      -0.18594756722450256,
      0.46716150641441345
    ],
    [
      -0.020300505682826042,
      -0.2299564629793167,
      -0.2156369388103485,
      0.08220008760690689,
      0.020610084757208824,
      -0.20687703788280487,
      -0.17169474065303802,
      0.12241749465465546,
      0.1454579085111618,
      -0.059095799922943115,
      0.07915481179952621,
      -0.0954040065407753,
      0.05630903318524361,
      -0.004389679990708828,
      0.15014037489891052,
      0.17140012979507446,
      0.3303329348564148,
      -0.23085670173168182,
      -1.139164924621582,
      -0.12818372249603271,
      0.1752171814441681,
      -0.07529312372207642,
      -0.8535711765289307,
      0.06844547390937805,
      -0.017253605648875237,
      -0.16545799374580383,
      -1.4215271472930908,
      -0.10594301670789719,
      -0.3117043375968933,
      -0.16380304098129272,
      -1.0652295351028442,
      0.027168627828359604
    ],
    [
      0.11789777129888535,
      -0.6087585091590881,
      0.11840330809354782,
      -0.127455934882164,
      -0.0166825782507658,
      -0.5844754576683044,
      0.28276708722114563,
      -0.029219791293144226,
      -0.14489133656024933,
      -0.14288902282714844,
      -0.04665510356426239,
      -0.14328765869140625,
      -0.019202733412384987,
      -0.025913113728165627,
      -0.11929494142532349,
      -0.09935281425714493,
      -0.22398418188095093,
      -0.008161029778420925,
      -0.8715987801551819,
      -0.549767792224884,
      -0.11641119420528412,
      0.21485082805156708,
      -0.11359699070453644,
      -0.0327841192483902,
      0.4457377791404724,
      0.24159395694732666,
      -0.07666412740945816,
      -0.16182459890842438,
      -0.89740389585495,
      0.23502658307552338,
      -0.7675385475158691,
      -0.02913075126707554
    ],
    [
      -0.10263818502426147,
      0.09307445585727692,
      -0.005871322005987167,
      -0.10857048630714417,
      -0.18170984089374542,
      0.2174680083990097,
      -0.009175488725304604,
      -0.052756451070308685,
      -0.2329956442117691,
      -0.005857288837432861,
      -2.7444961071014404,
      0.11066199839115143,
      -0.6458513140678406,
      -0.15551261603832245,
      -0.16656659543514252,
      -1.355879306793213,
      -0.4942968189716339,
      0.07937616109848022,
      0.15236277878284454,
      0.16552655398845673,
      -1.0516164302825928,
      -0.002477450529113412,
      0.032737378031015396,
      -1.3301256895065308,
      -0.1366998851299286,
      -0.010050793178379536,
      0.008281879127025604,
      0.016598433256149292,
      0.2691844403743744,
      -0.020690519362688065,
      0.19366230070590973,
      -0.1545785665512085
    ],
    [
      -0.039651453495025635,
      0.1175263524055481,
      -0.009692353196442127,
      -0.2645702362060547,
      -0.6757941842079163,
      0.11890380084514618,
      -0.0002261913614347577,
      -0.1526997983455658,
      -0.10971982777118683,
      -0.17519725859165192,
      -2.076462507247925,
      -0.17179840803146362,
      -4.443079471588135,
      -0.4809550344944,
      -0.19981834292411804,
      -0.5103734731674194,
      -0.3315477669239044,
      0.03470383584499359,
      0.018364816904067993,
      0.10033375769853592,
      -0.38726210594177246,
      0.01960994116961956,
      0.003460792126134038,
      -3.6754231452941895,
      -1.1974458694458008,
      -0.011332539841532707,
      -0.05115145072340965,
      0.06204831600189209,
      0.0977383479475975,
      -0.0017110856715589762,
      0.12239599972963333,
      -0.46542882919311523
    ],
    [
      0.03413397818803787,
      -0.19709618389606476,
      -0.2713764011859894,
      0.2727462649345398,
      0.017346825450658798,
      0.0341804213821888,
      -0.20568981766700745,
      -0.14033831655979156,
      0.05959263816475868,
      0.07880173623561859,
      0.06098669767379761,
      0.0533132404088974,
      0.050351742655038834,
      0.0530267097055912,
      0.2689516246318817,
      0.10944001376628876,
      0.39502468705177307,
      -0.3647277057170868,
      -0.37962380051612854,
      -0.24560032784938812,
      0.1511901319026947,
      -0.08791846036911011,
      -1.792214035987854,
      0.06441131234169006,
      -0.0032379089388996363,
      -0.15566132962703705,
      -2.793316602706909,
      -0.00487227737903595,
      -0.3664904534816742,
      -0.16907469928264618,
      -0.6218980550765991,
      0.07353188842535019
    ],
    [
      0.0027344757691025734,
      -0.1457359343767166,
      -0.1999145895242691,
      0.1837540715932846,
      0.04273946210741997,
      -0.01810629852116108,
      -0.196401447057724,
      -0.1526804268360138,
      0.22375772893428802,
      0.04198656976222992,
      0.051414091140031815,
      0.13387976586818695,
      0.022266810759902,
      0.012665178626775742,
      0.1622488647699356,
      0.14250124990940094,
      0.1418699324131012,
      -0.23050576448440552,
      -0.8602821826934814,
      -0.19537988305091858,
      0.07283323258161545,
      -0.13444028794765472,
      -0.9917651414871216,
      0.0642857775092125,
      -0.026150323450565338,
      -0.16864147782325745,
      -2.3302488327026367,
      -0.05623858422040939,
      -0.21850866079330444,
      -0.22219745814800262,
      -0.8141999840736389,
      0.00639389967545867
    ],
    [
      -0.028205813840031624,
      -0.15993665158748627,
      -0.11381040513515472,
      0.13511428236961365,
      0.06437237560749054,
      -0.0710025206208229,
      -0.06040365248918533,
      0.0892258733510971,
      0.19208379089832306,
      -0.09178774058818817,
      0.10897794365882874,
      -0.07373452186584473,
      0.06736206263303757,
      0.030793998390436172,
      0.10220519453287125,
      0.17585286498069763,
      0.1735398918390274,
      -0.22883664071559906,
      -1.0738704204559326,
      -0.30125319957733154,
      0.24883998930454254,
      -0.05426286160945892,
      -0.4892481863498688,
      0.10854779928922653,
      -0.0009198267944157124,
      -0.08461333811283112,
      -0.4955271780490875,
      -0.14768248796463013,
      -0.3509789705276489,
      -0.05407242849469185,
      -1.107513427734375,
      0.05319579690694809
    ],
    [
      0.036877501755952835,
      0.1388421356678009,
      0.034244354814291,
      0.03300277143716812,
      -0.7511771321296692,
      0.0763867124915123,
      0.04021477699279785,
      0.05035117268562317,
      0.040236782282590866,
      -0.07162000983953476,
      -1.4434529542922974,
      0.01635226607322693,
      -4.281094551086426,
      -0.5271741151809692,
      -0.11293533444404602,
      -0.3533647954463959,
      0.0559469610452652,
      0.01607801392674446,
      0.05856701359152794,
      0.08982446044683456,
      -0.3265773355960846,
      0.026642192155122757,
      -0.01481339056044817,
      -2.942169666290283,
      -1.7446850538253784,
      0.005104725249111652,
      -0.055934399366378784,
      0.09559600055217743,
      0.03695620223879814,
      0.05631925165653229,
      0.09408416599035263,
      -0.4458615183830261
    ],
    [
      0.12859845161437988,
      -0.2783121168613434,
      -0.0637575015425682,
      0.13252094388008118,
      0.024964291602373123,
      -0.5006002187728882,
      -0.09050890803337097,
      0.0050040483474731445,
      0.1254231482744217,
      0.004045650362968445,
      0.09243110567331314,
      -0.09596896171569824,
      0.04541803151369095,
      0.012803863734006882,
      0.23789837956428528,
      0.1642364263534546,
      0.4018976092338562,
      -0.33744871616363525,
      -1.5426726341247559,
      -0.4207038879394531,
      0.2303566038608551,
      -0.05094148963689804,
      -0.3882834017276764,
      0.12098561227321625,
      -0.002625655848532915,
      -0.07226657122373581,
      -0.3571300208568573,
      -0.16749079525470734,
      -0.38834211230278015,
      -0.09373271465301514,
      -1.4950942993164062,
      0.02864767238497734
    ],
    [
      0.07648548483848572,
      0.07862042635679245,
      0.017837028950452805,
      -0.45897379517555237,
      -0.07442320138216019,
      0.20116275548934937,
      0.004903647117316723,
      -0.05397447198629379,
      -0.536535918712616,
      -0.07770631462335587,
      -0.21143773198127747,
      0.09628646075725555,
      -0.09318508207798004,
      -0.11348448693752289,
      -0.6380836367607117,
      -2.4072415828704834,
      -0.587017297744751,
      -3.241365909576416,
      0.14457900822162628,
      0.08305218815803528,
      -2.6323671340942383,
      0.024578779935836792,
      -0.020306363701820374,
      -0.09882239997386932,
      -0.05094948783516884,
      0.01576770469546318,
      -0.06036903336644173,
      0.035097405314445496,
      0.09994582086801529,
      0.02090505324304104,
      0.09070756286382675,
      -0.045399341732263565
    ],
    [
      0.08097697049379349,
      -0.25593551993370056,
      -0.12073502689599991,
      0.20966944098472595,
      0.04222936928272247,
      -0.4419015347957611,
      -0.05779285728931427,
      0.15863876044750214,
      0.20328524708747864,
      -0.07104439288377762,
      0.06373561918735504,
      -0.03755812346935272,
      0.11487419903278351,
      0.0677933394908905,
      0.18015412986278534,
      0.15633158385753632,
      0.2961651384830475,
      -0.2495618313550949,
      -1.127698540687561,
      -0.3736953139305115,
      0.19582419097423553,
      -0.044553253799676895,
      -0.5476710796356201,
      0.055497169494628906,
      -0.008512704633176327,
      -0.1073511615395546,
      -0.5093938112258911,
      -0.16187737882137299,
      -0.21533289551734924,
      -0.1390661746263504,
      -1.2148025035858154,
      0.01728459820151329
    ],
    [
      -0.09470577538013458,
      0.18292967975139618,
      0.04233322665095329,
      -0.1438310742378235,
      -0.12591449916362762,
      0.21259698271751404,
      0.05163310468196869,
      -0.1669984757900238,
      -0.15094992518424988,
      0.10010184347629547,
      -1.462565302848816,
      -0.07652605324983597,
      -0.4087248146533966,
      -0.09525296837091446,
      -0.3208125829696655,
      -1.5459331274032593,
      -0.421180784702301,
      0.1269170045852661,
      0.20432676374912262,
      0.0941624566912651,
      -1.1635890007019043,
      -0.01690387725830078,
      0.07514908909797668,
      -0.8167069554328918,
      -0.1258985549211502,
      -0.030322032049298286,
      -0.007047329563647509,
      0.07292789220809937,
      0.1549782007932663,
      0.002710691187530756,
      0.2088155448436737,
      -0.07791705429553986
    ],
    [
      -0.16708163917064667,
      0.1993878036737442,
      0.046653568744659424,
      -0.2258608192205429,
      -0.14755859971046448,
      0.22221428155899048,
      0.053796831518411636,
      -0.030049294233322144,
      -0.17435097694396973,
      -0.011931896209716797,
      -3.1365556716918945,
      -0.01244404911994934,
      -0.6205136179924011,
      -0.16796253621578217,
      -0.10583221912384033,
      -1.4434921741485596,
      -0.2462085634469986,
      0.10284224152565002,
      0.23141750693321228,
      0.11295519024133682,
      -0.8189499378204346,
      0.018817083910107613,
      0.05594620108604431,
      -1.3200299739837646,
      -0.16858837008476257,
      0.046366218477487564,
      0.013483111746609211,
      0.14446716010570526,
      0.03538291156291962,
      0.0020415603648871183,
      0.18308766186237335,
      -0.13027475774288177
    ],
    [
      0.10244995355606079,
      -0.0612909197807312,
      -0.13212811946868896,
      0.16219204664230347,
      0.03327980637550354,
      -0.10605228692293167,
      -0.05045019090175629,
      0.1124393492937088,
      0.1443992406129837,
      0.019810006022453308,
      0.08885996043682098,
      -0.015754535794258118,
      0.0789589136838913,
      0.02485286071896553,
      0.19097720086574554,
      0.16724884510040283,
      0.27528709173202515,
      -0.21808187663555145,
      -0.9496147036552429,
      -0.25681668519973755,
      0.09160809963941574,
      -0.07406672835350037,
      -0.6091214418411255,
      0.07607188820838928,
      -0.006010724231600761,
      -0.10584831982851028,
      -0.7900142669677734,
      -0.05584832280874252,
      -0.28295445442199707,
      -0.10252980887889862,
      -0.9646943807601929,
      0.0500345453619957
    ],
    [
      0.0005467812297865748,
      0.1105768084526062,
      0.0017144919838756323,
      -0.1946113407611847,
      -0.3286266028881073,
      0.19103142619132996,
      0.029223212972283363,
      0.030338123440742493,
      0.061535079032182693,
      0.11202089488506317,
      -3.5630927085876465,
      -0.0018396824598312378,
      -1.3945220708847046,
      -0.24082882702350616,
      -0.12169539928436279,
      -0.8710972666740417,
      -0.1782206892967224,
      0.061778612434864044,
      0.10031931847333908,
      0.08251793682575226,
      -0.7687497138977051,
      -0.0003814786905422807,
      -0.018739430233836174,
      -4.719324588775635,
      -0.3935437798500061,
      -0.00929900910705328,
      -0.02041880413889885,
      0.0208570659160614,
      0.2696734368801117,
      -0.023540368303656578,
      0.15324226021766663,
      -0.20360763370990753
    ],
    [
      0.04324684664607048,
      -0.17621566355228424,
      -0.2813054025173187,
      0.07323111593723297,
      0.029501335695385933,
      -0.31972911953926086,
      -0.24083273112773895,
      -0.16454249620437622,
      0.20265990495681763,
      -0.02397911250591278,
      0.059281766414642334,
      0.15606258809566498,
      0.03851144760847092,
      0.025352327153086662,
      0.13034582138061523,
      0.10193152725696564,
      0.21304655075073242,
      -0.4251331090927124,
      -0.6885983347892761,
      -0.18587401509284973,
      0.09739845246076584,
      -0.17598208785057068,
      -2.13822340965271,
      0.014871310442686081,
      -0.005890378262847662,
      -0.23808851838111877,
      -2.8156347274780273,
      0.1331544667482376,
      -0.2886546552181244,
      -0.2538129687309265,
      -0.7872207760810852,
      0.004460737109184265
    ],
    [
      -0.11221753805875778,
      0.13224582374095917,
      0.03828497231006622,
      -0.21350066363811493,
      -0.11597992479801178,
      0.2776819169521332,
      0.014206316322088242,
      0.14646916091442108,
      -0.22522751986980438,
      0.14946310222148895,
      -1.1434742212295532,
      0.13286800682544708,
      -0.34317806363105774,
      -0.13747169077396393,
      -0.09214234352111816,
      -1.349599003791809,
      -0.3233530521392822,
      0.12772972881793976,
      0.19012907147407532,
      0.1434781402349472,
      -1.158691644668579,
      0.011092654429376125,
      0.09885365515947342,
      -0.5743399858474731,
      -0.13648656010627747,
      -0.018833721056580544,
      -0.009363159537315369,
      0.14731289446353912,
      0.15312352776527405,
      0.023779915645718575,
      0.2282974272966385,
      -0.08941054344177246
    ],
    [
      -0.05920005962252617,
      0.2101515382528305,
      0.021871423348784447,
      -0.27095314860343933,
      -0.09192124754190445,
      0.17693547904491425,
      0.03756730630993843,
      -0.009719759225845337,
      -0.3083204925060272,
      0.15021704137325287,
      -1.4593439102172852,
      -0.08044400066137314,
      -0.3495309054851532,
      -0.10763166844844818,
      -0.12931853532791138,
      -1.4156603813171387,
      -0.37831196188926697,
      0.10918693244457245,
      0.2275339961051941,
      0.03878183662891388,
      -1.260831356048584,
      -0.012874423526227474,
      0.1275661140680313,
      -0.7135000228881836,
      -0.1268438994884491,
      0.040666673332452774,
      0.013724109157919884,
      0.14414812624454498,
      0.22699984908103943,
      0.03325219452381134,
      0.274600088596344,
      -0.041491780430078506
    ],
    [
      0.14330396056175232,
      0.11290755867958069,
      0.06657617539167404,
      -0.23217874765396118,
      -0.13299545645713806,
      0.24703525006771088,
      -0.010243041440844536,
      -0.08395253866910934,
      -0.18015968799591064,
      -0.10178297013044357,
      -1.445480227470398,
      -0.026404976844787598,
      -0.381070613861084,
      -0.1302379071712494,
      -0.2253243774175644,
      -1.1708271503448486,
      -0.09191497415304184,
      0.12625139951705933,
      0.2184779793024063,
      0.08665139973163605,
      -0.9174111485481262,
      0.043337639421224594,
      0.04282613843679428,
      -0.6796033382415771,
      -0.1090761199593544,
      0.04391719400882721,
      0.029712023213505745,
      0.0008149296045303345,
      0.15573161840438843,
      0.055878132581710815,
      0.18927161395549774,
      -0.08413461595773697
    ],
    [
      -0.10550388693809509,
      -0.06874928623437881,
      -0.3486705422401428,
      0.11747025698423386,
      0.014437070116400719,
      0.03583336994051933,
      -0.1737525910139084,
      -0.02110666036605835,
      0.18220748007297516,
      0.13360382616519928,
      0.005244731437414885,
      0.05191606283187866,
      0.015127182938158512,
      0.01189125794917345,
      0.0758126825094223,
      0.0880860760807991,
      0.2088518738746643,
      -0.4960537254810333,
      -0.5590355396270752,
      -0.13148514926433563,
      0.020396865904331207,
      -0.14286449551582336,
      -4.35778284072876,
      0.004398236982524395,
      -0.03126903995871544,
      -0.21333977580070496,
      -2.601541757583618,
      0.019905224442481995,
      -0.3195078372955322,
      -0.24628055095672607,
      -0.7224489450454712,
      0.026481805369257927
    ]
  ],
  "fc2.bias": [
    0.3861931264400482,
    0.30405086278915405,
    0.4828677177429199,
    0.5012419819831848,
    0.4545748829841614,
    0.5574325919151306,
    0.4256203770637512,
    0.42215481400489807,
    0.2825702130794525,
    0.37860187888145447,
    0.4070996642112732,
    -0.6140244007110596,
    0.3975563645362854,
    -0.6479917764663696,
    0.43050429224967957,
    0.4360731542110443,
    0.40235230326652527,
    0.40324655175209045,
    0.29411759972572327,
    0.39591583609580994,
    0.3613280951976776,
    0.34186476469039917,
    0.3628338873386383,
    0.3623981177806854,
    0.32931190729141235,
    0.29606521129608154,
    0.4361194968223572,
    0.4305732250213623,
    0.29466119408607483,
    0.34041133522987366,
    0.29243898391723633,
    0.38717737793922424
  ],
  "fc3.weight": [
    [
      0.10951236635446548,
      0.1071094498038292,
      -0.11473154276609421,
      -0.23694437742233276,
      -0.34256890416145325,
      -0.1656518429517746,
      -0.12424665689468384,
      0.1575240194797516,
      0.08676736056804657,
      -0.08966024965047836,
      0.25108402967453003,
      0.9174265265464783,
      -0.11201810091733932,
      -1.0278325080871582,
      0.09652945399284363,
      0.14406272768974304,
      -0.09360796213150024,
      -0.10882371664047241,
      -0.0901002287864685,
      0.1471070647239685,
      -0.08783154934644699,
      0.21701966226100922,
      -0.08645565062761307,
      0.09364454448223114,
      0.09822597354650497,
      -0.09445035457611084,
      0.12509237229824066,
      -0.12662577629089355,
      0.09506594389677048,
      0.08989808708429337,
      0.09086436033248901,
      -0.13320615887641907
    ]
  ],
  "fc3.bias": [
    0.017135199159383774
  ]
}