{
  "fc1.weight": [
    [
      -1.2249748706817627
    ],
    [
      -0.6516894102096558
    ],
    [
      0.24058955907821655
    ],
    [
      -0.21893702447414398
    ],
    [
      0.7333500385284424
    ],
    [
      0.7519650459289551
    ],
    [
      -0.2510695457458496
    ],
    [
      -0.336677223443985
    ],
    [
      -0.08871233463287354
    ],
    [
      0.3134361505508423
    ],
    [
      0.2139683961868286
    ],
    [
      0.39169296622276306
    ],
    [
      -0.7838051319122314
    ],
    [
      -0.03631412982940674
    ],
    [
      -1.033656120300293
    ],
    [
      -0.24633102118968964
    ],
    [
      -0.004164576530456543
    ],
    [
      0.3210126757621765
    ],
    [
      -0.32036152482032776
    ],
    [
      -0.3869173526763916
    ],
    [
      -0.34913989901542664
    ],
    [
      -0.07245171070098877
    ],
    [
      0.2289431393146515
    ],
    [
      0.22913908958435059
    ],
    [
      0.07861900329589844
    ],
    [
      -0.371221661567688
    ],
    [
      0.22420787811279297
    ],
    [
      -0.23926757276058197
    ],
    [
      0.2733902931213379
    ],
    [
      -0.9851632118225098
    ],
    [
      0.7494897246360779
    ],
    [
      -0.36531203985214233
    ]
  ],
  "fc1.bias": [
    0.7255811095237732,
    -0.4848997890949249,
    0.10406472533941269,
    0.26617664098739624,
    -0.7952336668968201,
    0.17637941241264343,
    -0.6698229312896729,
    0.29501259326934814,
    -0.9876580238342285,
    -0.033329300582408905,
    0.14977283775806427,
    -0.3932044506072998,
    -0.6069477200508118,
    -0.4549686908721924,
    -0.2641664743423462,
    0.2863380014896393,
    -0.06350231170654297,
    0.01253878977149725,
    0.23339205980300903,
    -0.21498514711856842,
    0.14045104384422302,
    -0.8915621042251587,
    0.12892404198646545,
    -0.6946581602096558,
    -0.9673229455947876,
    -0.7387446165084839,
    -0.7823649644851685,
    0.2433275431394577,
    -0.7407134771347046,
    0.31029224395751953,
    -0.9302171468734741,
    -0.19680877029895782
  ],
  "fc2.weight": [
    [
      0.011400427669286728,
      0.1493939906358719,
      -0.47451794147491455,
      0.013568669557571411,
      -0.8248763084411621,
      -0.27208584547042847,
      0.08024899661540985,
      0.07754196226596832,
      0.12580712139606476,
      -5.7231550216674805,
      -0.3101723790168762,
      -0.9924505949020386,
      0.14998841285705566,
      0.045503318309783936,
      0.062274351716041565,
      -0.004374134354293346,
      0.011254370212554932,
      -1.9639450311660767,
      0.06189481541514397,
      0.30715736746788025,
      0.08087386935949326,
      -0.043113887310028076,
      -0.40045419335365295,
      0.11189506947994232,
      -0.15587323904037476,
      -0.1717865914106369,
      0.05468630790710449,
      0.04391329362988472,
      0.054716870188713074,
      0.016126180067658424,
      -0.4338560700416565,
      0.244977205991745
    ],
    [
      -2.684964179992676,
      -0.1768699288368225,
      0.015912428498268127,
      -0.5208423733711243,
      0.1341719925403595,
      -0.03653357923030853,
      -0.1239551231265068,
      -1.064324975013733,
      -0.08067435771226883,
      -0.022396231070160866,
      -0.017206843942403793,
      0.059438955038785934,
      -0.06873467564582825,
      -0.1619759351015091,
      -0.220914825797081,
      -0.5095804333686829,
      0.029148533940315247,
      0.0032408307306468487,
      -3.6920650005340576,
      -0.20783866941928864,
      -1.9599123001098633,
      -0.09623328596353531,
      0.006866177543997765,
      -0.1393577754497528,
      -0.10161533206701279,
      0.00033673644065856934,
      -0.13483788073062897,
      -0.6887995004653931,
      0.07028840482234955,
      -0.7355702519416809,
      0.1852516084909439,
      -0.10394749045372009
    ],
    [
      0.0017795547610148787,
      0.138929083943367,
      -3.164147138595581,
      0.0505773089826107,
      -0.22924725711345673,
      -4.000100612640381,
      0.15001888573169708,
      0.042187198996543884,
      0.08812321722507477,
      -1.6884139776229858,
      -1.41812002658844,
      -0.5123950839042664,
      0.12156650424003601,
      -0.09122573584318161,
      -0.010828828439116478,
      0.02763877809047699,
      -0.12575207650661469,
      -2.9336838722229004,
      0.02996198832988739,
      0.13601316511631012,
      0.03547153249382973,
      -0.0681973323225975,
      -1.7114287614822388,
      0.006429016590118408,
      -0.08121819794178009,
      -0.09947187453508377,
      0.14894594252109528,
      0.02616424858570099,
      0.13862396776676178,
      -0.03080299124121666,
      -0.3289671242237091,
      0.13956278562545776
    ],
    [
      0.02418561838567257,
      0.14489911496639252,
      -0.2968224585056305,
      0.07976405322551727,
      -0.5049083828926086,
      -0.1657237410545349,
      -0.03676198422908783,
      0.04528503492474556,
      0.17292623221874237,
      -3.841073989868164,
      -0.21016916632652283,
      -0.7679088711738586,
      0.23946109414100647,
      0.1512347012758255,
      0.01349530927836895,
      0.02414022386074066,
      -0.15498489141464233,
      -1.1727399826049805,
      0.041243165731430054,
      0.21845632791519165,
      0.15145137906074524,
      -0.08606567233800888,
      -0.2662985324859619,
      -0.007815271615982056,
      -0.1509856879711151,
      -0.07629342377185822,
      0.04441772401332855,
      0.04465462267398834,
      -0.09307444095611572,
      0.003919882699847221,
      -0.34267058968544006,
      0.3413122892379761
    ],
    [
      -0.16494421660900116,
      -0.24451583623886108,
      0.06536568701267242,
      -0.21570207178592682,
      0.16984295845031738,
      -0.03844410926103592,
      -0.06935105472803116,
      -0.27021804451942444,
      0.15998996794223785,
      0.12691979110240936,
      0.014293504878878593,
      0.3716030716896057,
      -0.2662809491157532,
      -0.15000776946544647,
      -1.3716497421264648,
      -0.19408538937568665,
      0.15726257860660553,
      0.07504525780677795,
      -0.34367936849594116,
      -0.48512694239616394,
      -1.5929120779037476,
      -0.06448984146118164,
      0.07423238456249237,
      -0.050571978092193604,
      -0.1503872573375702,
      0.11302091181278229,
      0.006489410996437073,
      -0.2603397071361542,
      0.16703437268733978,
      -4.104135036468506,
      0.35679522156715393,
      -0.682532787322998
    ],
    [
      -1.415152668952942,
      -0.196426123380661,
      0.009624759666621685,
      -0.3749167025089264,
      0.18493442237377167,
      -0.03650347515940666,
      0.01543678343296051,
      -0.4093133211135864,
      -0.040180549025535583,
      -0.00328155723400414,
      -0.03306325897574425,
      0.20788359642028809,
      -0.07530733197927475,
      0.1525869220495224,
      -0.6128476858139038,
      -0.34700530767440796,
      0.10662488639354706,
      0.00317823002114892,
      -0.9786850810050964,
      -0.28367218375205994,
      -4.2068986892700195,
      0.12111799418926239,
      -0.02713962085545063,
      0.15402670204639435,
      -0.13320809602737427,
      0.0010782182216644287,
      0.139302060008049,
      -0.3777088522911072,
      -0.022995874285697937,
      -1.709289312362671,
      0.23071496188640594,
      -0.5624350309371948
    ],
    [
      0.03313979133963585,
      0.13654424250125885,
      -0.3990156352519989,
      0.0500456802546978,
      -0.662401020526886,
      -0.24043212831020355,
      -0.08816239982843399,
      0.03405200317502022,
      0.1676599234342575,
      -4.608438014984131,
      -0.2899453341960907,
      -0.8617802262306213,
      0.24847687780857086,
      -0.10192523896694183,
      0.02952800691127777,
      0.049715589731931686,
      0.11374793946743011,
      -1.4796220064163208,
      0.06729556620121002,
      0.27543213963508606,
      0.11016231775283813,
      -0.019391536712646484,
      -0.3517111539840698,
      0.050282955169677734,
      0.01435677707195282,
      -0.10961269587278366,
      -0.11756272614002228,
      0.05674343556165695,
      -0.13874095678329468,
      0.02448110096156597,
      -0.3955904543399811,
      0.21728986501693726
    ],
    [
      -0.14686544239521027,
      -0.46515387296676636,
      0.06582198292016983,
      -0.19649527966976166,
      0.3588835895061493,
      -0.042655911296606064,
      0.15050972998142242,
      -0.2348717749118805,
      -0.12134084105491638,
      0.12797114253044128,
      0.031332891434431076,
      0.4266275465488434,
      -0.36711177229881287,
      -0.16419324278831482,
      -1.582865834236145,
      -0.19496645033359528,
      0.1426803320646286,
      0.06966187804937363,
      -0.24786069989204407,
      -0.6408947706222534,
      -1.1444787979125977,
      -0.08725672215223312,
      0.04270077869296074,
      0.02015264332294464,
      0.11819542944431305,
      -0.09811706095933914,
      -0.004628360271453857,
      -0.2556138336658478,
      -0.17219862341880798,
      -1.1698298454284668,
      0.27566689252853394,
      -0.861552894115448
    ],
    [
      0.018328385427594185,
      0.24191267788410187,
      -0.29684311151504517,
      0.05460287258028984,
      -0.6184566617012024,
      -0.17243488132953644,
      0.0029210150241851807,
      0.10522016882896423,
      -0.1178513765335083,
      -2.632631778717041,
      -0.1832284927368164,
      -0.8326217532157898,
      0.16154097020626068,
      0.1725742369890213,
      0.04696071892976761,
      0.0478178896009922,
      -0.022184208035469055,
      -0.9437469244003296,
      0.0835210457444191,
      0.2810663878917694,
      0.1212226152420044,
      0.017355605959892273,
      -0.25791501998901367,
      0.15066500008106232,
      0.10411052405834198,
      -0.018787503242492676,
      -0.023522555828094482,
      0.12222920358181,
      0.1451084166765213,
      0.029519762843847275,
      -0.29482513666152954,
      0.3290669620037079
    ],
    [
      0.021957561373710632,
      0.25868332386016846,
      -0.21644581854343414,
      0.07164520770311356,
      -0.5183401703834534,
      -0.12018231302499771,
      -0.16119349002838135,
      0.13273820281028748,
      0.064329132437706,
      -2.098358631134033,
      -0.09773470461368561,
      -0.5184517502784729,
      0.1130814254283905,
      -0.004671350121498108,
      0.022961540147662163,
      0.11264580488204956,
      -0.057356759905815125,
      -0.798248827457428,
      0.11712630093097687,
      0.23725219070911407,
      0.20167233049869537,
      -0.0670371949672699,
      -0.13445183634757996,
      0.09487022459506989,
      0.04462030529975891,
      -0.12283997982740402,
      0.12645496428012848,
      0.04073268547654152,
      0.053171977400779724,
      0.011242865584790707,
      -0.12766699492931366,
      0.3040754795074463
    ],
    [
      0.0009223356028087437,
      0.14253737032413483,
      -1.1138582229614258,
      0.11034320294857025,
      -0.2072603851556778,
      -1.2387111186981201,
      -0.07101326435804367,
      0.04248172044754028,
      -0.06247933208942413,
      -3.136018991470337,
      -0.609495222568512,
      -0.29335612058639526,
      0.17684707045555115,
      0.10726098716259003,
      -0.005313102621585131,
      0.09058122336864471,
      0.01760876178741455,
      -6.077607154846191,
      0.05671113729476929,
      0.20384596288204193,
      0.08552642166614532,
      0.1291246861219406,
      -0.7360088229179382,
      -0.07821772247552872,
      0.12465186417102814,
      0.062448859214782715,
      -0.13770784437656403,
      0.0968056172132492,
      0.13047374784946442,
      -0.023034993559122086,
      -0.31106993556022644,
      0.24257704615592957
    ],
    [
      -0.131711944937706,
      -0.3697853982448578,
      0.07615894824266434,
      -0.11872454732656479,
      0.26180821657180786,
      -0.03233528882265091,
      -0.044149309396743774,
      -0.17014136910438538,
      0.01453147828578949,
      0.13414406776428223,
      0.08536053448915482,
      0.4998239576816559,
      -0.1982233077287674,
      0.02482101321220398,
      -1.1549201011657715,
      -0.1111852377653122,
      0.13524757325649261,
      0.12875188887119293,
      -0.18637944757938385,
      -0.5522358417510986,
      -0.7568697333335876,
      0.001526162028312683,
      0.09236568957567215,
      -0.12850314378738403,
      -0.09649147838354111,
      0.09196065366268158,
      0.04279009997844696,
      -0.1706695258617401,
      -0.019026190042495728,
      -0.6034436225891113,
      0.25264954566955566,
      -0.31900399923324585
    ],
    [
      0.024406980723142624,
      0.10945433378219604,
      -0.24499478936195374,
      0.09690660238265991,
      -0.35075026750564575,
      -0.1641302853822708,
      0.15949280560016632,
      0.10352746397256851,
      -0.05497109889984131,
      -2.463200807571411,
      -0.121526800096035,
      -0.687079668045044,
      0.13784264028072357,
      0.059138014912605286,
      0.03334905952215195,
      0.08400863409042358,
      0.0650138109922409,
      -0.9198551177978516,
      0.06739339977502823,
      0.3471686840057373,
      0.12041139602661133,
      0.11480419337749481,
      -0.19677823781967163,
      -0.1064843088388443,
      0.042058274149894714,
      -0.030794262886047363,
      0.1427011638879776,
      0.1275808960199356,
      0.05602565407752991,
      0.028982367366552353,
      -0.22050192952156067,
      0.3485383987426758
    ],
    [
      0.0026764175854623318,
      0.12809357047080994,
      -0.5007580518722534,
      0.06618689745664597,
      -0.7006323933601379,
      -0.33226117491722107,
      0.13576050102710724,
      0.053465183824300766,
      0.1669483631849289,
      -6.140119552612305,
      -0.3009454309940338,
      -1.1636526584625244,
      0.19672730565071106,
      0.039247602224349976,
      0.024015327915549278,
      0.07008866220712662,
      -0.15556201338768005,
      -2.2663707733154297,
      0.049004558473825455,
      0.3696468770503998,
      0.06934750825166702,
      0.025796175003051758,
      -0.37723103165626526,
      0.11964671313762665,
      -0.046899452805519104,
      0.10075964033603668,
      -0.05068512260913849,
      0.04265765845775604,
      -0.1503327190876007,
      0.011447343975305557,
      -0.34876903891563416,
      0.19720454514026642
    ],
    [
      0.43659472465515137,
      -0.07517614960670471,
      0.21814775466918945,
      -0.06929139792919159,
      -0.8736031651496887,
      0.024129988625645638,
      0.05220921337604523,
      -0.08139011263847351,
      0.04984351992607117,
      -0.3111284673213959,
      0.35695332288742065,
      -1.3568130731582642,
      -0.12275166809558868,
      0.02914385497570038,
      -0.10343840718269348,
      -0.05752244219183922,
      -0.007551908493041992,
      -0.17323489487171173,
      -0.07099702209234238,
      -0.14687608182430267,
      -0.09942071884870529,
      0.11930243670940399,
      0.34976038336753845,
      0.1383463591337204,
      -0.06327816098928452,
      0.012251853942871094,
      0.1282096654176712,
      -0.06736278533935547,
      0.005250036716461182,
      -0.03824485465884209,
      -0.7420641183853149,
      -0.17244777083396912
    ],
    [
      -0.032899338752031326,
      -0.20336465537548065,
      -0.11357694119215012,
      -0.06378436833620071,
      -0.33387234807014465,
      -0.4624944031238556,
      0.01434318721294403,
      -0.07656014710664749,
      -0.14136958122253418,
      -0.588257908821106,
      0.1340952068567276,
      -0.7348986864089966,
      -0.19112615287303925,
      -0.024992674589157104,
      0.7210662364959717,
      -0.062405817210674286,
      0.011341795325279236,
      -0.6418605446815491,
      -0.06370995938777924,
      -0.3429206311702728,
      -0.08920418471097946,
      -0.015643224120140076,
      -0.06517625600099564,
      -0.06658795475959778,
      -0.14744648337364197,
      0.020855173468589783,
      0.028535649180412292,
      -0.057715434581041336,
      -0.08471345901489258,
      -0.03595827519893646,
      -0.42787376046180725,
      -0.3045697510242462
    ],
    [
      0.050078921020030975,
      0.026441402733325958,
      -0.2684263288974762,
      0.12530753016471863,
      -0.7019479870796204,
      -0.1580788940191269,
      -0.029630020260810852,
      0.00955419521778822,
      0.17579583823680878,
      -2.380091428756714,
      -0.11907129734754562,
      -0.7829141616821289,
      0.20954731106758118,
      -0.014940932393074036,
      0.1426130086183548,
      0.08695295453071594,
      -0.014810711145401001,
      -0.9065999388694763,
      0.17815494537353516,
      0.26918455958366394,
      0.19900506734848022,
      -0.1624399721622467,
      -0.16344191133975983,
      -0.12172681838274002,
      0.14628921449184418,
      -0.05218272656202316,
      -0.04987227916717529,
      0.13757160305976868,
      0.10396610200405121,
      0.0033511966466903687,
      -0.3736658990383148,
      0.382003515958786
    ],
    [
      -2.2019662857055664,
      -0.09419076144695282,
      -0.3921193480491638,
      0.03591375797986984,
      -1.0805538892745972,
      -0.16964854300022125,
      -0.006531327962875366,
      0.037409160286188126,
      0.1288500875234604,
      -0.687647819519043,
      -0.17454767227172852,
      -1.2402584552764893,
      0.25956660509109497,
      0.033174023032188416,
      0.08175867795944214,
      0.04552135989069939,
      0.11996997892856598,
      -0.5693351626396179,
      0.07422105967998505,
      -0.023775789886713028,
      0.02368156611919403,
      0.15415431559085846,
      -0.3096672594547272,
      -0.030475124716758728,
      0.040642306208610535,
      0.022956371307373047,
      0.1628023236989975,
      0.02236259914934635,
      -0.16427943110466003,
      -0.029588602483272552,
      -0.5807215571403503,
      0.009621139615774155
    ],
    [
      0.48756030201911926,
      -0.08549589663743973,
      0.21696850657463074,
      -0.06416471302509308,
      -0.8869473338127136,
      0.010579470545053482,
      0.1427016705274582,
      -0.045603398233652115,
      0.02628205716609955,
      -0.3871881067752838,
      0.4632026255130768,
      -1.3872606754302979,
      -0.16747894883155823,
      0.1415605992078781,
      -0.10791471600532532,
      -0.06296084076166153,
      0.15032027661800385,
      -0.25590357184410095,
      -0.10805928707122803,
      -0.20410458743572235,
      -0.10670099407434464,
      -0.07514955848455429,
      0.43702754378318787,
      0.10579158365726471,
      -0.04847551882266998,
      0.06822742521762848,
      0.09298200905323029,
      -0.057339008897542953,
      0.0014538615942001343,
      -0.047307319939136505,
      -0.8784821629524231,
      -0.21067388355731964
    ],
    [
      0.009377800859510899,
      0.12785416841506958,
      -0.6709068417549133,
      0.09697426855564117,
      -0.3847590684890747,
      -0.4853719174861908,
      -0.02950604259967804,
      0.06195169314742088,
      0.1527266949415207,
      -4.480493545532227,
      -0.366798996925354,
      -0.5689694881439209,
      0.21673952043056488,
      -0.043825119733810425,
      0.04324600473046303,
      0.04099380970001221,
      -0.07058025151491165,
      -4.786022186279297,
      0.0437418632209301,
      0.30624282360076904,
      0.04709496349096298,
      -0.0913102850317955,
      -0.5106788277626038,
      -0.02610786259174347,
      0.13787193596363068,
      -0.10316994041204453,
      -0.12218035757541656,
      0.02955782413482666,
      -0.005254849791526794,
      0.009642827324569225,
      -0.2560961842536926,
      0.24053917825222015
    ],
    [
      -0.016318557783961296,
      -0.1399734914302826,
      -0.05010131001472473,
      -0.06641657650470734,
      -0.7677406072616577,
      -0.04376685991883278,
      -0.14036615192890167,
      -0.053260933607816696,
      -0.10736831277608871,
      -0.29796555638313293,
      0.5190845131874084,
      -1.061570405960083,
      -0.11322878301143646,
      0.0740882009267807,
      -0.0646267831325531,
      -0.03929867967963219,
      0.010286569595336914,
      -0.2995603084564209,
      -0.05293196439743042,
      -0.22262774407863617,
      -0.06367609649896622,
      0.039409562945365906,
      0.37367889285087585,
      0.09870345890522003,
      -0.15930543839931488,
      0.06808753311634064,
      0.024079427123069763,
      -0.03969166800379753,
      -0.009281963109970093,
      0.5603057146072388,
      -0.709033727645874,
      -0.23633655905723572
    ],
    [
      0.0008189521031454206,
      0.053841885179281235,
      -2.111527442932129,
      0.06313896179199219,
      -0.3460110127925873,
      -3.953920602798462,
      -0.1176670640707016,
      0.03350750356912613,
      0.01273520290851593,
      -2.0638327598571777,
      -1.0369136333465576,
      -0.619620144367218,
      0.16957634687423706,
      0.08463843166828156,
      0.024684220552444458,
      0.049140434712171555,
      -0.1432647407054901,
      -3.8922929763793945,
      0.04759042337536812,
      0.2318391501903534,
      0.06380673497915268,
      0.0395502895116806,
      -1.2155104875564575,
      -0.15358422696590424,
      -0.1539272665977478,
      -0.1707296073436737,
      -0.1327410787343979,
      0.04621433839201927,
      0.1712118238210678,
      -0.02210724912583828,
      -0.17453497648239136,
      0.15538290143013
    ],
    [
      -0.7644108533859253,
      0.45552635192871094,
      -2.586782217025757,
      -0.06761055439710617,
      -0.6272062659263611,
      -2.101240396499634,
      -0.003997772932052612,
      -0.046576570719480515,
      0.13653908669948578,
      -1.548723816871643,
      -1.1245449781417847,
      -0.8742349743843079,
      -0.06028534471988678,
      -0.15452584624290466,
      -0.157755509018898,
      -0.0405716709792614,
      -0.13850101828575134,
      -1.5021023750305176,
      -0.062203843146562576,
      0.10682743042707443,
      -0.08334140479564667,
      -0.08240070939064026,
      -1.6079041957855225,
      0.10448233783245087,
      -0.17522646486759186,
      -0.12889233231544495,
      0.06289365887641907,
      -0.04814670607447624,
      0.02735517919063568,
      -0.06666423380374908,
      -0.5245121717453003,
      0.018583446741104126
    ],
    [
      -0.11473201960325241,
      -0.2166023552417755,
      0.0755847692489624,
      -0.09854938089847565,
      0.3327714502811432,
      0.006342873442918062,
      0.15393175184726715,
      -0.14050230383872986,
      0.13725249469280243,
      0.20323550701141357,
      0.07841772586107254,
      0.4815722107887268,
      -0.19625188410282135,
      0.12182264029979706,
      -1.179350733757019,
      -0.09266543388366699,
      0.10793612897396088,
      0.11949529498815536,
      -0.1730373501777649,
      -0.626318633556366,
      -0.7481995224952698,
      0.16699843108654022,
      0.09042138606309891,
      -0.13354496657848358,
      -0.11471988260746002,
      0.0973016768693924,
      0.12382559478282928,
      -0.1641334444284439,
      -0.05805523693561554,
      -0.6464334726333618,
      0.1897594928741455,
      -0.483690470457077
    ],
    [
      -0.28428012132644653,
      -0.17097710072994232,
      -0.011010963469743729,
      -0.22603078186511993,
      0.1963673084974289,
      -0.032679829746484756,
      -0.013885051012039185,
      -0.2687961757183075,
      0.03314289450645447,
      -0.004829127807170153,
      0.015958651900291443,
      0.3539223074913025,
      -0.22219470143318176,
      -0.1632351279258728,
      -0.8080294728279114,
      -0.251913458108902,
      -0.02045765519142151,
      0.0459115132689476,
      -0.40484827756881714,
      -0.4395982325077057,
      -5.139422416687012,
      -0.015832871198654175,
      -0.01180177927017212,
      -0.08682890981435776,
      -0.027541890740394592,
      0.08673740923404694,
      0.03873725235462189,
      -0.2926364839076996,
      -0.14673998951911926,
      -2.947192668914795,
      0.20668171346187592,
      -0.3893517553806305
    ],
    [
      -0.014382620342075825,
      -1.0218374729156494,
      -0.033781830221414566,
      0.5998678803443909,
      -0.24434807896614075,
      0.687980592250824,
      0.01937873661518097,
      0.17589817941188812,
      0.04439264535903931,
      -0.06692096590995789,
      -0.02654658630490303,
      -0.35495245456695557,
      -0.8677732944488525,
      0.09627498686313629,
      -0.8010429739952087,
      0.5701369643211365,
      0.04546526074409485,
      -0.04891616851091385,
      0.03131050989031792,
      -1.4941943883895874,
      -0.3234903812408447,
      -0.1727713942527771,
      -0.028152402490377426,
      -0.12785834074020386,
      -0.11301475018262863,
      0.12145392596721649,
      0.13428528606891632,
      0.4221602976322174,
      0.06834201514720917,
      -0.19088095426559448,
      -0.2683265507221222,
      -1.536205768585205
    ],
    [
      -0.018332097679376602,
      -0.11323767155408859,
      0.027727751061320305,
      -0.024987773969769478,
      -0.134904682636261,
      -0.10834641009569168,
      0.006922036409378052,
      -0.1217968687415123,
      0.01352614164352417,
      -0.10239855200052261,
      -0.027917830273509026,
      -0.07522651553153992,
      -0.06544912606477737,
      -0.03466804325580597,
      -0.047965530306100845,
      -0.13858278095722198,
      0.14406026899814606,
      -0.1145637258887291,
      0.11355450004339218,
      0.010510608553886414,
      -0.020023390650749207,
      0.07831601798534393,
      -0.05991643667221069,
      0.14701007306575775,
      0.11661131680011749,
      0.09035144746303558,
      0.08378957211971283,
      0.08427543193101883,
      0.15572799742221832,
      -0.05565251410007477,
      0.018527641892433167,
      -0.13280858099460602
    ],
    [
      -0.003746609902009368,
      0.15962818264961243,
      -0.7972815632820129,
      0.02373635582625866,
      -0.6464488506317139,
      -0.5485915541648865,
      -0.11794668436050415,
      0.05166056752204895,
      0.13765503466129303,
      -3.8063271045684814,
      -0.43270254135131836,
      -0.7909003496170044,
      0.16562847793102264,
      0.15226201713085175,
      0.02495252713561058,
      0.01297244243323803,
      -0.007523864507675171,
      -6.105015277862549,
      0.009553508833050728,
      0.21427078545093536,
      0.03700345382094383,
      0.1338139921426773,
      -0.5086504220962524,
      -0.05222087353467941,
      0.15053384006023407,
      0.16162832081317902,
      -0.10058387368917465,
      0.040677960962057114,
      0.0424666553735733,
      0.010805075988173485,
      -0.3319549262523651,
      0.2007313221693039
    ],
    [
      -0.14900106191635132,
      -0.36739882826805115,
      0.05026071518659592,
      -0.17786924540996552,
      0.2776779234409332,
      -0.005980947986245155,
      -0.1476539820432663,
      -0.253434419631958,
      -0.015218064188957214,
      0.049827273935079575,
      0.028089413419365883,
      0.3608471751213074,
      -0.25664567947387695,
      0.14334367215633392,
      -0.9093056321144104,
      -0.17359161376953125,
      0.005685776472091675,
      0.0445980466902256,
      -0.3158175051212311,
      -0.49680662155151367,
      -1.7742763757705688,
      0.1172385960817337,
      0.05374143272638321,
      0.06322380900382996,
      0.11879624426364899,
      0.0008735954761505127,
      0.1314733475446701,
      -0.22784405946731567,
      -0.12572552263736725,
      -3.872195243835449,
      0.16970907151699066,
      -0.41242077946662903
    ],
    [
      0.04343471676111221,
      0.12509793043136597,
      -0.3220519721508026,
      0.10782048851251602,
      -0.5355429649353027,
      -0.15545472502708435,
      0.14936767518520355,
      0.12718337774276733,
      0.14543096721172333,
      -3.6191494464874268,
      -0.18421077728271484,
      -0.9330690503120422,
      0.15074533224105835,
      -0.15269170701503754,
      0.04473397135734558,
      0.03901461511850357,
      -0.1421044021844864,
      -1.0534409284591675,
      0.06013534963130951,
      0.34360337257385254,
      0.12099488079547882,
      -0.0555039644241333,
      -0.2794845998287201,
      -0.1276254802942276,
      -0.17174369096755981,
      0.025032341480255127,
      0.11318860948085785,
      0.03413115441799164,
      -0.026489734649658203,
      0.02152763120830059,
      -0.3841223120689392,
      0.27552327513694763
    ],
    [
      -3.4578256607055664,
      -0.12568533420562744,
      0.005657988600432873,
      -0.39442336559295654,
      0.1740434169769287,
      -0.02669062465429306,
      -0.0536578893661499,
      -0.5600305795669556,
      0.14502765238285065,
      0.007867075502872467,
      0.027510473504662514,
      0.2540861666202545,
      -0.18993034958839417,
      -0.048073574900627136,
      -0.24619761109352112,
      -0.4198678433895111,
      0.1368529349565506,
      0.001140878302976489,
      -1.275294542312622,
      -0.3625394105911255,
      -3.792384386062622,
      -0.09402438998222351,
      0.029012858867645264,
      0.051511406898498535,
      -0.1506878137588501,
      -0.15734776854515076,
      -0.13386806845664978,
      -0.5060005784034729,
      -0.03595307469367981,
      -1.3591395616531372,
      0.15544752776622772,
      -0.2998296618461609
    ],
    [
      -1.513384461402893,
      -0.07320567965507507,
      -0.026825714856386185,
      -1.2235714197158813,
      -0.008241606876254082,
      -0.05046216398477554,
      0.051416411995887756,
      -3.7017598152160645,
      -0.09077057242393494,
      -0.03820455074310303,
      0.007117651868611574,
      -0.0054388949647545815,
      -0.14346174895763397,
      -0.11154108494520187,
      -0.08089728653430939,
      -1.262241005897522,
      0.039280518889427185,
      -0.02811920829117298,
      -3.3127174377441406,
      -0.10367289185523987,
      -0.9796645045280457,
      0.14887885749340057,
      0.005609601736068726,
      -0.010933741927146912,
      -0.16495928168296814,
      0.058908477425575256,
      0.13759784400463104,
      -2.023383378982544,
      0.05626797676086426,
      -0.6026930212974548,
      0.10274579375982285,
      -0.38002246618270874
    ]
  ],
  "fc2.bias": [
    0.3154435455799103,
    0.3587225377559662,
    0.2892899513244629,
    0.23526020348072052,
    0.36126598715782166,
    0.3955562114715576,
    0.2417336404323578,
    0.4023510217666626,
    0.22590959072113037,
    0.14652831852436066,
    0.25253304839134216,
    0.32933691143989563,
    0.17258088290691376,
    0.31534990668296814,
    -0.37684568762779236,
    -0.011239930987358093,
    0.2080182582139969,
    0.3523142635822296,
    -0.47758007049560547,
    0.2917514145374298,
    -0.35077476501464844,
    0.29860517382621765,
    0.40473565459251404,
    0.30760064721107483,
    0.3680424690246582,
    -0.7136508822441101,
    -0.16978636384010315,
    0.331600159406662,
    0.34072157740592957,
    0.23416829109191895,
    0.37118345499038696,
    0.35024502873420715
  ],
  "fc3.weight": [
    [
      0.08714625239372253,
      -0.3019300103187561,
      0.15835797786712646,
      0.08572337031364441,
      -0.1651374250650406,
      -0.22368226945400238,
      0.08874943852424622,
      -0.1556117832660675,
      0.08555810153484344,
      0.073780857026577,
      0.09900572896003723,
      -0.16104914247989655,
      0.07235361635684967,
      0.0903448835015297,
      0.33816030621528625,
      0.3802427649497986,
      0.06737260520458221,
      0.15668274462223053,
      0.34560272097587585,
      0.1009371429681778,
      0.44680336117744446,
      0.11826065182685852,
      0.5312259793281555,
      -0.1464000940322876,
      -0.1965821087360382,
      -1.136663794517517,
      -0.13802692294120789,
      0.10056312382221222,
      -0.17543260753154755,
      0.0863085612654686,
      -0.23319298028945923,
      -0.4145432412624359
    ]
  ],
  "fc3.bias": [
    -0.2090500146150589
  ]
}