{
  "fc1.weight": [
    [
      0.42642635107040405,
      -0.11864576488733292
    ],
    [
      0.16733281314373016,
      -0.005143378861248493
    ],
    [
      -0.3625912368297577,
      0.7332995533943176
    ],
    [
      0.13545219600200653,
      0.7557416558265686
    ],
    [
      0.20072777569293976,
      0.7175304293632507
    ],
    [
      0.4038543701171875,
      -0.140224888920784
    ],
    [
      -0.18586979806423187,
      -0.8323823809623718
    ],
    [
      -0.00990307331085205,
      -0.06733125448226929
    ],
    [
      0.5174321532249451,
      -0.014928561635315418
    ],
    [
      -0.10028054565191269,
      -0.6259361505508423
    ],
    [
      0.14438652992248535,
      0.008643913082778454
    ],
    [
      -0.6897836923599243,
      0.1290629655122757
    ],
    [
      -0.8213787078857422,
      0.04537945240736008
    ],
    [
      -0.3552003800868988,
      -0.37812429666519165
    ],
    [
      0.21907007694244385,
      0.009969590231776237
    ],
    [
      -0.525896430015564,
      0.7085964679718018
    ],
    [
      0.5804122686386108,
      0.08870837092399597
    ],
    [
      -0.3726952373981476,
      0.6244045495986938
    ],
    [
      0.15588031709194183,
      -0.7774357795715332
    ],
    [
      -0.5482703447341919,
      0.09054060280323029
    ],
    [
      0.10296402871608734,
      0.0046075782738626
    ],
    [
      -0.5860177874565125,
      -0.8970175981521606
    ],
    [
      0.33717599511146545,
      -0.12069131433963776
    ],
    [
      0.12551645934581757,
      -0.002840568544343114
    ],
    [
      0.2500118613243103,
      -0.001989068929105997
    ],
    [
      0.48611682653427124,
      0.11249601095914841
    ],
    [
      -0.5481667518615723,
      0.8815029263496399
    ],
    [
      -0.29204702377319336,
      -0.7287510633468628
    ],
    [
      -0.519679069519043,
      -0.8070411086082458
    ],
    [
      0.4448642432689667,
      -0.04696691036224365
    ],
    [
      0.32060763239860535,
      -0.03225989639759064
    ],
    [
      -0.5485051870346069,
      -0.882938802242279
    ]
  ],
  "fc1.bias": [
    -0.38685616850852966,
    0.0759124755859375,
    -0.43369749188423157,
    -1.0103745460510254,
    -0.8095107674598694,
    -0.38587069511413574,
    -0.8821054697036743,
    -0.674772322177887,
    -0.0036942048463970423,
    -0.2245749533176422,
    0.045474544167518616,
    0.371189147233963,
    0.016545740887522697,
    0.42767760157585144,
    -0.04956445097923279,
    0.006996286101639271,
    -0.7662920951843262,
    0.27322128415107727,
    -1.0417418479919434,
    0.49067750573158264,
    0.08937261998653412,
    -0.023736558854579926,
    -0.3144721984863281,
    0.09165150672197342,
    -0.17888173460960388,
    -0.5336531400680542,
    0.18112188577651978,
    -0.4177570343017578,
    0.18005859851837158,
    -0.42196670174598694,
    -0.3006437420845032,
    0.3647005259990692
  ],
  "fc2.weight": [
    [
      0.006864373572170734,
      0.14993658661842346,
      -0.33411669731140137,
      -0.5830718278884888,
      -0.269300639629364,
      0.024430330842733383,
      -0.8916309475898743,
      -0.1664520651102066,
      0.16057175397872925,
      -0.16540127992630005,
      0.13076886534690857,
      -0.058050837367773056,
      -0.07764475792646408,
      -0.046053558588027954,
      0.12197622656822205,
      -0.10208050906658173,
      0.19547100365161896,
      -0.04732950031757355,
      -0.48658010363578796,
      -0.05130774900317192,
      0.0574369952082634,
      -0.06423800438642502,
      0.08899222314357758,
      0.08317509293556213,
      0.22190429270267487,
      0.002276000566780567,
      -0.048859190195798874,
      -0.30391925573349,
      -0.03263130784034729,
      0.06721726059913635,
      0.024989372119307518,
      -0.006505410186946392
    ],
    [
      0.2565171420574188,
      -0.0334981344640255,
      -0.17942006886005402,
      -0.22716353833675385,
      -0.11251302063465118,
      0.3036468029022217,
      -1.2460609674453735,
      0.08801452815532684,
      0.03726127743721008,
      -0.5125629901885986,
      -0.05409028008580208,
      -0.14859765768051147,
      -0.955141544342041,
      -0.171653613448143,
      -0.03644878789782524,
      -0.07750967144966125,
      -0.14312440156936646,
      -7.3238268669229e-05,
      -1.6730996370315552,
      -0.09472503513097763,
      -0.046018097549676895,
      -2.631593942642212,
      0.22903940081596375,
      -0.030923273414373398,
      0.10459739714860916,
      -0.1529645472764969,
      -0.021813301369547844,
      -3.1630489826202393,
      -0.43633097410202026,
      0.1470944732427597,
      0.20425263047218323,
      -0.15639223158359528
    ],
    [
      0.016194118186831474,
      0.06770499050617218,
      -0.2088528722524643,
      -0.2445586919784546,
      0.033338382840156555,
      0.09383044391870499,
      -0.5081269145011902,
      -0.08314312994480133,
      -3.8593249320983887,
      0.025976505130529404,
      0.17561502754688263,
      -0.3542190194129944,
      -2.6731817722320557,
      -0.08302602916955948,
      0.15904541313648224,
      -0.09937145560979843,
      0.03892780840396881,
      -9.07837093109265e-05,
      -0.06438525021076202,
      -0.18849603831768036,
      0.0923657938838005,
      -0.04214734584093094,
      0.07698994129896164,
      0.12371914833784103,
      0.11107214540243149,
      0.12393491715192795,
      -0.0378815233707428,
      -0.09288514405488968,
      -0.059211380779743195,
      0.12595181167125702,
      0.12515759468078613,
      -0.019932499155402184
    ],
    [
      -0.09411319345235825,
      -0.300467312335968,
      0.152394101023674,
      0.8580811023712158,
      0.5504825711250305,
      -0.13878373801708221,
      0.19698016345500946,
      -0.17194122076034546,
      -0.27061158418655396,
      0.030384037643671036,
      -0.3736627697944641,
      0.04297172650694847,
      0.19416984915733337,
      0.06345653533935547,
      -0.49744200706481934,
      0.10324446111917496,
      -0.646609902381897,
      0.037525709718465805,
      1.3543223142623901,
      0.03530273586511612,
      -0.30070871114730835,
      0.01740729808807373,
      -0.09760212898254395,
      -0.27154454588890076,
      -0.5104614496231079,
      -0.4242207109928131,
      -0.052362602204084396,
      0.09361548721790314,
      0.036739885807037354,
      -0.3797944188117981,
      -0.2721858322620392,
      -0.005249113775789738
    ],
    [
      0.03690433129668236,
      -0.00018247545813210309,
      -1.2742005586624146,
      -0.5403175354003906,
      -0.29716503620147705,
      0.04319898411631584,
      -0.7829017043113708,
      -0.049993112683296204,
      0.17296947538852692,
      -0.0977645292878151,
      0.03344704955816269,
      -0.22205638885498047,
      -0.6361199617385864,
      -0.07239232212305069,
      0.11575614660978317,
      -0.2594774663448334,
      0.11715587973594666,
      -0.08182067424058914,
      -0.4425520598888397,
      -0.11242436617612839,
      0.05149231106042862,
      -0.07446569949388504,
      0.020154301077127457,
      0.03968576714396477,
      0.2230379581451416,
      0.17840567231178284,
      -0.12737008929252625,
      -0.2544456422328949,
      -0.03692452609539032,
      0.08482431620359421,
      0.10074819624423981,
      -0.031752053648233414
    ],
    [
      -0.07787881791591644,
      -0.22600658237934113,
      0.21242371201515198,
      0.9249646067619324,
      0.7401993274688721,
      0.014227066189050674,
      0.279894083738327,
      0.11118112504482269,
      -0.12888048589229584,
      0.11153271049261093,
      -0.27468636631965637,
      0.10136577486991882,
      0.21497151255607605,
      0.08905939012765884,
      -0.2441822588443756,
      0.17266947031021118,
      -0.3841155767440796,
      0.020803414285182953,
      1.0499805212020874,
      0.18150471150875092,
      -0.16978749632835388,
      0.04295501112937927,
      0.01199179794639349,
      -0.15840928256511688,
      -0.3189544379711151,
      -0.425078809261322,
      -0.06113351136445999,
      0.20213612914085388,
      0.053089648485183716,
      -0.28348755836486816,
      -0.18803003430366516,
      -0.013648905791342258
    ],
    [
      -0.22865569591522217,
      -0.3233310282230377,
      0.1617889404296875,
      -0.2516423463821411,
      1.1214251518249512,
      -0.21125109493732452,
      0.05029649659991264,
      0.010324418544769287,
      -0.1463283896446228,
      -0.04498501121997833,
      -0.3166749179363251,
      0.056018680334091187,
      0.1449129432439804,
      0.10051441937685013,
      -0.21468211710453033,
      0.10359551012516022,
      0.2711540162563324,
      0.013591615483164787,
      1.8171160221099854,
      0.11555413901805878,
      -0.30656060576438904,
      0.037279799580574036,
      -0.2484252154827118,
      -0.2808597683906555,
      -0.19219781458377838,
      0.06956519931554794,
      -0.05852944776415825,
      0.085629902780056,
      0.0029331729747354984,
      -0.08205313235521317,
      -0.21774159371852875,
      0.009193168953061104
    ],
    [
      0.04260846599936485,
      0.0466393418610096,
      -0.18145251274108887,
      -0.543357253074646,
      -0.23481273651123047,
      0.04828459396958351,
      -0.016665086150169373,
      0.13284431397914886,
      0.0221699308604002,
      -0.15786969661712646,
      0.05587978661060333,
      -0.14862143993377686,
      -0.18588489294052124,
      -0.06633403897285461,
      0.07657275348901749,
      -0.10901781171560287,
      0.29232966899871826,
      -0.03462888300418854,
      -0.8164182901382446,
      -0.0900687500834465,
      0.01670101471245289,
      -0.2150353491306305,
      0.025150740519165993,
      0.06679411977529526,
      0.09000752121210098,
      0.19757765531539917,
      0.5763899683952332,
      -0.18801656365394592,
      -0.21086940169334412,
      0.07820554822683334,
      0.0705394595861435,
      0.6343017816543579
    ],
    [
      0.18936066329479218,
      0.02819039113819599,
      -0.2663862705230713,
      -0.2710460424423218,
      -0.1832377314567566,
      0.20635060966014862,
      0.21441750228405,
      -0.04575173556804657,
      0.015558680519461632,
      0.24068573117256165,
      -0.009044078178703785,
      -0.013070871122181416,
      -0.02907785400748253,
      0.160324826836586,
      0.08759348839521408,
      -0.16823126375675201,
      0.051516782492399216,
      -0.042115867137908936,
      -1.9581154584884644,
      -0.03923054039478302,
      0.047428250312805176,
      0.10293211787939072,
      0.22837592661380768,
      0.040094196796417236,
      0.1591937243938446,
      0.04777368903160095,
      0.5946784019470215,
      0.12053855508565903,
      0.028331272304058075,
      0.15807144343852997,
      0.18764865398406982,
      0.0065659875981509686
    ],
    [
      0.18712256848812103,
      -0.006715989671647549,
      -2.344815731048584,
      -0.3244694769382477,
      -0.09404182434082031,
      0.19237670302391052,
      -1.0875060558319092,
      0.05369777977466583,
      0.0031192887108772993,
      -0.8189850449562073,
      -0.03819882497191429,
      -0.9279398322105408,
      -1.45720374584198,
      -0.38623932003974915,
      -0.058867424726486206,
      -0.3129161596298218,
      -0.008005292154848576,
      0.020195279270410538,
      -1.8185930252075195,
      -0.29056763648986816,
      0.006313363090157509,
      -2.5239474773406982,
      0.23684900999069214,
      0.03002209961414337,
      0.052304256707429886,
      -0.12141897529363632,
      -0.0761130228638649,
      -2.5693349838256836,
      -1.807112216949463,
      0.0569087415933609,
      0.15437833964824677,
      -0.29996803402900696
    ],
    [
      0.15390479564666748,
      0.08770975470542908,
      -0.32754233479499817,
      -0.6519711017608643,
      -0.3561621606349945,
      0.09029486030340195,
      -1.131515383720398,
      -0.13284634053707123,
      0.16684237122535706,
      -0.14845943450927734,
      0.029742570593953133,
      -0.02784867212176323,
      -0.08821619302034378,
      -0.05438883975148201,
      0.24133704602718353,
      -0.1177171915769577,
      0.0876108929514885,
      -0.055512070655822754,
      -0.6729329824447632,
      -0.06365401297807693,
      0.1478748470544815,
      -0.07345379889011383,
      0.13334468007087708,
      0.061663899570703506,
      0.06807787716388702,
      0.03934738039970398,
      -0.07277720421552658,
      -0.359426349401474,
      -0.05248998478055,
      0.05438784882426262,
      0.1295119971036911,
      -0.005504784639924765
    ],
    [
      0.12331563979387283,
      0.14857004582881927,
      -0.3505565822124481,
      -0.6270569562911987,
      -0.28666386008262634,
      0.1645728349685669,
      -2.0948524475097656,
      -0.03971533477306366,
      0.20314408838748932,
      -0.24657605588436127,
      0.11220262199640274,
      -0.08659389615058899,
      -0.08066196739673615,
      -0.04139430448412895,
      0.1630316525697708,
      -0.09039062261581421,
      -0.08032805472612381,
      -0.044629763811826706,
      -0.8109632134437561,
      -0.005642110016196966,
      0.06213715299963951,
      -0.17026874423027039,
      0.09527093172073364,
      0.17367328703403473,
      0.11922630667686462,
      -0.001490197260864079,
      -0.07237368822097778,
      -0.7432193160057068,
      -0.08441530168056488,
      0.1508626788854599,
      0.17834879457950592,
      -0.016510266810655594
    ],
    [
      -0.15876981616020203,
      -0.30184248089790344,
      0.08809761703014374,
      1.9183882474899292,
      -0.44643232226371765,
      -0.20475004613399506,
      -0.05634327232837677,
      -0.06735915690660477,
      -0.14916059374809265,
      -0.09548668563365936,
      -0.2766658365726471,
      0.03857150301337242,
      0.11378704756498337,
      0.025901975110173225,
      -0.09600786864757538,
      0.05672316625714302,
      -0.03424277901649475,
      -0.030925698578357697,
      1.5381767749786377,
      0.07867365330457687,
      -0.22010959684848785,
      0.033826958388090134,
      -0.2619450092315674,
      -0.2179262638092041,
      -0.13598304986953735,
      -0.05621006712317467,
      -0.04643337428569794,
      0.06366486847400665,
      0.019501017406582832,
      -0.034085821360349655,
      -0.09460152685642242,
      -0.0009639146155677736
    ],
    [
      -0.0005917450762353837,
      0.07352644205093384,
      0.1090107262134552,
      1.4861345291137695,
      -1.0482463836669922,
      0.02249167114496231,
      0.07625484466552734,
      0.12800253927707672,
      0.0215880386531353,
      -0.18968096375465393,
      0.10582082718610764,
      0.022915886715054512,
      -0.059976138174533844,
      -0.0796365886926651,
      0.138560488820076,
      0.07509483397006989,
      0.22648756206035614,
      0.26627668738365173,
      -0.27806660532951355,
      0.008123137056827545,
      0.024529315531253815,
      -0.05236456170678139,
      0.002798941684886813,
      0.04979439452290535,
      0.10094640403985977,
      0.3223068416118622,
      0.06466366350650787,
      -0.07657526433467865,
      -0.012608911842107773,
      0.06317110359668732,
      0.02106485515832901,
      0.48019254207611084
    ],
    [
      0.06599540263414383,
      -0.017392095178365707,
      -0.8757643699645996,
      -1.1211163997650146,
      -2.2525618076324463,
      0.08726005256175995,
      -0.3130567967891693,
      -0.017247796058654785,
      0.016500277444720268,
      -2.5952956676483154,
      -0.02108067274093628,
      -1.1341427564620972,
      -0.21570125222206116,
      -0.9255247712135315,
      -0.10167963802814484,
      -2.279500961303711,
      0.15948796272277832,
      -0.9029456973075867,
      -0.7396758794784546,
      -3.0722105503082275,
      -0.04561925306916237,
      -0.9289231896400452,
      0.07460030168294907,
      -0.009628746658563614,
      -0.011567073874175549,
      0.05407111346721649,
      -2.4916296005249023,
      -1.0802232027053833,
      -2.3017737865448,
      0.009209009818732738,
      0.08057436347007751,
      -2.2539353370666504
    ],
    [
      -0.014021347276866436,
      -0.1582714319229126,
      0.00725156394764781,
      0.06591545045375824,
      -0.23382049798965454,
      -0.23332875967025757,
      -0.11252646893262863,
      -0.08805281668901443,
      -0.11345788836479187,
      -0.06535793095827103,
      -0.09637242555618286,
      -0.1893034279346466,
      -0.04036487266421318,
      -0.06075427308678627,
      -0.08852829784154892,
      0.045104287564754486,
      0.14334477484226227,
      -0.16175438463687897,
      -0.013670645654201508,
      -0.15405257046222687,
      0.009179639630019665,
      -0.1517023891210556,
      -0.007470946758985519,
      0.03732313588261604,
      -0.0822335034608841,
      -0.05761834233999252,
      -0.12264947593212128,
      0.02419324964284897,
      0.0013564086984843016,
      -0.14154991507530212,
      -0.1562597155570984,
      0.03602704033255577
    ],
    [
      0.1290309727191925,
      0.004756222944706678,
      -0.5603160858154297,
      -0.36477428674697876,
      -0.2344512790441513,
      0.1171078309416771,
      -2.285432815551758,
      -0.10798875987529755,
      0.15253400802612305,
      -0.15356102585792542,
      0.04313752427697182,
      -0.16554364562034607,
      -2.389400005340576,
      -0.10426253080368042,
      0.010605967603623867,
      -0.1501258760690689,
      0.019862785935401917,
      -0.021470066159963608,
      -0.5939300060272217,
      -0.1152491569519043,
      -0.011803381145000458,
      -0.1877192258834839,
      0.15624390542507172,
      0.04514984041452408,
      0.11554404348134995,
      -0.01054452545940876,
      -0.05817025899887085,
      -0.8554083108901978,
      -0.10379470884799957,
      0.07218519598245621,
      0.058625102043151855,
      -0.0458148792386055
    ],
    [
      -0.349821537733078,
      -0.4669317901134491,
      0.128587543964386,
      0.27328452467918396,
      0.6426084637641907,
      -0.11071412265300751,
      0.1052229255437851,
      0.16095523536205292,
      -0.36212611198425293,
      0.18215657770633698,
      -0.793865442276001,
      -0.03242316469550133,
      0.1432592123746872,
      0.06626248359680176,
      -1.8969223499298096,
      0.11255989968776703,
      -1.2802516222000122,
      -0.0305897556245327,
      0.7908177375793457,
      -0.029329990968108177,
      -0.43109244108200073,
      0.006766021717339754,
      -0.1123991385102272,
      -0.31810319423675537,
      -1.5888603925704956,
      -1.971447229385376,
      -0.037761665880680084,
      0.05641834810376167,
      -0.008732466027140617,
      -0.9786312580108643,
      -0.7731248736381531,
      -0.04497633874416351
    ],
    [
      0.00026011414593085647,
      -0.012278660200536251,
      -2.0848100185394287,
      -2.182504892349243,
      -0.5288857817649841,
      -0.0648764967918396,
      -1.7465707063674927,
      -0.13744409382343292,
      0.017106521874666214,
      -0.23378634452819824,
      0.005541642662137747,
      -4.097923755645752,
      -1.037128210067749,
      -0.041706833988428116,
      0.05697323754429817,
      -3.3984925746917725,
      0.11690965294837952,
      -0.20356455445289612,
      -1.644811987876892,
      -0.8714377284049988,
      0.07645315676927567,
      -0.6913532018661499,
      0.022243332117795944,
      0.0322498083114624,
      0.07433366775512695,
      0.21519535779953003,
      -0.4454186260700226,
      -2.3840858936309814,
      -0.16715070605278015,
      0.03375669941306114,
      0.02376672998070717,
      0.023890787735581398
    ],
    [
      0.03798872232437134,
      0.16024558246135712,
      -0.40605029463768005,
      -0.5708193778991699,
      -0.3737298250198364,
      0.02889147587120533,
      -0.9278569221496582,
      0.13342536985874176,
      0.17292726039886475,
      -0.15809127688407898,
      0.18916535377502441,
      -0.07150714099407196,
      -0.1265111118555069,
      -0.06024283915758133,
      0.18722699582576752,
      -0.1260794997215271,
      0.014032786712050438,
      -0.050108373165130615,
      -0.5176414847373962,
      -0.026943664997816086,
      0.1413004994392395,
      -0.08154469728469849,
      0.09779577702283859,
      0.07200368493795395,
      0.049013879150152206,
      0.027478285133838654,
      -0.07224678993225098,
      -0.3087000250816345,
      -0.05538661777973175,
      0.061841052025556564,
      0.036377571523189545,
      -0.017115198075771332
    ],
    [
      0.05161478742957115,
      0.002000101376324892,
      -2.930925130844116,
      -0.5381754040718079,
      -0.10109172016382217,
      -0.006279585417360067,
      -2.910539150238037,
      0.16857849061489105,
      0.06562609225511551,
      -0.10556808114051819,
      0.017832817509770393,
      -0.6800221800804138,
      -2.8407607078552246,
      -0.06251327693462372,
      0.06617507338523865,
      -0.5169802308082581,
      0.16022716462612152,
      -0.06507818400859833,
      -0.5307016968727112,
      -0.32550865411758423,
      0.024421492591500282,
      -0.16776327788829803,
      -0.014449198730289936,
      0.007350017316639423,
      0.03337693586945534,
      0.13646996021270752,
      -0.1340716928243637,
      -0.6102825403213501,
      -0.060596633702516556,
      -0.02645893022418022,
      0.01550858560949564,
      -0.019099736586213112
    ],
    [
      0.029183218255639076,
      -0.1503027081489563,
      0.392362505197525,
      0.23543140292167664,
      0.770057737827301,
      0.07201575487852097,
      0.18115629255771637,
      0.06780464947223663,
      -0.04115251824259758,
      0.37735819816589355,
      -0.1637021005153656,
      0.11488692462444305,
      0.27183517813682556,
      -0.02672533504664898,
      -0.13669881224632263,
      0.20021669566631317,
      -0.0165695920586586,
      -0.026807494461536407,
      0.14023762941360474,
      0.2042369246482849,
      -0.1340135782957077,
      0.05315643176436424,
      0.04467989131808281,
      -0.13086676597595215,
      -0.1080201268196106,
      -0.06930947303771973,
      -0.0874822810292244,
      0.32265010476112366,
      0.016408413648605347,
      -0.10306693613529205,
      -0.15350893139839172,
      -0.028428692370653152
    ],
    [
      0.1257406771183014,
      0.0036767201963812113,
      -1.8467891216278076,
      -0.4692487418651581,
      -0.22402435541152954,
      0.12280848622322083,
      -2.74892258644104,
      -0.08332851529121399,
      0.12789806723594666,
      -0.18523138761520386,
      0.03288925066590309,
      -0.14177612960338593,
      -2.8262040615081787,
      -0.04580512270331383,
      0.10249639302492142,
      -0.21677318215370178,
      0.0027911528013646603,
      -0.05411899834871292,
      -0.8736660480499268,
      -0.057959724217653275,
      0.01036333292722702,
      -0.2590029537677765,
      0.08580119162797928,
      0.025185592472553253,
      0.14353139698505402,
      0.00980293471366167,
      -0.12449130415916443,
      -1.4709111452102661,
      -0.09201439470052719,
      0.03578615188598633,
      0.13698509335517883,
      -0.04124573618173599
    ],
    [
      -0.019729547202587128,
      0.022594675421714783,
      -2.2316300868988037,
      -1.629561424255371,
      -0.3158104717731476,
      -0.05572808161377907,
      -3.050685167312622,
      0.08094264566898346,
      0.054870620369911194,
      -0.05153125151991844,
      -0.0034131587017327547,
      -3.64272141456604,
      -2.1393325328826904,
      -0.06564278900623322,
      0.07479658722877502,
      -1.7150260210037231,
      0.23287664353847504,
      -0.13836486637592316,
      -0.37209951877593994,
      -0.6106643676757812,
      0.005262400023639202,
      -0.14969733357429504,
      -0.04596998542547226,
      0.021117374300956726,
      0.10071408748626709,
      0.17472413182258606,
      -0.28916144371032715,
      -0.46333277225494385,
      -0.05180315300822258,
      0.04522501304745674,
      0.015888070687651634,
      -0.012539822608232498
    ],
    [
      0.14100562036037445,
      0.04937833547592163,
      -0.2572884261608124,
      -0.2956670820713043,
      -0.4298436939716339,
      0.13160960376262665,
      -0.1269393116235733,
      0.15274079144001007,
      0.00838387105613947,
      -0.0428747683763504,
      0.029009779915213585,
      -0.13766588270664215,
      -0.16305504739284515,
      -0.03060329705476761,
      0.06537889689207077,
      -0.1599971204996109,
      0.04351835697889328,
      0.7768164873123169,
      -0.344315767288208,
      -0.06464847177267075,
      0.03404070809483528,
      0.48687466979026794,
      0.1624375879764557,
      0.06810705363750458,
      0.08582806587219238,
      0.015385720878839493,
      -0.2285577654838562,
      -0.1459028571844101,
      -0.030051574110984802,
      0.10233814269304276,
      0.15565378963947296,
      -0.009879722259938717
    ],
    [
      0.06213116645812988,
      0.023205462843179703,
      -1.0079338550567627,
      -1.6221628189086914,
      -1.1977424621582031,
      0.02921767719089985,
      -0.5408127903938293,
      0.09031413495540619,
      0.014295282773673534,
      -0.9044701457023621,
      0.014846861362457275,
      -1.6199500560760498,
      -0.12846285104751587,
      -0.28247714042663574,
      0.016586586833000183,
      -2.240727186203003,
      0.24957990646362305,
      -0.49220341444015503,
      -1.0952866077423096,
      -1.6758782863616943,
      0.018104881048202515,
      -1.4475691318511963,
      0.0023893238976597786,
      -0.0125289810821414,
      0.021648667752742767,
      0.10403288155794144,
      -1.399327278137207,
      -1.669769525527954,
      -2.703869581222534,
      0.09962888062000275,
      0.1510646939277649,
      -0.3074987828731537
    ],
    [
      -0.14632433652877808,
      0.06842828541994095,
      -0.102906733751297,
      -1.92951238155365,
      1.3349266052246094,
      -0.15617942810058594,
      -0.2001938372850418,
      0.0002714693546295166,
      -0.0349864698946476,
      0.042236778885126114,
      0.08628810197114944,
      0.5390707850456238,
      -0.09006974846124649,
      -0.036591190844774246,
      -0.06355796754360199,
      -0.06583759188652039,
      -0.05610453709959984,
      -0.03904721513390541,
      1.3176747560501099,
      -0.044517870992422104,
      0.03743862360715866,
      0.004628634545952082,
      -0.11703718453645706,
      0.036777567118406296,
      -0.09234160929918289,
      -0.04391838610172272,
      -0.0660332664847374,
      -0.043801967054605484,
      -0.03646219149231911,
      -0.1114940270781517,
      -0.1900426298379898,
      -0.02295195870101452
    ],
    [
      -0.11331780254840851,
      -0.3168734610080719,
      0.15365223586559296,
      1.7108579874038696,
      0.17073489725589752,
      -0.08997843414545059,
      0.17302565276622772,
      -0.02747666835784912,
      -0.2512615919113159,
      0.11887573450803757,
      -0.4425610303878784,
      0.023681549355387688,
      0.22187776863574982,
      0.027166267856955528,
      -0.971666693687439,
      0.07805757969617844,
      -0.7043673396110535,
      -0.030326947569847107,
      1.2970693111419678,
      0.026048554107546806,
      -0.3090102970600128,
      0.00029184750746935606,
      0.026528028771281242,
      -0.26339346170425415,
      -1.163071870803833,
      -0.438701331615448,
      -0.022689413279294968,
      0.1392175555229187,
      0.007852161303162575,
      -0.9114114046096802,
      -0.7300111055374146,
      -0.03573405742645264
    ],
    [
      -0.930538535118103,
      -2.9239730834960938,
      0.028914622962474823,
      -0.8097309470176697,
      -0.455238938331604,
      -0.8293830156326294,
      -0.09088889509439468,
      0.06375676393508911,
      -1.6500169038772583,
      -0.018134701997041702,
      -3.1347804069519043,
      -0.01928628422319889,
      -0.01147641520947218,
      0.004976912867277861,
      -0.8721969723701477,
      0.005529412999749184,
      0.15223829448223114,
      -0.03166697546839714,
      -1.373175859451294,
      0.002723831683397293,
      -2.4062728881835938,
      -0.0029685543850064278,
      -1.2031891345977783,
      -2.066922664642334,
      -0.45329591631889343,
      0.029345955699682236,
      -0.04082014784216881,
      0.000941263628192246,
      -0.024778563529253006,
      -0.1628085821866989,
      -0.4629569947719574,
      -0.02792440727353096
    ],
    [
      -0.03814319893717766,
      -0.014995607547461987,
      -2.8835813999176025,
      -0.6061583757400513,
      -0.27804383635520935,
      -0.005212942138314247,
      -0.5356494188308716,
      0.06076745688915253,
      0.11722903698682785,
      -0.08792304992675781,
      0.058661893010139465,
      -0.3252679407596588,
      -3.135061502456665,
      -0.06045691668987274,
      0.07073149085044861,
      -0.43949252367019653,
      0.2425631880760193,
      -0.1223185807466507,
      -0.22255931794643402,
      -0.13805676996707916,
      -0.004683136940002441,
      -0.04118596389889717,
      -0.022276591509580612,
      -0.034043144434690475,
      0.16990552842617035,
      0.30650460720062256,
      -0.18494755029678345,
      -0.21333234012126923,
      -0.045659374445676804,
      0.011717230081558228,
      0.0806090235710144,
      0.007602681405842304
    ],
    [
      0.10098491609096527,
      0.040671657770872116,
      -0.09142614901065826,
      -0.17386509478092194,
      -0.18994662165641785,
      0.07074739038944244,
      -0.08273756504058838,
      -0.1636216938495636,
      0.019298730418086052,
      -0.17581477761268616,
      0.05304957553744316,
      -0.05044225975871086,
      -0.15045258402824402,
      -0.07627718895673752,
      0.09937670826911926,
      -0.07202191650867462,
      0.13932016491889954,
      -0.005233765579760075,
      -0.45258209109306335,
      -0.0514194592833519,
      0.028539132326841354,
      -0.14926445484161377,
      0.07277800887823105,
      0.07731210440397263,
      0.12023607641458511,
      0.12709371745586395,
      0.4406372010707855,
      -0.19097638130187988,
      0.6819457411766052,
      0.07924352586269379,
      0.11177579313516617,
      -0.039914846420288086
    ],
    [
      -0.5954918265342712,
      -0.5432928204536438,
      0.111370749771595,
      0.6664726734161377,
      0.1688181459903717,
      -0.45198962092399597,
      0.008578184060752392,
      -0.13791128993034363,
      -0.5084972381591797,
      0.08556892722845078,
      -0.7276967167854309,
      -0.03657052665948868,
      0.141829252243042,
      -0.015535116195678711,
      -2.2495272159576416,
      0.06244201585650444,
      -0.5210514664649963,
      -0.03803526237607002,
      0.9906669855117798,
      -0.010791926644742489,
      -0.4074888229370117,
      -0.01011571567505598,
      -0.4473554491996765,
      -0.40296196937561035,
      -2.2375855445861816,
      -1.2616606950759888,
      -0.029981596395373344,
      0.042561572045087814,
      0.0007468038238584995,
      -1.2978577613830566,
      -1.2055248022079468,
      -0.03729433938860893
    ]
  ],
  "fc2.bias": [
    0.4011439383029938,
    0.3688797950744629,
    0.24432438611984253,
    0.14361204206943512,
    0.5254136323928833,
    -0.049877770245075226,
    0.0032626164611428976,
    -0.37177953124046326,
    -0.35061371326446533,
    0.3343418836593628,
    0.42464911937713623,
    0.44266277551651,
    0.09657525271177292,
    -0.36881038546562195,
    0.1817193180322647,
    -0.18592853844165802,
    0.36444804072380066,
    0.3664952516555786,
    0.2995646893978119,
    0.39167702198028564,
    0.37339428067207336,
    -0.038921862840652466,
    0.322223037481308,
    0.3191564977169037,
    -0.3030471205711365,
    0.20864351093769073,
    -0.20354706048965454,
    0.2852383553981781,
    0.37365466356277466,
    0.43560338020324707,
    -0.33529722690582275,
    0.40361449122428894
  ],
  "fc3.weight": [
    [
      0.16958974301815033,
      0.2864449918270111,
      0.4544540047645569,
      -0.09359052777290344,
      0.16310575604438782,
      -0.07692021876573563,
      -0.10655016452074051,
      -0.32847246527671814,
      -0.17526760697364807,
      0.34959813952445984,
      0.14208370447158813,
      0.16046175360679626,
      -0.15844739973545074,
      -0.17332769930362701,
      0.947108268737793,
      0.06037849187850952,
      0.24879489839076996,
      -0.1139427199959755,
      0.37941059470176697,
      0.14842064678668976,
      0.24743390083312988,
      -0.06749966740608215,
      0.26002827286720276,
      0.32707086205482483,
      -0.4197963774204254,
      0.6659631133079529,
      -0.36560001969337463,
      -0.0960121899843216,
      -0.38536337018013,
      0.22335761785507202,
      -0.27488973736763,
      -0.12633764743804932
    ]
  ],
  "fc3.bias": [
    -0.032627347856760025
  ]
}