{
  "fc1.weight": [
    [
      -0.21180371940135956,
      0.8422386050224304
    ],
    [
      -0.4014800786972046,
      -0.23282106220722198
    ],
    [
      0.22182875871658325,
      0.06370804458856583
    ],
    [
      0.3705912232398987,
      0.137177973985672
    ],
    [
      -0.47129109501838684,
      -0.3738917112350464
    ],
    [
      0.11367104202508926,
      0.03919617831707001
    ],
    [
      0.12779171764850616,
      0.027450786903500557
    ],
    [
      -0.5710006356239319,
      0.4380740225315094
    ],
    [
      -0.4613304138183594,
      -0.8159983158111572
    ],
    [
      0.10473361611366272,
      -0.06848050653934479
    ],
    [
      -0.7531567215919495,
      -0.48837774991989136
    ],
    [
      0.07364261895418167,
      -0.6781240105628967
    ],
    [
      0.13145887851715088,
      0.05617024376988411
    ],
    [
      -0.5282233953475952,
      -0.23759837448596954
    ],
    [
      -0.4324522614479065,
      -0.7320004105567932
    ],
    [
      0.14298036694526672,
      -0.054776981472969055
    ],
    [
      0.21320678293704987,
      0.06741943955421448
    ],
    [
      -0.45704472064971924,
      0.9555962085723877
    ],
    [
      -0.3360045850276947,
      0.3090282082557678
    ],
    [
      0.3614104688167572,
      0.049055468291044235
    ],
    [
      -0.09446504712104797,
      -0.6414811611175537
    ],
    [
      -0.3482094705104828,
      1.049947738647461
    ],
    [
      0.15183354914188385,
      -0.06307148933410645
    ],
    [
      0.5033138394355774,
      0.029744401574134827
    ],
    [
      0.2226964682340622,
      -0.11270741373300552
    ],
    [
      -0.09440344572067261,
      -0.21605771780014038
    ],
    [
      0.14148679375648499,
      -0.06080828607082367
    ],
    [
      -0.4044194221496582,
      -0.6321704983711243
    ],
    [
      -0.4457351863384247,
      0.8393581509590149
    ],
    [
      -0.07759800553321838,
      -0.5748107433319092
    ],
    [
      -0.05285206809639931,
      0.7238466143608093
    ],
    [
      -0.49271315336227417,
      0.3536437749862671
    ]
  ],
  "fc1.bias": [
    -0.7433452606201172,
    0.5169152021408081,
    -0.031161000952124596,
    -0.3258267939090729,
    0.51851886510849,
    0.09733480215072632,
    0.07949812710285187,
    0.3970383107662201,
    -0.4110426902770996,
    0.08771222829818726,
    0.13185283541679382,
    -0.9069859385490417,
    0.07737527042627335,
    0.4744013249874115,
    0.14847275614738464,
    0.03439779579639435,
    0.03590715676546097,
    -0.13888055086135864,
    0.39752569794654846,
    -0.3786231279373169,
    -0.7215643525123596,
    -0.5730102062225342,
    0.0494571290910244,
    -0.6791244745254517,
    -0.0598604716360569,
    -0.641037106513977,
    0.053639575839042664,
    0.009143230505287647,
    0.053506456315517426,
    -0.42088037729263306,
    -0.9312112331390381,
    0.6144411563873291
  ],
  "fc2.weight": [
    [
      0.22688379883766174,
      0.04345571994781494,
      -0.3811540901660919,
      -0.0405912771821022,
      -0.011492972262203693,
      -0.2884359061717987,
      -0.3099796772003174,
      0.037728674709796906,
      0.10114418715238571,
      -0.2515450417995453,
      0.12758131325244904,
      0.4012206792831421,
      -0.3222472071647644,
      0.029500212520360947,
      -0.051870234310626984,
      -0.30158156156539917,
      -0.22564327716827393,
      0.06087113171815872,
      0.1234738901257515,
      0.052473314106464386,
      0.4329211711883545,
      0.19783462584018707,
      -0.2887134552001953,
      -0.2777545750141144,
      -0.11409106850624084,
      -0.1082438975572586,
      -0.26717954874038696,
      0.04572168365120888,
      -0.004299180582165718,
      0.6068184971809387,
      0.7836410403251648,
      -0.009046677500009537
    ],
    [
      -0.6049503684043884,
      -0.04671553894877434,
      0.07806537300348282,
      0.14623668789863586,
      -0.026689082384109497,
      0.19269691407680511,
      0.18724973499774933,
      -0.07903265953063965,
      -0.19165094196796417,
      0.1150783821940422,
      -0.09558742493391037,
      -0.6204105615615845,
      0.08227550238370895,
      -0.0492718368768692,
      -0.03277220577001572,
      0.1422986388206482,
      0.12281057983636856,
      -0.1082356721162796,
      -0.05908266827464104,
      0.08439377695322037,
      -1.449556589126587,
      -0.20060434937477112,
      0.0930355116724968,
      -0.0257742740213871,
      0.09010931849479675,
      0.07497359812259674,
      0.10303398966789246,
      -0.12303512543439865,
      -0.08116430789232254,
      -0.28394898772239685,
      -1.3033596277236938,
      -0.035879433155059814
    ],
    [
      -0.6867971420288086,
      -0.04718167334794998,
      0.1743866503238678,
      0.10470501333475113,
      -0.028813183307647705,
      0.17544390261173248,
      0.10893158614635468,
      -0.059522658586502075,
      -0.23417061567306519,
      0.15849176049232483,
      -0.0917491689324379,
      -0.6812395453453064,
      0.12985581159591675,
      -0.06497622281312943,
      -0.046373702585697174,
      0.16219614446163177,
      0.16329240798950195,
      -0.0679897665977478,
      -0.05415264889597893,
      0.029567476361989975,
      -1.4359406232833862,
      -0.17934463918209076,
      0.17024272680282593,
      0.01922452449798584,
      0.038542911410331726,
      0.1395656019449234,
      0.19056442379951477,
      -0.1053578108549118,
      -0.08002704381942749,
      -0.3194043040275574,
      -1.2248109579086304,
      -0.045432452112436295
    ],
    [
      -2.6208889484405518,
      -0.4713048040866852,
      -0.12277258187532425,
      -0.10668627917766571,
      -0.5163325071334839,
      -0.0952446460723877,
      -0.03822309896349907,
      -0.16069826483726501,
      -1.4704276323318481,
      0.022823238745331764,
      -1.9787955284118652,
      -1.6572492122650146,
      -0.0710231214761734,
      -1.512821078300476,
      -0.869071900844574,
      0.15603290498256683,
      -0.14029787480831146,
      -0.056021783500909805,
      -0.07243074476718903,
      0.01475304365158081,
      -0.9498937726020813,
      -0.1915096491575241,
      -0.006209452170878649,
      -0.07903464138507843,
      0.20221836864948273,
      -0.007750406861305237,
      0.06461009383201599,
      -3.221322774887085,
      -0.013489599339663982,
      -2.477214813232422,
      -2.490030527114868,
      -0.03141358867287636
    ],
    [
      -0.8050091862678528,
      -0.18270589411258698,
      -0.009386415593326092,
      0.02900741994380951,
      -0.20526090264320374,
      -0.0046699740923941135,
      -0.011068070307374,
      -0.06769251078367233,
      -2.084836721420288,
      0.044444140046834946,
      -3.165266513824463,
      -0.9073533415794373,
      -0.01853947900235653,
      -0.3574749827384949,
      -0.21190188825130463,
      0.12443313002586365,
      -0.023545797914266586,
      -0.07007420808076859,
      -0.09509394317865372,
      0.0891992598772049,
      -2.780895233154297,
      -0.1834850311279297,
      0.07563041895627975,
      0.0375378243625164,
      0.20459607243537903,
      0.13796894252300262,
      0.10815328359603882,
      -0.3965255618095398,
      -0.028795693069696426,
      -0.22164446115493774,
      -1.917483925819397,
      -0.028455380350351334
    ],
    [
      0.07102885842323303,
      0.030331172049045563,
      0.11256516724824905,
      0.21726149320602417,
      0.0034564388915896416,
      0.0531449057161808,
      -0.1521829068660736,
      -0.04554865136742592,
      0.12321392446756363,
      -1.3161141872406006,
      0.028052950277924538,
      -2.11667799949646,
      0.12759919464588165,
      0.025505896657705307,
      0.01495338324457407,
      -3.0246384143829346,
      0.16318507492542267,
      -0.010079067200422287,
      -0.010863588191568851,
      -0.9207435250282288,
      -0.42890119552612305,
      0.03971809521317482,
      -1.8088748455047607,
      -0.5500312447547913,
      -2.329564094543457,
      0.03010566532611847,
      -2.236919403076172,
      -0.0014691664837300777,
      -0.02965598739683628,
      -0.25513312220573425,
      0.16574954986572266,
      -0.03867378458380699
    ],
    [
      -0.08470873534679413,
      -0.040112752467393875,
      0.1856747716665268,
      0.29251745343208313,
      -0.02515079267323017,
      0.2119140475988388,
      0.19031968712806702,
      0.6805214285850525,
      0.03838653862476349,
      -0.08046378195285797,
      -0.05956614762544632,
      -0.5983522534370422,
      0.21652518212795258,
      -0.05031783878803253,
      0.004107327666133642,
      -0.12006472051143646,
      0.20705772936344147,
      -0.10603883862495422,
      -0.06876175105571747,
      0.27570217847824097,
      -0.26000043749809265,
      -0.08747922629117966,
      -0.048554010689258575,
      0.34286001324653625,
      -0.2813951373100281,
      0.15578089654445648,
      -0.0675160363316536,
      0.23825588822364807,
      -0.07496210932731628,
      -0.3221948742866516,
      0.03398515284061432,
      0.0029462326783686876
    ],
    [
      -0.12787143886089325,
      -0.05093968287110329,
      0.04035370424389839,
      0.03113190457224846,
      -0.056707192212343216,
      0.0819028839468956,
      0.08443836867809296,
      -0.003567047882825136,
      -0.16722708940505981,
      0.06685339659452438,
      -0.13462242484092712,
      -0.3704192042350769,
      0.06296348571777344,
      -0.041421208530664444,
      0.7449024319648743,
      0.04074985906481743,
      0.02629840187728405,
      -0.036098726093769073,
      -0.0029371194541454315,
      0.12275947630405426,
      -0.1539316177368164,
      -0.041436564177274704,
      0.06883328408002853,
      0.09313388913869858,
      0.06800451129674911,
      -0.09847431629896164,
      0.07456496357917786,
      -0.16337698698043823,
      0.4319295883178711,
      -0.3352431654930115,
      -0.2688070833683014,
      0.009736188687384129
    ],
    [
      -0.20197293162345886,
      0.01996701769530773,
      -2.827840566635132,
      -1.7719565629959106,
      -0.007774151861667633,
      -1.3655784130096436,
      -1.328859806060791,
      -0.002774775493890047,
      0.009562358260154724,
      0.056291721761226654,
      -0.014025405049324036,
      -0.08463755249977112,
      -1.505489706993103,
      0.010324289090931416,
      -0.0364949032664299,
      0.11974870413541794,
      -2.3985671997070312,
      0.00577850267291069,
      0.05298319086432457,
      -1.4074119329452515,
      0.04676719009876251,
      0.08035124838352203,
      0.07296019047498703,
      -0.6258327960968018,
      0.461394339799881,
      -0.047796860337257385,
      0.07847298681735992,
      -0.016033660620450974,
      0.0023115624208003283,
      0.12744925916194916,
      -0.8424871563911438,
      -0.051290661096572876
    ],
    [
      -3.0162224769592285,
      -0.13536791503429413,
      0.07197944074869156,
      0.017989300191402435,
      -0.1075628325343132,
      -0.04389828070998192,
      -0.0395808070898056,
      -0.13568277657032013,
      -2.691380262374878,
      0.04618525132536888,
      -3.846719264984131,
      -2.3329641819000244,
      -0.1003945991396904,
      -0.3715468943119049,
      -0.21406587958335876,
      0.0901702493429184,
      -0.06440913677215576,
      -0.10724842548370361,
      -0.07890838384628296,
      0.12622372806072235,
      -1.7035077810287476,
      -0.3268042206764221,
      0.07346232235431671,
      -0.06265237182378769,
      0.11107034981250763,
      -0.022345542907714844,
      0.038098350167274475,
      -0.68409264087677,
      -0.07400617748498917,
      -0.7341446876525879,
      -2.543940782546997,
      -0.026567906141281128
    ],
    [
      -1.2730332612991333,
      -0.01747019961476326,
      0.16926035284996033,
      0.13740703463554382,
      -0.00737670948728919,
      0.15004993975162506,
      0.18181267380714417,
      -0.07652468979358673,
      -0.133239284157753,
      0.051740847527980804,
      -0.06402797251939774,
      -0.6460556983947754,
      0.13552367687225342,
      -0.03572367876768112,
      -0.02296738512814045,
      0.04059126228094101,
      0.1431482881307602,
      -0.14474479854106903,
      -0.04804220423102379,
      0.06696458160877228,
      -1.3605848550796509,
      -0.3237681984901428,
      0.050229985266923904,
      -0.06016956642270088,
      0.008114488795399666,
      0.16199760138988495,
      0.11916404962539673,
      -0.06032891571521759,
      -0.09743113815784454,
      -0.24514326453208923,
      -2.237541913986206,
      -0.02329557202756405
    ],
    [
      0.3964756429195404,
      0.08777261525392532,
      0.008936253376305103,
      0.15382052958011627,
      0.05570831894874573,
      -0.14389722049236298,
      -0.11546026915311813,
      0.018420608714222908,
      0.22563180327415466,
      -0.19579100608825684,
      0.12857863306999207,
      0.9618039131164551,
      -0.16998901963233948,
      0.1364707350730896,
      0.015184130519628525,
      -0.033032309263944626,
      -0.09036785364151001,
      0.1472519040107727,
      0.14963532984256744,
      0.04372935742139816,
      0.5139008164405823,
      0.17695659399032593,
      -0.15623359382152557,
      -0.2783694267272949,
      0.0523596853017807,
      0.16095204651355743,
      -0.11417268961668015,
      0.15101858973503113,
      0.0384591780602932,
      0.1194753646850586,
      0.5795536637306213,
      0.03534581884741783
    ],
    [
      -2.912656545639038,
      -0.0605289451777935,
      0.18324869871139526,
      0.2163994461297989,
      -0.02394704520702362,
      0.06193467602133751,
      0.12001319974660873,
      -0.24274864792823792,
      -0.09463554620742798,
      -0.12083058059215546,
      -0.09583520144224167,
      -0.2544131278991699,
      0.1624981015920639,
      -0.0688815489411354,
      -0.006739442702382803,
      -0.08356377482414246,
      0.19399374723434448,
      -0.5011211037635803,
      -0.13343432545661926,
      0.1454523354768753,
      -0.6825756430625916,
      -1.7127609252929688,
      -0.1351098120212555,
      0.2552950382232666,
      -0.09751980006694794,
      0.13775883615016937,
      -0.08045587688684464,
      -0.05146067216992378,
      -0.2627347409725189,
      -0.15999631583690643,
      -2.0442512035369873,
      -0.08814775943756104
    ],
    [
      -0.2379867434501648,
      0.010568645782768726,
      0.05743841826915741,
      0.055727746337652206,
      0.02820444293320179,
      0.030564719811081886,
      0.03981604799628258,
      -0.03875363990664482,
      0.01131237018853426,
      0.013395837508141994,
      0.0765983983874321,
      0.7112230062484741,
      0.00459526339545846,
      0.020045045763254166,
      0.07458873838186264,
      -0.030704937875270844,
      0.03771337866783142,
      0.7292186617851257,
      -0.09655125439167023,
      0.17352406680583954,
      -0.05347919091582298,
      -0.2165609449148178,
      -0.0015191499842330813,
      0.1501396745443344,
      -0.06995978206396103,
      0.13907133042812347,
      0.031212328001856804,
      0.36723044514656067,
      -0.10776133835315704,
      -0.3383161425590515,
      -0.1859717071056366,
      -0.01391068659722805
    ],
    [
      -1.2407118082046509,
      -0.14234235882759094,
      -0.08570299297571182,
      0.01301585789769888,
      -0.19324569404125214,
      0.0017291451804339886,
      -0.004177998751401901,
      -0.7228593826293945,
      -1.169878602027893,
      -0.03508523106575012,
      -1.278225302696228,
      -1.5536234378814697,
      -0.009930545464158058,
      -0.7347703576087952,
      -0.5182649493217468,
      -0.07673259824514389,
      -0.04573121294379234,
      -1.8106107711791992,
      -0.20895619690418243,
      0.12287019193172455,
      -0.9715670943260193,
      -2.3227343559265137,
      0.00016215635696426034,
      0.21902117133140564,
      0.048391543328762054,
      -0.16325290501117706,
      -0.04001845791935921,
      -2.540372133255005,
      -0.5145224332809448,
      -1.8938645124435425,
      -0.6806318759918213,
      -0.12300180643796921
    ],
    [
      0.3074178993701935,
      0.04781163111329079,
      -0.3590313792228699,
      0.08897063136100769,
      0.0433734692633152,
      -0.26946648955345154,
      -0.2756279706954956,
      0.05865628644824028,
      0.21925431489944458,
      -0.14624075591564178,
      0.07045653462409973,
      0.5794359445571899,
      -0.3249485492706299,
      0.0908651128411293,
      -0.01776175945997238,
      -0.08640619367361069,
      -0.32298725843429565,
      0.016428682953119278,
      0.11387132108211517,
      -0.3270494043827057,
      0.7693328261375427,
      0.25325867533683777,
      -0.09334684908390045,
      -0.5271965265274048,
      0.11385194957256317,
      0.07922552525997162,
      -0.15348553657531738,
      0.12506332993507385,
      0.12964357435703278,
      0.26259177923202515,
      0.5099254250526428,
      -0.036503005772829056
    ],
    [
      -0.4647005498409271,
      -0.0076667931862175465,
      0.12657836079597473,
      0.04501083120703697,
      -0.019779592752456665,
      0.10017948597669601,
      0.10169586539268494,
      -0.040780600160360336,
      -0.4785800874233246,
      0.17811250686645508,
      -0.12318705022335052,
      -0.686156153678894,
      0.04612543806433678,
      -0.049394700676202774,
      -0.10517632216215134,
      0.11989951133728027,
      0.10649574548006058,
      -0.04621254280209541,
      -0.001984165981411934,
      0.07860086858272552,
      -1.95038902759552,
      -0.1561531275510788,
      0.10810508579015732,
      -0.1124989241361618,
      0.11935563385486603,
      -0.13554245233535767,
      0.12906819581985474,
      -0.16609016060829163,
      -0.07234951853752136,
      -0.39918920397758484,
      -1.061798334121704,
      -0.0310756117105484
    ],
    [
      0.0440615639090538,
      0.00963045284152031,
      -0.13580232858657837,
      -0.05013420060276985,
      -0.1223716288805008,
      -0.10308486223220825,
      0.08459259569644928,
      -0.13106456398963928,
      -0.14043180644512177,
      -0.11409018933773041,
      -0.015642074868083,
      0.02746027708053589,
      -0.1530880630016327,
      -0.13711149990558624,
      -0.006163283251225948,
      0.09066317975521088,
      -0.12237205356359482,
      -0.12641385197639465,
      0.010025710798799992,
      0.09510420262813568,
      0.03999285399913788,
      0.008860178291797638,
      -0.03919347748160362,
      0.020009666681289673,
      -0.12163563072681427,
      0.08843858540058136,
      -0.11481176316738129,
      -0.025097981095314026,
      0.02425404079258442,
      -0.07884227484464645,
      -0.1853506863117218,
      0.025719447061419487
    ],
    [
      0.15484213829040527,
      -0.1238962709903717,
      -0.03520994633436203,
      -0.21795214712619781,
      0.029682356864213943,
      0.027682878077030182,
      0.04507891833782196,
      -0.08419252187013626,
      -0.16934876143932343,
      0.04733111709356308,
      0.688107967376709,
      1.2626104354858398,
      0.045052677392959595,
      -0.10453052818775177,
      -0.11407899856567383,
      0.053476884961128235,
      -0.0351230762898922,
      -0.10284122824668884,
      -0.06730304658412933,
      -0.4330501854419708,
      -0.4214089512825012,
      -0.222861647605896,
      0.03423226997256279,
      -0.8535194396972656,
      0.02973029762506485,
      -0.0322769433259964,
      0.04741567373275757,
      -0.17437322437763214,
      0.3373643159866333,
      -0.1926274299621582,
      -0.4409619867801666,
      -0.09193500131368637
    ],
    [
      0.2089577615261078,
      0.02390483394265175,
      -1.514594316482544,
      -1.3314069509506226,
      -0.03699984401464462,
      -0.538889467716217,
      -0.6288265585899353,
      0.02038365975022316,
      0.10362790524959564,
      -0.17987188696861267,
      -0.005345404148101807,
      1.2167696952819824,
      -0.5573360919952393,
      0.01229066401720047,
      -0.018462276086211205,
      -0.163355752825737,
      -0.7987054586410522,
      0.055574532598257065,
      0.049755409359931946,
      -1.387319803237915,
      0.40916189551353455,
      0.051351431757211685,
      -0.16859053075313568,
      -0.9157223105430603,
      -0.09540653973817825,
      -0.1528555303812027,
      -0.17396026849746704,
      0.02865968458354473,
      0.05054974555969238,
      0.2572581470012665,
      -0.7153488397598267,
      -0.018181057646870613
    ],
    [
      -0.6183813214302063,
      -0.14546453952789307,
      0.03526374697685242,
      0.03310253843665123,
      -0.17413409054279327,
      0.0006305252900347114,
      -0.00754464091733098,
      -2.041234016418457,
      -0.41415026783943176,
      -0.050557203590869904,
      -0.14148694276809692,
      -0.7276184558868408,
      -0.02062949910759926,
      -1.8100358247756958,
      -0.9327159523963928,
      -0.0664992704987526,
      0.005279580596834421,
      -1.836058497428894,
      -2.838961124420166,
      0.06923884153366089,
      -0.4730408489704132,
      -0.783625066280365,
      -0.01737944781780243,
      0.4569240212440491,
      -0.11012299358844757,
      -0.17107968032360077,
      -0.053438276052474976,
      -2.113968849182129,
      -2.8944790363311768,
      -2.2930572032928467,
      -0.41685864329338074,
      -1.5403306484222412
    ],
    [
      -2.6206910610198975,
      -0.051423847675323486,
      0.11477276682853699,
      0.1678479164838791,
      -0.04743962734937668,
      0.004198113922029734,
      0.021922659128904343,
      -0.2884804308414459,
      -0.450785756111145,
      -0.057913925498723984,
      -0.3004692494869232,
      -0.7838141322135925,
      0.04212673008441925,
      -0.14769411087036133,
      -0.022666392847895622,
      -0.03323686122894287,
      0.1407698094844818,
      -0.5876157879829407,
      -0.17916864156723022,
      0.05236274003982544,
      -3.030407428741455,
      -3.0101242065429688,
      -0.05833461508154869,
      0.010414766147732735,
      -0.07095695286989212,
      -0.015800371766090393,
      -0.043185312300920486,
      -0.11708766967058182,
      -0.26762712001800537,
      -0.26888424158096313,
      -1.884544014930725,
      -0.08593416213989258
    ],
    [
      -1.1940014362335205,
      -0.007004003506153822,
      0.03591864928603172,
      0.13346755504608154,
      -0.023208247497677803,
      0.031136563047766685,
      0.02306828461587429,
      -1.7417256832122803,
      -2.9143621921539307,
      -0.06688203662633896,
      -1.5293364524841309,
      -1.5971616506576538,
      0.0022720976267009974,
      -0.24932228028774261,
      0.0031638515647500753,
      -0.09928380697965622,
      -0.008221263065934181,
      -1.9262561798095703,
      -0.46062731742858887,
      0.2684689462184906,
      -1.7484480142593384,
      -2.421480655670166,
      -0.12908294796943665,
      0.2169080376625061,
      -0.10684502869844437,
      0.014574065804481506,
      -0.10317447781562805,
      -0.19725275039672852,
      -0.8093003630638123,
      -0.4304037392139435,
      -1.0360809564590454,
      -0.27345457673072815
    ],
    [
      -0.17039790749549866,
      -0.006630064453929663,
      -0.07981635630130768,
      -0.13995638489723206,
      0.09282699972391129,
      -0.10947293788194656,
      -0.04678499698638916,
      0.008388004265725613,
      -0.023192696273326874,
      -0.024146147072315216,
      -0.023396190255880356,
      -0.08032139390707016,
      -0.13097305595874786,
      -0.07553067058324814,
      0.0040671927854418755,
      -0.05224606767296791,
      0.12491609156131744,
      -0.006541767157614231,
      -0.15719379484653473,
      -0.05955995246767998,
      0.004715064540505409,
      0.008202916011214256,
      0.013326792046427727,
      -0.1109628677368164,
      -0.16069713234901428,
      0.02772238850593567,
      -0.05007891729474068,
      0.03395773097872734,
      0.038295868784189224,
      -0.0875893086194992,
      0.039102546870708466,
      -0.08395302295684814
    ],
    [
      -0.6552441120147705,
      -1.876655101776123,
      -0.10413514822721481,
      -0.09677772223949432,
      -2.052173376083374,
      -0.024741310626268387,
      -0.0006188222323544323,
      -2.3045315742492676,
      -0.7267348766326904,
      -0.02577630616724491,
      -0.38919052481651306,
      -0.4950968027114868,
      -0.032114576548337936,
      -2.673372268676758,
      -2.8300373554229736,
      -0.06390334665775299,
      -0.04161221534013748,
      -2.393228054046631,
      -0.5312549471855164,
      0.030569791793823242,
      -0.48095637559890747,
      -1.0514075756072998,
      0.004535124637186527,
      0.377579003572464,
      -0.008060491643846035,
      0.08358944952487946,
      0.01541976723819971,
      -2.0059397220611572,
      -2.316632032394409,
      -1.8372703790664673,
      -0.3100687563419342,
      -0.4122883081436157
    ],
    [
      -0.1551310420036316,
      -0.07909946143627167,
      -0.06085841357707977,
      -0.07833405584096909,
      0.49235770106315613,
      0.0027100953739136457,
      0.0022846669889986515,
      -0.05594746768474579,
      -0.0951068103313446,
      -0.18087725341320038,
      -1.0274330377578735,
      0.36033520102500916,
      0.03969185799360275,
      -0.0929056853055954,
      -0.16019770503044128,
      -0.23007236421108246,
      0.002875875448808074,
      -0.017644532024860382,
      -0.05239228159189224,
      -0.0647820457816124,
      -0.07000405341386795,
      -0.05129702389240265,
      -0.21400809288024902,
      -0.16635535657405853,
      -0.33886170387268066,
      -0.015657678246498108,
      -0.23738299310207367,
      -0.08133355528116226,
      -0.0035737231373786926,
      -0.18712837994098663,
      1.5192245244979858,
      -0.058147210627794266
    ],
    [
      0.4255220592021942,
      0.16308926045894623,
      0.10395817458629608,
      0.28537434339523315,
      0.03842166066169739,
      -0.15536344051361084,
      -0.15221796929836273,
      0.018479378893971443,
      0.14126017689704895,
      -0.2877464294433594,
      0.07031384855508804,
      1.3741638660430908,
      -0.15873505175113678,
      0.19207267463207245,
      0.03887562453746796,
      -0.16066190600395203,
      -0.02744116820394993,
      0.0775621309876442,
      0.16067573428153992,
      0.18054047226905823,
      0.2776699364185333,
      0.19834552705287933,
      -0.21246591210365295,
      0.15813373029232025,
      -0.1621171087026596,
      0.024488791823387146,
      -0.17354503273963928,
      0.1531284749507904,
      0.04959028959274292,
      0.277028352022171,
      0.3987944722175598,
      0.016448214650154114
    ],
    [
      -0.3380548357963562,
      -0.09640628844499588,
      0.0366009883582592,
      0.0019012768752872944,
      -0.06146422401070595,
      0.0070985546335577965,
      0.05320799723267555,
      -0.057733140885829926,
      -0.8403047919273376,
      0.12082917988300323,
      -0.4008305072784424,
      -0.9931597113609314,
      0.06630418449640274,
      -0.12656404078006744,
      -0.10473935306072235,
      0.08526579290628433,
      0.03335808590054512,
      -0.06712120026350021,
      -0.0351671427488327,
      0.07914338260889053,
      -3.0178472995758057,
      -0.08328058570623398,
      0.1680435836315155,
      -0.06140691041946411,
      0.13888894021511078,
      -0.1495213508605957,
      0.19937829673290253,
      -0.20183850824832916,
      -0.009071891196072102,
      -0.3834798038005829,
      -0.8229750394821167,
      -0.014924379996955395
    ],
    [
      -0.4347287118434906,
      -0.08753716200590134,
      0.0598679855465889,
      0.007873819209635258,
      -0.07006217539310455,
      -0.04908433556556702,
      0.06388077884912491,
      -0.06576251983642578,
      -1.6666330099105835,
      0.14604048430919647,
      -0.5466985106468201,
      -1.1860288381576538,
      -0.015040098689496517,
      -0.12456509470939636,
      -0.12730632722377777,
      0.1995650976896286,
      0.006092336494475603,
      -0.013474835082888603,
      -0.059093721210956573,
      0.07855457067489624,
      -2.8984289169311523,
      -0.09079636633396149,
      0.175187349319458,
      -0.1259080469608307,
      0.20134666562080383,
      -0.17036086320877075,
      0.20291519165039062,
      -0.2812623083591461,
      -0.047242190688848495,
      -0.5069846510887146,
      -1.0605695247650146,
      -0.030128346756100655
    ],
    [
      0.4689018130302429,
      0.10281579941511154,
      -0.11124611645936966,
      0.10604982078075409,
      0.043349068611860275,
      -0.15119609236717224,
      -0.12950552999973297,
      0.0138630922883749,
      0.15406309068202972,
      -0.16382288932800293,
      0.09709305316209793,
      0.7257328629493713,
      -0.2017556130886078,
      0.07466839253902435,
      -0.03888992965221405,
      -0.146403506398201,
      -0.10867691785097122,
      -0.0237368643283844,
      0.20833149552345276,
      0.00599020067602396,
      0.4885581433773041,
      0.3345087468624115,
      -0.13838446140289307,
      -0.0889074057340622,
      -0.01195733342319727,
      -0.13260304927825928,
      -0.1893177330493927,
      0.07268026471138,
      -0.03273433446884155,
      0.356294184923172,
      0.5021516680717468,
      0.02568771503865719
    ],
    [
      -0.1666957437992096,
      -0.009813455864787102,
      0.03522893413901329,
      0.030441448092460632,
      -0.006688376888632774,
      0.025552839040756226,
      0.03413351997733116,
      -0.09890840202569962,
      -0.024024397134780884,
      0.1782253384590149,
      -0.027734534814953804,
      -1.902777075767517,
      0.024528993293642998,
      -0.033865366131067276,
      -0.012974368408322334,
      0.1933428943157196,
      0.036161988973617554,
      -0.08451307564973831,
      -0.0887361541390419,
      0.012876290827989578,
      -0.07839978486299515,
      -0.08072181791067123,
      0.1800219714641571,
      -0.16121836006641388,
      0.20941486954689026,
      0.10689659416675568,
      0.18943671882152557,
      -0.006639257539063692,
      -0.07975691556930542,
      0.6643294095993042,
      -0.2649034261703491,
      0.6496556997299194
    ],
    [
      -1.668770432472229,
      -0.0001751681265886873,
      0.20814722776412964,
      0.19687430560588837,
      -0.007221118081361055,
      0.1744372546672821,
      0.06977125257253647,
      -0.10499364882707596,
      -0.13232284784317017,
      0.0011487029260024428,
      -0.044504158198833466,
      -0.6471954584121704,
      0.15317411720752716,
      -0.030619369819760323,
      -0.021828001365065575,
      0.03458666056394577,
      0.18098412454128265,
      -0.17354148626327515,
      -0.05310988053679466,
      0.0025476443115621805,
      -1.2978161573410034,
      -0.4847860038280487,
      0.04053930938243866,
      0.06930085271596909,
      0.04891752824187279,
      0.00860777497291565,
      0.0009816219098865986,
      -0.05827620252966881,
      -0.10739164799451828,
      -0.19916164875030518,
      -2.470977306365967,
      -0.028844844549894333
    ]
  ],
  "fc2.bias": [
    0.20938415825366974,
    0.4980052411556244,
    0.4145204722881317,
    0.42169198393821716,
    0.5131305456161499,
    0.348407506942749,
    -0.3771745264530182,
    -0.37130868434906006,
    0.27920761704444885,
    0.3919767141342163,
    0.34981656074523926,
    -0.15518848598003387,
    0.496096134185791,
    -0.24002304673194885,
    0.397968590259552,
    0.03719346597790718,
    0.3749946057796478,
    -0.2353140115737915,
    0.002202505012974143,
    0.35658055543899536,
    0.26014381647109985,
    0.4640657603740692,
    0.4308532476425171,
    -0.23818439245224,
    0.3244333863258362,
    0.07795504480600357,
    -0.22235828638076782,
    0.39522916078567505,
    0.45255255699157715,
    -0.03006426990032196,
    -0.39039933681488037,
    0.3130425810813904
  ],
  "fc3.weight": [
    [
      -0.06979109346866608,
      0.13371624052524567,
      0.1596953570842743,
      0.46084725856781006,
      0.21840675175189972,
      -0.22538013756275177,
      -0.2631785273551941,
      -0.41368359327316284,
      -0.2650202512741089,
      0.3149861693382263,
      0.18836674094200134,
      -0.06818731129169464,
      0.2250841110944748,
      -0.19857707619667053,
      0.4302210211753845,
      -0.06507077068090439,
      0.17901210486888885,
      0.02200535498559475,
      -0.21163488924503326,
      -0.12037219852209091,
      0.9998526573181152,
      0.2591140866279602,
      0.4997456967830658,
      0.07968109101057053,
      0.9240929484367371,
      -0.4125727713108063,
      -0.06897128373384476,
      0.20828455686569214,
      0.18500211834907532,
      -0.06522348523139954,
      -0.3819870054721832,
      0.19312290847301483
    ]
  ],
  "fc3.bias": [
    -0.10302191972732544
  ]
}