{
  "fc1.weight": [
    [
      0.331370085477829,
      0.42267778515815735
    ],
    [
      -0.09100589156150818,
      -0.1846388429403305
    ],
    [
      0.019993813708424568,
      -0.5847472548484802
    ],
    [
      0.02832190692424774,
      -0.5292060375213623
    ],
    [
      -0.1118653416633606,
      -0.6247655153274536
    ],
    [
      0.09395787119865417,
      -0.6427791714668274
    ],
    [
      0.1705988496541977,
      0.19565720856189728
    ],
    [
      -0.15138110518455505,
      -0.11184844374656677
    ],
    [
      -0.03846024349331856,
      -0.6413335800170898
    ],
    [
      0.10857503116130829,
      0.24596236646175385
    ],
    [
      -0.8528064489364624,
      -0.1224164366722107
    ],
    [
      0.21629229187965393,
      -0.8221257925033569
    ],
    [
      0.616263747215271,
      0.617202877998352
    ],
    [
      -0.5191368460655212,
      0.114230215549469
    ],
    [
      -0.5997824668884277,
      -0.08547218143939972
    ],
    [
      0.10870002955198288,
      0.2707180678844452
    ],
    [
      -0.45539000630378723,
      -0.11396272480487823
    ],
    [
      -0.3297450542449951,
      0.010619163513183594
    ],
    [
      -0.42566972970962524,
      0.051129069179296494
    ],
    [
      0.3886414170265198,
      0.3758002817630768
    ],
    [
      -0.6608704328536987,
      -0.13735486567020416
    ],
    [
      0.10900752246379852,
      0.2267889529466629
    ],
    [
      0.15280282497406006,
      0.20038481056690216
    ],
    [
      0.0625159740447998,
      -0.5318528413772583
    ],
    [
      0.26556727290153503,
      0.37216854095458984
    ],
    [
      -0.017347276210784912,
      -0.23358666896820068
    ],
    [
      0.1933784931898117,
      0.4276687502861023
    ],
    [
      -0.18386715650558472,
      0.07943481206893921
    ],
    [
      -0.12446998804807663,
      -0.3435417115688324
    ],
    [
      -0.3882865905761719,
      -0.12178592383861542
    ],
    [
      0.23703725636005402,
      0.35031819343566895
    ],
    [
      -0.6471459269523621,
      0.09125031530857086
    ]
  ],
  "fc1.bias": [
    0.6923238039016724,
    0.1005692332983017,
    -0.6039278507232666,
    -0.6409152150154114,
    -0.2743857204914093,
    -0.8642572164535522,
    0.14321953058242798,
    0.14524014294147491,
    -0.5418272614479065,
    0.40325626730918884,
    -0.0538942925632,
    -0.743614137172699,
    0.012668339535593987,
    -0.5574847459793091,
    -0.6210042834281921,
    0.437673956155777,
    -0.2552841901779175,
    -0.6993550658226013,
    -0.6497005224227905,
    0.15518684685230255,
    -0.5082482695579529,
    0.31452563405036926,
    0.23104459047317505,
    -0.8419200778007507,
    0.33539634943008423,
    -0.6131184697151184,
    0.5757426023483276,
    -0.6258679628372192,
    0.012999924831092358,
    -0.08128752559423447,
    0.4097939729690552,
    -0.9015437960624695
  ],
  "fc2.weight": [
    [
      -0.02568134106695652,
      -0.16294601559638977,
      -3.058830976486206,
      -2.9170045852661133,
      -0.4207025170326233,
      -1.7414512634277344,
      0.1485671103000641,
      -0.12756097316741943,
      -1.5799378156661987,
      0.00893079861998558,
      0.024997564032673836,
      -0.09872754663228989,
      0.052905455231666565,
      -0.19198152422904968,
      -0.8440731763839722,
      -0.014628024771809578,
      -0.10147611796855927,
      -0.06647392362356186,
      -2.826547145843506,
      0.09116075932979584,
      -0.20790870487689972,
      0.015090856701135635,
      0.020468952134251595,
      -1.0053207874298096,
      0.029378557577729225,
      -0.13757973909378052,
      0.009792223572731018,
      -0.09491657465696335,
      -0.1971970796585083,
      -0.07747171074151993,
      0.026125332340598106,
      -0.8982284069061279
    ],
    [
      0.005322504788637161,
      -0.4788053631782532,
      -2.124514579772949,
      -0.9757327437400818,
      -2.8645901679992676,
      -0.4460127055644989,
      -0.007222119253128767,
      -0.33068785071372986,
      -2.996513843536377,
      -0.0010296870023012161,
      -0.2124209851026535,
      -0.2916845679283142,
      -0.004683820530772209,
      -1.3935294151306152,
      -1.2493722438812256,
      0.012722772546112537,
      -4.573836326599121,
      -0.13736596703529358,
      -0.4087841212749481,
      -0.001919195638038218,
      -2.3155694007873535,
      0.01807498373091221,
      -0.0022019920870661736,
      -0.3608752489089966,
      -0.00856162142008543,
      0.1691587120294571,
      0.0055520301684737206,
      -0.12893612682819366,
      -0.7728397846221924,
      -1.292870044708252,
      -0.014263167977333069,
      -1.2104170322418213
    ],
    [
      -0.018140845000743866,
      -0.1253000646829605,
      -1.6922775506973267,
      -3.2494406700134277,
      -0.2177647203207016,
      -2.3061559200286865,
      0.10841206461191177,
      -0.0895509123802185,
      -0.5910413265228271,
      0.0066713751293718815,
      -0.023231113329529762,
      -0.13999219238758087,
      0.06715545058250427,
      -0.19841784238815308,
      -0.7857002019882202,
      0.005171841010451317,
      -0.12945672869682312,
      0.02440302073955536,
      -3.226506471633911,
      0.060573775321245193,
      -0.17578117549419403,
      0.003522162791341543,
      0.08466474711894989,
      -1.3343290090560913,
      0.06109770014882088,
      -0.0460953563451767,
      0.000777566572651267,
      -0.15375466644763947,
      -0.11095082014799118,
      -0.08439204096794128,
      0.034989915788173676,
      -0.8102282285690308
    ],
    [
      -0.14678631722927094,
      -0.10897818207740784,
      0.01913575269281864,
      -0.12430267035961151,
      0.004565210547298193,
      0.11694508790969849,
      0.13836230337619781,
      -0.10441432893276215,
      0.05597846582531929,
      -0.0651710107922554,
      -0.17364218831062317,
      -0.13455134630203247,
      0.055396322160959244,
      -0.1327769011259079,
      -0.017023758962750435,
      -0.1561846137046814,
      -0.16645751893520355,
      0.09348012506961823,
      -0.053461406379938126,
      -0.1588536649942398,
      -0.013744713738560677,
      -0.20560415089130402,
      0.08351044356822968,
      0.031133504584431648,
      -0.06965909153223038,
      -0.09564442932605743,
      -0.12528814375400543,
      0.14164124429225922,
      -0.020555438473820686,
      0.06928528845310211,
      -0.09586934000253677,
      0.009779738262295723
    ],
    [
      -0.03379394859075546,
      -0.11255753040313721,
      -0.6674174666404724,
      -1.8869879245758057,
      -0.07965424656867981,
      -2.623903274536133,
      0.11004706472158432,
      -0.11236743628978729,
      -0.2068178802728653,
      0.012342271395027637,
      -0.08989737182855606,
      -0.11518093943595886,
      0.0604216530919075,
      -0.331348717212677,
      -2.2263100147247314,
      0.02171056531369686,
      -0.18634018301963806,
      -0.11858727782964706,
      -2.914130210876465,
      0.05716049671173096,
      -0.3376499116420746,
      0.06273795664310455,
      0.06537745147943497,
      -2.0484619140625,
      0.07561016082763672,
      0.14775685966014862,
      0.04823506250977516,
      0.102837935090065,
      -0.08833388239145279,
      -0.09863809496164322,
      0.05555369704961777,
      -1.0547271966934204
    ],
    [
      -0.03230123221874237,
      -0.0976615771651268,
      -1.8752833604812622,
      -3.410628318786621,
      -0.12350478023290634,
      -2.259248733520508,
      0.08271081745624542,
      -0.08491818606853485,
      -0.4581095576286316,
      0.045790329575538635,
      -0.07911708950996399,
      -0.1776411533355713,
      0.03444740176200867,
      -0.35307827591896057,
      -3.685525894165039,
      0.0007919817580841482,
      -0.4261692762374878,
      -0.017206326127052307,
      -1.4042466878890991,
      0.031705982983112335,
      -1.0892795324325562,
      0.04252085089683533,
      0.07028210908174515,
      -1.1167759895324707,
      0.05763021111488342,
      0.018870308995246887,
      0.0154360206797719,
      0.03192815184593201,
      -0.07142353802919388,
      -0.14287245273590088,
      0.04915327951312065,
      -1.8099870681762695
    ],
    [
      -0.013712998479604721,
      0.07850409299135208,
      0.3232709467411041,
      0.42011335492134094,
      0.08619699627161026,
      0.6552074551582336,
      -0.16823135316371918,
      0.03773228079080582,
      0.23206062614917755,
      -0.023686572909355164,
      -0.014483792707324028,
      -0.06121319159865379,
      -0.30520302057266235,
      0.2480447143316269,
      0.4157252013683319,
      0.001214901334606111,
      0.13225466012954712,
      -0.15305674076080322,
      1.1549456119537354,
      -0.18143311142921448,
      0.18160560727119446,
      -0.02344350703060627,
      -0.06253288686275482,
      1.1326349973678589,
      -0.04562066122889519,
      0.1407506912946701,
      -0.019748162478208542,
      -0.146188423037529,
      0.056488677859306335,
      0.04940365254878998,
      -0.026639223098754883,
      0.5708306431770325
    ],
    [
      -0.004095578100532293,
      0.013723034411668777,
      0.3235178589820862,
      0.5007727146148682,
      0.12206058949232101,
      0.7052168846130371,
      -0.13231433928012848,
      -0.035412855446338654,
      0.19203174114227295,
      -0.0217724796384573,
      -0.024727385491132736,
      -0.03577636554837227,
      -0.23241782188415527,
      0.18541891872882843,
      0.33456185460090637,
      -0.029264651238918304,
      0.13664719462394714,
      0.009854376316070557,
      1.181109070777893,
      -0.1354079246520996,
      0.22336846590042114,
      -0.010972687043249607,
      -0.09941313415765762,
      1.0483397245407104,
      -0.03470978885889053,
      0.12173308432102203,
      -0.01789121702313423,
      -0.018959954380989075,
      0.057212118059396744,
      0.11865613609552383,
      -0.034738797694444656,
      0.5813623666763306
    ],
    [
      -0.045877695083618164,
      0.03672938048839569,
      0.2685544192790985,
      0.6236117482185364,
      0.092513307929039,
      0.6540309190750122,
      -0.33685997128486633,
      0.06666267663240433,
      0.217072993516922,
      -0.05400446429848671,
      -0.026021981611847878,
      -0.03167678043246269,
      -0.7948129773139954,
      0.2787727117538452,
      0.4310155212879181,
      -0.007696469314396381,
      0.1014188900589943,
      0.09083543717861176,
      1.221608281135559,
      -0.3766420781612396,
      0.2249564379453659,
      -0.05626600608229637,
      -0.10959441214799881,
      0.8461485505104065,
      -0.07654184848070145,
      -0.136826753616333,
      -0.005365434568375349,
      0.04118417203426361,
      0.046496957540512085,
      0.03548036515712738,
      -0.021543702110648155,
      0.4494760036468506
    ],
    [
      -0.023034587502479553,
      0.057565100491046906,
      0.38809341192245483,
      0.42141103744506836,
      0.10451126098632812,
      0.7341499328613281,
      -0.24233731627464294,
      -0.0024597407318651676,
      0.22421683371067047,
      -0.06922847777605057,
      -0.019792107865214348,
      -0.025399764999747276,
      -0.3320336639881134,
      0.2177320271730423,
      0.441638708114624,
      -0.00014550058403983712,
      0.18704959750175476,
      0.13864658772945404,
      1.2844125032424927,
      -0.2102721780538559,
      0.21293556690216064,
      -0.03313261270523071,
      -0.11598251014947891,
      0.890605628490448,
      -0.08359943330287933,
      0.04550725221633911,
      -0.012739135883748531,
      -0.09309566766023636,
      0.05607911944389343,
      0.1099311038851738,
      -0.035504914820194244,
      0.6367326974868774
    ],
    [
      -0.011822646483778954,
      -0.019076760858297348,
      -0.2348179966211319,
      -0.39229893684387207,
      -0.024616682901978493,
      -0.4009971022605896,
      -0.07904689013957977,
      -0.011067014187574387,
      -0.09728702157735825,
      0.01126820407807827,
      0.44664791226387024,
      0.7807589769363403,
      -0.27777013182640076,
      -0.1354968249797821,
      -0.2039269357919693,
      0.0040795705281198025,
      -0.09195631742477417,
      -0.10678325593471527,
      0.4298960864543915,
      -0.23362435400485992,
      -0.12175830453634262,
      0.005499932449311018,
      -0.005268223118036985,
      -0.1313779652118683,
      -0.03657453879714012,
      -0.04932354390621185,
      0.011229204013943672,
      0.14866261184215546,
      -0.014020641334354877,
      -0.07954590767621994,
      -0.011295423842966557,
      -0.2515256404876709
    ],
    [
      0.004240404814481735,
      -0.14396129548549652,
      -3.6177263259887695,
      -2.1595118045806885,
      -0.4577392637729645,
      -1.1520705223083496,
      0.0537523590028286,
      -0.07706479728221893,
      -2.9637110233306885,
      0.02210308611392975,
      -0.0964539498090744,
      -0.34649285674095154,
      0.047910790890455246,
      -0.4315958321094513,
      -2.84309458732605,
      0.024568503722548485,
      -0.7639209032058716,
      -0.03080245852470398,
      -1.112938642501831,
      0.05308249220252037,
      -3.1618130207061768,
      0.023267609998583794,
      0.0462547168135643,
      -0.5256361961364746,
      0.03487641364336014,
      -0.052204035222530365,
      0.0020971731282770634,
      -0.07142392545938492,
      -0.19675539433956146,
      -0.22908733785152435,
      0.028189796954393387,
      -1.9326967000961304
    ],
    [
      -0.018439795821905136,
      -0.08599934726953506,
      -1.427024245262146,
      -3.1637470722198486,
      -0.17696543037891388,
      -2.4340062141418457,
      0.1248779296875,
      -0.08841267973184586,
      -0.4906909167766571,
      0.03428872302174568,
      -0.043003473430871964,
      -0.12407303601503372,
      0.04278220981359482,
      -0.2622974216938019,
      -0.937903881072998,
      0.0468984991312027,
      -0.11660340428352356,
      0.021626725792884827,
      -3.31510591506958,
      0.06672433763742447,
      -0.2184133231639862,
      0.04549093544483185,
      0.05057789757847786,
      -1.3944913148880005,
      0.06846757978200912,
      0.08185069262981415,
      0.017641233280301094,
      0.02311865985393524,
      -0.0832308903336525,
      -0.08266233652830124,
      0.031143059954047203,
      -0.7913667559623718
    ],
    [
      0.6865549087524414,
      0.18415236473083496,
      -0.2228376865386963,
      -0.2645997405052185,
      -0.004754179622977972,
      -0.3402513861656189,
      -0.17217257618904114,
      0.15836116671562195,
      -0.11243142932653427,
      -0.06540738791227341,
      0.019721657037734985,
      -0.03171470761299133,
      -0.08662766218185425,
      -0.10597538948059082,
      -0.2894020974636078,
      -0.06828730553388596,
      -0.0017748079262673855,
      0.055873215198516846,
      -0.6925737857818604,
      -0.09932921826839447,
      -0.05126342549920082,
      -0.08805495500564575,
      -0.13829202950000763,
      -1.1890003681182861,
      -0.08851242810487747,
      -0.14578378200531006,
      -0.047841910272836685,
      -0.02015163004398346,
      0.10642966628074646,
      0.08444458246231079,
      -0.07403155416250229,
      -0.15623527765274048
    ],
    [
      -0.011513042263686657,
      -0.10195677727460861,
      -3.803497791290283,
      -2.000731945037842,
      -0.4355941712856293,
      -1.0256184339523315,
      0.09515367448329926,
      -0.10062425583600998,
      -3.17891263961792,
      -0.0075800796039402485,
      -0.06610585749149323,
      -0.3933037221431732,
      0.02836296334862709,
      -0.525895357131958,
      -2.7454192638397217,
      -0.023169342428445816,
      -0.5916545391082764,
      0.11909283697605133,
      -1.0327421426773071,
      0.04671616479754448,
      -2.4060537815093994,
      0.0204398725181818,
      0.04096803069114685,
      -0.5290467143058777,
      0.04147723317146301,
      -0.15482394397258759,
      0.01432295236736536,
      -0.08740323036909103,
      -0.16086457669734955,
      -0.1747736781835556,
      0.009823130443692207,
      -2.2572994232177734
    ],
    [
      -0.017224280163645744,
      -2.034193515777588,
      -0.7245867848396301,
      -0.4440355598926544,
      -2.5613155364990234,
      -0.4738394320011139,
      -0.04963979870080948,
      -1.6106752157211304,
      -0.9973323345184326,
      -0.002604436594992876,
      -1.2259526252746582,
      -1.8253252506256104,
      -0.025134658440947533,
      -1.786534309387207,
      -0.6384264826774597,
      9.687794954515994e-05,
      -2.3285796642303467,
      0.10826285183429718,
      -0.25301581621170044,
      -0.029069242998957634,
      -0.7543301582336426,
      -0.013785846531391144,
      -0.021561279892921448,
      -0.36341339349746704,
      -0.02640439011156559,
      -0.07162747532129288,
      -0.008926387876272202,
      -0.09798552095890045,
      -4.554987907409668,
      -4.142833232879639,
      -0.01354447565972805,
      -0.49283620715141296
    ],
    [
      -0.2039695382118225,
      -0.019096963107585907,
      -0.05659574270248413,
      -0.12158843874931335,
      -0.07432607561349869,
      -0.16465429961681366,
      -0.130064457654953,
      -0.00391357159242034,
      -0.09676232188940048,
      -0.25707969069480896,
      -1.793500268831849e-05,
      0.1320730596780777,
      -0.5680286884307861,
      0.12227186560630798,
      -0.14817458391189575,
      -0.33132559061050415,
      -0.01754586584866047,
      -0.06019994616508484,
      -0.8366444706916809,
      -0.687109112739563,
      -0.029819242656230927,
      -0.4583052694797516,
      -2.444150924682617,
      0.23808211088180542,
      -1.6806674003601074,
      -0.004105016589164734,
      -0.5195824503898621,
      0.03694353997707367,
      -0.034901779145002365,
      -0.028279101476073265,
      -1.8714840412139893,
      0.006859155371785164
    ],
    [
      -0.0328981839120388,
      0.009797030128538609,
      -0.07817408442497253,
      0.01162051036953926,
      -0.1650976985692978,
      0.05614278092980385,
      0.10626789182424545,
      0.012182545848190784,
      -0.14297185838222504,
      -0.06676045805215836,
      -0.09807244688272476,
      -0.022224431857466698,
      -0.005726337432861328,
      -0.14196304976940155,
      0.11522091180086136,
      -0.17488636076450348,
      -0.13096265494823456,
      -0.1211337074637413,
      0.13046200573444366,
      -0.13787515461444855,
      -0.0003443964815232903,
      -0.1445886343717575,
      0.047116026282310486,
      -0.17595665156841278,
      -0.0859537124633789,
      0.08952562510967255,
      -0.10093313455581665,
      0.029547452926635742,
      0.048238180577754974,
      0.01936686597764492,
      -0.1018054410815239,
      -0.11120311915874481
    ],
    [
      -0.031550172716379166,
      0.04618644341826439,
      0.2243335098028183,
      0.44255614280700684,
      0.010325659066438675,
      0.3852161169052124,
      -0.346723347902298,
      0.02538924477994442,
      0.09785212576389313,
      -0.05454900488257408,
      -0.016844702884554863,
      -0.04436415806412697,
      -0.12171651422977448,
      -0.22849582135677338,
      -0.00815456174314022,
      -0.029524389654397964,
      0.09468615800142288,
      -0.11184108257293701,
      -0.16278353333473206,
      -0.03759457916021347,
      0.07966504991054535,
      -0.0932038277387619,
      -0.2057131975889206,
      0.9071314334869385,
      -0.15759477019309998,
      0.16520102322101593,
      -0.03761361166834831,
      0.13465549051761627,
      0.058600131422281265,
      0.06251780688762665,
      -0.09827789664268494,
      1.5435824394226074
    ],
    [
      -0.0076437536627054214,
      -0.24539439380168915,
      -2.901735305786133,
      -2.1326699256896973,
      -0.38637810945510864,
      -1.0128777027130127,
      0.056301336735486984,
      -0.20041027665138245,
      -1.6605165004730225,
      0.022315558046102524,
      -0.16855579614639282,
      -0.022051138803362846,
      0.02324402891099453,
      -0.6738847494125366,
      -1.9039726257324219,
      0.01632510870695114,
      -2.268449544906616,
      -0.05881316214799881,
      -0.6604543924331665,
      0.0480765700340271,
      -3.8626773357391357,
      0.04415595158934593,
      0.04879153147339821,
      -0.33594685792922974,
      0.01893608458340168,
      0.1188647598028183,
      0.029102914035320282,
      -0.03628672659397125,
      -0.21650446951389313,
      -0.6009367108345032,
      0.028688794001936913,
      -2.0478672981262207
    ],
    [
      -0.605962336063385,
      -0.0052214437164366245,
      -0.15693381428718567,
      -0.20713813602924347,
      -0.04050718992948532,
      -0.026205210015177727,
      -0.18649227917194366,
      -0.01759978011250496,
      -0.08779125660657883,
      -1.3148058652877808,
      -0.025606021285057068,
      -0.0440763384103775,
      -0.2789864242076874,
      -0.12246043235063553,
      -0.12712806463241577,
      -1.5949606895446777,
      -0.05967748910188675,
      -0.025770753622055054,
      -0.7987880110740662,
      -0.25753891468048096,
      -0.04265712574124336,
      -1.7633947134017944,
      -1.6028562784194946,
      0.06205906346440315,
      -0.7110854983329773,
      0.12559254467487335,
      -3.2058331966400146,
      0.10547871887683868,
      -0.01887776516377926,
      -0.04023855924606323,
      -2.4605026245117188,
      -0.3473200500011444
    ],
    [
      -0.0196512620896101,
      -0.3698215186595917,
      -2.004150152206421,
      -0.8574865460395813,
      -4.183229923248291,
      -0.4736206531524658,
      0.019369665533304214,
      -0.2298814058303833,
      -2.963183641433716,
      0.0062950532883405685,
      -0.08706161379814148,
      -0.38782814145088196,
      -0.01938784122467041,
      -0.8396627902984619,
      -1.3341280221939087,
      -0.010945412330329418,
      -3.792907238006592,
      0.13935481011867523,
      -0.4631158113479614,
      0.016488730907440186,
      -2.9361093044281006,
      0.016087627038359642,
      0.0074044871143996716,
      -0.36868295073509216,
      -0.002325290348380804,
      0.17210786044597626,
      0.002043170155957341,
      -0.09935556352138519,
      -0.694757878780365,
      -0.7886223196983337,
      -0.010464545339345932,
      -1.508300542831421
    ],
    [
      -0.022947363555431366,
      -0.2201724499464035,
      -3.2201855182647705,
      -1.6139394044876099,
      -0.6311020851135254,
      -0.998181939125061,
      0.09398666769266129,
      -0.15083946287631989,
      -3.5726654529571533,
      0.03055206686258316,
      -0.07506794482469559,
      -0.21580617129802704,
      0.038711633533239365,
      -0.43107181787490845,
      -2.557210683822632,
      0.003729019546881318,
      -0.9494302868843079,
      0.0509871244430542,
      -0.963714063167572,
      0.037739966064691544,
      -3.7418932914733887,
      0.027735399082303047,
      0.02278922311961651,
      -0.3036024272441864,
      0.0062646325677633286,
      0.12810112535953522,
      0.0027323414105921984,
      0.08403913676738739,
      -0.2867504060268402,
      -0.3564406633377075,
      0.021643174812197685,
      -1.9654762744903564
    ],
    [
      0.009569366462528706,
      -0.8828023076057434,
      -1.3366013765335083,
      -0.4031864404678345,
      -3.8655097484588623,
      -0.3690039813518524,
      -0.040659766644239426,
      -0.6081744432449341,
      -2.032639980316162,
      0.013950896449387074,
      -0.33066263794898987,
      -0.42498376965522766,
      -0.02032656781375408,
      -2.0302844047546387,
      -0.5979573130607605,
      0.008302748203277588,
      -3.3941664695739746,
      -0.16947002708911896,
      -0.10474032908678055,
      -0.018459321931004524,
      -1.2391159534454346,
      0.0008924774592742324,
      -0.028896404430270195,
      -0.12410246580839157,
      -0.0006554418941959739,
      -0.06034351885318756,
      0.006704040803015232,
      -0.07791963964700699,
      -1.5082736015319824,
      -3.798945188522339,
      0.008573377504944801,
      -0.8408750891685486
    ],
    [
      -0.017796872183680534,
      0.0250431839376688,
      0.15465091168880463,
      0.4273408055305481,
      0.03394478186964989,
      0.3750213086605072,
      -0.179446741938591,
      0.011059632524847984,
      0.13355669379234314,
      -0.06358455866575241,
      -0.022702699527144432,
      -0.03284770995378494,
      -0.05550020560622215,
      0.5135574340820312,
      0.279148131608963,
      -0.0486331582069397,
      0.0613086000084877,
      0.14677797257900238,
      1.5981769561767578,
      -0.004504375159740448,
      0.020785050466656685,
      -0.06939445436000824,
      -0.13331180810928345,
      0.8178264498710632,
      -0.07695816457271576,
      0.1353108435869217,
      -0.027002323418855667,
      0.0013772547245025635,
      0.034086812287569046,
      0.1026013046503067,
      -0.05797519162297249,
      -0.7299578189849854
    ],
    [
      -0.03989456221461296,
      -0.12385604530572891,
      -0.5425334572792053,
      -1.3159096240997314,
      0.01596316322684288,
      -1.9378573894500732,
      0.10740265250205994,
      -0.16418837010860443,
      -0.13310790061950684,
      0.05030638724565506,
      -0.17384810745716095,
      -0.05819301679730415,
      0.04728960618376732,
      -0.3297300636768341,
      -4.116579532623291,
      0.042367104440927505,
      -0.5025316476821899,
      0.16191305220127106,
      -1.740867257118225,
      0.04396520182490349,
      -1.0325921773910522,
      0.0737970694899559,
      0.09794626384973526,
      -2.235506534576416,
      0.03606582432985306,
      -0.09923235327005386,
      0.028213536366820335,
      -0.12806808948516846,
      -0.11270538717508316,
      -0.19125504791736603,
      0.06764593720436096,
      -1.6226487159729004
    ],
    [
      -0.023081352934241295,
      0.002606077352538705,
      0.3549691140651703,
      0.39072492718696594,
      0.08477536588907242,
      0.7931374907493591,
      -0.18696492910385132,
      -0.00609568040817976,
      0.1828572303056717,
      -0.019617434591054916,
      -0.017850350588560104,
      -0.05725625157356262,
      -0.19704866409301758,
      0.18537500500679016,
      0.43852972984313965,
      -0.041702717542648315,
      0.13424701988697052,
      0.09714789688587189,
      1.177432894706726,
      -0.14055205881595612,
      0.2053782343864441,
      -0.05462213605642319,
      -0.08150582015514374,
      0.8521766662597656,
      -0.05819481983780861,
      -0.16453608870506287,
      -0.03611455485224724,
      -0.04905332624912262,
      0.09389898180961609,
      0.11116217076778412,
      -0.051485102623701096,
      0.5186099410057068
    ],
    [
      -0.031207388266921043,
      -0.1017817035317421,
      -0.6049903035163879,
      -1.9035030603408813,
      -0.03355726599693298,
      -2.669314384460449,
      0.09296928346157074,
      -0.11030658334493637,
      -0.14879395067691803,
      0.034602388739585876,
      -0.08791432529687881,
      -0.1203833594918251,
      0.050758637487888336,
      -0.2936100661754608,
      -2.117445707321167,
      0.038284026086330414,
      -0.1885950267314911,
      0.09451092779636383,
      -2.8322525024414062,
      0.04398534819483757,
      -0.31996405124664307,
      0.018499519675970078,
      0.0971711128950119,
      -1.736126184463501,
      0.06327138841152191,
      0.15924809873104095,
      0.034501515328884125,
      0.16865627467632294,
      -0.05996920168399811,
      -0.10471919924020767,
      0.04285000264644623,
      -0.9391679763793945
    ],
    [
      -0.15672710537910461,
      -0.08908794820308685,
      0.1068849042057991,
      -0.13156233727931976,
      -0.17028182744979858,
      0.0159054696559906,
      0.04655462130904198,
      -0.10207941383123398,
      -0.0008718583267182112,
      -0.00425289710983634,
      -0.06725803762674332,
      0.10487353801727295,
      0.03624698892235756,
      -0.026718657463788986,
      -0.08476192504167557,
      0.05689682066440582,
      -0.06707936525344849,
      0.0751938670873642,
      0.16183100640773773,
      -0.017441289499402046,
      0.14332202076911926,
      -0.1482418030500412,
      -0.131374329328537,
      0.07693808525800705,
      -0.09139434248209,
      0.13481585681438446,
      -0.1730174422264099,
      0.16952981054782867,
      -0.15274719893932343,
      -0.13468870520591736,
      -0.16215740144252777,
      -0.06944224238395691
    ],
    [
      -0.08536943793296814,
      0.036286693066358566,
      0.24727721512317657,
      0.3275291621685028,
      -0.0008848684374243021,
      0.2906219959259033,
      -1.0480352640151978,
      0.032532744109630585,
      0.07523366808891296,
      -0.09898506104946136,
      -0.016281533986330032,
      0.05587198585271835,
      -1.172698736190796,
      0.2563268840312958,
      0.0003404714516364038,
      -0.052273888140916824,
      0.028285035863518715,
      0.08818219602108002,
      -0.2900174558162689,
      -0.2629224956035614,
      0.09696562588214874,
      -0.13646526634693146,
      -0.5225704908370972,
      0.7940815091133118,
      -0.43480488657951355,
      0.14490561187267303,
      -0.07157380133867264,
      0.09863297641277313,
      -0.06485456228256226,
      0.032147958874702454,
      -0.20113414525985718,
      0.6314311027526855
    ],
    [
      -0.10600294917821884,
      0.0059383949264883995,
      0.11135747283697128,
      0.15383684635162354,
      -0.08339954167604446,
      0.3707924783229828,
      -0.26504823565483093,
      -0.015245310962200165,
      -0.017221448943018913,
      -0.13628481328487396,
      -0.0035209795460104942,
      0.037906255573034286,
      -0.921470582485199,
      0.3462491035461426,
      -0.04280576482415199,
      -0.14316299557685852,
      0.007627453189343214,
      0.0963258296251297,
      -0.1508684605360031,
      -0.13312864303588867,
      0.005052529275417328,
      -0.324077844619751,
      -1.2538049221038818,
      0.7447956800460815,
      -1.0662155151367188,
      -0.004079028964042664,
      -0.21661120653152466,
      0.015191033482551575,
      -0.0672001838684082,
      0.0010719092097133398,
      -0.5019926428794861,
      0.013503422029316425
    ],
    [
      -0.028377430513501167,
      -0.04422399401664734,
      0.26379066705703735,
      0.5784215331077576,
      0.11061760038137436,
      0.6474063992500305,
      -0.29896149039268494,
      -0.040560752153396606,
      0.23435744643211365,
      -0.03716946020722389,
      -0.041981879621744156,
      -0.07154756784439087,
      -0.6970915198326111,
      0.15666276216506958,
      0.420562744140625,
      -0.027938850224018097,
      0.11710706353187561,
      -0.10501959919929504,
      1.0105923414230347,
      -0.2590315341949463,
      0.20286771655082703,
      -0.0259090568870306,
      -0.08854158967733383,
      1.120557188987732,
      -0.08480935543775558,
      0.03876234591007233,
      -0.005147234071046114,
      -0.16145387291908264,
      0.03186776489019394,
      0.09518202394247055,
      -0.028795471414923668,
      0.7885857224464417
    ]
  ],
  "fc2.bias": [
    0.37511134147644043,
    0.3984832763671875,
    0.341851145029068,
    -0.0855344608426094,
    0.3366239070892334,
    0.3093441426753998,
    0.12740282714366913,
    0.18261349201202393,
    0.20777644217014313,
    0.17763811349868774,
    -0.35879698395729065,
    0.3445074260234833,
    0.3441578149795532,
    -0.3297745883464813,
    0.3343498110771179,
    0.3023849427700043,
    0.48126477003097534,
    -0.1493971198797226,
    0.17638543248176575,
    0.3263699412345886,
    0.5148325562477112,
    0.36898961663246155,
    0.3458383083343506,
    0.31736063957214355,
    0.13456784188747406,
    0.32549652457237244,
    0.16647277772426605,
    0.3179071247577667,
    -0.19646680355072021,
    0.3376651406288147,
    0.4871976375579834,
    0.24100849032402039
  ],
  "fc3.weight": [
    [
      -0.11617711931467056,
      -0.1891576051712036,
      -0.10942229628562927,
      -0.035335641354322433,
      -0.10487361997365952,
      -0.12212895601987839,
      0.1539033204317093,
      0.15832258760929108,
      0.16327019035816193,
      0.14554840326309204,
      1.4530974626541138,
      -0.1417333483695984,
      -0.12004365772008896,
      -0.4524696171283722,
      -0.1440579891204834,
      -0.48166149854660034,
      0.43565183877944946,
      -0.035836655646562576,
      0.25761672854423523,
      -0.15267601609230042,
      0.5794699788093567,
      -0.18953554332256317,
      -0.13770417869091034,
      -0.3114296495914459,
      0.2591492831707001,
      -0.11850537359714508,
      0.1623767763376236,
      -0.11260174959897995,
      0.0022620016243308783,
      0.21361452341079712,
      0.23740741610527039,
      0.16485339403152466
    ]
  ],
  "fc3.bias": [
    0.1500101089477539
  ]
}