{
  "fc1.weight": [
    [
      0.10292777419090271,
      -0.6409586668014526
    ],
    [
      0.17608167231082916,
      0.3372027277946472
    ],
    [
      -0.20888474583625793,
      -0.24223539233207703
    ],
    [
      -0.25704312324523926,
      -0.48149365186691284
    ],
    [
      -0.06249881535768509,
      -0.17998823523521423
    ],
    [
      0.17976222932338715,
      0.29482030868530273
    ],
    [
      -0.024824514985084534,
      -0.502517580986023
    ],
    [
      0.26623860001564026,
      0.3707417845726013
    ],
    [
      -0.6441298723220825,
      -0.18562822043895721
    ],
    [
      -0.6892268657684326,
      0.13571952283382416
    ],
    [
      0.0434282012283802,
      -0.804529070854187
    ],
    [
      0.3543626070022583,
      0.31880488991737366
    ],
    [
      -0.565041720867157,
      -0.031869076192379
    ],
    [
      0.3938407301902771,
      0.5521394610404968
    ],
    [
      0.04662071168422699,
      -0.3960070312023163
    ],
    [
      -0.5937352776527405,
      -0.023263437673449516
    ],
    [
      -0.13535521924495697,
      -0.10872948914766312
    ],
    [
      -0.011903416365385056,
      -0.8050854206085205
    ],
    [
      -0.04513387009501457,
      -0.413207471370697
    ],
    [
      0.284652441740036,
      0.42323973774909973
    ],
    [
      0.020686030387878418,
      -0.12263917922973633
    ],
    [
      0.03425031900405884,
      -0.7918646931648254
    ],
    [
      -0.8259907960891724,
      -0.23513677716255188
    ],
    [
      -0.5896707773208618,
      0.08431825041770935
    ],
    [
      -0.33508849143981934,
      -0.08419583737850189
    ],
    [
      0.5336353182792664,
      0.5930342674255371
    ],
    [
      0.2860836684703827,
      0.35963156819343567
    ],
    [
      0.16333498060703278,
      0.28096336126327515
    ],
    [
      -0.8804806470870972,
      0.09626585990190506
    ],
    [
      -0.23466260731220245,
      -0.06800669431686401
    ],
    [
      0.4315374195575714,
      0.46000683307647705
    ],
    [
      0.1546066701412201,
      -0.6507253050804138
    ]
  ],
  "fc1.bias": [
    -0.9041127562522888,
    0.5251540541648865,
    -0.6223642230033875,
    0.13917097449302673,
    0.08769366890192032,
    0.3493385314941406,
    -0.3783609867095947,
    0.2511402368545532,
    -0.43631651997566223,
    -0.9897838830947876,
    -0.8564075231552124,
    -0.18514108657836914,
    -0.3866872787475586,
    0.4501020014286041,
    -0.6333125829696655,
    -0.6310108304023743,
    0.13990646600723267,
    -0.6240130066871643,
    -0.1425788700580597,
    0.5573468208312988,
    -0.24803665280342102,
    -0.9350258708000183,
    -0.2624393105506897,
    -0.8869232535362244,
    -0.07366342097520828,
    0.13152989745140076,
    0.17117221653461456,
    0.3938707113265991,
    -0.9446350932121277,
    0.04061832278966904,
    -0.030031753703951836,
    -0.7410129308700562
  ],
  "fc2.weight": [
    [
      -1.9283968210220337,
      0.00776992691680789,
      -0.03909875452518463,
      -0.028405247256159782,
      -0.09282522648572922,
      0.056782834231853485,
      -0.3151094913482666,
      0.07078611850738525,
      -0.8464972376823425,
      -1.540488600730896,
      -0.394061803817749,
      0.04271108657121658,
      -0.4698562026023865,
      0.043028976768255234,
      -1.440369963645935,
      -1.5696656703948975,
      -0.11939919739961624,
      -0.04270200803875923,
      -0.05551265552639961,
      0.03947322815656662,
      0.07331500947475433,
      -1.689005970954895,
      -0.25209805369377136,
      -1.7838696241378784,
      -0.22295913100242615,
      0.01033596321940422,
      0.08012992888689041,
      0.01718859374523163,
      -0.2977936267852783,
      -0.18849527835845947,
      0.09281037002801895,
      -0.3835318684577942
    ],
    [
      0.5424727201461792,
      -0.039193421602249146,
      -0.5918688178062439,
      -0.010004575364291668,
      0.10519220679998398,
      -0.07801558077335358,
      0.24361255764961243,
      -0.15716953575611115,
      0.10488251596689224,
      0.5495322346687317,
      0.0013664988800883293,
      -0.48209264874458313,
      0.22290483117103577,
      -0.06340104341506958,
      0.9195035696029663,
      0.37053555250167847,
      0.08265769481658936,
      0.07029759883880615,
      0.18803584575653076,
      -0.04447724670171738,
      -0.03434775769710541,
      0.42441198229789734,
      -0.0038645844906568527,
      0.37379902601242065,
      0.15731124579906464,
      -0.45609939098358154,
      -0.27942797541618347,
      -0.06461285054683685,
      0.19852401316165924,
      0.09229293465614319,
      -1.3865270614624023,
      0.19976334273815155
    ],
    [
      0.46909475326538086,
      -0.014238156378269196,
      -0.6663872003555298,
      0.03414805233478546,
      0.3509993255138397,
      -0.03758380189538002,
      0.21099425852298737,
      -0.05320413038134575,
      0.14953316748142242,
      0.4730970859527588,
      0.3632078170776367,
      -0.10512246936559677,
      0.21963807940483093,
      -0.029928233474493027,
      0.9881797432899475,
      0.2752712666988373,
      0.06303432583808899,
      0.059022244065999985,
      0.08783252537250519,
      -0.04186104238033295,
      -0.14084137976169586,
      0.20944730937480927,
      -0.02904522232711315,
      0.38466379046440125,
      0.0647624135017395,
      -0.06924770027399063,
      -0.06354469060897827,
      -0.030275501310825348,
      0.20516493916511536,
      0.22952432930469513,
      -0.14787201583385468,
      0.16523317992687225
    ],
    [
      -1.296201467514038,
      0.008768700063228607,
      -0.1316888928413391,
      -0.07038187980651855,
      -0.14425194263458252,
      0.022500082850456238,
      -1.070471167564392,
      0.061263568699359894,
      -0.4294162392616272,
      -1.1863375902175903,
      -1.6674927473068237,
      0.08635824173688889,
      -0.3262328505516052,
      0.031188081949949265,
      -1.1629797220230103,
      -1.3287289142608643,
      -0.13831211626529694,
      -0.616788387298584,
      -0.24032814800739288,
      0.01260820496827364,
      -0.14433205127716064,
      -1.7678725719451904,
      -0.011779729276895523,
      -2.124420166015625,
      -0.13370585441589355,
      0.012717465870082378,
      0.09740106761455536,
      0.015290874056518078,
      -0.2962762117385864,
      -0.11868973076343536,
      0.11118464171886444,
      -0.5047997832298279
    ],
    [
      0.049746472388505936,
      0.010693797841668129,
      -1.1026058197021484,
      -0.03323351591825485,
      -0.06112349033355713,
      -0.024990685284137726,
      -0.3805985152721405,
      -0.035354066640138626,
      0.02297360822558403,
      -1.0056253671646118,
      -0.2801937460899353,
      -0.4377231299877167,
      -0.18524384498596191,
      -0.018547995015978813,
      1.0645743608474731,
      0.26537132263183594,
      -0.05351896211504936,
      0.8714781999588013,
      -0.19099409878253937,
      -0.01437288522720337,
      -0.056017860770225525,
      -0.33008334040641785,
      0.03326108679175377,
      1.0611414909362793,
      0.018780309706926346,
      -0.030315352603793144,
      -0.017181703820824623,
      -0.016988731920719147,
      0.171750009059906,
      0.061467815190553665,
      -0.08590959757566452,
      -0.30553364753723145
    ],
    [
      -0.11107546836137772,
      -0.07362451404333115,
      0.02214062213897705,
      -0.1475171148777008,
      -0.04765951633453369,
      -0.08418826758861542,
      -0.8191323280334473,
      -0.1183512955904007,
      -0.3531336486339569,
      -0.46849408745765686,
      -0.4473743140697479,
      -0.3441672623157501,
      -0.3158203661441803,
      -0.07430297136306763,
      -0.13955023884773254,
      -0.22975535690784454,
      0.10421740263700485,
      -0.5351183414459229,
      -0.2916269302368164,
      -0.06976098567247391,
      -0.12234795838594437,
      -0.15841786563396454,
      -0.3668879270553589,
      -0.3326244652271271,
      -0.01995459757745266,
      0.6919296383857727,
      -0.1361590474843979,
      -0.08732925355434418,
      -0.6742432713508606,
      0.06265382468700409,
      -0.21251334249973297,
      -0.09857529401779175
    ],
    [
      0.4854801595211029,
      -0.029818542301654816,
      -0.5692504644393921,
      0.04653983190655708,
      0.08811281621456146,
      -0.0006019047577865422,
      0.3262345492839813,
      -0.04777143523097038,
      0.1178974062204361,
      0.5187851190567017,
      0.08358293771743774,
      -0.8363168239593506,
      0.2367749810218811,
      -0.021863708272576332,
      0.7671065330505371,
      0.34816133975982666,
      0.0690525621175766,
      0.08287107944488525,
      0.13062526285648346,
      -0.0261048823595047,
      -0.14561398327350616,
      0.5290413498878479,
      -0.0032346853986382484,
      0.4973409175872803,
      0.11131477355957031,
      -0.17760102450847626,
      -0.09401942044496536,
      -0.017898347228765488,
      0.1559586077928543,
      0.07588222622871399,
      -0.9122548699378967,
      0.20488059520721436
    ],
    [
      0.4708932042121887,
      -0.036345552653074265,
      -0.5014533400535583,
      0.046457041054964066,
      0.09646932035684586,
      -0.05389467626810074,
      0.24432574212551117,
      -0.05262255296111107,
      0.11246706545352936,
      0.5108703970909119,
      0.03799472004175186,
      -0.5882539749145508,
      0.1905912160873413,
      -0.013108030892908573,
      0.8995605707168579,
      0.31909915804862976,
      0.11378233879804611,
      0.005787873174995184,
      0.2432679384946823,
      -0.04345107823610306,
      -0.059744693338871,
      0.47347745299339294,
      0.024654537439346313,
      0.40222758054733276,
      0.17734059691429138,
      -0.13579876720905304,
      -0.053541816771030426,
      -0.0383695550262928,
      0.19521209597587585,
      0.11432913690805435,
      -0.5546714663505554,
      0.28842100501060486
    ],
    [
      0.13856710493564606,
      -0.05705731734633446,
      -0.3522152006626129,
      -0.027124056592583656,
      0.04889551177620888,
      -0.08931826055049896,
      0.19355140626430511,
      -0.12142585963010788,
      0.07094796001911163,
      -0.5036603212356567,
      -0.00046348440810106695,
      -0.07549843937158585,
      -0.20839999616146088,
      -0.078569196164608,
      0.5144745111465454,
      -0.550342857837677,
      0.0111001618206501,
      0.0036603910848498344,
      0.117179274559021,
      -0.0666886419057846,
      0.057582736015319824,
      0.3169408142566681,
      -0.031618811190128326,
      -0.5143787860870361,
      -0.02287708967924118,
      -0.05985754728317261,
      -0.12692461907863617,
      -0.08736912161111832,
      1.1982568502426147,
      -0.03633780777454376,
      -0.4716131389141083,
      -0.01784859411418438
    ],
    [
      -0.04964236170053482,
      0.0031166677363216877,
      0.01594412699341774,
      -3.507091522216797,
      -1.4700565338134766,
      -0.012501216493546963,
      -1.3084938526153564,
      -0.021744314581155777,
      -0.3623925745487213,
      -0.3834344744682312,
      -0.590347170829773,
      0.016774393618106842,
      -1.9741443395614624,
      -0.0026809535920619965,
      -0.20134317874908447,
      -0.443570613861084,
      -1.4039499759674072,
      -1.4049230813980103,
      -2.952085256576538,
      -0.0008368705166503787,
      0.12065578997135162,
      -0.30117905139923096,
      -1.9714359045028687,
      -0.44375357031822205,
      -2.9285659790039062,
      -0.0249195359647274,
      -0.023622862994670868,
      0.0017153816297650337,
      -1.0612541437149048,
      -1.9990111589431763,
      -0.043012287467718124,
      -0.6021342277526855
    ],
    [
      -1.5652384757995605,
      0.002538949018344283,
      -0.08331725001335144,
      0.014758702367544174,
      -0.09925191104412079,
      0.02778385765850544,
      -0.19752690196037292,
      0.037467874586582184,
      -2.4050426483154297,
      -1.4727563858032227,
      -0.2597949802875519,
      0.10130371153354645,
      -0.9911953210830688,
      0.0391056053340435,
      -1.211027979850769,
      -1.9150476455688477,
      -0.10919155180454254,
      0.022564871236681938,
      -0.05039040371775627,
      0.015033585019409657,
      -0.004025399684906006,
      -1.5303932428359985,
      -0.6407470703125,
      -0.5738404989242554,
      -0.5033088326454163,
      -0.004438656382262707,
      0.08716024458408356,
      0.030400527641177177,
      -1.5715208053588867,
      -0.21872040629386902,
      0.0967484787106514,
      -0.3898557424545288
    ],
    [
      -0.5407477617263794,
      -0.014739558100700378,
      -0.4482648968696594,
      -0.03879205882549286,
      -0.0566604919731617,
      -0.013284187763929367,
      -0.17108821868896484,
      -0.027045754715800285,
      0.097960464656353,
      0.19240842759609222,
      1.140116572380066,
      -0.6053712964057922,
      0.11620399355888367,
      -0.0032732507679611444,
      0.16669154167175293,
      0.29928889870643616,
      -0.06960028409957886,
      -0.08953219652175903,
      -0.0844077318906784,
      0.004323266912251711,
      0.16896317899227142,
      -0.3819054067134857,
      -0.0011437151115387678,
      0.6074107885360718,
      0.019786421209573746,
      -0.02911960706114769,
      -0.04226625710725784,
      -0.016236839815974236,
      -1.0499379634857178,
      0.004492466803640127,
      -0.11770161986351013,
      -0.3393533229827881
    ],
    [
      0.4291446805000305,
      -0.031492993235588074,
      -0.5933857560157776,
      0.0504748560488224,
      0.006288041826337576,
      -0.06295322626829147,
      0.3162679672241211,
      -0.054851412773132324,
      0.17010921239852905,
      0.49823668599128723,
      -0.045477140694856644,
      -0.8596433997154236,
      0.29345303773880005,
      -0.03329836204648018,
      1.0347410440444946,
      0.44835785031318665,
      0.007065373472869396,
      0.11061649769544601,
      0.19551505148410797,
      -0.04047960042953491,
      0.1332661658525467,
      0.574524462223053,
      0.031550753861665726,
      0.549004316329956,
      0.07661382108926773,
      -0.11629991233348846,
      -0.06261871010065079,
      -0.026768455281853676,
      0.1053478866815567,
      0.08951748162508011,
      -0.41320642828941345,
      0.2101215422153473
    ],
    [
      -0.4914872348308563,
      -0.01851811632514,
      -0.05614405497908592,
      -0.0622350238263607,
      -0.07903675734996796,
      0.007349311374127865,
      -1.7082520723342896,
      0.06137051805853844,
      -0.1981751024723053,
      -1.2968735694885254,
      -2.4017279148101807,
      0.01609237864613533,
      -0.2619965076446533,
      0.03419571742415428,
      -0.5902329087257385,
      -1.060990571975708,
      -0.14157746732234955,
      -1.1620149612426758,
      -0.3278784453868866,
      -0.011429705657064915,
      0.14219896495342255,
      -1.5502309799194336,
      0.02706199884414673,
      -2.4456496238708496,
      -0.04326228052377701,
      0.018902789801359177,
      0.10524769127368927,
      -0.0029726314824074507,
      -0.35158082842826843,
      -0.053151655942201614,
      0.15306472778320312,
      -0.9426181316375732
    ],
    [
      -0.40930411219596863,
      -0.007997059263288975,
      -0.23714736104011536,
      -0.013196722604334354,
      -0.019619327038526535,
      0.036532942205667496,
      -0.09237991273403168,
      0.055235009640455246,
      -0.1520746797323227,
      0.3916681110858917,
      -0.08064008504152298,
      -0.5119675397872925,
      -0.18314120173454285,
      0.005279697943478823,
      0.06733782589435577,
      -0.24723434448242188,
      -0.04548150673508644,
      -0.05235423892736435,
      -0.0439404621720314,
      0.02597806416451931,
      -0.07690130919218063,
      -0.2192894071340561,
      0.521206796169281,
      -0.4248034954071045,
      -0.172935351729393,
      -0.002157582901418209,
      0.01602908968925476,
      0.013929772190749645,
      -0.1533976048231125,
      -0.13241739571094513,
      -0.057830579578876495,
      0.9824734926223755
    ],
    [
      -0.3563302159309387,
      0.010835004039108753,
      0.03899373859167099,
      -0.03635135665535927,
      -0.09186051040887833,
      0.012393839657306671,
      -2.4684622287750244,
      0.03070121817290783,
      -1.0999412536621094,
      -1.982066035270691,
      -2.1024928092956543,
      0.08089936524629593,
      -0.5802939534187317,
      0.02810567058622837,
      -0.38167428970336914,
      -2.2572906017303467,
      -0.10993334650993347,
      -1.8242154121398926,
      -0.43451306223869324,
      0.009969771839678288,
      0.027173489332199097,
      -1.327903151512146,
      -0.25091826915740967,
      -0.9907804727554321,
      -0.2198583036661148,
      0.009153875522315502,
      0.08996539562940598,
      0.015110639855265617,
      -0.6211127638816833,
      -0.1269451379776001,
      0.07097727805376053,
      -1.046364188194275
    ],
    [
      0.617987334728241,
      0.050459228456020355,
      -0.397512286901474,
      0.7577353119850159,
      -0.22318315505981445,
      0.08972618728876114,
      -0.18561913073062897,
      0.0392950177192688,
      -0.10210558772087097,
      0.40196338295936584,
      0.31133246421813965,
      -0.622866153717041,
      0.05425834655761719,
      0.028523888438940048,
      -0.19115088880062103,
      -0.3698137402534485,
      -0.14553461968898773,
      -0.10437876731157303,
      -0.17830181121826172,
      0.06049580127000809,
      -0.05172149837017059,
      -0.35102421045303345,
      -0.037287406623363495,
      0.4172581732273102,
      -0.05356854200363159,
      -0.047245368361473083,
      -0.03391512483358383,
      0.10584809631109238,
      0.35379454493522644,
      -0.08538775146007538,
      -0.15180322527885437,
      -0.09703543782234192
    ],
    [
      0.304878294467926,
      -0.178059384226799,
      -0.06438186019659042,
      -0.05336741730570793,
      0.00021395394287537783,
      -0.5024408102035522,
      0.048998862504959106,
      -2.8633365631103516,
      -0.006545470096170902,
      0.05325068533420563,
      -0.10752939432859421,
      -0.21127742528915405,
      -0.06595608592033386,
      -1.5380840301513672,
      0.4242769777774811,
      0.0574440062046051,
      0.031131090596318245,
      -0.04082121700048447,
      -0.0346243791282177,
      -0.34549450874328613,
      0.17295996844768524,
      0.1621713936328888,
      -0.02674020826816559,
      -0.5369213819503784,
      0.03576713427901268,
      -1.2261683940887451,
      -2.0438716411590576,
      -0.24984891712665558,
      0.06799351423978806,
      0.04590679705142975,
      -0.73680579662323,
      0.1194876879453659
    ],
    [
      -0.062471166253089905,
      -1.1335506439208984,
      0.6025592684745789,
      -0.008148478344082832,
      -0.0038252309896051884,
      -3.3222908973693848,
      -0.054526545107364655,
      -1.203171968460083,
      -0.0467858761548996,
      -0.24884897470474243,
      -0.12045847624540329,
      0.10139217227697372,
      -0.0756782665848732,
      -1.847295880317688,
      0.047425754368305206,
      -0.05612803250551224,
      0.0002750485436990857,
      -0.0712139829993248,
      -0.006141116376966238,
      -2.606666088104248,
      -0.08947929739952087,
      -0.08215374499559402,
      -0.027817463502287865,
      -0.11546973884105682,
      -0.02497907355427742,
      -0.43936023116111755,
      -0.4724069833755493,
      -1.8199654817581177,
      -0.1318398267030716,
      -0.040533192455768585,
      -0.35948461294174194,
      0.01665084809064865
    ],
    [
      -0.20282703638076782,
      0.023789819329977036,
      -0.104815274477005,
      -0.3102700710296631,
      -0.37923139333724976,
      0.007957397028803825,
      -3.1321237087249756,
      -0.009049595333635807,
      -2.5998783111572266,
      -1.0036587715148926,
      -1.4682635068893433,
      0.06651873886585236,
      -0.8526742458343506,
      -0.0031209327280521393,
      -0.24115289747714996,
      -1.6476601362228394,
      -0.31178128719329834,
      -3.3643898963928223,
      -1.4547299146652222,
      0.02624450996518135,
      -0.05130395293235779,
      -0.5232681632041931,
      -0.7386585474014282,
      -0.5104169249534607,
      -0.5506293773651123,
      -0.028544841334223747,
      -0.0004147854051552713,
      0.022589361295104027,
      -1.9621914625167847,
      -0.37789186835289,
      0.025773009285330772,
      -1.270219326019287
    ],
    [
      0.49024832248687744,
      0.0035831218119710684,
      -0.6704034209251404,
      0.014090901240706444,
      0.09176861494779587,
      -0.012696988880634308,
      0.26574382185935974,
      -0.07217544317245483,
      0.15290546417236328,
      0.37957698106765747,
      0.06521245837211609,
      -0.8021571636199951,
      0.21698954701423645,
      -0.02227017655968666,
      1.068385124206543,
      0.3759291172027588,
      0.041194189339876175,
      0.10143042355775833,
      0.1817098706960678,
      -0.0068153804168105125,
      -0.0462612509727478,
      0.509566605091095,
      0.03229092061519623,
      0.5992727279663086,
      0.18698862195014954,
      -0.10818035900592804,
      -0.07353536784648895,
      -0.010739663615822792,
      0.21822354197502136,
      0.09571351855993271,
      -0.5438058972358704,
      0.16624514758586884
    ],
    [
      -1.748498558998108,
      -0.020084146410226822,
      -0.15898604691028595,
      -0.030879642814397812,
      -0.05516154691576958,
      0.040092311799526215,
      -0.5904003381729126,
      0.08680803328752518,
      -0.2529186010360718,
      -1.617388367652893,
      -0.827964186668396,
      0.09280245006084442,
      -0.30282241106033325,
      0.013421484269201756,
      -1.2940986156463623,
      -1.6855164766311646,
      -0.061270833015441895,
      -0.19449388980865479,
      -0.18251115083694458,
      -0.0001980139350052923,
      -0.06216345727443695,
      -1.971852421760559,
      -0.0398947037756443,
      -2.1293768882751465,
      -0.1537114381790161,
      -0.011560190469026566,
      0.13105252385139465,
      0.011001295410096645,
      -0.464701771736145,
      -0.05647845193743706,
      0.12143193930387497,
      -0.6806678175926208
    ],
    [
      -0.4153566062450409,
      0.011269057169556618,
      -0.20216836035251617,
      -0.16141189634799957,
      -0.24693632125854492,
      0.002650025300681591,
      -2.1447274684906006,
      0.0288532767444849,
      -2.033812999725342,
      -0.9435117840766907,
      -1.569075107574463,
      0.03776091709733009,
      -2.136644124984741,
      0.014749478548765182,
      -0.36089345812797546,
      -1.2700910568237305,
      -0.2556192874908447,
      -1.0969432592391968,
      -0.535713255405426,
      -0.003082114737480879,
      -0.030766203999519348,
      -0.8178448677062988,
      -1.9001554250717163,
      -0.45021113753318787,
      -1.1341662406921387,
      -0.038151174783706665,
      0.01075917948037386,
      -0.012520610354840755,
      -2.069655418395996,
      -0.67359459400177,
      0.02702336199581623,
      -1.0225406885147095
    ],
    [
      -0.3408361077308655,
      0.010864408686757088,
      0.0614798367023468,
      -0.16854985058307648,
      -0.24589748680591583,
      0.006568548269569874,
      -4.136993885040283,
      0.028709903359413147,
      -2.188577651977539,
      -1.5739507675170898,
      -1.8650877475738525,
      0.15294675529003143,
      -0.5145536065101624,
      0.022794632241129875,
      -0.24912074208259583,
      -1.921718716621399,
      -0.25322893261909485,
      -2.453371286392212,
      -0.8277837038040161,
      0.0005799742648378015,
      0.10419733822345734,
      -1.0181835889816284,
      -0.3353235125541687,
      -0.783325731754303,
      -0.29497867822647095,
      -0.013875056989490986,
      0.023364093154668808,
      0.0028433005791157484,
      -0.691729724407196,
      -0.23550131916999817,
      0.09810265898704529,
      -1.198096752166748
    ],
    [
      0.5997825264930725,
      0.007359220180660486,
      -0.598136305809021,
      -0.025800419971346855,
      0.10959449410438538,
      -0.04340403899550438,
      0.31615549325942993,
      -0.1352708339691162,
      0.12518258392810822,
      0.5115201473236084,
      0.022122209891676903,
      -0.7015547156333923,
      0.18417410552501678,
      -0.06652995198965073,
      0.9250002503395081,
      0.37292373180389404,
      0.04482577368617058,
      0.09022477269172668,
      0.10194596648216248,
      -0.016467483714222908,
      -0.035528019070625305,
      0.4931003749370575,
      -0.010374501347541809,
      0.3557496666908264,
      0.14893770217895508,
      -0.5294424295425415,
      -0.28064319491386414,
      -0.027193086221814156,
      0.2547421157360077,
      0.12074963748455048,
      -1.6812305450439453,
      0.19196872413158417
    ],
    [
      0.2001916468143463,
      -0.06076516956090927,
      -0.12965497374534607,
      -0.07636691629886627,
      0.01916334219276905,
      -0.27510830760002136,
      0.09522323310375214,
      -1.5488234758377075,
      -0.025421224534511566,
      -0.07572365552186966,
      -0.11785481125116348,
      -0.4153091013431549,
      0.10572425276041031,
      -0.4445253014564514,
      0.7609041929244995,
      0.14497403800487518,
      0.03705301880836487,
      -0.020748121663928032,
      0.06513404846191406,
      -0.17069900035858154,
      -0.03537583351135254,
      0.25831326842308044,
      -0.029306812211871147,
      0.026936877518892288,
      0.014058978296816349,
      -1.724891185760498,
      -2.1426219940185547,
      -0.1477750688791275,
      0.06272426247596741,
      0.017273100093007088,
      -0.889289379119873,
      0.16542553901672363
    ],
    [
      -0.2911880612373352,
      0.016024895012378693,
      -0.17629286646842957,
      -0.8890026211738586,
      -0.8962043523788452,
      0.006543775089085102,
      -2.428478479385376,
      0.008858347311615944,
      -1.1123138666152954,
      -0.6297792196273804,
      -1.0613571405410767,
      0.028609124943614006,
      -2.4011733531951904,
      0.00012133889686083421,
      -0.2994857728481293,
      -0.7188109755516052,
      -0.7461681962013245,
      -2.1880764961242676,
      -1.7873961925506592,
      0.011658295057713985,
      0.014892026782035828,
      -0.2974569499492645,
      -2.3417112827301025,
      -0.37886619567871094,
      -1.133928656578064,
      -0.04818303883075714,
      -0.022767728194594383,
      0.04108830913901329,
      -1.5796616077423096,
      -0.8184689879417419,
      -0.03849181905388832,
      -1.2225940227508545
    ],
    [
      -0.07691925019025803,
      -0.21699559688568115,
      -0.08734884858131409,
      -0.02944982424378395,
      0.05944734066724777,
      -1.0227211713790894,
      0.03436046466231346,
      -1.8839690685272217,
      -0.04642011970281601,
      -0.03270874544978142,
      -0.18144378066062927,
      -0.15539006888866425,
      0.23500089347362518,
      -2.2162749767303467,
      0.3693948984146118,
      -0.058746859431266785,
      0.02657838724553585,
      -0.013188675045967102,
      -0.02710702084004879,
      -0.6256545782089233,
      -0.08954770117998123,
      0.07196192443370819,
      -0.05479063093662262,
      0.029071412980556488,
      0.022507444024086,
      -0.8499903082847595,
      -1.0306613445281982,
      -0.4863092601299286,
      -0.35931268334388733,
      0.00839095190167427,
      -0.3904600143432617,
      0.11093602329492569
    ],
    [
      0.5012044906616211,
      0.019759418442845345,
      -0.515690267086029,
      0.06399794667959213,
      0.12056565284729004,
      -0.0121466014534235,
      0.21621035039424896,
      -0.07630976289510727,
      0.09722655266523361,
      0.5096800327301025,
      0.06243276223540306,
      -0.4875110387802124,
      0.2328890860080719,
      -0.03484335541725159,
      1.0501351356506348,
      0.27095407247543335,
      0.12424226850271225,
      0.06317605078220367,
      0.131276473402977,
      0.007491836789995432,
      -0.10022469609975815,
      0.4566463530063629,
      -0.018685070797801018,
      0.41774457693099976,
      0.13636021316051483,
      -0.1284366399049759,
      -0.10058974474668503,
      -0.012103568762540817,
      0.20141249895095825,
      0.14495393633842468,
      -0.6849995255470276,
      0.24806419014930725
    ],
    [
      0.4893019497394562,
      -0.03430749475955963,
      -0.49715468287467957,
      -0.04348365217447281,
      0.06361878663301468,
      -0.11019400507211685,
      0.10609625279903412,
      -0.688106119632721,
      -0.001162028987891972,
      0.016811951994895935,
      0.007614362519234419,
      -0.545102059841156,
      0.15534310042858124,
      -0.2563168704509735,
      0.48452135920524597,
      0.2163129597902298,
      0.10414952039718628,
      0.0019909492693841457,
      0.14612743258476257,
      -0.07600071281194687,
      0.04178953170776367,
      0.26585930585861206,
      -0.026228226721286774,
      0.34621623158454895,
      0.15776847302913666,
      -2.113691568374634,
      -2.0162057876586914,
      -0.012670811265707016,
      0.1236567273736,
      0.08224208652973175,
      -1.3152881860733032,
      0.33120959997177124
    ],
    [
      0.7012168765068054,
      -0.017671408131718636,
      -0.6491917967796326,
      0.04482520744204521,
      0.09084098786115646,
      -0.04243997856974602,
      0.31583651900291443,
      -0.07965628802776337,
      0.15732312202453613,
      0.6376678347587585,
      0.1144564300775528,
      -0.8376083374023438,
      0.2336457222700119,
      -0.06645612418651581,
      0.9746509790420532,
      0.41512441635131836,
      0.015830418094992638,
      0.03165140748023987,
      0.17516019940376282,
      0.006119964644312859,
      0.08488167822360992,
      0.4345768392086029,
      0.012719623744487762,
      0.4827803671360016,
      0.08966588973999023,
      -0.3240619897842407,
      -0.1480647474527359,
      -0.03548644483089447,
      0.22586295008659363,
      0.024186838418245316,
      -1.340667486190796,
      0.1794099360704422
    ],
    [
      0.5261927247047424,
      -0.013216918334364891,
      -0.7954680323600769,
      0.033566445112228394,
      0.11379695683717728,
      -0.01623348705470562,
      0.27959325909614563,
      -0.06863025575876236,
      0.10722263157367706,
      0.5313129425048828,
      0.03955764323472977,
      -0.5414212346076965,
      0.13888849318027496,
      -0.030542612075805664,
      0.7977772951126099,
      0.28598979115486145,
      0.07221260666847229,
      0.1372196525335312,
      0.14692801237106323,
      -0.030158333480358124,
      -0.09911893308162689,
      0.5120381116867065,
      -0.01923234388232231,
      0.15022267401218414,
      0.1481919139623642,
      -0.12606795132160187,
      -0.10389446467161179,
      -0.011223928071558475,
      0.3061128854751587,
      0.10370412468910217,
      -0.779076099395752,
      0.25870805978775024
    ]
  ],
  "fc2.bias": [
    0.29367440938949585,
    0.1832682490348816,
    0.031543929129838943,
    0.3523730933666229,
    0.032445602118968964,
    0.08629155158996582,
    0.16094054281711578,
    0.11416503041982651,
    0.12692296504974365,
    0.30090972781181335,
    0.32467299699783325,
    0.04624593257904053,
    0.16899685561656952,
    0.33637934923171997,
    -0.16457653045654297,
    0.32209229469299316,
    -0.29948878288269043,
    0.48510533571243286,
    0.3794373571872711,
    0.328195184469223,
    0.13789522647857666,
    0.3051745891571045,
    0.29719215631484985,
    0.37547922134399414,
    0.2004525065422058,
    0.43269798159599304,
    0.32315757870674133,
    0.43895742297172546,
    0.07700926065444946,
    0.3052300214767456,
    0.1750742793083191,
    0.13166862726211548
  ],
  "fc3.weight": [
    [
      -0.10833034664392471,
      0.12282346189022064,
      0.13219386339187622,
      -0.10891757905483246,
      0.5222699046134949,
      -0.25965115427970886,
      0.10925117135047913,
      0.12021461129188538,
      0.27834442257881165,
      -0.46427077054977417,
      -0.11809816211462021,
      0.677933931350708,
      0.12433183938264847,
      -0.11196659505367279,
      0.8267912268638611,
      -0.12787115573883057,
      0.42288967967033386,
      0.21923992037773132,
      0.6198889017105103,
      -0.19072097539901733,
      0.11611189693212509,
      -0.11462052166461945,
      -0.1819879412651062,
      -0.14569421112537384,
      0.09790165722370148,
      0.16906310617923737,
      -0.2850714921951294,
      0.3013622462749481,
      0.12562304735183716,
      0.1446305513381958,
      0.11239863932132721,
      0.1207110732793808
    ]
  ],
  "fc3.bias": [
    -0.15197381377220154
  ]
}