{
  "fc1.weight": [
    [
      -0.5953503251075745,
      -0.13050025701522827
    ],
    [
      -0.011774905025959015,
      -0.623701274394989
    ],
    [
      -0.009782117791473866,
      -0.46261656284332275
    ],
    [
      0.6873739361763,
      -0.3465034067630768
    ],
    [
      0.19900818169116974,
      0.7671686410903931
    ],
    [
      0.5790949463844299,
      -0.413239061832428
    ],
    [
      -0.38823625445365906,
      -0.09355494379997253
    ],
    [
      0.32049933075904846,
      0.12097948044538498
    ],
    [
      0.0645221471786499,
      0.7575818300247192
    ],
    [
      -0.4525565207004547,
      -0.10826897621154785
    ],
    [
      -0.3254845440387726,
      -0.2951771914958954
    ],
    [
      0.05313459411263466,
      0.39771443605422974
    ],
    [
      0.1727171093225479,
      0.4914475977420807
    ],
    [
      0.3798770308494568,
      0.2824086844921112
    ],
    [
      0.26069802045822144,
      0.06079425290226936
    ],
    [
      0.48259180784225464,
      0.7079014778137207
    ],
    [
      0.2497626394033432,
      0.5048452019691467
    ],
    [
      0.5160184502601624,
      0.17944204807281494
    ],
    [
      0.10089168697595596,
      0.5865809917449951
    ],
    [
      -0.40377718210220337,
      -0.13287368416786194
    ],
    [
      -0.010553904809057713,
      -0.5450360774993896
    ],
    [
      -0.013708632439374924,
      -0.4251691997051239
    ],
    [
      0.19192147254943848,
      0.14980189502239227
    ],
    [
      -0.3709096312522888,
      -0.02149587869644165
    ],
    [
      0.2052001953125,
      -0.3005560636520386
    ],
    [
      0.6591732501983643,
      0.653043270111084
    ],
    [
      -0.33400294184684753,
      -0.10300344228744507
    ],
    [
      -0.27836620807647705,
      -0.25500109791755676
    ],
    [
      -0.42449164390563965,
      -0.30668115615844727
    ],
    [
      0.4271444082260132,
      -0.5238058567047119
    ],
    [
      -0.024751070886850357,
      -0.49543172121047974
    ],
    [
      -0.6050233244895935,
      -0.09115605801343918
    ]
  ],
  "fc1.bias": [
    -0.36318546533584595,
    1.0442826747894287,
    0.7871967554092407,
    -0.6088705062866211,
    -0.7005267143249512,
    -0.3213454484939575,
    -0.294999897480011,
    0.10495966672897339,
    -1.0378594398498535,
    -0.2963908314704895,
    0.3223496079444885,
    -0.668241560459137,
    -0.7451781034469604,
    -0.4418482780456543,
    0.17504458129405975,
    -0.37861931324005127,
    -0.470519483089447,
    -0.15779238939285278,
    -0.744560956954956,
    -0.33896130323410034,
    0.921420156955719,
    0.7007128596305847,
    0.17809119820594788,
    -0.6783437132835388,
    0.01985599286854267,
    0.15585117042064667,
    -0.22607551515102386,
    0.3662033677101135,
    0.25220537185668945,
    0.14599858224391937,
    0.8191319704055786,
    -0.5826993584632874
  ],
  "fc2.weight": [
    [
      0.09120272845029831,
      -0.16216760873794556,
      -0.173495352268219,
      -0.05670062452554703,
      0.080814890563488,
      -0.012195738032460213,
      0.12731978297233582,
      0.19064946472644806,
      0.2106250822544098,
      0.13972295820713043,
      -0.045658525079488754,
      0.9657068848609924,
      0.28264132142066956,
      0.1375952810049057,
      0.20834998786449432,
      -0.079125314950943,
      0.24488067626953125,
      0.17521914839744568,
      0.49423542618751526,
      -0.07165075093507767,
      -0.15865342319011688,
      -0.20751525461673737,
      0.16252374649047852,
      0.1269795447587967,
      -0.4135347306728363,
      0.02663315460085869,
      0.13646456599235535,
      -0.11081764847040176,
      -0.06842058897018433,
      -0.02985231578350067,
      -0.17019227147102356,
      0.23919612169265747
    ],
    [
      0.006686108652502298,
      -0.23263929784297943,
      -0.3005030155181885,
      -0.3016752600669861,
      -0.17725886404514313,
      -0.004240930080413818,
      0.060213275253772736,
      -0.10013039410114288,
      -0.31220442056655884,
      -0.050492674112319946,
      0.07470394670963287,
      0.5218002200126648,
      -0.08901160955429077,
      -0.14590582251548767,
      -0.0710863247513771,
      -0.11434872448444366,
      -0.20995934307575226,
      -0.07427077740430832,
      -0.3229677677154541,
      -0.16744981706142426,
      -0.18262732028961182,
      -0.376966655254364,
      -0.14983005821704865,
      0.09312935173511505,
      -0.24554723501205444,
      0.5931382775306702,
      0.023595238104462624,
      0.0623486265540123,
      0.12084745615720749,
      -0.11109210550785065,
      -0.24248312413692474,
      0.14078684151172638
    ],
    [
      -0.12042026221752167,
      -1.7879356145858765,
      -2.294177293777466,
      -0.2489118129014969,
      -0.11148548126220703,
      -0.6418831944465637,
      -0.17257650196552277,
      0.03774849697947502,
      -0.30300426483154297,
      0.005014255177229643,
      -0.028070706874132156,
      0.541795015335083,
      0.14677107334136963,
      0.08466339856386185,
      -0.0020702218171209097,
      0.015160953626036644,
      0.04685576260089874,
      0.03738294541835785,
      -0.10634002089500427,
      -0.3349206745624542,
      -2.0958657264709473,
      -1.9812874794006348,
      -0.004881700500845909,
      -0.04571343958377838,
      -0.5977867245674133,
      -0.0017280577449128032,
      -0.1273626834154129,
      0.03598742187023163,
      -0.011191530153155327,
      -0.8432909250259399,
      -1.8670274019241333,
      -0.044949598610401154
    ],
    [
      -1.5619674921035767,
      -0.019660839810967445,
      -0.010616729967296124,
      0.08488184958696365,
      0.2894133925437927,
      0.10283965617418289,
      -0.6408103704452515,
      0.01705995947122574,
      0.6629188656806946,
      -1.1095259189605713,
      -0.3047786355018616,
      1.0662388801574707,
      0.4526035189628601,
      0.25288379192352295,
      0.024903373792767525,
      0.03738830238580704,
      0.36119598150253296,
      -0.0009100601309910417,
      0.646458625793457,
      -0.705416202545166,
      -0.022304629907011986,
      -0.02482903189957142,
      0.10838447511196136,
      0.06216573715209961,
      0.05212540552020073,
      0.07635997235774994,
      -1.5652421712875366,
      -0.19351859390735626,
      -0.7079145312309265,
      0.06514924019575119,
      0.002711128443479538,
      -0.8617967367172241
    ],
    [
      0.03407316282391548,
      -0.004119040444493294,
      0.00590131152421236,
      -0.1655423641204834,
      -0.332703560590744,
      -0.08366908133029938,
      0.11185359209775925,
      -0.6160064935684204,
      -0.6653537750244141,
      0.18192118406295776,
      0.045503657311201096,
      -0.43847331404685974,
      -0.106920525431633,
      -1.2820966243743896,
      -0.24444818496704102,
      -2.0145912170410156,
      -1.8427066802978516,
      -3.6355977058410645,
      -0.873016357421875,
      0.18768413364887238,
      -0.004667146131396294,
      -0.007489458657801151,
      -0.4125060439109802,
      0.1762894243001938,
      -0.03158077225089073,
      -0.34512093663215637,
      0.07431001961231232,
      0.032384708523750305,
      0.02304057404398918,
      -0.008857235312461853,
      0.0010788177605718374,
      0.18413574993610382
    ],
    [
      -0.9459468126296997,
      -0.0050792149268090725,
      0.012327572330832481,
      0.32415708899497986,
      0.23907874524593353,
      -0.04974725469946861,
      -0.7388338446617126,
      0.042868323624134064,
      0.5615745782852173,
      -1.497833251953125,
      -0.42838534712791443,
      0.8777650594711304,
      0.5284425616264343,
      0.2647046744823456,
      0.04087188094854355,
      -0.00025282689603045583,
      0.2577366232872009,
      -0.042609237134456635,
      0.5213158130645752,
      -0.5357275009155273,
      -0.0027340950910001993,
      0.01044892892241478,
      0.04648655652999878,
      0.06494452059268951,
      0.00927653256803751,
      0.07602721452713013,
      -0.8590524792671204,
      -0.23558226227760315,
      -1.5223108530044556,
      -0.025877978652715683,
      0.009835967794060707,
      -1.0381978750228882
    ],
    [
      -0.004001846071332693,
      -0.0012604858493432403,
      0.00013251378550194204,
      -2.0072855949401855,
      -2.8119328022003174,
      -0.0847252607345581,
      0.020378349348902702,
      -5.099246025085449,
      -1.543628215789795,
      -0.008094316348433495,
      -0.02562287449836731,
      -0.35793450474739075,
      -0.08054757863283157,
      -0.47530636191368103,
      -1.2460823059082031,
      -1.686776041984558,
      -0.8146238327026367,
      -1.1880348920822144,
      -1.4296432733535767,
      -0.0036268269177526236,
      -0.0007875245646573603,
      0.004100986756384373,
      -1.7436866760253906,
      -0.01931232213973999,
      0.022352520376443863,
      -4.2963032722473145,
      -0.006460481323301792,
      -0.013029794208705425,
      -0.040804423391819,
      0.0053337374702095985,
      0.005430634133517742,
      0.07690027356147766
    ],
    [
      -0.23754273355007172,
      -0.038730211555957794,
      -0.029399637132883072,
      -0.052756644785404205,
      0.12769781053066254,
      -0.24430494010448456,
      -0.24394218623638153,
      0.019208425655961037,
      0.4243408739566803,
      -0.23037786781787872,
      -0.2911216914653778,
      1.116931676864624,
      0.4885042607784271,
      0.22354426980018616,
      0.09319809824228287,
      0.014798950403928757,
      0.370484858751297,
      0.2603195905685425,
      0.6886005997657776,
      -0.3592638075351715,
      -0.014635552652180195,
      -0.04647821560502052,
      -0.015184289775788784,
      -0.1664561778306961,
      -0.12159018218517303,
      0.06880131363868713,
      -0.25110143423080444,
      -0.2589315176010132,
      -0.294091135263443,
      0.12799431383609772,
      -0.02244957536458969,
      -0.10547835379838943
    ],
    [
      0.015268183313310146,
      0.021577421575784683,
      0.012387740425765514,
      -1.8331069946289062,
      -1.5979111194610596,
      -3.17342472076416,
      0.0536186620593071,
      -2.9386210441589355,
      -2.0346267223358154,
      0.00629693316295743,
      -0.017760371789336205,
      -0.41983476281166077,
      -0.03216250240802765,
      -0.5037938952445984,
      -1.9859027862548828,
      -2.5232150554656982,
      -0.95488440990448,
      -1.4640306234359741,
      -2.549968957901001,
      0.05152237042784691,
      0.0163908451795578,
      0.020005060359835625,
      -0.5929299592971802,
      -0.0568934828042984,
      -0.3205597698688507,
      -0.46168240904808044,
      -0.05050772801041603,
      0.00874059833586216,
      -0.00885156262665987,
      -0.23366956412792206,
      0.010902789421379566,
      0.012110035866498947
    ],
    [
      0.19193746149539948,
      -0.02470729686319828,
      0.010095726698637009,
      -0.11983687430620193,
      -0.647910475730896,
      -0.05659564584493637,
      0.1967644840478897,
      -0.15574149787425995,
      -1.3789814710617065,
      0.1610407680273056,
      0.045141059905290604,
      -1.104823350906372,
      -0.6419721245765686,
      -2.7788820266723633,
      -0.09052802622318268,
      -0.4113128185272217,
      -3.56115460395813,
      -0.3299284875392914,
      -1.9331070184707642,
      0.09089014679193497,
      -0.01203166600316763,
      -0.019589319825172424,
      -0.06722113490104675,
      -0.16487114131450653,
      -0.026748184114694595,
      -0.13880027830600739,
      0.19806745648384094,
      0.013090650551021099,
      0.09768231213092804,
      -0.012444586493074894,
      -0.0010698108235374093,
      0.0786132961511612
    ],
    [
      -1.1237330436706543,
      -0.012465076521039009,
      0.02482645772397518,
      -0.2519274950027466,
      0.24012711644172668,
      0.10769462585449219,
      -0.9241030216217041,
      0.059518489986658096,
      0.5824485421180725,
      -0.9699926376342773,
      -0.23834875226020813,
      0.9506366848945618,
      0.4321284294128418,
      0.33227577805519104,
      0.028979161754250526,
      -0.012528542429208755,
      0.2443595975637436,
      0.02827184647321701,
      0.6991446018218994,
      -0.5360793471336365,
      0.0016178713412955403,
      -0.023089194670319557,
      0.056274306029081345,
      0.048492029309272766,
      0.16179652512073517,
      0.07832882553339005,
      -1.10830557346344,
      -0.17702706158161163,
      -0.46825623512268066,
      0.0689997747540474,
      0.004854001570492983,
      -0.747930109500885
    ],
    [
      -0.7800996899604797,
      -0.5716559886932373,
      -0.7538979053497314,
      -0.47520580887794495,
      -0.06888427585363388,
      -0.717745304107666,
      -0.6296639442443848,
      0.1478295773267746,
      -0.0704834833741188,
      -0.7547845840454102,
      -0.22801059484481812,
      0.514827311038971,
      0.08187292516231537,
      0.09847748279571533,
      0.15908344089984894,
      0.030858108773827553,
      -0.112804114818573,
      0.10100112855434418,
      -0.13239511847496033,
      -0.5273463726043701,
      -0.5971521735191345,
      -1.023532748222351,
      0.18175679445266724,
      0.04132640361785889,
      -0.9727117419242859,
      -0.03671860694885254,
      -0.7699097394943237,
      -0.19374707341194153,
      -0.24451997876167297,
      -0.6902093887329102,
      -0.6646667122840881,
      -0.7864509224891663
    ],
    [
      0.12001483142375946,
      0.02039678767323494,
      0.016633016988635063,
      -0.11056848615407944,
      -0.25356727838516235,
      -0.07187068462371826,
      0.10716095566749573,
      -0.4878251254558563,
      -0.7693566083908081,
      0.13689172267913818,
      0.04290853813290596,
      -0.4164005219936371,
      -0.05281708016991615,
      -1.594226360321045,
      -0.21710649132728577,
      -0.9728855490684509,
      -2.1372666358947754,
      -2.1684651374816895,
      -0.9360414743423462,
      0.04223236069083214,
      -0.008624058216810226,
      0.005010341759771109,
      -0.2968139052391052,
      -0.0015613734722137451,
      -0.032955240458250046,
      -0.29048123955726624,
      0.11738398671150208,
      0.0530540756881237,
      0.02535252273082733,
      -0.03789861872792244,
      0.0051455372013151646,
      0.20067419111728668
    ],
    [
      0.053156208246946335,
      0.012037822976708412,
      0.007137523964047432,
      -1.7641164064407349,
      -0.7960600852966309,
      -0.6037885546684265,
      0.1105964183807373,
      -0.506070077419281,
      -2.086568593978882,
      0.11049885302782059,
      0.04660472646355629,
      -0.42180946469306946,
      -0.15352784097194672,
      -0.9578573703765869,
      -0.40887415409088135,
      -0.7607470154762268,
      -2.3031928539276123,
      -3.599526882171631,
      -2.2685086727142334,
      0.08394700288772583,
      0.011045976541936398,
      0.012390799820423126,
      0.06409332156181335,
      0.13299424946308136,
      -0.25258010625839233,
      -0.16312594711780548,
      0.14750827848911285,
      0.025471657514572144,
      0.015124301426112652,
      -0.12794502079486847,
      0.044329676777124405,
      0.07449077069759369
    ],
    [
      0.09423405677080154,
      0.013434164226055145,
      0.024791711941361427,
      -0.1675725281238556,
      -0.21504931151866913,
      -0.08065815269947052,
      0.2248215675354004,
      -0.4968288242816925,
      -0.6682721376419067,
      0.07711134105920792,
      0.03795776516199112,
      -0.5133635401725769,
      -0.20659947395324707,
      -2.088346481323242,
      -0.23301571607589722,
      -0.7150712013244629,
      -2.4170725345611572,
      -1.8176300525665283,
      -0.9547568559646606,
      0.23452016711235046,
      -0.008403046987950802,
      0.008272646926343441,
      -0.2672971487045288,
      -0.026401475071907043,
      -0.0592971071600914,
      -0.33080118894577026,
      0.161126047372818,
      0.040150005370378494,
      0.057514723390340805,
      0.009275639429688454,
      0.00197183177806437,
      0.0957595705986023
    ],
    [
      0.018684938549995422,
      -0.003035187954083085,
      0.009386074729263783,
      -0.3714330792427063,
      -3.0401268005371094,
      -0.06626640260219574,
      0.04394328221678734,
      -2.6313767433166504,
      -1.7409189939498901,
      0.04305979236960411,
      -0.039624445140361786,
      -0.35326358675956726,
      -0.015002279542386532,
      -0.6952024698257446,
      -0.5191382169723511,
      -2.2486367225646973,
      -0.6913650035858154,
      -2.2204043865203857,
      -1.92495596408844,
      0.0027265700045973063,
      -0.00756436213850975,
      0.007532332092523575,
      -1.3915882110595703,
      -0.12142081558704376,
      0.0005488833994604647,
      -3.234795093536377,
      0.07867719233036041,
      -0.013027198612689972,
      -0.06718862801790237,
      0.003240683814510703,
      -0.0037068077363073826,
      0.04807296395301819
    ],
    [
      -0.7551072239875793,
      -1.2954648733139038,
      -1.8057667016983032,
      -0.3076208531856537,
      0.10123302042484283,
      -0.4479112923145294,
      -0.438019335269928,
      0.02552787959575653,
      -0.1969984620809555,
      -0.7081612944602966,
      -0.6085534691810608,
      0.2611461579799652,
      -0.13670115172863007,
      0.12617279589176178,
      0.08770961314439774,
      -0.019730394706130028,
      -0.032534658908843994,
      0.025421056896448135,
      -0.34256669878959656,
      -0.35489553213119507,
      -1.5554001331329346,
      -1.809301495552063,
      0.047142140567302704,
      -0.10192184895277023,
      -0.4754141867160797,
      0.00651451013982296,
      -0.5128616690635681,
      -0.6120365858078003,
      -0.3063611090183258,
      -0.7025716304779053,
      -1.5865447521209717,
      -0.5999478101730347
    ],
    [
      -1.0501863956451416,
      -0.0075650205835700035,
      -0.01004931703209877,
      0.07033699750900269,
      0.1463308185338974,
      -0.07059340924024582,
      -0.8794873952865601,
      0.09429146349430084,
      0.5763882994651794,
      -1.6261948347091675,
      -1.4890737533569336,
      0.96519535779953,
      0.5670416951179504,
      0.2772252559661865,
      0.03330681845545769,
      -0.022784311324357986,
      0.18507160246372223,
      0.037255167961120605,
      0.5242486596107483,
      -0.806294322013855,
      -0.0018948109354823828,
      0.006441706791520119,
      0.07004406303167343,
      0.12686075270175934,
      0.05095665156841278,
      0.055088240653276443,
      -0.7938001155853271,
      -0.6680349707603455,
      -2.402188301086426,
      -0.011955290101468563,
      -0.01617354154586792,
      -1.0217304229736328
    ],
    [
      0.0735219419002533,
      -0.011606949381530285,
      -0.02108636498451233,
      -0.15365548431873322,
      -0.24156376719474792,
      -0.07297445088624954,
      0.22110918164253235,
      -0.1342884600162506,
      -1.3844811916351318,
      0.11548445373773575,
      0.06607158482074738,
      -0.8256389498710632,
      -0.39574041962623596,
      -2.9830098152160645,
      -0.11103904992341995,
      -0.35236817598342896,
      -1.5092847347259521,
      -0.3179304897785187,
      -1.3031433820724487,
      0.1409849375486374,
      -0.01405547745525837,
      -0.041489288210868835,
      -0.06077985465526581,
      -0.05438213795423508,
      -0.07625161111354828,
      -0.12299776077270508,
      0.19883936643600464,
      0.011380234733223915,
      0.10825071483850479,
      -0.05146697908639908,
      -0.021621176972985268,
      0.0724591389298439
    ],
    [
      -0.8207076787948608,
      0.0012831126805394888,
      0.0480848029255867,
      0.05972256138920784,
      -0.18959657847881317,
      -0.014654448255896568,
      -0.32381001114845276,
      -0.09080065041780472,
      0.0810660794377327,
      -0.2478295862674713,
      -0.02519010193645954,
      0.34733325242996216,
      -0.2734469175338745,
      -0.4077582359313965,
      -0.0964110940694809,
      0.9103934168815613,
      -0.306109756231308,
      -0.14336435496807098,
      -0.19208253920078278,
      -0.43042904138565063,
      0.0371171273291111,
      0.03488314896821976,
      -0.0822286382317543,
      0.10710354149341583,
      0.1405399590730667,
      -0.043193645775318146,
      -0.7875139713287354,
      -0.013015791773796082,
      -0.1623779982328415,
      -0.010389197617769241,
      0.05600434169173241,
      -0.10622797906398773
    ],
    [
      0.035355452448129654,
      0.0018272949382662773,
      -0.008683920837938786,
      -2.3948445320129395,
      -2.8846797943115234,
      -0.19589659571647644,
      0.10821432620286942,
      -1.6805965900421143,
      -2.4081804752349854,
      0.04876880347728729,
      -0.005110797937959433,
      -0.8618948459625244,
      -0.025539016351103783,
      -0.7219798564910889,
      -0.719922661781311,
      -3.2289419174194336,
      -1.40962815284729,
      -2.43656587600708,
      -3.0962061882019043,
      0.08878423273563385,
      0.011300683952867985,
      -0.0005263856146484613,
      -0.5565393567085266,
      0.10015110671520233,
      -0.04665127024054527,
      -0.5051791071891785,
      -0.0007660815608687699,
      -0.005562332458794117,
      -0.034795768558979034,
      -0.030344650149345398,
      0.0059980666264891624,
      0.04608245939016342
    ],
    [
      -0.7462112903594971,
      -0.030430227518081665,
      -0.03082900680601597,
      0.06076853349804878,
      -0.0432593934237957,
      0.0026976261287927628,
      -0.6487004160881042,
      0.03891998901963234,
      0.3508378565311432,
      -0.4097452759742737,
      -0.18492351472377777,
      0.8048809170722961,
      0.4873577654361725,
      0.11255788803100586,
      0.07836934924125671,
      -0.12485427409410477,
      0.0992908850312233,
      0.08556957542896271,
      0.45389342308044434,
      -0.569382905960083,
      -0.04344546049833298,
      -0.06062038987874985,
      0.010935327969491482,
      0.044215768575668335,
      -0.07770366966724396,
      -2.8373348712921143,
      -0.9469061493873596,
      -0.15558987855911255,
      -0.1818472445011139,
      -0.03941258043050766,
      -0.05885927379131317,
      -0.0909377709031105
    ],
    [
      -0.0964680016040802,
      -0.009322951547801495,
      -0.21963059902191162,
      -0.08223740756511688,
      -0.06162525713443756,
      -0.1328170746564865,
      0.12119890749454498,
      -0.08029602468013763,
      -0.1284732073545456,
      -0.07386355102062225,
      -0.0699114128947258,
      0.06375054270029068,
      0.09767008572816849,
      -0.2062414437532425,
      -0.019619252532720566,
      -0.1672423630952835,
      0.056359097361564636,
      -0.18378277122974396,
      -0.014232465997338295,
      -0.07513200491666794,
      -0.035263486206531525,
      -0.18863129615783691,
      -0.055326685309410095,
      -0.1256471872329712,
      -0.11614808440208435,
      0.017260709777474403,
      -0.13464176654815674,
      -0.10856427252292633,
      0.0693032369017601,
      0.08602678775787354,
      -0.21415789425373077,
      -0.1626581996679306
    ],
    [
      -0.9887580871582031,
      -0.005149927455931902,
      -0.015674471855163574,
      0.17479340732097626,
      0.31622469425201416,
      0.04676690325140953,
      -0.7067514061927795,
      0.003974876366555691,
      0.7735779881477356,
      -0.849502444267273,
      -0.15510223805904388,
      1.028735637664795,
      0.586155891418457,
      0.26739761233329773,
      0.034521766006946564,
      0.06578651070594788,
      0.300943523645401,
      0.08794872462749481,
      0.5581497550010681,
      -0.6811363101005554,
      0.017229802906513214,
      0.0036080556455999613,
      0.06953124701976776,
      0.06212306022644043,
      0.0355633869767189,
      0.12398479878902435,
      -1.1627707481384277,
      -0.11163758486509323,
      -0.39710134267807007,
      -0.007493957411497831,
      0.01797647215425968,
      -0.5865756869316101
    ],
    [
      0.1548561155796051,
      -0.013443909585475922,
      -0.033382706344127655,
      -0.1272113174200058,
      -0.645844578742981,
      -0.07033350318670273,
      0.16363941133022308,
      -0.11828525364398956,
      -1.0398224592208862,
      0.20098891854286194,
      0.053608767688274384,
      -0.7985876202583313,
      -0.3651958703994751,
      -3.224294900894165,
      -0.03050471842288971,
      -0.48574596643447876,
      -3.285627603530884,
      -0.28555986285209656,
      -1.5945937633514404,
      0.16247700154781342,
      -0.00551221426576376,
      0.002889412920922041,
      -0.07823936641216278,
      0.1277577131986618,
      -0.07810809463262558,
      -0.12143101543188095,
      0.2762325406074524,
      0.0052512953989207745,
      0.06567063182592392,
      -0.04118942469358444,
      -0.010760939680039883,
      0.09324785321950912
    ],
    [
      0.10189677029848099,
      -0.0037020763847976923,
      0.008930523879826069,
      -0.17196813225746155,
      -0.9774653315544128,
      -0.0369119793176651,
      0.17633438110351562,
      -0.5930699706077576,
      -1.7713149785995483,
      0.03867971897125244,
      -0.030853787437081337,
      -0.4441099166870117,
      -0.40992575883865356,
      -1.533199429512024,
      -0.22742509841918945,
      -2.2400574684143066,
      -2.670011281967163,
      -2.9490766525268555,
      -2.28002667427063,
      0.0703396424651146,
      -0.003932621330022812,
      -0.015340983867645264,
      -0.4583069682121277,
      0.11989019811153412,
      -0.05787461996078491,
      -0.41141170263290405,
      0.20369960367679596,
      -0.0037943990901112556,
      -0.016387809067964554,
      -0.01612565666437149,
      -0.0020408511627465487,
      0.07409097999334335
    ],
    [
      0.015182067640125751,
      0.012839021161198616,
      0.012711812742054462,
      -0.1452617049217224,
      -0.20312868058681488,
      -0.058603089302778244,
      0.10429268330335617,
      -0.5628242492675781,
      -0.49903035163879395,
      0.09908592700958252,
      0.0008174140239134431,
      -0.3078879117965698,
      -0.020764458924531937,
      -1.2448105812072754,
      -0.2629065215587616,
      -1.9682730436325073,
      -1.7905070781707764,
      -3.171156167984009,
      -0.8133223652839661,
      0.17054207623004913,
      -0.014759032055735588,
      0.024297788739204407,
      -0.365132212638855,
      0.13605733215808868,
      -0.02731459215283394,
      -0.32647469639778137,
      0.11809767782688141,
      0.04039469733834267,
      0.020987236872315407,
      -0.025767745450139046,
      -0.00596963195130229,
      0.14641660451889038
    ],
    [
      0.12015583366155624,
      0.005950949154794216,
      -0.006775059271603823,
      -0.13216039538383484,
      -0.26026850938796997,
      -0.09312278032302856,
      0.20284688472747803,
      -0.20625688135623932,
      -1.1660215854644775,
      0.19819314777851105,
      0.021597251296043396,
      -0.7291876673698425,
      -0.7697113156318665,
      -2.0006637573242188,
      -0.11122329533100128,
      -0.40737542510032654,
      -2.0325281620025635,
      -0.5336893796920776,
      -1.326813817024231,
      0.11210993677377701,
      0.005703779868781567,
      0.00619920901954174,
      -0.17647187411785126,
      -0.045437783002853394,
      -0.04782967269420624,
      -0.16918709874153137,
      0.15027756989002228,
      0.012206561863422394,
      0.08791594952344894,
      -0.040849585086107254,
      0.014568746089935303,
      0.14045873284339905
    ],
    [
      -0.7589945793151855,
      -0.014785975217819214,
      -0.019524557515978813,
      -0.24531817436218262,
      0.19288219511508942,
      0.5641751885414124,
      -0.8446377515792847,
      -0.0010437140008434653,
      0.7300671339035034,
      -0.5712146162986755,
      -0.134821817278862,
      1.0564802885055542,
      0.43778467178344727,
      0.34359997510910034,
      -0.06816448271274567,
      0.013973256573081017,
      0.3721124827861786,
      0.02005564048886299,
      0.6945194005966187,
      -0.6561012864112854,
      -0.016384152695536613,
      -0.03163499757647514,
      0.06915134936571121,
      -0.09124497324228287,
      -0.14871646463871002,
      0.10633527487516403,
      -0.9275921583175659,
      -0.09522552788257599,
      -0.21862076222896576,
      -0.0573066771030426,
      -0.018232256174087524,
      -0.4111758768558502
    ],
    [
      0.16823551058769226,
      0.0036891158670186996,
      -0.008573920466005802,
      -0.1572263240814209,
      -0.22161537408828735,
      -0.06416789442300797,
      0.0953010842204094,
      -0.11978273838758469,
      -1.3346569538116455,
      0.1713838130235672,
      0.043668054044246674,
      -1.009967565536499,
      -0.9257233738899231,
      -2.042043685913086,
      -0.07362204790115356,
      -0.33546021580696106,
      -1.367688536643982,
      -0.2791401147842407,
      -1.3861068487167358,
      0.18222379684448242,
      -0.0077684177085757256,
      0.0031456099823117256,
      -0.037327129393815994,
      -0.013220429420471191,
      -0.09714677929878235,
      -0.1299542486667633,
      0.17536677420139313,
      -0.01271215733140707,
      0.1142556294798851,
      -0.052790187299251556,
      -0.016174981370568275,
      0.0913996696472168
    ],
    [
      -0.4935707747936249,
      0.01734120398759842,
      0.009547923691570759,
      0.43381553888320923,
      0.23887386918067932,
      -0.271923691034317,
      -0.6157713532447815,
      -0.0017638831632211804,
      0.6539751887321472,
      -0.626655638217926,
      -0.002389627741649747,
      1.1262434720993042,
      0.47495922446250916,
      0.21486365795135498,
      -0.06263285130262375,
      0.04912786930799484,
      0.3044680058956146,
      0.19124235212802887,
      0.5346289873123169,
      -0.8170289397239685,
      0.01015692949295044,
      0.01213092915713787,
      -0.06662454456090927,
      -0.02434438467025757,
      -0.046762675046920776,
      0.07812929898500443,
      -0.6702532172203064,
      0.02180432714521885,
      0.030353685840964317,
      -0.03390904515981674,
      0.026822015643119812,
      -0.2388690710067749
    ],
    [
      -1.1003303527832031,
      -0.017178598791360855,
      -0.030569888651371002,
      -0.16293390095233917,
      0.0860624834895134,
      -0.06702527403831482,
      -0.8503623008728027,
      0.10434150695800781,
      0.44487836956977844,
      -1.2710223197937012,
      -2.849550724029541,
      0.8648831248283386,
      0.5391363501548767,
      0.11757422983646393,
      0.14739450812339783,
      -0.0905788317322731,
      0.08256004750728607,
      0.1384247988462448,
      0.3293519616127014,
      -0.6087180972099304,
      0.0011460413224995136,
      -0.031898725777864456,
      0.11846791207790375,
      0.1288825422525406,
      -0.023909136652946472,
      0.011863499879837036,
      -0.6607266664505005,
      -1.8266205787658691,
      -2.495086669921875,
      -0.026683097705245018,
      -0.005604999139904976,
      -0.7259881496429443
    ]
  ],
  "fc2.bias": [
    0.26906707882881165,
    -0.08412997424602509,
    0.3218782842159271,
    0.07150848954916,
    0.4794779121875763,
    0.06599953770637512,
    0.3192231357097626,
    0.18344949185848236,
    0.32518884539604187,
    0.46456289291381836,
    0.04854948818683624,
    0.4862428307533264,
    0.4568053185939789,
    0.3772343695163727,
    0.458855539560318,
    0.3676627278327942,
    0.36757516860961914,
    0.18275143206119537,
    0.4743957817554474,
    -0.36082977056503296,
    0.4470210373401642,
    0.3547145426273346,
    -0.24123603105545044,
    0.021100252866744995,
    0.464538037776947,
    0.4214540719985962,
    0.45660287141799927,
    0.42553043365478516,
    0.06842399388551712,
    0.46528878808021545,
    -0.017625516280531883,
    0.22158421576023102
  ],
  "fc3.weight": [
    [
      0.18731188774108887,
      0.6510894298553467,
      0.9919535517692566,
      0.1522412747144699,
      -0.09420929849147797,
      0.16923508048057556,
      -0.31576302647590637,
      0.14293842017650604,
      -0.20651569962501526,
      -0.09530283510684967,
      0.1691022366285324,
      0.40023073554039,
      -0.10125089436769485,
      -0.0996478796005249,
      -0.10317620635032654,
      -0.2199927270412445,
      0.73060542345047,
      0.1895773857831955,
      -0.0852091833949089,
      0.9754924774169922,
      -0.1576429009437561,
      0.5060892105102539,
      -0.01927325315773487,
      0.15230178833007812,
      -0.08726928383111954,
      -0.12503764033317566,
      -0.11175259947776794,
      -0.09193983674049377,
      0.1771518737077713,
      -0.0860062912106514,
      0.1799888163805008,
      0.2103819102048874
    ]
  ],
  "fc3.bias": [
    0.08699171990156174
  ]
}