{
  "fc1.weight": [
    [
      0.4591090977191925,
      0.2876790463924408
    ],
    [
      -0.2617165148258209,
      -0.1230613961815834
    ],
    [
      0.042865268886089325,
      0.5364962816238403
    ],
    [
      0.2888827323913574,
      0.1587100476026535
    ],
    [
      0.0897507593035698,
      0.659420907497406
    ],
    [
      -0.6358575224876404,
      -0.38433247804641724
    ],
    [
      -0.4790927469730377,
      -0.2471923530101776
    ],
    [
      0.14729337394237518,
      0.4752826690673828
    ],
    [
      0.019556738436222076,
      0.6718457341194153
    ],
    [
      -0.045276615768671036,
      -0.4887216091156006
    ],
    [
      0.09909456223249435,
      0.5557599067687988
    ],
    [
      -0.46270817518234253,
      -0.26692402362823486
    ],
    [
      0.5993737578392029,
      -0.5281580090522766
    ],
    [
      -0.889296293258667,
      -0.29313451051712036
    ],
    [
      -0.36993733048439026,
      -0.2158273458480835
    ],
    [
      0.35739272832870483,
      -0.5245410203933716
    ],
    [
      -0.03035123459994793,
      -0.4345095157623291
    ],
    [
      -0.4213964343070984,
      -0.22857321798801422
    ],
    [
      -0.05543874576687813,
      -0.5103449821472168
    ],
    [
      -0.33434203267097473,
      -0.19198419153690338
    ],
    [
      0.39842143654823303,
      -0.3060242533683777
    ],
    [
      0.09085880219936371,
      0.26101407408714294
    ],
    [
      -0.7655642628669739,
      -0.2825969457626343
    ],
    [
      -0.5660150647163391,
      -0.260132372379303
    ],
    [
      0.04193931818008423,
      0.6403868794441223
    ],
    [
      -0.05139358714222908,
      -0.4983391761779785
    ],
    [
      -0.2361464649438858,
      -0.11898884922266006
    ],
    [
      0.46857234835624695,
      0.9169367551803589
    ],
    [
      -0.6060169339179993,
      0.0964173674583435
    ],
    [
      0.019175469875335693,
      0.02929586172103882
    ],
    [
      0.12513524293899536,
      0.3568747341632843
    ],
    [
      0.6094827055931091,
      0.1380954384803772
    ]
  ],
  "fc1.bias": [
    -0.6624690890312195,
    0.28795430064201355,
    -0.8205068111419678,
    -0.24285286664962769,
    -0.8481380939483643,
    -0.1372787058353424,
    0.03701283782720566,
    -0.45128265023231506,
    -1.086106300354004,
    0.750328540802002,
    -0.6431752443313599,
    0.28833189606666565,
    -0.38059988617897034,
    0.1599184274673462,
    0.2952028214931488,
    0.18182477355003357,
    0.6618947982788086,
    0.09730666875839233,
    0.7921580672264099,
    0.3965162932872772,
    -0.45124226808547974,
    -0.1356651484966278,
    0.4108651578426361,
    -0.16029506921768188,
    -1.0099663734436035,
    0.7427326440811157,
    0.36817651987075806,
    -0.1965089589357376,
    -0.3477826416492462,
    -0.3147064745426178,
    -0.28051796555519104,
    -0.7323257327079773
  ],
  "fc2.weight": [
    [
      0.024309033527970314,
      -0.04783305525779724,
      0.6006608605384827,
      -0.014886090531945229,
      0.14963315427303314,
      -0.5468253493309021,
      -0.04935478791594505,
      -0.017580769956111908,
      0.6982640027999878,
      -0.6563490033149719,
      -0.15677082538604736,
      -0.019314570352435112,
      -0.9009730815887451,
      -0.005908557213842869,
      -0.02577553503215313,
      -0.7977421283721924,
      -0.825636088848114,
      -0.04169994965195656,
      -0.6875004172325134,
      -0.0015667889965698123,
      -0.2778795063495636,
      -0.07923087477684021,
      0.023942692205309868,
      -0.22892774641513824,
      0.7911845445632935,
      -0.6459627747535706,
      -0.04071066528558731,
      0.028696415945887566,
      -0.10994824022054672,
      -0.0025396645069122314,
      0.04098866507411003,
      0.13884131610393524
    ],
    [
      -1.1436941623687744,
      0.06000636890530586,
      -1.0039693117141724,
      -0.5768544673919678,
      -2.5618462562561035,
      0.1302742063999176,
      0.11448616534471512,
      -2.4774022102355957,
      -1.3490405082702637,
      -0.009267953224480152,
      -2.3688294887542725,
      0.06683193892240524,
      -0.07137284427881241,
      0.028829118236899376,
      0.0815252885222435,
      -0.04328984022140503,
      -0.029587460681796074,
      0.14011648297309875,
      -0.01516010146588087,
      0.0321156345307827,
      -0.11249813437461853,
      -0.6035988330841064,
      -0.02765684388577938,
      0.19134357571601868,
      -1.1237539052963257,
      0.007874156348407269,
      0.04125891998410225,
      -0.21233195066452026,
      0.1922810673713684,
      0.023561671376228333,
      -1.519242763519287,
      -1.538860559463501
    ],
    [
      0.14769789576530457,
      -0.03673214837908745,
      0.5698771476745605,
      0.15165963768959045,
      0.10677222162485123,
      -0.15581810474395752,
      -0.06802608072757721,
      -0.03354177251458168,
      1.2085322141647339,
      -0.060480665415525436,
      0.14937637746334076,
      -0.05650143697857857,
      -0.16580121219158173,
      0.004626613575965166,
      -0.04248785227537155,
      -0.181301087141037,
      -0.07087010890245438,
      -0.12912780046463013,
      -0.06626905500888824,
      -0.03276140242815018,
      -0.27681827545166016,
      -0.04140167683362961,
      -0.006667375098913908,
      -0.13579347729682922,
      1.1097302436828613,
      -0.055108360946178436,
      -0.043602462857961655,
      -2.052286386489868,
      0.06671519577503204,
      -0.06318610906600952,
      0.02192539907991886,
      0.13001783192157745
    ],
    [
      -1.665573000907898,
      0.05275942385196686,
      -1.3769166469573975,
      -0.7457985877990723,
      -1.6962363719940186,
      0.15247251093387604,
      0.1527594029903412,
      -0.9152227640151978,
      -1.7028175592422485,
      -0.01858634501695633,
      -1.3493307828903198,
      0.10117164254188538,
      -0.06793191283941269,
      0.008914395235478878,
      0.06261288374662399,
      -0.021350406110286713,
      -0.028276873752474785,
      0.13773587346076965,
      -0.036261897534132004,
      0.03132443130016327,
      -0.12551084160804749,
      -0.17741885781288147,
      -5.062119453214109e-05,
      0.18350976705551147,
      -1.76318359375,
      0.004076732788234949,
      0.020722966641187668,
      -0.16784830391407013,
      0.213356152176857,
      -0.023326903581619263,
      -0.5282939076423645,
      -2.428792715072632
    ],
    [
      0.04308206960558891,
      -0.06066569685935974,
      0.31807875633239746,
      0.07153283059597015,
      -0.20278404653072357,
      -0.39434006810188293,
      -0.023065611720085144,
      0.018263258039951324,
      0.4857390820980072,
      -1.6610305309295654,
      -0.20347633957862854,
      -0.03158579021692276,
      -0.8306244015693665,
      0.026657553389668465,
      0.007231772877275944,
      -1.2161444425582886,
      -2.822448492050171,
      -0.03613144904375076,
      -2.2602298259735107,
      -0.02297414466738701,
      -0.714604377746582,
      -0.026987873017787933,
      0.006997773423790932,
      -0.12900538742542267,
      0.8657218217849731,
      -2.579371690750122,
      -0.06921182572841644,
      0.008986464701592922,
      -0.0265311561524868,
      -0.14695057272911072,
      -0.08067922294139862,
      0.06290615350008011
    ],
    [
      -1.3349500894546509,
      0.04854952171444893,
      -1.415229082107544,
      -0.678808867931366,
      -1.614672064781189,
      0.17670202255249023,
      0.1695641726255417,
      -1.0156067609786987,
      -1.4538040161132812,
      -0.0054268185049295425,
      -1.268316388130188,
      0.0676346942782402,
      -0.09660974144935608,
      0.005585948936641216,
      0.08520981669425964,
      -0.059520695358514786,
      -0.011315642856061459,
      0.190109983086586,
      -0.032810892909765244,
      0.036538202315568924,
      -0.16837738454341888,
      -0.36557653546333313,
      -0.014784305356442928,
      0.18127457797527313,
      -1.3589904308319092,
      0.0011181858135387301,
      0.025739653035998344,
      -0.19362013041973114,
      0.25634434819221497,
      -0.06711526960134506,
      -0.625346839427948,
      -2.3819849491119385
    ],
    [
      -0.29514166712760925,
      0.04940614476799965,
      -0.2985146641731262,
      -3.525573968887329,
      -0.9961630702018738,
      0.017753424122929573,
      0.033568140119314194,
      -3.0585620403289795,
      -0.651275098323822,
      -0.007674466818571091,
      -2.1017351150512695,
      0.02885827235877514,
      -2.029585599899292,
      -0.032808564603328705,
      0.0515308603644371,
      -0.2813672423362732,
      0.008381396532058716,
      0.03121449425816536,
      0.007535337470471859,
      0.055808693170547485,
      -3.3413383960723877,
      -3.9153940677642822,
      -0.02127372846007347,
      0.03740919008851051,
      -0.21731016039848328,
      0.004367772955447435,
      0.06475196033716202,
      -2.179831027984619,
      0.15076586604118347,
      0.10645021498203278,
      -3.5938544273376465,
      -1.0858114957809448
    ],
    [
      0.08225712925195694,
      -0.09097351878881454,
      0.5990971326828003,
      0.18049493432044983,
      0.15260107815265656,
      -0.560926079750061,
      -0.020216524600982666,
      0.07530032098293304,
      0.9842861890792847,
      -0.13743343949317932,
      0.027751483023166656,
      -0.03696170821785927,
      -0.9152432084083557,
      0.0027736108750104904,
      -0.05257084593176842,
      -0.10794936120510101,
      -0.2449146956205368,
      -0.052212998270988464,
      -0.217016339302063,
      -0.11847275495529175,
      -0.23232266306877136,
      0.12469980120658875,
      -0.008939975872635841,
      -0.18182562291622162,
      1.0499544143676758,
      -0.183091938495636,
      -0.11922655999660492,
      0.00866728276014328,
      -0.08570171892642975,
      -0.14627642929553986,
      0.06753139942884445,
      0.17274706065654755
    ],
    [
      -0.4587491750717163,
      -0.11537417769432068,
      -0.2440628707408905,
      -0.4488012492656708,
      -0.4227132499217987,
      -0.14023134112358093,
      -0.16518700122833252,
      -0.8001255393028259,
      -0.8107208013534546,
      -0.0025983741506934166,
      -0.5798774361610413,
      -0.10049264878034592,
      0.029946807771921158,
      0.7951358556747437,
      -0.10887517780065536,
      0.018582910299301147,
      0.0027476786635816097,
      -0.170625701546669,
      0.007924869656562805,
      -0.06876164674758911,
      -0.0684933140873909,
      -0.33688369393348694,
      -0.054817117750644684,
      -0.21339207887649536,
      -0.2354435920715332,
      -0.0036802091635763645,
      -0.06681109219789505,
      -0.1142108142375946,
      -0.3219062089920044,
      -0.10410813242197037,
      -0.4070902466773987,
      -0.9944301843643188
    ],
    [
      -0.39274483919143677,
      -0.10482790321111679,
      -0.8382238149642944,
      -0.7714296579360962,
      -0.36559805274009705,
      -0.14730438590049744,
      -0.16551946103572845,
      -0.08121903240680695,
      -0.8648079037666321,
      0.0007346485508605838,
      -0.1261531412601471,
      -0.1011563092470169,
      0.10048813372850418,
      -0.07861009240150452,
      -0.10037795454263687,
      0.052271150052547455,
      0.010754515416920185,
      -0.1650998443365097,
      4.327806891524233e-05,
      -0.06494109332561493,
      -0.028302544727921486,
      -0.08619967848062515,
      0.8031858205795288,
      -0.17764192819595337,
      -1.058139443397522,
      -0.010625378228724003,
      -0.08861976116895676,
      -0.08459723740816116,
      -0.19949573278427124,
      -0.0389377623796463,
      -0.05591322481632233,
      -0.7584572434425354
    ],
    [
      0.17505568265914917,
      -0.12913240492343903,
      0.672312319278717,
      0.08069651573896408,
      0.3340153992176056,
      -0.9903203845024109,
      -0.20937031507492065,
      0.15471245348453522,
      1.1063508987426758,
      -0.018828917294740677,
      0.34635207056999207,
      -0.14787006378173828,
      0.2548997104167938,
      0.07937491685152054,
      -0.12572643160820007,
      -0.022249972447752953,
      -0.05092496797442436,
      -0.16441422700881958,
      -0.034405384212732315,
      -0.1158667653799057,
      -0.15217046439647675,
      0.15123121440410614,
      -0.037272341549396515,
      -0.6559985876083374,
      0.8157180547714233,
      -0.03255481272935867,
      -0.10493810474872589,
      0.0415983647108078,
      0.15048553049564362,
      0.02441859245300293,
      0.09438728541135788,
      0.04079892113804817
    ],
    [
      0.1434389054775238,
      -0.05940420553088188,
      0.948085606098175,
      0.12135857343673706,
      0.2592720687389374,
      -1.482059359550476,
      -1.1935207843780518,
      0.1563834697008133,
      0.8333361744880676,
      0.004173229448497295,
      0.322038859128952,
      -0.1871865689754486,
      0.027769530192017555,
      -0.09150100499391556,
      -0.14062443375587463,
      0.005796653218567371,
      0.012509209103882313,
      -1.1324247121810913,
      0.011562930420041084,
      0.005491967778652906,
      -0.013112260028719902,
      0.09201273322105408,
      -0.12704750895500183,
      -0.8940764665603638,
      0.9326239824295044,
      0.019587239250540733,
      -0.025741051882505417,
      0.016225557774305344,
      -0.02513917163014412,
      0.15378005802631378,
      0.2283673733472824,
      0.1281551569700241
    ],
    [
      -1.7562921047210693,
      0.050228580832481384,
      -1.179503083229065,
      -0.2378300428390503,
      -1.8628756999969482,
      0.1352846920490265,
      0.17483079433441162,
      -1.3193514347076416,
      -1.4748954772949219,
      -0.02159753255546093,
      -1.5094257593154907,
      0.056930750608444214,
      -0.06452271342277527,
      0.007270557340234518,
      0.11607995629310608,
      -0.03536368906497955,
      -0.024640318006277084,
      0.10620987415313721,
      -0.0167684406042099,
      0.044412191957235336,
      -0.11904232203960419,
      -0.38113993406295776,
      0.003432575846090913,
      0.1834987998008728,
      -1.200441837310791,
      -0.014800033532083035,
      0.024454528465867043,
      -0.16529899835586548,
      0.23418647050857544,
      0.1450207680463791,
      -0.8197236657142639,
      -0.37580445408821106
    ],
    [
      -0.21251727640628815,
      0.2156391441822052,
      -0.10976999253034592,
      -0.1737700253725052,
      -0.23010128736495972,
      -0.2853641211986542,
      -0.12725524604320526,
      -0.22472582757472992,
      0.01009661890566349,
      0.029616639018058777,
      -0.2378399670124054,
      -0.005687251221388578,
      0.21752029657363892,
      -0.03230726718902588,
      0.03909210488200188,
      0.06908299773931503,
      0.015197813510894775,
      -0.09534797817468643,
      0.033327143639326096,
      0.10421282798051834,
      -0.03769245743751526,
      -0.15557019412517548,
      0.03785974532365799,
      -0.14597781002521515,
      0.34840595722198486,
      0.017330659553408623,
      0.14866530895233154,
      0.6178070306777954,
      0.014505794271826744,
      -0.15451447665691376,
      -0.20834216475486755,
      -0.14653770625591278
    ],
    [
      -0.435928612947464,
      0.12386756390333176,
      -0.6034131646156311,
      -2.040665864944458,
      -1.6659780740737915,
      0.023130986839532852,
      0.09780603647232056,
      -3.0506768226623535,
      -0.7343782782554626,
      0.00357700209133327,
      -2.5321028232574463,
      0.04407774284482002,
      -0.05706392228603363,
      0.00950582791119814,
      0.044138018041849136,
      0.002780934562906623,
      -0.007565974723547697,
      0.08177688717842102,
      0.012668575160205364,
      0.012825403362512589,
      -0.15917696058750153,
      -2.5257694721221924,
      -0.004629604052752256,
      0.10786277800798416,
      -0.725621223449707,
      -0.01233841385692358,
      0.06071091443300247,
      -0.7442352175712585,
      0.3066944181919098,
      -0.07584220170974731,
      -3.216240167617798,
      -2.3449721336364746
    ],
    [
      0.19793400168418884,
      -0.04634325951337814,
      0.6961914896965027,
      0.2895148694515228,
      0.1441711038351059,
      -0.6522594690322876,
      -0.13279707729816437,
      0.24735791981220245,
      0.9123702645301819,
      0.0035773771815001965,
      0.2183889001607895,
      -0.0369223989546299,
      -0.1864672750234604,
      -0.027881432324647903,
      -0.025981491431593895,
      0.03432100638747215,
      -0.01566983014345169,
      -0.13347186148166656,
      -0.007874555885791779,
      -0.04646829888224602,
      0.0646224170923233,
      0.015337061136960983,
      -0.04925836995244026,
      -0.21285615861415863,
      0.8457902669906616,
      -0.011240703985095024,
      -0.05246769264340401,
      0.024998968467116356,
      0.043617039918899536,
      0.16108958423137665,
      0.15804657340049744,
      0.06383515894412994
    ],
    [
      -0.3839450478553772,
      0.026128940284252167,
      -0.9361079335212708,
      -2.30490779876709,
      -2.3980679512023926,
      0.11899999529123306,
      0.13842111825942993,
      -2.8918769359588623,
      -0.9856755137443542,
      -0.00707950908690691,
      -2.647892713546753,
      0.05912776663899422,
      -0.28885418176651,
      -0.057888612151145935,
      0.058470629155635834,
      -0.16130955517292023,
      -0.007958460599184036,
      0.12080153822898865,
      0.005042976699769497,
      0.07328502833843231,
      -2.0938704013824463,
      -1.0025137662887573,
      -0.024195807054638863,
      0.1627233624458313,
      -0.6072534322738647,
      -0.0013500412460416555,
      0.09706226736307144,
      -0.21037235856056213,
      0.15413710474967957,
      0.1325448602437973,
      -2.1819586753845215,
      -1.7014961242675781
    ],
    [
      0.0886644572019577,
      -0.1431073248386383,
      0.7852480411529541,
      0.17418241500854492,
      0.3731589615345001,
      -0.6427631378173828,
      -0.04093541204929352,
      0.17336396872997284,
      0.9888948202133179,
      -0.020776839926838875,
      0.47195568680763245,
      -0.15905974805355072,
      0.06420723348855972,
      0.03392196074128151,
      -0.15105365216732025,
      0.08105051517486572,
      -0.0202226173132658,
      -0.1630169004201889,
      -0.03638899326324463,
      -0.08984258025884628,
      0.14858274161815643,
      0.19850051403045654,
      -0.04284214600920677,
      -0.17299756407737732,
      0.9243213534355164,
      -0.04439136013388634,
      -0.12480513751506805,
      0.08659955859184265,
      0.024470923468470573,
      -0.07840573787689209,
      0.30653560161590576,
      0.03906230255961418
    ],
    [
      -1.5985363721847534,
      0.033036816865205765,
      -1.5451973676681519,
      -0.36329129338264465,
      -1.9480719566345215,
      0.18320311605930328,
      0.13465255498886108,
      -0.99406898021698,
      -1.844910979270935,
      -0.01825723983347416,
      -1.5515340566635132,
      0.07021446526050568,
      -0.1134374588727951,
      -0.012194129638373852,
      0.08458913862705231,
      -0.052571747452020645,
      -0.0029230820946395397,
      0.14958812296390533,
      -0.0244813971221447,
      0.06442706286907196,
      -0.21165509521961212,
      -0.15263745188713074,
      -0.020034058019518852,
      0.21509204804897308,
      -1.8499120473861694,
      -0.023248720914125443,
      0.031312163919210434,
      -0.143961563706398,
      0.1937267780303955,
      -0.15682430565357208,
      -0.5538357496261597,
      -0.6380302309989929
    ],
    [
      0.27686983346939087,
      -0.06128248572349548,
      0.9410277605056763,
      0.13473272323608398,
      0.411550372838974,
      -1.957582712173462,
      -1.7657625675201416,
      0.31153351068496704,
      1.0004982948303223,
      0.014380073174834251,
      0.20269647240638733,
      -0.08208595961332321,
      0.011272630654275417,
      -0.27953293919563293,
      -0.07439065724611282,
      -0.014902109280228615,
      -0.011154507286846638,
      -0.3882642984390259,
      0.00040038637234829366,
      0.01972896046936512,
      -0.0011772549478337169,
      0.14848673343658447,
      -0.1366313397884369,
      -1.0076647996902466,
      1.122281789779663,
      0.01679397001862526,
      -0.017897333949804306,
      0.041078120470047,
      -0.010090861469507217,
      0.01783934235572815,
      0.12599697709083557,
      0.13699091970920563
    ],
    [
      0.0058514210395514965,
      -0.03547786921262741,
      0.8004539608955383,
      0.17905186116695404,
      0.16474677622318268,
      -0.37119078636169434,
      -0.14818304777145386,
      0.3084378242492676,
      1.0770597457885742,
      0.01786010153591633,
      0.2762903869152069,
      -0.05070033296942711,
      -0.17146626114845276,
      -0.06980457156896591,
      -0.04127911105751991,
      -0.0007516425102949142,
      0.010701996274292469,
      -0.1159152016043663,
      0.016457660123705864,
      -0.04378718510270119,
      0.07057985663414001,
      0.10269071161746979,
      -0.05057941749691963,
      -0.2510823905467987,
      0.8085436820983887,
      0.0053732567466795444,
      -0.03179951012134552,
      0.019678940996527672,
      0.023767895996570587,
      -0.17208494246006012,
      0.09925055503845215,
      0.2112005054950714
    ],
    [
      -0.5934836268424988,
      0.11305280774831772,
      -0.8759352564811707,
      -1.3922098875045776,
      -1.777919888496399,
      0.053627755492925644,
      0.19299335777759552,
      -1.9387539625167847,
      -1.4045660495758057,
      -0.0005846620188094676,
      -1.784319519996643,
      0.08204149454832077,
      -0.1389046013355255,
      -0.004505121149122715,
      0.08359462022781372,
      -0.0951700434088707,
      -0.004976699128746986,
      0.09964922070503235,
      0.017362268641591072,
      0.10788708925247192,
      -0.469929575920105,
      -1.1659395694732666,
      -0.0447215661406517,
      0.1578088253736496,
      -0.8400819301605225,
      0.00757587281987071,
      0.0582488551735878,
      -0.2579821050167084,
      0.2205858677625656,
      0.05002234876155853,
      -1.7235006093978882,
      -2.192059278488159
    ],
    [
      0.16261811554431915,
      -0.20917968451976776,
      0.6453828811645508,
      0.08264345675706863,
      0.33911702036857605,
      -0.6545324325561523,
      -0.7924829125404358,
      0.22066883742809296,
      0.7945985794067383,
      0.024029841646552086,
      0.3023347854614258,
      -0.8968181610107422,
      -0.009656548500061035,
      -1.325326681137085,
      -0.44103124737739563,
      -0.004597623832523823,
      0.010466144420206547,
      -3.846041679382324,
      0.003256287658587098,
      -0.13788489997386932,
      -0.02671940065920353,
      0.08272707462310791,
      -0.4896247684955597,
      -0.5905148983001709,
      1.018541693687439,
      -0.0004908408736810088,
      -0.11826322227716446,
      0.006449582055211067,
      -0.13521923124790192,
      0.09339673817157745,
      0.1437772959470749,
      0.05461856350302696
    ],
    [
      -0.5703083276748657,
      0.06476349383592606,
      -0.6584026217460632,
      -2.3446836471557617,
      -2.217507839202881,
      0.06099357083439827,
      0.09289956092834473,
      -2.8045313358306885,
      -1.1145426034927368,
      -0.0024365170393139124,
      -2.300949811935425,
      0.08019845187664032,
      -0.14471307396888733,
      -0.030987117439508438,
      0.033998358994722366,
      -0.08932123333215714,
      -0.003973287995904684,
      0.10533778369426727,
      -0.011661016382277012,
      0.08623215556144714,
      -0.44110527634620667,
      -1.645055890083313,
      -0.010885108262300491,
      0.1077917292714119,
      -0.8711791038513184,
      -0.0041138362139463425,
      0.07821387052536011,
      -0.31673991680145264,
      0.2367817610502243,
      -0.14548832178115845,
      -2.5622880458831787,
      -2.0760316848754883
    ],
    [
      -0.06659794598817825,
      -0.13773152232170105,
      -0.11072351783514023,
      0.0892794281244278,
      -0.04448700323700905,
      -0.007366627920418978,
      -0.17281872034072876,
      -0.16868487000465393,
      0.04992441087961197,
      -0.12220443785190582,
      -0.14479248225688934,
      -0.13803231716156006,
      -0.16496871411800385,
      0.07022444158792496,
      -0.04159006476402283,
      -0.13660719990730286,
      -0.11511430144309998,
      0.08893736451864243,
      -0.0013864082284271717,
      -0.16883711516857147,
      -0.009506886824965477,
      -0.06385844200849533,
      0.05229950323700905,
      -0.049055349081754684,
      -0.05030500143766403,
      -0.11478816717863083,
      -0.2031022161245346,
      0.01331537589430809,
      0.12243790924549103,
      -0.1498042345046997,
      -0.11531931161880493,
      -0.004584194626659155
    ],
    [
      0.16184937953948975,
      -0.06503510475158691,
      0.8157515525817871,
      0.029179774224758148,
      0.32692262530326843,
      -1.3218601942062378,
      -1.5560252666473389,
      0.20595622062683105,
      0.9022483825683594,
      -0.010379031300544739,
      0.2123480886220932,
      -0.2658574879169464,
      -0.0056212288327515125,
      -0.1753723919391632,
      -0.14739739894866943,
      0.002812871476635337,
      -0.005989204626530409,
      -2.7297093868255615,
      0.008259723894298077,
      -0.03582245856523514,
      0.029691245406866074,
      0.1028682291507721,
      -0.08675240725278854,
      -1.0519095659255981,
      0.9775181412696838,
      0.008472093380987644,
      -0.04076926410198212,
      0.04321856051683426,
      0.10857024788856506,
      -0.023996621370315552,
      0.1391782909631729,
      0.1683782935142517
    ],
    [
      0.09863203763961792,
      -0.03615617752075195,
      0.6093370914459229,
      0.171628937125206,
      0.3653706908226013,
      -1.4878249168395996,
      -0.32076597213745117,
      0.14776958525180817,
      1.0543608665466309,
      0.019844576716423035,
      0.27116405963897705,
      -0.03636658191680908,
      0.011111325584352016,
      -0.0849863737821579,
      -0.013427924364805222,
      -0.008498230949044228,
      0.00408207206055522,
      -0.12924447655677795,
      0.012510103173553944,
      -0.00029685895424336195,
      0.006182663142681122,
      0.18186816573143005,
      -0.0742807686328888,
      -1.0329855680465698,
      0.9783684015274048,
      0.008318210951983929,
      -0.01261162105947733,
      0.021791856735944748,
      0.0433710552752018,
      -0.03473222255706787,
      0.2042943686246872,
      0.18628723919391632
    ],
    [
      0.12301310896873474,
      0.006619305349886417,
      0.745173990726471,
      0.21676895022392273,
      0.39368337392807007,
      -0.5280120968818665,
      -0.12656430900096893,
      0.29652997851371765,
      0.9815495610237122,
      0.0058623566292226315,
      0.3972088098526001,
      -0.009600667282938957,
      0.05278615280985832,
      -0.04501516744494438,
      -0.025132952257990837,
      -0.04616923630237579,
      0.00025650972384028137,
      -0.07155395299196243,
      0.009798632003366947,
      0.03265153989195824,
      0.08465281873941422,
      0.10826454311609268,
      -0.02154296450316906,
      -0.24839529395103455,
      1.1538825035095215,
      0.00991852767765522,
      0.026790888980031013,
      0.06250620633363724,
      0.01300345454365015,
      0.01598517596721649,
      0.17159704864025116,
      0.16322959959506989
    ],
    [
      0.24253015220165253,
      -0.4370410740375519,
      0.7680243253707886,
      -0.14675401151180267,
      0.22296395897865295,
      -0.1682817041873932,
      -0.9360195398330688,
      0.13099510967731476,
      0.7540801763534546,
      -0.009598792530596256,
      0.11947111785411835,
      -3.813431739807129,
      -0.00019536376930773258,
      -1.0324149131774902,
      -1.018808364868164,
      6.694410694763064e-05,
      -0.01317216083407402,
      -1.8832238912582397,
      0.00406266562640667,
      -0.3300495445728302,
      -0.04336277395486832,
      0.0648997351527214,
      -1.686992883682251,
      -0.32583650946617126,
      1.1287052631378174,
      -0.003063073381781578,
      -0.21537525951862335,
      -0.0031702786218374968,
      -0.7356773614883423,
      0.02189008891582489,
      0.13525906205177307,
      -0.011252576485276222
    ],
    [
      0.06274941563606262,
      -1.3028271198272705,
      0.6029803156852722,
      -0.13109137117862701,
      0.09472193568944931,
      -0.12373825162649155,
      -0.5343354940414429,
      -0.028620198369026184,
      0.9123507738113403,
      -0.043772678822278976,
      -0.014071537181735039,
      -2.247084617614746,
      -0.0004494528111536056,
      -0.2576048970222473,
      -3.0836269855499268,
      -0.02547309920191765,
      -0.04826056957244873,
      -0.49023061990737915,
      -0.04455374553799629,
      -2.249316930770874,
      -0.09357787668704987,
      -0.017903845757246017,
      -1.1048312187194824,
      -0.1804424673318863,
      0.8475390076637268,
      -0.03756486997008324,
      -1.0660287141799927,
      -0.01264527440071106,
      -0.6306105256080627,
      -0.14051583409309387,
      -0.006179040297865868,
      -0.02390071004629135
    ],
    [
      -1.4307341575622559,
      0.05532597750425339,
      -1.4062144756317139,
      -0.5702589154243469,
      -1.694334626197815,
      0.13419727981090546,
      0.14969223737716675,
      -0.9907810091972351,
      -1.7697385549545288,
      0.011792303994297981,
      -1.2691373825073242,
      0.08485117554664612,
      -0.05190932750701904,
      0.005580213852226734,
      0.0592195987701416,
      -0.02921135351061821,
      -0.030582915991544724,
      0.16783465445041656,
      -0.016074709594249725,
      0.0193063635379076,
      -0.1381278783082962,
      -0.18372097611427307,
      -0.028494590893387794,
      0.17102459073066711,
      -1.3665066957473755,
      -0.002719748066738248,
      0.019210083410143852,
      -0.12281761318445206,
      0.2503564655780792,
      0.14546366035938263,
      -0.5529078841209412,
      -1.7289090156555176
    ],
    [
      0.027491766959428787,
      -0.0895676538348198,
      0.4165351390838623,
      0.04632749781012535,
      -0.33977749943733215,
      -0.30285322666168213,
      -0.605347216129303,
      -0.11162121593952179,
      0.6070327162742615,
      -0.831342339515686,
      -0.057506270706653595,
      -0.1630120575428009,
      -0.8760130405426025,
      -0.07027193903923035,
      -0.11291459947824478,
      -1.0657230615615845,
      -1.2216897010803223,
      -0.595958948135376,
      -1.0211890935897827,
      -0.16552916169166565,
      -0.35046419501304626,
      -0.03459278494119644,
      0.023389030247926712,
      -0.5279248356819153,
      0.7235375642776489,
      -0.9436212778091431,
      -0.2003546506166458,
      -0.040344130247831345,
      -0.029354333877563477,
      0.17594389617443085,
      -0.06336815655231476,
      0.10495702922344208
    ]
  ],
  "fc2.bias": [
    0.38256382942199707,
    0.2719503939151764,
    0.3550799489021301,
    0.2754092812538147,
    0.3318418562412262,
    0.2448672205209732,
    0.15519942343235016,
    0.38768813014030457,
    -0.01676487922668457,
    -0.2525247037410736,
    0.20935268700122833,
    0.1604340374469757,
    0.28986817598342896,
    -0.7192800045013428,
    0.1404344141483307,
    0.216552734375,
    0.22103291749954224,
    0.17141494154930115,
    0.26776307821273804,
    0.16522519290447235,
    0.11329583823680878,
    0.18472038209438324,
    0.2687174677848816,
    0.16702905297279358,
    -0.2646261155605316,
    0.20721955597400665,
    0.08572179079055786,
    0.1190628930926323,
    0.28749507665634155,
    0.355312317609787,
    0.23181146383285522,
    0.43060341477394104
  ],
  "fc3.weight": [
    [
      0.39456549286842346,
      -0.07550335675477982,
      0.47458234429359436,
      -0.06763918697834015,
      0.6399349570274353,
      -0.07458566874265671,
      -0.2032550871372223,
      0.231239452958107,
      -0.32522347569465637,
      -0.3703972399234772,
      0.21819530427455902,
      0.2237139642238617,
      -0.0645790621638298,
      1.6762741804122925,
      -0.10904695093631744,
      0.2321588099002838,
      -0.10410919040441513,
      0.18269571661949158,
      -0.07374066859483719,
      0.20544195175170898,
      0.2264200896024704,
      -0.08653697371482849,
      0.2129611074924469,
      -0.10329364985227585,
      -0.049339618533849716,
      0.24079526960849762,
      0.24364256858825684,
      0.18111103773117065,
      0.2903614044189453,
      0.4758630692958832,
      -0.07284599542617798,
      0.5637103915214539
    ]
  ],
  "fc3.bias": [
    -0.06968947499990463
  ]
}