{
  "fc1.weight": [
    [
      0.3516702651977539,
      -0.2232278287410736,
      0.5695182681083679
    ],
    [
      0.07276273518800735,
      0.07026584446430206,
      -0.6631643772125244
    ],
    [
      0.13649344444274902,
      -0.8297598361968994,
      0.5772439241409302
    ],
    [
      -0.03532830625772476,
      -0.09175180643796921,
      0.44588151574134827
    ],
    [
      0.08401813358068466,
      0.07763014733791351,
      -0.643458366394043
    ],
    [
      -0.20111382007598877,
      -0.20873966813087463,
      0.3560672104358673
    ],
    [
      0.16107654571533203,
      0.1723429560661316,
      -0.2995257079601288
    ],
    [
      0.11939376592636108,
      0.11361730098724365,
      -0.21624520421028137
    ],
    [
      0.08288701623678207,
      0.07301197946071625,
      -0.5411496162414551
    ],
    [
      -0.3457818925380707,
      0.30651646852493286,
      0.2554677724838257
    ],
    [
      0.4458021819591522,
      -0.326044499874115,
      0.4861624538898468
    ],
    [
      -0.08437662571668625,
      -0.081388458609581,
      0.5345107913017273
    ],
    [
      -0.1287885159254074,
      -0.10110205411911011,
      0.4648883044719696
    ],
    [
      0.11364690214395523,
      0.09824705868959427,
      -0.4690719246864319
    ],
    [
      0.1384328007698059,
      0.1333780437707901,
      -0.25739502906799316
    ],
    [
      0.06960756331682205,
      0.052956752479076385,
      -0.4541511535644531
    ],
    [
      0.10514699667692184,
      0.10021066665649414,
      -0.4789700210094452
    ],
    [
      -0.4841172695159912,
      -0.05630800500512123,
      0.38369184732437134
    ],
    [
      -0.06785058975219727,
      -0.29233473539352417,
      0.25081464648246765
    ],
    [
      0.05335399508476257,
      0.040980905294418335,
      -0.37923598289489746
    ],
    [
      -0.10316631942987442,
      -0.07133609801530838,
      0.44869738817214966
    ],
    [
      0.08865294605493546,
      0.09200728684663773,
      -0.437724232673645
    ],
    [
      -0.5384739637374878,
      0.036602843552827835,
      0.10908104479312897
    ],
    [
      0.06589584052562714,
      0.06347310543060303,
      -0.10695450752973557
    ],
    [
      0.05326070636510849,
      -0.6161990761756897,
      0.190823033452034
    ],
    [
      -0.10983747243881226,
      0.07165329158306122,
      0.5251734852790833
    ],
    [
      0.09417228400707245,
      0.10451575368642807,
      -0.3549576699733734
    ],
    [
      0.13683722913265228,
      0.13587349653244019,
      -0.3860938549041748
    ],
    [
      0.08104711025953293,
      -0.6246902346611023,
      -0.04374300315976143
    ],
    [
      -0.8007028698921204,
      0.01777360774576664,
      0.4095269441604614
    ],
    [
      -0.07606683671474457,
      -0.07154124975204468,
      0.41474148631095886
    ],
    [
      0.2756272852420807,
      0.2598758637905121,
      -0.7311843633651733
    ]
  ],
  "fc1.bias": [
    0.544326901435852,
    -1.1273725032806396,
    0.14517192542552948,
    0.8068918585777283,
    -1.134977102279663,
    -0.5810908079147339,
    -0.37519776821136475,
    -0.08740529417991638,
    -0.9529002904891968,
    -0.11628352850675583,
    0.1166294515132904,
    0.8818569183349609,
    0.6588966846466064,
    -0.7667261362075806,
    -0.20332282781600952,
    -0.7678289413452148,
    -0.6288748979568481,
    0.23859290778636932,
    0.4372067153453827,
    -0.647129237651825,
    0.7680294513702393,
    -0.7220765948295593,
    0.08665063232183456,
    0.01520250178873539,
    0.050054654479026794,
    0.7837024331092834,
    -0.5251975655555725,
    -0.3576611578464508,
    -0.8183814883232117,
    -0.31284043192863464,
    0.6718850135803223,
    -1.022687554359436
  ],
  "fc2.weight": [
    [
      0.012969708070158958,
      -1.1820601224899292,
      0.0369870588183403,
      -0.009573102928698063,
      -0.2962517738342285,
      -0.20769943296909332,
      -0.8011301159858704,
      -0.18806689977645874,
      -0.5029008388519287,
      0.11248556524515152,
      0.020539844408631325,
      -0.00698894402012229,
      0.03723686933517456,
      -1.0975029468536377,
      -0.24615636467933655,
      -1.5134084224700928,
      -0.8798847794532776,
      0.042975347489118576,
      -0.006491882726550102,
      -1.434169888496399,
      -0.017520034685730934,
      -1.1733729839324951,
      0.1331292986869812,
      -0.25081172585487366,
      0.13652151823043823,
      0.002906478475779295,
      -1.9474073648452759,
      -0.5084365010261536,
      0.20024114847183228,
      0.08246994018554688,
      -0.007730047684162855,
      -1.3166776895523071
    ],
    [
      -0.013158219866454601,
      0.9991285800933838,
      -0.09091081470251083,
      -0.03630613535642624,
      1.0169754028320312,
      -0.09899532794952393,
      0.07810850441455841,
      -0.016359277069568634,
      1.365617036819458,
      -0.098045215010643,
      -0.0357876792550087,
      -0.029643869027495384,
      -0.06855352967977524,
      0.38353875279426575,
      0.06764958053827286,
      0.4731971025466919,
      0.15093380212783813,
      -0.14078865945339203,
      -0.04704289510846138,
      0.6154829859733582,
      -0.03116241842508316,
      0.49034878611564636,
      -0.033167287707328796,
      0.02105158194899559,
      -0.04997924342751503,
      -0.025629082694649696,
      0.29947227239608765,
      0.14061641693115234,
      -0.22542716562747955,
      -0.4021831154823303,
      -0.030204234644770622,
      0.30346426367759705
    ],
    [
      0.015189267694950104,
      -0.34947505593299866,
      0.02043553814291954,
      0.0120626762509346,
      -0.27632570266723633,
      -0.12742091715335846,
      -2.4934866428375244,
      -0.32560908794403076,
      -0.40452173352241516,
      0.032186802476644516,
      -0.01752474717795849,
      -0.000922595732845366,
      0.003339508781209588,
      -1.1388516426086426,
      -0.6558287143707275,
      -0.9029642939567566,
      -2.070509195327759,
      0.008161385543644428,
      -0.01270716916769743,
      -0.3609365224838257,
      0.013091204687952995,
      -0.947928249835968,
      0.0486571379005909,
      -0.2790828049182892,
      0.04978369548916817,
      -0.009116644971072674,
      -1.5944664478302002,
      -1.122086524963379,
      0.11936354637145996,
      0.021006643772125244,
      -0.003832830348983407,
      -2.3703503608703613
    ],
    [
      -0.011995304375886917,
      -0.2722606658935547,
      -0.09749744832515717,
      -0.02157633751630783,
      -0.23621121048927307,
      -0.14290137588977814,
      0.0787733718752861,
      0.04596162959933281,
      -0.17785990238189697,
      0.1320987343788147,
      -0.05014064908027649,
      -0.02062034048140049,
      -0.03128143399953842,
      -0.1794329732656479,
      0.020499618723988533,
      -0.40511953830718994,
      -0.33469831943511963,
      -0.06653482466936111,
      0.7629796266555786,
      -0.21835078299045563,
      -0.017029844224452972,
      -0.4506319463253021,
      -0.0919543206691742,
      -0.01508326642215252,
      -0.16829794645309448,
      -0.007713400758802891,
      -0.5217691659927368,
      -0.07276999205350876,
      -0.4670311510562897,
      -0.12556535005569458,
      -0.014131292700767517,
      -0.18180310726165771
    ],
    [
      -0.02102397195994854,
      0.8055872321128845,
      -0.0711560770869255,
      -0.012271229177713394,
      1.0470353364944458,
      -0.05329842120409012,
      0.11436180770397186,
      -0.030528493225574493,
      1.5109803676605225,
      -0.16394463181495667,
      -0.04054173827171326,
      -0.04077834263443947,
      -0.05058282986283302,
      0.34980201721191406,
      0.06302730739116669,
      0.8242726922035217,
      0.08633475005626678,
      -0.07448161393404007,
      -0.015176501125097275,
      0.7799414396286011,
      -0.01828308030962944,
      0.5224417448043823,
      -0.013602301478385925,
      -0.011269642040133476,
      -0.04314495623111725,
      -0.020234819501638412,
      0.23285798728466034,
      0.09075590968132019,
      -0.19134484231472015,
      -0.19687561690807343,
      -0.05761759355664253,
      0.31550586223602295
    ],
    [
      0.01614137925207615,
      -0.7122456431388855,
      -0.07324710488319397,
      -0.024087877944111824,
      -0.29941242933273315,
      -0.6086186170578003,
      -0.20971770584583282,
      -0.02696056477725506,
      -0.5070157647132874,
      -0.11883475631475449,
      0.14934450387954712,
      -0.039586007595062256,
      -0.07688014209270477,
      -0.7995330095291138,
      -0.03329973667860031,
      -0.6627535820007324,
      -0.31092533469200134,
      0.8131738305091858,
      -0.10245827585458755,
      -0.8114224076271057,
      -0.060067787766456604,
      -1.094922423362732,
      -0.2982947826385498,
      2.6296969735994935e-05,
      0.029985815286636353,
      -0.03668856993317604,
      -1.2044016122817993,
      -0.14642184972763062,
      0.5296609997749329,
      -0.17646841704845428,
      -0.056639499962329865,
      -0.5658524036407471
    ],
    [
      -0.12956367433071136,
      0.8707382082939148,
      -0.36825770139694214,
      -0.1781192272901535,
      1.202854037284851,
      -0.058095887303352356,
      0.09746693074703217,
      -0.05602366849780083,
      1.278865098953247,
      -0.664543092250824,
      -0.24146981537342072,
      -0.23567548394203186,
      -0.9346314668655396,
      0.12119944393634796,
      0.11876710504293442,
      0.47764769196510315,
      0.1198720708489418,
      -0.41471266746520996,
      -0.08951927721500397,
      0.3427712023258209,
      -0.309627890586853,
      0.42494282126426697,
      -0.0782582089304924,
      0.0797792375087738,
      -0.11127008497714996,
      -0.2557385563850403,
      0.13612131774425507,
      0.05263802781701088,
      -0.3445724546909332,
      -0.9696488976478577,
      -0.39551976323127747,
      0.18999788165092468
    ],
    [
      -0.020803354680538177,
      -0.05125691369175911,
      0.00018920068396255374,
      0.01502565573900938,
      -0.22717350721359253,
      0.11976499855518341,
      -2.779594898223877,
      -0.9287752509117126,
      -0.4428051710128784,
      -0.028717663139104843,
      -0.015061948448419571,
      0.0052423919551074505,
      0.007502655498683453,
      -0.4029025733470917,
      -3.15390682220459,
      -0.5243855118751526,
      -1.961997389793396,
      -0.019778551533818245,
      0.0024619982577860355,
      -0.4330217242240906,
      0.011811085976660252,
      -0.6387158632278442,
      -0.0035955084022134542,
      -0.5034575462341309,
      0.006853415630757809,
      0.011287327855825424,
      -0.868025004863739,
      -2.321826457977295,
      -0.08434279263019562,
      -0.014200130477547646,
      0.013224491849541664,
      -1.6588969230651855
    ],
    [
      -0.001863175304606557,
      -0.08870721608400345,
      0.00035208635381422937,
      -0.007772734854370356,
      -0.1928604245185852,
      0.194739431142807,
      -2.7781832218170166,
      -3.239910125732422,
      -0.20017066597938538,
      -0.04481687396764755,
      -0.023198259994387627,
      0.0004233990330249071,
      -0.004156118258833885,
      -0.2551157772541046,
      -5.078664302825928,
      -0.7666478753089905,
      -1.053263545036316,
      -0.0210917629301548,
      -0.016558723524212837,
      -0.06541510671377182,
      0.008837242610752583,
      -0.3890130817890167,
      0.014842170290648937,
      -1.5721261501312256,
      -0.011823490262031555,
      -0.0038774090353399515,
      -0.6636700630187988,
      -1.909255862236023,
      -0.15014459192752838,
      -0.04186238721013069,
      0.004955821670591831,
      -0.9735202193260193
    ],
    [
      0.023608095943927765,
      -0.6524373888969421,
      0.044308822602033615,
      0.041175831109285355,
      -0.3428060710430145,
      -0.5884424448013306,
      -1.1772551536560059,
      -0.26313814520835876,
      -0.4781601130962372,
      0.10642240941524506,
      0.012723374180495739,
      -0.0008351544383913279,
      0.009301872923970222,
      -0.830202579498291,
      -0.3705082833766937,
      -1.122708797454834,
      -0.5901870727539062,
      0.04330954700708389,
      -0.011713415384292603,
      -1.078012228012085,
      -0.0005885455757379532,
      -0.8501276969909668,
      0.2114730328321457,
      -0.2247360348701477,
      0.15444137156009674,
      -0.010224057361483574,
      -1.418923258781433,
      -0.5106392502784729,
      0.5365816354751587,
      0.07401224970817566,
      0.005883087404072285,
      -1.047189712524414
    ],
    [
      -0.004900438245385885,
      -0.5240088701248169,
      0.05039498582482338,
      0.007186823524534702,
      -0.03462172672152519,
      -0.12503062188625336,
      -1.2924786806106567,
      -0.17212726175785065,
      -0.3846614360809326,
      0.030833130702376366,
      0.012386136688292027,
      -0.0077340928837656975,
      0.0275813490152359,
      -1.1278408765792847,
      -0.3217383325099945,
      -0.8448964953422546,
      -1.2226933240890503,
      0.03798794001340866,
      0.03252686932682991,
      -0.7817589044570923,
      0.01219366118311882,
      -1.0748519897460938,
      0.10880276560783386,
      -0.12049591541290283,
      0.10196436196565628,
      0.001478505670093,
      -1.72150719165802,
      -0.6838194131851196,
      0.20593445003032684,
      0.05323395878076553,
      -0.0028412456158548594,
      -2.3108956813812256
    ],
    [
      0.0033022514544427395,
      -0.987459659576416,
      0.031726669520139694,
      -0.0043625799007713795,
      -0.13225087523460388,
      -0.276808500289917,
      -0.8268148899078369,
      -0.19061866402626038,
      -0.22639116644859314,
      0.07969542592763901,
      0.03304621949791908,
      -0.005890899337828159,
      0.021479740738868713,
      -1.1799485683441162,
      -0.21690243482589722,
      -1.3997077941894531,
      -0.9299155473709106,
      0.04386105015873909,
      0.0035108726006001234,
      -1.002252221107483,
      -0.0014886094722896814,
      -1.269957184791565,
      0.08717839419841766,
      -0.18097251653671265,
      0.10646263509988785,
      -0.0030097728595137596,
      -2.076967716217041,
      -0.5094676613807678,
      0.20961430668830872,
      0.061670709401369095,
      0.005464585032314062,
      -1.8526066541671753
    ],
    [
      -0.285997599363327,
      0.5553801655769348,
      -0.48707249760627747,
      -1.4221166372299194,
      0.8895302414894104,
      -0.21003375947475433,
      -0.04735606536269188,
      0.1275438666343689,
      1.329555630683899,
      -0.4104025959968567,
      -0.6697052121162415,
      -1.6692636013031006,
      -1.1603078842163086,
      -0.08014771342277527,
      0.05371326580643654,
      0.2440633773803711,
      0.014947060495615005,
      -1.2671990394592285,
      -0.3969651162624359,
      0.5371951460838318,
      -1.6541584730148315,
      -0.0047373054549098015,
      -0.536372721195221,
      0.06565569341182709,
      -0.2907041907310486,
      -0.9709804654121399,
      -0.07919701933860779,
      -0.00787281896919012,
      -0.7285385727882385,
      -0.86448073387146,
      -2.1678128242492676,
      0.12373623996973038
    ],
    [
      -0.026177402585744858,
      -0.322856605052948,
      0.011377779766917229,
      -0.015530048869550228,
      -0.21469317376613617,
      -0.1377992480993271,
      -2.509812116622925,
      -0.31075283885002136,
      -0.2225332260131836,
      0.010207489132881165,
      -0.0017856734339147806,
      -0.019447574391961098,
      -0.010112931951880455,
      -1.068495273590088,
      -0.6914827823638916,
      -0.9473773837089539,
      -2.0775327682495117,
      -0.013930405490100384,
      -0.02206844463944435,
      -0.49911776185035706,
      -0.0015925770858302712,
      -0.9149232506752014,
      0.0377890020608902,
      -0.17193524539470673,
      0.08250465244054794,
      0.0017332821153104305,
      -1.5467966794967651,
      -1.1877306699752808,
      0.09774961322546005,
      0.022692156955599785,
      0.012170672416687012,
      -2.4091293811798096
    ],
    [
      -0.46400633454322815,
      0.46885234117507935,
      -0.5043902397155762,
      -1.9142277240753174,
      0.9547000527381897,
      -0.03426208347082138,
      0.0633341521024704,
      -0.019130701199173927,
      0.913996696472168,
      -0.5094041228294373,
      -0.4468819499015808,
      -1.9542654752731323,
      -1.0429136753082275,
      -0.10102880746126175,
      -0.06141286715865135,
      0.21506507694721222,
      -0.13644571602344513,
      -1.3340877294540405,
      -0.7152407765388489,
      0.27406761050224304,
      -1.712202787399292,
      0.10179392248392105,
      -0.3758556544780731,
      -0.02344977855682373,
      -0.638741672039032,
      -1.1849966049194336,
      -0.06577286124229431,
      0.0268244706094265,
      -0.7914770841598511,
      -1.105464220046997,
      -2.629420757293701,
      0.14121471345424652
    ],
    [
      -0.029935229569673538,
      0.7066095471382141,
      -0.654392421245575,
      -0.11390440165996552,
      1.0125364065170288,
      -0.19595076143741608,
      0.12402927130460739,
      0.06334326416254044,
      1.225287914276123,
      -0.39380761981010437,
      -0.16665126383304596,
      -0.15567001700401306,
      -0.5554093718528748,
      0.3339526951313019,
      -0.042050328105688095,
      0.5311951041221619,
      0.2007659375667572,
      -0.4384736120700836,
      -0.2789725363254547,
      0.5177208185195923,
      -0.13009504973888397,
      0.4156472682952881,
      -0.1257638931274414,
      -0.03674205020070076,
      -0.25785842537879944,
      -0.10088499635457993,
      0.11807221919298172,
      -0.05461042374372482,
      -1.1225146055221558,
      -1.324946403503418,
      -0.17888280749320984,
      0.3450007736682892
    ],
    [
      -0.02176930569112301,
      -0.5200123190879822,
      -0.011410962790250778,
      0.0040311990305781364,
      -0.1371111273765564,
      0.2358972430229187,
      -2.632941722869873,
      -1.0803451538085938,
      -0.2313704490661621,
      -0.025543412193655968,
      -0.02002880908548832,
      0.012091444805264473,
      -0.0004481373180169612,
      -0.5557644367218018,
      -4.5554070472717285,
      -0.19022180140018463,
      -2.17982816696167,
      -0.022622941061854362,
      -0.002711852081120014,
      -0.45872601866722107,
      0.006619862746447325,
      -0.5154626369476318,
      0.015321357175707817,
      -0.6394790410995483,
      -0.0005885011632926762,
      0.005406870972365141,
      -1.0947394371032715,
      -2.4036829471588135,
      -0.1384507119655609,
      -0.032599568367004395,
      0.0025248315650969744,
      -1.7448575496673584
    ],
    [
      0.009390322491526604,
      -0.47841209173202515,
      0.050548285245895386,
      -0.005409241653978825,
      -0.2386324554681778,
      -0.6464799642562866,
      -1.040339469909668,
      -0.3109757900238037,
      -0.1690954864025116,
      0.014105560258030891,
      0.031263332813978195,
      0.06994380801916122,
      0.024237073957920074,
      -0.4938349425792694,
      -0.3854757249355316,
      -0.5954797267913818,
      -0.6614463329315186,
      0.0019518868066370487,
      0.03434557467699051,
      -0.6688969135284424,
      0.010757648386061192,
      -0.6602992415428162,
      0.2332572489976883,
      -0.2480379343032837,
      0.06141818314790726,
      -0.0018844000296667218,
      -0.9832520484924316,
      -0.5553203225135803,
      0.8597592115402222,
      0.0799245610833168,
      -0.014287427067756653,
      -0.7692128419876099
    ],
    [
      0.005555778741836548,
      -0.7063695788383484,
      0.024952592328190804,
      0.007557799573987722,
      -0.26928481459617615,
      -0.2679505944252014,
      -1.0672507286071777,
      -0.2770046591758728,
      -0.3280268907546997,
      0.025498388335108757,
      0.02849695086479187,
      -0.024915801361203194,
      0.0011211959645152092,
      -1.028031349182129,
      -0.3041369318962097,
      -0.9832520484924316,
      -0.8469155430793762,
      0.04288487508893013,
      -0.022221608087420464,
      -0.6716324090957642,
      0.01406759675592184,
      -1.1913769245147705,
      0.12616467475891113,
      -0.24803881347179413,
      0.12420353293418884,
      0.007434256840497255,
      -1.8739814758300781,
      -0.5539934039115906,
      0.28197023272514343,
      0.04403480142354965,
      0.012883511371910572,
      -1.9770190715789795
    ],
    [
      0.004657921846956015,
      -0.3420332968235016,
      0.014554769732058048,
      -0.008233594708144665,
      -0.2486935704946518,
      -0.21918010711669922,
      -0.9427424669265747,
      -0.18046177923679352,
      -0.22564713656902313,
      0.06451515853404999,
      0.010958550497889519,
      -0.004754290916025639,
      0.018841618672013283,
      -1.258825421333313,
      -0.2533128559589386,
      -1.1352046728134155,
      -1.4434497356414795,
      0.03594699874520302,
      -0.013777214102447033,
      -0.5747625827789307,
      0.0007013656431809068,
      -1.0554720163345337,
      0.08293145895004272,
      -0.1268576830625534,
      0.07597816735506058,
      0.0036606439389288425,
      -2.01515793800354,
      -0.6621973514556885,
      0.21175751090049744,
      0.03201139718294144,
      -0.007958550937473774,
      -2.9773614406585693
    ],
    [
      -0.025980941951274872,
      0.9994680285453796,
      -0.11916745454072952,
      -0.03467432036995888,
      1.2764145135879517,
      -0.2155047357082367,
      0.07929230481386185,
      0.01266843918710947,
      1.2820314168930054,
      -0.164211243391037,
      -0.03839613124728203,
      -0.03785094991326332,
      -0.027796009555459023,
      0.3341098129749298,
      -0.0029677143320441246,
      0.8764368295669556,
      0.2309626340866089,
      -0.07446159422397614,
      -0.03315058350563049,
      0.7691096663475037,
      -0.0373823456466198,
      0.33791762590408325,
      -0.037894170731306076,
      -0.12245391309261322,
      -0.08034208416938782,
      -0.023729072883725166,
      0.21993406116962433,
      0.11046866327524185,
      -0.4350493550300598,
      -0.21613892912864685,
      -0.03296180069446564,
      0.33597758412361145
    ],
    [
      -0.0032347585074603558,
      -0.04714451730251312,
      -0.01840990222990513,
      -0.004050552379339933,
      -0.11789208650588989,
      0.17532344162464142,
      -2.240675449371338,
      -6.055598735809326,
      -0.12132202833890915,
      -0.05406055599451065,
      -0.02523631788790226,
      -0.0032082186080515385,
      0.006968606263399124,
      -0.35449978709220886,
      -4.6934332847595215,
      -0.2864533066749573,
      -1.4083224534988403,
      -0.02705749310553074,
      -0.013571030460298061,
      -0.10024186223745346,
      0.011432621628046036,
      -0.23348870873451233,
      -0.014385808259248734,
      -1.909414291381836,
      -0.030870959162712097,
      0.0001894719316624105,
      -1.1257175207138062,
      -2.110687017440796,
      -0.16102370619773865,
      -0.023200133815407753,
      0.010960396379232407,
      -1.124650478363037
    ],
    [
      -0.011526607908308506,
      -0.90626060962677,
      0.11116741597652435,
      -0.03916289657354355,
      -0.3600617051124573,
      -0.15845538675785065,
      -0.2421504259109497,
      -0.04092806205153465,
      -0.33552759885787964,
      -0.09607960283756256,
      0.024848241358995438,
      -0.03341364488005638,
      -0.02374836802482605,
      -0.6815958619117737,
      -0.057850513607263565,
      -1.0357533693313599,
      -0.3643060326576233,
      -0.03342089429497719,
      0.018620606511831284,
      -1.1306610107421875,
      -0.030086500570178032,
      -0.8800845742225647,
      -0.2403889298439026,
      -0.034194208681583405,
      -0.43333327770233154,
      -0.009020347148180008,
      -1.1367378234863281,
      -0.20310910046100616,
      1.136483907699585,
      0.4708758592605591,
      -0.04277455061674118,
      -0.5344621539115906
    ],
    [
      -0.07087458670139313,
      0.9360148906707764,
      -0.14327391982078552,
      -0.08081036061048508,
      1.1589235067367554,
      0.10896491259336472,
      0.009486527182161808,
      0.0940793827176094,
      1.2190195322036743,
      -0.25349435210227966,
      -0.11161969602108002,
      -0.12047522515058517,
      -0.3485323190689087,
      0.41783809661865234,
      0.0031390520744025707,
      0.7014572024345398,
      0.16221366822719574,
      -0.15956008434295654,
      -0.04016586393117905,
      0.8399369120597839,
      -0.10973196476697922,
      0.5261324048042297,
      -0.023140260949730873,
      0.10514235496520996,
      -0.06424989551305771,
      -0.0797744020819664,
      0.08238343894481659,
      -0.06503891199827194,
      -0.13703003525733948,
      -0.4376167356967926,
      -0.16258148849010468,
      0.36472705006599426
    ],
    [
      -0.0019809796940535307,
      0.20088507235050201,
      -0.10935170948505402,
      -0.08976048976182938,
      0.044326744973659515,
      -0.033629659563302994,
      0.2632611393928528,
      0.1461266428232193,
      0.4154777526855469,
      0.017492303624749184,
      -0.0011998685076832771,
      -0.11296205222606659,
      -0.7899270057678223,
      0.3945220410823822,
      0.16491013765335083,
      0.5938611030578613,
      0.3431752026081085,
      -0.2562699317932129,
      -0.1729917824268341,
      0.3831571638584137,
      -0.15389297902584076,
      0.32334423065185547,
      -0.12405224144458771,
      0.08191678673028946,
      -0.1017085537314415,
      -0.06542452424764633,
      0.4793163537979126,
      0.15515556931495667,
      -0.11623281985521317,
      -0.5228278636932373,
      -0.18157120048999786,
      -2.12507700920105
    ],
    [
      0.02284996211528778,
      -0.552496075630188,
      0.00018775368516799062,
      -0.007137521635740995,
      -0.19951479136943817,
      -0.23804134130477905,
      -1.194347858428955,
      -0.23926091194152832,
      -0.14019539952278137,
      0.016316991299390793,
      0.004092115443199873,
      0.009059947915375233,
      0.013060830533504486,
      -0.8687679767608643,
      -0.3843337297439575,
      -1.0603721141815186,
      -0.8927890062332153,
      0.01616509072482586,
      -0.021998438984155655,
      -0.6739586591720581,
      0.0030881075654178858,
      -1.378551721572876,
      0.12332653999328613,
      -0.24062688648700714,
      0.10705934464931488,
      0.006497374270111322,
      -1.8781163692474365,
      -0.6780808568000793,
      0.1986352950334549,
      0.04776863008737564,
      0.016726797446608543,
      -1.6988353729248047
    ],
    [
      -0.03633536025881767,
      0.8734303712844849,
      -0.19159089028835297,
      -0.06698749959468842,
      1.3024312257766724,
      -0.16132916510105133,
      0.06966158747673035,
      0.026581820100545883,
      1.518112301826477,
      -0.12587907910346985,
      -0.07692664116621017,
      -0.08545300364494324,
      -0.22278240323066711,
      0.2929491400718689,
      0.052176088094711304,
      0.8247548937797546,
      0.1476525366306305,
      -0.19857370853424072,
      -0.10004959255456924,
      0.8022807836532593,
      -0.07289557158946991,
      0.3388670086860657,
      -0.08335509151220322,
      0.02925368770956993,
      -0.08738267421722412,
      -0.04952041804790497,
      0.28081032633781433,
      0.08569836616516113,
      -0.20558060705661774,
      -0.4252893924713135,
      -0.10125960409641266,
      0.4157763719558716
    ],
    [
      0.00019236901425756514,
      -0.33728447556495667,
      0.006186374928802252,
      0.020521389320492744,
      -0.16310866177082062,
      0.07375679910182953,
      -3.0296506881713867,
      -0.5750668048858643,
      -0.3822539150714874,
      0.010784794576466084,
      -0.039085615426301956,
      0.008981475606560707,
      0.005827809683978558,
      -0.7257615923881531,
      -1.4185190200805664,
      -0.6735022068023682,
      -2.4604759216308594,
      -0.00798123050481081,
      -0.010330959223210812,
      -0.34264740347862244,
      0.008332179859280586,
      -0.6996514797210693,
      0.01072254404425621,
      -0.33633312582969666,
      0.039981041103601456,
      -0.009225724264979362,
      -1.1751329898834229,
      -2.2360873222351074,
      -0.04823541268706322,
      0.008265992626547813,
      0.010677602142095566,
      -1.9665460586547852
    ],
    [
      0.016337187960743904,
      -0.24778708815574646,
      0.025900287553668022,
      5.436391074908897e-05,
      -0.22771616280078888,
      -0.08595854043960571,
      -2.9423506259918213,
      -0.3854638338088989,
      -0.3605400323867798,
      0.027844097465276718,
      -0.010838932357728481,
      0.012741871178150177,
      -0.00023712099937256426,
      -0.9420027732849121,
      -0.7632774114608765,
      -0.8182447552680969,
      -2.1667234897613525,
      -4.0772181819193065e-05,
      -0.012869699858129025,
      -0.2945672571659088,
      0.020620163530111313,
      -0.9472352862358093,
      0.08312534540891647,
      -0.23364774882793427,
      0.06778904050588608,
      0.008024819195270538,
      -1.3536136150360107,
      -1.2777711153030396,
      0.07315988838672638,
      0.004723743069916964,
      0.009559718891978264,
      -2.1524336338043213
    ],
    [
      -0.006721925921738148,
      -0.7504867911338806,
      0.04167995601892471,
      0.002983419457450509,
      -0.2839781939983368,
      -0.19194146990776062,
      -0.8123024702072144,
      -0.14133505523204803,
      -0.20782782137393951,
      0.05707017704844475,
      0.008005636744201183,
      0.0007115908665582538,
      0.010301541537046432,
      -0.9509708881378174,
      -0.20166440308094025,
      -1.4569745063781738,
      -0.8142278790473938,
      0.0408342219889164,
      -0.0029684482142329216,
      -0.8876037001609802,
      0.0013240898260846734,
      -1.197908639907837,
      0.09684497863054276,
      -0.21114321053028107,
      0.08779074251651764,
      0.00037370005156844854,
      -1.8528145551681519,
      -0.5113542675971985,
      0.32547083497047424,
      0.04345040023326874,
      -0.006351981777697802,
      -1.8969842195510864
    ],
    [
      -0.003721583168953657,
      -1.0582797527313232,
      0.020188158378005028,
      -0.008109938353300095,
      -0.43623578548431396,
      -0.25954851508140564,
      -1.0654147863388062,
      -0.1584455966949463,
      -0.2631013095378876,
      0.0836498886346817,
      0.008393866941332817,
      -0.010229837149381638,
      0.009379654191434383,
      -0.9792301058769226,
      -0.27961722016334534,
      -1.6897802352905273,
      -1.0118637084960938,
      0.012995408847928047,
      -0.022548481822013855,
      -1.162096619606018,
      -0.0005191453965380788,
      -1.1659605503082275,
      0.07745835185050964,
      -0.18501122295856476,
      0.09879275411367416,
      -0.014137476682662964,
      -1.8365352153778076,
      -0.6623884439468384,
      0.24806421995162964,
      0.05805140733718872,
      0.006868770811706781,
      -1.9713798761367798
    ],
    [
      -0.1717197299003601,
      0.4704892039299011,
      -0.7645571827888489,
      -0.5914575457572937,
      0.8213110566139221,
      0.04911422356963158,
      -0.1003604382276535,
      0.10931825637817383,
      0.9982815980911255,
      -0.6573764085769653,
      -0.5641603469848633,
      -0.5984066724777222,
      -1.5074471235275269,
      0.1677866131067276,
      0.08285664021968842,
      0.4601573646068573,
      -0.05791337788105011,
      -1.3135530948638916,
      -0.25932008028030396,
      0.5395957827568054,
      -0.8732597827911377,
      -0.014736868441104889,
      -0.25944259762763977,
      0.029493024572730064,
      -0.1737271100282669,
      -0.4628313481807709,
      -0.004149508662521839,
      -0.10482043772935867,
      -0.7248634099960327,
      -1.4845820665359497,
      -1.0322855710983276,
      0.2019505500793457
    ]
  ],
  "fc2.bias": [
    0.38264918327331543,
    0.15618328750133514,
    0.30288103222846985,
    -0.1461479514837265,
    0.1751483678817749,
    0.1586524099111557,
    0.41691237688064575,
    0.2856854498386383,
    0.24430640041828156,
    0.3666209876537323,
    0.3160739541053772,
    0.34089189767837524,
    0.3931494355201721,
    0.2805626392364502,
    0.3941860795021057,
    0.32771995663642883,
    0.30452409386634827,
    0.31624048948287964,
    0.3172279894351959,
    0.2980590760707855,
    0.21575014293193817,
    0.23873689770698547,
    0.19888713955879211,
    0.301970899105072,
    0.007796233985573053,
    0.3313885033130646,
    0.26333266496658325,
    0.3247314691543579,
    0.3046080768108368,
    0.31886404752731323,
    0.3199702799320221,
    0.5497554540634155
  ],
  "fc3.weight": [
    [
      -0.059767235070466995,
      0.4544650912284851,
      -0.0839410275220871,
      -0.23049475252628326,
      0.4553372263908386,
      -0.11637494713068008,
      0.45607274770736694,
      -0.12887096405029297,
      -0.20844526588916779,
      -0.04961654916405678,
      -0.0733032301068306,
      -0.06393937021493912,
      0.7319759726524353,
      -0.08691556751728058,
      0.9036636352539062,
      0.46695566177368164,
      -0.14086247980594635,
      -0.05218056961894035,
      -0.07125828415155411,
      -0.07467778772115707,
      0.4567837715148926,
      -0.22494636476039886,
      -0.16780787706375122,
      0.39081665873527527,
      1.0172603130340576,
      -0.07028455287218094,
      0.3397293984889984,
      -0.10415974259376526,
      -0.09184055030345917,
      -0.06881657987833023,
      -0.0596749521791935,
      0.5022026300430298
    ]
  ],
  "fc3.bias": [
    0.26027172803878784
  ]
}