{
  "net.0.weight": [
    [
      0.41662201285362244,
      0.09192042052745819,
      -0.44212785363197327
    ],
    [
      -0.002552210120484233,
      -0.005491703283041716,
      -0.011812368407845497
    ],
    [
      -0.6093065738677979,
      0.21729575097560883,
      -0.34415677189826965
    ],
    [
      0.12950925529003143,
      -0.0903860330581665,
      0.5078866481781006
    ],
    [
      0.4220190644264221,
      0.4162174463272095,
      0.5475907921791077
    ],
    [
      -0.027267543599009514,
      0.37698468565940857,
      -0.7514261603355408
    ],
    [
      0.38430139422416687,
      0.4643937349319458,
      0.5372764468193054
    ],
    [
      -0.2626746892929077,
      -0.28318312764167786,
      0.15409785509109497
    ],
    [
      0.23136009275913239,
      0.23822598159313202,
      -0.6971016526222229
    ],
    [
      -0.3752460777759552,
      0.11747217923402786,
      0.05790289118885994
    ],
    [
      0.22549551725387573,
      -0.06417422741651535,
      -0.27254506945610046
    ],
    [
      -0.17664866149425507,
      0.07079875469207764,
      -0.714397132396698
    ],
    [
      0.440719336271286,
      -0.8483730554580688,
      0.26032182574272156
    ],
    [
      -0.18225868046283722,
      0.6236163377761841,
      0.4246099293231964
    ],
    [
      -0.553048312664032,
      0.5521368384361267,
      0.2703438401222229
    ],
    [
      -0.2652744948863983,
      -0.10875082015991211,
      -0.5068296790122986
    ],
    [
      0.6294888854026794,
      0.24349083006381989,
      0.5573799014091492
    ],
    [
      -0.6182588338851929,
      0.4868263602256775,
      0.725269079208374
    ],
    [
      0.7985339164733887,
      -0.4036533832550049,
      0.5571516752243042
    ],
    [
      -0.3851315677165985,
      -0.23705404996871948,
      0.6236767172813416
    ],
    [
      -0.8584135174751282,
      0.20759840309619904,
      -0.10537262260913849
    ],
    [
      0.023421669378876686,
      0.5131775140762329,
      -0.515907883644104
    ],
    [
      0.14219555258750916,
      0.15159904956817627,
      -0.6636672616004944
    ],
    [
      0.3197019398212433,
      0.2923448383808136,
      0.5055525898933411
    ],
    [
      0.25442007184028625,
      -0.21792982518672943,
      1.0571961402893066
    ],
    [
      -0.266228049993515,
      0.06278611719608307,
      -0.7301745414733887
    ],
    [
      0.46418559551239014,
      0.15270653367042542,
      -0.5147122144699097
    ],
    [
      -0.0558091439306736,
      0.42419886589050293,
      -0.525942862033844
    ],
    [
      -0.07927124202251434,
      -0.3976125717163086,
      1.2137353420257568
    ],
    [
      -0.12299884855747223,
      -0.20169110596179962,
      -0.6775339245796204
    ],
    [
      0.07728119194507599,
      -0.27456092834472656,
      0.2445901781320572
    ],
    [
      -0.10899034142494202,
      0.25184178352355957,
      -0.7042587995529175
    ],
    [
      0.5333818793296814,
      -0.20490241050720215,
      -0.7434706687927246
    ],
    [
      -0.12554021179676056,
      0.40819552540779114,
      -0.7370451092720032
    ],
    [
      -0.5779803991317749,
      -0.48834481835365295,
      -0.09746117889881134
    ],
    [
      -0.28542453050613403,
      -0.38677674531936646,
      0.01914827525615692
    ],
    [
      -0.3103575110435486,
      -0.1848297417163849,
      0.14065934717655182
    ],
    [
      0.25313451886177063,
      -0.20525026321411133,
      0.43500179052352905
    ],
    [
      0.37455645203590393,
      0.47700244188308716,
      -0.3608863353729248
    ],
    [
      0.06799960136413574,
      0.23469999432563782,
      -0.26492151618003845
    ],
    [
      -0.30904731154441833,
      -0.5242986083030701,
      0.9401087164878845
    ],
    [
      -0.35261356830596924,
      0.5825524926185608,
      0.4517422020435333
    ],
    [
      0.3362153172492981,
      -0.4455031156539917,
      -0.6298578977584839
    ],
    [
      -0.2559076249599457,
      0.04194601625204086,
      -0.13607320189476013
    ],
    [
      -0.05390686169266701,
      0.15857473015785217,
      -0.5720701217651367
    ],
    [
      -0.3622417747974396,
      -0.3610213100910187,
      0.7856423854827881
    ],
    [
      0.5354679226875305,
      -0.5219230651855469,
      0.21408158540725708
    ],
    [
      0.2314538061618805,
      0.5878228545188904,
      0.534155547618866
    ],
    [
      -0.4717635214328766,
      -0.33697476983070374,
      -0.015178294852375984
    ],
    [
      -0.10358670353889465,
      -0.049798667430877686,
      0.19156387448310852
    ],
    [
      0.5473442077636719,
      0.2125239223241806,
      -0.4993722438812256
    ],
    [
      -0.6434066295623779,
      0.049133408814668655,
      0.00836857594549656
    ],
    [
      -0.49676942825317383,
      0.5728747248649597,
      0.07544552534818649
    ],
    [
      0.4037727415561676,
      -0.1636802703142166,
      0.14398452639579773
    ],
    [
      0.6160847544670105,
      -0.515097975730896,
      0.35155728459358215
    ],
    [
      0.250823438167572,
      -0.4032425284385681,
      0.1693396121263504
    ],
    [
      -0.2947465181350708,
      0.6514777541160583,
      0.472750723361969
    ],
    [
      -0.44209977984428406,
      -0.8918107748031616,
      -0.5705122947692871
    ],
    [
      0.056288186460733414,
      0.5339376330375671,
      0.45031556487083435
    ],
    [
      -0.5333162546157837,
      -0.34128332138061523,
      1.0464322566986084
    ],
    [
      0.5299931764602661,
      0.11006039381027222,
      0.4772742688655853
    ],
    [
      0.0007994658080860972,
      -0.0019448879174888134,
      0.00040402260492555797
    ],
    [
      -0.4233808219432831,
      -0.38676390051841736,
      1.2746045589447021
    ],
    [
      -0.66316157579422,
      0.42930319905281067,
      0.1686517894268036
    ]
  ],
  "net.0.bias": [
    -0.2167169153690338,
    -0.0050217388197779655,
    -0.7723809480667114,
    1.4901319742202759,
    0.2764608860015869,
    -0.5773247480392456,
    0.7431192994117737,
    1.2122230529785156,
    -0.44098225235939026,
    0.13564641773700714,
    -0.44727200269699097,
    -0.2128012776374817,
    -0.09606868028640747,
    0.10935749113559723,
    -0.07874711602926254,
    -0.0035685175098478794,
    0.02977450005710125,
    -0.43922853469848633,
    0.3667924702167511,
    -0.25805923342704773,
    -0.5753702521324158,
    -0.6043165922164917,
    -0.2979205548763275,
    0.5629276633262634,
    -0.28257739543914795,
    -0.578023374080658,
    -0.050438981503248215,
    -0.1399303823709488,
    0.41633138060569763,
    -0.23962990939617157,
    0.881596565246582,
    -0.6313403844833374,
    -0.6471768617630005,
    -0.5823748707771301,
    0.4006069600582123,
    0.7233054637908936,
    0.794012188911438,
    1.3571518659591675,
    -0.5339275002479553,
    -0.5818653702735901,
    0.6114414930343628,
    0.9904287457466125,
    -0.017050329595804214,
    -0.03345653787255287,
    -0.5036872625350952,
    0.13568279147148132,
    -0.1970290243625641,
    -0.041653431951999664,
    0.9040539860725403,
    0.6350014209747314,
    -0.6588795781135559,
    0.17475241422653198,
    -0.563252866268158,
    -0.1293700635433197,
    0.15562109649181366,
    0.13383013010025024,
    0.8899216651916504,
    -0.4105338156223297,
    0.20227210223674774,
    0.5814722180366516,
    -0.21934853494167328,
    0.00011830994480988011,
    0.7400761246681213,
    0.16094970703125
  ],
  "net.2.weight": [
    [
      0.13230901956558228,
      0.06740304827690125,
      0.013497238047420979,
      -0.1900782734155655,
      -0.07173828780651093,
      0.17105479538440704,
      -0.12373030930757523,
      -0.17792534828186035,
      0.3004213571548462,
      0.009140759706497192,
      0.09536641836166382,
      0.047662507742643356,
      -0.10043061524629593,
      0.07351206243038177,
      0.020927082747220993,
      0.16744859516620636,
      0.09279954433441162,
      0.06696569919586182,
      -0.08499246090650558,
      0.08922512829303741,
      0.053711261600255966,
      0.03973016142845154,
      0.24420751631259918,
      -0.08972176164388657,
      0.020599348470568657,
      0.11097541451454163,
      0.01005624420940876,
      0.052483778446912766,
      0.17894954979419708,
      0.05771521478891373,
      -0.1522541344165802,
      0.26936542987823486,
      0.2976699769496918,
      0.1405334323644638,
      -0.052544042468070984,
      -0.20730900764465332,
      -0.07203303277492523,
      -0.14025308191776276,
      0.035031694918870926,
      0.1162635013461113,
      0.04772167652845383,
      -0.09255601465702057,
      0.0976123958826065,
      0.06464549154043198,
      0.29449108242988586,
      0.18629714846611023,
      0.05500975623726845,
      0.07165224105119705,
      -0.2191915512084961,
      -0.049555882811546326,
      0.33983391523361206,
      -0.05313365161418915,
      -0.10206214338541031,
      0.03718249499797821,
      -0.0874691903591156,
      -0.07970543950796127,
      -0.2692767083644867,
      -0.06998712569475174,
      0.004784045275300741,
      0.04209345579147339,
      0.010252850130200386,
      0.029815446585416794,
      0.33580222725868225,
      -0.15114077925682068
    ],
    [
      0.025414520874619484,
      0.0383974127471447,
      -0.02754027582705021,
      -0.19440749287605286,
      -0.29656875133514404,
      0.312588632106781,
      -0.14960050582885742,
      -0.28632375597953796,
      0.2648957669734955,
      -0.09454171359539032,
      0.03868134692311287,
      0.16327203810214996,
      -0.04990431293845177,
      -0.18774427473545074,
      -0.09336824715137482,
      0.08103074133396149,
      -0.2459515482187271,
      -0.005069242790341377,
      -0.13592837750911713,
      0.06636632233858109,
      -0.16885149478912354,
      0.10723026841878891,
      0.043915607035160065,
      -0.16476692259311676,
      0.09021563827991486,
      0.12417596578598022,
      0.13649538159370422,
      0.14358775317668915,
      0.04104838892817497,
      0.1595437079668045,
      -0.2956850528717041,
      0.37382611632347107,
      0.24775898456573486,
      0.13226144015789032,
      -0.03106985054910183,
      -0.10892143100500107,
      -0.055031903088092804,
      -0.38212716579437256,
      0.2111506462097168,
      0.10736141353845596,
      0.0837121307849884,
      -0.2992708086967468,
      0.20150083303451538,
      0.06452236324548721,
      0.36748206615448,
      0.07558668404817581,
      -0.1382809579372406,
      -0.15603570640087128,
      -0.03952055051922798,
      -0.30270102620124817,
      0.15270930528640747,
      -0.10725026577711105,
      -0.09688198566436768,
      -0.21153567731380463,
      -0.2936631739139557,
      -0.03449849411845207,
      -0.2578279674053192,
      -0.01795046217739582,
      -0.24323375523090363,
      0.09250745922327042,
      -0.12029196321964264,
      0.0853695496916771,
      0.23826755583286285,
      -0.1577749252319336
    ],
    [
      0.22644078731536865,
      0.04190635308623314,
      0.0444522500038147,
      -0.16632555425167084,
      -0.28836342692375183,
      0.3202205300331116,
      -0.1154729500412941,
      -0.17009450495243073,
      0.26617956161499023,
      -0.025677120313048363,
      -0.06322488188743591,
      0.08571914583444595,
      0.017735755071043968,
      -0.03921794146299362,
      -0.13491228222846985,
      0.15699152648448944,
      -0.20462647080421448,
      -0.1406831294298172,
      -0.14086027443408966,
      0.10592369735240936,
      -0.015730416402220726,
      0.2982579171657562,
      0.23506811261177063,
      -0.27239707112312317,
      0.2183588445186615,
      0.1265113353729248,
      0.15184952318668365,
      0.05730057135224342,
      0.11331655085086823,
      0.045919083058834076,
      -0.18515825271606445,
      0.4313061237335205,
      0.2597687542438507,
      0.2871338725090027,
      -0.1416465938091278,
      -0.03490002453327179,
      0.021862853318452835,
      -0.1572209596633911,
      0.1795841008424759,
      0.30619776248931885,
      0.12265320122241974,
      -0.2864101231098175,
      0.10275168716907501,
      0.11293444782495499,
      0.260650634765625,
      0.0854913666844368,
      -0.03534505143761635,
      -0.23493613302707672,
      -0.18602892756462097,
      -0.1494818776845932,
      0.27498841285705566,
      -0.16660209000110626,
      -0.1463787853717804,
      -0.02539665997028351,
      -0.07888893038034439,
      -0.05230459198355675,
      -0.26022467017173767,
      -0.11869549006223679,
      -0.20320764183998108,
      0.07933949679136276,
      0.11084001511335373,
      0.023885248228907585,
      0.4138355851173401,
      -0.16835498809814453
    ],
    [
      0.07568986713886261,
      -0.054020050913095474,
      -0.06548105925321579,
      -0.05108271539211273,
      0.1256829798221588,
      0.34425005316734314,
      0.04832593351602554,
      -0.12636293470859528,
      0.11901795119047165,
      -0.10527500510215759,
      0.20048461854457855,
      0.1663048267364502,
      -0.04524291679263115,
      0.06361233443021774,
      0.05032486468553543,
      0.06406308710575104,
      0.033477943390607834,
      -0.0331806056201458,
      0.0018360377289354801,
      0.08558107912540436,
      -0.08163612335920334,
      0.19471782445907593,
      0.10946448892354965,
      -0.012070858851075172,
      -0.07367438077926636,
      0.04291188344359398,
      0.0945887491106987,
      0.051712516695261,
      -0.0009406247991137207,
      -0.06924687325954437,
      -0.14098967611789703,
      0.2992663085460663,
      0.3057333528995514,
      0.16157111525535583,
      -0.2794937491416931,
      -0.11727552115917206,
      -0.1623544842004776,
      -0.033301640301942825,
      0.2763100862503052,
      0.21138699352741241,
      -0.06355700641870499,
      0.02895069494843483,
      0.10884729772806168,
      0.01958700455725193,
      0.16404427587985992,
      -0.1363871842622757,
      0.026867035776376724,
      0.11118888854980469,
      -0.1793149709701538,
      0.0011596349067986012,
      0.2452254444360733,
      -0.0006160390330478549,
      0.045155156403779984,
      0.10370686650276184,
      0.07172414660453796,
      0.09427107870578766,
      -0.0005081159179098904,
      -0.2594298720359802,
      0.07257603853940964,
      -0.10363833606243134,
      0.0064862873405218124,
      0.04873017966747284,
      0.03428639844059944,
      0.0589844211935997
    ],
    [
      0.21592508256435394,
      -0.038469888269901276,
      -0.09890852123498917,
      0.0004239236586727202,
      -0.1555384397506714,
      0.21870556473731995,
      0.06669384241104126,
      -0.20106031000614166,
      0.3490750193595886,
      0.03446844592690468,
      0.016658753156661987,
      0.19517794251441956,
      -0.2618147134780884,
      -0.11012490093708038,
      0.015532762743532658,
      0.0997089073061943,
      0.08119933307170868,
      0.10654594004154205,
      -0.04186427220702171,
      0.051207806915044785,
      -0.14192639291286469,
      0.3141208291053772,
      0.12440940737724304,
      -0.08552903681993484,
      0.05713841691613197,
      0.18414708971977234,
      0.09216073155403137,
      0.20003549754619598,
      0.08327219635248184,
      0.1566779464483261,
      -0.04628449305891991,
      0.3263132870197296,
      0.35425055027008057,
      0.3597806990146637,
      -0.22048959136009216,
      -0.09925518184900284,
      -0.11992829293012619,
      -0.04004613310098648,
      0.10248762369155884,
      0.03720603883266449,
      0.04343825578689575,
      -0.08414610475301743,
      0.11920110136270523,
      -0.01053697895258665,
      0.31952211260795593,
      0.06560135632753372,
      -0.002655566204339266,
      -0.10939909517765045,
      -0.15030324459075928,
      -0.16518521308898926,
      0.12482219189405441,
      -0.1349872350692749,
      0.01592930220067501,
      0.03611055761575699,
      -0.20439065992832184,
      0.03102574683725834,
      -0.2302333414554596,
      -0.01398009154945612,
      -0.14814245700836182,
      0.16789251565933228,
      -0.06513441354036331,
      -0.05268014967441559,
      0.3069240152835846,
      -0.18601006269454956
    ],
    [
      0.07988598942756653,
      -0.10795609652996063,
      0.2337827980518341,
      -1.0855379104614258,
      -0.13980650901794434,
      -0.1009635254740715,
      -0.13020548224449158,
      -0.8207312226295471,
      -0.15166230499744415,
      -0.10695762187242508,
      0.2655031383037567,
      -0.11009529232978821,
      -0.2958170175552368,
      -0.13798178732395172,
      -0.23356960713863373,
      -0.11982740461826324,
      -0.08033290505409241,
      -0.028435194864869118,
      -0.3729911148548126,
      -0.3835095763206482,
      -0.03587998077273369,
      -0.022846421226859093,
      -0.009095791727304459,
      -0.2802301049232483,
      -0.26356813311576843,
      0.03127200901508331,
      0.0533570721745491,
      -0.04636223986744881,
      -0.7433918118476868,
      -0.1135144755244255,
      -0.5397610664367676,
      -0.10715214908123016,
      0.02172488160431385,
      -0.2605932652950287,
      -0.353303462266922,
      -0.2624819576740265,
      -0.6054086089134216,
      -0.6942679286003113,
      -0.02870316244661808,
      0.3207048177719116,
      -0.9348002076148987,
      -0.48803800344467163,
      0.08935023844242096,
      -0.050825197249650955,
      0.02811013162136078,
      -0.4370802938938141,
      -0.1885383576154709,
      -0.1013261079788208,
      -0.5045464038848877,
      -0.6370227336883545,
      0.015749165788292885,
      -0.2135472297668457,
      0.21480253338813782,
      0.016309650614857674,
      -0.20245890319347382,
      -0.09276485443115234,
      -0.42494672536849976,
      -0.1967790573835373,
      -0.03599200397729874,
      -0.626297116279602,
      -0.028832226991653442,
      -0.01876135915517807,
      -0.9507560133934021,
      -0.1596224009990692
    ],
    [
      0.0063693830743432045,
      0.10387200117111206,
      -0.06178026273846626,
      -0.0720486119389534,
      -0.1404544562101364,
      -0.22413532435894012,
      0.07817133516073227,
      -0.22094190120697021,
      -0.139065682888031,
      -0.015678219497203827,
      -0.11445560306310654,
      -0.059757959097623825,
      -0.3712874948978424,
      -0.17433997988700867,
      -0.09359162300825119,
      -0.16495925188064575,
      0.024270029738545418,
      0.15384425222873688,
      -0.22485652565956116,
      0.32458096742630005,
      -0.1171632781624794,
      -0.23248441517353058,
      0.0029066503047943115,
      -0.1493649184703827,
      0.011653297580778599,
      0.08393368870019913,
      -0.11941119283437729,
      -0.03593273460865021,
      0.0660226047039032,
      -0.159557044506073,
      -0.2880744934082031,
      -0.15525390207767487,
      -0.18720240890979767,
      -0.08597828447818756,
      0.09069076180458069,
      -0.09720070660114288,
      -0.14408576488494873,
      -0.1582171469926834,
      0.0402536541223526,
      0.09655597805976868,
      -0.04818170890212059,
      -0.14236567914485931,
      -0.03785868361592293,
      -0.19509029388427734,
      -0.12282196432352066,
      0.09002983570098877,
      -0.1780465692281723,
      0.08329745382070541,
      0.018699495121836662,
      -0.0987098217010498,
      0.13184614479541779,
      -0.17366982996463776,
      -0.21147547662258148,
      -0.11527809500694275,
      -0.159022718667984,
      -0.2104196697473526,
      -0.21070078015327454,
      -0.1482582837343216,
      -0.030791519209742546,
      -0.012952333316206932,
      -0.02817062847316265,
      0.13992631435394287,
      -0.04635966196656227,
      -0.06331604719161987
    ],
    [
      0.07535946369171143,
      -0.043875034898519516,
      0.04539845883846283,
      -0.18829715251922607,
      -0.23876480758190155,
      0.2125629335641861,
      -0.1942041665315628,
      -0.25111499428749084,
      0.0738150104880333,
      -0.03986796364188194,
      0.07292235642671585,
      0.12590596079826355,
      0.05717454105615616,
      0.2061622440814972,
      0.2280726283788681,
      -0.001605052500963211,
      0.014890371821820736,
      0.17065511643886566,
      0.004391728434711695,
      0.050035297870635986,
      0.1836785525083542,
      0.20444872975349426,
      0.18364882469177246,
      -0.16377568244934082,
      -0.066538006067276,
      0.11464924365282059,
      0.04989061877131462,
      0.05636855587363243,
      0.13713587820529938,
      0.1614105999469757,
      -0.25727158784866333,
      0.23660671710968018,
      0.4360595941543579,
      0.0994039997458458,
      -0.05332956835627556,
      -0.2856854498386383,
      -0.21086591482162476,
      -0.4375203847885132,
      0.04364223778247833,
      0.24978360533714294,
      0.12899401783943176,
      -0.12688995897769928,
      0.12713630497455597,
      -0.1266382336616516,
      0.1360122412443161,
      0.22359615564346313,
      0.2548294961452484,
      0.17803023755550385,
      -0.15043853223323822,
      -0.2874070405960083,
      0.285689115524292,
      0.0636410042643547,
      0.1922871172428131,
      -0.016885017976164818,
      -0.04137306660413742,
      -0.06902766227722168,
      -0.19020259380340576,
      0.024515237659215927,
      -0.12868893146514893,
      0.31158027052879333,
      0.0394589938223362,
      -0.018362456932663918,
      0.3954538106918335,
      -0.08802211284637451
    ],
    [
      0.279215544462204,
      0.017061343416571617,
      0.20563417673110962,
      -0.5409506559371948,
      -0.2111470103263855,
      0.26504501700401306,
      -0.32441017031669617,
      -0.4432235658168793,
      0.3537348210811615,
      -0.08618120849132538,
      0.28987276554107666,
      0.19691213965415955,
      0.05543697997927666,
      0.031347326934337616,
      0.0335012711584568,
      0.031569670885801315,
      -0.00035629019839689136,
      0.1991022527217865,
      -0.23372729122638702,
      0.40427038073539734,
      0.1209590882062912,
      0.3627287447452545,
      0.2753792703151703,
      -0.45722082257270813,
      -0.01227618008852005,
      0.4101629853248596,
      0.07754617184400558,
      0.22486469149589539,
      0.2887720465660095,
      0.17950837314128876,
      -0.5336620211601257,
      0.5661157965660095,
      0.424266517162323,
      0.3141123652458191,
      -0.11504413932561874,
      -0.15118533372879028,
      -0.3293069303035736,
      -0.7328317761421204,
      0.1557055413722992,
      0.5715407133102417,
      0.17677034437656403,
      -0.4801805019378662,
      0.2372153252363205,
      -0.07271726429462433,
      0.5752487778663635,
      0.18070751428604126,
      -0.03477747365832329,
      0.06057339906692505,
      -0.412927508354187,
      -0.6385595798492432,
      0.2820171117782593,
      -0.24506676197052002,
      0.057520702481269836,
      -0.05893443897366524,
      -0.08591356873512268,
      0.030942704528570175,
      -0.5023928284645081,
      0.1995428055524826,
      -0.21535760164260864,
      0.2173190861940384,
      -0.03881147876381874,
      0.009219520725309849,
      0.3517952263355255,
      -0.18605633080005646
    ],
    [
      0.10089457780122757,
      0.1053839772939682,
      0.13620053231716156,
      -0.8502605557441711,
      -0.28790271282196045,
      -0.14368969202041626,
      -0.22683122754096985,
      -0.510810375213623,
      0.039383143186569214,
      -0.1084691509604454,
      0.16256582736968994,
      0.11115404218435287,
      -0.3273022770881653,
      -0.3887227177619934,
      -0.19586622714996338,
      0.002458421280607581,
      -0.3428519666194916,
      -0.09109193831682205,
      -0.4821535348892212,
      -0.09475594013929367,
      0.09281722456216812,
      0.06170312687754631,
      0.058765921741724014,
      -0.41470834612846375,
      -0.2544516921043396,
      0.06287550926208496,
      -0.1374405473470688,
      0.049461010843515396,
      -0.6307486295700073,
      0.04109155014157295,
      -0.42284294962882996,
      -0.0360725000500679,
      -0.13810954988002777,
      -0.11640715599060059,
      -0.3511996865272522,
      -0.4230653643608093,
      -0.6396565437316895,
      -0.6036202311515808,
      -0.03870990499854088,
      0.27508848905563354,
      -0.551954984664917,
      -0.5776967406272888,
      -0.08879949897527695,
      -0.04220316931605339,
      0.10822074115276337,
      -0.39759427309036255,
      -0.05060676857829094,
      -0.3343304693698883,
      -0.5185917019844055,
      -0.6866025924682617,
      -0.08705426752567291,
      -0.11995160579681396,
      0.20379036664962769,
      -0.026971496641635895,
      -0.320735901594162,
      0.0156426802277565,
      -0.5908225774765015,
      -0.2443164736032486,
      -0.2967819273471832,
      -0.6884270310401917,
      0.03785756230354309,
      -0.037063952535390854,
      -0.7770301103591919,
      -0.24407389760017395
    ],
    [
      0.05886198952794075,
      0.02217223308980465,
      -0.05809000879526138,
      -0.0027809394523501396,
      0.01716451160609722,
      -0.11614971607923508,
      -0.08104106783866882,
      0.004507860634475946,
      0.06229451298713684,
      0.08496825397014618,
      0.02944091334939003,
      0.082992322742939,
      -0.014309911988675594,
      -0.025363825261592865,
      -0.025110067799687386,
      -0.14189520478248596,
      -0.017470141872763634,
      -0.004864185117185116,
      -0.09317657351493835,
      0.0034611669834703207,
      0.07624565809965134,
      0.0020354490261524916,
      0.03291604667901993,
      0.051541753113269806,
      0.0675414428114891,
      0.03816257789731026,
      0.05182366073131561,
      -0.05386226624250412,
      0.001174223842099309,
      0.03668658807873726,
      -0.032162778079509735,
      -0.05169043317437172,
      -0.11867417395114899,
      0.10415346175432205,
      -0.07094588130712509,
      9.130683611147106e-05,
      -0.03824405372142792,
      0.01229772623628378,
      -0.07181762903928757,
      0.09688834846019745,
      0.09863318502902985,
      0.13869443535804749,
      -0.07003766298294067,
      0.10989393293857574,
      -0.10269390046596527,
      -0.059285808354616165,
      0.0617033876478672,
      0.05841851606965065,
      -0.05694136768579483,
      -0.14936234056949615,
      0.053441453725099564,
      -0.032317038625478745,
      -0.12723751366138458,
      -0.01348159834742546,
      0.018089424818754196,
      0.06994802504777908,
      -0.06922002136707306,
      0.08335039019584656,
      0.01687893085181713,
      -0.005653212778270245,
      0.014606967568397522,
      -0.014594716019928455,
      -0.0025411273818463087,
      0.008167201653122902
    ],
    [
      0.23727166652679443,
      -0.07572002708911896,
      0.126599982380867,
      -0.4007551670074463,
      -0.21977289021015167,
      0.21824045479297638,
      -0.2289632260799408,
      -0.3901900351047516,
      0.3174107074737549,
      0.039501696825027466,
      0.2823404371738434,
      0.15553563833236694,
      -0.13229016959667206,
      -0.11887507885694504,
      -0.0495985671877861,
      0.12428732961416245,
      -0.17292115092277527,
      0.202892005443573,
      -0.14231552183628082,
      0.3485134541988373,
      0.07113584131002426,
      0.19788622856140137,
      0.17752891778945923,
      -0.48669546842575073,
      0.10821326076984406,
      0.23851902782917023,
      -0.0028746442403644323,
      0.09397299587726593,
      0.10285144299268723,
      0.23896771669387817,
      -0.5596198439598083,
      0.3917141854763031,
      0.389297753572464,
      0.2458927035331726,
      -0.2297937273979187,
      -0.22765640914440155,
      -0.3189202845096588,
      -0.44223010540008545,
      0.17872712016105652,
      0.5282778739929199,
      0.2084304243326187,
      -0.35879024863243103,
      0.22708584368228912,
      -0.00740465521812439,
      0.49161648750305176,
      0.1535172462463379,
      -0.03307415544986725,
      -0.18011783063411713,
      -0.17832186818122864,
      -0.5743348598480225,
      0.3377702534198761,
      -0.06984943151473999,
      -0.00315924733877182,
      -0.10636071115732193,
      -0.14509765803813934,
      -0.0012058672728016973,
      -0.41459017992019653,
      0.2281176745891571,
      -0.16017451882362366,
      0.20273807644844055,
      -0.0782691091299057,
      -0.11020731925964355,
      0.2223309725522995,
      -0.2084546834230423
    ],
    [
      0.04908980056643486,
      0.06609534472227097,
      -0.06455668061971664,
      0.039316099137067795,
      -0.013247347436845303,
      -0.00019839742162730545,
      -0.0250304713845253,
      -0.012366157956421375,
      -0.062162309885025024,
      -0.12030310183763504,
      0.07996007055044174,
      -0.06589730829000473,
      0.005030850879848003,
      0.08821962028741837,
      -0.03614604100584984,
      -0.013416006229817867,
      -0.01422708760946989,
      -0.039502084255218506,
      -0.026642143726348877,
      -0.09768164157867432,
      0.0275992713868618,
      -0.12672947347164154,
      0.0962643250823021,
      0.007951346226036549,
      0.009614207781851292,
      0.04489835724234581,
      0.10141360014677048,
      0.01544193085283041,
      -0.002253155456855893,
      0.10480017215013504,
      0.09703177958726883,
      0.06313074380159378,
      -0.035655248910188675,
      0.023194028064608574,
      -0.010584615170955658,
      -0.012059829197824001,
      -0.07633569091558456,
      0.03529897704720497,
      0.08388258516788483,
      -0.04635193571448326,
      -0.06519023329019547,
      -0.04871130734682083,
      -0.1584898680448532,
      0.06890694797039032,
      -0.016812192276120186,
      -0.07914159446954727,
      -0.11624114215373993,
      0.00881919451057911,
      -0.0013681335840374231,
      -0.014076998457312584,
      -0.0639912337064743,
      0.06729654967784882,
      0.022350216284394264,
      0.01595469005405903,
      0.11262649297714233,
      -0.15126201510429382,
      0.020894821733236313,
      0.06252460181713104,
      -0.003754332195967436,
      0.10773618519306183,
      -0.02674993686378002,
      0.09026827663183212,
      0.08665619045495987,
      -0.03624448552727699
    ],
    [
      0.20306959748268127,
      -0.06803777068853378,
      -0.17039822041988373,
      0.014086837880313396,
      0.0054763974621891975,
      0.3449801802635193,
      0.026210522279143333,
      -0.1549326330423355,
      0.3684593141078949,
      0.01170068047940731,
      0.20971952378749847,
      0.07508847117424011,
      -0.19139371812343597,
      0.042594064027071,
      -0.1303747594356537,
      0.036466654390096664,
      0.04225391522049904,
      0.04366614669561386,
      0.05910426005721092,
      0.07444240152835846,
      -0.08368802815675735,
      0.3057575225830078,
      0.3016566336154938,
      0.038097307085990906,
      -0.013166329823434353,
      0.10277733951807022,
      0.22181172668933868,
      0.1344245970249176,
      0.008661055937409401,
      0.2460719645023346,
      -0.05543490871787071,
      0.3397343158721924,
      0.21961210668087006,
      0.33291134238243103,
      -0.12022272497415543,
      -0.04744178429245949,
      -0.13165980577468872,
      -0.039658788591623306,
      0.11383774876594543,
      0.1303589642047882,
      0.052187953144311905,
      -0.10043154656887054,
      0.09818936884403229,
      0.06902141124010086,
      0.3062483072280884,
      -0.005064743105322123,
      -0.16244487464427948,
      -0.03627815842628479,
      -0.13239000737667084,
      0.026287637650966644,
      0.33811983466148376,
      -0.07535937428474426,
      -0.19850096106529236,
      0.03827701508998871,
      -0.22731049358844757,
      -0.028477322310209274,
      -0.07614053785800934,
      -0.061919353902339935,
      0.11943654716014862,
      0.1299988329410553,
      -0.04841610789299011,
      -0.010302675887942314,
      0.20467422902584076,
      -0.2094968557357788
    ],
    [
      0.15248093008995056,
      0.016065917909145355,
      0.02758864127099514,
      -0.27924785017967224,
      0.0005131881916895509,
      0.04733222350478172,
      0.032140009105205536,
      -0.27628830075263977,
      0.11049322783946991,
      -0.004395079333335161,
      0.1517525464296341,
      -0.024415021762251854,
      -0.033461689949035645,
      0.07295376062393188,
      0.08195892721414566,
      -0.014121517539024353,
      0.13554364442825317,
      0.051561739295721054,
      -0.019426826387643814,
      -0.036155954003334045,
      -0.0016489927656948566,
      0.21627497673034668,
      0.049819860607385635,
      -0.08575360476970673,
      0.03002924658358097,
      -0.04400166496634483,
      -0.047180868685245514,
      -0.016728824004530907,
      0.08107656985521317,
      0.07676751911640167,
      -0.21068838238716125,
      0.17445139586925507,
      0.3389715850353241,
      0.22354330122470856,
      -0.07655087113380432,
      -0.23219823837280273,
      -0.21223072707653046,
      -0.20042230188846588,
      -0.00673815980553627,
      0.13202086091041565,
      0.10687515884637833,
      0.034262511879205704,
      0.05679366737604141,
      0.09031116217374802,
      0.06262632459402084,
      0.0051024421118199825,
      0.07467415928840637,
      0.13005337119102478,
      -0.24342459440231323,
      -0.02927716262638569,
      0.08093681931495667,
      -0.04454838111996651,
      0.09608341008424759,
      -0.044412579387426376,
      0.03860313072800636,
      0.2028261125087738,
      -0.06721533089876175,
      0.029179580509662628,
      0.12091924995183945,
      -0.026881009340286255,
      0.10223465412855148,
      0.11369084566831589,
      0.035844601690769196,
      -0.04296352341771126
    ],
    [
      0.11574108153581619,
      0.09137961268424988,
      -0.03485063463449478,
      -0.15443994104862213,
      -0.09026122093200684,
      0.14984183013439178,
      -0.06010780856013298,
      -0.27102407813072205,
      0.25482189655303955,
      -0.01886896602809429,
      0.061525601893663406,
      0.2379097193479538,
      -0.0554642528295517,
      0.09625709056854248,
      -0.035174738615751266,
      0.03557673841714859,
      0.039943598210811615,
      0.00048266761587001383,
      -0.04840385913848877,
      0.20098282396793365,
      -0.01666489616036415,
      0.1315830796957016,
      0.18625488877296448,
      -0.09923475235700607,
      0.024735670536756516,
      0.04415420815348625,
      0.1816636621952057,
      0.0024593411944806576,
      0.06980688124895096,
      0.024578291922807693,
      -0.11737989634275436,
      0.3757520020008087,
      0.2066367119550705,
      0.2480875700712204,
      -0.09127248823642731,
      -0.24588274955749512,
      -0.029113102704286575,
      -0.09880402684211731,
      0.11737877130508423,
      0.03163862228393555,
      0.09911724179983139,
      -0.14986391365528107,
      0.12264524400234222,
      -0.030758053064346313,
      0.3193141222000122,
      0.1677984893321991,
      0.03405982255935669,
      0.19120855629444122,
      -0.20154839754104614,
      -0.22329284250736237,
      0.17611771821975708,
      -0.03280140087008476,
      -0.10851552337408066,
      0.025402875617146492,
      -0.11537200957536697,
      0.020795298740267754,
      -0.0961056649684906,
      0.008487522602081299,
      -0.11053626984357834,
      0.13990101218223572,
      -0.01927872747182846,
      -0.017341336235404015,
      0.24662534892559052,
      -0.01704341731965542
    ],
    [
      -0.061645735055208206,
      -0.13812965154647827,
      0.08294308930635452,
      -0.39561933279037476,
      -0.027612702921032906,
      -0.007431874051690102,
      -0.017884427681565285,
      -0.28135132789611816,
      -0.1700378954410553,
      -0.2827836275100708,
      0.10855467617511749,
      -0.050407811999320984,
      0.036026813089847565,
      -0.0519852377474308,
      0.18992073833942413,
      -0.057566672563552856,
      0.018028896301984787,
      0.132760152220726,
      0.03983673080801964,
      -0.42269366979599,
      -0.044558871537446976,
      -0.02483074739575386,
      -0.08658470958471298,
      0.019385073333978653,
      0.03692783787846565,
      0.039810918271541595,
      -0.17329518496990204,
      -0.020467232912778854,
      -0.299676775932312,
      -0.17845572531223297,
      -0.31261253356933594,
      0.12881849706172943,
      -0.19346745312213898,
      -0.044455818831920624,
      -0.33823370933532715,
      -0.24502015113830566,
      -0.3378223180770874,
      -0.2777411639690399,
      -0.19366960227489471,
      0.19565653800964355,
      -0.42443668842315674,
      -0.20001740753650665,
      0.06870830804109573,
      -0.0814884677529335,
      0.009112483821809292,
      -0.3576516807079315,
      0.18439412117004395,
      0.018027814105153084,
      -0.407769113779068,
      -0.47716256976127625,
      -0.12977011501789093,
      -0.17843766510486603,
      0.31065765023231506,
      0.09144584089517593,
      0.19863995909690857,
      0.16606849431991577,
      -0.14447149634361267,
      -0.10209032893180847,
      0.0941590666770935,
      -0.4494926929473877,
      0.12242580205202103,
      0.002742924029007554,
      -0.4006543755531311,
      -0.06924130767583847
    ],
    [
      -0.08810977637767792,
      -0.045219287276268005,
      0.10936330258846283,
      -0.4004940986633301,
      -0.029756000265479088,
      -0.01106323767453432,
      -0.10145577043294907,
      -0.23517970740795135,
      -0.04297501966357231,
      -0.25919288396835327,
      0.24886207282543182,
      -0.1557968705892563,
      -0.3026715815067291,
      -0.28119757771492004,
      -0.1378151774406433,
      -0.18041183054447174,
      0.02650623954832554,
      -0.20918865501880646,
      -0.2027832567691803,
      -0.11295798420906067,
      0.05209941044449806,
      0.04762526974081993,
      0.06561499834060669,
      -0.29323288798332214,
      -0.015701884403824806,
      0.07331628352403641,
      -0.0054749078117311,
      -0.09048796445131302,
      -0.26570233702659607,
      -0.12701019644737244,
      -0.4385314881801605,
      0.014852791093289852,
      -0.26422902941703796,
      -0.14475668966770172,
      -0.15971168875694275,
      -0.3350863456726074,
      -0.33735451102256775,
      -0.341495543718338,
      0.0943107157945633,
      0.321409672498703,
      -0.4069187045097351,
      -0.37537312507629395,
      -0.16233065724372864,
      0.0279372725635767,
      0.06681040674448013,
      -0.1518700122833252,
      -0.06338930130004883,
      -0.3069741725921631,
      -0.33750128746032715,
      -0.38334447145462036,
      -0.10204888135194778,
      -0.2220316231250763,
      -0.042650967836380005,
      0.026136627420783043,
      -0.18789276480674744,
      -0.06164403632283211,
      -0.49432042241096497,
      -0.1341039389371872,
      -0.21764691174030304,
      -0.3572048246860504,
      0.17435230314731598,
      -0.06917910277843475,
      -0.43555784225463867,
      -0.3556469976902008
    ],
    [
      -0.0208972729742527,
      0.12094050645828247,
      -0.06862025707960129,
      -0.29935234785079956,
      -0.1665661334991455,
      -0.2247982621192932,
      -0.013700630515813828,
      -0.25763827562332153,
      -0.12118884921073914,
      -0.1254347562789917,
      0.12664979696273804,
      -0.17750224471092224,
      -0.40614065527915955,
      -0.278163880109787,
      -0.3705040514469147,
      -0.016834210604429245,
      -0.06885313242673874,
      -0.1939689815044403,
      -0.3720944821834564,
      -0.0312175452709198,
      -0.06268875300884247,
      -0.03026031330227852,
      -0.049125272780656815,
      -0.18088248372077942,
      -0.2557656466960907,
      -0.11144031584262848,
      -0.13114382326602936,
      -0.05452100932598114,
      -0.36721140146255493,
      -0.08367058634757996,
      -0.37806186079978943,
      -0.1848629266023636,
      -0.26726144552230835,
      -0.2697092592716217,
      -0.20237676799297333,
      -0.32352548837661743,
      -0.09163150936365128,
      -0.38056808710098267,
      0.11155758798122406,
      0.19013506174087524,
      -0.34938764572143555,
      -0.3062344491481781,
      -0.12645375728607178,
      -0.09446782618761063,
      -0.11963105946779251,
      -0.2227221131324768,
      -0.34615346789360046,
      -0.12090548127889633,
      -0.24866585433483124,
      -0.22048069536685944,
      0.01687963865697384,
      -0.28250977396965027,
      -0.17245221138000488,
      -0.261142373085022,
      -0.4356008470058441,
      -0.09413747489452362,
      -0.430828720331192,
      -0.08513251692056656,
      -0.1458074450492859,
      -0.4877798557281494,
      -0.18231602013111115,
      0.12825973331928253,
      -0.4480040371417999,
      -0.4160001277923584
    ],
    [
      -0.05627787485718727,
      0.13306134939193726,
      0.1240270808339119,
      -0.6596231460571289,
      0.059177156537771225,
      -0.09150855988264084,
      -0.3151480257511139,
      -0.40857747197151184,
      -0.07157916575670242,
      -0.195664182305336,
      0.3341578543186188,
      0.1570693850517273,
      0.42785561084747314,
      0.43841367959976196,
      0.27650153636932373,
      -0.006772179622203112,
      -0.1960388422012329,
      0.3051886558532715,
      -0.21307234466075897,
      0.14899355173110962,
      0.1742694228887558,
      0.15287308394908905,
      0.12276651710271835,
      -0.5758739113807678,
      0.1183781549334526,
      0.3395490050315857,
      -0.11569679528474808,
      -0.33760905265808105,
      -0.18638752400875092,
      0.324947327375412,
      -0.3207947015762329,
      0.1725703626871109,
      0.37262406945228577,
      0.026289518922567368,
      0.06754505634307861,
      -0.055277660489082336,
      -0.48669499158859253,
      -0.5067592859268188,
      -0.04216194525361061,
      0.4908243715763092,
      -0.29125306010246277,
      -0.21048274636268616,
      0.27224671840667725,
      -0.31034043431282043,
      0.3032691478729248,
      -0.050140380859375,
      0.3152182102203369,
      0.6051777005195618,
      -0.2501344680786133,
      -0.6460914015769958,
      0.09723082184791565,
      -0.32627442479133606,
      0.4952777922153473,
      0.02376728504896164,
      0.06984707713127136,
      0.14382924139499664,
      -0.10889539122581482,
      0.8893457055091858,
      0.42480456829071045,
      -0.29848405718803406,
      0.2860308289527893,
      -0.04939993470907211,
      -0.4583538770675659,
      -0.05022122710943222
    ],
    [
      -0.2749674618244171,
      -0.015948869287967682,
      0.7159807682037354,
      -0.7247471213340759,
      0.10916636884212494,
      0.1453171670436859,
      -0.42605242133140564,
      -0.5184578895568848,
      0.03286268562078476,
      0.1121288612484932,
      0.17640461027622223,
      0.16257530450820923,
      0.05578344687819481,
      -0.3718375861644745,
      0.10984189063310623,
      0.09571228176355362,
      0.648994505405426,
      0.27971020340919495,
      0.2689259648323059,
      0.20996324717998505,
      0.671356737613678,
      0.11956144124269485,
      -0.1123446449637413,
      -0.36711305379867554,
      0.17019067704677582,
      0.5263858437538147,
      -0.30786237120628357,
      -0.06964834034442902,
      0.03295685350894928,
      0.1682363599538803,
      -0.6337361931800842,
      0.4745064675807953,
      -0.01686328649520874,
      0.3390929698944092,
      0.1233242005109787,
      -0.356040358543396,
      -0.33610478043556213,
      -0.7260398864746094,
      -0.33467966318130493,
      0.4659028947353363,
      -0.4268592894077301,
      -0.5605491995811462,
      -0.17622287571430206,
      0.1602458357810974,
      0.3176036775112152,
      -0.03204149007797241,
      0.34566235542297363,
      -0.08227254450321198,
      -0.07464078813791275,
      -0.46917223930358887,
      -0.06347563862800598,
      0.1253865659236908,
      0.44590330123901367,
      0.3728463649749756,
      0.1416577398777008,
      -0.10677089542150497,
      -0.37760740518569946,
      0.35761401057243347,
      -0.4654022753238678,
      -0.464269757270813,
      0.4537754952907562,
      -0.07038923352956772,
      -0.39300796389579773,
      0.020230604335665703
    ],
    [
      0.020583180710673332,
      0.006075180601328611,
      0.04864663630723953,
      0.11025026440620422,
      -0.0343983918428421,
      -0.09551466256380081,
      0.1338164359331131,
      0.041682373732328415,
      -0.0694771483540535,
      -0.010028316639363766,
      0.05637345835566521,
      0.07559362798929214,
      -0.017895014956593513,
      -0.14982330799102783,
      -0.017070302739739418,
      0.09803955256938934,
      -0.026913801208138466,
      0.045078109949827194,
      -0.06909249722957611,
      0.14080080389976501,
      -0.032990969717502594,
      0.02457950823009014,
      -0.03324490413069725,
      0.06138118728995323,
      0.05015970766544342,
      0.013454852625727654,
      -0.017657296732068062,
      -0.010130507871508598,
      -0.04845070466399193,
      -0.09837736189365387,
      -0.14486059546470642,
      -0.057298459112644196,
      -0.07508530467748642,
      0.11844444274902344,
      -0.06254518032073975,
      -0.018846364691853523,
      -0.010319624096155167,
      0.006975990254431963,
      0.05806197598576546,
      -0.09085776656866074,
      -0.017722174525260925,
      0.0402558296918869,
      0.02834615670144558,
      0.14269901812076569,
      0.09384158998727798,
      -0.07091905176639557,
      0.05863090604543686,
      -0.051920004189014435,
      0.036496516317129135,
      -0.1319829672574997,
      0.01661723665893078,
      -0.109377920627594,
      -0.06811310350894928,
      0.1326444000005722,
      -0.05516555532813072,
      0.026053138077259064,
      -0.037091441452503204,
      0.01666143350303173,
      0.013477900065481663,
      0.09276501834392548,
      0.0072603956796228886,
      0.08126199245452881,
      0.008244519121944904,
      0.05147971585392952
    ],
    [
      0.0019906770903617144,
      -0.03330361470580101,
      -0.09373455494642258,
      0.005883996374905109,
      -0.11178163439035416,
      -0.1097332239151001,
      0.1222381666302681,
      -0.05724193900823593,
      0.04908304661512375,
      0.09787891060113907,
      -0.04002779722213745,
      0.06959012150764465,
      -0.046323180198669434,
      0.07783357799053192,
      -0.04937953129410744,
      0.08784374594688416,
      -0.10753580182790756,
      -0.08300842344760895,
      0.07599754631519318,
      -0.08512324094772339,
      -0.015032228082418442,
      0.016657408326864243,
      0.049704235047101974,
      0.09022101014852524,
      0.034026630222797394,
      0.04819781705737114,
      -0.0038503827527165413,
      -0.013307150453329086,
      -0.030122263357043266,
      -0.05882370099425316,
      -0.09007196873426437,
      -0.09444227814674377,
      0.021539738401770592,
      -0.06262587755918503,
      0.056213151663541794,
      0.003759704064577818,
      0.05807701125741005,
      -0.09408177435398102,
      0.11907077580690384,
      0.028444724157452583,
      -0.04599093273282051,
      -0.1286439597606659,
      -0.05141317471861839,
      -0.030131716281175613,
      0.025869568809866905,
      0.06327643245458603,
      0.01199718751013279,
      0.04655233770608902,
      -0.020895255729556084,
      -0.10954293608665466,
      -0.12111172080039978,
      0.025105148553848267,
      0.021444158628582954,
      0.012251102365553379,
      -0.051913097500801086,
      0.1567682921886444,
      0.11626706272363663,
      -0.030036984011530876,
      -0.095417819917202,
      0.03407485410571098,
      0.06519188731908798,
      0.15628153085708618,
      0.08430977910757065,
      -0.01281002163887024
    ],
    [
      0.0889594554901123,
      -0.06429557502269745,
      -0.06570938229560852,
      -0.22021079063415527,
      -0.12322038412094116,
      0.18533749878406525,
      -0.10249590128660202,
      -0.0891437754034996,
      0.3458712697029114,
      0.034464579075574875,
      0.04617761820554733,
      0.3062600791454315,
      -0.07508447766304016,
      -0.12136334180831909,
      -0.16419155895709991,
      -0.02979196049273014,
      -0.20019634068012238,
      0.021320637315511703,
      0.03874696418642998,
      0.14697277545928955,
      -0.055629558861255646,
      0.26163938641548157,
      0.2429807484149933,
      -0.13669276237487793,
      0.18026255071163177,
      0.18600261211395264,
      0.12329721450805664,
      0.2257470041513443,
      0.272835373878479,
      0.33190107345581055,
      -0.06957975775003433,
      0.4730101525783539,
      0.24298490583896637,
      0.32716137170791626,
      -0.12742732465267181,
      -0.19028088450431824,
      0.013645583763718605,
      -0.22380170226097107,
      0.023344237357378006,
      0.08759894222021103,
      0.1117529422044754,
      -0.1176048293709755,
      0.17054608464241028,
      -0.004851320758461952,
      0.2759964168071747,
      0.025367502123117447,
      0.05030204355716705,
      -0.0718722864985466,
      -0.24188630282878876,
      -0.20265553891658783,
      0.24295784533023834,
      -0.13388922810554504,
      -0.10039382427930832,
      -0.027157260105013847,
      -0.16193950176239014,
      -0.004072063136845827,
      -0.33859631419181824,
      -0.10355709493160248,
      -0.2274804711341858,
      0.21208836138248444,
      0.007311337627470493,
      -0.0515507273375988,
      0.24817520380020142,
      -0.22150912880897522
    ],
    [
      0.012320199981331825,
      0.11096566170454025,
      0.06972983479499817,
      -0.16661910712718964,
      0.04931354522705078,
      0.2104504406452179,
      -0.10580331832170486,
      -0.08734063804149628,
      0.2281399816274643,
      0.04636761546134949,
      0.12153016775846481,
      -0.0003071563842240721,
      -0.12244054675102234,
      -0.008027621544897556,
      0.10310236364603043,
      -0.02030346170067787,
      0.12159010767936707,
      0.15043096244335175,
      0.03859227895736694,
      0.22174349427223206,
      -0.08920729905366898,
      0.16573788225650787,
      0.06283292174339294,
      -0.02219601348042488,
      -0.06640957295894623,
      0.1134803369641304,
      0.098701611161232,
      0.17561879754066467,
      0.12427842617034912,
      0.1444322168827057,
      -0.1946987807750702,
      0.18984712660312653,
      0.26924654841423035,
      0.223170205950737,
      -0.08541461825370789,
      -0.19796441495418549,
      -0.031478505581617355,
      -0.17695102095603943,
      0.11290621757507324,
      0.11566071212291718,
      0.10341612249612808,
      -0.2903192341327667,
      0.025339849293231964,
      -0.13718700408935547,
      0.2898924946784973,
      0.10155089944601059,
      0.1103733479976654,
      0.00568819884210825,
      -0.06118953973054886,
      -0.11080446094274521,
      0.31113025546073914,
      0.07897374033927917,
      -0.037309058010578156,
      0.03940695524215698,
      -0.19674751162528992,
      0.053711969405412674,
      -0.18138547241687775,
      0.12727998197078705,
      0.05440209060907364,
      0.15011659264564514,
      0.1362801492214203,
      0.0892515629529953,
      0.19755834341049194,
      -0.07369823008775711
    ],
    [
      -0.07367748022079468,
      -0.058737970888614655,
      0.08280486613512039,
      -0.12298867106437683,
      0.02683892287313938,
      -0.15225361287593842,
      0.02224237471818924,
      -0.18504709005355835,
      -0.13599655032157898,
      0.05994158610701561,
      0.01970965601503849,
      0.06735836714506149,
      -0.005942822899669409,
      -0.1301436573266983,
      0.08793371915817261,
      -0.08077547699213028,
      0.2072719931602478,
      0.20605844259262085,
      -0.08268633484840393,
      0.1896270215511322,
      0.14158877730369568,
      -0.20263347029685974,
      0.07896341383457184,
      -0.09650024026632309,
      0.2926417887210846,
      0.030898649245500565,
      -0.06854985654354095,
      0.06220366060733795,
      0.0019275036174803972,
      -0.07710834592580795,
      -0.263016939163208,
      -0.10395102947950363,
      -0.00279563432559371,
      0.009238891303539276,
      0.03086431883275509,
      -0.19774599373340607,
      0.006166696548461914,
      -0.041016653180122375,
      0.017146354541182518,
      0.1668025702238083,
      0.04864268749952316,
      -0.2576245665550232,
      -0.14541462063789368,
      0.022733701393008232,
      0.04636811837553978,
      -0.005388250108808279,
      0.062137067317962646,
      -0.06344011425971985,
      -0.14501644670963287,
      -0.10726951062679291,
      -0.09880984574556351,
      0.14222314953804016,
      0.05581259727478027,
      -0.008378186263144016,
      -0.1339094489812851,
      -0.04012928903102875,
      -0.18481965363025665,
      -0.085593082010746,
      -0.06589452177286148,
      0.003970840480178595,
      0.11068052798509598,
      -0.04697781801223755,
      0.03604813665151596,
      -0.09344089776277542
    ],
    [
      -0.13485080003738403,
      0.07461758702993393,
      -0.017752913758158684,
      -0.29181668162345886,
      -0.4878533184528351,
      -0.06085959076881409,
      -0.2040276825428009,
      -0.10204246640205383,
      0.00108998641371727,
      -0.12065279483795166,
      -0.07272994518280029,
      -0.04174729809165001,
      -0.48456019163131714,
      -0.8367186188697815,
      -0.5167598128318787,
      -0.1461065411567688,
      -0.11924770474433899,
      -0.44590893387794495,
      -0.3848009705543518,
      -0.026896556839346886,
      -0.18843382596969604,
      -0.16355961561203003,
      0.020058978348970413,
      -0.2822171151638031,
      -0.20732764899730682,
      -0.223235085606575,
      0.011184419505298138,
      -0.009059947915375233,
      -0.24542619287967682,
      -0.161739319562912,
      -0.26528194546699524,
      -0.1522981971502304,
      -0.39411917328834534,
      -0.06937789916992188,
      -0.03600601479411125,
      -0.1292935609817505,
      -0.13597328960895538,
      -0.36242297291755676,
      -0.027468141168355942,
      0.15378278493881226,
      -0.19835790991783142,
      -0.43739205598831177,
      -0.25267648696899414,
      -0.09744244068861008,
      0.04781468212604523,
      -0.03262941911816597,
      -0.40332046151161194,
      -0.3946986198425293,
      -0.20932145416736603,
      -0.22713632881641388,
      -0.007647000253200531,
      0.10854890197515488,
      -0.23366276919841766,
      -0.32984504103660583,
      -0.5302441120147705,
      -0.2640891373157501,
      -0.5618752241134644,
      -0.3306954503059387,
      -0.5424646139144897,
      -0.17602954804897308,
      -0.006640546023845673,
      -0.06170016527175903,
      -0.25669240951538086,
      -0.28044208884239197
    ],
    [
      0.023919595405459404,
      -0.01567080244421959,
      0.13300178945064545,
      -0.6990601420402527,
      -0.17967642843723297,
      0.0800226628780365,
      -0.11846071481704712,
      -0.5513951182365417,
      -0.026627276092767715,
      -0.20415443181991577,
      0.06524069607257843,
      -0.09146509319543839,
      -0.31848031282424927,
      -0.5585623383522034,
      -0.25394076108932495,
      0.09383096545934677,
      -0.21905457973480225,
      -0.26447927951812744,
      -0.2983437180519104,
      -0.3674274682998657,
      0.05607573688030243,
      0.08332899212837219,
      -0.13136938214302063,
      -0.3570939600467682,
      -0.23929663002490997,
      0.1310701072216034,
      -0.09205131232738495,
      -0.02981388568878174,
      -0.39024972915649414,
      -0.0633789598941803,
      -0.5169026851654053,
      0.1423974484205246,
      -0.31957295536994934,
      -0.050414178520441055,
      -0.0874980241060257,
      -0.40200209617614746,
      -0.5389734506607056,
      -0.5933429002761841,
      0.10565856844186783,
      0.26062262058258057,
      -0.5931346416473389,
      -0.5739743113517761,
      -0.10778198391199112,
      -0.054019201546907425,
      0.11061412841081619,
      -0.35305848717689514,
      -0.03536086529493332,
      -0.28455349802970886,
      -0.44316497445106506,
      -0.6213271617889404,
      -0.14419543743133545,
      -0.23291002213954926,
      0.09811734408140182,
      0.015216987580060959,
      -0.10467120260000229,
      -0.02483299933373928,
      -0.5916538238525391,
      -0.019756866618990898,
      -0.2576468884944916,
      -0.6747041344642639,
      -0.04954306036233902,
      -0.0817868635058403,
      -0.7207415103912354,
      -0.24114327132701874
    ],
    [
      0.08914977312088013,
      0.036252785474061966,
      0.07796452939510345,
      -0.1254444271326065,
      -0.17172376811504364,
      -0.09623931348323822,
      -0.1633516252040863,
      -0.1288699060678482,
      -0.147378072142601,
      -0.24609988927841187,
      0.02195008285343647,
      0.04744478315114975,
      -0.3424087464809418,
      -0.4086417853832245,
      -0.3362492620944977,
      -0.10101047903299332,
      -0.0537903755903244,
      -0.32503804564476013,
      -0.21791508793830872,
      -0.001988112460821867,
      -0.012953273020684719,
      -0.06093421205878258,
      -0.15419235825538635,
      -0.23602789640426636,
      -0.06949632614850998,
      -0.04161190614104271,
      0.10403947532176971,
      0.010223804041743279,
      -0.18388749659061432,
      -0.2855542004108429,
      -0.22641359269618988,
      -0.14295713603496552,
      -0.3428495228290558,
      -0.0838182270526886,
      -0.13771849870681763,
      -0.27028360962867737,
      -0.06685218960046768,
      -0.2160569429397583,
      0.1123804822564125,
      0.10126000642776489,
      -0.1282612532377243,
      -0.3147317171096802,
      -0.3311445713043213,
      -0.06630507856607437,
      0.08573035895824432,
      -0.07341638952493668,
      -0.2976456582546234,
      -0.04119929298758507,
      -0.17908471822738647,
      -0.11386631429195404,
      -0.015594114549458027,
      -0.18319927155971527,
      -0.1997794508934021,
      -0.07441558688879013,
      -0.15154261887073517,
      -0.10336696356534958,
      -0.4693859815597534,
      -0.3549322187900543,
      -0.22359713912010193,
      -0.16396161913871765,
      0.0973510593175888,
      -0.06523316353559494,
      -0.13995668292045593,
      -0.4336383044719696
    ],
    [
      0.019339950755238533,
      0.1346811205148697,
      0.5754736661911011,
      -0.9706500172615051,
      0.054211076349020004,
      0.04075687378644943,
      0.0004964185645803809,
      -0.42554599046707153,
      -0.016276858747005463,
      0.08116225898265839,
      0.13478481769561768,
      0.11210606247186661,
      0.2023048847913742,
      -0.2913801670074463,
      0.04016559198498726,
      0.05590735003352165,
      0.524377703666687,
      0.1877019703388214,
      0.302750825881958,
      0.029010552912950516,
      0.5700165033340454,
      0.046087995171546936,
      0.05302412807941437,
      -0.13236331939697266,
      0.08146201819181442,
      0.4474979639053345,
      -0.11039424687623978,
      -0.056064311414957047,
      -0.2142767757177353,
      0.16324719786643982,
      -0.6585487127304077,
      0.41342753171920776,
      -0.022121798247098923,
      0.1916123777627945,
      0.07030614465475082,
      -0.30950623750686646,
      -0.3339059352874756,
      -0.5390406847000122,
      -0.13156859576702118,
      0.31879034638404846,
      -0.5619966983795166,
      -0.6400039196014404,
      -0.08683616667985916,
      -0.0769246369600296,
      0.42222386598587036,
      -0.34392082691192627,
      0.20742593705654144,
      -0.07205002754926682,
      -0.2188398689031601,
      -0.6132846474647522,
      -0.10457358509302139,
      0.008618127554655075,
      0.13043014705181122,
      0.3215383291244507,
      0.1834200918674469,
      -0.03956485167145729,
      -0.48535698652267456,
      0.3041408956050873,
      -0.21937412023544312,
      -0.5025222897529602,
      0.34351617097854614,
      0.12088174372911453,
      -0.6216515898704529,
      -0.057172685861587524
    ],
    [
      0.1333274096250534,
      -0.10004882514476776,
      -0.02598750777542591,
      -0.42728084325790405,
      -0.34646469354629517,
      0.40699082612991333,
      -0.22165080904960632,
      -0.17469222843647003,
      0.2052198052406311,
      -0.17036713659763336,
      0.26220011711120605,
      0.16627398133277893,
      -0.029636342078447342,
      -0.022003360092639923,
      -0.11638877540826797,
      0.16458304226398468,
      -0.37196633219718933,
      0.1895619034767151,
      -0.19262903928756714,
      0.09876161813735962,
      -0.12032829225063324,
      0.3666497766971588,
      0.2127186805009842,
      -0.4072510302066803,
      -0.0740203782916069,
      0.10264669358730316,
      0.09984687715768814,
      0.13477341830730438,
      0.13193030655384064,
      0.09570930898189545,
      -0.1911856234073639,
      0.30157187581062317,
      0.5568597316741943,
      0.28553372621536255,
      -0.13917165994644165,
      -0.0935884341597557,
      -0.25729721784591675,
      -0.5425258874893188,
      0.11670567095279694,
      0.41120100021362305,
      0.11910741776227951,
      -0.165991872549057,
      0.19154947996139526,
      -0.08280377835035324,
      0.30895596742630005,
      0.28171783685684204,
      -0.1825762391090393,
      0.007673628628253937,
      -0.16070809960365295,
      -0.34479132294654846,
      0.2876547873020172,
      -0.12294325232505798,
      0.07884611934423447,
      -0.008340905420482159,
      -0.25458863377571106,
      -0.021387284621596336,
      -0.3072417974472046,
      -0.03639170154929161,
      -0.1852220892906189,
      0.06606722623109818,
      -0.19858641922473907,
      -0.03718026354908943,
      0.2570487856864929,
      -0.2154201865196228
    ],
    [
      -0.11507552862167358,
      -0.16180860996246338,
      -0.14404335618019104,
      -0.3319203853607178,
      -0.21551872789859772,
      -0.17314860224723816,
      -0.14145715534687042,
      -0.32491636276245117,
      0.00495167775079608,
      -0.1629915088415146,
      0.17154167592525482,
      -0.18621133267879486,
      -0.06401284039020538,
      0.13615216314792633,
      0.13088631629943848,
      -0.30171456933021545,
      -0.17227445542812347,
      0.21377691626548767,
      -0.35014328360557556,
      -0.18094541132450104,
      -0.13923631608486176,
      0.08798798173666,
      -0.03953306004405022,
      -0.15380340814590454,
      -0.08686497807502747,
      -0.22673283517360687,
      -0.10829400271177292,
      -0.10464312881231308,
      -0.3471233546733856,
      -0.15710827708244324,
      -0.4474983811378479,
      -0.19752833247184753,
      -0.05966426059603691,
      0.0070288642309606075,
      -0.3711048662662506,
      -0.3890053927898407,
      -0.21664026379585266,
      -0.24135349690914154,
      0.11399904638528824,
      0.20364601910114288,
      -0.43024614453315735,
      -0.246567040681839,
      -0.015552611090242863,
      -0.2137029767036438,
      -0.09320369362831116,
      -0.37583863735198975,
      -0.07202363759279251,
      0.10834663361310959,
      -0.4873952865600586,
      -0.3066500127315521,
      0.020188545808196068,
      -0.26934781670570374,
      0.36426183581352234,
      0.021427148953080177,
      -0.26555266976356506,
      -0.13251960277557373,
      -0.018544266000390053,
      -0.17914249002933502,
      -0.031428974121809006,
      -0.4258725941181183,
      0.007342022843658924,
      -0.021966515108942986,
      -0.495172381401062,
      -0.02682613767683506
    ],
    [
      -0.0017992553766816854,
      -0.04063377156853676,
      -0.09747202694416046,
      0.06754734367132187,
      0.08438435196876526,
      -0.1356622576713562,
      -0.06075577065348625,
      -0.031944096088409424,
      0.06449910998344421,
      0.048091258853673935,
      -0.024660706520080566,
      -0.0146714486181736,
      0.019220411777496338,
      0.07969675958156586,
      0.040088143199682236,
      0.036864422261714935,
      0.008587556891143322,
      -0.05316473916172981,
      -0.02068275399506092,
      -0.12029419839382172,
      -0.050302643328905106,
      0.05420748144388199,
      -0.06667202711105347,
      -0.048931676894426346,
      -0.05697973445057869,
      0.0901213213801384,
      -0.0808994248509407,
      -0.024078205227851868,
      0.08983727544546127,
      0.03720753267407417,
      -0.08157751709222794,
      0.12138108164072037,
      0.05915076285600662,
      -0.08972938358783722,
      0.06970950216054916,
      -0.11328717321157455,
      -0.04666044935584068,
      0.08053342252969742,
      0.02617671526968479,
      0.11672206223011017,
      -0.0010409296955913305,
      -0.07484012097120285,
      -0.007004332263022661,
      -0.0027198917232453823,
      -0.03770755976438522,
      -0.015048014000058174,
      -0.02856479398906231,
      -0.011918415315449238,
      0.01989627815783024,
      -0.001104162773117423,
      -0.027971681207418442,
      0.11799759417772293,
      -0.03647268936038017,
      0.022789064794778824,
      -0.03557414188981056,
      0.07880112528800964,
      -0.03590724244713783,
      -0.07539346814155579,
      -0.0030200090259313583,
      0.0873941034078598,
      -0.06772308051586151,
      0.12977491319179535,
      -0.08901914209127426,
      -0.0033588134683668613
    ],
    [
      0.06176501139998436,
      0.03298518806695938,
      -0.17990316450595856,
      -0.12332303076982498,
      -0.027178294956684113,
      0.22928068041801453,
      -0.030192695558071136,
      -0.054735224694013596,
      0.3749008774757385,
      0.06686687469482422,
      0.06691006571054459,
      0.015504962764680386,
      0.002138604875653982,
      0.11691126227378845,
      0.13025903701782227,
      -0.0003259499790146947,
      0.11382471770048141,
      -0.030259285122156143,
      -0.0024835688527673483,
      -0.11024001240730286,
      -0.0441034734249115,
      0.22525179386138916,
      0.30683183670043945,
      -0.009189588017761707,
      0.08124671131372452,
      0.017742346972227097,
      0.12566696107387543,
      0.08583446592092514,
      -0.07190839946269989,
      -0.012996014207601547,
      -0.028668014332652092,
      0.30721747875213623,
      0.16846626996994019,
      0.18803715705871582,
      -0.25650978088378906,
      -0.06036720797419548,
      -0.22683732211589813,
      0.006499448791146278,
      0.27928751707077026,
      0.11794343590736389,
      0.02526913769543171,
      -0.05693025887012482,
      0.021658461540937424,
      -0.03091544471681118,
      0.09541574120521545,
      -0.0822446271777153,
      0.02883024699985981,
      0.10269850492477417,
      -0.09504733234643936,
      0.03094402700662613,
      0.17452365159988403,
      -0.2230750322341919,
      0.0025778685230761766,
      0.07318658381700516,
      -0.07427817583084106,
      0.022348711267113686,
      0.06856263428926468,
      -0.2223592847585678,
      0.0423259399831295,
      -0.07486036419868469,
      -0.046590402722358704,
      -0.09877172857522964,
      -0.026885654777288437,
      0.047704651951789856
    ],
    [
      0.00476745143532753,
      0.10773193091154099,
      0.015734737738966942,
      0.005079783499240875,
      -0.09630383551120758,
      -0.06639924645423889,
      0.0865233913064003,
      -0.05011065676808357,
      0.13306397199630737,
      0.05338629335165024,
      -0.021821431815624237,
      0.07899054884910583,
      0.03862832114100456,
      0.004928043577820063,
      0.07314283400774002,
      -0.04566542059183121,
      0.0688573569059372,
      -0.08991377055644989,
      -0.057488925755023956,
      -0.03772161528468132,
      0.021006450057029724,
      -0.03915095701813698,
      0.059687744826078415,
      0.024324214085936546,
      -0.04549878090620041,
      0.06660222262144089,
      -0.024121936410665512,
      -0.05393862724304199,
      0.09393737465143204,
      0.03938525542616844,
      -0.0701584592461586,
      -0.0682586133480072,
      -0.026722721755504608,
      -0.06384353339672089,
      0.02825748361647129,
      0.036285657435655594,
      -0.1074271947145462,
      0.05771893262863159,
      -0.06514809280633926,
      0.1270022839307785,
      0.04893817380070686,
      -0.12809133529663086,
      -0.021616153419017792,
      0.030538910999894142,
      -0.015934506431221962,
      0.03298146650195122,
      -0.09574497491121292,
      0.06028725951910019,
      -0.08569946140050888,
      -0.026832547038793564,
      -0.03927069157361984,
      0.03550819307565689,
      0.034190114587545395,
      0.03661805018782616,
      0.07008497416973114,
      0.06010707467794418,
      0.05255678668618202,
      0.002894606441259384,
      -0.0567316859960556,
      -0.04384292662143707,
      -0.14805817604064941,
      -0.08809758722782135,
      -0.06174856051802635,
      -0.052392181009054184
    ],
    [
      0.09793757647275925,
      -0.016290538012981415,
      0.19930143654346466,
      -0.5541349649429321,
      -0.2683272361755371,
      0.4200745224952698,
      -0.1910962015390396,
      -0.5083164572715759,
      0.37246525287628174,
      0.06954646855592728,
      0.30478179454803467,
      0.14408719539642334,
      0.008829888887703419,
      -0.036817215383052826,
      0.07409048080444336,
      -0.03266144171357155,
      -0.19744867086410522,
      0.1170780286192894,
      -0.23167136311531067,
      0.21909718215465546,
      0.1380942314863205,
      0.15888355672359467,
      0.2841443121433258,
      -0.25775712728500366,
      0.16502025723457336,
      0.2062271237373352,
      0.2188580185174942,
      0.029562415555119514,
      0.16999512910842896,
      0.2788606584072113,
      -0.5100611448287964,
      0.3911616802215576,
      0.5250893831253052,
      0.3955686390399933,
      -0.07901639491319656,
      -0.2699356973171234,
      -0.35519731044769287,
      -0.4255944788455963,
      0.05903606116771698,
      0.3893570899963379,
      0.16803951561450958,
      -0.26480233669281006,
      0.23565736413002014,
      0.03946424275636673,
      0.3452484905719757,
      0.21749302744865417,
      -0.063593789935112,
      -0.001667381264269352,
      -0.3778042793273926,
      -0.5212348699569702,
      0.21598783135414124,
      -0.21303580701351166,
      0.16104590892791748,
      0.1428922712802887,
      -0.02594166062772274,
      0.08176503330469131,
      -0.4175446927547455,
      0.08265795558691025,
      -0.07353997230529785,
      0.24510055780410767,
      0.01912001147866249,
      -0.043422795832157135,
      0.2675243318080902,
      -0.023172248154878616
    ],
    [
      0.11842966079711914,
      0.03129655122756958,
      0.02112012915313244,
      -0.2626105546951294,
      -0.4143862724304199,
      0.2986293435096741,
      -0.26525768637657166,
      -0.18307562172412872,
      0.25004029273986816,
      -0.14008720219135284,
      0.2157522588968277,
      0.15475709736347198,
      -0.095753513276577,
      -0.3326556384563446,
      -0.15645404160022736,
      0.014164506457746029,
      -0.1541125476360321,
      -0.11348317563533783,
      0.006913534831255674,
      0.29067128896713257,
      0.01989564299583435,
      0.2582041919231415,
      0.2534019649028778,
      -0.2824937105178833,
      0.15326140820980072,
      0.24126595258712769,
      0.23458056151866913,
      0.20234832167625427,
      0.3627301752567291,
      0.1501561552286148,
      -0.17244397103786469,
      0.6320213675498962,
      0.4277421236038208,
      0.34180301427841187,
      -0.01780441217124462,
      -0.0796290710568428,
      -0.06294060498476028,
      -0.26998522877693176,
      0.22445368766784668,
      0.4833880364894867,
      0.34507638216018677,
      -0.5559365749359131,
      0.06046656519174576,
      0.1141485869884491,
      0.44301638007164,
      0.24799807369709015,
      0.0012575866421684623,
      -0.11976352334022522,
      -0.06356113404035568,
      -0.3668193519115448,
      0.4112245738506317,
      -0.16063295304775238,
      0.014692757278680801,
      -0.1021723747253418,
      -0.0340685173869133,
      -0.06020648777484894,
      -0.6114592552185059,
      0.11388914287090302,
      -0.22025716304779053,
      0.07224531471729279,
      0.09225469827651978,
      -0.005586754065006971,
      0.40673959255218506,
      -0.32766368985176086
    ],
    [
      0.07030072063207626,
      0.060403477400541306,
      -0.03552791103720665,
      -0.006432597991079092,
      -0.059246305376291275,
      -0.17784006893634796,
      -0.09108567237854004,
      -0.25147995352745056,
      -0.19708605110645294,
      -0.09526016563177109,
      -0.14689958095550537,
      -0.033436596393585205,
      -0.48696762323379517,
      -0.30966439843177795,
      -0.3358319103717804,
      -0.1914169043302536,
      0.04485342279076576,
      -0.15274907648563385,
      -0.1512746810913086,
      0.09850981831550598,
      -0.175946444272995,
      -0.12247428297996521,
      -0.13423624634742737,
      0.02055710181593895,
      0.06608402729034424,
      -0.017922546714544296,
      0.044224467128515244,
      0.04968036338686943,
      0.008049123920500278,
      -0.1678786277770996,
      -0.14396610856056213,
      -0.11413923650979996,
      -0.27867844700813293,
      -0.23521734774112701,
      0.09037568420171738,
      -0.1957293599843979,
      -0.1205262690782547,
      -0.2256961613893509,
      0.1990976333618164,
      0.12773269414901733,
      -0.1346096694469452,
      -0.36657726764678955,
      -0.34482985734939575,
      -0.15246275067329407,
      0.06983678042888641,
      -0.0785989910364151,
      -0.29806971549987793,
      -0.18662646412849426,
      -0.055493153631687164,
      -0.14860287308692932,
      -0.11192987859249115,
      -0.17246869206428528,
      -0.2754150927066803,
      -0.27378830313682556,
      -0.1442965567111969,
      -0.32935434579849243,
      -0.24224604666233063,
      -0.13685424625873566,
      -0.3071916699409485,
      -0.07290104776620865,
      0.009801245294511318,
      -0.08578876405954361,
      -0.10193847864866257,
      -0.2464771270751953
    ],
    [
      0.07814527302980423,
      -0.011332068592309952,
      -0.061191681772470474,
      0.03992906212806702,
      -0.1020028367638588,
      0.030055703595280647,
      -0.0039857784286141396,
      -0.030582696199417114,
      0.02173426002264023,
      0.07449303567409515,
      -0.12696358561515808,
      0.04870510846376419,
      -0.0704788789153099,
      -0.04113687202334404,
      -0.042342573404312134,
      -0.07181034237146378,
      0.038674257695674896,
      0.02425367385149002,
      0.07942136377096176,
      -0.11694911122322083,
      0.031996529549360275,
      -0.020987270399928093,
      -0.010393987409770489,
      0.12242136150598526,
      0.0178315881639719,
      -0.17971141636371613,
      -0.008663425222039223,
      0.05746103450655937,
      0.05580604076385498,
      0.03170356526970863,
      0.03995401784777641,
      0.06992164999246597,
      -0.02513299509882927,
      0.01962202973663807,
      0.03765801712870598,
      0.055178381502628326,
      0.02657519467175007,
      -0.04856656491756439,
      -0.003227970562875271,
      0.05656343325972557,
      -0.09484512358903885,
      -0.03746427595615387,
      0.008889653719961643,
      -0.07699004560709,
      -0.07657598704099655,
      -0.05126708000898361,
      0.09748190641403198,
      -0.007435961626470089,
      -0.012921743094921112,
      -0.08941175788640976,
      -0.12469775974750519,
      -0.048025403171777725,
      -0.018461128696799278,
      -0.057044465094804764,
      -0.049085937440395355,
      -0.022033970803022385,
      0.011974935419857502,
      0.08700814843177795,
      -0.07595014572143555,
      0.052721090614795685,
      -0.1421642303466797,
      0.003335665911436081,
      0.004414008930325508,
      0.06085846200585365
    ],
    [
      -0.4040766954421997,
      0.04647951200604439,
      0.2906554639339447,
      -0.07467473298311234,
      -0.12070800364017487,
      -0.10271808505058289,
      -0.015192554332315922,
      -0.0599842444062233,
      -0.3967556655406952,
      0.2969535291194916,
      -0.07385888695716858,
      -0.04692491516470909,
      -0.19172687828540802,
      0.10886755585670471,
      0.3328934609889984,
      -0.06093372032046318,
      0.012682747095823288,
      0.17416571080684662,
      -0.2805531322956085,
      -0.09088584035634995,
      0.49506133794784546,
      -0.3143226206302643,
      -0.28681328892707825,
      -0.06424201279878616,
      0.03296436369419098,
      0.12419886142015457,
      -0.4044228792190552,
      -0.2875688076019287,
      -0.10985792428255081,
      0.119225412607193,
      -0.32966348528862,
      0.1291680485010147,
      0.05242200195789337,
      -0.033105820417404175,
      -0.034041594713926315,
      -0.18149510025978088,
      -0.06677684932947159,
      -0.2443353235721588,
      -0.6834070682525635,
      -0.07934395223855972,
      -0.03231123462319374,
      -0.05393150821328163,
      -0.24145253002643585,
      -0.055398087948560715,
      0.16410410404205322,
      -0.10412795841693878,
      -0.04501042515039444,
      0.10540420562028885,
      0.016554566100239754,
      -0.1363009512424469,
      -0.2333599478006363,
      0.2989954650402069,
      0.41824841499328613,
      0.07644428312778473,
      -0.2642632722854614,
      -0.3060165345668793,
      0.04400059953331947,
      -0.17974303662776947,
      0.07113558053970337,
      0.10713072866201401,
      0.08668545633554459,
      -0.07595466822385788,
      0.12108946591615677,
      0.16419877111911774
    ],
    [
      0.2661016583442688,
      0.08400087058544159,
      -0.054883383214473724,
      0.029821550473570824,
      -0.05013161525130272,
      0.3290650546550751,
      0.12729793787002563,
      -0.04622624069452286,
      0.2766909599304199,
      -0.05369315296411514,
      0.06530600041151047,
      0.21760456264019012,
      -0.26178303360939026,
      0.08801773935556412,
      -0.08302870392799377,
      0.12240578979253769,
      0.12363674491643906,
      0.014435851946473122,
      -0.03969544544816017,
      0.0741516724228859,
      -0.01945708878338337,
      0.18412530422210693,
      0.10681567341089249,
      0.03981916978955269,
      -0.07217084616422653,
      0.15497271716594696,
      0.21755550801753998,
      0.1999690681695938,
      -0.04267890378832817,
      0.12751071155071259,
      -0.17643041908740997,
      0.19329461455345154,
      0.38708847761154175,
      0.21920490264892578,
      -0.15406619012355804,
      -0.22965578734874725,
      -0.058504559099674225,
      -0.17785415053367615,
      0.2919285297393799,
      0.31098151206970215,
      0.007650456391274929,
      -0.16303111612796783,
      0.20473337173461914,
      0.07568103820085526,
      0.148079976439476,
      0.10156772285699844,
      0.08078896999359131,
      0.13594554364681244,
      -0.07471098750829697,
      0.006444827187806368,
      0.25851792097091675,
      -0.13862581551074982,
      0.01828194223344326,
      0.007617119234055281,
      -0.039823297411203384,
      -0.12228632718324661,
      -0.12382764369249344,
      -0.23202791810035706,
      -0.054505378007888794,
      0.17806634306907654,
      -0.06417810916900635,
      0.03791037201881409,
      0.24627064168453217,
      -0.20592287182807922
    ],
    [
      0.006765121128410101,
      -0.17092114686965942,
      -0.37761759757995605,
      -0.038834214210510254,
      -0.013252957724034786,
      -0.46100863814353943,
      -0.05418211221694946,
      -0.14384548366069794,
      -0.11424320191144943,
      0.075994111597538,
      -0.06858819723129272,
      -0.20564842224121094,
      -0.7345288991928101,
      0.10286133736371994,
      -0.016548234969377518,
      -0.06198353320360184,
      -0.15080098807811737,
      0.16217495501041412,
      -0.5711632370948792,
      -0.1652919352054596,
      -0.06022605299949646,
      -0.5882565379142761,
      -0.03329295292496681,
      -0.047181155532598495,
      -0.18064093589782715,
      -0.144414022564888,
      0.12161166965961456,
      -0.5447961688041687,
      -0.1781119555234909,
      0.1127796471118927,
      -0.11120324581861496,
      -0.28916406631469727,
      0.2674107253551483,
      -0.5622846484184265,
      -0.22788037359714508,
      -0.08520131558179855,
      -0.05247823894023895,
      -0.12189323455095291,
      -0.292946457862854,
      -0.11220932006835938,
      -0.08509190380573273,
      0.03062148578464985,
      -0.0872732475399971,
      -0.11075883358716965,
      -0.14231210947036743,
      -0.05319354310631752,
      -0.510109007358551,
      0.03371124714612961,
      -0.08268552273511887,
      0.005558509845286608,
      0.1638587862253189,
      -0.10641553997993469,
      -0.07163972407579422,
      -0.2860787808895111,
      -0.5854104161262512,
      -0.36229902505874634,
      -0.1074582114815712,
      -0.050884000957012177,
      -0.08875995874404907,
      0.1584777534008026,
      -0.09440582990646362,
      0.08276216685771942,
      0.04431241378188133,
      -0.11885430663824081
    ],
    [
      0.2077113538980484,
      -0.23108609020709991,
      -0.2939040958881378,
      -0.30278122425079346,
      0.0007570685120299459,
      -0.1956126093864441,
      -0.06302892416715622,
      -0.4272889494895935,
      0.08225871622562408,
      -0.30009952187538147,
      0.09201186895370483,
      -0.1518300175666809,
      -0.34995415806770325,
      -0.056005943566560745,
      -0.24414297938346863,
      -0.3976157605648041,
      -0.14219239354133606,
      0.02486429736018181,
      -0.3634948134422302,
      0.13284827768802643,
      -0.21200735867023468,
      -0.09902088344097137,
      0.07882260531187057,
      -0.14524640142917633,
      -0.0966060534119606,
      -0.17192600667476654,
      0.03667085990309715,
      -0.18127457797527313,
      -0.2262895256280899,
      -0.2745952904224396,
      -0.3122408390045166,
      -0.1481676697731018,
      0.00042002121335826814,
      -0.013955674134194851,
      -0.36174362897872925,
      -0.4175213575363159,
      -0.44028761982917786,
      -0.3116079866886139,
      0.2010236531496048,
      0.285145103931427,
      -0.12252672016620636,
      -0.093059241771698,
      -0.0927969366312027,
      -0.2163551151752472,
      0.1017523929476738,
      0.044602956622838974,
      -0.3515697419643402,
      0.0013405797071754932,
      -0.48168954253196716,
      -0.38946008682250977,
      0.1189417839050293,
      -0.38168179988861084,
      -0.1419547200202942,
      -0.13350877165794373,
      -0.23395118117332458,
      -0.3983609676361084,
      -0.08463313430547714,
      -0.19260282814502716,
      -0.0996856689453125,
      -0.08209364861249924,
      -0.014843709766864777,
      0.0181601382791996,
      -0.05719679594039917,
      -0.20688152313232422
    ],
    [
      0.23394092917442322,
      0.0985923483967781,
      0.2516065239906311,
      -0.8124745488166809,
      -0.7762497067451477,
      0.33521929383277893,
      -0.5597177743911743,
      -0.48792243003845215,
      0.3225434720516205,
      -0.10601703822612762,
      0.2583959698677063,
      0.3190607726573944,
      -0.12869878113269806,
      -0.25582486391067505,
      -0.022631440311670303,
      0.19527003169059753,
      -0.5382250547409058,
      0.08185719698667526,
      -0.377698689699173,
      0.28292030096054077,
      -0.02077367529273033,
      0.4090442359447479,
      0.3260728120803833,
      -0.7767783403396606,
      0.2782849371433258,
      0.5338073372840881,
      0.06898749619722366,
      -0.002693653805181384,
      0.35604342818260193,
      0.3603104054927826,
      -0.6710434556007385,
      0.5200612545013428,
      0.5519406199455261,
      0.36785876750946045,
      -0.14819732308387756,
      -0.0933157429099083,
      -0.33667439222335815,
      -0.7623773813247681,
      0.062123581767082214,
      0.5067785978317261,
      0.27668577432632446,
      -0.761336088180542,
      0.31726163625717163,
      -0.08798380196094513,
      0.43061354756355286,
      0.3761710524559021,
      -0.08640336245298386,
      -0.3166797459125519,
      -0.3208949565887451,
      -0.7263233661651611,
      0.3483944535255432,
      0.012125839479267597,
      0.10980958491563797,
      -0.10361231118440628,
      -0.4198168218135834,
      -0.12126946449279785,
      -0.9060636758804321,
      0.08813075721263885,
      -0.39572080969810486,
      0.2178436815738678,
      0.038143739104270935,
      -0.019804229959845543,
      0.5035844445228577,
      -0.271437406539917
    ],
    [
      -0.26336395740509033,
      0.0008874912746250629,
      0.5451124310493469,
      -0.23714439570903778,
      -0.40675660967826843,
      -0.10506308078765869,
      -0.35532674193382263,
      -0.12456803023815155,
      -0.357817143201828,
      -0.03236045688390732,
      0.2564299702644348,
      -0.09245841205120087,
      0.5833132266998291,
      0.36996158957481384,
      0.3577781915664673,
      -0.05488358438014984,
      -0.31210312247276306,
      0.3585715889930725,
      0.16152073442935944,
      0.009501280263066292,
      0.4906213879585266,
      0.13167200982570648,
      -0.06632176041603088,
      -0.544904351234436,
      0.028477082028985023,
      0.16838127374649048,
      -0.2975050210952759,
      -0.05276733636856079,
      -0.04719272255897522,
      0.2056940793991089,
      -0.16163356602191925,
      0.05061161890625954,
      0.21603214740753174,
      0.18522655963897705,
      0.03877783194184303,
      -0.0630999505519867,
      -0.0693819671869278,
      -0.2233155220746994,
      -0.24629244208335876,
      0.019116709008812904,
      0.053325820714235306,
      0.04908064380288124,
      0.1863277554512024,
      -0.026240238919854164,
      0.18131983280181885,
      -0.08428166061639786,
      0.42548081278800964,
      0.015694906935095787,
      -0.0028706092853099108,
      -0.24945512413978577,
      -0.10079772770404816,
      0.026285748928785324,
      0.6492462754249573,
      0.3153877854347229,
      0.4522213935852051,
      0.3654545545578003,
      -0.10190155357122421,
      0.44500550627708435,
      -0.027554145082831383,
      -0.14955849945545197,
      0.04113476350903511,
      0.002228200202807784,
      -0.0414358451962471,
      0.19499070942401886
    ],
    [
      -0.004068445879966021,
      -0.09767573326826096,
      0.1727314591407776,
      -0.13897834718227386,
      0.03736519441008568,
      -0.20034927129745483,
      -0.11135608702898026,
      -0.1278320997953415,
      -0.055719856172800064,
      -0.0882566049695015,
      0.1597016304731369,
      -0.19668544828891754,
      -0.1484849750995636,
      0.028320979326963425,
      -0.10259779542684555,
      -0.26884838938713074,
      -0.2579830586910248,
      -0.007942392490804195,
      -0.12165374308824539,
      0.19127976894378662,
      -0.01817925088107586,
      -0.050800736993551254,
      0.046143513172864914,
      -0.1648835688829422,
      0.059444114565849304,
      -0.1508203148841858,
      -0.01424403302371502,
      -0.14160063862800598,
      0.014364339411258698,
      -0.06786827743053436,
      -0.026378633454442024,
      0.05439131334424019,
      -0.07273858040571213,
      -0.11454343050718307,
      -0.16039708256721497,
      -0.030503705143928528,
      -0.10157093405723572,
      -0.17895649373531342,
      -0.01802467554807663,
      0.11823631823062897,
      0.046262502670288086,
      -0.1382303684949875,
      -0.03010026179254055,
      -0.1585923433303833,
      -0.1499779373407364,
      0.07285063713788986,
      -0.12837554514408112,
      0.08343286067247391,
      -0.048370834439992905,
      -0.191005676984787,
      0.005379786249250174,
      -0.1049799695611,
      -0.08115158975124359,
      0.029996147379279137,
      -0.1105133667588234,
      -0.15494176745414734,
      -0.053958959877491,
      0.00851195678114891,
      0.11440910398960114,
      -0.01813160628080368,
      -0.0023127130698412657,
      0.04740529879927635,
      0.006778920069336891,
      -0.09848261624574661
    ],
    [
      -0.06451122462749481,
      -0.056569892913103104,
      0.10669245570898056,
      0.03073681704699993,
      0.048886556178331375,
      -0.003828764660283923,
      0.11143653094768524,
      0.07040295749902725,
      -0.06305472552776337,
      0.029201272875070572,
      -0.056605350226163864,
      0.09318939596414566,
      0.07556086033582687,
      -0.04494229704141617,
      -0.039364226162433624,
      -0.06420490890741348,
      0.018531452864408493,
      -0.025600260123610497,
      0.051316726952791214,
      0.06556399911642075,
      -0.1322919726371765,
      0.0032107713632285595,
      -0.01698346994817257,
      -0.0693574845790863,
      -0.05952061340212822,
      0.0258912593126297,
      -0.12038658559322357,
      -0.048042356967926025,
      0.07697939872741699,
      -0.0012426382163539529,
      -0.06506624072790146,
      0.028908202424645424,
      -0.0649220272898674,
      0.060454100370407104,
      -0.011658713221549988,
      0.038689881563186646,
      0.049762528389692307,
      -0.012411056086421013,
      0.057583361864089966,
      -0.020764661952853203,
      -0.009954788722097874,
      0.01895182579755783,
      0.16807672381401062,
      -0.09595034271478653,
      -0.07761841267347336,
      0.0621393546462059,
      -0.12491898983716965,
      -0.0270729660987854,
      -0.14559604227542877,
      -0.17862087488174438,
      0.05983474478125572,
      -0.01879197359085083,
      0.049623697996139526,
      0.03225737810134888,
      -0.07190164923667908,
      -0.06090383604168892,
      -0.02855265699326992,
      -0.0004380374448373914,
      -0.04803768917918205,
      0.07192409783601761,
      -0.055611222982406616,
      -0.04673855006694794,
      -0.10783285647630692,
      0.09113183617591858
    ],
    [
      0.052542611956596375,
      -0.09775380790233612,
      -0.04669289290904999,
      -0.01838183030486107,
      0.04704362154006958,
      0.20136745274066925,
      -0.10390611737966537,
      -0.21648554503917694,
      0.2500201463699341,
      0.05714772641658783,
      0.0642581433057785,
      0.16785988211631775,
      -0.015421207994222641,
      -0.07946913689374924,
      -0.08157895505428314,
      0.005795612931251526,
      0.08737445622682571,
      0.04643213003873825,
      -0.13774335384368896,
      0.1286826729774475,
      -0.17063181102275848,
      0.17796900868415833,
      0.1920592039823532,
      0.062388185411691666,
      0.1256805658340454,
      0.13433991372585297,
      0.24069999158382416,
      -0.023186147212982178,
      0.18239226937294006,
      0.10019886493682861,
      -0.218434676527977,
      0.1543189436197281,
      0.18916338682174683,
      0.20257334411144257,
      -0.014730772003531456,
      -0.19690681993961334,
      -0.06823901832103729,
      -0.19723373651504517,
      0.13814954459667206,
      0.19106633961200714,
      0.08823185414075851,
      -0.027821140363812447,
      0.08789665997028351,
      0.06437777727842331,
      0.2773014307022095,
      -0.03789758309721947,
      -0.09425275772809982,
      0.03164459392428398,
      -0.021905070170760155,
      -0.17964902520179749,
      0.1797732412815094,
      -0.21648748219013214,
      -0.048300132155418396,
      -0.009760426357388496,
      -0.13016250729560852,
      0.1570681929588318,
      -0.14387771487236023,
      -0.09310617297887802,
      0.06159638240933418,
      0.059904422610998154,
      -0.07186564803123474,
      0.10025164484977722,
      0.12444354593753815,
      -0.0524190217256546
    ],
    [
      -0.16446462273597717,
      0.0062259226106107235,
      0.07618008553981781,
      -0.09885095059871674,
      -0.14540551602840424,
      0.048980697989463806,
      -0.2380274385213852,
      -0.10422109812498093,
      -0.0945981964468956,
      -0.1900894194841385,
      -0.1274411380290985,
      0.01115458831191063,
      -0.16275343298912048,
      -0.5705652832984924,
      -0.576628565788269,
      -0.10654659569263458,
      -0.13331563770771027,
      -0.5092740058898926,
      -0.09892159700393677,
      0.1329173445701599,
      -0.07668542116880417,
      0.10360617190599442,
      -0.20302653312683105,
      -0.2151484340429306,
      -0.08062713593244553,
      -0.16946327686309814,
      -0.1589522808790207,
      0.010411104187369347,
      0.0072942995466291904,
      -0.26722583174705505,
      -0.155062735080719,
      -0.07897854596376419,
      -0.4279020130634308,
      0.0633324459195137,
      -0.0557931624352932,
      0.051045019179582596,
      -0.13200515508651733,
      -0.17834708094596863,
      0.07492179423570633,
      0.20194551348686218,
      0.09808307886123657,
      -0.3891094923019409,
      -0.32933804392814636,
      -0.025812415406107903,
      0.02482011169195175,
      0.1315843164920807,
      -0.12284057587385178,
      -0.2700141370296478,
      -0.15877941250801086,
      -0.06804773211479187,
      0.059498339891433716,
      -0.2223607897758484,
      -0.19873300194740295,
      -0.09225225448608398,
      -0.08956844359636307,
      0.019876927137374878,
      -0.3151177763938904,
      -0.36530712246894836,
      -0.4080234467983246,
      -0.009686124511063099,
      -0.04846734553575516,
      0.029012970626354218,
      -0.17729206383228302,
      -0.360337495803833
    ],
    [
      0.15275967121124268,
      -0.0900598019361496,
      0.33535367250442505,
      -0.46814483404159546,
      -0.030794508755207062,
      0.19788026809692383,
      -0.158733069896698,
      -0.7466675043106079,
      0.3029272258281708,
      -0.10748938471078873,
      0.3709864914417267,
      0.2500689923763275,
      0.3320505917072296,
      0.023316632956266403,
      0.030989930033683777,
      -0.09059581905603409,
      0.23554249107837677,
      0.3691467344760895,
      -0.01694006659090519,
      0.416492760181427,
      0.2788565754890442,
      0.19575674831867218,
      0.2962428331375122,
      -0.31975677609443665,
      0.37730470299720764,
      0.3383040428161621,
      0.0493987575173378,
      0.14631429314613342,
      0.3693321943283081,
      0.11446268856525421,
      -0.5470939874649048,
      0.48155102133750916,
      0.5239294171333313,
      0.3763001561164856,
      -0.2154734581708908,
      -0.44419512152671814,
      -0.5890706181526184,
      -0.738793671131134,
      0.07414460182189941,
      0.5654897689819336,
      0.22991257905960083,
      -0.5268499255180359,
      0.0804552510380745,
      -0.1784365028142929,
      0.4924759268760681,
      0.3364562690258026,
      0.2588759958744049,
      0.33400076627731323,
      -0.673241376876831,
      -0.839392364025116,
      0.35736915469169617,
      -0.1712835431098938,
      0.3381947875022888,
      0.1988539844751358,
      0.13670682907104492,
      -0.00899736862629652,
      -0.420411616563797,
      0.34361016750335693,
      -0.06866201758384705,
      0.2481742948293686,
      0.33917856216430664,
      0.018990980461239815,
      0.5190485119819641,
      -0.16730175912380219
    ],
    [
      0.1567392498254776,
      -0.048239704221487045,
      0.4370417594909668,
      -1.0770976543426514,
      -0.48183542490005493,
      0.5163498520851135,
      -0.4691329598426819,
      -0.7725023031234741,
      0.5028742551803589,
      -0.07626475393772125,
      0.34296485781669617,
      0.33992475271224976,
      0.23013482987880707,
      -0.2373274713754654,
      -0.08682991564273834,
      0.17706401646137238,
      -0.24378006160259247,
      0.30364376306533813,
      -0.32121405005455017,
      0.45469096302986145,
      0.1398967057466507,
      0.4720553159713745,
      0.2248685508966446,
      -0.8377528786659241,
      0.26161113381385803,
      0.5508459210395813,
      0.08508076518774033,
      0.17054256796836853,
      0.45838963985443115,
      0.35544684529304504,
      -0.8707610964775085,
      0.786879301071167,
      0.6423328518867493,
      0.39102259278297424,
      -0.029236730188131332,
      -0.42636510729789734,
      -0.4882768392562866,
      -1.0766127109527588,
      0.16878141462802887,
      0.7080002427101135,
      0.35092633962631226,
      -0.821416437625885,
      0.2652810513973236,
      -0.05614303797483444,
      0.6709728240966797,
      0.5276978611946106,
      0.026400959119200706,
      -0.18136250972747803,
      -0.5196369290351868,
      -0.9731117486953735,
      0.3480609655380249,
      -0.2606506943702698,
      0.32140958309173584,
      0.01304651703685522,
      -0.2769741117954254,
      -0.07102715969085693,
      -0.7517130374908447,
      0.4851455092430115,
      -0.349748432636261,
      0.34526288509368896,
      0.08453776687383652,
      0.042034149169921875,
      0.6474261283874512,
      -0.36533334851264954
    ],
    [
      0.2091532051563263,
      -0.06825591623783112,
      -0.11462082713842392,
      -0.17349675297737122,
      -0.1793762445449829,
      0.17171789705753326,
      -0.2180231213569641,
      -0.020992649719119072,
      0.21177412569522858,
      -0.14648479223251343,
      0.18447226285934448,
      0.15832406282424927,
      -0.22669526934623718,
      -0.05408823490142822,
      0.045859094709157944,
      0.03615836799144745,
      -0.4256221652030945,
      0.27193471789360046,
      -0.33876001834869385,
      0.3179735243320465,
      -0.0828680545091629,
      0.06585059314966202,
      0.27523958683013916,
      -0.3167905807495117,
      -0.08854731917381287,
      0.013324128463864326,
      0.05585278198122978,
      0.0025239656679332256,
      0.22072356939315796,
      0.19425852596759796,
      -0.3199598491191864,
      0.1392199844121933,
      0.3148215413093567,
      0.2773495614528656,
      -0.059443775564432144,
      -0.15763868391513824,
      -0.15663567185401917,
      -0.23287305235862732,
      0.15518103539943695,
      0.22332118451595306,
      0.09462534636259079,
      -0.04971173033118248,
      0.17487449944019318,
      -0.11667167395353317,
      0.15382593870162964,
      0.15584732592105865,
      -0.24008174240589142,
      -0.013666078448295593,
      -0.0678156167268753,
      -0.17579370737075806,
      0.14577654004096985,
      -0.11987987905740738,
      -0.09119751304388046,
      -0.07477816194295883,
      -0.362802654504776,
      -0.09345578402280807,
      -0.19299902021884918,
      0.0411827452480793,
      -0.1300780475139618,
      0.15241587162017822,
      -0.21916410326957703,
      -0.019688347354531288,
      0.23712845146656036,
      -0.03125453740358353
    ],
    [
      -0.00718871271237731,
      -0.08911813050508499,
      -0.06371530890464783,
      0.011198834516108036,
      0.08991128951311111,
      -0.04918183758854866,
      0.06653478741645813,
      -0.0685877725481987,
      -0.01262885332107544,
      -0.03833681344985962,
      -0.04848620668053627,
      0.0052512455731630325,
      -0.041065435856580734,
      -0.03578010946512222,
      -0.0072155301459133625,
