{
  "net.0.weight": [
    [
      0.4671161472797394,
      0.23560133576393127,
      -0.37640440464019775
    ],
    [
      0.2946179211139679,
      0.1600998342037201,
      -0.6232505440711975
    ],
    [
      0.21168778836727142,
      -0.1164412572979927,
      -0.19643564522266388
    ],
    [
      0.42797785997390747,
      0.16544859111309052,
      0.3618863523006439
    ],
    [
      -0.01834813505411148,
      -0.08015821874141693,
      -0.056746311485767365
    ],
    [
      0.2027159482240677,
      -0.6247267127037048,
      0.09894442558288574
    ],
    [
      0.4660570025444031,
      0.47824713587760925,
      -0.4487408399581909
    ],
    [
      -0.33785587549209595,
      -0.47927719354629517,
      -0.24836820363998413
    ],
    [
      -0.005485007539391518,
      -0.002037209924310446,
      -0.0002508165780454874
    ],
    [
      0.4290013313293457,
      -0.5319393277168274,
      0.263142466545105
    ],
    [
      0.4332657754421234,
      0.452312171459198,
      -0.4607175588607788
    ],
    [
      -0.33337461948394775,
      -0.10940138250589371,
      0.5143733620643616
    ],
    [
      -0.0003675511688925326,
      -0.00015851884381845593,
      0.0010473813163116574
    ],
    [
      -0.38018494844436646,
      0.05228827893733978,
      0.10503790527582169
    ],
    [
      0.33994606137275696,
      0.36112818121910095,
      -0.3369661867618561
    ],
    [
      0.004049156792461872,
      0.0027924352325499058,
      0.001711665652692318
    ],
    [
      0.1995306760072708,
      0.39333927631378174,
      -0.34585049748420715
    ],
    [
      0.48970821499824524,
      0.5077091455459595,
      0.05822290852665901
    ],
    [
      0.14123977720737457,
      -0.24900642037391663,
      -0.20460911095142365
    ],
    [
      -0.1018475666642189,
      -0.3238517642021179,
      -0.08264601230621338
    ],
    [
      -0.0012280255323275924,
      0.002878637984395027,
      -0.0004915943718515337
    ],
    [
      -0.11859690397977829,
      0.2722553610801697,
      0.2531840205192566
    ],
    [
      0.29523512721061707,
      0.1429162621498108,
      -0.29116445779800415
    ],
    [
      0.0013885620282962918,
      0.00013750062498729676,
      0.002847847528755665
    ],
    [
      0.35569414496421814,
      0.4181289076805115,
      0.4237256944179535
    ],
    [
      -0.4908509850502014,
      -0.658324122428894,
      0.5468127727508545
    ],
    [
      -0.6610140800476074,
      0.08072114735841751,
      0.31020957231521606
    ],
    [
      -0.6313889026641846,
      0.0630255714058876,
      0.016955241560935974
    ],
    [
      -0.20290644466876984,
      -0.1953624188899994,
      0.32544028759002686
    ],
    [
      0.4350770115852356,
      -0.14181403815746307,
      0.24326001107692719
    ],
    [
      0.0022275394294410944,
      -0.0012333332560956478,
      0.001393018988892436
    ],
    [
      0.12154055386781693,
      0.20264877378940582,
      -0.007846545428037643
    ],
    [
      -0.6415185928344727,
      -0.10808918625116348,
      -0.08262113481760025
    ],
    [
      -0.0010129505535587668,
      0.001117347739636898,
      -0.0006028206553310156
    ],
    [
      0.2327982783317566,
      -0.6116735935211182,
      0.05427391827106476
    ],
    [
      0.00029166281456127763,
      -0.00015111900574993342,
      0.0011195201659575105
    ],
    [
      -0.4179350733757019,
      -0.013692975975573063,
      -0.3265259563922882
    ],
    [
      -0.06986605376005173,
      0.07614046335220337,
      -0.7357742190361023
    ],
    [
      -0.3065674304962158,
      -0.40260183811187744,
      -0.006986517459154129
    ],
    [
      0.0933963730931282,
      0.20114009082317352,
      -0.6097034215927124
    ],
    [
      -0.7029896974563599,
      -0.19400593638420105,
      0.6770417094230652
    ],
    [
      0.3224116861820221,
      -0.7640565633773804,
      0.1339440643787384
    ],
    [
      0.02529830113053322,
      0.27457886934280396,
      -0.5268683433532715
    ],
    [
      0.3161487579345703,
      -0.09825234860181808,
      -0.5383158922195435
    ],
    [
      -0.11896411329507828,
      -0.004913595039397478,
      0.14977067708969116
    ],
    [
      0.0026952920015901327,
      -4.357187572168186e-05,
      0.0019835110288113356
    ],
    [
      0.3048105835914612,
      0.21097557246685028,
      0.45162659883499146
    ],
    [
      -0.0561864897608757,
      0.30088579654693604,
      -0.286048024892807
    ],
    [
      0.1056472659111023,
      0.25003841519355774,
      -0.11529883742332458
    ],
    [
      -0.49054309725761414,
      0.365125834941864,
      0.20685286819934845
    ],
    [
      0.41627660393714905,
      0.40360063314437866,
      -0.7301564812660217
    ],
    [
      -0.7030937671661377,
      0.4656147062778473,
      0.07733065634965897
    ],
    [
      0.07449971139431,
      0.03614721819758415,
      -0.7896224856376648
    ],
    [
      -0.15262475609779358,
      -0.12728695571422577,
      0.047072701156139374
    ],
    [
      -0.6297069787979126,
      -0.1498354971408844,
      0.2710944414138794
    ],
    [
      -0.03201453387737274,
      0.24033427238464355,
      -0.3553842306137085
    ],
    [
      -0.33658966422080994,
      0.21715785562992096,
      0.14647641777992249
    ],
    [
      0.0020439098589122295,
      0.0010301165748387575,
      0.000998123548924923
    ],
    [
      0.26640620827674866,
      0.04414279758930206,
      -0.2103293538093567
    ],
    [
      0.6768872737884521,
      -0.4383738934993744,
      0.3570168912410736
    ],
    [
      0.16416864097118378,
      0.15441827476024628,
      -0.27773693203926086
    ],
    [
      -0.0018310295417904854,
      0.0009043770260177553,
      -0.0007231417112052441
    ],
    [
      -0.3494221270084381,
      0.2209928184747696,
      -0.07462942600250244
    ],
    [
      0.003066595643758774,
      0.003071423154324293,
      1.9676343072205782e-05
    ]
  ],
  "net.0.bias": [
    -0.6112585067749023,
    -0.6687936782836914,
    -0.20548701286315918,
    0.01628955453634262,
    0.012087158858776093,
    -0.5758597254753113,
    -0.42845210433006287,
    -0.08917504549026489,
    -0.00048548472113907337,
    -0.2251199185848236,
    0.1495140939950943,
    -0.20940668880939484,
    0.0019148224964737892,
    0.30879005789756775,
    -0.0604560449719429,
    0.0006056407582946122,
    0.2641281187534332,
    0.2305910885334015,
    0.020675987005233765,
    -0.11678525060415268,
    -0.0022454294376075268,
    0.38534167408943176,
    0.15853750705718994,
    0.002990249078720808,
    -0.11021210253238678,
    0.24183593690395355,
    -0.31177109479904175,
    -0.10515308380126953,
    -0.5000206828117371,
    -0.36067894101142883,
    0.0009572980343364179,
    0.06792351603507996,
    -0.5609129667282104,
    0.0019717819523066282,
    -0.3000166118144989,
    0.003236018121242523,
    -0.6442301273345947,
    -0.7481597661972046,
    0.19007374346256256,
    -0.4846469759941101,
    -0.10844109207391739,
    -0.5400196313858032,
    -0.0712108239531517,
    -0.43401840329170227,
    0.3855286240577698,
    0.0006756841321475804,
    0.5656015276908875,
    -0.13362526893615723,
    -0.06876005232334137,
    0.2501952350139618,
    -0.8283945322036743,
    -0.4409249424934387,
    -0.7405209541320801,
    0.2725227475166321,
    -0.43155068159103394,
    -0.43766337633132935,
    -0.047174207866191864,
    -0.0010273009538650513,
    -0.23427805304527283,
    0.6403019428253174,
    -0.29698365926742554,
    -0.0009132545674219728,
    -0.3547118604183197,
    -0.0006606827955693007
  ],
  "net.2.weight": [
    [
      -0.06327815353870392,
      0.09835582226514816,
      -0.006478418596088886,
      -0.11670492589473724,
      -0.053858086466789246,
      0.15349484980106354,
      -0.0592164546251297,
      0.026647258549928665,
      -0.002755950903519988,
      -0.059518590569496155,
      -0.13835608959197998,
      -0.0841648280620575,
      0.01634140871465206,
      0.030507946386933327,
      0.11293984204530716,
      0.09602560847997665,
      0.03693607077002525,
      0.09085895866155624,
      0.06693946570158005,
      -0.13292749226093292,
      -0.00721546309068799,
      -0.01718800514936447,
      0.054455485194921494,
      0.004434837028384209,
      -0.04537332057952881,
      0.06166784465312958,
      0.05824754759669304,
      -0.04448921978473663,
      -0.025512926280498505,
      -0.07441101223230362,
      -0.07270252704620361,
      0.10968931764364243,
      0.022447995841503143,
      -0.049714796245098114,
      -0.00827714428305626,
      -0.0621822290122509,
      0.08946506679058075,
      0.0947660580277443,
      -0.042710673063993454,
      -0.06704679876565933,
      0.00510641373693943,
      -0.03348124027252197,
      0.04906567558646202,
      -0.03831543028354645,
      0.001830893917940557,
      0.005948883946985006,
      0.0760050117969513,
      -0.13215941190719604,
      -0.08744990825653076,
      0.001429098192602396,
      0.06255287677049637,
      -0.008348748087882996,
      -0.02468213625252247,
      -0.10228275507688522,
      -0.039052851498126984,
      -0.016626494005322456,
      0.01789652369916439,
      -0.11918629705905914,
      -0.03436253219842911,
      0.011163444258272648,
      -0.01891792006790638,
      -0.07921412587165833,
      -0.07112301886081696,
      -0.03250071033835411
    ],
    [
      0.2836979627609253,
      0.30083367228507996,
      0.048310622572898865,
      -0.052612461149692535,
      -0.026113392785191536,
      0.018043480813503265,
      0.1925550401210785,
      -0.1991208791732788,
      -0.05101386085152626,
      0.05172286927700043,
      0.14657659828662872,
      0.06869817525148392,
      0.01203894428908825,
      -0.12029486149549484,
      0.06870384514331818,
      0.02031569741666317,
      -0.07109945267438889,
      -0.12269497662782669,
      -0.10511072725057602,
      -0.15506726503372192,
      0.1064312681555748,
      -0.22448787093162537,
      0.013864540494978428,
      0.05123032256960869,
      0.029267212375998497,
      -0.02645219676196575,
      -0.017310194671154022,
      -0.15567874908447266,
      -0.006779242306947708,
      0.06795932352542877,
      -0.024099484086036682,
      -0.08831939101219177,
      -0.01390906609594822,
      0.052565332502126694,
      -0.16176660358905792,
      0.11237094551324844,
      0.07071177661418915,
      0.23543903231620789,
      -0.13795186579227448,
      0.3605000674724579,
      0.08763658255338669,
      -0.08826562017202377,
      0.14546802639961243,
      0.22111664712429047,
      0.05419694259762764,
      -0.0392349436879158,
      -0.16731764376163483,
      0.0993618369102478,
      -0.004116277676075697,
      -0.21490436792373657,
      0.4397529363632202,
      -0.030595237389206886,
      0.5214605927467346,
      0.03002137318253517,
      0.17056572437286377,
      0.17938032746315002,
      -0.05994245037436485,
      0.024997668340802193,
      -0.06998623162508011,
      0.03140995651483536,
      0.0750744491815567,
      0.0637250766158104,
      -0.06486476212739944,
      0.13110794126987457
    ],
    [
      -0.017129896208643913,
      -0.07554557174444199,
      -0.011656411923468113,
      -0.09044061601161957,
      0.02289525419473648,
      0.02477811463177204,
      -0.01440739817917347,
      0.017469821497797966,
      -0.015286868438124657,
      -0.13636313378810883,
      0.03113320842385292,
      0.017124678939580917,
      -0.053716257214546204,
      -0.0044957478530704975,
      0.022412315011024475,
      0.12000985443592072,
      -0.07947950065135956,
      0.0049321153201162815,
      -0.02467949688434601,
      0.005558867938816547,
      0.08858941495418549,
      -0.03978381305932999,
      -0.039337653666734695,
      -0.06901071220636368,
      -0.022790145128965378,
      0.0605943389236927,
      0.015810837969183922,
      -0.048942681401968,
      -0.04210061579942703,
      0.010011802427470684,
      0.088235042989254,
      0.03082546405494213,
      -0.08905579149723053,
      -0.012352594174444675,
      -0.025695085525512695,
      -0.03514488786458969,
      -0.05290761962532997,
      -0.03164830803871155,
      0.0482155866920948,
      -0.03594451770186424,
      -0.08578410744667053,
      -0.11124278604984283,
      0.06392545998096466,
      0.07305284589529037,
      -0.0884312242269516,
      -0.08612868934869766,
      0.029914401471614838,
      -0.07299232482910156,
      0.043288227170705795,
      -0.00367141654714942,
      0.11039529740810394,
      0.09866666793823242,
      0.009954201057553291,
      -0.02595597319304943,
      -0.012932119891047478,
      0.049363233149051666,
      0.1145329549908638,
      -0.005028631072491407,
      -0.022852202877402306,
      0.09856458753347397,
      -0.07205362617969513,
      0.052232902497053146,
      0.07315599173307419,
      -0.012622893787920475
    ],
    [
      0.028337053954601288,
      0.15675929188728333,
      -0.1301998496055603,
      -0.018409540876746178,
      -0.045950207859277725,
      -0.10044720023870468,
      -0.061258669942617416,
      0.020632212981581688,
      -0.003545268438756466,
      -0.009283577091991901,
      0.03092839941382408,
      0.014348111115396023,
      -0.00523356394842267,
      -0.07484298944473267,
      -0.08602224290370941,
      0.10353326797485352,
      0.03257421404123306,
      -0.05332067236304283,
      -0.10163890570402145,
      -0.029645776376128197,
      -0.10585514456033707,
      0.11626365035772324,
      0.009204679168760777,
      0.013514965772628784,
      -0.007383369840681553,
      -0.01689860224723816,
      -0.08569652587175369,
      -0.054303836077451706,
      -0.06785071641206741,
      0.1428060531616211,
      0.10285086929798126,
      -0.1655309945344925,
      0.03288950026035309,
      -0.1605701446533203,
      0.08186829090118408,
      0.1662610024213791,
      -0.09148166328668594,
      -0.02263445220887661,
      0.06736543774604797,
      -0.0161444041877985,
      -0.08959600329399109,
      -0.09483909606933594,
      0.04390667751431465,
      -0.07627633213996887,
      0.13501544296741486,
      -0.05430993065237999,
      0.046503957360982895,
      -0.04444214701652527,
      -0.16053593158721924,
      0.13058684766292572,
      0.20505192875862122,
      -0.0796578973531723,
      0.1103689894080162,
      0.11945498734712601,
      -0.08102565258741379,
      -0.12848760187625885,
      0.0044643329456448555,
      0.026308096945285797,
      -0.15628141164779663,
      0.00018573447596281767,
      -0.005966992117464542,
      -0.007217530161142349,
      0.059251341968774796,
      -0.05982141196727753
    ],
    [
      0.5939915776252747,
      0.9070590138435364,
      0.022828582674264908,
      -0.4286929666996002,
      -0.23165373504161835,
      0.3003750145435333,
      0.24855409562587738,
      -0.2698759436607361,
      -0.026661040261387825,
      -0.06269298493862152,
      -0.03093874454498291,
      0.5048389434814453,
      -0.016245683655142784,
      -0.5581697225570679,
      0.07670566439628601,
      0.03187183290719986,
      -0.17865848541259766,
      -0.2398126721382141,
      -0.23474404215812683,
      -0.02783723920583725,
      -0.01196225080639124,
      -0.8529318571090698,
      -0.05078134685754776,
      -0.01777724362909794,
      -0.3730732500553131,
      0.3277874290943146,
      0.31971073150634766,
      -0.06720153242349625,
      0.6669809222221375,
      0.20674215257167816,
      -0.013467232696712017,
      -0.21722657978534698,
      0.3745426535606384,
      -0.018657926470041275,
      0.11011423170566559,
      -0.04537951946258545,
      0.19011682271957397,
      0.7003329396247864,
      -0.2407350242137909,
      0.5004714727401733,
      0.5099756121635437,
      0.15903189778327942,
      0.16652560234069824,
      0.2648831307888031,
      -0.7317215204238892,
      0.01190180517733097,
      -0.9016919732093811,
      0.1046900823712349,
      0.0020935700740665197,
      -0.6424559354782104,
      0.540380597114563,
      -0.074704609811306,
      0.8595609664916992,
      -0.41621196269989014,
      0.6220073103904724,
      0.34410539269447327,
      -0.10257647186517715,
      0.02521522529423237,
      -0.024661317467689514,
      -0.8509120345115662,
      0.2197008579969406,
      -0.02158745750784874,
      0.14581479132175446,
      0.04019444063305855
    ],
    [
      0.14796555042266846,
      -0.01025516726076603,
      -0.09553256630897522,
      -0.013007380068302155,
      -0.040670059621334076,
      -0.10975582897663116,
      -0.05536342412233353,
      -0.029944203794002533,
      -0.0726470947265625,
      -0.09258770942687988,
      0.02473681978881359,
      0.013381092809140682,
      0.04841098561882973,
      -0.046704407781362534,
      0.0019869068637490273,
      0.01982615888118744,
      0.1205580085515976,
      -0.04628400504589081,
      0.061076827347278595,
      0.05039205774664879,
      -0.03490063175559044,
      -0.006568186916410923,
      -0.017791572958230972,
      -0.080825574696064,
      0.04879859834909439,
      0.08083223551511765,
      0.021882932633161545,
      0.07175186276435852,
      0.14904716610908508,
      -0.05651933327317238,
      -0.008059446699917316,
      0.07842141389846802,
      -0.02972230687737465,
      -0.0199564341455698,
      0.03454318642616272,
      -0.11676119267940521,
      -0.052849266678094864,
      0.0893096998333931,
      -0.07989725470542908,
      -0.08284106105566025,
      -0.056652579456567764,
      -0.09626804292201996,
      -0.054292257875204086,
      0.11941251158714294,
      -0.09862548112869263,
      -0.01997559145092964,
      -0.04036201164126396,
      -0.013335412368178368,
      -0.043970271944999695,
      -0.02898530848324299,
      -0.07911542803049088,
      0.12837262451648712,
      -0.05314825102686882,
      0.04011479765176773,
      -0.034636519849300385,
      0.12531733512878418,
      -0.08144156634807587,
      0.15300048887729645,
      -0.0777139663696289,
      0.08523792028427124,
      -0.057189974933862686,
      -0.06210215389728546,
      -0.10284048318862915,
      -0.17056088149547577
    ],
    [
      0.07402637600898743,
      0.019223414361476898,
      -0.11487139761447906,
      -0.07175002992153168,
      -0.03503461554646492,
      -0.020434949547052383,
      -0.03004821389913559,
      -0.07785589247941971,
      0.008901119232177734,
      0.06941088289022446,
      -0.018605004996061325,
      -0.02960294485092163,
      -0.11374366283416748,
      -0.12745554745197296,
      0.03401986509561539,
      -0.11423574388027191,
      -0.06892244517803192,
      0.018128300085663795,
      0.053464241325855255,
      0.09167458117008209,
      0.09970412403345108,
      0.009121271781623363,
      0.0595594197511673,
      -0.06663651764392853,
      0.0691877231001854,
      -0.01575802080333233,
      0.06835110485553741,
      -0.06003442779183388,
      0.034748297184705734,
      -0.10053257644176483,
      0.02174045890569687,
      0.0066564069129526615,
      0.0029937359504401684,
      0.052228815853595734,
      -0.043674536049366,
      -0.032095398753881454,
      -0.013009641319513321,
      -0.009000062011182308,
      0.10205330699682236,
      0.033856917172670364,
      -0.032291561365127563,
      -0.0923190638422966,
      0.007237457670271397,
      -0.06745423376560211,
      -0.10775640606880188,
      -0.062120646238327026,
      -0.04255072772502899,
      0.11654941737651825,
      -0.03593671694397926,
      0.018581006675958633,
      0.0625092089176178,
      0.10789726674556732,
      0.01047470886260271,
      0.09885551780462265,
      -0.028273846954107285,
      -0.059450116008520126,
      0.07345972210168839,
      -0.10385919362306595,
      -0.02670871652662754,
      0.030959604308009148,
      -0.15067629516124725,
      0.020076218992471695,
      -0.150488018989563,
      -0.018132956698536873
    ],
    [
      -0.10326363891363144,
      0.030232984572649002,
      0.027267806231975555,
      0.0017298241145908833,
      -0.015400134958326817,
      -0.0336822085082531,
      0.07760872691869736,
      0.08585391938686371,
      -0.028498021885752678,
      -0.04353084787726402,
      -0.020669640973210335,
      -0.03349151834845543,
      -0.02203160524368286,
      -0.0582064688205719,
      -0.06667942553758621,
      -0.049886878579854965,
      -0.03269759565591812,
      0.04989714175462723,
      -0.04492734745144844,
      -0.05386624112725258,
      -0.040605731308460236,
      -0.0094585120677948,
      -0.006500059273093939,
      0.029225803911685944,
      -0.0005803204257972538,
      -0.02411431260406971,
      -0.012253490276634693,
      0.07565895467996597,
      -0.04153620824217796,
      0.07908923923969269,
      -0.010069351643323898,
      -0.14434270560741425,
      -0.14688384532928467,
      0.030503632500767708,
      -0.0028491853736341,
      0.1428673267364502,
      -0.07721906900405884,
      0.07356459647417068,
      -0.007353106513619423,
      0.06781841814517975,
      0.08757577836513519,
      0.05011841654777527,
      -0.06051597371697426,
      0.04020630940794945,
      -0.04485604912042618,
      0.0702148824930191,
      -0.0018339278176426888,
      0.10088161379098892,
      -0.011250106617808342,
      -0.016111895442008972,
      0.014033542945981026,
      0.06724883615970612,
      -0.08816344290971756,
      -0.008480326272547245,
      -0.051355257630348206,
      0.004631522111594677,
      -0.08098921924829483,
      0.019144361838698387,
      -0.11076588928699493,
      -0.008457925170660019,
      0.09168634563684464,
      0.04082668200135231,
      0.015112209133803844,
      -0.08771694451570511
    ],
    [
      0.03276211395859718,
      -0.02979559823870659,
      -0.07519843429327011,
      -0.10542092472314835,
      -0.018694236874580383,
      -0.05878997966647148,
      -0.026701780036091805,
      -0.014406478963792324,
      -0.05572673678398132,
      0.044949036091566086,
      -0.062240179628133774,
      -0.011265361681580544,
      -0.12807053327560425,
      -0.047319065779447556,
      0.019175151363015175,
      0.0245423074811697,
      -0.07831566035747528,
      0.07894965261220932,
      -0.062640480697155,
      0.06308669596910477,
      -0.16280454397201538,
      -0.016331525519490242,
      0.03540264815092087,
      0.051375385373830795,
      0.10408227890729904,
      0.06603710353374481,
      0.04580158740282059,
      0.01718931645154953,
      -0.055086877197027206,
      -0.12934066355228424,
      -0.0488659143447876,
      -0.10220888257026672,
      0.005247997120022774,
      -0.06075695902109146,
      -0.04852575808763504,
      -0.010546416975557804,
      -0.01302142534404993,
      0.004261264577507973,
      -0.06685720384120941,
      -0.06718897819519043,
      -0.09208597987890244,
      0.03473063185811043,
      -0.013947357423603535,
      0.012650028802454472,
      -0.07957245409488678,
      -0.05075104162096977,
      -0.0028599249199032784,
      0.005742319393903017,
      -0.10520021617412567,
      -0.009196611121296883,
      0.12638317048549652,
      0.05009002611041069,
      0.12664540112018585,
      -0.08398207277059555,
      0.05822247639298439,
      -0.003039318136870861,
      -0.03286218270659447,
      -0.047072313725948334,
      0.005010622553527355,
      0.005059223622083664,
      -0.09417697787284851,
      -0.05293036624789238,
      0.0017100718105211854,
      0.014087975956499577
    ],
    [
      -0.08615175634622574,
      0.01143908966332674,
      0.09523164480924606,
      0.09837649017572403,
      -0.004189569968730211,
      -0.1235462874174118,
      0.0565263032913208,
      -0.11575724929571152,
      -0.015123244374990463,
      -0.020956233143806458,
      -0.040458183735609055,
      -0.020890885964035988,
      -0.08605140447616577,
      -0.04955929145216942,
      0.0509098656475544,
      -0.10048910230398178,
      0.02454259805381298,
      0.017034605145454407,
      0.06642315536737442,
      -0.012547887861728668,
      0.1211157888174057,
      0.005627408158034086,
      -0.0005661348113790154,
      0.044049255549907684,
      -0.0623924620449543,
      -0.025132637470960617,
      0.06412963569164276,
      -0.09741684049367905,
      -0.13470299541950226,
      -0.1378094106912613,
      0.047613490372896194,
      0.03549141064286232,
      0.05486414209008217,
      0.13486187160015106,
      0.09380851686000824,
      -0.10795750468969345,
      -0.0026826239190995693,
      0.10273952782154083,
      0.0888565257191658,
      -0.06563857197761536,
      0.08634492009878159,
      0.004656157456338406,
      0.0846220925450325,
      -0.09123677760362625,
      -0.03637745976448059,
      -0.13755778968334198,
      -0.02117902785539627,
      -0.010208582505583763,
      -0.08880247920751572,
      0.06424432247877121,
      -0.04664206504821777,
      -0.031075989827513695,
      -0.034900978207588196,
      0.09426266700029373,
      -0.04795966297388077,
      0.09325625747442245,
      -0.031404174864292145,
      -0.025997726246714592,
      0.08650567382574081,
      0.03374055400490761,
      -0.0725787952542305,
      0.17474351823329926,
      -0.056107692420482635,
      0.06742405146360397
    ],
    [
      -0.001412112731486559,
      -0.05522119253873825,
      -0.07998611032962799,
      0.027990683913230896,
      0.002538135275244713,
      0.007912569679319859,
      0.07685790956020355,
      0.018975188955664635,
      0.012305174954235554,
      -0.14755699038505554,
      -0.014910955913364887,
      0.0549781434237957,
      -0.06078100949525833,
      -0.03944774717092514,
      -0.05618210881948471,
      -0.07798366248607635,
      -0.08733749389648438,
      0.0536704957485199,
      -0.141262486577034,
      0.002832824597135186,
      0.10493050515651703,
      0.06650915741920471,
      0.06433479487895966,
      -0.04439564049243927,
      -0.032683975994586945,
      0.030943194404244423,
      0.11005721986293793,
      0.07994697242975235,
      -0.0911869928240776,
      -0.13193507492542267,
      -0.0646391287446022,
      0.13954466581344604,
      -0.04234560951590538,
      0.028144272044301033,
      0.1123509332537651,
      -0.09048887342214584,
      -0.09243497252464294,
      0.053357165306806564,
      -0.05977153405547142,
      0.016021454706788063,
      -0.07891616225242615,
      0.016143660992383957,
      -0.0388832725584507,
      0.05278386175632477,
      0.0038902119267731905,
      0.03533877804875374,
      -0.09934305399656296,
      0.04551537707448006,
      -0.1014561802148819,
      -0.01956397108733654,
      0.019507190212607384,
      0.0075177582912147045,
      0.051896046847105026,
      -0.09905946999788284,
      -0.023283107206225395,
      0.0739913359284401,
      -0.06374391168355942,
      -0.08196122944355011,
      -0.03445048630237579,
      0.04635992646217346,
      -0.13618096709251404,
      0.04299384728074074,
      -0.11193989962339401,
      0.016763458028435707
    ],
    [
      0.29836657643318176,
      0.30768752098083496,
      0.06717325747013092,
      -0.01167383324354887,
      0.038791704922914505,
      -0.11019410192966461,
      0.22263863682746887,
      -0.08821815997362137,
      -0.011334732174873352,
      -0.12377022951841354,
      0.14501343667507172,
      -0.0019296923419460654,
      -0.09909766912460327,
      -0.004096726421266794,
      0.04468186944723129,
      0.02807183563709259,
      0.200164332985878,
      0.13972003757953644,
      0.059702068567276,
      -0.019403615966439247,
      -0.11317482590675354,
      0.012909510172903538,
      0.06529521942138672,
      -0.07786301523447037,
      -0.009772543795406818,
      -0.20986764132976532,
      -0.159878209233284,
      -0.1423269659280777,
      0.02233549766242504,
      -0.11848375201225281,
      -0.06745866686105728,
      0.006068358197808266,
      -0.026093561202287674,
      0.0951060950756073,
      -0.17496159672737122,
      0.011652878485620022,
      -0.04586604982614517,
      0.21638719737529755,
      -0.097256600856781,
      0.19487066566944122,
      -0.08526334911584854,
      -0.1775978058576584,
      0.16869257390499115,
      0.04772350937128067,
      0.07622148096561432,
      0.07363706082105637,
      -0.05982545390725136,
      0.14660948514938354,
      -0.03383510932326317,
      -0.06206010282039642,
      0.31063708662986755,
      -0.07716413587331772,
      0.348642498254776,
      -0.10900327563285828,
      -0.2048766314983368,
      0.0013602778781205416,
      -0.08569534122943878,
      0.10024882107973099,
      0.1945073902606964,
      -0.11766320466995239,
      -0.010875185020267963,
      -0.01930832304060459,
      -0.030426083132624626,
      -5.603480167337693e-05
    ],
    [
      -0.058328550308942795,
      0.05478609353303909,
      0.06677863746881485,
      -0.07556671649217606,
      -0.09187798202037811,
      0.0894365981221199,
      -0.02468833327293396,
      -0.012207886204123497,
      -0.06559610366821289,
      -0.10630833357572556,
      0.09137327969074249,
      0.023209454491734505,
      0.07866378873586655,
      0.06535490602254868,
      -0.003026461461558938,
      -0.0042672185227274895,
      -0.013049266301095486,
      0.08224402368068695,
      -0.02225782908499241,
      -0.16549353301525116,
      -0.03641889616847038,
      -0.07953975349664688,
      -0.11480644345283508,
      -0.051705166697502136,
      -0.010208901017904282,
      0.01430279016494751,
      0.1400720775127411,
      0.026844501495361328,
      -0.06068398803472519,
      0.04786504805088043,
      -0.0230635367333889,
      -0.059905264526605606,
      -0.018133502453565598,
      -0.05488055944442749,
      -0.059329550713300705,
      -0.024044856429100037,
      -0.05243571475148201,
      0.0675339624285698,
      0.029826289042830467,
      0.026212016120553017,
      -0.07244183123111725,
      0.0527823381125927,
      -0.04381021484732628,
      -0.04687070474028587,
      -0.029380885884165764,
      -0.040541164577007294,
      -0.029508834704756737,
      -0.014220339246094227,
      -0.050146639347076416,
      -0.011871063150465488,
      -0.04360610246658325,
      -0.05118615925312042,
      0.07274803519248962,
      -0.012713496573269367,
      -0.033324677497148514,
      -0.040805917233228683,
      0.11765605956315994,
      -0.013659028336405754,
      -0.08512968569993973,
      0.06266878545284271,
      0.07492779195308685,
      0.03000059723854065,
      -0.12199718505144119,
      0.04509759321808815
    ],
    [
      0.19144207239151,
      0.16467921435832977,
      -0.021550677716732025,
      0.02245989441871643,
      0.12075086683034897,
      -0.06324000656604767,
      0.1284688115119934,
      0.11585056781768799,
      -0.07984498888254166,
      -0.14021740853786469,
      0.11208387464284897,
      -0.20087088644504547,
      0.04736775532364845,
      0.026333332061767578,
      0.17712359130382538,
      -0.005520710255950689,
      0.16561384499073029,
      0.09445925801992416,
      0.11221187561750412,
      -0.06359491497278214,
      -0.05246899649500847,
      0.11160071939229965,
      0.22725462913513184,
      0.031132424250245094,
      0.02108716405928135,
      -0.2872491776943207,
      -0.19354146718978882,
      -0.19381630420684814,
      -0.2727784514427185,
      -0.1721615344285965,
      0.04619348794221878,
      0.13341635465621948,
      -0.12045501172542572,
      0.029393846169114113,
      -0.07514335215091705,
      -0.05603470653295517,
      -0.06709600239992142,
      0.18194109201431274,
      -0.037794120609760284,
      0.12083236128091812,
      -0.3616131842136383,
      -0.12357451766729355,
      0.24615658819675446,
      0.032619692385196686,
      -0.006079700775444508,
      -0.032502155750989914,
      0.0006263906834647059,
      0.10482870042324066,
      0.10964751988649368,
      -0.07404189556837082,
      0.2643550634384155,
      -0.07402767986059189,
      0.06837534159421921,
      0.030959684401750565,
      -0.24502675235271454,
      0.13255815207958221,
      -0.16758768260478973,
      -0.09240863472223282,
      0.03975354880094528,
      -0.05525510758161545,
      0.08061770349740982,
      0.06387575715780258,
      -0.03582640364766121,
      0.08557405322790146
    ],
    [
      0.07823380827903748,
      -0.024017585441470146,
      0.08219339698553085,
      -0.07444406300783157,
      0.04603471979498863,
      -0.07873964309692383,
      0.12960949540138245,
      -0.1021021381020546,
      -0.180744007229805,
      -0.092119961977005,
      -0.11009017378091812,
      0.04971751570701599,
      -0.0463683120906353,
      0.010314153507351875,
      -0.0019720406271517277,
      -0.020216522738337517,
      -0.015336590819060802,
      -0.042026910930871964,
      -0.12192176282405853,
      0.0781928077340126,
      0.10725129395723343,
      0.06308874487876892,
      0.11969941854476929,
      -0.23704460263252258,
      0.05740302801132202,
      0.03591477870941162,
      -0.06550829112529755,
      0.014076080173254013,
      -0.007762872613966465,
      0.006730844732373953,
      -0.06137045472860336,
      0.06533784419298172,
      0.08844780176877975,
      0.025696542114019394,
      0.032217372208833694,
      0.05178820714354515,
      -0.0677710548043251,
      0.0820901095867157,
      0.09751400351524353,
      -0.021239550784230232,
      -0.0340273380279541,
      -0.04963001236319542,
      0.03222261741757393,
      0.11340130120515823,
      -0.09227462112903595,
      -0.10874339938163757,
      -0.012173367664217949,
      -0.016643475741147995,
      0.03232622891664505,
      -0.05003625899553299,
      -0.14140546321868896,
      0.037691134959459305,
      -0.04152028262615204,
      -0.020490039139986038,
      -0.016311457380652428,
      0.09493237733840942,
      0.12649011611938477,
      0.08221638202667236,
      -0.08421101421117783,
      0.1078571081161499,
      0.08745501190423965,
      0.012362999841570854,
      -0.03587319329380989,
      -0.16934533417224884
    ],
    [
      0.024984126910567284,
      0.06564314663410187,
      0.07819771021604538,
      -0.01462047453969717,
      0.13106252253055573,
      0.08513103425502777,
      -0.015149482525885105,
      0.05631695315241814,
      -0.019839076325297356,
      -0.015910614281892776,
      -0.05132586881518364,
      0.00697116507217288,
      -0.06911247223615646,
      0.0020132313948124647,
      -0.07263754308223724,
      -0.07885000854730606,
      0.05914069712162018,
      0.09964065998792648,
      -0.10781880468130112,
      -0.031057771295309067,
      -0.00989077240228653,
      -0.06838608533143997,
      -0.07513370364904404,
      -0.08845119923353195,
      -0.031017061322927475,
      -0.040771372616291046,
      0.06923487782478333,
      -0.08859887719154358,
      0.055089469999074936,
      0.025630299001932144,
      -0.05712922289967537,
      0.02893540821969509,
      -0.06974688917398453,
      -0.01732526533305645,
      0.1154741421341896,
      0.054377589374780655,
      0.08048825711011887,
      -0.009729200974106789,
      -0.07295451313257217,
      -0.0656774640083313,
      0.066168412566185,
      -0.06009833887219429,
      0.03671332821249962,
      -0.08877860009670258,
      0.02097417041659355,
      0.09219546616077423,
      -0.024422703310847282,
      0.002629656810313463,
      0.09816254675388336,
      -0.010684453882277012,
      -0.0074568879790604115,
      -0.0028228519950062037,
      0.05894514545798302,
      0.03001544065773487,
      -0.03375394269824028,
      -0.054256461560726166,
      -0.07899564504623413,
      -0.15562456846237183,
      0.03183365613222122,
      -0.015840955078601837,
      0.009597288444638252,
      0.030827630311250687,
      0.01312353927642107,
      -0.03333490714430809
    ],
    [
      0.1904403120279312,
      0.3565358519554138,
      -0.0009645495447330177,
      0.006784278433769941,
      -0.13662371039390564,
      -0.013222238048911095,
      0.08836691826581955,
      -0.1351156085729599,
      0.10695471614599228,
      -0.14133001863956451,
      0.07420133799314499,
      -0.005804825574159622,
      -0.010776028968393803,
      -0.07522904127836227,
      0.0999399870634079,
      -0.0990835577249527,
      0.06694396585226059,
      0.012641928158700466,
      -0.11055725067853928,
      0.1482330858707428,
      0.16755911707878113,
      -0.0635530948638916,
      0.03549616038799286,
      -0.0803178921341896,
      -0.021991459652781487,
      -0.07217901200056076,
      -0.005000724922865629,
      -0.06665412336587906,
      -0.037734031677246094,
      -0.014877580106258392,
      -0.006435718387365341,
      -0.10992233455181122,
      -0.045011620968580246,
      -0.08673349767923355,
      0.06074834614992142,
      0.036831457167863846,
      0.13217592239379883,
      0.2223995476961136,
      0.03227563202381134,
      0.16674692928791046,
      -0.18104824423789978,
      -0.11464153975248337,
      0.08195854723453522,
      -0.04849359020590782,
      -0.19131030142307281,
      0.16910865902900696,
      -0.15451954305171967,
      -0.19882258772850037,
      0.007130371872335672,
      -0.08358867466449738,
      0.05159549042582512,
      0.03446750342845917,
      0.1968528777360916,
      -0.15084512531757355,
      0.09502998739480972,
      -0.044077664613723755,
      -0.05915349721908569,
      0.04170095920562744,
      0.07267551869153976,
      -0.030202073976397514,
      -0.09719894081354141,
      -0.0034607769921422005,
      0.07101726531982422,
      -0.12234023213386536
    ],
    [
      -0.030286559835076332,
      0.037398532032966614,
      0.008816737681627274,
      -0.062001410871744156,
      -0.06749757379293442,
      -0.08200972527265549,
      0.07543694972991943,
      -0.03726455569267273,
      -0.14070895314216614,
      -0.07818850129842758,
      0.02364933118224144,
      -0.014931181445717812,
      0.04045378416776657,
      -0.05117833986878395,
      -0.030089305713772774,
      -0.041219692677259445,
      0.008310568518936634,
      -0.01322966068983078,
      0.11472627520561218,
      -0.031406987458467484,
      -0.029584649950265884,
      0.04392559453845024,
      0.020806992426514626,
      -0.10406283289194107,
      -0.10919316858053207,
      0.012705601751804352,
      0.05834028497338295,
      -0.0068481722846627235,
      -0.07704653590917587,
      0.017642972990870476,
      0.01943439431488514,
      -0.006907275877892971,
      0.010432557202875614,
      -0.014866437762975693,
      -0.051167380064725876,
      -0.12124878913164139,
      0.01761346124112606,
      0.007133702281862497,
      0.1034989207983017,
      -0.06703706830739975,
      -0.05781625211238861,
      0.11988062411546707,
      -0.05718972161412239,
      -0.08720219135284424,
      0.12616999447345734,
      0.01948161981999874,
      0.0826842337846756,
      -0.05738694593310356,
      0.14687539637088776,
      0.08485057950019836,
      -0.06958833336830139,
      -0.02047734335064888,
      0.17634886503219604,
      -0.12291499972343445,
      0.07507935166358948,
      -0.002157350070774555,
      -0.12978960573673248,
      -0.13898533582687378,
      -0.09715989977121353,
      0.040986377745866776,
      0.07222340255975723,
      -0.027814956381917,
      0.011380261741578579,
      0.056387484073638916
    ],
    [
      0.08863227069377899,
      0.051826007664203644,
      -0.0930895060300827,
      -0.16814535856246948,
      -0.14427433907985687,
      -0.028636915609240532,
      -0.044845908880233765,
      0.055279701948165894,
      -0.11075738817453384,
      -0.02377774380147457,
      -0.016022343188524246,
      -0.019219055771827698,
      -0.1779082864522934,
      -0.09418730437755585,
      -0.07223611325025558,
      -0.16103164851665497,
      0.06243212893605232,
      0.0629713237285614,
      -0.09595369547605515,
      0.04033409431576729,
      0.10931618511676788,
      0.01079324446618557,
      -0.04622408375144005,
      0.07733467221260071,
      0.03959907963871956,
      0.02576977014541626,
      -0.014557837508618832,
      0.056597888469696045,
      0.03511760011315346,
      -0.16184431314468384,
      -0.08249878138303757,
      -0.05594274029135704,
      -0.041798751801252365,
      0.21011239290237427,
      0.0028647291474044323,
      -0.09919664263725281,
      0.05595061182975769,
      -0.01411826629191637,
      -0.06662308424711227,
      -0.02935599349439144,
      -0.008244356140494347,
      -0.055294133722782135,
      -0.12896883487701416,
      0.06422863155603409,
      -0.1491968333721161,
      -0.1302354633808136,
      0.01817910745739937,
      0.008982625789940357,
      0.0173287782818079,
      0.032814569771289825,
      0.11217842251062393,
      0.07723847031593323,
      -0.006323253735899925,
      0.050491541624069214,
      -0.042328186333179474,
      -0.03728148713707924,
      -0.14550383388996124,
      -0.0020613910164684057,
      -0.08034945279359818,
      0.06746496260166168,
      0.05714147165417671,
      0.060358524322509766,
      -0.01715855300426483,
      0.0006683212704956532
    ],
    [
      0.017989514395594597,
      0.0016722488217055798,
      -0.005668069701641798,
      -0.0303269661962986,
      -0.02363809570670128,
      -0.12658187747001648,
      -0.06138557195663452,
      -0.07350809127092361,
      -0.11165226250886917,
      0.09541834890842438,
      -0.013630052097141743,
      0.0942477360367775,
      -0.01338138710707426,
      0.012409328483045101,
      -0.10369119793176651,
      -0.03322860598564148,
      -0.016122732311487198,
      0.06849846988916397,
      -0.06034574285149574,
      -0.06289966404438019,
      -0.05595318600535393,
      -0.05898500606417656,
      0.13869565725326538,
      -0.01050984114408493,
      0.10959259420633316,
      0.07203175127506256,
      -0.0076455059461295605,
      0.04508776590228081,
      0.006755599286407232,
      0.0304783433675766,
      0.07289048284292221,
      0.09491568058729172,
      -0.07850854843854904,
      0.1520848423242569,
      -0.11102355271577835,
      0.09327448159456253,
      -0.06688206642866135,
      0.03627115115523338,
      0.10511016100645065,
      -0.020956309512257576,
      -0.09084159880876541,
      -0.019016949459910393,
      -0.004401173442602158,
      0.1325337439775467,
      0.015362083911895752,
      -0.1533559411764145,
      -0.11705900728702545,
      -0.013212718069553375,
      0.12017785012722015,
      -0.04962349310517311,
      -0.07949815690517426,
      0.11833895742893219,
      -0.023795614019036293,
      0.13958896696567535,
      0.023777220398187637,
      0.07537893205881119,
      -0.05218277871608734,
      0.12246967852115631,
      0.07590969651937485,
      0.010010341182351112,
      -0.0020252845715731382,
      -0.06605038046836853,
      -0.020921729505062103,
      -0.19450226426124573
    ],
    [
      0.11567782610654831,
      0.08825433999300003,
      -0.02308906428515911,
      0.023896317929029465,
      -0.08935705572366714,
      0.0240025594830513,
      0.06003737822175026,
      -0.008195800706744194,
      0.15779636800289154,
      -0.09375481307506561,
      -0.04812238737940788,
      -0.028752028942108154,
      -0.03175239637494087,
      -0.05696464702486992,
      -0.14259685575962067,
      -0.1751520037651062,
      0.07321000844240189,
      -0.009665791876614094,
      0.02257155068218708,
      -0.0357302762567997,
      -0.09423913806676865,
      0.00039445998845621943,
      0.06314900517463684,
      -0.00623835064470768,
      -0.006808716803789139,
      0.03593704104423523,
      -0.00573192723095417,
      -0.08155781030654907,
      0.025835048407316208,
      0.15144070982933044,
      0.06988747417926788,
      -0.047965750098228455,
      0.03683767095208168,
      0.02684730663895607,
      -0.014479396864771843,
      0.131842702627182,
      0.08276925981044769,
      -0.11211661994457245,
      -0.10368503630161285,
      -0.05030335113406181,
      0.014701458625495434,
      0.04094928503036499,
      0.05316103249788284,
      -0.004107543267309666,
      0.1847396194934845,
      0.10755810141563416,
      -0.04823700711131096,
      0.05984131991863251,
      -0.0018604155629873276,
      0.07795040309429169,
      -0.12292005121707916,
      -0.05374361202120781,
      0.11588811874389648,
      0.029248397797346115,
      0.0025831309612840414,
      0.00213434430770576,
      -0.10453525185585022,
      -0.03410157933831215,
      -0.058368414640426636,
      0.0026966773439198732,
      -0.024066120386123657,
      0.023269256576895714,
      0.03510397672653198,
      0.12621358036994934
    ],
    [
      -0.11617564409971237,
      0.08446856588125229,
      -0.09572320431470871,
      -0.10525605827569962,
      0.0023381058126688004,
      0.08099514991044998,
      0.08652063459157944,
      0.03339345008134842,
      0.08975830674171448,
      0.02685806341469288,
      0.03414088487625122,
      -0.02424943447113037,
      0.042577434331178665,
      0.03154823184013367,
      0.006223717238754034,
      -0.07693515717983246,
      -0.07769833505153656,
      0.07781253010034561,
      -0.08161608129739761,
      0.019187241792678833,
      -0.12000677734613419,
      -0.043259888887405396,
      0.013231491670012474,
      0.021035797894001007,
      -0.08208709210157394,
      0.00947270542383194,
      0.005504761356860399,
      -0.11211434006690979,
      0.044002026319503784,
      0.04366082325577736,
      -0.03421701118350029,
      -0.0799088329076767,
      -0.0009157484164461493,
      -0.20858480036258698,
      -0.07466546446084976,
      0.014548040926456451,
      0.13514330983161926,
      0.05915693938732147,
      -0.019101368263363838,
      0.08027245849370956,
      0.033148519694805145,
      -0.032058797776699066,
      0.019743947312235832,
      0.004536986351013184,
      0.08767228573560715,
      0.07797317206859589,
      0.06625175476074219,
      -0.11906636506319046,
      0.023869963362812996,
      -0.0531848780810833,
      -0.12748315930366516,
      0.09829153120517731,
      -0.007815701887011528,
      -0.13990452885627747,
      -0.09102653712034225,
      -0.11170104146003723,
      0.13426224887371063,
      0.10307197272777557,
      0.07055347412824631,
      0.004742137156426907,
      0.07063934206962585,
      -0.08963339030742645,
      -0.12193121016025543,
      -0.015631750226020813
    ],
    [
      0.12924638390541077,
      0.36740103363990784,
      -0.10775912553071976,
      -0.06845348328351974,
      0.11465120315551758,
      -0.1606072187423706,
      0.0911242663860321,
      -0.16449113190174103,
      -0.014012089930474758,
      0.0504295751452446,
      -0.011736064217984676,
      0.16265042126178741,
      -0.06829741597175598,
      -0.07672858983278275,
      -0.04677746072411537,
      -0.08102156221866608,
      0.09310340881347656,
      -0.06784454733133316,
      -0.027563443407416344,
      -0.030459417030215263,
      -0.0732596293091774,
      -0.24097712337970734,
      0.12850072979927063,
      -0.01411333866417408,
      -0.14971505105495453,
      -0.15296077728271484,
      0.12424741685390472,
      0.01977088674902916,
      0.042338818311691284,
      0.13214994966983795,
      0.0786079466342926,
      0.017458224669098854,
      -0.04106316342949867,
      -0.1460949331521988,
      -0.07892259955406189,
      0.050599679350852966,
      0.11852556467056274,
      0.11280317604541779,
      0.016298135742545128,
      0.1684723198413849,
      0.1294153779745102,
      -0.13156136870384216,
      0.14569821953773499,
      0.046949323266744614,
      -0.025593137368559837,
      -0.026469934731721878,
      -0.14335966110229492,
      -0.1074897050857544,
      0.08976199477910995,
      -0.1849832385778427,
      0.3422057032585144,
      -0.09969154000282288,
      0.4246881306171417,
      -0.07572351396083832,
      0.0018955388804897666,
      0.05618299916386604,
      -0.12670981884002686,
      -0.051531996577978134,
      0.04578821361064911,
      -0.03809337690472603,
      -0.012170377187430859,
      -0.01692611165344715,
      0.08967643976211548,
      0.052630309015512466
    ],
    [
      0.004076838027685881,
      -0.028746051713824272,
      -0.11359478533267975,
      0.17955127358436584,
      0.04034874588251114,
      0.12183868139982224,
      -0.14321719110012054,
      0.2026817947626114,
      0.020929507911205292,
      0.0711626186966896,
      -0.43314316868782043,
      0.10591503977775574,
      -0.01879071444272995,
      0.07365919649600983,
      -0.25032785534858704,
      0.05979779362678528,
      -0.29948022961616516,
      -0.10810311138629913,
      -0.07722447067499161,
      -0.035147447139024734,
      -0.03455955535173416,
      0.009750393219292164,
      -0.43020424246788025,
      -0.02490859478712082,
      0.17409001290798187,
      0.18170399963855743,
      -0.013011372648179531,
      0.17976288497447968,
      0.10473483800888062,
      0.13576209545135498,
      -0.014086093753576279,
      0.006545118521898985,
      0.31569772958755493,
      -0.030198149383068085,
      0.1256760060787201,
      -0.003004565369337797,
      0.08445239812135696,
      0.24605268239974976,
      -0.007289158180356026,
      0.1202964037656784,
      0.1512032300233841,
      0.07154837995767593,
      -0.0014192858943715692,
      -0.13668392598628998,
      -0.07357355952262878,
      0.028890006244182587,
      -0.0025023191701620817,
      0.06383797526359558,
      -0.13902126252651215,
      0.11743367463350296,
      0.09947209805250168,
      0.15957947075366974,
      0.0652228370308876,
      0.03906095027923584,
      0.08286789804697037,
      -0.026410171762108803,
      0.05047004297375679,
      0.03159378841519356,
      -0.25096261501312256,
      0.05855948477983475,
      -0.056843291968107224,
      -0.06643624603748322,
      -0.04451059550046921,
      -0.030838118866086006
    ],
    [
      0.036300819367170334,
      0.32521048188209534,
      -0.13161040842533112,
      0.07557785511016846,
      0.031522903591394424,
      -0.13195300102233887,
      0.19208069145679474,
      -0.030608683824539185,
      0.10250774025917053,
      -0.08861049264669418,
      -0.026229502633213997,
      -0.05218032747507095,
      -0.16160564124584198,
      -0.13325031101703644,
      0.13385553658008575,
      -0.1014138013124466,
      -0.028569985181093216,
      -0.0870346873998642,
      -0.04902157559990883,
      0.09822528064250946,
      0.015186900272965431,
      -0.042768608778715134,
      0.10438868403434753,
      -0.018216580152511597,
      -0.0463385134935379,
      -0.18358568847179413,
      -0.11758264154195786,
      0.02215307392179966,
      -0.1089964210987091,
      0.15265020728111267,
      0.004332851618528366,
      0.044080570340156555,
      -0.12636277079582214,
      -0.019351407885551453,
      -0.004857971798628569,
      0.0865534245967865,
      0.09392783790826797,
      0.12339538335800171,
      -0.03418515622615814,
      0.18413831293582916,
      -0.21493180096149445,
      -0.09445594251155853,
      0.06921262294054031,
      0.07728853821754456,
      -0.15013784170150757,
      0.02817508578300476,
      -0.09473860263824463,
      0.09838186949491501,
      -0.12433186918497086,
      -0.11245908588171005,
      0.27849259972572327,
      -0.122050441801548,
      0.205518901348114,
      -0.06480930745601654,
      -0.050289079546928406,
      0.12951162457466125,
      0.05054992809891701,
      -0.08251509815454483,
      0.06714365631341934,
      -0.09192682802677155,
      -0.075533427298069,
      -0.007081115618348122,
      0.08381333202123642,
      0.11311466246843338
    ],
    [
      0.2510075867176056,
      0.29797881841659546,
      0.05282483249902725,
      -0.06130152940750122,
      -0.14718271791934967,
      -0.06667052954435349,
      0.01582099124789238,
      -0.018836427479982376,
      -0.009154029190540314,
      -0.07384594529867172,
      0.030615825206041336,
      0.08380791544914246,
      0.022735271602869034,
      -0.14007824659347534,
      0.026162967085838318,
      -0.014291388913989067,
      -0.045436449348926544,
      0.0665866807103157,
      0.005223829299211502,
      -0.0361369326710701,
      -0.091995008289814,
      -0.13147756457328796,
      0.06553516536951065,
      0.009495497681200504,
      -0.04407738149166107,
      -0.01788373477756977,
      0.11152534931898117,
      0.06071621924638748,
      0.15460433065891266,
      0.20778943598270416,
      0.12186490744352341,
      -0.16319195926189423,
      -0.06901159882545471,
      -0.11771640181541443,
      -0.17207077145576477,
      0.0883600190281868,
      0.1532880961894989,
      0.14139790832996368,
      -0.1538473665714264,
      0.29164713621139526,
      0.09180306643247604,
      -0.032420814037323,
      0.1127912625670433,
      0.08015453070402145,
      -0.07724200934171677,
      -0.059994421899318695,
      -0.16564428806304932,
      -0.08368959277868271,
      0.03461695462465286,
      -0.15350939333438873,
      0.13216784596443176,
      -0.10213194787502289,
      0.31440141797065735,
      -0.08414892852306366,
      0.027216454967856407,
      -0.017929682508111,
      -0.03841937705874443,
      -0.04913575202226639,
      0.036031678318977356,
      -0.061656467616558075,
      -0.005358437076210976,
      -0.07084345072507858,
      0.037320587784051895,
      -0.10741747170686722
    ],
    [
      0.27973002195358276,
      0.22220221161842346,
      0.018459511920809746,
      0.15855905413627625,
      -0.0228863712400198,
      -0.24471570551395416,
      0.2186916172504425,
      0.10280375927686691,
      0.038622938096523285,
      -0.06712441146373749,
      0.18350237607955933,
      -0.378639817237854,
      -0.0032371897250413895,
      -0.033658161759376526,
      0.06642647087574005,
      -0.06911569833755493,
      0.14356514811515808,
      0.26425981521606445,
      0.1072039008140564,
      -0.04352813959121704,
      0.017549211159348488,
      0.01354072242975235,
      0.230643630027771,
      -0.03406808525323868,
      0.09260796010494232,
      -0.39624080061912537,
      -0.35579317808151245,
      -0.20083071291446686,
      -0.11825766414403915,
      -0.015756865963339806,
      -0.08987574279308319,
      0.1774543821811676,
      -0.06300029903650284,
      0.024822676554322243,
      -0.09826810657978058,
      -0.016686351969838142,
      -0.12464933842420578,
      0.019641106948256493,
      -0.036848194897174835,
      0.27590903639793396,
      -0.45056864619255066,
      -0.2419462949037552,
      0.1443290263414383,
      0.025087028741836548,
      -0.05092654749751091,
      -0.02294919267296791,
      0.14998577535152435,
      0.19357514381408691,
      0.1348634958267212,
      0.0625244677066803,
      0.13254724442958832,
      -0.08793003857135773,
      0.011080638505518436,
      0.08022787421941757,
      -0.32862016558647156,
      -0.014057120308279991,
      -0.04934347793459892,
      -0.04052382707595825,
      0.018922165036201477,
      0.021731926128268242,
      0.2047223299741745,
      0.03943973034620285,
      -0.039185311645269394,
      -0.08359753340482712
    ],
    [
      0.03949038311839104,
      0.26819226145744324,
      -0.04995487630367279,
      -0.13155041635036469,
      0.07123676687479019,
      -0.15044492483139038,
      0.026254402473568916,
      -0.0686553418636322,
      0.0028119247872382402,
      -0.11429577320814133,
      0.15245819091796875,
      -0.2427150458097458,
      -0.060283221304416656,
      0.03997736796736717,
      0.009662142023444176,
      0.052078988403081894,
      -0.04713800922036171,
      0.11243502050638199,
      0.06409874558448792,
      0.14709697663784027,
      -0.03552989289164543,
      -0.12690401077270508,
      0.01584799960255623,
      -0.013575354591012001,
      0.05983494594693184,
      -0.31084614992141724,
      -0.245125412940979,
      -0.13819491863250732,
      0.015500417910516262,
      0.03235398977994919,
      0.1329868733882904,
      -0.09223254770040512,
      -0.060023799538612366,
      -0.09793180972337723,
      -0.10601040720939636,
      -0.01592213474214077,
      -0.02281433530151844,
      0.05801936984062195,
      -0.0464816689491272,
      0.024466784670948982,
      -0.21694457530975342,
      -0.05763445794582367,
      0.17509528994560242,
      0.07467499375343323,
      -0.014046863652765751,
      0.029966559261083603,
      0.028693411499261856,
      -0.05407261475920677,
      -0.07118385285139084,
      -0.06275834143161774,
      0.07595200836658478,
      0.05711286514997482,
      0.18715955317020416,
      -0.006122346967458725,
      -0.02586953155696392,
      0.04054415971040726,
      0.0684317946434021,
      -0.044039931148290634,
      0.15814080834388733,
      -0.12762506306171417,
      0.04869059473276138,
      0.02123311534523964,
      0.008729786612093449,
      -0.12106524407863617
    ],
    [
      0.23466689884662628,
      0.10840091854333878,
      0.027656950056552887,
      -0.10982251912355423,
      0.014997424557805061,
      0.00886861328035593,
      0.12313297390937805,
      0.012841371819376945,
      -0.08599384129047394,
      -0.05048888921737671,
      0.15481749176979065,
      -0.12127277255058289,
      0.13714264333248138,
      -0.019623566418886185,
      0.04046731814742088,
      -0.07364882528781891,
      0.016541121527552605,
      0.12950769066810608,
      0.06516017764806747,
      -0.010387848131358624,
      0.02915332280099392,
      -0.05376302823424339,
      0.08373407274484634,
      -0.12677045166492462,
      0.09330980479717255,
      -0.2859445810317993,
      -0.14786387979984283,
      0.03547001630067825,
      0.0831640362739563,
      -0.1733066588640213,
      -0.08593380451202393,
      -0.015908099710941315,
      0.02567834034562111,
      0.05372784659266472,
      -0.15058638155460358,
      0.05126499757170677,
      0.06793594360351562,
      0.00912879966199398,
      -0.07614292949438095,
      0.1444958746433258,
      -0.11021266132593155,
      -0.1018000915646553,
      0.01357224304229021,
      0.1355009377002716,
      0.03164621815085411,
      -0.0345442034304142,
      -0.08633580803871155,
      -0.07244556397199631,
      0.005081115290522575,
      -0.13275769352912903,
      0.1573130339384079,
      0.00157689000479877,
      0.2685830295085907,
      -0.00048657675506547093,
      -0.04121861979365349,
      -0.002931764116510749,
      0.09579218924045563,
      -0.005908311810344458,
      0.11013586074113846,
      -0.04323578253388405,
      0.11247020214796066,
      0.11886316537857056,
      0.08280962705612183,
      -0.06839991360902786
    ],
    [
      -0.007278345990926027,
      0.20041732490062714,
      0.18480265140533447,
      -0.16426508128643036,
      0.12347865104675293,
      0.1887989044189453,
      -0.25477534532546997,
      0.0030350452288985252,
      0.05525160953402519,
      0.2009148746728897,
      -0.2615000903606415,
      -0.04195762053132057,
      -0.07103268802165985,
      0.12045520544052124,
      -0.2806859612464905,
      0.085403211414814,
      -0.35249045491218567,
      -0.14630985260009766,
      0.09637747704982758,
      0.08002955466508865,
      0.0198155976831913,
      0.0037387998308986425,
      -0.0983392745256424,
      0.01687261089682579,
      -0.08514882624149323,
      0.02664480358362198,
      0.20259974896907806,
      0.09994501620531082,
      0.06049486622214317,
      0.03324691951274872,
      -0.03677508607506752,
      -0.21322105824947357,
      0.15607120096683502,
      0.011688156984746456,
      0.19356589019298553,
      -0.1086108535528183,
      0.1384756714105606,
      0.12707051634788513,
      0.12424986809492111,
      0.08509171009063721,
      -0.010852743871510029,
      0.32009318470954895,
      -0.1979495733976364,
      0.23678767681121826,
      -0.10489196330308914,
      0.05693937838077545,
      -0.06215767562389374,
      -0.17934933304786682,
      -0.35310864448547363,
      0.1917412430047989,
      0.12353570759296417,
      0.13577800989151,
      0.22684246301651,
      0.05533657595515251,
      0.16078580915927887,
      -0.13542355597019196,
      0.17267942428588867,
      0.002999582327902317,
      0.0005360179929994047,
      0.16279444098472595,
      -0.13870567083358765,
      -0.14527563750743866,
      0.02856544218957424,
      0.019347624853253365
    ],
    [
      0.1300395280122757,
      0.2143927812576294,
      0.0779174268245697,
      0.07975751161575317,
      -0.00981453899294138,
      -0.23096711933612823,
      0.2810608744621277,
      -5.323759978637099e-06,
      -0.03080497868359089,
      -0.20056754350662231,
      0.2517710328102112,
      -0.20207425951957703,
      -0.015588261187076569,
      0.00443760072812438,
      0.09745816141366959,
      0.0958651527762413,
      0.12087735533714294,
      0.182870551943779,
      -0.043990135192871094,
      -0.10266665369272232,
      0.03954913467168808,
      0.04650147259235382,
      0.0968998521566391,
      0.04473010450601578,
      0.003964264877140522,
      -0.3467426896095276,
      -0.15748043358325958,
      -0.04885545000433922,
      -0.12213356047868729,
      -0.11971967667341232,
      0.09622667729854584,
      0.10517013818025589,
      -0.16632221639156342,
      -0.10865703225135803,
      -0.04741944745182991,
      0.06242658570408821,
      0.10111945867538452,
      -0.005220860708504915,
      -0.14903800189495087,
      0.21618330478668213,
      -0.1988551765680313,
      -0.24412214756011963,
      0.2404155433177948,
      0.2061857283115387,
      -0.05700932443141937,
      0.07784948498010635,
      0.018405726179480553,
      0.17314596474170685,
      -0.024160172790288925,
      -0.13080628216266632,
      0.13981615006923676,
      -0.08735482394695282,
      0.21989820897579193,
      0.08198413997888565,
      -0.21544523537158966,
      0.12793248891830444,
      -0.16588227450847626,
      0.04052264988422394,
      0.12531015276908875,
      0.005969681311398745,
      0.029158594086766243,
      -0.12348511070013046,
      -0.06024811416864395,
      0.1101253405213356
    ],
    [
      0.1555980145931244,
      0.3223724067211151,
      0.0984082818031311,
      -0.07397444546222687,
      0.06735774874687195,
      -0.1825779527425766,
      0.06897217780351639,
      0.042145729064941406,
      -0.07862178981304169,
      -0.04006870836019516,
      0.17081628739833832,
      -0.046650685369968414,
      0.05801074951887131,
      0.015860576182603836,
      0.15819880366325378,
      -0.08389070630073547,
      0.15677230060100555,
      0.08669958263635635,
      0.10792919248342514,
      -0.060972049832344055,
      0.11051356792449951,
      -0.12419375777244568,
      -0.03791860118508339,
      0.0462939627468586,
      -0.08409897238016129,
      -0.1493411511182785,
      -0.023470954969525337,
      -0.1957966685295105,
      0.12493370473384857,
      0.12347859144210815,
      -0.007628185674548149,
      -0.05102190375328064,
      0.009760905988514423,
      -0.07980462908744812,
      -0.09046449512243271,
      0.021228723227977753,
      0.06309515237808228,
      0.22831659018993378,
      -0.09609278291463852,
      0.15775111317634583,
      -0.0633469894528389,
      -0.1780247837305069,
      0.09090392291545868,
      0.0224448312073946,
      0.03414517268538475,
      -0.015376051887869835,
      0.016105087473988533,
      0.03374014422297478,
      0.0715843141078949,
      -0.11044680327177048,
      0.21122166514396667,
      0.005962342489510775,
      0.1946215182542801,
      -0.04261542856693268,
      -0.15334495902061462,
      -0.020392147824168205,
      -0.087507463991642,
      0.00387542019598186,
      0.021301303058862686,
      -0.12107671797275543,
      -0.02786397747695446,
      0.03935149684548378,
      -0.05235676094889641,
      0.05740150064229965
    ],
    [
      0.08866388350725174,
      0.20787571370601654,
      0.02207942306995392,
      -0.09932827204465866,
      0.044483549892902374,
      -0.13671857118606567,
      0.12121862918138504,
      -0.06070394068956375,
      0.08622073382139206,
      -0.16133996844291687,
      0.19163072109222412,
      -0.13949519395828247,
      0.07901500910520554,
      -0.11924417316913605,
      0.08570539206266403,
      0.02704627439379692,
      0.052695829421281815,
      0.0669679269194603,
      0.03609425202012062,
      -0.011967464350163937,
      -0.16413027048110962,
      0.026416733860969543,
      0.020012374967336655,
      -0.02124938741326332,
      -0.07697170227766037,
      -0.289246141910553,
      -0.08322065323591232,
      -0.027183951810002327,
      0.036163415759801865,
      0.055648572742938995,
      -0.020628342404961586,
      0.0777687355875969,
      0.006404373794794083,
      -0.08088692277669907,
      -0.062488753348588943,
      -0.09885077178478241,
      -0.02559671923518181,
      0.11743960529565811,
      -0.1344333440065384,
      0.2916051149368286,
      -0.2087753862142563,
      -0.11192402243614197,
      0.0846375823020935,
      0.0738348513841629,
      0.05028066039085388,
      -0.07244275510311127,
      0.036783766001462936,
      -0.0624319352209568,
      0.041924793273210526,
      -0.1305505633354187,
      0.173935666680336,
      -0.09580125659704208,
      0.19066131114959717,
      -0.01628812588751316,
      -0.03018397092819214,
      0.07725612074136734,
      -0.03388919681310654,
      0.057108115404844284,
      0.020393026992678642,
      -0.08292216807603836,
      -0.010337196290493011,
      -0.04838157072663307,
      0.09975641965866089,
      0.03192099556326866
    ],
    [
      -0.014919706620275974,
      0.04692825675010681,
      0.05074329674243927,
      0.06126297637820244,
      0.04656628891825676,
      -0.12544171512126923,
      -0.014347441494464874,
      -0.10295120626688004,
      -0.02103460021317005,
      -0.06250281631946564,
      0.06846654415130615,
      -0.06930282711982727,
      -0.09470295906066895,
      -0.08323697000741959,
      -0.10569833964109421,
      0.008504903875291348,
      -0.1165115162730217,
      0.10620345175266266,
      0.08203579485416412,
      -0.11590799689292908,
      -0.02938566543161869,
      0.14220692217350006,
      -0.020074620842933655,
      0.01094170194119215,
      -0.052416760474443436,
      0.06049446016550064,
      -0.0751529335975647,
      0.032305940985679626,
      -0.08020097017288208,
      -0.05949072912335396,
      -0.0271022766828537,
      0.014015717431902885,
      0.027073530480265617,
      0.1472451239824295,
      -0.040951576083898544,
      -0.058069031685590744,
      -0.10697764158248901,
      0.018135415390133858,
      0.08003272861242294,
      0.05043157935142517,
      -0.05814296379685402,
      0.07918956875801086,
      0.03394172713160515,
      -0.013013136573135853,
      -0.06824011355638504,
      0.042318832129240036,
      -0.09426143020391464,
      -0.0033860220573842525,
      -0.030830200761556625,
      -0.03786405548453331,
      0.003884547622874379,
      0.0018816827796399593,
      0.09212959557771683,
      0.06518687307834625,
      0.11323671787977219,
      -0.0964561402797699,
      0.14172208309173584,
      -0.07083562761545181,
      -0.13517425954341888,
      0.048932481557130814,
      -0.02841316908597946,
      0.0599995031952858,
      0.013655483722686768,
      -0.02246343344449997
    ],
    [
      0.2603752315044403,
      0.28268948197364807,
      -0.0417669415473938,
      0.09329599887132645,
      -0.022294916212558746,
      0.10756237059831619,
      0.17334158718585968,
      -0.01704108528792858,
      -0.019417837262153625,
      0.046204566955566406,
      -0.05303454026579857,
      0.016284508630633354,
      -0.14235198497772217,
      -0.11581593751907349,
      0.010448544286191463,
      0.09137050062417984,
      0.11145401000976562,
      0.05178097262978554,
      -0.04571320116519928,
      -0.04403715953230858,
      -0.08269074559211731,
      -0.024985503405332565,
      -0.10415148735046387,
      0.02452431432902813,
      -0.09879883378744125,
      -0.10142988711595535,
      -0.052284128963947296,
      -0.04765857756137848,
      0.14604038000106812,
      0.09098725765943527,
      0.007860592566430569,
      -0.14581827819347382,
      -0.1254769265651703,
      0.07338623702526093,
      0.01466195099055767,
      -0.11516443639993668,
      0.0974183976650238,
      0.22822141647338867,
      -0.08668428659439087,
      0.15926571190357208,
      0.0731089860200882,
      -0.12649554014205933,
      0.13509142398834229,
      0.1906435787677765,
      -0.07072146981954575,
      0.1383499950170517,
      -0.13602857291698456,
      -0.004748586565256119,
      -0.12899485230445862,
      -0.11191053688526154,
      0.3052416741847992,
      -0.05160926654934883,
      0.2925049066543579,
      -0.09555225819349289,
      -0.006720798090100288,
      -0.119107186794281,
      -0.005189376417547464,
      0.10140811651945114,
      0.13468757271766663,
      -0.15667450428009033,
      0.02750660665333271,
      -0.037928372621536255,
      0.0892283245921135,
      0.04874981567263603
    ],
    [
      0.134618878364563,
      0.38712888956069946,
      0.10059788078069687,
      -0.08910257369279861,
      -0.07989565283060074,
      -0.16215647757053375,
      0.0469304583966732,
      0.016453804448246956,
      -0.040030159056186676,
      -0.06487327814102173,
      0.20224614441394806,
      0.026380524039268494,
      -0.08464374393224716,
      -0.15660078823566437,
      0.05977732688188553,
      0.09393712133169174,
      0.027411792427301407,
      0.045251935720443726,
      -0.05428789556026459,
      -0.0377388633787632,
      0.09339011460542679,
      -0.16050852835178375,
      -0.03906950354576111,
      0.078810915350914,
      0.03157646954059601,
      -0.24400952458381653,
      -0.10059512406587601,
      -0.03432822972536087,
      -0.13902868330478668,
      -0.1730353683233261,
      -0.06735087931156158,
      -0.029788894578814507,
      0.0010470182169228792,
      -0.07147452980279922,
      -0.02799759805202484,
      -0.08311332017183304,
      0.07256429642438889,
      0.14526496827602386,
      -0.0639711320400238,
      0.18537931144237518,
      -0.11919907480478287,
      -0.18354566395282745,
      0.10350368171930313,
      0.039058614522218704,
      -0.11738430708646774,
      -0.03172164410352707,
      -0.013340640813112259,
      -0.06913239508867264,
      0.12008370459079742,
      0.017565138638019562,
      0.10849349945783615,
      -0.021594099700450897,
      0.3208729028701782,
      -0.026746980845928192,
      -0.06031229719519615,
      0.09878897666931152,
      0.04213476553559303,
      0.05066496506333351,
      0.06402714550495148,
      -0.009403103031218052,
      0.1160651296377182,
      0.07503261417150497,
      -0.13255617022514343,
      -0.14787498116493225
    ],
    [
      0.46887075901031494,
      0.6065227389335632,
      0.12550318241119385,
      -0.07157331705093384,
      -0.03544054552912712,
      -0.009694121778011322,
      0.07916100323200226,
      -0.2020311951637268,
      0.029646148905158043,
      0.0022111632861196995,
      0.09849662333726883,
      0.24311214685440063,
      0.05870644003152847,
      -0.1248483881354332,
      0.11174635589122772,
      -0.05203286558389664,
      -0.06270388513803482,
      -0.15046042203903198,
      -0.019158126786351204,
      -0.11957903951406479,
      -0.07014264911413193,
      -0.21454204618930817,
      0.12768256664276123,
      -0.02167956531047821,
      -0.36244186758995056,
      0.1846059411764145,
      0.11628365516662598,
      -0.05078725516796112,
      0.2067650854587555,
      0.06339816749095917,
      -0.050356168299913406,
      -0.18965594470500946,
      -0.0642494410276413,
      0.03274248540401459,
      -0.14867107570171356,
      0.014168992638587952,
      -0.05227113142609596,
      0.3458338975906372,
      -0.2350837141275406,
      0.30793190002441406,
      0.2588980793952942,
      -0.17151132225990295,
      0.20681799948215485,
      0.2655896544456482,
      -0.10407956689596176,
      -0.019931025803089142,
      -0.2193157970905304,
      -0.014263826422393322,
      -0.11766541749238968,
      -0.32563674449920654,
      0.5369533896446228,
      -0.002875921782106161,
      0.5446675419807434,
      0.07897695153951645,
      0.05978161469101906,
      0.19901402294635773,
      -0.07493338733911514,
      -0.05679794400930405,
      0.011880375444889069,
      -0.24621208012104034,
      0.2055027186870575,
      -0.026635758578777313,
      -0.01368360873311758,
      -0.12469061464071274
    ],
    [
      0.06595541536808014,
      0.04745757579803467,
      -0.07031136006116867,
      0.03520664945244789,
      0.12443358451128006,
      0.04398050159215927,
      0.05695302411913872,
      -0.05651910975575447,
      0.10308396816253662,
      0.011259517632424831,
      -0.07919109612703323,
      0.03549876809120178,
      -0.06739409267902374,
      0.09247218072414398,
      -0.09483981877565384,
      -0.018128734081983566,
      0.07595472037792206,
      0.003969305660575628,
      -0.032107990235090256,
      -0.01308895368129015,
      0.15226627886295319,
      -0.028789279982447624,
      -0.07339266687631607,
      -0.014405965805053711,
      0.05265273526310921,
      -0.03627290204167366,
      0.02625308558344841,
      0.05326099693775177,
      0.04498756304383278,
      -0.0971098244190216,
      -0.01684635318815708,
      0.07224614173173904,
      -0.033388491719961166,
      -0.06666163355112076,
      0.023084335029125214,
      -0.09707017987966537,
      -0.05578845739364624,
      -0.019421391189098358,
      0.0586550310254097,
      0.07628060132265091,
      -0.06019812822341919,
      -0.06725170463323593,
      -0.02203114703297615,
      0.03222177177667618,
      -0.10496948659420013,
      -0.14115267992019653,
      -0.043885376304388046,
      0.09352797269821167,
      -0.062615767121315,
      0.020766064524650574,
      0.006642797961831093,
      -0.014038324356079102,
      -0.04540456086397171,
      -0.062218260020017624,
      0.05495266616344452,
      -0.06902050226926804,
      -0.14587713778018951,
      0.02493462525308132,
      -0.01214910950511694,
      0.033738378435373306,
      -0.047671835869550705,
      0.023992111906409264,
      0.06359191983938217,
      0.20420432090759277
    ],
    [
      0.1254483163356781,
      0.18513379991054535,
      -0.132808119058609,
      0.031530819833278656,
      0.049028437584638596,
      -0.07265086472034454,
      0.031394992023706436,
      0.04535909742116928,
      -0.03725026175379753,
      -0.11463261395692825,
      0.035490237176418304,
      0.007181950844824314,
      -0.09858108311891556,
      -0.12566110491752625,
      0.05272704362869263,
      -0.11390789598226547,
      -0.06542546302080154,
      0.007734013255685568,
      -0.009877192787826061,
      0.03273333981633186,
      -0.03024134784936905,
      -0.08537415415048599,
      0.09150157123804092,
      0.0389399416744709,
      -0.1258569061756134,
      -0.17702586948871613,
      -0.04070989042520523,
      -0.026459701359272003,
      -0.05597800761461258,
      -0.05758208408951759,
      -0.05353201925754547,
      -0.08505287021398544,
      0.09260176122188568,
      0.0964929535984993,
      -0.12830491364002228,
      -0.006317079067230225,
      -0.060109011828899384,
      0.19943153858184814,
      0.05985674262046814,
      0.11752647161483765,
      -0.15387819707393646,
      -0.07297619432210922,
      -0.07398954778909683,
      0.048625003546476364,
      -0.10718096047639847,
      0.06074906885623932,
      0.04520615562796593,
      -0.01503298245370388,
      0.04971044883131981,
      -0.038623444736003876,
      0.09807231277227402,
      -0.0499192513525486,
      0.2502051591873169,
      -0.061313144862651825,
      -0.017013192176818848,
      -0.02689138986170292,
      -0.049799177795648575,
      0.058206167072057724,
      -0.012670363299548626,
      -0.02947787567973137,
      0.025466661900281906,
      0.05453210324048996,
      0.1107824519276619,
      -0.06381280720233917
    ],
    [
      0.09667506814002991,
      -0.07504785805940628,
      0.013601390644907951,
      -0.2156362384557724,
      -0.08960757404565811,
      -0.029717573896050453,
      0.054090749472379684,
      0.08541185408830643,
      -0.025964174419641495,
      -0.11674053221940994,
      -0.08590930700302124,
      0.03295642510056496,
      -0.0765620693564415,
      0.06683163344860077,
      -0.054686255753040314,
      -0.07556017488241196,
      0.0518902949988842,
      0.08856556564569473,
      -0.06704295426607132,
      -0.005045212805271149,
      0.16151270270347595,
      0.08219970762729645,
      0.11203376948833466,
      -0.03245877847075462,
      0.014555400237441063,
      0.002491047838702798,
      -0.010226001963019371,
      0.008600426837801933,
      0.11796905845403671,
      -0.015279317274689674,
      0.014831239357590675,
      -0.07971058040857315,
      -0.14389921724796295,
      -0.07253741472959518,
      0.0941111221909523,
      -0.11540547013282776,
      0.08095885813236237,
      0.10941877216100693,
      -0.12063629180192947,
      0.02979348599910736,
      0.0012749399757012725,
      -0.021784497424960136,
      -0.09715120494365692,
      -0.04630335792899132,
      0.015970557928085327,
      -0.07847665995359421,
      -0.011342566460371017,
      -0.06282255053520203,
      0.01958394981920719,
      -0.09770197421312332,
      -0.0678253322839737,
      0.06751671433448792,
      0.054708920419216156,
      -0.11862866580486298,
      0.033554449677467346,
      0.050412893295288086,
      -0.0763065442442894,
      -0.06968725472688675,
      -0.04338221251964569,
      0.09450922161340714,
      0.05993283540010452,
      0.07743120938539505,
      0.03599712625145912,
      0.004199067130684853
    ],
    [
      0.3124278485774994,
      0.4242841303348541,
      0.07981598377227783,
      0.04282525181770325,
      -0.1552487015724182,
      -0.01866373047232628,
      0.18099059164524078,
      -0.09834878146648407,
      0.042321059852838516,
      -0.07208286225795746,
      0.08266118168830872,
      0.11131782084703445,
      0.057979028671979904,
      -0.09188422560691833,
      0.028480902314186096,
      -0.005071798339486122,
      -0.02149774879217148,
      0.03788721188902855,
      0.08564677089452744,
      -0.09267857670783997,
      0.04266424849629402,
      -0.03186291828751564,
      0.11378026008605957,
      -0.0006213633459992707,
      -0.020069800317287445,
      -0.10613521188497543,
      0.04103018715977669,
      -0.09753001481294632,
      0.07223423570394516,
      0.10413244366645813,
      0.10974916815757751,
      0.07747756689786911,
      -0.005451079457998276,
      -0.10741479694843292,
      -0.02518985979259014,
      -0.06974001228809357,
      0.013694005087018013,
      0.20410585403442383,
      0.004446118604391813,
      0.33397653698921204,
      -0.05197184905409813,
      -0.12187273055315018,
      0.08768864721059799,
      0.053682003170251846,
      0.01649205945432186,
      -0.043815720826387405,
      -0.11708328872919083,
      -0.04588155820965767,
      0.01835685595870018,
      -0.12789911031723022,
      0.3674171268939972,
      -0.12308371812105179,
      0.40573516488075256,
      -0.11269228160381317,
      0.07739584147930145,
      0.17285774648189545,
      0.016819704324007034,
      -0.026605386286973953,
      -0.03453690931200981,
      -0.1015692725777626,
      0.07726936042308807,
      0.0021943922620266676,
      0.015353148803114891,
      0.02057378552854061
    ],
    [
      0.05458376556634903,
      0.10118979960680008,
      -0.044187866151332855,
      -0.1411028504371643,
      0.09225528687238693,
      0.011729546822607517,
      0.036260589957237244,
      0.039936456829309464,
      -0.09623017907142639,
      -0.07822224497795105,
      0.011615577153861523,
      -0.041920267045497894,
      0.09973327815532684,
      -0.05465680733323097,
      -0.05093963444232941,
      0.022675536572933197,
      -0.09258654713630676,
      -0.025979138910770416,
      -0.12411520630121231,
      -0.0022532984148710966,
      -0.046265535056591034,
      0.05782068148255348,
      0.0705064907670021,
      0.02421463094651699,
      0.04996658116579056,
      -0.10071005672216415,
      -0.11451945453882217,
      -0.02561400644481182,
      -0.006965396460145712,
      -0.04728304222226143,
      -0.10580666363239288,
      -0.0024800545070320368,
      -0.032111745327711105,
      -0.008076198399066925,
      0.06246010586619377,
      -0.058654509484767914,
      -0.04400935769081116,
      0.05921635031700134,
      0.060515645891427994,
      0.044068288058042526,
      0.0667191818356514,
      0.04723187908530235,
      0.01927441544830799,
      -0.14846719801425934,
      0.014067703858017921,
      -0.06045181304216385,
      0.06551621854305267,
      -0.08937996625900269,
      -0.10203506797552109,
      -0.05119258537888527,
      0.06357655674219131,
      0.09631180018186569,
      -0.04188103601336479,
      -0.011600622907280922,
      0.05601257085800171,
      -0.062128692865371704,
      -0.01191655732691288,
      0.0018472637748345733,
      -0.04212675988674164,
      0.023143813014030457,
      0.08738420158624649,
      -0.03626842796802521,
      0.09403141587972641,
      0.12491954118013382
    ],
    [
      -0.04611669480800629,
      0.15692941844463348,
      -0.015142588876187801,
      0.06350749731063843,
      -0.12381649762392044,
      -0.057440705597400665,
      -0.1177796870470047,
      0.06447101384401321,
      0.05616379529237747,
      0.04443347081542015,
      -0.03617319464683533,
      0.021640723571181297,
      -0.2012673318386078,
      0.021405048668384552,
      -0.06224063038825989,
      -0.05908351019024849,
      0.10514673590660095,
      0.06121997907757759,
      -0.003996770828962326,
      0.0169772170484066,
      0.11411066353321075,
      -0.028666097670793533,
      0.06686428189277649,
      -0.09518014639616013,
      -0.024593032896518707,
      0.034271277487277985,
      0.11039909720420837,
      -0.1048995777964592,
      -0.07982667535543442,
      -0.01986490935087204,
      -0.08873973786830902,
      0.02425072342157364,
      -0.06624933332204819,
      -0.0365956649184227,
      -0.09233470261096954,
      -0.054395902901887894,
      -0.004522932693362236,
      0.01628982089459896,
      0.05566207692027092,
      0.0583510585129261,
      -0.04579269513487816,
      0.07820534706115723,
      -0.1119232326745987,
      -0.03821353614330292,
      0.05665113776922226,
      0.00832868181169033,
      -0.008880769833922386,
      0.011439407244324684,
      0.017197323963046074,
      -0.050626710057258606,
      0.075092613697052,
      0.11323446780443192,
      -0.0737704262137413,
      -0.01305424515157938,
      -0.009833798743784428,
      -0.057005882263183594,
      -0.11635147035121918,
      0.027876336127519608,
      -0.08390561491250992,
      -0.0644197165966034,
      0.054296545684337616,
      -0.001536348951049149,
      -0.0043069832026958466,
      0.14038102328777313
    ],
    [
      0.002718165749683976,
      -0.06423599272966385,
      -0.08660507947206497,
      0.0029073229525238276,
      0.02473270148038864,
      0.022414639592170715,
      -0.10776547342538834,
      0.026640625670552254,
      0.06330127269029617,
      0.006480536423623562,
      0.13115574419498444,
      -0.06565087288618088,
      0.06275637447834015,
      0.08866430819034576,
      -0.0781756266951561,
      7.994585757842287e-07,
      -0.07371042668819427,
      -0.10398250818252563,
      0.10735015571117401,
      -0.11307791620492935,
      0.03106316179037094,
      0.06572555005550385,
      0.03219866380095482,
      -0.07442132383584976,
      -0.018461264669895172,
      -0.050338588654994965,
      0.021262500435113907,
      -0.05900120735168457,
      0.029341397807002068,
      -0.07540729641914368,
      0.11430779099464417,
      0.020379377529025078,
      -0.03112073428928852,
      -0.03262414038181305,
      0.09848177433013916,
      0.07991243898868561,
      0.033899467438459396,
      -0.03676711395382881,
      0.031131738796830177,
      0.09496097266674042,
      0.07569330185651779,
      -0.1247803345322609,
      0.007952832616865635,
      -0.08566031605005264,
      -0.082133449614048,
      -0.004694794304668903,
      0.05402266979217529,
      0.03313955292105675,
      0.1289183646440506,
      0.023793596774339676,
      0.08852317184209824,
      0.026209168136119843,
      -0.07053998857736588,
      -0.0596490353345871,
      -0.008889444172382355,
      -0.04338574782013893,
      -0.1514378935098648,
      -0.05555030331015587,
      0.10212548077106476,
      0.021441541612148285,
      0.06337200850248337,
      0.059592362493276596,
      0.02138342708349228,
      0.07055448740720749
    ],
    [
      0.0042971218936145306,
      0.03180054575204849,
      -0.07564352452754974,
      0.08316289633512497,
      0.0567241832613945,
      0.002587669063359499,
      0.040523529052734375,
      0.03906267508864403,
      -0.009822661988437176,
      0.021242691203951836,
      -0.07477717101573944,
      -0.009243286214768887,
      0.06206541508436203,
      0.046177931129932404,
      0.09895246475934982,
      -0.020290669053792953,
      -0.0360468253493309,
      -0.020357079803943634,
      0.03474992886185646,
      -0.06284108757972717,
      -0.011534567922353745,
      0.025376085191965103,
      -0.03116741217672825,
      -0.003110943827778101,
      -0.0547311007976532,
      0.01260733138769865,
      0.11053373664617538,
      0.04944354295730591,
      -0.0396253876388073,
      -0.016716770827770233,
      -0.06913388520479202,
      -0.05843457952141762,
      -0.07516364008188248,
      0.025597384199500084,
      0.07199541479349136,
      0.11687830835580826,
      -0.007650674320757389,
      -0.10402815788984299,
      0.024477673694491386,
      0.09255046397447586,
      -0.07088697701692581,
      -0.055570218712091446,
      -0.046714384108781815,
      0.0729968398809433,
      0.013507908210158348,
      0.1140611469745636,
      0.08268749713897705,
      0.11015408486127853,
      0.025104103609919548,
      -0.012282897718250751,
      0.019916461780667305,
      -0.03322368860244751,
      -0.003723239991813898,
      0.1065400242805481,
      -0.06522061675786972,
      0.019136570394039154,
      -0.011266606859862804,
      0.09340119361877441,
      -0.028118416666984558,
      -0.030243683606386185,
      0.03289991617202759,
      -0.01892361231148243,
      0.005650316830724478,
      0.01027274876832962
    ],
    [
      0.03663734719157219,
      0.1354498565196991,
      0.08265285938978195,
      -0.043175868690013885,
      -0.07997102290391922,
      0.1841762810945511,
      -0.011279759928584099,
      0.11310888081789017,
      -0.017462441697716713,
      0.31614646315574646,
      -0.2707757353782654,
      0.07507915049791336,
      0.011719385161995888,
      0.02531423605978489,
      -0.18411985039710999,
      -0.0035310520324856043,
      -0.20507539808750153,
      -0.18907848000526428,
      0.01283071469515562,
      0.11125822365283966,
      -0.01004899200052023,
      -0.09517748653888702,
      -0.20593665540218353,
      -0.0012041147565469146,
      0.008832556195557117,
      -0.04216831550002098,
      0.37868407368659973,
      0.38766878843307495,
      -0.02256346307694912,
      0.18994687497615814,
      0.023733122274279594,
      -0.20214036107063293,
      0.48457416892051697,
      -0.007027290761470795,
      0.17989110946655273,
      0.013014164753258228,
      0.4209882318973541,
      0.46319741010665894,
      0.047962840646505356,
      0.11878401041030884,
      0.08428652584552765,
      0.3495376706123352,
      0.13396383821964264,
      0.04664197191596031,
      -0.09933510422706604,
      -0.0013368839863687754,
      -0.1755378246307373,
      0.11862313002347946,
      0.00096709537319839,
      0.11597095429897308,
      0.1900004744529724,
      0.5134386420249939,
      0.3399192690849304,
      0.07920432835817337,
      0.29427263140678406,
      0.3746877610683441,
      0.20203381776809692,
      0.03879719600081444,
      -0.013782172463834286,
      0.2450072020292282,
      0.05593452230095863,
      0.022900056093931198,
      0.45417851209640503,
      0.00040378241101279855
    ],
    [
      0.03804158419370651,
      -0.15353968739509583,
      0.08530356734991074,
      0.08072947710752487,
      -0.1126139760017395,
      -0.02864140085875988,
      0.04958643019199371,
      -0.04696061462163925,
      -0.014037401415407658,
      -0.08177683502435684,
      -0.03203381970524788,
      0.021527213975787163,
      0.03207296505570412,
      0.05169032886624336,
      -0.06663519889116287,
      -0.050313204526901245,
      -0.01881389506161213,
      0.027558624744415283,
      -0.005483995657414198,
      0.01247416716068983,
      0.12730437517166138,
      -0.06203154847025871,
      0.06127220764756203,
      -0.012635603547096252,
      -0.07807201147079468,
      -0.011341542936861515,
      0.014242158271372318,
      -0.03261937201023102,
      -0.06945686042308807,
      -0.03316927328705788,
      -0.026427093893289566,
      -0.05464021489024162,
      0.040748048573732376,
      0.12241596728563309,
      0.08985109627246857,
      0.016377652063965797,
      -0.011312776245176792,
      -0.030649535357952118,
      -0.05011701211333275,
      -0.013880819082260132,
      0.013947485946118832,
      0.0456339567899704,
      0.10073705017566681,
      0.014092679135501385,
      0.014175200834870338,
      -0.06278550624847412,
      0.07348748296499252,
      0.13408991694450378,
      -0.08181364834308624,
      -0.06752415746450424,
      -0.0722697302699089,
      0.10370089113712311,
      0.04124735668301582,
      0.01560387946665287,
      0.08415327221155167,
      0.15020707249641418,
      -0.08255919814109802,
      0.02453235536813736,
      -0.028180809691548347,
      -0.02129751443862915,
      -0.09110286086797714,
      0.061691321432590485,
      -0.11122462898492813,
      -0.14827288687229156
    ],
    [
      0.09954673051834106,
      0.09510351717472076,
      -0.16291946172714233,
      0.0787554383277893,
      -0.12068839371204376,
      0.0024690108839422464,
      0.017503149807453156,
      0.02918187715113163,
      0.014277677983045578,
      -0.01825539395213127,
      0.11580615490674973,
      0.05131467431783676,
      0.2405427098274231,
      0.04486259073019028,
      -0.02373986318707466,
      0.17741091549396515,
      -0.020822633057832718,
      -0.0837130919098854,
      -0.005698466673493385,
      0.10483713448047638,
      -0.0444546602666378,
      -0.039175134152173996,
      0.04285040497779846,
      0.013952684588730335,
      -0.04961354285478592,
      0.03256799280643463,
      0.08139465749263763,
      0.023286517709493637,
      -0.023617902770638466,
      0.1145598292350769,
      0.21663519740104675,
      -0.018391912803053856,
      -0.11191215366125107,
      -0.06385575234889984,
      -0.010267877951264381,
      0.07929398119449615,
      -0.08845977485179901,
      -0.025578465312719345,
      0.06278456002473831,
      -0.08343670517206192,
      -0.15061132609844208,
      -0.10061022639274597,
      -0.10186605900526047,
      0.04058213531970978,
      0.1761167049407959,
      0.09878657013177872,
      -0.012134690769016743,
      0.13040918111801147,
      0.048160526901483536,
      -0.006823542527854443,
      0.01848907582461834,
      -0.01954731158912182,
      0.057310279458761215,
      -0.022424887865781784,
      -0.09822484850883484,
      -0.09545356035232544,
      0.168936088681221,
      -0.04205470532178879,
      -0.11220493167638779,
      0.019003139808773994,
      -0.06058049574494362,
      -0.06052200868725777,
      0.060805756598711014,
      0.04903889074921608
    ],
    [
      0.10619586706161499,
      -0.034721605479717255,
      -0.09547734260559082,
      -0.03200950101017952,
      0.0391794815659523,
      0.02200155518949032,
      -0.0911775454878807,
      -0.04024013504385948,
      -0.0013288130285218358,
      0.026108531281352043,
      0.019424116238951683,
      -0.0015607974492013454,
      0.013401784934103489,
      0.02113538235425949,
      0.08471834659576416,
      -0.14389991760253906,
      0.03325585275888443,
      -0.025471068918704987,
      0.13944126665592194,
      -0.06605084985494614,
      -0.04933631792664528,
      0.047561634331941605,
      0.014927760697901249,
      -0.04469284787774086,
      -0.020821677520871162,
      0.06344571709632874,
      -0.051774922758340836,
      -0.044890839606523514,
      -0.09978678822517395,
      -0.026952557265758514,
      0.03099665232002735,
      0.06743790209293365,
      -0.09468913078308105,
      0.06386620551347733,
      -0.12377917766571045,
      0.010073435492813587,
      -0.02469414286315441,
      0.10906846821308136,
      0.007832401432096958,
      -0.07242309302091599,
      0.0021626660600304604,
      -0.03121298737823963,
      0.04750372841954231,
      0.010950482450425625,
      -0.09510578960180283,
      -0.16887161135673523,
      0.0006512556574307382,
      -0.08337516337633133,
      0.030220067128539085,
      0.00044199888361617923,
      -0.04951909929513931,
      0.07840723544359207,
      -0.019476570188999176,
      0.09882574528455734,
      0.04680391401052475,
      -0.04562748968601227,
      -0.08606195449829102,
      -0.03364300727844238,
      -0.046096134930849075,
      0.023088794201612473,
      0.019344106316566467,
      -0.09791320562362671,
      0.06376955658197403,
      -0.12290606647729874
    ],
    [
      -0.07011398673057556,
      0.04491603747010231,
      0.01310055423527956,
      0.06688501685857773,
      -0.00362730142660439,
      -0.13599729537963867,
      0.06829991936683655,
      -0.11644936352968216,
      -0.07394817471504211,
      -0.06485298275947571,
      -0.010321781039237976,
      0.04285410791635513,
      -0.044571176171302795,
      0.07339885830879211,
      0.06302493065595627,
      -0.05745282769203186,
      0.028859460726380348,
      0.07236466556787491,
      0.05242101848125458,
      -0.068501316010952,
      0.12915834784507751,
      -0.07298653572797775,
      -0.045256778597831726,
      0.011380089446902275,
      0.018614448606967926,
      0.022204937413334846,
      -0.0631447285413742,
      -0.054194290190935135,
      -0.05325017124414444,
      -0.05138193443417549,
      0.0537642166018486,
      -0.04721484333276749,
      -0.0873594880104065,
      0.2017434686422348,
      0.07323424518108368,
      -0.015794828534126282,
      -0.006279034540057182,
      0.12936167418956757,
      0.10421700775623322,
      -0.0735878273844719,
      0.003215548349544406,
      -0.020026585087180138,
      -0.04236079379916191,
      -0.022527748718857765,
      0.07791856676340103,
      -0.01735878363251686,
      -0.13591831922531128,
      0.05176114663481712,
      -0.10424067080020905,
      0.013903970830142498,
      -0.07970692217350006,
      0.02020268887281418,
      0.05839034542441368,
      0.04088671877980232,
      -0.025591302663087845,
      -0.07212544977664948,
      0.12857863306999207,
      -0.07035202533006668,
      0.0890556275844574,
      0.07715287804603577,
      0.016972804442048073,
      0.03407057002186775,
      -0.06275561451911926,
      0.1293480545282364
    ],
    [
      0.48859527707099915,
      0.6615563631057739,
      -0.2767906188964844,
      -0.4438331425189972,
      0.02389329858124256,
      0.18294696509838104,
      0.14016273617744446,
      -0.07159308344125748,
      -0.022287048399448395,
      -0.21991021931171417,
      -0.04392516613006592,
      0.3333946764469147,
      -0.006486346945166588,
      -0.2918383777141571,
      -0.06594602763652802,
      0.027446746826171875,
      -0.04676337540149689,
      -0.2662345767021179,
      -0.10988731682300568,
      0.0858648270368576,
      0.007555755786597729,
      -0.2888047993183136,
      0.02002255991101265,
      -0.002516717417165637,
      -0.22425523400306702,
      0.3050651550292969,
      0.23532958328723907,
      -0.1994614601135254,
      0.4732007086277008,
      -0.18828906118869781,
      0.003951970487833023,
      -0.09091880172491074,
      0.13228516280651093,
      -0.016337759792804718,
      -0.06062016636133194,
      0.0026549617759883404,
      0.0059712231159210205,
      0.3221617639064789,
      -0.13985730707645416,
      0.28630775213241577,
      0.47496089339256287,
      0.13031819462776184,
      0.10939439386129379,
      0.17357546091079712,
      -0.23956893384456635,
      0.016573237255215645,
      -0.6825464963912964,
      0.020902900025248528,
      0.006512032356113195,
      -0.2061542272567749,
      0.6233016848564148,
      -0.3979741036891937,
      0.5595280528068542,
      -0.10983289033174515,
      0.33195123076438904,
      0.2570284307003021,
      -0.06978365033864975,
      0.04919878765940666,
      -0.045024823397397995,
      -1.027594804763794,
      0.026856103911995888,
      8.27210969873704e-05,
      -0.16842535138130188,
      0.022427689284086227
    ],
    [
      -0.058489978313446045,
      -0.1095351129770279,
      -0.006468175444751978,
      0.05066268518567085,
      0.05866363272070885,
      -0.10463171452283859,
      0.10057879984378815,
      -0.05279093608260155,
      0.016619587317109108,
      0.03403846174478531,
      -0.038094036281108856,
      0.03157978877425194,
      -0.025953294709324837,
      -0.12684576213359833,
      0.007402228191494942,
      0.1575915813446045,
      -0.09250598400831223,
      0.05666626989841461,
      0.028353046625852585,
      -0.07273118942975998,
      0.0996532142162323,
      0.07797567546367645,
      0.10850987583398819,
      0.05454479157924652,
      -0.13834017515182495,
      0.07027564197778702,
      -0.03607676550745964,
      -0.11930069327354431,
      -0.1477467268705368,
      -0.11300669610500336,
      -0.13343578577041626,
      -0.036725617945194244,
      0.062128596007823944,
      -0.01531024370342493,
      0.1155296191573143,
      -0.0693851113319397,
      -0.02896428294479847,
      0.06563697010278702,
      0.02576356939971447,
      0.02761809527873993,
      -0.060736846178770065,
      -0.07510697841644287,
      -0.04860324412584305,
      -0.05129284784197807,
      -0.03817449137568474,
      0.11947061866521835,
      0.033779509365558624,
