{
  "net.0.weight": [
    [
      -0.0001708415220491588
    ],
    [
      0.7142351865768433
    ],
    [
      0.3356722891330719
    ],
    [
      0.5526142120361328
    ],
    [
      -0.6030992865562439
    ],
    [
      0.10181721299886703
    ],
    [
      -0.2600741386413574
    ],
    [
      0.24913685023784637
    ],
    [
      -0.507494330406189
    ],
    [
      0.7996216416358948
    ],
    [
      0.1428561806678772
    ],
    [
      0.547268271446228
    ],
    [
      -0.2040853649377823
    ],
    [
      0.2204364836215973
    ],
    [
      0.777576744556427
    ],
    [
      -0.8087412118911743
    ],
    [
      -0.5116624236106873
    ],
    [
      -0.25433364510536194
    ],
    [
      -0.0001574304624227807
    ],
    [
      -0.3855713903903961
    ],
    [
      0.27823126316070557
    ],
    [
      -0.43458566069602966
    ],
    [
      0.44432690739631653
    ],
    [
      -0.9407859444618225
    ],
    [
      -0.7322829961776733
    ],
    [
      0.5648722648620605
    ],
    [
      0.429676353931427
    ],
    [
      -1.964078728633467e-05
    ],
    [
      0.3743634521961212
    ],
    [
      -0.1529012769460678
    ],
    [
      0.8444545865058899
    ],
    [
      0.0001906509860418737
    ],
    [
      -0.6924358010292053
    ],
    [
      0.08349954336881638
    ],
    [
      0.466899573802948
    ],
    [
      0.0005065327859483659
    ],
    [
      -0.8987135887145996
    ],
    [
      -0.577531099319458
    ],
    [
      -0.17714522778987885
    ],
    [
      0.8406757712364197
    ],
    [
      0.47060537338256836
    ],
    [
      0.5067472457885742
    ],
    [
      -0.6851543188095093
    ],
    [
      0.7019274830818176
    ],
    [
      0.7599648237228394
    ],
    [
      0.43519484996795654
    ],
    [
      -0.492144376039505
    ],
    [
      -0.12357545644044876
    ],
    [
      0.825066328048706
    ],
    [
      -0.10635138303041458
    ],
    [
      0.34849631786346436
    ],
    [
      -0.3599293529987335
    ],
    [
      0.6125792264938354
    ],
    [
      0.8928815722465515
    ],
    [
      -0.6798532605171204
    ],
    [
      -2.6140467525692657e-05
    ],
    [
      0.8383628726005554
    ],
    [
      0.6585080623626709
    ],
    [
      0.337459534406662
    ],
    [
      -0.6345764994621277
    ],
    [
      0.0005493527860380709
    ],
    [
      0.1340601146221161
    ],
    [
      0.6160066723823547
    ],
    [
      -0.957726776599884
    ]
  ],
  "net.0.bias": [
    -0.00017597338592167944,
    -0.01867242157459259,
    0.2626761198043823,
    0.6122178435325623,
    0.613534152507782,
    -0.12029559165239334,
    0.14295673370361328,
    -0.2822679579257965,
    0.7509190440177917,
    -0.7701480984687805,
    -0.27332067489624023,
    -0.0609242245554924,
    -0.16797085106372833,
    -0.2388029843568802,
    -0.7823686599731445,
    -0.9534091949462891,
    -0.5626788139343262,
    -0.16965001821517944,
    3.340660987305455e-05,
    -0.5092594027519226,
    0.5333849191665649,
    0.1889921873807907,
    0.041793402284383774,
    -0.5579530596733093,
    -0.8134653568267822,
    -0.5321647524833679,
    -0.45006826519966125,
    0.00023204561148304492,
    0.5176951289176941,
    -0.1838708221912384,
    -0.5724876523017883,
    0.00012110582611057907,
    0.8088957071304321,
    -0.604512631893158,
    -0.5407585501670837,
    1.5387069652206264e-05,
    0.30418965220451355,
    0.5715349912643433,
    0.2683182954788208,
    -0.7167812585830688,
    -0.18425284326076508,
    0.37181249260902405,
    0.2710050642490387,
    -0.8838289380073547,
    -0.6806911826133728,
    0.2516953945159912,
    -0.23431356251239777,
    0.12925176322460175,
    0.8827186226844788,
    0.18384623527526855,
    0.4417698383331299,
    0.2543157637119293,
    0.5276772975921631,
    -0.43778398633003235,
    -0.9191207885742188,
    -1.7115391528932378e-05,
    0.05324723571538925,
    0.18689562380313873,
    -0.03283528611063957,
    0.8309091329574585,
    0.00027907139156013727,
    0.5571867227554321,
    -0.7361969947814941,
    0.7296627759933472
  ],
  "net.2.weight": [
    [
      0.02031349204480648,
      0.13552673161029816,
      0.04960225895047188,
      -0.024958990514278412,
      -0.23378469049930573,
      -0.057773660868406296,
      -0.08873862028121948,
      0.0188758485019207,
      -0.11106830835342407,
      0.0019201617687940598,
      -0.06319169700145721,
      0.0967959463596344,
      -0.1291610151529312,
      0.028696781024336815,
      0.10248547792434692,
      0.04416729882359505,
      -0.12080120295286179,
      0.014367294497787952,
      -0.12315983325242996,
      -0.04930957406759262,
      0.10586690157651901,
      -0.17531995475292206,
      -2.6340501790400594e-05,
      0.031466249376535416,
      0.05293602868914604,
      -0.0025294835213571787,
      0.03849948197603226,
      0.12284912168979645,
      0.0487251840531826,
      0.04333353415131569,
      -0.07829765975475311,
      0.055932074785232544,
      -0.052279431372880936,
      0.08654335886240005,
      -0.07178883999586105,
      -0.07072512060403824,
      -0.12493482232093811,
      -0.012998613528907299,
      -0.17660585045814514,
      -0.053216833621263504,
      0.05526680871844292,
      -0.018145369365811348,
      0.01517317071557045,
      0.09233424067497253,
      0.007166981231421232,
      0.11794771999120712,
      -0.05412742495536804,
      -0.0969935953617096,
      0.0900338813662529,
      -0.09273248165845871,
      0.021281246095895767,
      -0.0048611778765916824,
      0.11181200295686722,
      0.13526667654514313,
      0.10415424406528473,
      -0.06904838979244232,
      -0.07417548447847366,
      -0.047439802438020706,
      0.042485855519771576,
      -0.192790225148201,
      0.08310046792030334,
      -0.07152079790830612,
      -0.02674114890396595,
      -0.017523402348160744
    ],
    [
      0.07212573289871216,
      -0.059958379715681076,
      -0.020255113020539284,
      -0.16558274626731873,
      0.003633269341662526,
      -0.07668295502662659,
      0.06271464377641678,
      -0.15416835248470306,
      0.09515449404716492,
      -0.0385063998401165,
      -0.00371128274127841,
      -0.029130997136235237,
      0.06335236877202988,
      0.04089411348104477,
      -0.0678824856877327,
      0.14539150893688202,
      0.09879841655492783,
      -0.06685841828584671,
      0.006076389458030462,
      0.07479868084192276,
      -0.11413411796092987,
      0.05491189658641815,
      -0.16596831381320953,
      0.09766651690006256,
      0.09974474459886551,
      -0.07936478406190872,
      -0.03300231695175171,
      0.002886426169425249,
      -0.19541746377944946,
      -0.013956245966255665,
      -0.1556910276412964,
      -0.10937456041574478,
      0.1332763433456421,
      0.03846074268221855,
      -0.03203291445970535,
      -0.06687796115875244,
      0.08645137399435043,
      -0.043861012905836105,
      0.06775666028261185,
      0.06105142459273338,
      -0.101508729159832,
      -0.20249056816101074,
      -0.049986906349658966,
      -0.07864182442426682,
      -0.08680122345685959,
      -0.1108628511428833,
      0.03876148536801338,
      0.08814333379268646,
      -0.16487552225589752,
      -0.050039008259773254,
      -0.01310980599373579,
      0.11479692906141281,
      -0.024872081354260445,
      -0.0519474558532238,
      0.010004025883972645,
      0.04364223778247833,
      -0.06391703337430954,
      -0.008130017668008804,
      -0.18510475754737854,
      0.11487438529729843,
      -0.041392043232917786,
      -0.11667145788669586,
      0.06939253956079483,
      0.07657443732023239
    ],
    [
      0.04300446808338165,
      0.032915014773607254,
      0.09579146653413773,
      -0.06234251335263252,
      -0.16484808921813965,
      -0.018043290823698044,
      -0.1295533925294876,
      0.08403962850570679,
      -0.11946453899145126,
      -0.0559849813580513,
      -0.08541036397218704,
      -0.0521579347550869,
      -0.004909672774374485,
      0.109554722905159,
      0.15549378097057343,
      0.049713633954524994,
      0.06444807350635529,
      -0.06674403697252274,
      0.07375764101743698,
      -0.13716939091682434,
      0.12951476871967316,
      -0.20138676464557648,
      -0.05096164345741272,
      0.04013819620013237,
      0.0483308807015419,
      0.08653829246759415,
      0.008579222485423088,
      -0.08786886930465698,
      0.12680035829544067,
      -0.03551030158996582,
      -0.0003466689959168434,
      0.0317392572760582,
      -0.20075248181819916,
      -0.08173173666000366,
      -0.08132464438676834,
      -0.036178138107061386,
      -0.005372324027121067,
      -0.17426320910453796,
      -0.06527452915906906,
      0.07047557830810547,
      0.09706835448741913,
      0.09653773158788681,
      -0.21351592242717743,
      0.07452435791492462,
      0.1596219390630722,
      0.16722293198108673,
      -0.03444485366344452,
      -0.07035525888204575,
      0.10812848061323166,
      -0.08070310950279236,
      -0.08918681740760803,
      -0.04867337644100189,
      0.0007712355582043529,
      -0.056032102555036545,
      -0.00495839212089777,
      0.04954064264893532,
      0.042752351611852646,
      0.004190623294562101,
      0.005961545743048191,
      -0.15060344338417053,
      -0.002589901676401496,
      0.02606106735765934,
      -0.050988901406526566,
      -0.07614532113075256
    ],
    [
      -0.13666431605815887,
      -0.1441390961408615,
      -0.1143360510468483,
      -0.19403395056724548,
      0.07568603754043579,
      -0.0778028666973114,
      -0.00020499252423178405,
      -0.09244699031114578,
      -0.0504925474524498,
      -0.0502961240708828,
      0.13555501401424408,
      0.051075056195259094,
      0.014581499621272087,
      0.060543324798345566,
      0.116007000207901,
      0.04615878686308861,
      0.038938239216804504,
      0.027287693694233894,
      -0.02800184115767479,
      -0.028425859287381172,
      -0.11596886813640594,
      0.03131985664367676,
      -0.019745124503970146,
      0.05291611701250076,
      0.09920334815979004,
      -0.05499333515763283,
      -0.12089940905570984,
      0.09244752675294876,
      -0.1543627679347992,
      -0.0011353660374879837,
      -0.07172840088605881,
      -0.0399511381983757,
      0.11417101323604584,
      -0.08655884116888046,
      0.0024123983457684517,
      0.05143004655838013,
      -0.038782231509685516,
      -0.09450680017471313,
      0.09045267850160599,
      -0.12276775389909744,
      -0.1283244788646698,
      -0.07347927242517471,
      -0.06973506510257721,
      -0.08991936594247818,
      0.05035217106342316,
      -0.07127521187067032,
      -0.005095709580928087,
      0.08167877793312073,
      -0.008043459616601467,
      -0.1359814703464508,
      -0.04022431746125221,
      -0.10632573813199997,
      -0.17414265871047974,
      -0.09136772155761719,
      -0.009967721067368984,
      -0.016390405595302582,
      -0.024109747260808945,
      -0.16102387011051178,
      -0.06705988943576813,
      0.047330427914857864,
      -0.016508465632796288,
      -0.08724241703748703,
      -0.1011509895324707,
      -0.08318576961755753
    ],
    [
      0.10867833346128464,
      0.02638472244143486,
      0.05956609547138214,
      -0.07177253812551498,
      -0.10173385590314865,
      -0.004334898199886084,
      -0.07913344353437424,
      0.09352564066648483,
      -0.07921884953975677,
      0.017869824543595314,
      -0.08914108574390411,
      -0.08526606112718582,
      0.026907823979854584,
      0.02528814971446991,
      0.06737462431192398,
      -0.0695963054895401,
      -0.021654654294252396,
      0.09691180288791656,
      0.018639441579580307,
      -0.0623566135764122,
      0.01857181452214718,
      -0.05947909876704216,
      -0.08864709734916687,
      0.09420188516378403,
      -0.049645598977804184,
      0.09098872542381287,
      -0.05797385424375534,
      0.02192971296608448,
      0.04755469411611557,
      0.03837697207927704,
      -0.10574016720056534,
      -0.055093441158533096,
      0.0963268131017685,
      -0.06598256528377533,
      -0.056807585060596466,
      -0.03483898937702179,
      -0.02424030937254429,
      -0.12964887917041779,
      0.0008453906630165875,
      -0.07476358115673065,
      0.04076337069272995,
      0.06309540569782257,
      -0.02874298207461834,
      0.011914337985217571,
      0.08201351016759872,
      0.08340282738208771,
      0.1229965090751648,
      0.08113213628530502,
      -0.07333873957395554,
      -0.12529818713665009,
      0.06621915847063065,
      0.06413909047842026,
      0.090214803814888,
      -0.05592251196503639,
      0.029120028018951416,
      -0.04936688765883446,
      0.014047965407371521,
      0.027638014405965805,
      -0.07771956920623779,
      -0.012581553310155869,
      0.014285692945122719,
      -0.10568884015083313,
      0.002366567961871624,
      0.10666872560977936
    ],
    [
      -0.006728146690875292,
      -0.07031767070293427,
      -0.07986427843570709,
      -0.07136169075965881,
      -0.10159911960363388,
      0.17055490612983704,
      -0.033261943608522415,
      -0.027909260243177414,
      -0.03517771512269974,
      0.11548713594675064,
      0.035078082233667374,
      -0.020706981420516968,
      0.2434530258178711,
      0.04147117957472801,
      0.08773070573806763,
      0.09310340136289597,
      0.08550546318292618,
      0.02252093516290188,
      -0.1785476803779602,
      0.17442619800567627,
      -0.03220607340335846,
      -0.09845922142267227,
      -0.13073590397834778,
      0.03276309370994568,
      0.17150942981243134,
      0.0025749816559255123,
      0.08379466086626053,
      0.15424956381320953,
      -0.21779432892799377,
      0.1700713187456131,
      0.0708584263920784,
      -0.1579827219247818,
      -0.14899903535842896,
      -0.0017306655645370483,
      0.1600160300731659,
      0.12501809000968933,
      -0.06459636241197586,
      -0.0007027019746601582,
      -0.05167572572827339,
      0.15643376111984253,
      -0.12857283651828766,
      -0.09363175183534622,
      -0.08627360314130783,
      0.10399895906448364,
      -0.0025909976102411747,
      -0.2039276510477066,
      0.09979703277349472,
      -0.11624400317668915,
      -0.08631695806980133,
      -0.185166597366333,
      0.014881464652717113,
      -0.08926983177661896,
      -0.14833517372608185,
      -0.03412279859185219,
      0.1417413055896759,
      -0.10755102336406708,
      0.08327644318342209,
      -0.05043558403849602,
      0.04595959186553955,
      -0.18544352054595947,
      0.05192893370985985,
      -0.17905451357364655,
      0.06815721094608307,
      -0.022190632298588753
    ],
    [
      -0.1030145063996315,
      0.13206112384796143,
      -0.052678488194942474,
      0.17610619962215424,
      -0.07908689975738525,
      -0.07045680284500122,
      -0.031413089483976364,
      0.0033002905547618866,
      -0.0023503676056861877,
      -0.05837329477071762,
      -0.08926495909690857,
      0.07681293040513992,
      -0.1443205624818802,
      0.016146337613463402,
      0.10746755450963974,
      0.06707238405942917,
      -0.09965785592794418,
      -0.1623806655406952,
      -0.018216030672192574,
      0.029189862310886383,
      -0.021084820851683617,
      -0.001726432703435421,
      -0.05150851979851723,
      0.03420223668217659,
      0.04891597852110863,
      0.0355384387075901,
      0.09898945689201355,
      -0.01916174218058586,
      0.019193019717931747,
      -0.11866123229265213,
      0.13694874942302704,
      -0.02374926581978798,
      -0.16441136598587036,
      -0.04019710794091225,
      -0.03838622197508812,
      -0.17531655728816986,
      -0.1352442353963852,
      -0.21425822377204895,
      -0.029101818799972534,
      0.15774552524089813,
      0.15516899526119232,
      0.13545013964176178,
      -0.1968483030796051,
      -0.011760399676859379,
      -0.0023493675980716944,
      0.16281500458717346,
      -0.07089071720838547,
      0.0013614267809316516,
      -0.02127426490187645,
      -0.05453941598534584,
      0.164906308054924,
      -0.20451633632183075,
      0.11156251281499863,
      0.1684931069612503,
      -0.09484982490539551,
      0.08427256345748901,
      0.1805395483970642,
      0.024509835988283157,
      0.0030639166943728924,
      -0.14332039654254913,
      0.012962193228304386,
      -0.06857316941022873,
      -0.056443728506565094,
      -0.10858548432588577
    ],
    [
      -0.06250149756669998,
      0.15625305473804474,
      0.0024592315312474966,
      0.047219179570674896,
      -0.20075978338718414,
      -0.07871931791305542,
      0.01606837846338749,
      0.03654506802558899,
      -0.03934253007173538,
      -0.025790231302380562,
      -0.07748466730117798,
      -0.07494338601827621,
      0.05681400001049042,
      0.08749065548181534,
      0.08175778388977051,
      -0.10335071384906769,
      0.051237862557172775,
      -0.015837833285331726,
      -0.06968625634908676,
      -0.10799344629049301,
      -0.0356750413775444,
      -0.05268917977809906,
      0.08831361681222916,
      0.06651081144809723,
      -0.04775772616267204,
      -0.07473871111869812,
      0.08663343638181686,
      -0.12786303460597992,
      -0.07099300622940063,
      0.006596766412258148,
      -0.08109014481306076,
      -0.022680919617414474,
      -0.20338603854179382,
      0.02062772773206234,
      0.13491290807724,
      0.14145226776599884,
      -0.20358054339885712,
      -0.16955433785915375,
      0.020614570006728172,
      -0.04988464340567589,
      0.017185889184474945,
      -0.014966726303100586,
      0.01056775450706482,
      -0.06757447123527527,
      -0.04690708965063095,
      -0.0649639442563057,
      -0.09237739443778992,
      -0.04668903723359108,
      0.0453510619699955,
      -0.0199479591101408,
      -0.059709012508392334,
      0.03576575592160225,
      -0.0040638502687215805,
      0.12302625179290771,
      -0.04743671417236328,
      -0.053549036383628845,
      0.14000247418880463,
      0.13675984740257263,
      0.016121797263622284,
      -0.00196036696434021,
      -0.11799419671297073,
      -0.0011113578220829368,
      0.001731218653731048,
      -0.19518281519412994
    ],
    [
      0.058616988360881805,
      0.027525784447789192,
      0.06825362145900726,
      -0.028929295018315315,
      -0.0824078917503357,
      -0.040257565677165985,
      0.0872361958026886,
      -0.09166379272937775,
      -0.1589009165763855,
      -0.1279231607913971,
      0.036750178784132004,
      0.03166621923446655,
      -0.10624957829713821,
      0.009805286303162575,
      0.06039620190858841,
      0.05812712013721466,
      -0.09884385764598846,
      0.08389254659414291,
      -0.02632625214755535,
      -0.1297331005334854,
      0.06645407527685165,
      -0.012413238175213337,
      0.041512202471494675,
      0.031942129135131836,
      -0.048836663365364075,
      0.06815382838249207,
      -0.10667248070240021,
      -0.012625408358871937,
      0.020983558148145676,
      0.0737573653459549,
      -0.08568711578845978,
      -0.0012089561205357313,
      -0.13900643587112427,
      -0.06721359491348267,
      -0.05464424937963486,
      -0.088164322078228,
      -0.08727370947599411,
      -0.1682729870080948,
      -0.10302054136991501,
      0.03256470710039139,
      0.03574492037296295,
      -0.049045585095882416,
      -0.10207946598529816,
      -0.1659107506275177,
      -0.0331425778567791,
      0.0584910549223423,
      0.02032034657895565,
      0.10369064658880234,
      0.008138866163790226,
      0.12489645928144455,
      -0.05010133609175682,
      0.0314529612660408,
      0.017696034163236618,
      0.09854355454444885,
      -0.0429135337471962,
      -0.08954202383756638,
      -0.08517102152109146,
      0.054591529071331024,
      -0.11018799245357513,
      -0.031047405675053596,
      -0.10135378688573837,
      -0.04434167221188545,
      -0.01288540381938219,
      -0.03567097336053848
    ],
    [
      -0.0456257238984108,
      -0.06439463794231415,
      -0.09931914508342743,
      0.04146161302924156,
      -0.059025537222623825,
      0.017770498991012573,
      -0.04479428008198738,
      0.08777511119842529,
      0.13503435254096985,
      -0.06103352829813957,
      -0.10857618600130081,
      -0.07790664583444595,
      -0.01794017292559147,
      0.035947613418102264,
      0.03628163039684296,
      0.049952879548072815,
      0.04357190057635307,
      0.053391650319099426,
      -0.018147973343729973,
      0.009648570790886879,
      0.08295392990112305,
      0.09504585713148117,
      0.0692949965596199,
      0.10332512110471725,
      -0.08724093437194824,
      0.05529466271400452,
      -0.059627316892147064,
      -0.03143603354692459,
      0.010373552329838276,
      -0.07826853543519974,
      -0.03697243705391884,
      -0.0791778564453125,
      -0.06414084136486053,
      0.01836436428129673,
      -0.09904465079307556,
      0.010510524734854698,
      -0.0893322005867958,
      0.06616739183664322,
      0.030485576018691063,
      0.051034290343523026,
      -0.01600751280784607,
      -0.08160936832427979,
      0.04098119959235191,
      0.08155202865600586,
      0.08177579939365387,
      -0.051946695894002914,
      -0.019234763458371162,
      -0.09507286548614502,
      -0.08853553980588913,
      0.019769947975873947,
      0.11412753909826279,
      -0.027010610327124596,
      0.04372590035200119,
      -0.09111294150352478,
      -0.004198497161269188,
      0.03289858624339104,
      0.10898342728614807,
      0.09484466910362244,
      -0.06464000046253204,
      0.09618384391069412,
      -0.06754975765943527,
      0.005992209073156118,
      -0.0028465180657804012,
      -0.10451201349496841
    ],
    [
      0.057908136397600174,
      0.0016883602365851402,
      0.06153610348701477,
      0.023860840126872063,
      0.05082400515675545,
      -0.012816188856959343,
      0.05696001276373863,
      0.0668913796544075,
      -0.07295528799295425,
      -0.0274666640907526,
      0.0563211515545845,
      -0.09200388938188553,
      0.007664035074412823,
      -0.046201735734939575,
      0.0649203509092331,
      0.03490210697054863,
      0.02873016707599163,
      -0.04660608246922493,
      0.043269168585538864,
      -0.12443014234304428,
      -0.0974859818816185,
      -0.04232979193329811,
      -0.09301687031984329,
      0.03565071523189545,
      -0.10648604482412338,
      -0.13764315843582153,
      0.060128722339868546,
      -0.04319818690419197,
      0.09083369374275208,
      -0.037416283041238785,
      0.09420359879732132,
      -0.059040118008852005,
      -0.09866277128458023,
      0.09728619456291199,
      -0.056397445499897,
      -0.07197099924087524,
      -0.054304562509059906,
      0.0009593513095751405,
      -0.0157821923494339,
      0.04211866855621338,
      -0.026632362976670265,
      0.0030881473794579506,
      0.1292194277048111,
      -0.01864340528845787,
      0.03906596824526787,
      -0.049137361347675323,
      -0.07137837260961533,
      0.0010193675989285111,
      -0.041040800511837006,
      0.1281762570142746,
      -0.02492404915392399,
      0.13894228637218475,
      0.016548490151762962,
      -0.1277112364768982,
      0.04794991388916969,
      0.05947866663336754,
      0.06151004508137703,
      0.05528072640299797,
      -0.023271596059203148,
      -0.05263884738087654,
      0.0736980214715004,
      -0.09234602004289627,
      0.08967084437608719,
      0.040639184415340424
    ],
    [
      0.004577320069074631,
      0.006312348414212465,
      -0.07629791647195816,
      -0.18830354511737823,
      -0.062416523694992065,
      0.07761571556329727,
      0.12578442692756653,
      0.08632467687129974,
      0.022100836038589478,
      0.018803156912326813,
      0.03561035543680191,
      -0.025302043184638023,
      0.013362341560423374,
      0.061972662806510925,
      0.0046350690536201,
      0.08912031352519989,
      0.10967417806386948,
      0.015665249899029732,
      0.08472568541765213,
      0.07210501283407211,
      -0.11257784813642502,
      0.017684901133179665,
      0.04854084178805351,
      0.1312325894832611,
      0.11411647498607635,
      -0.10589677840471268,
      0.10529453307390213,
      -0.15452702343463898,
      -0.10884039103984833,
      0.056425560265779495,
      -0.02283291332423687,
      0.11867516487836838,
      0.0215944591909647,
      0.10114529728889465,
      -0.07705949246883392,
      0.0999792143702507,
      0.06011491268873215,
      0.12404182553291321,
      -0.04796582832932472,
      0.10902908444404602,
      -0.1467500925064087,
      -0.035919658839702606,
      0.015658674761652946,
      -0.11551234871149063,
      -0.021086877211928368,
      -0.03998476639389992,
      0.14423421025276184,
      -0.02619238942861557,
      -0.22365964949131012,
      -0.059794262051582336,
      -0.1215532198548317,
      -0.10880864411592484,
      0.021380942314863205,
      -0.017170045524835587,
      0.07434485107660294,
      0.03448691964149475,
      -0.15026456117630005,
      0.061137210577726364,
      -0.0523972325026989,
      -0.06547819823026657,
      -0.06041347235441208,
      -0.013164522126317024,
      0.06915683299303055,
      0.10069155693054199
    ],
    [
      -0.08865061402320862,
      0.09070512652397156,
      -0.017005901783704758,
      0.015107807703316212,
      -0.003491712035611272,
      0.02760862000286579,
      0.06658261269330978,
      0.022620050236582756,
      -0.017533430829644203,
      -0.12029264122247696,
      -0.04075619950890541,
      -0.06810025125741959,
      -0.1759532243013382,
      0.1280364692211151,
      -0.10770077258348465,
      0.09367645531892776,
      -0.10327893495559692,
      -0.019908757880330086,
      -0.07978124171495438,
      -0.11276300251483917,
      -0.12209693342447281,
      -0.09475615620613098,
      -0.02764606475830078,
      0.06883043795824051,
      0.06849344074726105,
      -0.023554200306534767,
      0.02240348979830742,
      0.045152027159929276,
      -0.07743961364030838,
      -0.1663801223039627,
      0.036204177886247635,
      0.02634470909833908,
      0.04159824922680855,
      -0.026907213032245636,
      0.014841686002910137,
      0.12774935364723206,
      -0.06297432631254196,
      0.08052962273359299,
      -0.07799245417118073,
      0.08745374530553818,
      0.052104342728853226,
      -0.09283509850502014,
      0.03774026408791542,
      0.07665310800075531,
      -0.11010276526212692,
      -0.058376651257276535,
      -0.046295396983623505,
      0.001589654479175806,
      -0.01977735199034214,
      0.03750595077872276,
      0.05149965360760689,
      -0.10715532302856445,
      -0.010337664745748043,
      0.09628313779830933,
      -0.11581055074930191,
      0.056878525763750076,
      -0.026954345405101776,
      -0.0016379514709115028,
      -0.012682385742664337,
      -0.08819609135389328,
      0.14282485842704773,
      0.13588935136795044,
      0.08809396624565125,
      0.062285199761390686
    ],
    [
      -0.04655200615525246,
      0.006722232326865196,
      0.01185162179172039,
      -0.04720496013760567,
      -0.021066348999738693,
      -0.11027879267930984,
      0.06524103134870529,
      0.09141803532838821,
      -0.05420219525694847,
      0.04696447402238846,
      0.059255849570035934,
      0.08085265010595322,
      0.06761472672224045,
      -0.10627298057079315,
      -0.044905781745910645,
      -0.03733034059405327,
      -0.041641686111688614,
      0.017077213153243065,
      -0.0005996196996420622,
      -0.04218184947967529,
      0.13848933577537537,
      0.09143989533185959,
      0.06396511197090149,
      0.006297474727034569,
      -0.006639875937253237,
      0.052435100078582764,
      -0.011123004369437695,
      -0.08563727885484695,
      0.08132219314575195,
      0.09315389394760132,
      -0.019282562658190727,
      -0.11724799126386642,
      0.013224732130765915,
      -0.031308915466070175,
      0.11045083403587341,
      -0.05008961632847786,
      0.09411221742630005,
      -0.007896462455391884,
      0.1038360595703125,
      -0.0996050164103508,
      -0.007612238172441721,
      0.0211552195250988,
      -0.0818062350153923,
      -0.10853885114192963,
      0.0774364173412323,
      -0.004303084686398506,
      -0.06098604574799538,
      0.07861338555812836,
      -0.044201914221048355,
      -0.090959332883358,
      -0.04283781722187996,
      -0.044402167201042175,
      -0.04360174015164375,
      0.0764579027891159,
      -0.04085990786552429,
      -0.10179842263460159,
      -0.061977319419384,
      0.10517536103725433,
      -0.09266316890716553,
      0.005318761803209782,
      -0.07189071178436279,
      0.0730326771736145,
      -0.10484887659549713,
      0.01937112770974636
    ],
    [
      0.012637862004339695,
      -0.1728803515434265,
      -0.004943655803799629,
      -0.18689541518688202,
      -0.06103506311774254,
      0.05968880280852318,
      -0.03118509240448475,
      0.07380357384681702,
      -0.007181215099990368,
      -0.10268343985080719,
      0.008092525415122509,
      -0.022796565666794777,
      0.05802033469080925,
      -0.023347867652773857,
      -0.09978979080915451,
      0.10111123323440552,
      0.04638802260160446,
      0.11740117520093918,
      -0.009407910518348217,
      0.11745434254407883,
      -0.14066626131534576,
      0.012186313048005104,
      -0.04582137241959572,
      0.1302032321691513,
      0.13598321378231049,
      -0.11879300326108932,
      0.060372255742549896,
      0.025705119594931602,
      -0.16077017784118652,
      0.058933138847351074,
      -0.13315024971961975,
      0.013423305004835129,
      -0.07080095261335373,
      0.013855877332389355,
      -0.03596779704093933,
      0.07551626861095428,
      -0.01955077424645424,
      0.044760316610336304,
      0.05255400389432907,
      0.0026936973445117474,
      0.02324383519589901,
      -0.060951463878154755,
      0.0631420761346817,
      0.0845668613910675,
      -0.048508208245038986,
      -0.032147448509931564,
      -0.07029962539672852,
      -0.03653649240732193,
      -0.12967471778392792,
      0.01490321196615696,
      -0.1174703985452652,
      -0.11106203496456146,
      -0.07231470197439194,
      0.036795541644096375,
      0.13539005815982819,
      -0.09038035571575165,
      0.04095388576388359,
      0.03251824155449867,
      0.03952348232269287,
      0.054925158619880676,
      0.1604216992855072,
      -0.007559469901025295,
      0.053819529712200165,
      0.0783509910106659
    ],
    [
      -0.0735173299908638,
      -0.10804854333400726,
      -0.046396948397159576,
      0.06049672141671181,
      0.0016804678598418832,
      0.002409954322502017,
      -0.027812600135803223,
      -0.004937607795000076,
      0.06488592177629471,
      -0.06895780563354492,
      -0.1056942492723465,
      0.09111551195383072,
      -0.01773720793426037,
      -0.05255662277340889,
      0.09450504183769226,
      -0.12189890444278717,
      -0.046911220997571945,
      0.08058749884366989,
      0.0070188348181545734,
      -0.1020478829741478,
      -0.029464490711688995,
      0.09809722006320953,
      -0.07817751169204712,
      -0.0172992255538702,
      -0.045312173664569855,
      -0.021096978336572647,
      -0.11141816526651382,
      0.03247930109500885,
      -0.0907243862748146,
      -0.008177025243639946,
      0.03059151954948902,
      0.0022818180732429028,
      -0.032372232526540756,
      0.09704214334487915,
      0.04219980910420418,
      0.02422359399497509,
      0.007656261790543795,
      -0.022859061136841774,
      0.045637838542461395,
      0.0063564106822013855,
      0.026985669508576393,
      0.10799892991781235,
      0.0044104186818003654,
      0.1181597039103508,
      0.000457477435702458,
      0.0756143257021904,
      0.04958495870232582,
      -0.012144002132117748,
      0.14102108776569366,
      -0.09240774810314178,
      -0.05022614076733589,
      0.027949150651693344,
      -0.0709516629576683,
      -0.025736402720212936,
      0.06886265426874161,
      -0.06087641417980194,
      0.013815145939588547,
      -0.07353569567203522,
      -0.0653001144528389,
      0.03614512458443642,
      -0.05805136263370514,
      0.03355127200484276,
      -0.027604129165410995,
      -0.004011180251836777
    ],
    [
      0.06370062381029129,
      -0.07590547949075699,
      -0.14018350839614868,
      -0.1892840415239334,
      -0.030456600710749626,
      0.049955643713474274,
      0.03544345498085022,
      -0.08057864755392075,
      0.06650956720113754,
      -0.02305460534989834,
      -0.02476208657026291,
      0.02922699972987175,
      0.08428877592086792,
      -0.05055651068687439,
      0.09256483614444733,
      0.10198331624269485,
      0.1588737815618515,
      -0.10760486871004105,
      -0.1193092092871666,
      0.025010593235492706,
      -0.10854483395814896,
      0.037524424493312836,
      -0.10603117942810059,
      0.08948353677988052,
      0.01704653911292553,
      0.05361353978514671,
      0.042946260422468185,
      -0.08641544729471207,
      -0.12642733752727509,
      0.12107087671756744,
      -0.12354980409145355,
      -0.021467095240950584,
      0.016320277005434036,
      0.11159294843673706,
      -0.055216800421476364,
      -0.08457121253013611,
      -0.1110428124666214,
      0.016121717169880867,
      -0.023656219244003296,
      -0.044444430619478226,
      -0.020393935963511467,
      -0.1225966140627861,
      -0.11496416479349136,
      0.04592612013220787,
      -0.07945233583450317,
      -0.09048076719045639,
      0.041859887540340424,
      0.07185206562280655,
      0.016788853332400322,
      -0.008928043767809868,
      -0.14111657440662384,
      0.06647469848394394,
      -0.17425303161144257,
      0.0561959408223629,
      0.09447306394577026,
      0.0368834063410759,
      0.015462944284081459,
      0.004100371617823839,
      0.03462280333042145,
      0.12072845548391342,
      -0.06810496002435684,
      -0.14052417874336243,
      -0.06408195942640305,
      -0.03281509131193161
    ],
    [
      -0.03285840153694153,
      -0.15282146632671356,
      -0.03964025527238846,
      -0.17539463937282562,
      0.1708707958459854,
      -0.042270950973033905,
      0.04480501264333725,
      -0.10877899080514908,
      0.13771173357963562,
      -0.08026129007339478,
      -0.1111452579498291,
      -0.1718379259109497,
      0.10056871175765991,
      -0.1473972201347351,
      0.015550177544355392,
      0.12165338546037674,
      0.1556463986635208,
      0.12637020647525787,
      0.018594050779938698,
      0.16357316076755524,
      -0.14931154251098633,
      0.009425933472812176,
      -0.14036709070205688,
      0.1390162855386734,
      0.14966759085655212,
      0.08194463700056076,
      -0.047307539731264114,
      0.043990809470415115,
      -0.17740261554718018,
      -0.07175212353467941,
      -0.04288611561059952,
      0.10826001316308975,
      0.11367232352495193,
      -0.0398598313331604,
      -0.11361272633075714,
      0.08693651854991913,
      0.18774311244487762,
      0.15718871355056763,
      0.09125988930463791,
      -0.08240605145692825,
      -0.05109419301152229,
      -0.12608683109283447,
      0.08669617027044296,
      0.07095929980278015,
      0.08591311424970627,
      0.01881137304008007,
      0.0942082554101944,
      -0.06346503645181656,
      -0.0018090608064085245,
      -0.06338142603635788,
      -0.1405632197856903,
      -0.02457715943455696,
      -0.24369168281555176,
      -0.1301434338092804,
      -0.024306390434503555,
      0.07412362098693848,
      0.03066348098218441,
      -0.03500208631157875,
      -0.06322003901004791,
      -0.022486215457320213,
      -0.08884750306606293,
      -0.03954719379544258,
      -0.07019757479429245,
      0.055132586508989334
    ],
    [
      0.15649034082889557,
      -0.017842743545770645,
      0.12880739569664001,
      0.03870633244514465,
      0.06833304464817047,
      0.07441707700490952,
      0.09904717653989792,
      -0.06284717470407486,
      -0.05084611847996712,
      -0.010565599426627159,
      -0.0690496638417244,
      0.029124440625309944,
      -0.14422962069511414,
      -0.08963342010974884,
      -0.1567964255809784,
      -0.06259100139141083,
      -0.13860151171684265,
      -0.07366698235273361,
      -0.06595845520496368,
      -0.023738916963338852,
      -0.09247613698244095,
      -0.025263162329792976,
      0.05573716014623642,
      -0.05827125906944275,
      -0.0662171021103859,
      -0.045976899564266205,
      0.06472023576498032,
      -0.013914971612393856,
      -0.048018183559179306,
      0.045714426785707474,
      0.07888463139533997,
      -0.006484310608357191,
      0.07932376861572266,
      0.033426687121391296,
      0.007949036546051502,
      0.0037667856086045504,
      0.07506811618804932,
      0.07103826850652695,
      -0.031608130782842636,
      0.018458085134625435,
      -0.09082046151161194,
      -0.10355577617883682,
      0.052345968782901764,
      -0.05891517177224159,
      0.0645531564950943,
      0.12238340824842453,
      0.08354367315769196,
      0.09438576549291611,
      -0.06382253021001816,
      0.004411684349179268,
      0.050569575279951096,
      0.02813204750418663,
      0.02740168571472168,
      0.09563732892274857,
      -0.023081474006175995,
      -0.08624201267957687,
      0.0005115178064443171,
      0.10476411134004593,
      0.05430625379085541,
      -0.07620357722043991,
      0.09722363203763962,
      -0.06213148310780525,
      -0.13419997692108154,
      -0.060641027987003326
    ],
    [
      0.007259307894855738,
      -0.008703101426362991,
      0.0225050151348114,
      0.1498543918132782,
      -0.16716521978378296,
      -0.08022075146436691,
      -0.16443350911140442,
      0.044691041111946106,
      -0.19479826092720032,
      0.18082831799983978,
      -0.08443308621644974,
      -0.00840080063790083,
      -0.16489672660827637,
      -0.034141603857278824,
      0.19537167251110077,
      -0.12218588590621948,
      -0.0170983225107193,
      -0.11220122873783112,
      0.10825171321630478,
      0.03672747686505318,
      -0.04409404844045639,
      -0.17722128331661224,
      0.18504859507083893,
      0.00489174434915185,
      -0.0320158451795578,
      -0.021741630509495735,
      0.05622682347893715,
      -0.012375036254525185,
      0.1522946059703827,
      -0.042288888245821,
      0.19591201841831207,
      0.07211687415838242,
      -0.09291674941778183,
      -0.02688821777701378,
      0.08543422818183899,
      -0.03828565403819084,
      -0.24911783635616302,
      -0.04195549711585045,
      -0.04290725663304329,
      0.08007340133190155,
      0.055145975202322006,
      0.017071770504117012,
      -0.19920028746128082,
      0.05758998915553093,
      0.10477808117866516,
      0.04600665718317032,
      -0.21275176107883453,
      -0.1376945674419403,
      0.1146521121263504,
      -0.006369302049279213,
      0.10329889506101608,
      -0.002990063512697816,
      0.14735829830169678,
      -0.012005792930722237,
      0.017426669597625732,
      -0.06443498283624649,
      0.04211286082863808,
      0.19281388819217682,
      0.09243632853031158,
      -0.026619013398885727,
      0.06102125346660614,
      0.16412192583084106,
      0.11426958441734314,
      -0.16812387108802795
    ],
    [
      0.015093125402927399,
      -0.08670970797538757,
      -0.10349021106958389,
      0.04908664524555206,
      -0.07804105430841446,
      -0.0038067069835960865,
      -0.09091968089342117,
      -0.13230012357234955,
      -0.08559625595808029,
      -0.11229913681745529,
      0.14831377565860748,
      -0.06529702246189117,
      0.0923062413930893,
      0.048770125955343246,
      -0.0002983202284667641,
      0.036330949515104294,
      0.04742594063282013,
      -0.0003401039575692266,
      -0.05088646337389946,
      -0.08330658078193665,
      0.05799095705151558,
      -0.049342092126607895,
      -0.045433659106492996,
      -0.10843053460121155,
      -0.08608770370483398,
      0.111338771879673,
      -0.08269064873456955,
      -0.022594846785068512,
      0.061826858669519424,
      0.10395371168851852,
      0.1247398853302002,
      0.1026512011885643,
      -0.1375034600496292,
      0.12465071678161621,
      0.0531393401324749,
      0.08831895887851715,
      -0.15392853319644928,
      -0.18529540300369263,
      0.04541756957769394,
      0.0762074738740921,
      -0.0013207538286224008,
      0.10255931317806244,
      -0.09976543486118317,
      -0.08036307245492935,
      0.0043987371027469635,
      0.037710484117269516,
      0.07630348205566406,
      0.1690274029970169,
      0.07920455187559128,
      -0.11483799666166306,
      0.1108260229229927,
      -0.038334622979164124,
      0.0550651028752327,
      0.05036509037017822,
      0.09253313392400742,
      -0.024451633915305138,
      -0.06807931512594223,
      -0.035526521503925323,
      0.07656149566173553,
      -0.15590548515319824,
      0.04677842929959297,
      -0.11791858077049255,
      0.06729669123888016,
      -0.0989832878112793
    ],
    [
      -0.016678130254149437,
      0.11954768002033234,
      -0.08376692980527878,
      -0.02145242877304554,
      0.06398288905620575,
      0.08389976620674133,
      0.02986091375350952,
      0.04794315621256828,
      0.030601024627685547,
      0.09948523342609406,
      -0.05336266756057739,
      -0.1089368462562561,
      0.049487560987472534,
      -0.09177516400814056,
      -0.020163705572485924,
      -0.09487558901309967,
      -0.05694914236664772,
      -0.09260216355323792,
      0.026440054178237915,
      0.0426873154938221,
      0.09116014093160629,
      -0.09716010093688965,
      0.0631147176027298,
      -0.07180710881948471,
      -0.03920595720410347,
      0.08479399234056473,
      -0.10020159929990768,
      0.008917790837585926,
      0.008371097035706043,
      0.05995246767997742,
      -0.04450511932373047,
      0.12668950855731964,
      -0.0979679524898529,
      0.007855473086237907,
      0.008944094181060791,
      0.14991146326065063,
      0.06933849304914474,
      0.03368823602795601,
      -0.0036075583193451166,
      0.1150527372956276,
      -0.03550680726766586,
      0.0619201734662056,
      0.09852246195077896,
      -0.0014168149791657925,
      -0.007044257130473852,
      0.1251845508813858,
      0.0878574401140213,
      -0.053609952330589294,
      -0.09949056804180145,
      -0.04124552384018898,
      0.036802276968955994,
      -0.06370051205158234,
      0.04486435279250145,
      -0.10157445073127747,
      -0.1064138188958168,
      -0.13601545989513397,
      -0.025578636676073074,
      -0.04531213268637657,
      -0.052690520882606506,
      -0.07438680529594421,
      0.014468894340097904,
      0.0528431199491024,
      -0.025576148182153702,
      0.02677767165005207
    ],
    [
      0.10479860007762909,
      -0.11928901076316833,
      -0.14749787747859955,
      -0.06039001792669296,
      0.059870146214962006,
      0.10625867545604706,
      0.02021271362900734,
      -0.028088683262467384,
      0.05673311650753021,
      -0.08077247440814972,
      0.024642087519168854,
      -0.20771412551403046,
      0.14669354259967804,
      -0.06096445024013519,
      -0.09718025475740433,
      0.1275988072156906,
      0.06004582345485687,
      0.15623320639133453,
      -0.03764864429831505,
      0.050411406904459,
      -0.003972901962697506,
      -0.048537202179431915,
      -0.1345750093460083,
      0.11928663402795792,
      0.09640691429376602,
      0.011253157630562782,
      -0.124918133020401,
      0.03759044036269188,
      -0.03527317941188812,
      0.008294151164591312,
      -0.09253226220607758,
      0.031167246401309967,
      -0.0580458901822567,
      0.0016809836961328983,
      0.058434367179870605,
      -0.08161045610904694,
      0.0846870020031929,
      0.1638249307870865,
      0.10717877745628357,
      0.06929095834493637,
      -0.13197259604930878,
      -0.17000442743301392,
      0.16858918964862823,
      0.05569418519735336,
      0.006770136766135693,
      -0.06615401804447174,
      0.01009244006127119,
      0.06888911128044128,
      -0.17532074451446533,
      0.059147004038095474,
      -0.04408090189099312,
      0.11852586269378662,
      -0.03619801253080368,
      -0.18696297705173492,
      -0.0014939444372430444,
      0.030124807730317116,
      0.023781826719641685,
      -0.02392284758388996,
      -0.19556081295013428,
      0.06486998498439789,
      -0.009454816579818726,
      -0.0026608987245708704,
      0.06960926204919815,
      0.1277746707201004
    ],
    [
      0.07226844131946564,
      0.03671477362513542,
      -0.06970486789941788,
      0.0936618521809578,
      -0.057531896978616714,
      -0.02741261012852192,
      -0.16198469698429108,
      -0.05675247684121132,
      -0.13214534521102905,
      0.11724360287189484,
      0.11810054630041122,
      0.010570891201496124,
      -0.09315825998783112,
      -0.05044584348797798,
      0.0009930375963449478,
      -0.11757251620292664,
      -0.03831962123513222,
      0.033392585813999176,
      -0.007676385343074799,
      0.008268906734883785,
      0.08126369118690491,
      -0.02376050502061844,
      -0.07990922778844833,
      -0.07301656901836395,
      -0.09989093989133835,
      -0.025141287595033646,
      0.05821536108851433,
      0.02418331243097782,
      0.10377196222543716,
      -0.10292109847068787,
      0.14341089129447937,
      -0.006352229043841362,
      -0.19215969741344452,
      0.05333787202835083,
      -0.005702393129467964,
      0.02751169353723526,
      -0.1351798176765442,
      -0.031768109649419785,
      0.02899238094687462,
      0.058841876685619354,
      0.12531331181526184,
      0.06009310111403465,
      -0.18577119708061218,
      0.009636623784899712,
      0.05127716064453125,
      -0.09190163761377335,
      0.06066485866904259,
      0.171381413936615,
      0.09600900858640671,
      0.04950200393795967,
      -0.06272634118795395,
      -0.0773172527551651,
      -0.008139901794493198,
      0.1355849951505661,
      -0.12506292760372162,
      -0.02552240714430809,
      0.12284297496080399,
      -0.04467208310961723,
      0.13173352181911469,
      -0.15196378529071808,
      0.026689540594816208,
      0.047100819647312164,
      -0.039251863956451416,
      -0.03984976187348366
    ],
    [
      -0.08245091140270233,
      0.09400847554206848,
      -0.06641873717308044,
      -0.032396167516708374,
      0.090421661734581,
      0.10538391023874283,
      -0.0369119793176651,
      -0.023781437426805496,
      -0.042413581162691116,
      -0.06695602089166641,
      -0.020029880106449127,
      0.048999179154634476,
      0.11346559971570969,
      0.09130515903234482,
      0.037341419607400894,
      -0.0376361645758152,
      0.10900931805372238,
      -0.03168295696377754,
      0.06016571447253227,
      -0.14367005228996277,
      0.039538539946079254,
      0.059460677206516266,
      -0.06253337115049362,
      -0.038483161479234695,
      -0.0014993123477324843,
      -0.0745186060667038,
      0.04005030542612076,
      0.05227285251021385,
      0.11070097982883453,
      0.0888981968164444,
      0.0913369208574295,
      0.011458986438810825,
      -0.02364966832101345,
      -0.010107127018272877,
      0.014374780468642712,
      0.00896539632230997,
      -0.045033589005470276,
      0.01283955480903387,
      0.03735009580850601,
      -0.07437853515148163,
      -0.06554827839136124,
      0.12155821174383163,
      -0.09036754816770554,
      -0.06973408907651901,
      0.038136981427669525,
      -0.02074684575200081,
      0.1139296144247055,
      0.024324974045157433,
      -0.08330094814300537,
      0.08031225949525833,
      -0.06096741929650307,
      0.0902634784579277,
      0.007877771742641926,
      -0.05326554924249649,
      0.00710917916148901,
      -0.060434721410274506,
      0.0720665231347084,
      -0.023740747943520546,
      -0.068209707736969,
      -0.03488950803875923,
      -0.06127112731337547,
      -0.0014084733556956053,
      0.1224488690495491,
      0.024049891158938408
    ],
    [
      0.009444252587854862,
      0.036813534796237946,
      0.08148620277643204,
      0.0008157019037753344,
      0.1198175847530365,
      0.06580749154090881,
      -0.049879759550094604,
      0.08795033395290375,
      0.060307618230581284,
      0.11430200189352036,
      -0.04095752164721489,
      -0.09714850038290024,
      -0.09853395819664001,
      -0.020140381529927254,
      -0.12572690844535828,
      0.028588972985744476,
      0.07542020827531815,
      0.06281273812055588,
      0.015739044174551964,
      0.00015789819008205086,
      -0.07579486817121506,
      0.11539158970117569,
      0.019033201038837433,
      0.060020871460437775,
      -0.10607031732797623,
      -0.1216675266623497,
      0.0745965763926506,
      -0.06594081968069077,
      -0.03307904303073883,
      0.0031105733942240477,
      0.10475340485572815,
      -0.013857301324605942,
      -0.07559613138437271,
      -0.029465358704328537,
      0.09166262298822403,
      0.07845864444971085,
      -0.011571344919502735,
      0.008318274281919003,
      0.0141236437484622,
      0.01968122273683548,
      0.094758041203022,
      -0.11048141866922379,
      0.07998719811439514,
      -0.12420318275690079,
      -0.09440042823553085,
      0.08511756360530853,
      -0.022037774324417114,
      -0.11777984350919724,
      0.04448280856013298,
      0.08256331831216812,
      -0.11281631141901016,
      -0.05688134953379631,
      0.09352736920118332,
      -0.05268930643796921,
      0.059407394379377365,
      -0.013428403064608574,
      0.017999690026044846,
      -0.07260459661483765,
      0.042380440980196,
      -0.07639123499393463,
      -0.044223587960004807,
      -0.10332668572664261,
      -0.028110668063163757,
      -0.06584352999925613
    ],
    [
      -0.000168296362971887,
      -0.12325085699558258,
      -0.05673704296350479,
      0.012081879191100597,
      0.048870574682950974,
      0.03519443795084953,
      -0.060914404690265656,
      0.06253927946090698,
      -0.07687501609325409,
      -0.06434807181358337,
      -0.06066947057843208,
      -0.13204151391983032,
      -0.06990428268909454,
      -0.10212907940149307,
      0.11504867672920227,
      0.11491049826145172,
      0.09144764393568039,
      -0.11779698729515076,
      0.06070367246866226,
      -0.03195791319012642,
      -0.10273317247629166,
      0.0032754780258983374,
      -0.09861738979816437,
      0.02956135757267475,
      0.02273678593337536,
      -0.08602429926395416,
      0.04073331505060196,
      -0.07273196429014206,
      -0.004763694480061531,
      -0.0030019646510481834,
      -0.04242989048361778,
      -0.12816773355007172,
      0.013157613575458527,
      -0.044236570596694946,
      -0.05690468102693558,
      -0.03457271680235863,
      0.024702537804841995,
      0.12159207463264465,
      0.08439350128173828,
      -0.11155501008033752,
      -0.045117683708667755,
      -0.1681283563375473,
      0.09999691694974899,
      0.11805850267410278,
      0.09247288852930069,
      -0.05715952813625336,
      0.025858554989099503,
      -0.13871896266937256,
      -0.13270317018032074,
      -0.09465279430150986,
      -0.013106759637594223,
      -0.09723298251628876,
      -0.1261741667985916,
      -0.03955952823162079,
      -0.02543964795768261,
      0.0417756550014019,
      -0.09434313327074051,
      -0.07203236222267151,
      0.042376358062028885,
      -0.12383917719125748,
      -0.018901178613305092,
      0.025007735937833786,
      0.08071338385343552,
      -0.1106882244348526
    ],
    [
      0.06737833470106125,
      -0.05988948047161102,
      0.019659072160720825,
      0.0035519320517778397,
      0.07130762934684753,
      0.1114906296133995,
      -0.05737181380391121,
      0.04888632148504257,
      -0.0034565834794193506,
      0.08951202780008316,
      -0.07553545385599136,
      -0.07625708729028702,
      -0.025326993316411972,
      0.06242702901363373,
      -0.07709220796823502,
      0.0780733972787857,
      -0.056183360517024994,
      0.11140549182891846,
      -0.01889711245894432,
      -0.006798216607421637,
      0.04412767291069031,
      -0.10887748748064041,
      0.03737051039934158,
      0.06344158947467804,
      -0.09594444185495377,
      -0.09024272114038467,
      0.08960624039173126,
      0.024918358772993088,
      0.0022886015940457582,
      0.10512299090623856,
      -0.04624257609248161,
      0.0698351040482521,
      -0.09487691521644592,
      -0.06995472311973572,
      0.06503341346979141,
      -0.10076531022787094,
      -0.02678736113011837,
      -0.029782326892018318,
      -0.049482498317956924,
      0.10206883400678635,
      -0.058192651718854904,
      0.10142980515956879,
      0.09286616742610931,
      -0.13062220811843872,
      0.0897916778922081,
      0.065358005464077,
      0.07574383914470673,
      -0.08919551223516464,
      -0.04432270675897598,
      0.036437783390283585,
      -0.03155786171555519,
      0.11762735247612,
      -0.06228078156709671,
      0.026490848511457443,
      0.05561687797307968,
      -0.09266533702611923,
      -0.025996658951044083,
      0.06119365990161896,
      -0.04661225900053978,
      0.10970823466777802,
      0.0029293224215507507,
      -0.10235127806663513,
      -0.04380859062075615,
      -0.11489434540271759
    ],
    [
      -0.031033996492624283,
      0.1145002692937851,
      0.08164963871240616,
      0.09221933037042618,
      -0.07513285428285599,
      0.06681177020072937,
      0.09834898263216019,
      -0.12955467402935028,
      -0.00819458719342947,
      -0.054053522646427155,
      0.0995292067527771,
      0.008662436157464981,
      -0.056583695113658905,
      0.08005881309509277,
      -0.026839232072234154,
      -0.13576628267765045,
      -0.034900590777397156,
      0.006124699488282204,
      -0.0033283240627497435,
      -0.12686452269554138,
      -0.030076298862695694,
      0.08070185035467148,
      0.08935774117708206,
      0.10184091329574585,
      -0.11151662468910217,
      0.11703904718160629,
      -0.06903751194477081,
      -0.000789100187830627,
      -0.04320308193564415,
      0.08391807228326797,
      -0.027331827208399773,
      0.07268579304218292,
      0.08497019857168198,
      -0.06672893464565277,
      -0.052113451063632965,
      0.0224724430590868,
      -0.036980316042900085,
      0.0020310499239712954,
      -0.09274356067180634,
      0.004289892967790365,
      0.012764932587742805,
      0.10086200386285782,
      0.12637479603290558,
      0.09271012246608734,
      -0.04152875021100044,
      0.05550635978579521,
      -0.034106191247701645,
      -0.0713985338807106,
      -0.08849397301673889,
      0.0681709498167038,
      -0.0007019942859187722,
      -0.09469491988420486,
      -0.004717138130217791,
      0.0303898174315691,
      -0.01693703606724739,
      0.054575081914663315,
      -0.03092280961573124,
      -0.09994521737098694,
      -0.0932266116142273,
      -0.00906946137547493,
      -0.0394505113363266,
      -0.10279106348752975,
      0.03954621031880379,
      -0.005940383765846491
    ],
    [
      0.06985634565353394,
      -0.030549658462405205,
      0.14949411153793335,
      0.01880427449941635,
      -0.1676356941461563,
      -0.00408956129103899,
      -0.0022718491964042187,
      -0.007406636141240597,
      -0.14564497768878937,
      0.0756288394331932,
      0.0815991461277008,
      0.12106399983167648,
      -0.027528492733836174,
      -0.027416741475462914,
      0.1320294737815857,
      -0.15163692831993103,
      -0.06613851338624954,
      -0.10101266950368881,
      -0.045901451259851456,
      -0.10590559989213943,
      0.0830700695514679,
      -0.072489432990551,
      0.14473287761211395,
      0.03298472985625267,
      -0.014465929009020329,
      -0.006017993204295635,
      -0.06811358779668808,
      -0.08494243025779724,
      0.15341544151306152,
      -0.04630991816520691,
      0.047325558960437775,
      -0.08252593129873276,
      -0.1047632247209549,
      -0.10070686042308807,
      0.05745689943432808,
      -0.03579200431704521,
      -0.1608860343694687,
      -0.11898469179868698,
      0.07597681134939194,
      0.14605830609798431,
      0.16281475126743317,
      0.04679718613624573,
      -0.07649162411689758,
      0.06672665476799011,
      0.11583054810762405,
      -0.05968841165304184,
      -0.13981196284294128,
      -0.09004371613264084,
      0.1780184954404831,
      0.10284073650836945,
      0.15098907053470612,
      -0.1979234516620636,
      -0.014125696383416653,
      -0.016650604084134102,
      -0.07271286845207214,
      -0.030192822217941284,
      0.01924603246152401,
      0.04571559280157089,
      0.1154421791434288,
      -0.18742898106575012,
      0.03450314700603485,
      0.11897780001163483,
      0.10036938637495041,
      -0.18283797800540924
    ],
    [
      -0.08830148726701736,
      0.07444921880960464,
      -0.019038882106542587,
      0.02490442618727684,
      0.01354143675416708,
      0.15919697284698486,
      0.08886101841926575,
      -0.0119322519749403,
      0.009178025647997856,
      -0.08481207489967346,
      0.0236637182533741,
      0.017311280593276024,
      0.0698615163564682,
      0.10912002623081207,
      -0.07542091608047485,
      -0.05384577065706253,
      -0.016426680609583855,
      0.0565420538187027,
      -0.14498978853225708,
      0.12019947171211243,
      -0.03808073326945305,
      0.014962572604417801,
      -0.020003851503133774,
      -0.08909328281879425,
      0.02237534523010254,
      0.11494621634483337,
      0.06060081720352173,
      0.0549163781106472,
      -0.01590174064040184,
      0.006827127188444138,
      -0.06405884027481079,
      -0.07081983983516693,
      -0.0012309616431593895,
      -0.045459385961294174,
      -0.10185714811086655,
      0.028851523995399475,
      0.03327997773885727,
      -0.1223931536078453,
      0.06830614060163498,
      0.1298886388540268,
      -0.04243387281894684,
      0.08850188553333282,
      -0.028178362175822258,
      0.011985477060079575,
      0.005532459355890751,
      0.06629309803247452,
      -0.04933396726846695,
      -0.00019841948233079165,
      -0.10345954447984695,
      0.07743499428033829,
      0.05322485789656639,
      0.07451185584068298,
      -0.07848314195871353,
      -0.012680803425610065,
      0.06164247915148735,
      -0.15455640852451324,
      0.0789884552359581,
      -0.05774690583348274,
      -0.1023225262761116,
      -0.09807547181844711,
      0.1622561514377594,
      0.09312132000923157,
      -0.047751668840646744,
      0.03719030320644379
    ],
    [
      0.055233415216207504,
      -0.13769030570983887,
      -0.019247910007834435,
      -0.00523870624601841,
      0.10230544954538345,
      -0.02084893360733986,
      0.009626476094126701,
      -0.04533284902572632,
      0.1705872118473053,
      -0.0017834175378084183,
      0.02651415392756462,
      -0.162105992436409,
      0.10837610810995102,
      -0.1580074578523636,
      -0.0390947051346302,
      0.24514088034629822,
      0.18912570178508759,
      0.1210007593035698,
      -0.0874502956867218,
      0.15038084983825684,
      0.0035915605258196592,
      0.0331752635538578,
      -0.034313105046749115,
      0.13157762587070465,
      0.17247021198272705,
      0.031530410051345825,
      -0.15647102892398834,
      -0.03265656530857086,
      -0.029414813965559006,
      0.06116192415356636,
      -0.012616041116416454,
      -0.0007961067603901029,
      0.15865351259708405,
      0.06880511343479156,
      -0.18029698729515076,
      0.01934083364903927,
      0.13919341564178467,
      0.19288812577724457,
      0.1348147988319397,
      -0.17401593923568726,
      -0.026374608278274536,
      -0.17375944554805756,
      0.21391278505325317,
      0.06700531393289566,
      -0.05483538657426834,
      -0.13444796204566956,
      0.19858387112617493,
      0.004409770015627146,
      -0.1398213505744934,
      0.03726527839899063,
      0.018261052668094635,
      0.14841505885124207,
      -0.025354711338877678,
      0.035923752933740616,
      0.21041037142276764,
      -0.08297096192836761,
      -0.15794406831264496,
      -0.21880345046520233,
      -0.16589288413524628,
      0.2001497447490692,
      0.026975082233548164,
      -0.03472080081701279,
      -0.12593096494674683,
      0.14996936917304993
    ],
    [
      0.12747308611869812,
      0.06994183361530304,
      -0.01132025197148323,
      -0.11774115264415741,
      -0.011898897588253021,
      -0.12417035549879074,
      0.11370401829481125,
      -0.013164795003831387,
      -0.0008096690871752799,
      -0.06548753380775452,
      0.09118662029504776,
      0.07854969799518585,
      0.11854583770036697,
      -0.11920776963233948,
      0.03998486325144768,
      0.11216157674789429,
      -0.03707767650485039,
      -0.12083080410957336,
      -0.10387951135635376,
      0.11887226998806,
      -0.08774522691965103,
      0.09915509819984436,
      0.023046081885695457,
      -0.09983179718255997,
      -0.10191330313682556,
      0.04908738285303116,
      -0.12188701331615448,
      -0.03763313591480255,
      0.07735170423984528,
      0.017352307215332985,
      0.1155778020620346,
      0.06633952260017395,
      0.006080889608711004,
      -0.09191359579563141,
      -0.07719922065734863,
      0.10094790905714035,
      -0.0491068996489048,
      -0.10203864425420761,
      0.07749678194522858,
      0.09531378000974655,
      -0.08226127177476883,
      0.0047806487418711185,
      0.0004383479245007038,
      -0.062133681029081345,
      0.046535756438970566,
      -0.017986251041293144,
      -0.12117590755224228,
      0.10859235376119614,
      -0.08563555032014847,
      -0.0842115581035614,
      -0.056642789393663406,
      -0.06224827468395233,
      0.021195735782384872,
      0.12072597444057465,
      -0.09256666153669357,
      -0.00790973100811243,
      0.06539527326822281,
      -0.08525559306144714,
      -0.12752562761306763,
      -0.039857640862464905,
      -0.09351421892642975,
      -0.02452431246638298,
      -0.00264041218906641,
      0.0506916269659996
    ],
    [
      -0.004938879515975714,
      0.004047471564263105,
      -0.05175936594605446,
      -0.11417005956172943,
      -0.09381691366434097,
      -0.03429850935935974,
      -0.023494061082601547,
      0.11123517155647278,
      -0.02021920680999756,
      -0.06931473314762115,
      -0.059264544397592545,
      -0.020356180146336555,
      -0.11233093589544296,
      0.05989446863532066,
      0.12135118246078491,
      -0.11795389652252197,
      -0.03827252984046936,
      0.09334193915128708,
      -0.02046906389296055,
      -0.0676712766289711,
      -0.10885941982269287,
      -0.06278589367866516,
      -0.0014937386149540544,
      0.1227119043469429,
      -0.06577257812023163,
      0.051578499376773834,
      0.08485232293605804,
      -0.0030156169086694717,
      -0.07195870578289032,
      -0.04610396549105644,
      -0.0932198017835617,
      -0.004670639056712389,
      -0.02923375926911831,
      -0.06818989664316177,
      -0.10713040828704834,
      0.05069766938686371,
      0.014196904376149178,
      0.08132059127092361,
      -0.08124356716871262,
      -0.01220949087291956,
      0.08268438279628754,
      0.0725269466638565,
      -0.03170332685112953,
      -0.083553746342659,
      0.08045961707830429,
      0.025421135127544403,
      0.095566526055336,
      0.04141228273510933,
      0.02734587900340557,
      -0.06365032494068146,
      0.10127387195825577,
      0.0020603351294994354,
      0.05855599045753479,
      -0.03011021390557289,
      -0.022290783002972603,
      0.019944999366998672,
      -0.09516535699367523,
      0.09057223796844482,
      0.08159545063972473,
      0.05838881433010101,
      0.06906966865062714,
      -0.01498361211270094,
      -0.018870962783694267,
      0.040463097393512726
    ],
    [
      -0.01947367750108242,
      -0.009862731210887432,
      -0.06864819675683975,
      -0.01991940662264824,
      0.061208512634038925,
      -0.011088903062045574,
      0.033068764954805374,
      0.03169924020767212,
      0.10226204991340637,
      0.14099128544330597,
      -0.0020422290544956923,
      0.12046341598033905,
      0.10273116827011108,
      0.11562187224626541,
      -0.04293697699904442,
      -0.029681505635380745,
      -0.04364082217216492,
      -0.004237900488078594,
      0.009229497984051704,
      -0.0066891321912407875,
      -0.011070994660258293,
      0.002850806340575218,
      0.09733476489782333,
      -0.08837196230888367,
      0.06402241438627243,
      0.005995306186378002,
      0.1338483691215515,
      0.07410665601491928,
      -0.030894774943590164,
      -0.1120939776301384,
      0.0607641376554966,
      0.01701883226633072,
      0.09023728221654892,
      -0.05972043052315712,
      -0.04937627539038658,
      0.040176328271627426,
      0.06015748530626297,
      0.01809173822402954,
      0.014763805083930492,
      -0.06809474527835846,
      0.0008823646930977702,
      -0.007785322610288858,
      -0.05725874751806259,
      -0.06591448187828064,
      -0.09235229343175888,
      -0.08683318644762039,
      -0.03397366404533386,
      -0.011410253122448921,
      0.03237343207001686,
      -0.09664811939001083,
      0.019106436520814896,
      -0.013434937223792076,
      0.06742019951343536,
      0.018421947956085205,
      -0.0916280597448349,
      0.019559185951948166,
      -0.047262195497751236,
      -0.031031185761094093,
      -0.049107614904642105,
      -0.025722108781337738,
      0.0373416431248188,
      -0.002223839983344078,
      0.08856481313705444,
      -0.06335674226284027
    ],
    [
      0.06984660774469376,
      -0.07441506534814835,
      0.03570958599448204,
      0.024853473529219627,
      -0.0025837719440460205,
      -0.04837867617607117,
      -0.02925531193614006,
      -0.023276343941688538,
      -0.13449454307556152,
      0.031615227460861206,
      -0.05477874353528023,
      -0.07885564863681793,
      -0.05699539929628372,
      -0.07378857582807541,
      -0.05447354167699814,
      -0.010880128480494022,
      -0.007465652655810118,
      -0.1347683072090149,
      -0.07132478058338165,
      0.04485177621245384,
      0.045207466930150986,
      0.07563462108373642,
      -0.020595068112015724,
      0.05111334100365639,
      -0.04959026351571083,
      -0.1294766068458557,
      -0.05341319739818573,
      0.019046207889914513,
      0.0597396083176136,
      -0.014457319863140583,
      0.036700326949357986,
      0.015781743451952934,
      -0.052837107330560684,
      0.006205305457115173,
      -0.11868318170309067,
      -0.03317761793732643,
      -0.009847871959209442,
      -0.12170771509408951,
      -0.05021126940846443,
      -0.0050355857238173485,
      0.10052304714918137,
      0.01755008101463318,
      -0.10800489038228989,
      -0.11768854409456253,
      -0.12003956735134125,
      -0.09654666483402252,
      0.05036671459674835,
      0.1271183043718338,
      -0.011103766039013863,
      -0.07194678485393524,
      0.10951030999422073,
      0.03345649689435959,
      -0.06779312342405319,
      0.08852167427539825,
      -0.018187470734119415,
      0.042973730713129044,
      0.005120019894093275,
      -0.06080767884850502,
      -0.12698617577552795,
      -0.11880797892808914,
      -0.004336705897003412,
      -0.030544765293598175,
      -0.010531305335462093,
      -0.11382363736629486
    ],
    [
      -0.09283537417650223,
      0.031240740790963173,
      -0.046333201229572296,
      -0.20266516506671906,
      0.07987145334482193,
      -0.04565434530377388,
      0.0974346250295639,
      -0.11892702430486679,
      0.10711877793073654,
      0.009471457451581955,
      -0.039362356066703796,
      -0.06571492552757263,
      -0.07723350822925568,
      -0.018633674830198288,
      0.010220332071185112,
      0.018938198685646057,
      0.10409685224294662,
      0.07000734657049179,
      -0.04227135702967644,
      0.14318852126598358,
      -0.04407928138971329,
      -0.0901055857539177,
      -0.11481846868991852,
      0.11390199512243271,
      0.16372275352478027,
      -0.1217443197965622,
      0.043088942766189575,
      -0.1276947557926178,
      -0.08610489964485168,
      0.0037899522576481104,
      -0.0856897309422493,
      -0.033985961228609085,
      0.06252892315387726,
      -0.006234311498701572,
      0.03703689202666283,
      -0.07626602798700333,
      0.011817612685263157,
      -0.050816770642995834,
      -0.0841037705540657,
      -0.11592218279838562,
      -0.01587221398949623,
      -0.13260047137737274,
      0.06609632819890976,
      0.08876778930425644,
      -0.1396351456642151,
      -0.15009722113609314,
      0.08229012787342072,
      0.11677799373865128,
      -0.15277501940727234,
      0.0031136595644056797,
      -0.03376162797212601,
      0.0321357436478138,
      -0.1038704365491867,
      0.0719020888209343,
      0.00643842201679945,
      0.010087675414979458,
      -0.05225396156311035,
      -0.032873719930648804,
      -0.041793640702962875,
      0.08237185329198837,
      0.15575210750102997,
      -0.1364639401435852,
      -0.11208852380514145,
      -0.041995421051979065
    ],
    [
      0.014034915715456009,
      -0.07261374592781067,
      0.15396755933761597,
      -0.07516207545995712,
      -0.025574125349521637,
      0.04097723960876465,
      -0.06847400963306427,
      -0.03414241597056389,
      0.07712233066558838,
      -0.11068538576364517,
      0.09985404461622238,
      -0.0045976401306688786,
      0.05119754746556282,
      0.05870545282959938,
      -0.004857704509049654,
      -0.024213822558522224,
      -0.010052871890366077,
      0.09580789506435394,
      -0.08061523735523224,
      -0.11510396748781204,
      -0.09307224303483963,
      0.06726335734128952,
      0.12015638500452042,
      -0.05519283190369606,
      0.15596388280391693,
      0.10587305575609207,
      0.0358753576874733,
      0.04479333013296127,
      0.06414429843425751,
      -0.02623748406767845,
      -0.0939418151974678,
      0.03887420892715454,
      0.07804525643587112,
      0.05424780771136284,
      -0.07205825299024582,
      0.031646545976400375,
      0.045799724757671356,
      -0.09548873454332352,
      -0.0827970951795578,
      0.06108691543340683,
      0.08140944689512253,
      0.008270066231489182,
      -0.05670643225312233,
      0.1250976026058197,
      0.01422831416130066,
      -0.026998525485396385,
      -0.06906832754611969,
      0.09389172494411469,
      -0.003929208964109421,
      -0.10227086395025253,
      0.011550725437700748,
      -0.034487828612327576,
      0.11448577791452408,
      -0.08877471834421158,
      0.10211487114429474,
      -0.11454823613166809,
      -0.08497199416160583,
      0.09015502035617828,
      0.03341362625360489,
      0.05058736354112625,
      -0.04458794742822647,
      0.06702189147472382,
      -0.06721086800098419,
      0.009357837028801441
    ],
    [
      -0.08353665471076965,
      -0.03816448524594307,
      -0.21283763647079468,
      -0.21227115392684937,
      0.10161873698234558,
      -0.13028866052627563,
      0.004089250694960356,
      -0.17849849164485931,
      0.0950426310300827,
      -0.08339238911867142,
      -0.030577262863516808,
      -0.0757126435637474,
      0.04921378195285797,
      -0.10356394201517105,
      -0.07526742666959763,
      0.04097406938672066,
      0.12410435825586319,
      0.1807035505771637,
      0.11698991805315018,
      0.059235360473394394,
      -0.026218706741929054,
      0.1554645150899887,
      -0.06863045692443848,
      0.03332851827144623,
      0.14354994893074036,
      -0.13111142814159393,
      -0.12494390457868576,
      -0.006809120532125235,
      -0.012419710867106915,
      0.057471394538879395,
      0.016798168420791626,
      0.04247692599892616,
      0.19306640326976776,
      0.06053941324353218,
      0.07097333669662476,
      0.04169129580259323,
      0.18671776354312897,
      0.06923002749681473,
      0.1405823975801468,
      -0.11800388991832733,
      0.012589395977556705,
      -0.06198083236813545,
      0.056552302092313766,
      -0.025522025302052498,
      -0.08164789527654648,
      -0.04405146837234497,
      0.03703911602497101,
      0.02562905102968216,
      -0.17139415442943573,
      0.156667560338974,
      -0.14006027579307556,
      0.02069883979856968,
      -0.13819026947021484,
      -0.10397887229919434,
      0.10946666449308395,
      0.07887303829193115,
      -0.1540909707546234,
      -0.007616613060235977,
      -0.010438136756420135,
      0.057629216462373734,
      -0.014172314666211605,
      -0.059042204171419144,
      -0.14375533163547516,
      0.15123587846755981
    ],
    [
      0.039708174765110016,
      0.12606889009475708,
      -0.04327525198459625,
      0.15722276270389557,
      -0.02074589394032955,
      0.12388543039560318,
      -0.08000044524669647,
      0.10613543540239334,
      -0.04194425791501999,
      -0.06196146458387375,
      -0.039985984563827515,
      0.08313999325037003,
      0.008347565308213234,
      0.0269708763808012,
      0.009533445350825787,
      -0.044818684458732605,
      -0.06806207448244095,
      -0.03153500333428383,
      0.03871696814894676,
      -0.11916449666023254,
      0.07357660681009293,
      -0.039512086659669876,
      -0.06072847917675972,
      0.026450693607330322,
      0.026658067479729652,
      0.12317734956741333,
      0.09786123782396317,
      0.02632172778248787,
      0.13901787996292114,
      -0.09166841953992844,
      0.053483594208955765,
      0.02790830470621586,
      -0.23348885774612427,
      -0.03316696733236313,
      -0.006029617041349411,
      0.034331709146499634,
      -0.15005771815776825,
      -0.12009534239768982,
      -0.08010727912187576,
      0.02988976053893566,
      0.0026642887387424707,
      0.12259197980165482,
      -0.13903352618217468,
      0.10360706597566605,
      0.07632633298635483,
      -0.017100129276514053,
      -0.15204261243343353,
      0.07597338408231735,
      -0.016399124637246132,
      0.03001120127737522,
      -0.03918495401740074,
      -0.20349842309951782,
      -0.04824064299464226,
      0.18364211916923523,
      -0.13530239462852478,
      -0.0007491786382161081,
      0.17402556538581848,
      0.16767548024654388,
      0.1445966362953186,
      -0.06654700636863708,
      -0.08038422465324402,
      0.08970104157924652,
      0.03551433980464935,
      -0.08064860105514526
    ],
    [
      -0.03238174691796303,
      0.08454466611146927,
      0.05443090200424194,
      0.06760301440954208,
      0.05018087103962898,
      -0.018445411697030067,
      -0.0824887752532959,
      -0.06371978670358658,
      0.08529390394687653,
      -0.0015253763413056731,
      0.054769113659858704,
      -0.12012546509504318,
      0.103879913687706,
      -0.021551169455051422,
      -0.01478611771017313,
      0.05688789486885071,
      0.0854029580950737,
      -0.0410972498357296,
      0.08680123835802078,
      0.06891755759716034,
      0.04449848830699921,
      -0.05977560952305794,
      -0.0019208171870559454,
      -0.037767957895994186,
      0.012271958403289318,
      0.0743483453989029,
      -0.06046309694647789,
      -0.04086259379982948,
      0.04218931868672371,
      -0.028374582529067993,
      0.08478262275457382,
      0.013504563830792904,
      0.056618332862854004,
      -0.07035448402166367,
      -0.11530369520187378,
      -0.04798866808414459,
      -0.06346260011196136,
      0.11643020063638687,
      0.005546907894313335,
      -0.032754525542259216,
      -0.07601834833621979,
      0.028435705229640007,
      -0.08400274068117142,
      0.042418140918016434,
      -0.1171712726354599,
      -0.030658718198537827,
      0.10058044642210007,
      -0.03179926797747612,
      0.057925350964069366,
      -0.1099751889705658,
      0.019667532294988632,
      0.09865202009677887,
      -0.14155231416225433,
      0.06507443636655807,
      0.04410399869084358,
      -0.028188209980726242,
      -0.020658066496253014,
      0.07502762228250504,
      -0.018789516761898994,
      -0.036488067358732224,
      -0.008536316454410553,
      -0.10549797117710114,
      -0.10750307142734528,
      -0.07802072167396545
    ],
    [
      0.01933247223496437,
      0.03057851642370224,
      -0.1151796355843544,
      -0.0835777148604393,
      0.1375209391117096,
      0.11359766870737076,
      0.07841600477695465,
      -0.02476753480732441,
      -0.049602556973695755,
      -0.11873983591794968,
      0.05681050568819046,
      0.035202063620090485,
      -0.006496757734566927,
      0.04386913403868675,
      0.06099105253815651,
      -0.0008090219344012439,
      0.1565648317337036,
      -0.05511164665222168,
      0.04472476616501808,
      0.05360235646367073,
      -0.1540047973394394,
      0.07472533732652664,
      -0.1487533152103424,
      -0.02354120835661888,
      0.12662717700004578,
      0.013174223713576794,
      -0.12444189190864563,
      0.023669203743338585,
      -0.04079596325755119,
      -0.00031507399398833513,
      0.028540266677737236,
      -0.0245444867759943,
      -0.026139117777347565,
      0.001270021079108119,
      0.011586650274693966,
      -0.0895623043179512,
      0.09592586010694504,
      0.14876344799995422,
      0.030269009992480278,
      -0.12184703350067139,
      0.007059375289827585,
      -0.06909539550542831,
      0.14621515572071075,
      -0.08783823996782303,
      0.021649440750479698,
      -0.14256232976913452,
      0.0996289849281311,
      0.009222922846674919,
      -0.12711888551712036,
      0.10827216506004333,
      -0.20451787114143372,
      -0.010989967733621597,
      -0.10259150713682175,
      0.04828479140996933,
      0.08655345439910889,
      -0.034761134535074234,
      -0.15885983407497406,
      -0.016725825145840645,
      -0.0975562110543251,
      0.121949203312397,
      -0.08144287019968033,
      -0.01240924745798111,
      0.028560129925608635,
      -0.03878149017691612
    ],
    [
      -0.05937421694397926,
      0.07027924805879593,
      -0.05598021298646927,
      0.034090444445610046,
      -0.10853215306997299,
      -0.04413706436753273,
      -0.1316814422607422,
      -0.05898576229810715,
      -0.1055043563246727,
      0.008862371556460857,
      -0.01981249824166298,
      -0.13953803479671478,
      0.05006071925163269,
      0.12219249457120895,
      -0.09049677848815918,
      0.06455767154693604,
      -0.06838011741638184,
      -0.08409441262483597,
      -0.023026756942272186,
      -0.09419082850217819,
      0.07311960309743881,
      -0.020388329401612282,
      0.09970723092556,
      -0.04483095183968544,
      -0.11553097516298294,
      -0.12449247390031815,
      0.08266018331050873,
      -0.02463008090853691,
      -0.01944258250296116,
      -0.13061273097991943,
      0.06274445354938507,
      0.037735722959041595,
      -0.025591447949409485,
      0.030681682750582695,
      0.07523442804813385,
      0.03714507818222046,
      0.04992670565843582,
      0.09912318736314774,
      0.04111437872052193,
      0.05007083714008331,
      0.01892680488526821,
      -0.14032748341560364,
      -0.04783741384744644,
      -0.12344182282686234,
      -0.09745684266090393,
      -0.005005883052945137,
      0.082582987844944,
      0.047898776829242706,
      0.07816866040229797,
      0.006424409337341785,
      -0.07063804566860199,
      -0.05116669833660126,
      -0.012704550288617611,
      -0.06350848078727722,
      0.08764691650867462,
      -0.09299317002296448,
      0.08861818164587021,
      -0.06033799797296524,
      0.0597568042576313,
      0.09322604537010193,
      0.07484112679958344,
      -0.057032424956560135,
      0.08505570888519287,
      0.0917331799864769
    ],
    [
      -0.007741949986666441,
      0.03880779817700386,
      0.07039624452590942,
      0.01930963806807995,
      -0.17208373546600342,
      0.045709941536188126,
      0.031973183155059814,
      0.047925397753715515,
      -0.07676143199205399,
      0.059826940298080444,
      -0.001440621679648757,
      0.07583844661712646,
      0.04878336936235428,
      -0.07747767865657806,
      -0.026706894859671593,
      -0.07499364018440247,
      -0.1367783397436142,
      -0.02507585473358631,
      0.11368898302316666,
      -0.05832291021943092,
      0.12991558015346527,
      -0.17275729775428772,
      0.01431537326425314,
      -0.1107797622680664,
      -0.09238991886377335,
      0.05324622616171837,
      -0.023832663893699646,
      0.13313153386116028,
      0.10961378365755081,
      -0.11246670037508011,
      0.16073448956012726,
      -0.07734843343496323,
      -0.17160771787166595,
      0.008397401310503483,
      0.08822345733642578,
      0.028328265994787216,
      -0.057274267077445984,
      -0.13696986436843872,
      -0.03868648409843445,
      0.07083548605442047,
      -0.02768373116850853,
      0.039985742419958115,
      -0.09372154623270035,
      -0.0875299796462059,
      0.14514155685901642,
      0.017568398267030716,
      -0.10514663904905319,
      0.000938821118324995,
      0.11774232238531113,
      -0.003860107623040676,
      0.1561564952135086,
      0.023196235299110413,
      0.0501263290643692,
      0.028479797765612602,
      0.049769751727581024,
      0.040143754333257675,
      0.17560654878616333,
      0.1646718829870224,
      -0.06124984845519066,
      -0.13879093527793884,
      -0.14089015126228333,
      0.14852827787399292,
      0.06231560930609703,
      -0.10969000309705734
    ],
    [
      -0.0315200537443161,
      0.0056817904114723206,
      0.017644299194216728,
      -0.06887100636959076,
      -0.0067568873055279255,
      0.172279492020607,
      -0.0915965810418129,
      0.028987431898713112,
      -0.05772022902965546,
      -0.12356572598218918,
      0.08168476074934006,
      -0.13169603049755096,
      -0.03790274262428284,
      0.025971103459596634,
      0.08703278750181198,
      0.08583342283964157,
      -0.05901780351996422,
      -0.06060716137290001,
      -0.013065386563539505,
      -0.04774622246623039,
      -0.12042831629514694,
      0.05462751165032387,
      0.0452534519135952,
      0.027044951915740967,
      -0.06348319351673126,
      -0.11862216889858246,
      -0.06606436520814896,
      0.17912356555461884,
      0.05500414967536926,
      0.02991769276559353,
      0.010942230001091957,
      0.025967465713620186,
      0.05635347589850426,
      -0.0494944304227829,
      0.023864302784204483,
      0.052606698125600815,
      -0.04012150317430496,
      0.05526885762810707,
      0.05890113487839699,
      0.062458332628011703,
      -0.0438414067029953,
      0.005043195094913244,
      -0.026788629591464996,
      0.0864599198102951,
      0.08038074523210526,
      -0.10070551186800003,
      -0.02629568614065647,
      -0.12633538246154785,
      0.07880178838968277,
      -0.09562251716852188,
      0.07170285284519196,
      0.019666068255901337,
      0.07556323707103729,
      -0.05165987089276314,
      0.1505620926618576,
      -0.08625762909650803,
      0.051242612302303314,
      -0.15057986974716187,
      0.02137134224176407,
      0.00899782869964838,
      -0.022111153230071068,
      0.07002763450145721,
      -0.07362431287765503,
      -0.0030129665974527597
    ],
    [
      0.010036608204245567,
      0.030342448502779007,
      -0.07806940376758575,
      0.009392064064741135,
      0.059374794363975525,
      0.0185188427567482,
      -0.0653521865606308,
      0.010351338423788548,
      -0.04845442995429039,
      -0.052631355822086334,
      -0.08539245277643204,
      0.057789385318756104,
      -0.0678267627954483,
      0.06397321820259094,
      -0.10721687227487564,
      -0.031568653881549835,
      -0.03538907319307327,
      0.1199566051363945,
      0.023305494338274002,
      0.002841485198587179,
      -0.015095040202140808,
      -0.11082301288843155,
      -0.09080985188484192,
      0.07560238987207413,
      0.05110529437661171,
      -0.06241271644830704,
      0.06940533965826035,
      0.030322682112455368,
      -0.011692145839333534,
      0.12971369922161102,
      0.051379136741161346,
      -0.023073818534612656,
      -0.018928850069642067,
      -0.006968436297029257,
      -0.07758966833353043,
      0.07720395922660828,
      0.03426237404346466,
      -0.048287760466337204,
      0.05580070987343788,
      -0.007954812608659267,
      0.06384099274873734,
      0.07309284061193466,
      -0.0960010513663292,
      0.04133916646242142,
      0.10926389694213867,
      0.06395317614078522,
      -0.07829815149307251,
      0.026554597541689873,
      0.07623946666717529,
      -0.12132109701633453,
      0.00919378362596035,
      0.05689362436532974,
      -0.04457702487707138,
      -0.030985137447714806,
      -0.05533595755696297,
      -0.06894604116678238,
      -0.05535028129816055,
      -0.11069226264953613,
      0.042162276804447174,
      -0.05487952381372452,
      -0.01537906564772129,
      -0.07689955085515976,
      -0.02514132484793663,
      0.11359550058841705
    ],
    [
      0.028727438300848007,
      0.06849716603755951,
      -0.0747222974896431,
      -0.1297817975282669,
      -0.10941386967897415,
      0.09991534054279327,
      0.0689873918890953,
      -0.09982423484325409,
      0.07183509320020676,
      -0.025805102661252022,
      -0.0623110868036747,
      -0.06024237349629402,
      -0.13616663217544556,
      0.13866163790225983,
      0.029720092192292213,
      -0.010852737352252007,
      0.10476068407297134,
      0.10448504239320755,
      0.07682127505540848,
      0.10068678110837936,
      -0.0496039092540741,
      -0.0861700102686882,
      0.08293361216783524,
      0.1350591480731964,
      0.02177860029041767,
      -0.07970459759235382,
      -0.06208566203713417,
      -0.08933617174625397,
      -0.1000857800245285,
      -0.09294575452804565,
      0.04472579434514046,
      0.04507503658533096,
      -0.09583748877048492,
      -0.07939524203538895,
      -0.03170080482959747,
      0.14569368958473206,
      -0.01768142729997635,
      0.09294150024652481,
      -0.02511780709028244,
      -0.07760515064001083,
      0.0595078244805336,
      -0.047931600362062454,
      -0.1214413270354271,
      -0.010579111985862255,
      0.029125625267624855,
      -0.054311491549015045,
      -0.07359600067138672,
      -0.033653195947408676,
      -0.20598652958869934,
      -0.16248349845409393,
      -0.0037526069208979607,
      0.04713420942425728,
      -0.15271027386188507,
      -0.07429878413677216,
      0.17447298765182495,
      -0.03948583826422691,
      -0.11473093926906586,
      0.0541405975818634,
      -0.12362789362668991,
      0.05392786115407944,
      -0.03081466816365719,
      0.07760146260261536,
      0.12108370661735535,
      0.11528973281383514
    ],
    [
      -0.04686442390084267,
      -0.07261112332344055,
      -0.14348043501377106,
      0.026170149445533752,
      0.09154094010591507,
      0.1422915905714035,
      0.10692158341407776,
      -0.03103262186050415,
      0.06163452938199043,
      -0.0985623449087143,
      0.0021418912801891565,
      -0.03320156782865524,
      0.04508764669299126,
      0.0584491565823555,
      -0.08966872841119766,
      0.08197855949401855,
      0.07500967383384705,
      -0.01728399470448494,
      -0.05862857773900032,
      0.024575794115662575,
      -0.015820465981960297,
      -0.05125857889652252,
      0.014963512308895588,
      -0.12852512300014496,
      0.03954967483878136,
      0.1273731142282486,
      -0.06835270673036575,
      -0.07889360934495926,
      -0.013975623995065689,
      0.12381940335035324,
      0.03682328388094902,
      -0.03526671230792999,
      0.03886439651250839,
      0.13092496991157532,
      0.10913807898759842,
      -0.02045353688299656,
      0.06077547371387482,
      0.03242722526192665,
      0.0370195172727108,
      -0.059492629021406174,
      0.03518201410770416,
      0.014103645458817482,
      -0.0476224459707737,
      0.03305122256278992,
      -0.08186577260494232,
      0.06975088268518448,
      0.04784992337226868,
      0.08793345093727112,
      0.04424714297056198,
      -0.08436015993356705,
      0.06491614878177643,
      -0.1280127465724945,
      0.007926986552774906,
      -0.028333012014627457,
      0.14260977506637573,
      0.08135876059532166,
      0.07069163769483566,
      0.06576765328645706,
      -0.06551702320575714,
      -0.03822140023112297,
      0.04719176143407822,
      -0.10781392455101013,
      -0.02373536489903927,
      -0.075589120388031
    ],
    [
      0.02926744893193245,
      0.0104332584887743,
      -0.09022503346204758,
      -0.10483137518167496,
      0.09060407429933548,
      0.05385098233819008,
      0.019389769062399864,
      -0.04431183263659477,
      -0.11480561643838882,
      0.033749788999557495,
      0.0986269935965538,
      0.03625159710645676,
      -0.03885038569569588,
      -0.01999634876847267,
      -0.029230959713459015,
      0.07434524595737457,
      -0.08154154568910599,
      -0.039634592831134796,
      -0.03756508231163025,
      0.06768713146448135,
      0.01335596852004528,
      0.025146517902612686,
      0.07866629213094711,
      -0.005674765445291996,
      -0.13890136778354645,
      0.0596277229487896,
      -0.08564463257789612,
      0.033755674958229065,
      0.049256470054388046,
      0.02103940211236477,
      0.03044321946799755,
      0.007508863229304552,
      0.09028373658657074,
      -0.03459600731730461,
      0.05882969871163368,
      -0.048661451786756516,
      -0.05627692490816116,
      -0.09253407269716263,
      -0.07013564556837082,
      0.06581351161003113,
      -0.030956365168094635,
      0.036077603697776794,
      0.09255529940128326,
      -0.0168029572814703,
      0.05127347260713577,
      0.09492291510105133,
      0.0229622945189476,
      -0.11811095476150513,
      0.014041148126125336,
      0.05771235004067421,
      -0.03451458737254143,
      0.10463977605104446,
      -0.11220584809780121,
      -0.06667786836624146,
      -0.016210829839110374,
      0.05853715538978577,
      -0.09666269272565842,
      0.13412006199359894,
      0.06724882125854492,
      0.06654617935419083,
      -0.05837538465857506,
      -0.11814519017934799,
      0.05482864752411842,
      -0.07716884464025497
    ],
    [
      0.05900748074054718,
      0.026914279907941818,
      -0.044549379497766495,
      -0.006127933971583843,
      -0.01754300855100155,
      0.12018173187971115,
      0.05092989653348923,
      0.030203791335225105,
      -0.001965081784874201,
      0.04676756635308266,
      -0.019867975264787674,
      0.055939096957445145,
      -0.022614259272813797,
      -0.08538030087947845,
      0.025024348869919777,
      -0.03457072004675865,
      0.10432275384664536,
      0.06702512502670288,
      -0.04493236169219017,
      0.019547926262021065,
      -0.044683970510959625,
      -0.04416496679186821,
      -0.010523706674575806,
      0.0852011889219284,
      -0.06692647188901901,
      0.02785571478307247,
      0.05609630048274994,
      -0.10930125415325165,
      0.028656408190727234,
      0.11791003495454788,
      -0.11249002814292908,
      -0.07561630755662918,
      0.04199434444308281,
      -0.0836113914847374,
      0.014134657569229603,
      -0.022094624117016792,
      -0.029798679053783417,
      -0.11150521785020828,
      -0.11640357226133347,
      -0.11820022016763687,
      0.03955714777112007,
      0.00400833785533905,
      0.03980119898915291,
      0.03910910338163376,
      0.00846598669886589,
      -0.09240046888589859,
      -0.09246779978275299,
      -0.0389067679643631,
      0.07814260572195053,
      -0.05082922428846359,
      -0.015509983524680138,
      -0.023015441372990608,
      -0.059835657477378845,
      0.03666491433978081,
      0.08086753636598587,
      0.014624158851802349,
      -0.05958419665694237,
      0.03456779941916466,
      -0.02394098974764347,
      0.1035369411110878,
      -0.10050646960735321,
      -0.06813371181488037,
      0.06084758788347244,
      -0.04022698849439621
    ],
    [
      0.009760698303580284,
      -0.09160918742418289,
      -0.0643283948302269,
      0.10261131823062897,
      0.023209989070892334,
      0.0668589174747467,
      0.04699704796075821,
      0.10965868830680847,
      0.028551967814564705,
      -0.07441477477550507,
      0.14670558273792267,
      -0.011672592721879482,
      0.07970522344112396,
      -0.026050785556435585,
      0.09855419397354126,
      -0.055563896894454956,
      -0.056493185460567474,
      0.04000212997198105,
      -0.04180985689163208,
      0.0702202171087265,
      0.09010425955057144,
      0.019635124132037163,
      0.06272053718566895,
      -0.09530559927225113,
      0.13777603209018707,
      0.04670577868819237,
      0.04986501485109329,
      -0.04026166349649429,
      0.0019656838849186897,
      -0.022090837359428406,
      -0.0135891642421484,
      0.05692954733967781,
      -0.0036711920984089375,
      0.057405684143304825,
      0.006900489330291748,
      0.009132688865065575,
      -0.04593335837125778,
      -0.006084260530769825,
      -0.023219196125864983,
      -0.08300759643316269,
      -0.0276924017816782,
      -0.08255798369646072,
      -0.09270511567592621,
      0.09430642426013947,
      0.09634176641702652,
      0.08111359179019928,
      -0.01179444883018732,
      0.03598920255899429,
      -0.059686340391635895,
      0.039195191115140915,
      0.009447054006159306,
      0.10181492567062378,
      0.012641346082091331,
      -0.04428883641958237,
      0.10112473368644714,
      -0.056360095739364624,
      0.0963514968752861,
      -0.07806742191314697,
      0.0640527680516243,
      0.02785651944577694,
      0.18662302196025848,
      0.019489005208015442,
      -0.061871301382780075,
      0.03449845686554909
    ],
    [
      -0.07033224403858185,
      0.09624485671520233,
      -0.044946715235710144,
      -0.00755416601896286,
      -0.03782922029495239,
      0.07019919902086258,
      -0.049818847328424454,
      0.023977814242243767,
      -0.05431453511118889,
      0.053039271384477615,
      0.12531517446041107,
      0.12039902806282043,
      -0.06803034991025925,
      0.01798722706735134,
      0.05084666609764099,
      -0.02694433368742466,
      0.07953380793333054,
      0.01266401819884777,
      -0.0825263038277626,
      -0.1441488265991211,
      -0.06234075129032135,
      -0.015064471401274204,
      -0.05407889187335968,
      -0.08298452943563461,
      -0.03309883177280426,
      0.0735914334654808,
      -0.012583307921886444,
      -0.050164103507995605,
      -0.08421994745731354,
      0.05962258204817772,
      -0.09558310359716415,
      0.01144521776586771,
      0.07051658630371094,
      -0.025125965476036072,
      0.06448378413915634,
      0.032493289560079575,
      0.031355809420347214,
      0.05655522644519806,
      0.0061644259840250015,
      0.09594918042421341,
      0.1375519186258316,
      -0.05003645271062851,
      -0.13820584118366241,
      0.003994837403297424,
      -0.09027300775051117,
      0.08498074859380722,
      0.08281794935464859,
      -0.12233475595712662,
      0.0066725327633321285,
      -0.06629068404436111,
      -0.054448459297418594,
      0.07113544642925262,
      -0.05852042883634567,
      -0.05956763029098511,
      -0.07992030680179596,
      -0.09958069771528244,
      -0.058725714683532715,
      0.032923199236392975,
      0.0808592140674591,
      0.04030737653374672,
      0.0580081082880497,
      -0.06154101714491844,
      0.03340454027056694,
      0.04351917281746864
    ],
    [
      -0.09800239652395248,
      0.12325058877468109,
      -0.054945673793554306,
      0.10876001417636871,
      0.10367956757545471,
      0.08579225093126297,
      -0.0657854676246643,
      -0.0697150006890297,
      -0.058890391141176224,
      -0.11831286549568176,
      0.0974133312702179,
      0.03839084133505821,
      0.007583011873066425,
      0.07928703725337982,
      0.1207379624247551,
      -0.09105610102415085,
      -0.005872113164514303,
      0.0015833316138014197,
      -0.05898309499025345,
      0.03547506779432297,
      0.10686580091714859,
      0.08358249068260193,
      -0.056060194969177246,
      0.010804802179336548,
      -0.05464088171720505,
      0.09229528158903122,
      0.10609684884548187,
      0.06047955900430679,
      -0.04472390189766884,
      -0.03676026687026024,
      0.01583561673760414,
      -0.09709347039461136,
      -0.02541329339146614,
      0.0377824604511261,
      0.06993129104375839,
      0.06363833695650101,
      -0.08174119889736176,
      0.11371765285730362,
      0.07372316718101501,
      -0.10682324320077896,
      0.12471295148134232,
      -0.019973473623394966,
      0.007124631199985743,
      0.054768793284893036,
      -0.026467734947800636,
      -0.009627781808376312,
      -0.11681275069713593,
      0.026026589795947075,
      -0.08880779892206192,
      -0.00044321094173938036,
      0.013432441279292107,
      -0.05404655262827873,
      -0.08552950620651245,
      -0.06815564632415771,
      0.06343934684991837,
      -0.028706034645438194,
      -0.0036302742082625628,
      0.06097684055566788,
      -0.091890849173069,
      -0.08037855476140976,
      -0.06122388318181038,
      0.12704209983348846,
      -0.03406539186835289,
      0.10084104537963867
    ],
    [
      -0.005586003884673119,
      -0.0025611252058297396,
      -0.06858301907777786,
      -0.10411502420902252,
      -0.05560477450489998,
      0.11906727403402328,
      -0.010011903010308743,
      0.03819873556494713,
      0.06638023257255554,
      -0.06234382465481758,
      -0.0716339573264122,
      0.01839417777955532,
      -0.09456969052553177,
      0.006828450132161379,
      0.04158812016248703,
      -0.02704855240881443,
      -0.06276983767747879,
      0.11276252567768097,
      -0.03453269228339195,
      0.024838222190737724,
      0.06861061602830887,
      -0.05063663423061371,
      -0.03370591253042221,
      0.014928551390767097,
      -0.0007248212932609022,
      0.06222705915570259,
      0.034277014434337616,
      -0.03331794589757919,
      -0.0014016698114573956,
      0.09223778545856476,
      -0.09417561441659927,
      0.07020560652017593,
      0.09591922163963318,
      0.04895859584212303,
      -0.023691989481449127,
      -0.0617770254611969,
      0.06191594526171684,
      -0.009040839970111847,
      -0.058497991412878036,
      0.09435709565877914,
      -0.09507697820663452,
      0.023951666429638863,
      -0.05188598111271858,
      -0.08697333186864853,
