{
  "net.0.weight": [
    [
      0.10528211295604706,
      -0.2912096679210663
    ],
    [
      0.9702410101890564,
      -0.6411763429641724
    ],
    [
      -0.7072896957397461,
      -0.26771607995033264
    ],
    [
      -0.525764524936676,
      0.6498914361000061
    ],
    [
      0.03814712539315224,
      -0.1883491724729538
    ],
    [
      0.3603667914867401,
      0.6347025632858276
    ],
    [
      -0.18785154819488525,
      0.7855006456375122
    ],
    [
      -0.2232470065355301,
      0.8024444580078125
    ],
    [
      0.06047859787940979,
      -0.2814219295978546
    ],
    [
      0.3095080852508545,
      0.21960023045539856
    ],
    [
      -0.15450148284435272,
      -0.9259958863258362
    ],
    [
      0.535027801990509,
      -0.26083487272262573
    ],
    [
      -0.06576091051101685,
      -0.323956161737442
    ],
    [
      0.6270228624343872,
      0.9522848129272461
    ],
    [
      0.5213756561279297,
      -0.3364991247653961
    ],
    [
      -0.3889226019382477,
      -0.1735670268535614
    ],
    [
      0.7337952256202698,
      -0.6036673188209534
    ],
    [
      -0.299311101436615,
      -0.05591440200805664
    ],
    [
      -0.4219607412815094,
      -0.8421492576599121
    ],
    [
      -0.3849876821041107,
      -0.10102617740631104
    ],
    [
      0.3653683364391327,
      0.24709589779376984
    ],
    [
      -0.1980278193950653,
      -0.18313831090927124
    ],
    [
      -0.005887303501367569,
      -0.01051291637122631
    ],
    [
      0.03807765245437622,
      -0.17495788633823395
    ],
    [
      0.5517890453338623,
      0.39857932925224304
    ],
    [
      0.3384039103984833,
      -0.3093612790107727
    ],
    [
      -0.6615614891052246,
      0.07323227822780609
    ],
    [
      0.055721137672662735,
      -0.2628185749053955
    ],
    [
      0.00026084703858941793,
      0.01212859433144331
    ],
    [
      -0.7587054371833801,
      -0.3998452126979828
    ],
    [
      0.3559637665748596,
      0.5527160167694092
    ],
    [
      -0.07995748519897461,
      0.570563793182373
    ],
    [
      -0.5440725684165955,
      -1.0155946016311646
    ],
    [
      -0.11911500245332718,
      -0.17718198895454407
    ],
    [
      0.2870054244995117,
      0.6535197496414185
    ],
    [
      0.3863193094730377,
      -0.5040307641029358
    ],
    [
      0.5421379804611206,
      -0.4514697790145874
    ],
    [
      0.34968867897987366,
      -0.36764997243881226
    ],
    [
      -0.46958088874816895,
      -0.35057875514030457
    ],
    [
      -0.026951756328344345,
      0.6169824004173279
    ],
    [
      -4.9387919716537e-05,
      -0.008249153383076191
    ],
    [
      0.04593757539987564,
      0.6885972619056702
    ],
    [
      0.36770573258399963,
      0.30177468061447144
    ],
    [
      0.28731006383895874,
      0.9065405130386353
    ],
    [
      -0.07454990595579147,
      -0.3452794551849365
    ],
    [
      0.1765776127576828,
      0.8398887515068054
    ],
    [
      -0.13878244161605835,
      -0.2574317753314972
    ],
    [
      0.1852632313966751,
      -0.420135498046875
    ],
    [
      -0.229986310005188,
      -0.21301841735839844
    ],
    [
      0.4424905478954315,
      -0.4255000650882721
    ],
    [
      -0.6859262585639954,
      0.4694792628288269
    ],
    [
      0.2787114083766937,
      -0.36657223105430603
    ],
    [
      0.04298268258571625,
      -0.6975287795066833
    ],
    [
      -0.39052143692970276,
      -0.2660806477069855
    ],
    [
      0.4204540252685547,
      0.0004280894936528057
    ],
    [
      0.6895596981048584,
      -0.016836706548929214
    ],
    [
      -0.3176358938217163,
      -0.08310496807098389
    ],
    [
      0.2798057496547699,
      0.4988842308521271
    ],
    [
      0.42548665404319763,
      0.8454780578613281
    ],
    [
      -0.002405099105089903,
      0.008299888111650944
    ],
    [
      -0.33784568309783936,
      -0.6740654110908508
    ],
    [
      0.39970535039901733,
      0.5547083020210266
    ],
    [
      -0.09032058715820312,
      -0.21713873744010925
    ],
    [
      -0.0073114731349051,
      0.46397456526756287
    ]
  ],
  "net.0.bias": [
    0.3766114115715027,
    -0.6408781409263611,
    0.4375308156013489,
    0.2004033476114273,
    0.2570197284221649,
    -0.2650492787361145,
    -0.6491473913192749,
    -0.2676171362400055,
    0.42622441053390503,
    -0.278256893157959,
    -0.596077561378479,
    -0.3414732813835144,
    0.8673359751701355,
    -0.7825837731361389,
    -0.09483417123556137,
    0.7648255228996277,
    0.6456815600395203,
    -0.3451754152774811,
    -0.3547202944755554,
    0.21531683206558228,
    -0.5147653818130493,
    0.5429651737213135,
    -0.0034563844092190266,
    0.28448739647865295,
    -0.029406171292066574,
    0.6272079348564148,
    -0.2553313970565796,
    0.5421025156974792,
    0.003351087449118495,
    -0.3307310938835144,
    -0.21411393582820892,
    0.1167759969830513,
    -0.04587600752711296,
    0.4726041257381439,
    -0.33948415517807007,
    0.9668424129486084,
    0.2308080792427063,
    0.8011374473571777,
    0.784135103225708,
    -0.10545559227466583,
    -0.0006275444175116718,
    -0.32636961340904236,
    -0.1785377562046051,
    -0.4729633629322052,
    0.9600071907043457,
    -0.15441222488880157,
    0.7851609587669373,
    0.9650890827178955,
    0.7220465540885925,
    0.24902057647705078,
    -0.6663270592689514,
    0.8031409382820129,
    -0.6074204444885254,
    -0.45146334171295166,
    0.463688462972641,
    -0.5550506114959717,
    0.5858913064002991,
    0.005855736788362265,
    -0.46868282556533813,
    0.0008096891106106341,
    -0.7216741442680359,
    -0.5206560492515564,
    0.6505689024925232,
    -0.16995762288570404
  ],
  "net.2.weight": [
    [
      0.0850726068019867,
      -0.01184722501784563,
      0.016106992959976196,
      -0.017164696007966995,
      -0.10767313838005066,
      0.10620060563087463,
      -0.038466677069664,
      0.00738914217799902,
      0.005422791466116905,
      -0.04249728098511696,
      -0.08345247060060501,
      0.010423550382256508,
      -0.018868649378418922,
      -0.011960722506046295,
      0.053007252514362335,
      -0.0039283111691474915,
      0.11483964323997498,
      0.04754623398184776,
      -0.091041699051857,
      0.02478373795747757,
      -0.08202404528856277,
      0.13287945091724396,
      -0.05662593990564346,
      -0.12844350934028625,
      -0.0057746474631130695,
      0.06017803028225899,
      -0.022268319502472878,
      0.006704726722091436,
      -0.054073985666036606,
      -0.04822620376944542,
      0.051373086869716644,
      -0.11797907948493958,
      -0.02605578303337097,
      -0.041124727576971054,
      -0.13006971776485443,
      -0.05037571117281914,
      0.014972447417676449,
      0.12184224277734756,
      -0.07416685670614243,
      0.04860301688313484,
      -0.07462715357542038,
      0.08746270835399628,
      -0.09964292496442795,
      0.06599851697683334,
      -0.07932335883378983,
      -0.009183833375573158,
      0.10995005816221237,
      -0.04745021462440491,
      0.06793572753667831,
      -0.03349537029862404,
      0.09321648627519608,
      -0.052101630717515945,
      -0.047102224081754684,
      0.014824684709310532,
      -0.09895017743110657,
      -0.14869700372219086,
      -0.07064103335142136,
      0.11457394063472748,
      0.08296990394592285,
      0.01956729218363762,
      0.08517535775899887,
      0.04884970560669899,
      -0.08940331637859344,
      -0.09932045638561249
    ],
    [
      0.08842311054468155,
      -0.030849818140268326,
      0.010673009790480137,
      -0.0825495719909668,
      -0.1310180127620697,
      0.054138705134391785,
      0.12158741801977158,
      0.1280757188796997,
      0.03321202099323273,
      0.08921310305595398,
      0.05683349445462227,
      -0.0647764801979065,
      -0.05872362107038498,
      -0.06492232531309128,
      -0.04717548191547394,
      0.03209550306200981,
      0.03656025603413582,
      -0.15397734940052032,
      -0.0011600572615861893,
      0.05800236761569977,
      0.09574977308511734,
      -0.060277700424194336,
      0.02365824766457081,
      -0.005630865693092346,
      -0.061082255095243454,
      -0.035307206213474274,
      0.06462375074625015,
      -0.011264030821621418,
      -0.0214224886149168,
      0.013475260697305202,
      0.012920396402478218,
      0.0366186685860157,
      -0.0017101527191698551,
      -0.03597019612789154,
      0.020533500239253044,
      -0.06631404906511307,
      0.09229885041713715,
      0.024585464969277382,
      0.053526975214481354,
      -0.04180077463388443,
      0.12650783360004425,
      -0.011915737763047218,
      0.024896346032619476,
      0.03868922218680382,
      -0.06978987157344818,
      0.04160406067967415,
      -0.0522979311645031,
      0.017403362318873405,
      0.01224555540829897,
      0.06168431043624878,
      -0.019688351079821587,
      0.024094508960843086,
      -0.07830071449279785,
      -0.09534194320440292,
      0.15303952991962433,
      -0.12043208628892899,
      -0.09606987982988358,
      0.04270252212882042,
      -0.08611144870519638,
      -0.04207552596926689,
      0.002246616408228874,
      -0.11934352666139603,
      0.07870742678642273,
      -0.08247894048690796
    ],
    [
      0.09256718307733536,
      -0.026922844350337982,
      -0.035528283566236496,
      0.06532857567071915,
      -0.11299074441194534,
      -0.024729475378990173,
      0.14513245224952698,
      -0.021411031484603882,
      -0.05672941356897354,
      0.07608625292778015,
      -0.12931358814239502,
      0.09567644447088242,
      0.08954088389873505,
      -0.03082420863211155,
      -0.08819015324115753,
      -0.09488292038440704,
      -0.03810824081301689,
      -0.03396623954176903,
      0.11077243089675903,
      -0.010167394764721394,
      -0.05456734821200371,
      0.01122220978140831,
      0.1032823696732521,
      -0.03173533454537392,
      0.01031734049320221,
      -0.019513094797730446,
      0.05365496128797531,
      -0.11016059666872025,
      -0.04025280103087425,
      -0.05848177522420883,
      0.07957139611244202,
      0.014446837827563286,
      0.11605216562747955,
      0.05751589685678482,
      0.06713087856769562,
      -0.084359310567379,
      -0.003974586259573698,
      0.06045960634946823,
      0.08030664175748825,
      -0.009956763125956059,
      0.058171339333057404,
      -0.13076087832450867,
      -0.007703685667365789,
      -0.0930836945772171,
      -0.03441664204001427,
      0.08591794967651367,
      -0.07954277098178864,
      0.11224371939897537,
      -0.027692347764968872,
      -0.07279966026544571,
      0.03465551137924194,
      0.07900474220514297,
      -0.05990234389901161,
      -0.05757836997509003,
      0.047857046127319336,
      0.022133253514766693,
      -0.12660226225852966,
      -0.12985031306743622,
      -0.07228272408246994,
      0.044126421213150024,
      -0.02434166520833969,
      0.10481477528810501,
      0.08406662940979004,
      -0.028273502364754677
    ],
    [
      0.00604860158637166,
      -0.1756153255701065,
      0.20015737414360046,
      -0.05663198605179787,
      -0.04258159548044205,
      -0.13189922273159027,
      0.04398809000849724,
      0.011139925569295883,
      -0.179924875497818,
      -0.12757731974124908,
      -0.26062414050102234,
      -0.06537621468305588,
      0.02072056382894516,
      -0.05294380709528923,
      -0.13881242275238037,
      0.08120347559452057,
      -0.126087948679924,
      0.09398440271615982,
      -0.037783220410346985,
      0.0444534532725811,
      -0.14981727302074432,
      -0.048407670110464096,
      0.03596470504999161,
      0.006962515413761139,
      -0.2252848744392395,
      -0.11596006900072098,
      0.285221129655838,
      -0.11675529181957245,
      -0.04493642598390579,
      0.23206040263175964,
      -0.09675382077693939,
      0.04791385307908058,
      0.02599453739821911,
      0.05220264568924904,
      -0.15727974474430084,
      -0.025653129443526268,
      -0.15243224799633026,
      -0.2346283197402954,
      0.08522207289934158,
      -0.218449205160141,
      0.02571287378668785,
      -0.2655336260795593,
      -0.21720147132873535,
      -0.11130651831626892,
      0.027085788547992706,
      -0.300486296415329,
      0.12397126108407974,
      -0.12978167831897736,
      0.16498763859272003,
      -0.12074794620275497,
      0.3522714674472809,
      -0.08996390551328659,
      -0.11565021425485611,
      -0.006002508569508791,
      -0.3243063986301422,
      0.004847937263548374,
      0.14652390778064728,
      -0.2900746166706085,
      -0.22005265951156616,
      -0.040374819189310074,
      -0.05616312474012375,
      -0.09477921575307846,
      0.07237111777067184,
      -0.14240559935569763
    ],
    [
      0.18978999555110931,
      0.13182702660560608,
      -0.04147743061184883,
      0.054241616278886795,
      0.06978129595518112,
      0.06956817954778671,
      -0.10339406132698059,
      -0.03710881620645523,
      -0.040227487683296204,
      0.05010993406176567,
      -0.01117047481238842,
      0.13840258121490479,
      0.1269548237323761,
      -0.06876461207866669,
      -0.004375545773655176,
      0.000957847572863102,
      -0.07115943729877472,
      -0.034799087792634964,
      0.049796417355537415,
      0.09418336302042007,
      -0.038551829755306244,
      -0.13979977369308472,
      -0.13178567588329315,
      0.08714944124221802,
      -0.030988316982984543,
      -0.04209166020154953,
      0.007057510782033205,
      -0.051094260066747665,
      0.1735222488641739,
      -0.04163859039545059,
      -0.0632409006357193,
      0.0359087735414505,
      -0.048173584043979645,
      -0.10745042562484741,
      -0.041551683098077774,
      -0.09685169905424118,
      -0.01611151359975338,
      -0.11429848521947861,
      0.1103355661034584,
      0.04117164388298988,
      -0.028608953580260277,
      0.018491728231310844,
      -0.051976244896650314,
      0.09914205223321915,
      -0.03389427810907364,
      0.0046204994432628155,
      0.01113111525774002,
      0.018288571387529373,
      0.0930408239364624,
      0.1568640172481537,
      -0.17024186253547668,
      0.019420325756072998,
      0.05314458906650543,
      -0.0617196299135685,
      -0.07908684015274048,
      0.10251616686582565,
      0.019877668470144272,
      0.08236680924892426,
      0.08079341799020767,
      -0.021866345778107643,
      0.022074567154049873,
      -0.021395709365606308,
      -0.059076160192489624,
      -0.0025441364850848913
    ],
    [
      -0.03633459284901619,
      -0.046291910111904144,
      -0.03208484873175621,
      0.1027216985821724,
      0.0035869537387043238,
      0.05249979346990585,
      0.08246076107025146,
      0.0012122206389904022,
      -0.012238042429089546,
      -0.008812925778329372,
      -0.09206568449735641,
      0.0019569594878703356,
      -0.07182037830352783,
      0.01982010155916214,
      0.0750432014465332,
      -0.04923839122056961,
      -0.08668539673089981,
      -0.07594029605388641,
      0.027829227969050407,
      -0.030458148568868637,
      -0.08269830048084259,
      0.00901713129132986,
      0.05337229371070862,
      -0.13367539644241333,
      0.08804731070995331,
      -0.048587147146463394,
      -0.02322998084127903,
      0.01683822274208069,
      -0.16312937438488007,
      0.02744465507566929,
      0.11975128948688507,
      -0.046408798545598984,
      0.00689973309636116,
      -0.0948832556605339,
      -0.06012468412518501,
      0.025202954187989235,
      0.07512541860342026,
      0.10561487078666687,
      0.020134519785642624,
      0.08613041043281555,
      -0.021799569949507713,
      -0.15012183785438538,
      -0.09715975821018219,
      -0.1124192625284195,
      0.05900058150291443,
      -0.09156347811222076,
      0.0022374787367880344,
      0.004507923498749733,
      0.13409486413002014,
      0.016001705080270767,
      -0.05417294055223465,
      -0.017119696363806725,
      0.04480057209730148,
      -0.08541062474250793,
      -0.035206329077482224,
      -0.019479556009173393,
      0.10830588638782501,
      0.07283194363117218,
      0.08959313482046127,
      -0.1254122108221054,
      0.023390300571918488,
      -0.04045030474662781,
      0.004337525926530361,
      -0.13787628710269928
    ],
    [
      0.05224953219294548,
      0.05369221046566963,
      -0.029611969366669655,
      -0.05033266171813011,
      0.0535733737051487,
      -0.043234288692474365,
      0.038257401436567307,
      0.007724527735263109,
      0.07933598011732101,
      0.057665180414915085,
      0.11867727339267731,
      -0.07634521275758743,
      -0.013018840923905373,
      0.04177200794219971,
      -0.0395503006875515,
      -0.04874138906598091,
      -0.03362111374735832,
      0.15623663365840912,
      -0.027460606768727303,
      0.02079739049077034,
      -0.04330054298043251,
      0.03923437371850014,
      0.05728093162178993,
      0.00920797511935234,
      0.0420239195227623,
      0.08185964077711105,
      0.06349167227745056,
      0.126056507229805,
      -0.007632818538695574,
      0.00127517431974411,
      0.04280122369527817,
      0.024143213406205177,
      -0.0044237361289560795,
      -0.12515515089035034,
      0.0755779966711998,
      -0.06593892723321915,
      -0.11654552817344666,
      -0.05517178028821945,
      0.037071242928504944,
      0.018818089738488197,
      -0.10208410024642944,
      -0.013719615526497364,
      0.035519663244485855,
      -0.09809064120054245,
      0.02940894477069378,
      -0.14120186865329742,
      -0.03903944417834282,
      -0.01168612577021122,
      0.12630030512809753,
      -0.010827562771737576,
      0.008091789670288563,
      0.019773375242948532,
      0.13137009739875793,
      -0.05357643961906433,
      -0.00679424311965704,
      0.0049576302990317345,
      0.05425475165247917,
      0.031553834676742554,
      0.054696548730134964,
      0.018837668001651764,
      0.008688095957040787,
      -0.09591647237539291,
      -0.007265510968863964,
      0.003990618512034416
    ],
    [
      0.04038025811314583,
      0.010767449624836445,
      0.07621325552463531,
      0.031241554766893387,
      -0.022956807166337967,
      -0.07884284108877182,
      0.09501679241657257,
      0.002738484414294362,
      0.02068176306784153,
      -0.08143464475870132,
      -0.10792115330696106,
      -0.009571002796292305,
      -0.058749500662088394,
      0.05578780919313431,
      -0.10913330316543579,
      -0.0982738733291626,
      0.041356638073921204,
      -0.22878791391849518,
      -0.12487038224935532,
      -0.03127358481287956,
      -0.1220475360751152,
      0.08982482552528381,
      -0.034690309315919876,
      0.09393402189016342,
      0.00785645842552185,
      0.022305160760879517,
      0.053337957710027695,
      0.012463552877306938,
      0.05689571425318718,
      -0.1616637408733368,
      -0.006466087885200977,
      -0.10879770666360855,
      0.09458605945110321,
      -0.1298883557319641,
      0.043057214468717575,
      0.06194937229156494,
      -0.07160069048404694,
      -0.04460259899497032,
      0.08413402736186981,
      0.05885829031467438,
      0.1420971155166626,
      0.11417433619499207,
      0.033980730921030045,
      0.0222023818641901,
      -0.06645313650369644,
      -0.11904888600111008,
      -0.13310100138187408,
      -0.01252733264118433,
      0.04713326692581177,
      0.09519711136817932,
      -0.017858678475022316,
      0.011893718503415585,
      -0.05441269651055336,
      -0.06973432004451752,
      0.019680218771100044,
      -0.01892220415174961,
      -0.053628504276275635,
      -0.1261415034532547,
      0.11749092489480972,
      -0.09788219630718231,
      0.005512740463018417,
      0.07855324447154999,
      0.002907691989094019,
      0.0007695272797718644
    ],
    [
      -0.11775470525026321,
      0.007300516590476036,
      -0.02434375323355198,
      -0.10324658453464508,
      -0.028989266604185104,
      -0.12544356286525726,
      0.23890742659568787,
      0.005540149286389351,
      -0.04971550777554512,
      0.06164219230413437,
      0.04540470987558365,
      0.05832219496369362,
      -0.047909192740917206,
      0.10533268749713898,
      0.12809491157531738,
      0.04611966386437416,
      0.007468664553016424,
      0.015586578287184238,
      -0.08600395917892456,
      -0.02908620983362198,
      -0.06377938389778137,
      0.021937891840934753,
      -0.06973947584629059,
      -0.1513260304927826,
      -0.0790795087814331,
      -0.08361226320266724,
      -0.05912924185395241,
      0.0615992434322834,
      0.02678263559937477,
      -0.1082671657204628,
      -0.10458317399024963,
      -0.08175087720155716,
      -0.03583105653524399,
      -0.013708960264921188,
      -0.07691413909196854,
      0.016037682071328163,
      0.04921505227684975,
      -0.03008231520652771,
      0.09725441783666611,
      -0.12174364924430847,
      0.09015069156885147,
      -0.08046739548444748,
      -0.020227564498782158,
      0.05033232271671295,
      -0.09289438277482986,
      0.07931875437498093,
      0.017934419214725494,
      -0.03702571615576744,
      -0.006942256353795528,
      -0.04484659805893898,
      0.023429961875081062,
      0.04984837770462036,
      -0.04771135747432709,
      0.03807015344500542,
      0.06449051201343536,
      0.0386388823390007,
      0.07326766848564148,
      0.06482270359992981,
      0.05468037724494934,
      -0.11524220556020737,
      -0.023839615285396576,
      0.08161954581737518,
      -0.03929160162806511,
      -0.01707076095044613
    ],
    [
      -0.6115559935569763,
      0.04644768685102463,
      -0.0501658134162426,
      0.02914455160498619,
      -0.5159043073654175,
      0.16002599895000458,
      0.29145342111587524,
      0.20702748000621796,
      -0.6845594048500061,
      -0.02978445775806904,
      0.24327309429645538,
      0.014805219136178493,
      -0.5403103232383728,
      0.2639077305793762,
      -0.0386592261493206,
      -0.24825459718704224,
      -0.5112338662147522,
      0.2436206340789795,
      0.13638576865196228,
      0.0026145828887820244,
      0.11771340668201447,
      -0.2733308672904968,
      -0.11135544627904892,
      -0.6476368308067322,
      0.014442995190620422,
      -0.3667284846305847,
      0.06451068818569183,
      -0.49006387591362,
      0.09962422400712967,
      0.026332566514611244,
      -0.06163991242647171,
      -0.08702432364225388,
      0.02476174384355545,
      -0.3035462200641632,
      0.14072087407112122,
      -0.5478950142860413,
      -0.441956490278244,
      -0.32364699244499207,
      -0.40656355023384094,
      0.08082233369350433,
      0.008431244641542435,
      0.22154907882213593,
      0.11744171380996704,
      0.2787260115146637,
      -0.5816746950149536,
      0.1269569993019104,
      -0.3350119888782501,
      -0.5754613876342773,
      -0.314415842294693,
      -0.32461223006248474,
      0.246299609541893,
      -0.6004768013954163,
      0.17996886372566223,
      0.03123244270682335,
      -0.08641079068183899,
      -0.10603820532560349,
      -0.28938111662864685,
      -0.019264956936240196,
      0.20429664850234985,
      -0.09990449249744415,
      0.1513005942106247,
      0.16069908440113068,
      -0.4552159309387207,
      0.07007043808698654
    ],
    [
      0.09374754875898361,
      0.005846855230629444,
      -0.019994087517261505,
      -0.08939532935619354,
      -0.053735584020614624,
      0.06499979645013809,
      0.0646069124341011,
      0.007576064206659794,
      0.01908220909535885,
      -0.10636953264474869,
      -0.09852267801761627,
      -0.004695100709795952,
      0.07631708681583405,
      -0.020125729963183403,
      -0.015699701383709908,
      -0.04081321880221367,
      0.0797586515545845,
      0.12425734847784042,
      0.06166905164718628,
      -0.12404317408800125,
      -0.09100934118032455,
      -0.09321899712085724,
      -0.05445096269249916,
      -0.022383563220500946,
      0.08370065689086914,
      0.05814168229699135,
      -0.004489275626838207,
      0.08825141936540604,
      0.16903331875801086,
      -0.02290871925652027,
      -0.025193553417921066,
      0.044409554451704025,
      -0.08619201183319092,
      0.027674151584506035,
      -0.11665868014097214,
      -0.036043018102645874,
      0.02386992610991001,
      -0.1337292641401291,
      0.014981620945036411,
      0.11221706867218018,
      -0.08153100311756134,
      0.08680429309606552,
      0.0939980074763298,
      -0.06156313419342041,
      0.06263620406389236,
      0.056997865438461304,
      -0.06255492568016052,
      -0.06978340446949005,
      -0.034003160893917084,
      0.08117347210645676,
      0.10586318373680115,
      -0.06866071373224258,
      0.011479540728032589,
      -0.05668056756258011,
      -0.04491520673036575,
      -0.05934358388185501,
      0.012910192832350731,
      -0.07677970826625824,
      -0.03230714425444603,
      -0.020043574273586273,
      0.07810143381357193,
      0.09045886993408203,
      -0.07027265429496765,
      -0.016072871163487434
    ],
    [
      0.009563247673213482,
      -0.06006970629096031,
      -0.050152234733104706,
      0.06603676825761795,
      -0.06650542467832565,
      -0.010642904788255692,
      0.048808831721544266,
      -0.04000713676214218,
      -0.015204539522528648,
      -0.09858521074056625,
      0.12746280431747437,
      -0.025262873619794846,
      -0.013914658688008785,
      -0.07761213183403015,
      0.12349192798137665,
      0.07549107819795609,
      -0.018018141388893127,
      0.037840746343135834,
      0.029020240530371666,
      -0.16661690175533295,
      0.06427449733018875,
      0.05995144695043564,
      0.043564166873693466,
      -0.10963357239961624,
      0.07330967485904694,
      -0.031609442085027695,
      -0.04392680525779724,
      -0.0064005665481090546,
      0.007970551960170269,
      0.07631247490644455,
      0.04618135094642639,
      0.06715147942304611,
      -0.021989155560731888,
      -0.11478374898433685,
      -0.047609247267246246,
      2.0076931832591072e-05,
      -0.080357126891613,
      0.05329842492938042,
      -0.040131472051143646,
      -0.022170312702655792,
      0.06385757029056549,
      -0.005288771353662014,
      -0.049819983541965485,
      0.047214820981025696,
      -0.08534283190965652,
      -0.0059736501425504684,
      0.04018411412835121,
      0.07616893202066422,
      -0.03316811844706535,
      0.012918511405587196,
      -0.02981533668935299,
      -0.0820762887597084,
      0.005033316556364298,
      0.02926095947623253,
      -0.039746809750795364,
      0.13742594420909882,
      -0.06851021200418472,
      -0.11815953999757767,
      0.03635350242257118,
      -0.03692762553691864,
      -0.09131309390068054,
      -0.05399978905916214,
      0.09008769690990448,
      0.04578901827335358
    ],
    [
      -0.026908451691269875,
      -0.09250136464834213,
      -0.10390985757112503,
      -0.08531686663627625,
      -0.07799270004034042,
      -0.07423656433820724,
      0.09271274507045746,
      0.1265644133090973,
      0.06200186163187027,
      0.1120801568031311,
      -0.06127908453345299,
      -0.002575363265350461,
      -0.11393182724714279,
      -0.08562382310628891,
      0.02130448818206787,
      0.09318055212497711,
      -0.036666665226221085,
      -0.09893587976694107,
      0.04542282968759537,
      0.0007578087970614433,
      0.025950105860829353,
      0.014088323339819908,
      -0.08615801483392715,
      -0.07364043593406677,
      -0.06118253991007805,
      0.13231921195983887,
      0.01782797835767269,
      0.017834490165114403,
      -0.1232147216796875,
      0.05366860330104828,
      -0.07788369059562683,
      -0.02358090691268444,
      -0.024385731667280197,
      -0.11448449641466141,
      0.037547312676906586,
      0.016454428434371948,
      0.08883392065763474,
      -0.06378427892923355,
      0.017507143318653107,
      0.08267035335302353,
      0.12132114171981812,
      0.06826002150774002,
      0.07821546494960785,
      0.0276628490537405,
      0.025573231279850006,
      -0.04930473864078522,
      0.01637853868305683,
      -0.01803566701710224,
      -0.08095412701368332,
      0.06498919427394867,
      0.011993464082479477,
      -0.11264902353286743,
      0.12728385627269745,
      -0.023118717595934868,
      0.04039450362324715,
      0.07230573147535324,
      -0.008859420195221901,
      -0.061085257679224014,
      0.09971302002668381,
      -0.027809977531433105,
      -0.0970289334654808,
      0.01879417710006237,
      0.08720843493938446,
      -0.10065817087888718
    ],
    [
      0.07168933004140854,
      -0.05207553505897522,
      -0.03399868682026863,
      0.06773689389228821,
      0.0674055740237236,
      0.04518963024020195,
      0.1620536595582962,
      -0.04913952201604843,
      0.017472300678491592,
      0.10358013212680817,
      -0.010923357680439949,
      -0.02456628531217575,
      -0.03301260620355606,
      -0.04057585075497627,
      -0.05226221680641174,
      -0.0040360381826758385,
      -0.050186362117528915,
      -0.1146351769566536,
      0.0690886527299881,
      -0.024727411568164825,
      -0.007568704895675182,
      -0.031573597341775894,
      -0.03308317810297012,
      0.012049022130668163,
      -0.09228650480508804,
      0.06413690000772476,
      -0.01318017765879631,
      0.1055939570069313,
      0.04033608362078667,
      0.06974049657583237,
      -0.029703518375754356,
      -0.11071698367595673,
      -0.05180398374795914,
      0.004532427527010441,
      -0.0723840519785881,
      -0.03529180586338043,
      0.014092478901147842,
      0.057990048080682755,
      -0.028150297701358795,
      0.04028664529323578,
      -0.0712372213602066,
      0.06484812498092651,
      0.02087017521262169,
      0.009018780663609505,
      0.06732527911663055,
      -0.045855022966861725,
      -0.04211036488413811,
      -0.08958566933870316,
      -0.020596379414200783,
      0.15659309923648834,
      0.0657196193933487,
      -0.05930924788117409,
      -0.0036811211612075567,
      -0.09790463000535965,
      0.07344211637973785,
      0.027200620621442795,
      -0.039289385080337524,
      0.05906778201460838,
      -0.02240530028939247,
      0.04757940024137497,
      -0.04956574738025665,
      0.06394098699092865,
      -0.07942550629377365,
      -0.022971849888563156
    ],
    [
      0.13677120208740234,
      -0.07152719795703888,
      0.05473072826862335,
      0.1270473748445511,
      0.04464635252952576,
      0.06503868848085403,
      -0.00525800371542573,
      0.11595167219638824,
      0.0435185581445694,
      0.012369713746011257,
      -0.11075788736343384,
      0.020103661343455315,
      0.09265883266925812,
      -0.029288096353411674,
      -0.006779763847589493,
      -0.030624857172369957,
      -0.02316412702202797,
      -0.12821178138256073,
      0.019450310617685318,
      -0.09833402186632156,
      0.12565310299396515,
      -0.0963592454791069,
      0.09166505932807922,
      -0.003155480371788144,
      0.0275895819067955,
      0.1358666568994522,
      -0.07756058871746063,
      -0.08645506203174591,
      -0.09197645634412766,
      0.08836039155721664,
      -0.04687650501728058,
      0.09360930323600769,
      0.04791470617055893,
      0.08753921091556549,
      0.004086206201463938,
      -0.08427496999502182,
      0.028647299855947495,
      -0.10221998393535614,
      -0.020275983959436417,
      0.0018864183221012354,
      0.09661633521318436,
      -0.018424056470394135,
      0.08002122491598129,
      -0.15480099618434906,
      -0.10293766856193542,
      -0.09224014729261398,
      -0.010781310498714447,
      -0.07350306957960129,
      -0.030451877042651176,
      0.14597173035144806,
      -0.10820714384317398,
      -0.009643744677305222,
      0.023471344262361526,
      -0.07182502746582031,
      0.029594480991363525,
      0.007715494837611914,
      -0.05502229556441307,
      0.02482195571064949,
      -0.11050369590520859,
      -0.011378823779523373,
      0.14922873675823212,
      -0.0029740456957370043,
      0.05408089980483055,
      -0.06670566648244858
    ],
    [
      -0.13770072162151337,
      -0.3932138979434967,
      -0.18454056978225708,
      -0.04922939091920853,
      0.053828708827495575,
      0.11954347789287567,
      0.19130395352840424,
      -0.004122353158891201,
      -0.0726749449968338,
      0.026525814086198807,
      0.0351540632545948,
      -0.20338547229766846,
      -0.019802303984761238,
      0.25950419902801514,
      -0.15142343938350677,
      -0.18162749707698822,
      -0.13454145193099976,
      -0.019732994958758354,
      0.05433186516165733,
      -0.07254821807146072,
      0.03948942944407463,
      -0.0837034210562706,
      -0.03650515526533127,
      0.09198661893606186,
      0.1010134145617485,
      0.02020634524524212,
      0.00689664063975215,
      -0.041281506419181824,
      -0.035119421780109406,
      -0.002232176484540105,
      0.21172411739826202,
      0.14422117173671722,
      0.053312379866838455,
      -0.015602996572852135,
      0.24818827211856842,
      -0.18629588186740875,
      -0.11498000472784042,
      -0.17946116626262665,
      -0.12520422041416168,
      0.13737334311008453,
      0.039382968097925186,
      0.3079456090927124,
      0.18722884356975555,
      0.2884753942489624,
      0.00035304846824146807,
      0.12308477610349655,
      -0.14855511486530304,
      -0.08858272433280945,
      -0.18859319388866425,
      -0.1538752019405365,
      -0.04201638326048851,
      -0.02939576655626297,
      0.10086898505687714,
      -0.03371770307421684,
      -0.08091912418603897,
      -0.10674452036619186,
      -0.0007079622009769082,
      0.10754699259996414,
      0.2822243869304657,
      0.021706998348236084,
      0.020566020160913467,
      0.1668681502342224,
      -0.0294784102588892,
      0.06527358293533325
    ],
    [
      0.07682731747627258,
      0.05288640037178993,
      -0.12797415256500244,
      0.10399775207042694,
      0.0823264941573143,
      0.052568789571523666,
      -0.06508311629295349,
      0.08547601848840714,
      -0.17646408081054688,
      0.06439118832349777,
      -0.12164691835641861,
      -0.06286966055631638,
      -0.08393273502588272,
      -0.004290936514735222,
      0.04306232929229736,
      -0.07587142288684845,
      0.08236466348171234,
      0.089425228536129,
      -0.07479938864707947,
      -0.15665461122989655,
      -0.016735276207327843,
      -0.1272401064634323,
      -0.1342237889766693,
      0.002612304873764515,
      -0.047569531947374344,
      -0.03775181621313095,
      -0.002696580020710826,
      0.00612371601164341,
      -0.11278511583805084,
      0.057906944304704666,
      0.02927023358643055,
      -0.03704741969704628,
      -0.10292545706033707,
      0.06483843177556992,
      0.03384260833263397,
      -0.15061958134174347,
      0.13718411326408386,
      0.037094712257385254,
      -0.2521422505378723,
      -0.0326341837644577,
      0.09875964373350143,
      0.019435683265328407,
      -0.04298992455005646,
      0.04774576798081398,
      -0.10422337800264359,
      -0.057138897478580475,
      -0.10077173262834549,
      -0.13457371294498444,
      -0.14921258389949799,
      0.13503099977970123,
      0.11469150334596634,
      0.03099491260945797,
      -0.05381473898887634,
      -0.11449292302131653,
      0.06761292368173599,
      0.07799329608678818,
      -0.2084481567144394,
      0.03884551301598549,
      0.07312655448913574,
      0.008523370139300823,
      0.028792796656489372,
      0.012974260374903679,
      -0.004470357671380043,
      0.0876149907708168
    ],
    [
      -0.05844664201140404,
      0.0002661963226273656,
      -0.16944602131843567,
      0.13863341510295868,
      0.0022170788142830133,
      0.17461924254894257,
      0.02367120236158371,
      0.14805808663368225,
      0.029202910140156746,
      0.03550267592072487,
      -0.030043095350265503,
      -0.0647045224905014,
      -0.1515406370162964,
      0.10961581766605377,
      -0.13962602615356445,
      -0.13554367423057556,
      -0.09591449052095413,
      0.0668325126171112,
      -0.021096207201480865,
      -0.020506417378783226,
      0.11069618165493011,
      -0.03931237384676933,
      0.07393575459718704,
      -0.06651752442121506,
      0.007219128310680389,
      0.06442207843065262,
      -0.052285484969615936,
      0.11244244128465652,
      0.06871269643306732,
      -0.16055355966091156,
      0.2154960185289383,
      0.0587371289730072,
      0.09174945205450058,
      -0.10921677201986313,
      0.1276961714029312,
      -0.13447225093841553,
      0.024887505918741226,
      0.1007327064871788,
      -0.12060722708702087,
      0.13815560936927795,
      -0.04316632077097893,
      0.27392616868019104,
      0.10747632384300232,
      0.22940407693386078,
      -0.06272688508033752,
      0.21392761170864105,
      -0.13258570432662964,
      0.10843740403652191,
      -0.05615946277976036,
      -0.008709127083420753,
      -0.18626941740512848,
      0.03406693786382675,
      -0.10891098529100418,
      -0.12856854498386383,
      0.13398082554340363,
      -0.029499202966690063,
      -0.004115841817110777,
      0.1836622655391693,
      0.14099986851215363,
      0.039693061262369156,
      -0.03249218687415123,
      0.22883965075016022,
      -0.12306885421276093,
      0.11461252719163895
    ],
    [
      -0.17473092675209045,
      -0.02316070906817913,
      0.17062272131443024,
      -6.694097100989893e-05,
      -0.16480493545532227,
      -0.15132425725460052,
      0.11038467288017273,
      0.10815629363059998,
      0.020069044083356857,
      -0.013978882692754269,
      -0.12313444912433624,
      0.0130542553961277,
      -0.0021293996833264828,
      -0.14550864696502686,
      -0.03824133425951004,
      -0.09355711191892624,
      -0.017617687582969666,
      -0.028648825362324715,
      -0.04465146362781525,
      0.04289122298359871,
      0.08956403285264969,
      -0.0553927943110466,
      0.14599227905273438,
      -0.12240838259458542,
      -0.08820145577192307,
      -0.25640714168548584,
      0.08322777599096298,
      -0.1463685780763626,
      -0.02442803420126438,
      0.19991320371627808,
      -0.13974438607692719,
      -0.033551864326000214,
      -0.05434031039476395,
      -0.08663957566022873,
      -0.2506120502948761,
      -0.08576944470405579,
      -0.055629976093769073,
      -0.16381384432315826,
      -0.03512030839920044,
      0.05707734450697899,
      0.14323601126670837,
      -0.193764790892601,
      -0.19364090263843536,
      -0.12865819036960602,
      0.018822403624653816,
      -0.26188474893569946,
      0.08427805453538895,
      -0.10687705874443054,
      -0.0434485599398613,
      -0.10376356542110443,
      0.1756443828344345,
      -0.19795377552509308,
      0.0583210289478302,
      -0.08136840164661407,
      -0.08683884888887405,
      0.16513806581497192,
      0.11468631774187088,
      -0.1131831705570221,
      -0.2344329059123993,
      0.14104849100112915,
      -0.15277130901813507,
      -0.09378697723150253,
      -0.11773126572370529,
      -0.1620292365550995
    ],
    [
      -0.3546455502510071,
      -0.018989339470863342,
      0.048961471766233444,
      0.07508029788732529,
      -0.22170203924179077,
      0.16879355907440186,
      0.2557203471660614,
      0.25169211626052856,
      -0.23740045726299286,
      -0.018658628687262535,
      0.20804478228092194,
      0.08109728246927261,
      -0.21431393921375275,
      0.33205851912498474,
      -0.025719933211803436,
      -0.07753600925207138,
      -0.4332597255706787,
      0.18230736255645752,
      0.1969492882490158,
      -0.10123451799154282,
      0.18180716037750244,
      -0.20953592658042908,
      -0.09308483451604843,
      -0.37282517552375793,
      -0.0529044084250927,
      -0.16372963786125183,
      0.10461083054542542,
      -0.35231348872184753,
      -0.048863623291254044,
      0.057849179953336716,
      0.05866670608520508,
      0.08932364732027054,
      0.09706377983093262,
      -0.29457923769950867,
      0.15538731217384338,
      -0.46598726511001587,
      -0.35662293434143066,
      -0.3465365767478943,
      -0.2237008661031723,
      0.0109183918684721,
      -0.011424868367612362,
      0.14394013583660126,
      -0.05557611957192421,
      0.3065996468067169,
      -0.288389652967453,
      0.009525975212454796,
      -0.32105761766433716,
      -0.4253326654434204,
      -0.3507393002510071,
      -0.1748785525560379,
      0.206824392080307,
      -0.3477933406829834,
      0.2483799159526825,
      0.14525116980075836,
      -0.13248051702976227,
      0.051409393548965454,
      -0.13443727791309357,
      0.043758947402238846,
      0.19044829905033112,
      -0.12176612764596939,
      0.16642600297927856,
      0.1280680149793625,
      -0.243632510304451,
      0.05273861065506935
    ],
    [
      -0.34218135476112366,
      0.0065316325053572655,
      -0.0023003320675343275,
      0.11258898675441742,
      -0.5091729164123535,
      0.10963085293769836,
      0.14193890988826752,
      0.2475578486919403,
      -0.5475404262542725,
      0.015544537454843521,
      0.1995258331298828,
      0.12187469005584717,
      -0.36867812275886536,
      0.1792854219675064,
      -0.1347721964120865,
      -0.2910393178462982,
      -0.440085232257843,
      0.20966967940330505,
      0.15420962870121002,
      -0.10500380396842957,
      0.14809776842594147,
      -0.2501998543739319,
      0.0029922949615865946,
      -0.4212610721588135,
      -0.04762858524918556,
      -0.4685722887516022,
      0.036981213837862015,
      -0.5521560311317444,
      0.08623325824737549,
      0.12084499001502991,
      0.10953281819820404,
      -0.0647876039147377,
      0.17293353378772736,
      -0.3116375207901001,
      0.1790456920862198,
      -0.42956027388572693,
      -0.37428537011146545,
      -0.3648500442504883,
      -0.3236393332481384,
      0.10306145250797272,
      0.017262281849980354,
      0.3020341098308563,
      0.07464481145143509,
      0.16800078749656677,
      -0.29185861349105835,
      0.196402907371521,
      -0.41567233204841614,
      -0.4572334885597229,
      -0.33495256304740906,
      -0.41333451867103577,
      0.2365272492170334,
      -0.46508118510246277,
      0.18678003549575806,
      0.10294683277606964,
      -0.07609285414218903,
      -0.0739426538348198,
      -0.2909180819988251,
      0.05618806555867195,
      0.15961337089538574,
      0.05155284330248833,
      0.34203433990478516,
      0.08538657426834106,
      -0.2924017906188965,
      0.01319362036883831
    ],
    [
      0.08926592022180557,
      0.01584463007748127,
      0.001464551198296249,
      0.08647137880325317,
      0.09532903134822845,
      -0.05283191800117493,
      0.09686023741960526,
      -0.0026248006615787745,
      0.1322556436061859,
      -0.038235098123550415,
      0.04388370364904404,
      0.03377082198858261,
      -0.018404481932520866,
      -0.00997549295425415,
      -0.12446523457765579,
      -0.105046346783638,
      0.10139784216880798,
      0.07477270066738129,
      0.07445628196001053,
      -0.025563418865203857,
      0.05395737290382385,
      0.10136604309082031,
      0.1941818743944168,
      0.1291949450969696,
      0.08057378232479095,
      -0.08204102516174316,
      -0.09732148796319962,
      -0.0071490732952952385,
      0.08147051930427551,
      -0.07451940327882767,
      0.09950815141201019,
      -0.04272124916315079,
      -0.0371030829846859,
      0.0647190511226654,
      -0.03632870689034462,
      0.08068672567605972,
      0.0048791635781526566,
      -0.005208245478570461,
      -0.011193483136594296,
      0.07506857067346573,
      -0.1073620617389679,
      0.0016976878978312016,
      0.01839842088520527,
      0.050553034991025925,
      -0.0995684340596199,
      -0.05984821915626526,
      0.015379979275166988,
      -0.08705532550811768,
      -0.07431193441152573,
      -0.08857934921979904,
      -0.010149119421839714,
      -0.11336873471736908,
      -0.056576311588287354,
      0.040160588920116425,
      0.079681396484375,
      -0.03503970801830292,
      0.08030648529529572,
      -0.0567314438521862,
      -0.006785731762647629,
      0.14884008467197418,
      0.04497338458895683,
      -0.08962348848581314,
      -0.03135428577661514,
      -0.08340000361204147
    ],
    [
      -0.06761576235294342,
      -0.0889659970998764,
      -0.0013284168671816587,
      -0.06826599687337875,
      -0.12491640448570251,
      0.182439923286438,
      0.4910307228565216,
      0.33275413513183594,
      -0.21362237632274628,
      -0.05679702013731003,
      0.3394717276096344,
      0.04017144441604614,
      -0.3395680785179138,
      0.3626544177532196,
      -0.08665934205055237,
      -0.26531681418418884,
      -0.3204752802848816,
      0.14059209823608398,
      0.3964043855667114,
      0.05501601845026016,
      0.12310520559549332,
      -0.32346799969673157,
      0.03510868549346924,
      -0.12446682900190353,
      -0.02702554129064083,
      -0.21111641824245453,
      0.0628143772482872,
      -0.4778883755207062,
      -0.007413750048726797,
      0.20840296149253845,
      0.1378265768289566,
      0.232690691947937,
      0.3407822847366333,
      -0.2219775915145874,
      0.2864691913127899,
      -0.3182242810726166,
      -0.05058816075325012,
      -0.2891474664211273,
      -0.14312046766281128,
      0.2682066559791565,
      0.008360747247934341,
      0.3815155029296875,
      0.10231649875640869,
      0.28281664848327637,
      -0.2693481743335724,
      0.100457563996315,
      -0.36728501319885254,
      -0.35483017563819885,
      -0.23362977802753448,
      -0.27688995003700256,
      0.06901460886001587,
      -0.33252543210983276,
      0.19845739006996155,
      0.2730042636394501,
      -0.053997237235307693,
      -0.021230051293969154,
      -0.12463457137346268,
      0.13011886179447174,
      0.26349717378616333,
      -0.14711789786815643,
      0.21176570653915405,
      0.23253567516803741,
      -0.30690035223960876,
      0.24486269056797028
    ],
    [
      -0.04938846454024315,
      0.0336030051112175,
      -0.062132686376571655,
      -0.0978078693151474,
      0.03871776536107063,
      0.1081499308347702,
      -0.09395387023687363,
      0.07864309847354889,
      -0.03319733962416649,
      0.024371206760406494,
      -0.008053833618760109,
      0.02087213285267353,
      0.053735144436359406,
      -0.055783167481422424,
      0.027781840413808823,
      0.07768349349498749,
      -0.08916901051998138,
      -0.05086015909910202,
      0.14599913358688354,
      -0.07297670841217041,
      -0.09292905777692795,
      -0.11456230282783508,
      0.11743070930242538,
      -0.015999846160411835,
      -0.04488036781549454,
      0.022340359166264534,
      -0.06268442422151566,
      -0.030092813074588776,
      0.1020449846982956,
      -0.029555633664131165,
      0.048719070851802826,
      0.08855844289064407,
      -0.06597036868333817,
      -0.10085960477590561,
      -0.0762326642870903,
      -0.12112400680780411,
      0.17101165652275085,
      0.09021836519241333,
      0.1334383487701416,
      0.08502845466136932,
      -0.20846028625965118,
      0.1782008707523346,
      0.004831527825444937,
      -0.010900300927460194,
      -0.11766351759433746,
      -0.08531002700328827,
      0.004146032501012087,
      0.03132735192775726,
      0.07988759875297546,
      0.009683231823146343,
      0.05183645710349083,
      0.03058629296720028,
      -0.04242286831140518,
      -0.050615474581718445,
      -0.09342510253190994,
      0.062220845371484756,
      -0.1237441673874855,
      -0.07726840674877167,
      -0.00571680860593915,
      0.026670638471841812,
      0.004253840539604425,
      0.010089890100061893,
      0.06636284291744232,
      0.005843907594680786
    ],
    [
      -0.11919437348842621,
      -0.06247667223215103,
      -0.20367805659770966,
      0.045945435762405396,
      0.07540363818407059,
      0.0823981985449791,
      -0.018034473061561584,
      0.01419723592698574,
      0.025380758568644524,
      0.04294874146580696,
      0.15101611614227295,
      -0.005273412447422743,
      -0.0225264560431242,
      0.08893004059791565,
      -0.05390988662838936,
      -0.20026937127113342,
      -0.039549801498651505,
      -0.08690716326236725,
      -0.03760412707924843,
      -0.12879374623298645,
      0.1892276108264923,
      -0.10490480065345764,
      0.048543334007263184,
      -0.08551429212093353,
      0.08783653378486633,
      0.015634488314390182,
      -0.16914141178131104,
      -0.0843634083867073,
      0.036674633622169495,
      -0.008413655683398247,
      -0.009190795943140984,
      0.19154638051986694,
      -0.021239280700683594,
      0.08255904167890549,
      0.06950952857732773,
      -0.11320684105157852,
      0.07188671827316284,
      -0.054263778030872345,
      -0.0847991406917572,
      0.19952471554279327,
      -0.12300799041986465,
      0.1035204827785492,
      0.07381965965032578,
      0.21868357062339783,
      -0.05189210921525955,
      0.056408993899822235,
      -0.009787977673113346,
      -0.14052662253379822,
      0.02461181953549385,
      0.09130177646875381,
      -0.0020954562351107597,
      -0.14368915557861328,
      -0.008757784962654114,
      -0.05945915728807449,
      0.135075181722641,
      0.09837441891431808,
      -0.024736616760492325,
      0.17886324226856232,
      0.18095307052135468,
      0.009905648417770863,
      0.12458787858486176,
      0.24848982691764832,
      0.04663154110312462,
      0.07456289231777191
    ],
    [
      -0.9480912685394287,
      0.608285665512085,
      -0.08477535098791122,
      0.16792066395282745,
      -0.24178558588027954,
      0.33543145656585693,
      1.090545415878296,
      0.5568662285804749,
      -1.3040547370910645,
      0.23983976244926453,
      0.4995751976966858,
      0.12907332181930542,
      -1.7756550312042236,
      0.4926578104496002,
      -0.12976600229740143,
      -0.7177621722221375,
      -0.700892448425293,
      0.35501521825790405,
      0.7951368093490601,
      -0.19695748388767242,
      0.5121966600418091,
      -0.8760964274406433,
      0.02228199690580368,
      -0.5094318389892578,
      -0.011364932172000408,
      -0.5962132215499878,
      0.19426725804805756,
      -1.8792494535446167,
      -0.007031274959445,
      0.36935803294181824,
      0.15028485655784607,
      0.0941210389137268,
      0.7597957253456116,
      -1.0284184217453003,
      0.32626426219940186,
      -1.3472908735275269,
      -0.49644485116004944,
      -0.6235116124153137,
      -0.556658148765564,
      0.21924853324890137,
      0.007459332700818777,
      0.5346782207489014,
      0.22211794555187225,
      0.5490567684173584,
      -1.6937059164047241,
      0.3732922375202179,
      -1.4452589750289917,
      -1.7527159452438354,
      -1.1728143692016602,
      -0.4996645152568817,
      0.5718214511871338,
      -0.8229126334190369,
      0.35217583179473877,
      0.4738665819168091,
      -0.17310884594917297,
      0.2859346270561218,
      -0.6060289740562439,
      0.10308682918548584,
      0.4543960392475128,
      -0.0011049815220758319,
      0.7199226021766663,
      0.5137075185775757,
      -1.2207237482070923,
      0.3992299735546112
    ],
    [
      -0.18947426974773407,
      0.16549447178840637,
      -0.07959433645009995,
      0.0452541820704937,
      0.04715430736541748,
      0.03881223499774933,
      0.0006232188898138702,
      -0.01787674054503441,
      -0.22682242095470428,
      -0.14708107709884644,
      -0.42640337347984314,
      -0.030556974932551384,
      -0.09792564064264297,
      -0.2597314119338989,
      0.10924999415874481,
      -0.11562945693731308,
      0.07754316180944443,
      -0.1431662142276764,
      -0.5767558813095093,
      0.03730231896042824,
      -0.21844811737537384,
      -0.18265391886234283,
      0.05478328466415405,
      0.05815526470541954,
      -0.14181749522686005,
      0.08832278847694397,
      0.022124210372567177,
      -0.15688367187976837,
      0.07288157939910889,
      -0.30523547530174255,
      -0.18867264688014984,
      0.20576979219913483,
      -0.6126834154129028,
      -0.0628843754529953,
      -0.09698572009801865,
      0.02230478823184967,
      0.13498641550540924,
      0.02190285548567772,
      -0.1759169101715088,
      0.008039972744882107,
      -0.06228482350707054,
      -0.0818619579076767,
      -0.107274129986763,
      -0.17246553301811218,
      -0.20751447975635529,
      -0.09795568883419037,
      -0.17964759469032288,
      -0.11313924938440323,
      -0.12257323414087296,
      0.018880318850278854,
      -0.032063890248537064,
      -0.04573773965239525,
      -0.17817793786525726,
      -0.2746826112270355,
      -0.10404058545827866,
      -0.06507065892219543,
      0.09223552793264389,
      -0.039400484412908554,
      0.012431230396032333,
      0.17886345088481903,
      -0.38374626636505127,
      -0.09514077007770538,
      -0.03853970393538475,
      -0.017995208501815796
    ],
    [
      0.13519637286663055,
      0.08364218473434448,
      0.03714219480752945,
      -0.00374893588013947,
      0.030675305053591728,
      0.03946618363261223,
      -0.04002397134900093,
      0.029715150594711304,
      0.13500899076461792,
      0.0019085347885265946,
      0.0013052368303760886,
      -0.09117957949638367,
      -0.008426720276474953,
      0.10057174414396286,
      -0.10758956521749496,
      -0.07379983365535736,
      0.05219968035817146,
      0.13280794024467468,
      -0.012342833913862705,
      0.010083032771945,
      0.08276917040348053,
      0.1106823980808258,
      0.09412708878517151,
      -0.08532562851905823,
      -0.1152740865945816,
      -0.07819824665784836,
      0.13704784214496613,
      -0.11423354595899582,
      0.03693653643131256,
      -0.026400234550237656,
      -0.019380884245038033,
      0.08553899079561234,
      -0.11089914292097092,
      0.10305114090442657,
      0.12792284786701202,
      -0.06610576808452606,
      0.07638680189847946,
      0.09010707587003708,
      -0.030210470780730247,
      -0.0924377366900444,
      0.07573550194501877,
      -0.04638398066163063,
      -0.08611785620450974,
      -0.0306914784014225,
      0.06868096441030502,
      -0.1055590882897377,
      -0.1298932135105133,
      0.04472514986991882,
      -0.054706379771232605,
      -0.04813055694103241,
      -0.12834903597831726,
      0.07380019873380661,
      0.036063481122255325,
      -0.05519339069724083,
      -0.12123622000217438,
      0.022601351141929626,
      0.04891502857208252,
      0.06083919480443001,
      -0.04328890144824982,
      0.07326905429363251,
      0.10192710161209106,
      0.13462431728839874,
      0.05344641953706741,
      -0.002842343645170331
    ],
    [
      -0.08802444487810135,
      0.008940592408180237,
      -0.05964062735438347,
      -0.045346975326538086,
      -0.09757548570632935,
      0.08254441618919373,
      0.016303684562444687,
      -0.046407733112573624,
      -0.07662427425384521,
      0.05431186035275459,
      -0.1412016898393631,
      0.011157323606312275,
      0.0999341830611229,
      -0.015978792682290077,
      -0.04908806085586548,
      0.11739159375429153,
      0.008276007138192654,
      -0.08477545529603958,
      0.06235289201140404,
      -0.06566301733255386,
      -0.02591863088309765,
      0.11896364390850067,
      0.07981471717357635,
      0.0876801460981369,
      -0.004814918618649244,
      -0.0721474438905716,
      0.03021499700844288,
      0.021900497376918793,
      -0.09939612448215485,
      -0.01650157757103443,
      -0.07210632413625717,
      -0.05420529842376709,
      0.03769547492265701,
      0.08458273112773895,
      -0.0750107392668724,
      0.1235019788146019,
      0.08371362090110779,
      -0.08304242789745331,
      -0.06766890734434128,
      0.0922776535153389,
      0.06631415337324142,
      0.02131952904164791,
      -0.04445750266313553,
      0.07565692812204361,
      -0.09450405091047287,
      0.11490201950073242,
      -0.09702558070421219,
      0.002228307072073221,
      -0.10014435648918152,
      0.12425821274518967,
      -0.0031015644781291485,
      -0.043096303939819336,
      -0.1080649197101593,
      -0.05604828521609306,
      -0.12464665621519089,
      0.045644666999578476,
      0.14975930750370026,
      0.08134365826845169,
      -0.09377655386924744,
      0.0346984788775444,
      0.00030647049425169826,
      -0.04505689814686775,
      0.08500894159078598,
      -0.0032112158369272947
    ],
    [
      0.0427849106490612,
      -0.03839987888932228,
      0.026343949139118195,
      -0.09397611021995544,
      0.14434374868869781,
      0.014053579419851303,
      0.15201187133789062,
      -0.0016648027813062072,
      0.0824655219912529,
      -0.08263406157493591,
      0.029354535043239594,
      -0.009455299936234951,
      -0.12179329991340637,
      -0.057807620614767075,
      0.12032421678304672,
      0.05798953026533127,
      -0.07490665465593338,
      -0.030607428401708603,
      -0.04541969671845436,
      0.09733670949935913,
      -0.11764726042747498,
      0.05449674278497696,
      0.11215376853942871,
      -0.04203405976295471,
      0.091377392411232,
      -0.005652732215821743,
      -0.10486047714948654,
      -0.05517270788550377,
      -0.08692099899053574,
      -0.06975889205932617,
      0.017767703160643578,
      0.0019158703507855535,
      0.04890589043498039,
      0.052607461810112,
      -0.08672726154327393,
      -0.1512625813484192,
      -0.00639061676338315,
      0.08318046480417252,
      -0.050257906317710876,
      0.024349531158804893,
      0.07339418679475784,
      0.08389262109994888,
      -0.09732672572135925,
      0.011456549167633057,
      -0.10403678566217422,
      -0.0644197165966034,
      -0.08863960951566696,
      0.031537700444459915,
      -0.08706262707710266,
      0.17059655487537384,
      0.10693169385194778,
      0.05228624492883682,
      0.026623260229825974,
      -0.08673842996358871,
      0.044470034539699554,
      -0.006237084977328777,
      0.06720034033060074,
      0.11941032111644745,
      -0.010076601058244705,
      0.03690839931368828,
      0.016085272654891014,
      0.03401244431734085,
      0.049971479922533035,
      -0.020184358581900597
    ],
    [
      -0.7029993534088135,
      0.2086075395345688,
      -0.5046346187591553,
      -0.31522896885871887,
      -0.7622169256210327,
      -0.16394999623298645,
      0.06206580623984337,
      -0.04802209138870239,
      -1.2319563627243042,
      0.10705839097499847,
      0.4513864815235138,
      0.18322008848190308,
      -0.9170563817024231,
      0.07926726341247559,
      0.045474614948034286,
      -0.8271976709365845,
      -0.6518713235855103,
      0.2898655831813812,
      0.45341718196868896,
      -0.2742072641849518,
      0.25547921657562256,
      -0.7120433449745178,
      -0.0021780638489872217,
      -0.9117919206619263,
      -0.14185205101966858,
      -0.755539059638977,
      -0.02529386803507805,
      -1.0440504550933838,
      -0.1276906579732895,
      0.20843341946601868,
      -0.19505675137043,
      -0.14364822208881378,
      0.20482388138771057,
      -0.8257796168327332,
      -0.0862404927611351,
      -0.804619550704956,
      -0.2076745182275772,
      -0.7382453680038452,
      -0.7018902897834778,
      -0.10767075419425964,
      -0.12425296008586884,
      0.04318540170788765,
      -0.15964236855506897,
      -0.07535567879676819,
      -1.038970947265625,
      -0.005937098991125822,
      -1.037495493888855,
      -0.9724056124687195,
      -0.8647763729095459,
      -0.19839368760585785,
      0.17109450697898865,
      -0.9372345805168152,
      0.4944935441017151,
      0.5192065238952637,
      -0.33758068084716797,
      0.04259355738759041,
      -0.515684962272644,
      -0.06310739368200302,
      0.061489153653383255,
      -0.11019549518823624,
      0.4529200792312622,
      0.019086025655269623,
      -0.8544063568115234,
      -0.18724066019058228
    ],
    [
      -0.09245914220809937,
      -0.032760895788669586,
      -0.05487809330224991,
      -0.03204993158578873,
      0.06695935875177383,
      -0.06665156036615372,
      0.07427467405796051,
      0.08490213006734848,
      0.021458253264427185,
      -0.005300572607666254,
      0.03844483569264412,
      -0.024915866553783417,
      -0.003278307616710663,
      0.07426729798316956,
      -0.05696873739361763,
      -0.028952788561582565,
      0.06519049406051636,
      0.1276235431432724,
      0.09800263494253159,
      -0.012476973235607147,
      -0.061985988169908524,
      0.04718216881155968,
      -0.2014680802822113,
      -0.009490970522165298,
      0.03573464974761009,
      0.007907823659479618,
      0.11650198698043823,
      0.028663836419582367,
      0.003010363085195422,
      0.05831814557313919,
      -0.0988190546631813,
      0.011832930147647858,
      -0.0652480199933052,
      -0.09366686642169952,
      -0.044054366648197174,
      -0.12856416404247284,
      0.00806050468236208,
      0.08056153357028961,
      0.08942817896604538,
      0.09532959759235382,
      0.0015633649891242385,
      -0.08590001612901688,
      0.10609926283359528,
      0.09454770386219025,
      -0.0006877681007608771,
      -0.07326344400644302,
      -0.03901511803269386,
      0.053716447204351425,
      -0.05507437512278557,
      0.02197408303618431,
      -0.07653577625751495,
      0.026226606220006943,
      -0.1605134904384613,
      -0.10370570421218872,
      -0.05682457983493805,
      0.10774614661931992,
      -0.07957037538290024,
      -0.10662849992513657,
      0.08293362706899643,
      -0.11588212102651596,
      -0.09903644025325775,
      -0.050688501447439194,
      -0.032798055559396744,
      -0.08252561092376709
    ],
    [
      -0.004931074567139149,
      -0.3112718462944031,
      0.3076762557029724,
      0.12593042850494385,
      -0.01922408491373062,
      -0.32312455773353577,
      -0.06566716730594635,
      0.03832010552287102,
      0.05960974469780922,
      -0.30716055631637573,
      -0.006509965285658836,
      -0.1172361895442009,
      0.2191874235868454,
      -0.09218064695596695,
      -0.0947965681552887,
      0.2533694803714752,
      -0.01467841025441885,
      0.10379672050476074,
      0.10422119498252869,
      0.26153257489204407,
      -0.08908096700906754,
      0.23076777160167694,
      0.012764944694936275,
      0.08877057582139969,
      -0.16123662889003754,
      -0.16790810227394104,
      0.2513038218021393,
      0.13636787235736847,
      0.005984998308122158,
      0.2861471474170685,
      -0.2903817594051361,
      0.021778259426355362,
      0.21171219646930695,
      0.07012418657541275,
      -0.12972310185432434,
      -0.09499508887529373,
      -0.1732076108455658,
      -0.14228323101997375,
      0.24427536129951477,
      -0.22240418195724487,
      -0.009108948521316051,
      -0.14003875851631165,
      -0.16241362690925598,
      -0.33209624886512756,
      0.18735185265541077,
      -0.33458036184310913,
      0.21066074073314667,
      -0.04394589364528656,
      0.23398354649543762,
      -0.19489572942256927,
      0.17617233097553253,
      0.040159210562705994,
      -0.1849181205034256,
      0.14704227447509766,
      -0.21958087384700775,
      -0.2042212337255478,
      0.05545242503285408,
      -0.21280437707901,
      -0.3038271963596344,
      0.011503943242132664,
      -0.030428776517510414,
      -0.1467374563217163,
      0.14177004992961884,
      -0.20215560495853424
    ],
    [
      -0.11624722927808762,
      0.0386141762137413,
      -0.06468803435564041,
      0.012921171262860298,
      -0.04355177655816078,
      0.020676227286458015,
      -0.05605657026171684,
      0.05549554154276848,
      0.04146995395421982,
      0.07383404672145844,
      -0.03091593086719513,
      0.1251281201839447,
      0.08625678718090057,
      0.04450942948460579,
      0.06691332161426544,
      -0.05478660762310028,
      0.03706837072968483,
      -0.12871451675891876,
      0.14070674777030945,
      -0.04367848485708237,
      0.03488018736243248,
      -0.10187776386737823,
      0.01283340621739626,
      -0.01588207110762596,
      -0.04035082459449768,
      -0.11031995713710785,
      -0.06946049630641937,
      -0.06195903569459915,
      0.08146382868289948,
      -0.0837196484208107,
      -0.005030400585383177,
      -0.054455459117889404,
      0.11502351611852646,
      0.030249057337641716,
      -0.09435917437076569,
      -0.08169283717870712,
      0.010733717121183872,
      -0.13207602500915527,
      0.07464931905269623,
      -0.041291866451501846,
      0.036789458245038986,
      -0.0031176311895251274,
      -0.07825266569852829,
      -0.00672485213726759,
      -0.08155706524848938,
      -0.018875950947403908,
      -0.021449128165841103,
      0.051916323602199554,
      0.10244184732437134,
      -0.0741022527217865,
      0.017323937267065048,
      0.04122433066368103,
      -0.1525801420211792,
      0.050148628652095795,
      0.05807945132255554,
      0.028366457670927048,
      0.054135680198669434,
      0.12912504374980927,
      -0.051318105310201645,
      -0.1297924965620041,
      -0.11593050509691238,
      -0.07484150677919388,
      -0.06269605457782745,
      0.0016249145846813917
    ],
    [
      -0.7286229729652405,
      0.03342078626155853,
      -0.18180198967456818,
      -0.05341317132115364,
      -0.7576383948326111,
      0.15321113169193268,
      0.45745334029197693,
      0.3782026767730713,
      -1.02946937084198,
      -0.023993084207177162,
      0.3437810242176056,
      0.1149195060133934,
      -0.6561412215232849,
      0.2853313088417053,
      -0.0936647281050682,
      -0.36806195974349976,
      -0.5069872736930847,
      0.2584540843963623,
      0.2615625560283661,
      -0.12138225138187408,
      0.2770908772945404,
      -0.5682583451271057,
      0.10786235332489014,
      -0.8830552101135254,
      -0.11291374266147614,
      -0.5716413259506226,
      0.09446287900209427,
      -0.8610010147094727,
      -0.06784006208181381,
      -0.01429812703281641,
      0.20405325293540955,
      0.029761364683508873,
      0.119386225938797,
      -0.6833046078681946,
      0.14542920887470245,
      -0.7624492049217224,
      -0.41129717230796814,
      -0.5901068449020386,
      -0.508376955986023,
      0.16666826605796814,
      -0.24062247574329376,
      0.3766501545906067,
      -0.049625661224126816,
      0.28562524914741516,
      -0.7791540026664734,
      0.17436416447162628,
      -0.6584212779998779,
      -0.6605600714683533,
      -0.5934640765190125,
      -0.41579946875572205,
      0.13939431309700012,
      -0.6001530289649963,
      0.14494071900844574,
      0.29107773303985596,
      -0.12218360602855682,
      0.020903807133436203,
      -0.402399480342865,
      0.17257201671600342,
      0.22062203288078308,
      -0.046256277710199356,
      0.3743898570537567,
      0.22148273885250092,
      -0.5719561576843262,
      0.06656371057033539
    ],
    [
      -0.004194074310362339,
      -0.018988000229001045,
      -0.2136981338262558,
      0.041647769510746,
      0.13455867767333984,
      0.233316108584404,
      0.05481615290045738,
      0.08795174956321716,
      -0.0283821988850832,
      0.00892498716711998,
      0.014453345909714699,
      0.014047455973923206,
      -0.13192124664783478,
      0.18068712949752808,
      -0.03842228278517723,
      -0.03315114974975586,
      0.11963438242673874,
      0.034589432179927826,
      -0.20270173251628876,
      -0.13479050993919373,
      0.10584822297096252,
      -0.15055276453495026,
      0.04608539119362831,
      0.008395235054194927,
      0.23015423119068146,
      -0.062422025948762894,
      -0.1316763013601303,
      -0.15644726157188416,
      0.07707185298204422,
      -0.019873591139912605,
      0.1231677383184433,
      0.10742626339197159,
      -0.19720801711082458,
      -0.1057749092578888,
      0.10487207770347595,
      0.06745477020740509,
      0.16545619070529938,
      0.1433825045824051,
      -0.26344621181488037,
      0.023650167509913445,
      -0.015766313299536705,
      0.07396528124809265,
      0.1333327442407608,
      0.256944864988327,
      -0.062080319970846176,
      0.021734900772571564,
      0.008135399781167507,
      -0.09216552972793579,
      -0.013648772612214088,
      0.15409767627716064,
      0.019591622054576874,
      0.12157934159040451,
      -0.14231212437152863,
      -0.014581928960978985,
      0.17011888325214386,
      0.17522111535072327,
      -0.0874457135796547,
      0.06716973334550858,
      0.07861436158418655,
      -7.038531475700438e-05,
      -0.21354064345359802,
      0.24957546591758728,
      -0.0928879901766777,
      0.15254683792591095
    ],
    [
      -0.8114784359931946,
      0.3109375536441803,
      -0.420411616563797,
      -0.23493805527687073,
      -0.8105108737945557,
      -0.0940556526184082,
      0.06078589707612991,
      0.012148735113441944,
      -1.4607818126678467,
      -0.020918728783726692,
      0.6844238042831421,
      0.33540406823158264,
      -1.2059223651885986,
      0.07482051849365234,
      0.005769727751612663,
      -0.8465676307678223,
      -0.5936575531959534,
      0.3821028769016266,
      0.5046584606170654,
      -0.3930339515209198,
      0.31271082162857056,
      -0.9265554547309875,
      0.21218320727348328,
      -0.957638680934906,
      -0.20698949694633484,
      -0.8163818717002869,
      0.1259101778268814,
      -1.1700905561447144,
      -0.10269413143396378,
      0.32607099413871765,
      0.042817987501621246,
      -0.1252719759941101,
      0.4736844599246979,
      -0.9000052213668823,
      -0.0468401163816452,
      -1.1336442232131958,
      -0.2506961524486542,
      -0.7144461870193481,
      -0.6290489435195923,
      -0.18638084828853607,
      -0.1830427348613739,
      -0.023896239697933197,
      -0.17843608558177948,
      0.1807193011045456,
      -1.1507607698440552,
      -0.005415864754468203,
      -0.8895609378814697,
      -1.1937284469604492,
      -0.9109907150268555,
      -0.398505300283432,
      0.10907358676195145,
      -0.8986075520515442,
      0.5374093651771545,
      0.41796499490737915,
      -0.44813528656959534,
      0.05700073391199112,
      -0.6607117056846619,
      -0.0732550397515297,
      -0.06490769237279892,
      -0.052651017904281616,
      0.6034110188484192,
      0.2045322209596634,
      -1.0125752687454224,
      -0.10799211263656616
    ],
    [
      -0.12226343899965286,
      0.23941963911056519,
      -0.11036182940006256,
      -0.20153144001960754,
      -0.020130852237343788,
      0.03693922981619835,
      0.09946111589670181,
      -0.10769293457269669,
      -0.11405770480632782,
      -0.013184646144509315,
      0.1917327493429184,
      0.05079692229628563,
      -0.11507727950811386,
      0.1244196891784668,
      0.09199122339487076,
      -0.0587097704410553,
      0.05603650212287903,
      0.09332459419965744,
      -0.03987876698374748,
      0.03651144355535507,
      0.030615927651524544,
      -0.07635258138179779,
      -0.013056527823209763,
      -0.12799817323684692,
      -0.033449687063694,
      -0.08053778856992722,
      -0.059513870626688004,
      -0.05220653489232063,
      0.06592835485935211,
      0.10225656628608704,
      -0.15179334580898285,
      -0.10898984968662262,
      0.02875775843858719,
      -0.007587550673633814,
      0.03189370408654213,
      -0.1596924364566803,
      0.1323990523815155,
      -0.15490715205669403,
      -0.0792788490653038,
      -0.029636641964316368,
      -0.2157852202653885,
      0.055587850511074066,
      -0.12936758995056152,
      0.11000547558069229,
      -0.0707884356379509,
      -0.005410042125731707,
      -0.03215250372886658,
      -0.16654808819293976,
      0.07255053520202637,
      -0.11598687618970871,
      -0.07317610085010529,
      -0.211393341422081,
      0.22159749269485474,
      -0.030190473422408104,
      -0.17803701758384705,
      -0.01512412540614605,
      -0.02406276762485504,
      -0.14919006824493408,
      -0.0953693762421608,
      0.1695331186056137,
      0.14360876381397247,
      0.020010696724057198,
      -0.03740360587835312,
      -0.19682428240776062
    ],
    [
      -0.02388431690633297,
      -0.09185566008090973,
      -0.0761360228061676,
      -0.028792619705200195,
      0.039841897785663605,
      0.010282577015459538,
      0.11822284758090973,
      -0.07219060510396957,
      -0.07336422055959702,
      -0.013212071731686592,
      -0.011612199246883392,
      -0.11884306371212006,
      -0.08061429113149643,
      0.030088888481259346,
      0.012535128742456436,
      -0.07079943269491196,
      0.05500026047229767,
      0.024111980572342873,
      0.05317419022321701,
      -0.053017158061265945,
      -0.10046651214361191,
      -0.06445875018835068,
      -0.028219496831297874,
      -0.03289986029267311,
      0.09971202909946442,
      -0.011564378626644611,
      0.08979523926973343,
      0.03172188997268677,
      0.010568224824965,
      0.06636518985033035,
      -0.02327607199549675,
      -0.04251030832529068,
      -0.039089493453502655,
      -0.08043065667152405,
      -0.05609944090247154,
      -0.03028663992881775,
      0.11305249482393265,
      -0.03294149041175842,
      0.09622938930988312,
      -0.057796791195869446,
      0.1453225314617157,
      0.06513352692127228,
      -0.08456248790025711,
      -0.03091614693403244,
      -0.02458377182483673,
      0.08216007798910141,
      0.015822576358914375,
      0.10517893731594086,
      0.09698156267404556,
      0.1135065034031868,
      0.034305717796087265,
      -0.06888806074857712,
      -0.11851227283477783,
      -0.09715711325407028,
      -0.03369055688381195,
      -0.023907016962766647,
      0.0060143847949802876,
      -0.07093851268291473,
      -0.031581368297338486,
      -0.013030951842665672,
      -0.04491015896201134,
      0.04104398563504219,
      0.0653078630566597,
      0.06567555665969849
    ],
    [
      -0.15035894513130188,
      -0.33767563104629517,
      -0.04073220491409302,
      -0.11845829337835312,
      -0.133027121424675,
      0.21956658363342285,
      0.14297181367874146,
      0.10858296602964401,
      0.04454151168465614,
      0.07600534707307816,
      0.0963708683848381,
      -0.17551222443580627,
      -0.030026042833924294,
      0.1751786768436432,
      -0.21445631980895996,
      -0.2142169177532196,
      -0.19550344347953796,
      0.03858523815870285,
      0.09515528380870819,
      0.1088474839925766,
      0.006936391815543175,
      -0.10039576888084412,
      -0.04250044375658035,
      -0.0516548715531826,
      0.06837182492017746,
      -0.21781346201896667,
      0.10384152084589005,
      -0.2406318634748459,
      -0.14939023554325104,
      0.1887449026107788,
      0.001980407861992717,
      0.06950031965970993,
      0.1395351141691208,
      -0.20548804104328156,
      0.14963483810424805,
      -0.13980785012245178,
      -0.18180690705776215,
      -0.20836560428142548,
      -0.18455353379249573,
      -0.03093031793832779,
      -0.07110200077295303,
      0.08345580101013184,
      0.12385077774524689,
      0.17892873287200928,
      -0.08920972049236298,
      0.1282878965139389,
      -0.03145803138613701,
      -0.17607179284095764,
      -0.21508748829364777,
      -0.1835036724805832,
      0.0528186671435833,
      -0.0924164205789566,
      -0.0007936663459986448,
      0.007324558682739735,
      0.03826058655977249,
      -0.04968251660466194,
      -0.2148783653974533,
      -0.04555046930909157,
      0.17408663034439087,
      -0.035970523953437805,
      0.20926415920257568,
      0.27339982986450195,
      -0.17562459409236908,
      -0.0025680148974061012
    ],
    [
      -0.16045264899730682,
      0.14380691945552826,
      0.034331947565078735,
      0.020985715091228485,
      -0.07016322016716003,
      -0.21933968365192413,
      0.18647415935993195,
      -0.06809891015291214,
      0.0623219832777977,
      -0.0009756218059919775,
      -0.1881958693265915,
      0.10460986942052841,
      -0.03395708277821541,
      0.020331326872110367,
      -0.05039580538868904,
      -0.05444332957267761,
      -0.11717081815004349,
      0.18356257677078247,
      -0.13282151520252228,
      -0.034143976867198944,
      0.026377880945801735,
      0.0003306537983007729,
      0.02582200989127159,
      -0.24582116305828094,
      -0.14706118404865265,
      -0.02416912652552128,
      0.2531740367412567,
      -0.03223312273621559,
      0.06920929253101349,
      -0.01730315014719963,
      -0.2398071587085724,
      -0.06726130098104477,
      -0.03534994274377823,
      0.053406957536935806,
      -0.1589221954345703,
      -0.1288311928510666,
      0.03966399282217026,
      -0.1663827747106552,
      0.12310909479856491,
      0.016905125230550766,
      -0.1084330752491951,
      -0.046457670629024506,
      -0.11800356209278107,
      -0.3405066430568695,
      -0.004307383671402931,
      -0.23238244652748108,
      -0.008754177019000053,
      -0.1093054860830307,
      -0.030870025977492332,
      -0.15755188465118408,
      0.35474294424057007,
      -0.12544788420200348,
      0.10305777192115784,
      -0.050191719084978104,
      -0.22795386612415314,
      0.09310617297887802,
      0.0403987392783165,
      -0.3183479309082031,
      -0.09623847156763077,
      -0.06265904754400253,
      -0.058302875608205795,
      -0.18813928961753845,
      -0.13334032893180847,
      -0.20212799310684204
    ],
    [
      -0.3461294174194336,
      -0.2330460548400879,
      -0.10457863658666611,
      0.045769792050123215,
      -0.24730226397514343,
      0.07500927895307541,
      0.2203827202320099,
      0.08660274744033813,
      -0.14701949059963226,
      -0.09472908079624176,
      0.01403147354722023,
      -0.1071765124797821,
      -0.13962599635124207,
      0.14655017852783203,
      -0.009910877794027328,
      -0.037916045635938644,
      -0.23676642775535583,
      0.038771454244852066,
      -0.13762184977531433,
      0.015704628080129623,
      0.0409611277282238,
      -0.18602782487869263,
      -0.056389570236206055,
      -0.22260993719100952,
      0.10526895523071289,
      -0.3026127815246582,
      0.08498357236385345,
      -0.2999159097671509,
      -0.09920456260442734,
      0.013914891518652439,
      0.025882303714752197,
      0.0341653972864151,
      -0.037766046822071075,
      -0.20107616484165192,
      0.01091801468282938,
      -0.28977951407432556,
      -0.302776962518692,
      -0.12411792576313019,
      -0.17318792641162872,
      0.0008071277989074588,
      -0.05372863635420799,
      0.07577528804540634,
      0.01393834874033928,
      0.12156384438276291,
      -0.13081768155097961,
      0.1594274640083313,
      -0.17323701083660126,
      -0.3357997238636017,
      -0.2564517557621002,
      -0.28143075108528137,
      0.18361857533454895,
      -0.14375394582748413,
      0.13018789887428284,
      0.035546377301216125,
      0.013169503770768642,
      0.04424784705042839,
      -0.18690957129001617,
      0.11365031450986862,
      -0.002756996313109994,
      0.09143996238708496,
      0.10506844520568848,
      0.005186034366488457,
      -0.25059330463409424,
      -0.014139816164970398
    ],
    [
      -0.001219347701407969,
      0.0319298692047596,
      0.14712977409362793,
      0.09680134803056717,
      -0.20509128272533417,
      -0.1655268371105194,
      0.03486798703670502,
      -0.027269279584288597,
      -0.09138813614845276,
      -0.01406862586736679,
      -0.22253520786762238,
      -0.0012614408042281866,
      0.04532391205430031,
      -0.0634634867310524,
      0.0063821254298090935,
      -0.003831377485767007,
      -0.18156348168849945,
      0.09187828004360199,
      -0.050923243165016174,
      0.08696477860212326,
      0.12774930894374847,
      0.01876404881477356,
      0.07914725691080093,
      -0.17869716882705688,
      -0.0849706307053566,
      -0.06269150972366333,
      0.25230228900909424,
      -0.17694731056690216,
      -0.13745738565921783,
      0.13845276832580566,
      -0.2595176696777344,
      -0.11052975058555603,
      -0.14544247090816498,
      -0.15231572091579437,
      -0.07249021530151367,
      -0.07399052381515503,
      -0.03465621545910835,
      -0.1331300139427185,
      -0.06287683546543121,
      -0.1882035881280899,
      0.02445543184876442,
      -0.16103945672512054,
      -0.15037097036838531,
      -0.09908731281757355,
      -0.052702389657497406,
      -0.2163802534341812,
      -0.14712810516357422,
      0.028901994228363037,
      -0.11764845997095108,
      -0.10842813551425934,
      0.2335653454065323,
      -0.034934062510728836,
      0.04215811565518379,
      -0.015531221404671669,
      -0.21400828659534454,
      0.016468368470668793,
      0.017062902450561523,
      -0.07161704450845718,
      -0.20189203321933746,
      0.05419648811221123,
      0.025209007784724236,
      -0.1259877234697342,
      -0.05590391904115677,
      -0.08125876635313034
    ],
    [
      -0.28971630334854126,
      0.145206481218338,
      -0.14433902502059937,
      0.1944250613451004,
      -0.10872992128133774,
      0.2850295305252075,
      0.6433996558189392,
      0.48235976696014404,
      -0.2455137073993683,
      0.1497017741203308,
      0.2915100157260895,
      -0.07086902111768723,
      -0.5447491407394409,
      0.39690685272216797,
      -0.10595604032278061,
      -0.395845502614975,
      -0.5523222088813782,
      0.07691066712141037,
      0.4337184727191925,
      -0.09974219650030136,
      0.3379647731781006,
      -0.4212663769721985,
      0.015782592818140984,
      -0.11683837324380875,
      0.1639268696308136,
      -0.18714970350265503,
      0.11687475442886353,
      -0.5491209030151367,
      -0.02249092049896717,
      0.10945131629705429,
      0.1276101917028427,
      0.14548848569393158,
      0.46083080768585205,
      -0.5355360507965088,
      0.25550487637519836,
      -0.834135890007019,
      -0.2617143988609314,
      -0.330498069524765,
      -0.24123352766036987,
      0.3867327868938446,
      0.016688469797372818,
      0.44433072209358215,
      0.21533024311065674,
      0.4022318124771118,
      -0.725609302520752,
      0.4023163616657257,
      -0.5760228037834167,
      -0.6634312272071838,
      -0.5421644449234009,
      -0.3807881772518158,
      0.28233471512794495,
      -0.40353143215179443,
      0.11135253310203552,
      0.18990126252174377,
      -0.1316925436258316,
      0.15420489013195038,
      -0.1856069415807724,
      0.16451416909694672,
      0.300672709941864,
      -0.001046128454618156,
      0.3138658106327057,
      0.3283582925796509,
      -0.6477352976799011,
      0.25392284989356995
    ],
    [
      -0.08077660948038101,
      -0.04220504313707352,
      -0.0758795216679573,
      0.07496543973684311,
      -0.059491775929927826,
      0.04356609657406807,
      -0.0805203765630722,
      -0.08756814152002335,
      0.04911382496356964,
      -0.1330735683441162,
      -0.07618922740221024,
      -0.002469340106472373,
      0.137583926320076,
      -0.007465197239071131,
      -0.05383818596601486,
      -0.06800452619791031,
      0.005136333871632814,
      0.005450975149869919,
      0.007170232944190502,
      0.14638005197048187,
      -0.05746262148022652,
      -0.0639689564704895,
      -0.09862913191318512,
      0.001581368618644774,
      0.10828077048063278,
      -0.05464359372854233,
      -0.05597284808754921,
      0.024136129766702652,
      0.09050963819026947,
      0.12066853791475296,
      -0.04509790986776352,
      -0.028680654242634773,
      -0.018809672445058823,
      0.09383547306060791,
      0.05185110494494438,
      -0.10548056662082672,
      0.10078772157430649,
      -0.07987652719020844,
      -0.0063478536903858185,
      0.08181813359260559,
      0.1303698569536209,
      -0.1400054544210434,
      -0.09025143086910248,
      0.06862674653530121,
      -0.009405565448105335,
      0.024034496396780014,
      -0.05069465562701225,
      0.013111870735883713,
      0.07211741805076599,
      0.039476923644542694,
      0.028223730623722076,
      0.07639152556657791,
      0.10184448212385178,
      -0.11648361384868622,
      0.10411768406629562,
      -0.07911351323127747,
      0.08929631859064102,
      -0.09607505798339844,
      0.05499960109591484,
      -0.026849567890167236,
      0.0458892285823822,
      -0.09269197285175323,
      -0.07157963514328003,
      -0.09068100899457932
    ],
    [
      0.03107132576406002,
      -0.008140912279486656,
      -0.03563928231596947,
      -0.03398323804140091,
      0.05375082418322563,
      -0.010993106290698051,
      0.032042257487773895,
      -0.07066186517477036,
      0.007570622023195028,
      0.08330089598894119,
      -0.06647433340549469,
      0.04908066987991333,
      0.003958641551434994,
      -0.014940198510885239,
      0.04098682850599289,
      0.013182655908167362,
      0.12724310159683228,
      -0.013269548304378986,
      -0.005799219477921724,
      0.047714073210954666,
      -0.07222195714712143,
      -0.08990196883678436,
      0.10624323785305023,
      0.10054310411214828,
      -0.051955051720142365,
      -0.03956155478954315,
      -0.06548186391592026,
      -0.09995760023593903,
      -0.10069222748279572,
      -0.04764014855027199,
      0.004194640088826418,
      0.11140330135822296,
      -0.07517953217029572,
      -0.09564264118671417,
      0.11794039607048035,
      -0.0520164854824543,
      0.08908871561288834,
      -0.05246403068304062,
      0.08623296022415161,
      -0.048167403787374496,
      0.017172135412693024,
      0.0036612909752875566,
      0.09022891521453857,
      0.01255706138908863,
      0.06318987160921097,
      0.04369223490357399,
      0.07375716418027878,
      -0.08451981842517853,
      -0.018361182883381844,
      -0.02674880437552929,
      -0.030549459159374237,
      -0.0001082827802747488,
      0.04395715147256851,
      -0.02217612788081169,
      0.005055373068898916,
      -0.04135717824101448,
      0.12856288254261017,
      0.017854727804660797,
      -0.04527755081653595,
      0.024725785478949547,
      0.0018670125864446163,
      -0.03694185987114906,
      -0.07953795045614243,
      0.036839891225099564
    ],
    [
      0.049759119749069214,
      0.006708444561809301,
      0.018005793914198875,
      -0.08355898410081863,
      -0.04591650515794754,
      0.10256858915090561,
      -0.05510347709059715,
      -0.006172121502459049,
      0.01815887726843357,
      -0.037382397800683975,
      -0.0016390690580010414,
      0.026472022756934166,
      0.06511005014181137,
      -0.11545328050851822,
      -0.08305783569812775,
      0.026524093002080917,
      0.009264672175049782,
      -0.1316230148077011,
      0.0661037415266037,
      -0.07697784900665283,
      -0.005865591112524271,
      -0.10160451382398605,
      0.004755503032356501,
      -0.006335259880870581,
      -0.04861773923039436,
      -0.0661948099732399,
      -0.019174478948116302,
      -0.06119623780250549,
      0.021432286128401756,
      0.018576456233859062,
      -0.06864001601934433,
      0.0036110468208789825,
      -0.04135633260011673,
      -0.0539245679974556,
      -0.037277791649103165,
      -0.10653898119926453,
      0.09469352662563324,
      -0.001960298279300332,
      -0.04651932790875435,
      0.011569702997803688,
      0.08309291303157806,
      0.08669105172157288,
      0.03258734941482544,
      0.03179420530796051,
      0.03547104075551033,
      0.09838718175888062,
      0.0735895186662674,
      -0.10166037827730179,
      0.06740359961986542,
      0.010081816464662552,
      0.032739050686359406,
      0.060645196586847305,
      0.1228024810552597,
      -0.1028117761015892,
      -0.025038842111825943,
      0.10232587158679962,
      -0.04896034672856331,
      -0.06321496516466141,
      0.05787872523069382,
      0.009187517687678337,
      -0.07180856168270111,
      -0.04971127584576607,
      0.08184260129928589,
      0.0870436355471611
    ],
    [
      -0.04272506758570671,
      0.13205476105213165,
      0.06558164209127426,
      0.06371686607599258,
      0.11009237170219421,
      -0.07851257175207138,
      -0.0606963187456131,
      -0.07865948975086212,
      -0.09080572426319122,
      -0.017703335732221603,
      -0.09536953270435333,
      -0.06366323679685593,
      0.025174451991915703,
      0.15958601236343384,
      -0.10029076039791107,
      -0.0922783836722374,
      -0.014744126237928867,
      0.08141429722309113,
      0.07610754668712616,
      -0.0028598953504115343,
      -0.04919840767979622,
      0.01991567760705948,
      -0.022492945194244385,
      0.04322286322712898,
      -0.03950843960046768,
      0.11431712657213211,
      0.04600413516163826,
      -0.0543176643550396,
      0.12229540199041367,
      -0.003225728403776884,
      -0.08891058713197708,
      0.09002181887626648,
      0.08202182501554489,
      -0.04198354855179787,
      -0.08002655953168869,
      -0.007367389742285013,
      -0.055259741842746735,
      0.03644752874970436,
      -0.031024618074297905,
      -0.09442465007305145,
      0.018262570723891258,
      0.1195143610239029,
      -0.01894577592611313,
      -0.015404968522489071,
      -0.10659579932689667,
      -0.010035029612481594,
      -0.0742708370089531,
      0.0810651108622551,
      0.02192862331867218,
      -0.09195242077112198,
      -0.072556272149086,
      -0.006044814363121986,
      0.09290054440498352,
      -0.009370537474751472,
      0.11178428679704666,
      -0.044028084725141525,
      -0.007292351219803095,
      -0.006546923890709877,
      0.015616122633218765,
      0.2332068830728531,
      -0.08148353546857834,
      -0.07906661182641983,
      -0.06963905692100525,
      0.03462870046496391
    ],
    [
      0.0637202262878418,
      -0.11733805388212204,
      0.00861784815788269,
      0.06623580306768417,
      -0.12418290227651596,
      -0.04786813631653786,
      0.13369494676589966,
      -0.1197570264339447,
      0.019498519599437714,
      0.14355412125587463,
      -0.0034159671049565077,
      0.07907865941524506,
      -0.15309402346611023,
      -0.08396239578723907,
      0.01595146954059601,
      -0.011259258724749088,
      0.07808712869882584,
      0.02012518420815468,
      -0.09955591708421707,
      -0.04028971493244171,
      0.14496316015720367,
      0.058276478201150894,
      0.018591009080410004,
      0.04011712595820427,
      0.0595126710832119,
      -0.10487116873264313,
      0.10915274173021317,
      0.005660210270434618,
      0.20244398713111877,
      -0.05021168291568756,
      0.031492311507463455,
      -0.09888657182455063,
      0.025038985535502434,
      -0.07211808115243912,
      -0.043845321983098984,
      0.08381324261426926,
      0.02069053240120411,
      -0.006544404663145542,
      0.08739723265171051,
      -0.08356505632400513,
      -0.07631085067987442,
      -0.005179612897336483,
      0.034409299492836,
      0.003364001400768757,
      0.03653927519917488,
      0.1080218255519867,
      0.005243806634098291,
      -0.00026120792608708143,
      0.057239606976509094,
      0.10590796172618866,
      -0.0491432324051857,
      -0.09661249071359634,
      -0.035876672714948654,
      -0.13333247601985931,
      -0.07686682790517807,
      -0.035252369940280914,
      0.004701161757111549,
      0.04160311073064804,
      0.055557649582624435,
      0.1357671618461609,
      0.03456100821495056,
      -0.07814325392246246,
      -0.1639975756406784,
      -0.04646478593349457
    ],
    [
      0.07020919770002365,
      -0.10757294297218323,
      0.0015181686030700803,
      -0.08511903882026672,
      -0.08889178931713104,
      -0.05443963408470154,
      0.1809196025133133,
      -0.038689304143190384,
      -0.057600103318691254,
      -0.10629525035619736,
      -0.07122797518968582,
      -0.0023025290574878454,
      0.0934009701013565,
      0.07182103395462036,
      0.01989932358264923,
      0.005524304695427418,
      0.11915422230958939,
      -0.05807371810078621,
      -0.06220823526382446,
      0.10207892954349518,
      0.07310519367456436,
      0.10086409002542496,
      -0.006494792178273201,
      -0.13958914577960968,
      -0.004485905170440674,
      -0.04416366666555405,
      -0.10457275807857513,
      0.10516617447137833,
      0.051977939903736115,
      0.06962256878614426,
      0.02529289945960045,
      0.005953765008598566,
      -0.012465356849133968,
      -0.01495148055255413,
      0.004061958286911249,
      -0.0900634303689003,
      -0.04186037927865982,
      0.07405032962560654,
      -0.11488796770572662,
      -0.011749637313187122,
      -0.19160844385623932,
      -0.03397388756275177,
      0.08341317623853683,
      -0.012680519372224808,
      -0.085812509059906,
      0.012900619767606258,
      0.08957763761281967,
      0.03756309300661087,
      0.12491977959871292,
      -0.029158439487218857,
      0.15658517181873322,
      0.009196614846587181,
      0.035298243165016174,
      -0.0924154743552208,
      -0.012652743607759476,
      -0.09786850959062576,
      0.023457461968064308,
      -0.03406686708331108,
      -0.011912514455616474,
      0.009463826194405556,
      -0.019482240080833435,
      0.04323660209774971,
      0.0326925665140152,
      -0.12076475471258163
    ],
    [
      0.010060936212539673,
      -0.12603673338890076,
      0.09721986949443817,
      -0.1099606603384018,
      0.06434300541877747,
      -0.11462822556495667,
      0.03398503363132477,
      0.12156569957733154,
      0.10755738615989685,
      -0.0821010023355484,
      -0.062055181711912155,
      0.028618477284908295,
      -0.05337909236550331,
      0.06467526406049728,
      0.12544097006320953,
      -0.031883686780929565,
      -0.06978180259466171,
      -0.03059753030538559,
      -0.07619684189558029,
      -0.11501297354698181,
      0.08405722677707672,
      0.03433499112725258,
      0.046548377722501755,
      -0.013195086270570755,
      0.012385154142975807,
      -0.08351277559995651,
      -0.048722218722105026,
      -0.07706869393587112,
      -0.008207165636122227,
      -0.01697714254260063,
      0.01642380654811859,
      -0.039005860686302185,
      -0.06721074879169464,
      -0.0485994815826416,
      0.049506209790706635,
      0.06267718970775604,
      0.06126038357615471,
      -0.08563145995140076,
      0.06741660088300705,
      -0.05793118476867676,
      0.02561735361814499,
      0.12241137027740479,
      0.08723790943622589,
      -0.005061451345682144,
      0.07867328822612762,
      0.004302118439227343,
      0.12749947607517242,
      0.12388143688440323,
      -0.08000557124614716,
      0.11822086572647095,
      0.11754824966192245,
      -0.09769627451896667,
      0.1204804927110672,
      -0.12789420783519745,
      0.04365570843219757,
      0.03209521621465683,
      0.054841335862874985,
      -0.03349093720316887,
      -0.06426441669464111,
      -0.015695491805672646,
      0.10170674324035645,
      -0.06238821893930435,
      0.0632440522313118,
      0.12612560391426086
    ],
    [
      -0.09154821932315826,
      -0.023886166512966156,
      0.16510602831840515,
      0.13358230888843536,
      0.014439329504966736,
      -0.2935381233692169,
      -0.04579939320683479,
      -0.09998886287212372,
      0.039473190903663635,
      -0.12572048604488373,
      -0.18098533153533936,
      0.12730921804904938,
      0.05997553840279579,
      2.1628598915413022e-05,
      0.1261076182126999,
      -0.0166450385004282,
      -0.14584176242351532,
      0.11379153281450272,
      -0.08731445670127869,
      -0.01043795421719551,
      0.11843902617692947,
      0.0022112210281193256,
      -0.06645479798316956,
      -0.2022509127855301,
      -0.07917805761098862,
      -0.2010439932346344,
      0.2828303277492523,
      0.06414052098989487,
      0.004337124526500702,
      0.1985257863998413,
      -0.192011758685112,
      -0.08398717641830444,
      -0.04956221580505371,
      0.09283638000488281,
      -0.20244619250297546,
      -0.1263500452041626,
      -0.14359170198440552,
      -0.24035939574241638,
      0.16327302157878876,
      -0.02638988569378853,
      0.02462102472782135,
      -0.21290373802185059,
      -0.22588790953159332,
      -0.34557968378067017,
      -0.04824671894311905,
      -0.33780437707901,
      0.01247448194772005,
      -0.14440464973449707,
      0.06547757238149643,
      -0.07304032891988754,
      0.3480781018733978,
      -0.25419509410858154,
      -0.12515197694301605,
      0.0911831483244896,
      -0.31977617740631104,
      0.06255199760198593,
      0.11708588898181915,
      -0.3447166681289673,
      -0.268863320350647,
      -0.012489871121942997,
      -0.038586050271987915,
      -0.09114830940961838,
      -0.14470474421977997,
      -0.08199330419301987
    ],
    [
      0.030131056904792786,
      0.14042015373706818,
      -0.18076331913471222,
      0.0006261786329559982,
      -0.016478564590215683,
      0.3194129467010498,
      0.23737764358520508,
      0.13052935898303986,
      0.022316962480545044,
      0.19346429407596588,
      -0.08651487529277802,
      0.1365465521812439,
      0.0699923038482666,
      0.3958624005317688,
      0.19626860320568085,
      -0.11402835696935654,
      0.10243852436542511,
      -0.02647506073117256,
      -0.021180810406804085,
      -0.24190421402454376,
      0.14706774055957794,
      -0.07838602364063263,
      -0.00787552259862423,
      0.12771664559841156,
      0.2854257822036743,
      0.14162437617778778,
      -0.06880136579275131,
      0.05557532608509064,
      0.023477716371417046,
      -0.1168227568268776,
      0.15969271957874298,
      0.24386408925056458,
      -0.13232311606407166,
      -0.08447650820016861,
      0.1673724204301834,
      0.09421270340681076,
      0.18531358242034912,
      -0.04619905725121498,
      -0.10676228255033493,
      0.1963164210319519,
      -0.031405359506607056,
      0.19947467744350433,
      0.21601301431655884,
      0.35004863142967224,
      0.017608359456062317,
      0.16454169154167175,
      0.07430445402860641,
      0.09245451539754868,
      -0.11352452635765076,
      0.07584153115749359,
      -0.16180367767810822,
      0.06061501428484917,
      -0.04739084094762802,
      -0.13639919459819794,
      0.08219797909259796,
      0.30617275834083557,
      0.039543651044368744,
      0.2682080864906311,
      0.34876033663749695,
      0.023906517773866653,
      0.02622295543551445,
